FANN_FLO_2.1
num_layers=3
learning_rate=0.700000
connection_rate=1.000000
network_type=0
learning_momentum=0.000000
training_algorithm=3
train_error_function=1
train_stop_function=0
cascade_output_change_fraction=0.010000
quickprop_decay=-0.000100
quickprop_mu=1.750000
rprop_increase_factor=1.200000
rprop_decrease_factor=0.500000
rprop_delta_min=0.000000
rprop_delta_max=50.000000
rprop_delta_zero=0.100000
cascade_output_stagnation_epochs=12
cascade_candidate_change_fraction=0.010000
cascade_candidate_stagnation_epochs=12
cascade_max_out_epochs=150
cascade_max_cand_epochs=150
cascade_num_candidate_groups=2
bit_fail_limit=3.49999994039535520000e-001
cascade_candidate_limit=1.00000000000000000000e+003
cascade_weight_multiplier=4.00000005960464480000e-001
cascade_activation_functions_count=10
cascade_activation_functions=3 5 7 8 10 11 14 15 16 17 
cascade_activation_steepnesses_count=4
cascade_activation_steepnesses=2.50000000000000000000e-001 5.00000000000000000000e-001 7.50000000000000000000e-001 1.00000000000000000000e+000 
layer_sizes=129 9 3 
scale_included=0
neurons (num_inputs, activation_function, activation_steepness)=(0, 0, 0.00000000000000000000e+000) (0, 0, 0.00000000000000000000e+000) (0, 0, 0.00000000000000000000e+000) (0, 0, 0.00000000000000000000e+000) (0, 0, 0.00000000000000000000e+000) (0, 0, 0.00000000000000000000e+000) (0, 0, 0.00000000000000000000e+000) (0, 0, 0.00000000000000000000e+000) (0, 0, 0.00000000000000000000e+000) (0, 0, 0.00000000000000000000e+000) (0, 0, 0.00000000000000000000e+000) (0, 0, 0.00000000000000000000e+000) (0, 0, 0.00000000000000000000e+000) (0, 0, 0.00000000000000000000e+000) (0, 0, 0.00000000000000000000e+000) (0, 0, 0.00000000000000000000e+000) (0, 0, 0.00000000000000000000e+000) (0, 0, 0.00000000000000000000e+000) (0, 0, 0.00000000000000000000e+000) (0, 0, 0.00000000000000000000e+000) (0, 0, 0.00000000000000000000e+000) (0, 0, 0.00000000000000000000e+000) (0, 0, 0.00000000000000000000e+000) (0, 0, 0.00000000000000000000e+000) (0, 0, 0.00000000000000000000e+000) (0, 0, 0.00000000000000000000e+000) (0, 0, 0.00000000000000000000e+000) (0, 0, 0.00000000000000000000e+000) (0, 0, 0.00000000000000000000e+000) (0, 0, 0.00000000000000000000e+000) (0, 0, 0.00000000000000000000e+000) (0, 0, 0.00000000000000000000e+000) (0, 0, 0.00000000000000000000e+000) (0, 0, 0.00000000000000000000e+000) (0, 0, 0.00000000000000000000e+000) (0, 0, 0.00000000000000000000e+000) (0, 0, 0.00000000000000000000e+000) (0, 0, 0.00000000000000000000e+000) (0, 0, 0.00000000000000000000e+000) (0, 0, 0.00000000000000000000e+000) (0, 0, 0.00000000000000000000e+000) (0, 0, 0.00000000000000000000e+000) (0, 0, 0.00000000000000000000e+000) (0, 0, 0.00000000000000000000e+000) (0, 0, 0.00000000000000000000e+000) (0, 0, 0.00000000000000000000e+000) (0, 0, 0.00000000000000000000e+000) (0, 0, 0.00000000000000000000e+000) (0, 0, 0.00000000000000000000e+000) (0, 0, 0.00000000000000000000e+000) (0, 0, 0.00000000000000000000e+000) (0, 0, 0.00000000000000000000e+000) (0, 0, 0.00000000000000000000e+000) (0, 0, 0.00000000000000000000e+000) (0, 0, 0.00000000000000000000e+000) (0, 0, 0.00000000000000000000e+000) (0, 0, 0.00000000000000000000e+000) (0, 0, 0.00000000000000000000e+000) (0, 0, 0.00000000000000000000e+000) (0, 0, 0.00000000000000000000e+000) (0, 0, 0.00000000000000000000e+000) (0, 0, 0.00000000000000000000e+000) (0, 0, 0.00000000000000000000e+000) (0, 0, 0.00000000000000000000e+000) (0, 0, 0.00000000000000000000e+000) (0, 0, 0.00000000000000000000e+000) (0, 0, 0.00000000000000000000e+000) (0, 0, 0.00000000000000000000e+000) (0, 0, 0.00000000000000000000e+000) (0, 0, 0.00000000000000000000e+000) (0, 0, 0.00000000000000000000e+000) (0, 0, 0.00000000000000000000e+000) (0, 0, 0.00000000000000000000e+000) (0, 0, 0.00000000000000000000e+000) (0, 0, 0.00000000000000000000e+000) (0, 0, 0.00000000000000000000e+000) (0, 0, 0.00000000000000000000e+000) (0, 0, 0.00000000000000000000e+000) (0, 0, 0.00000000000000000000e+000) (0, 0, 0.00000000000000000000e+000) (0, 0, 0.00000000000000000000e+000) (0, 0, 0.00000000000000000000e+000) (0, 0, 0.00000000000000000000e+000) (0, 0, 0.00000000000000000000e+000) (0, 0, 0.00000000000000000000e+000) (0, 0, 0.00000000000000000000e+000) (0, 0, 0.00000000000000000000e+000) (0, 0, 0.00000000000000000000e+000) (0, 0, 0.00000000000000000000e+000) (0, 0, 0.00000000000000000000e+000) (0, 0, 0.00000000000000000000e+000) (0, 0, 0.00000000000000000000e+000) (0, 0, 0.00000000000000000000e+000) (0, 0, 0.00000000000000000000e+000) (0, 0, 0.00000000000000000000e+000) (0, 0, 0.00000000000000000000e+000) (0, 0, 0.00000000000000000000e+000) (0, 0, 0.00000000000000000000e+000) (0, 0, 0.00000000000000000000e+000) (0, 0, 0.00000000000000000000e+000) (0, 0, 0.00000000000000000000e+000) (0, 0, 0.00000000000000000000e+000) (0, 0, 0.00000000000000000000e+000) (0, 0, 0.00000000000000000000e+000) (0, 0, 0.00000000000000000000e+000) (0, 0, 0.00000000000000000000e+000) (0, 0, 0.00000000000000000000e+000) (0, 0, 0.00000000000000000000e+000) (0, 0, 0.00000000000000000000e+000) (0, 0, 0.00000000000000000000e+000) (0, 0, 0.00000000000000000000e+000) (0, 0, 0.00000000000000000000e+000) (0, 0, 0.00000000000000000000e+000) (0, 0, 0.00000000000000000000e+000) (0, 0, 0.00000000000000000000e+000) (0, 0, 0.00000000000000000000e+000) (0, 0, 0.00000000000000000000e+000) (0, 0, 0.00000000000000000000e+000) (0, 0, 0.00000000000000000000e+000) (0, 0, 0.00000000000000000000e+000) (0, 0, 0.00000000000000000000e+000) (0, 0, 0.00000000000000000000e+000) (0, 0, 0.00000000000000000000e+000) (0, 0, 0.00000000000000000000e+000) (0, 0, 0.00000000000000000000e+000) (0, 0, 0.00000000000000000000e+000) (0, 0, 0.00000000000000000000e+000) (0, 0, 0.00000000000000000000e+000) (0, 0, 0.00000000000000000000e+000) (129, 4, 1.10000002384185790000e+000) (129, 4, 1.10000002384185790000e+000) (129, 4, 1.10000002384185790000e+000) (129, 4, 1.10000002384185790000e+000) (129, 4, 1.10000002384185790000e+000) (129, 4, 1.10000002384185790000e+000) (129, 4, 1.10000002384185790000e+000) (129, 4, 1.10000002384185790000e+000) (0, 4, 1.10000002384185790000e+000) (9, 5, 1.00000000000000000000e+000) (9, 5, 1.00000000000000000000e+000) (0, 5, 1.00000000000000000000e+000) 
connections (connected_to_neuron, weight)=(0, 6.17676749825477600000e-002) (1, 6.80073536932468410000e-003) (2, 1.03534393012523650000e-001) (3, 6.11237883567810060000e-002) (4, 1.18912369012832640000e-001) (5, -2.24922429770231250000e-002) (6, -1.11533207818865780000e-002) (7, 1.42006963491439820000e-001) (8, -5.04214651882648470000e-002) (9, 1.18962757289409640000e-001) (10, 4.37907911837100980000e-002) (11, 7.09572359919548030000e-002) (12, -7.47724920511245730000e-002) (13, 5.88036440312862400000e-002) (14, -2.44847033172845840000e-002) (15, -2.26090177893638610000e-002) (16, 1.41538558527827260000e-002) (17, -7.73501619696617130000e-002) (18, 7.10707902908325200000e-002) (19, 6.98699504137039180000e-002) (20, 9.08417254686355590000e-002) (21, -6.11318685114383700000e-002) (22, -6.06005370616912840000e-001) (23, -9.83645677566528320000e-001) (24, 1.47446542978286740000e-001) (25, -3.72910231351852420000e-001) (26, -2.27965921163558960000e-001) (27, -3.70086312294006350000e-001) (28, 7.83060431480407710000e-001) (29, 5.36258816719055180000e-002) (30, -9.58526507019996640000e-003) (31, 2.13746465742588040000e-002) (32, -3.30518297851085660000e-002) (33, 2.11590062826871870000e-002) (34, 3.56270372867584230000e-003) (35, 5.80825516954064370000e-003) (36, 4.72247973084449770000e-002) (37, 2.58461147546768190000e-001) (38, -7.59633490815758710000e-003) (39, -2.05063670873641970000e-002) (40, 2.13668793439865110000e-002) (41, 6.37530088424682620000e-002) (42, -3.30638326704502110000e-002) (43, -3.79387475550174710000e-002) (44, -9.54650808125734330000e-003) (45, -3.69385853409767150000e-002) (46, 5.34580610692501070000e-002) (47, 1.25631958246231080000e-001) (48, -5.20101049914956090000e-003) (49, -2.15991176664829250000e-002) (50, 6.61096200346946720000e-002) (51, 8.62991064786911010000e-002) (52, 2.07186889648437500000e+000) (53, 1.09848928451538090000e+000) (54, 2.59775042533874510000e+000) (55, 1.01630844175815580000e-001) (56, 3.23967367410659790000e-001) (57, 2.69831895828247070000e-001) (58, 1.61100655794143680000e-001) (59, 5.83344027400016780000e-002) (60, -9.21238809823989870000e-002) (61, -5.68529479205608370000e-002) (62, -1.66450738906860350000e-002) (63, 1.10117599368095400000e-001) (64, -2.21224445849657060000e-002) (65, 3.50803472101688390000e-002) (66, -2.41512618958950040000e-002) (67, -3.57904992997646330000e-002) (68, 3.71317005157470700000e+000) (69, -6.82394742965698240000e-001) (70, 7.34291374683380130000e-002) (71, 1.00169433280825610000e-002) (72, 1.51674021035432820000e-002) (73, 9.07559767365455630000e-002) (74, 9.62828099727630620000e-002) (75, 2.69980565644800660000e-003) (76, -1.49431973695755000000e-002) (77, 8.36778879165649410000e-002) (78, 6.94232881069183350000e-002) (79, 4.52335961163043980000e-002) (80, 2.78840160369873050000e+000) (81, 3.38805988430976870000e-002) (82, -1.56960301101207730000e-002) (83, -1.48985087871551510000e-001) (84, -1.92428734153509140000e-002) (85, -1.52940243482589720000e-001) (86, -2.75875777006149290000e-001) (87, -1.44042760133743290000e-001) (88, -5.03363423049449920000e-002) (89, -7.27206096053123470000e-002) (90, 5.54950274527072910000e-002) (91, 8.72126966714859010000e-002) (92, 9.63080301880836490000e-002) (93, -4.50289323925971980000e-002) (94, -3.55970822274684910000e-002) (95, -4.02451343834400180000e-002) (96, 5.48128068447113040000e-001) (97, 2.50852733850479130000e-001) (98, 1.63190320134162900000e-001) (99, 1.23394988477230070000e-001) (100, -1.48011565208435060000e-001) (101, -1.95077076554298400000e-001) (102, -1.24058149755001070000e-001) (103, -4.04595375061035160000e-001) (104, -2.98501849174499510000e-001) (105, -7.61739552021026610000e-001) (106, -2.11219444870948790000e-001) (107, -3.68693470954895020000e-002) (108, 1.13330699503421780000e-001) (109, -7.20730191096663480000e-003) (110, -1.02504473179578780000e-002) (111, -1.22272763401269910000e-002) (112, 1.30892261862754820000e-001) (113, 3.59684348106384280000e-001) (114, 1.04263484477996830000e-001) (115, -2.11306996643543240000e-002) (116, 1.55845150351524350000e-001) (117, 5.23606717586517330000e-001) (118, 5.85051715373992920000e-001) (119, 5.34758329391479490000e-001) (120, -2.26344261318445210000e-002) (121, 4.06804569065570830000e-002) (122, 7.14215785264968870000e-002) (123, 2.28242911398410800000e-002) (124, 5.67362830042839050000e-002) (125, -1.13994434475898740000e-001) (126, 3.41630317270755770000e-002) (127, -1.04252338409423830000e-001) (128, -1.39926094561815260000e-002) (0, 3.04049905389547350000e-003) (1, -4.55087312730029230000e-004) (2, 5.16728311777114870000e-002) (3, -8.34733620285987850000e-002) (4, 4.32327017188072200000e-002) (5, -7.38551244139671330000e-002) (6, -7.13082179427146910000e-002) (7, -8.93785133957862850000e-002) (8, -5.40356896817684170000e-002) (9, 2.84382961690425870000e-002) (10, -1.89202520996332170000e-002) (11, -1.08181703835725780000e-002) (12, -9.73189156502485280000e-003) (13, -6.43618628382682800000e-002) (14, 2.96715497970581050000e-002) (15, -8.23726225644350050000e-003) (16, -7.21253305673599240000e-002) (17, -7.82310962677001950000e-002) (18, -6.69946745038032530000e-002) (19, -8.91934931278228760000e-002) (20, -1.00780516862869260000e-001) (21, 5.04636988043785100000e-002) (22, -5.73075786232948300000e-002) (23, -9.52704716473817830000e-003) (24, -1.05804041028022770000e-001) (25, 5.08257783949375150000e-002) (26, -1.41871556639671330000e-001) (27, -1.33111299946904180000e-002) (28, 4.81806248426437380000e-002) (29, -7.67348473891615870000e-003) (30, -8.17104205489158630000e-002) (31, 4.14565391838550570000e-002) (32, -8.65440368652343750000e-002) (33, 6.81721344590187070000e-002) (34, -7.75741487741470340000e-002) (35, 9.53854694962501530000e-002) (36, -5.61152212321758270000e-002) (37, -1.25253736972808840000e-001) (38, -1.07141435146331790000e-001) (39, 6.87542855739593510000e-002) (40, -5.90786598622798920000e-002) (41, -1.19480583816766740000e-002) (42, 1.05690127238631250000e-002) (43, 5.61825111508369450000e-002) (44, -3.67515012621879580000e-002) (45, -2.40987595170736310000e-002) (46, -1.25483021140098570000e-001) (47, -3.38141061365604400000e-002) (48, -4.94380965828895570000e-002) (49, 5.00370338559150700000e-002) (50, 8.25458765029907230000e-002) (51, -6.56397193670272830000e-002) (52, -6.63613304495811460000e-002) (53, -6.55467621982097630000e-003) (54, -8.23923274874687190000e-002) (55, 9.03511419892311100000e-002) (56, -4.91851568222045900000e-002) (57, 1.43493534997105600000e-002) (58, -7.17115551233291630000e-002) (59, 6.31025284528732300000e-002) (60, 4.76630218327045440000e-002) (61, 4.78120930492877960000e-002) (62, 6.26301914453506470000e-002) (63, 2.10746154189109800000e-002) (64, 2.04402636736631390000e-002) (65, -5.70296533405780790000e-002) (66, -1.29594691097736360000e-002) (67, 2.65181083232164380000e-002) (68, 1.96389369666576390000e-002) (69, -8.44099000096321110000e-002) (70, 1.03021301329135890000e-002) (71, 2.00711786746978760000e-002) (72, -6.49292171001434330000e-002) (73, 2.74901036173105240000e-002) (74, 7.31898248195648190000e-002) (75, 3.88999059796333310000e-002) (76, -9.76720377802848820000e-002) (77, 7.95734301209449770000e-002) (78, -4.55068647861480710000e-002) (79, 9.35334935784339900000e-002) (80, 4.18276563286781310000e-002) (81, 3.82514595985412600000e-002) (82, 5.65853994339704510000e-003) (83, 3.99889238178730010000e-003) (84, 5.82220125943422320000e-003) (85, 6.86729103326797490000e-002) (86, -9.97840240597724910000e-002) (87, 4.84942225739359860000e-003) (88, 8.23371484875679020000e-002) (89, -1.03747285902500150000e-001) (90, -2.45923381298780440000e-002) (91, -7.52527117729187010000e-002) (92, -9.34566259384155270000e-002) (93, 6.90756291151046750000e-002) (94, 1.79738830775022510000e-002) (95, -7.87743716500699520000e-004) (96, -6.60194754600524900000e-002) (97, 2.55769416689872740000e-002) (98, -1.07464015483856200000e-001) (99, -8.10324922204017640000e-002) (100, -2.38284990191459660000e-002) (101, -4.43613007664680480000e-002) (102, -1.07181951403617860000e-001) (103, -1.18336938321590420000e-002) (104, 5.40951229631900790000e-002) (105, -1.06222294270992280000e-001) (106, -1.79339647293090820000e-002) (107, 1.85867026448249820000e-002) (108, -8.11178609728813170000e-003) (109, -2.80108954757452010000e-002) (110, -8.57863575220108030000e-002) (111, -8.68473500013351440000e-002) (112, -6.31914436817169190000e-002) (113, -5.96652831882238390000e-003) (114, 1.96422562003135680000e-002) (115, -7.14011713862419130000e-002) (116, 6.07556700706481930000e-002) (117, -1.09670333564281460000e-001) (118, 5.61847947537899020000e-002) (119, -8.86509120464324950000e-002) (120, 4.43894751369953160000e-002) (121, -7.94462263584136960000e-002) (122, -2.76071503758430480000e-002) (123, -7.31546878814697270000e-002) (124, 4.15434539318084720000e-002) (125, -8.74339565634727480000e-002) (126, 3.77800650894641880000e-002) (127, 2.64069996774196620000e-002) (128, -1.40007749199867250000e-001) (0, -4.56097237765789030000e-002) (1, 9.11387354135513310000e-002) (2, 5.50204236060380940000e-003) (3, -6.43812213093042370000e-003) (4, 4.64400500059127810000e-002) (5, 6.61056041717529300000e-002) (6, 7.92202726006507870000e-003) (7, -2.53582373261451720000e-002) (8, 9.20476578176021580000e-003) (9, -2.70180907100439070000e-002) (10, -1.42704742029309270000e-002) (11, 9.71901565790176390000e-002) (12, -7.34907165169715880000e-002) (13, 4.45666834712028500000e-002) (14, -8.47402960062026980000e-003) (15, 5.67926131188869480000e-002) (16, 6.69756829738616940000e-002) (17, -2.46186740696430210000e-002) (18, 7.53454267978668210000e-002) (19, 7.44453445076942440000e-002) (20, -4.80398721992969510000e-002) (21, -1.51773661375045780000e-001) (22, -1.89522802829742430000e-001) (23, -7.21060633659362790000e-002) (24, -2.16316562145948410000e-002) (25, -2.72532582283020020000e-001) (26, -2.02143892645835880000e-001) (27, -1.67299479246139530000e-001) (28, -1.17565765976905820000e-002) (29, -2.03827861696481700000e-002) (30, -7.17239007353782650000e-002) (31, 3.58987078070640560000e-002) (32, 9.74341854453086850000e-002) (33, 8.26488658785820010000e-002) (34, -8.16097036004066470000e-002) (35, 8.74437838792800900000e-002) (36, -7.98942819237709050000e-002) (37, -9.16512906551361080000e-002) (38, -7.05808997154235840000e-002) (39, 4.09536547958850860000e-002) (40, -1.02968841791152950000e-001) (41, -8.30316767096519470000e-002) (42, -7.92860705405473710000e-003) (43, -5.87306134402751920000e-002) (44, -1.18793000001460310000e-003) (45, -8.55797827243804930000e-002) (46, -1.02558769285678860000e-001) (47, -8.70481282472610470000e-002) (48, 8.55270475149154660000e-002) (49, -7.13645964860916140000e-002) (50, 5.15380464494228360000e-002) (51, -2.14802362024784090000e-002) (52, 1.64163544774055480000e-001) (53, 1.12788908183574680000e-001) (54, -7.88115784525871280000e-002) (55, -6.89135417342185970000e-002) (56, 1.71036869287490840000e-001) (57, 1.06621198356151580000e-001) (58, 1.28005608916282650000e-001) (59, -8.08466151356697080000e-002) (60, 9.51701179146766660000e-002) (61, 8.39450284838676450000e-002) (62, 7.37459808588027950000e-002) (63, -1.43901864066720010000e-003) (64, 6.18484169244766240000e-002) (65, 4.50461506843566890000e-002) (66, -2.20543611794710160000e-003) (67, 4.72072213888168330000e-002) (68, -5.23544661700725560000e-002) (69, 5.13410493731498720000e-002) (70, -1.72904096543788910000e-002) (71, 3.15337032079696660000e-002) (72, -7.11414143443107600000e-002) (73, -6.41817227005958560000e-002) (74, -9.94179770350456240000e-002) (75, -9.48273465037345890000e-002) (76, 8.49567651748657230000e-002) (77, -8.73337984085083010000e-002) (78, -3.79833951592445370000e-002) (79, -1.80942993611097340000e-002) (80, -5.45507036149501800000e-002) (81, 4.49047982692718510000e-002) (82, -5.03698661923408510000e-002) (83, -5.00348545610904690000e-002) (84, -1.48432012647390370000e-002) (85, -1.51853263378143310000e-002) (86, -6.35276287794113160000e-002) (87, -3.48244495689868930000e-002) (88, -9.77414250373840330000e-002) (89, -6.76526352763175960000e-002) (90, 6.52975961565971370000e-002) (91, -9.14478302001953130000e-002) (92, 1.07271037995815280000e-002) (93, -8.94677788019180300000e-002) (94, 7.48824626207351680000e-002) (95, 4.22597751021385190000e-002) (96, -4.63267564773559570000e-002) (97, -9.61588248610496520000e-002) (98, -2.41972021758556370000e-002) (99, -4.37081679701805110000e-002) (100, -2.46052816510200500000e-001) (101, -1.00414842367172240000e-001) (102, -1.81483432650566100000e-001) (103, -1.41148164868354800000e-001) (104, -3.59166786074638370000e-002) (105, -1.26184031367301940000e-001) (106, -3.83673049509525300000e-002) (107, -7.99946933984756470000e-002) (108, 7.59857147932052610000e-002) (109, -8.77662748098373410000e-002) (110, -7.29088485240936280000e-002) (111, -3.35619561374187470000e-002) (112, 1.10805995762348180000e-001) (113, 1.67523741722106930000e-001) (114, 2.25082188844680790000e-002) (115, 1.06700249016284940000e-002) (116, 1.16603657603263850000e-001) (117, 3.17951470613479610000e-001) (118, 4.33347254991531370000e-001) (119, 2.10076585412025450000e-001) (120, -3.47806513309478760000e-002) (121, -8.03698375821113590000e-002) (122, -1.08236931264400480000e-002) (123, -1.93054862320423130000e-002) (124, 1.68577535077929500000e-003) (125, 7.41484239697456360000e-002) (126, 5.25227971374988560000e-002) (127, -2.83087883144617080000e-002) (128, 1.66424158960580830000e-002) (0, -7.55880549550056460000e-002) (1, -9.19827818870544430000e-002) (2, -2.38101147115230560000e-002) (3, -6.47175461053848270000e-002) (4, 7.62831196188926700000e-002) (5, -1.45330587401986120000e-002) (6, 1.03337883949279790000e-001) (7, -9.49243754148483280000e-002) (8, -2.27533222641795870000e-004) (9, -3.74976592138409610000e-003) (10, -2.59214676916599270000e-002) (11, -3.90549413859844210000e-002) (12, -4.24309000372886660000e-002) (13, -7.98794627189636230000e-002) (14, -1.06674686074256900000e-001) (15, -7.08119049668312070000e-002) (16, 5.82288764417171480000e-002) (17, 6.43391981720924380000e-002) (18, -7.98786282539367680000e-002) (19, 2.55588833242654800000e-002) (20, -5.06172738969326020000e-002) (21, -2.05435045063495640000e-002) (22, -1.75618212670087810000e-002) (23, 8.46866667270660400000e-002) (24, -5.30525371432304380000e-002) (25, -7.47856348752975460000e-002) (26, -4.41513843834400180000e-002) (27, 4.81382533907890320000e-002) (28, -7.67288804054260250000e-002) (29, 4.98808883130550380000e-002) (30, -8.90496075153350830000e-002) (31, 4.41818078979849820000e-003) (32, 7.42756575345993040000e-002) (33, -6.89517185091972350000e-002) (34, -5.22923246026039120000e-002) (35, 1.12781738862395290000e-002) (36, 2.10874900221824650000e-002) (37, -4.68743927776813510000e-002) (38, -2.53965929150581360000e-002) (39, -5.92650473117828370000e-002) (40, -2.30107568204402920000e-002) (41, -2.82432902604341510000e-002) (42, 6.43110349774360660000e-002) (43, 7.82835558056831360000e-002) (44, -1.45078515633940700000e-002) (45, -8.15364643931388850000e-002) (46, -6.47092461585998540000e-002) (47, -6.34450688958168030000e-002) (48, -1.02382965385913850000e-001) (49, -9.76035594940185550000e-002) (50, -2.66735162585973740000e-002) (51, -2.30685323476791380000e-002) (52, 9.54779088497161870000e-002) (53, -8.56587961316108700000e-002) (54, 1.08596518635749820000e-001) (55, 1.00409634411334990000e-001) (56, 4.68671843409538270000e-002) (57, -4.61794286966323850000e-002) (58, 1.81376822292804720000e-002) (59, -8.52670371532440190000e-002) (60, 2.40349993109703060000e-002) (61, -3.40509228408336640000e-002) (62, 9.02793705463409420000e-002) (63, -7.06706242635846140000e-003) (64, 8.25242400169372560000e-002) (65, -8.54501649737358090000e-002) (66, -1.08128935098648070000e-001) (67, 9.37655940651893620000e-002) (68, 5.97065873444080350000e-002) (69, -2.46505029499530790000e-002) (70, 2.23655495792627330000e-002) (71, -4.46005910634994510000e-002) (72, -8.06335881352424620000e-002) (73, -8.43310281634330750000e-002) (74, 2.75458432734012600000e-002) (75, -4.68778721988201140000e-002) (76, -4.14625927805900570000e-002) (77, -8.45782086253166200000e-002) (78, 1.12094404175877570000e-003) (79, -1.68535567354410890000e-004) (80, 8.28236192464828490000e-002) (81, 4.75388951599597930000e-002) (82, 5.82254678010940550000e-003) (83, 2.26156692951917650000e-002) (84, 5.47652225941419600000e-003) (85, -7.06905126571655270000e-002) (86, -6.94869905710220340000e-002) (87, -8.74142721295356750000e-002) (88, 4.87827919423580170000e-002) (89, 5.50316683948040010000e-002) (90, 8.41749459505081180000e-002) (91, 8.23165923357009890000e-002) (92, 8.22983160614967350000e-002) (93, 6.09301077201962470000e-003) (94, 3.15848775207996370000e-002) (95, -7.20937103033065800000e-002) (96, -4.91642504930496220000e-002) (97, 5.64625225961208340000e-002) (98, 3.65349389612674710000e-002) (99, -2.49718520790338520000e-002) (100, 5.78388035297393800000e-001) (101, 4.38935495913028720000e-002) (102, 5.96649162471294400000e-002) (103, 1.08450002968311310000e-001) (104, 2.15159971266984940000e-002) (105, -1.06893569231033330000e-001) (106, -2.75194998830556870000e-002) (107, -1.00524440407752990000e-001) (108, 6.29232600331306460000e-002) (109, 3.70737686753273010000e-002) (110, -3.26375104486942290000e-002) (111, 2.48443819582462310000e-002) (112, 4.59849201142787930000e-002) (113, 2.20156516879796980000e-002) (114, 3.65040823817253110000e-002) (115, 4.87039200961589810000e-002) (116, -8.29907804727554320000e-002) (117, 2.19916254281997680000e-002) (118, 7.00780004262924190000e-002) (119, 4.98926937580108640000e-002) (120, 1.20361493900418280000e-002) (121, -5.63978552818298340000e-002) (122, -4.26918193697929380000e-002) (123, 2.18518953770399090000e-002) (124, 6.09929114580154420000e-002) (125, 1.41333378851413730000e-002) (126, -4.44377213716506960000e-003) (127, -2.46678870171308520000e-002) (128, 8.91827568411827090000e-002) (0, -7.24020004272460940000e-002) (1, 8.26633442193269730000e-003) (2, 5.46480789780616760000e-002) (3, -5.20717911422252660000e-002) (4, 1.22941899299621580000e+000) (5, -3.94782006740570070000e-001) (6, 1.43917202949523930000e-001) (7, 2.14025869965553280000e-001) (8, 8.92722606658935550000e-002) (9, -1.61799583584070210000e-002) (10, -2.64712214469909670000e-001) (11, -4.51513566076755520000e-002) (12, -8.51496011018753050000e-002) (13, -9.56209227442741390000e-002) (14, -1.63005933165550230000e-001) (15, 5.00330552458763120000e-002) (16, 2.61893998831510540000e-002) (17, 7.03013464808464050000e-002) (18, 4.02352102100849150000e-002) (19, -5.96658661961555480000e-002) (20, 2.94688850641250610000e-001) (21, -1.84422016143798830000e-001) (22, -4.24810290336608890000e-001) (23, -3.68661850690841670000e-001) (24, 1.75704449415206910000e-001) (25, -3.05237561464309690000e-001) (26, -2.54937946796417240000e-001) (27, -7.08426535129547120000e-002) (28, 1.57695487141609190000e-002) (29, 7.62803256511688230000e-002) (30, 1.40909403562545780000e-001) (31, -7.76073262095451350000e-002) (32, 2.46722126007080080000e+000) (33, 1.10945232212543490000e-001) (34, 4.91269007325172420000e-002) (35, -1.71160352230072020000e+000) (36, 4.84625920653343200000e-002) (37, 2.93412715196609500000e-001) (38, 1.65193066000938420000e-001) (39, -3.49239021539688110000e-001) (40, -1.68804749846458440000e-001) (41, -1.15349069237709050000e-001) (42, -4.99465800821781160000e-002) (43, 5.95977529883384700000e-002) (44, 5.12755429372191430000e-003) (45, 9.63130965828895570000e-002) (46, 5.81747330725193020000e-002) (47, 2.63160675764083860000e-001) (48, 5.87921254336833950000e-002) (49, -1.46186407655477520000e-002) (50, 5.76038919389247890000e-002) (51, 1.13452740013599400000e-001) (52, 1.00809073448181150000e+000) (53, 6.67239546775817870000e-001) (54, 8.93182456493377690000e-002) (55, 2.26174872368574140000e-002) (56, 7.82100558280944820000e-002) (57, 2.52779394388198850000e-001) (58, 1.11489720642566680000e-001) (59, -1.06165611743927000000e+000) (60, 1.21941387653350830000e-001) (61, 9.84672233462333680000e-002) (62, 8.27751085162162780000e-002) (63, -1.21747046709060670000e-001) (64, -1.18702478706836700000e-001) (65, 5.46587407588958740000e-002) (66, 6.68363869190216060000e-001) (67, -5.57325221598148350000e-002) (68, 3.80033016204833980000e+000) (69, -3.19352187216281890000e-002) (70, 6.67544230818748470000e-002) (71, -3.18108946084976200000e-002) (72, 9.01548713445663450000e-002) (73, 1.34026840329170230000e-001) (74, 1.27250969409942630000e-001) (75, -3.35756503045558930000e-002) (76, -5.04785915836691860000e-003) (77, 1.01287392899394040000e-002) (78, -1.19498493149876590000e-002) (79, -2.28891149163246150000e-002) (80, 2.20851644873619080000e-001) (81, 7.01509043574333190000e-002) (82, 3.36713865399360660000e-002) (83, -6.18237722665071490000e-003) (84, -4.79449570178985600000e-001) (85, 2.91408859193325040000e-002) (86, -7.76565521955490110000e-002) (87, -4.66612726449966430000e-002) (88, 3.27706225216388700000e-002) (89, 1.29756897687911990000e-001) (90, -1.59624610096216200000e-002) (91, -4.42424155771732330000e-002) (92, 4.69698533415794370000e-002) (93, 4.55070547759532930000e-002) (94, -4.69141639769077300000e-003) (95, 5.87504506111145020000e-002) (96, 4.69250828027725220000e-001) (97, 3.14923495054245000000e-001) (98, 2.28864669799804690000e-001) (99, 1.78493931889534000000e-001) (100, -7.47171044349670410000e-001) (101, -2.72244125604629520000e-001) (102, -2.32779964804649350000e-001) (103, -5.68802177906036380000e-001) (104, -6.37402385473251340000e-002) (105, -7.35948160290718080000e-002) (106, -1.81209500879049300000e-002) (107, -1.23405888676643370000e-001) (108, -1.36932702735066410000e-002) (109, 9.13660228252410890000e-002) (110, -2.86545623093843460000e-002) (111, 1.21082812547683720000e-002) (112, -1.97413358837366100000e-002) (113, -2.76266913861036300000e-002) (114, 2.95411292463541030000e-002) (115, 5.64774796366691590000e-002) (116, 2.56833136081695560000e-001) (117, 2.75274664163589480000e-001) (118, 3.43482822179794310000e-001) (119, 2.78797715902328490000e-001) (120, -1.72553304582834240000e-002) (121, 8.35411623120307920000e-002) (122, 1.31491020321846010000e-001) (123, 7.19766616821289060000e-001) (124, -4.10258248448371890000e-002) (125, -8.09260681271553040000e-002) (126, 1.22897317633032800000e-002) (127, -9.64005813002586360000e-002) (128, 1.37614235281944270000e-001) (0, -3.64231094717979430000e-002) (1, -1.80361773818731310000e-002) (2, -9.34753492474555970000e-002) (3, 2.66266390681266780000e-002) (4, 1.87689568847417830000e-002) (5, -8.08181166648864750000e-002) (6, -6.62763704895041880000e-005) (7, 7.30644538998603820000e-002) (8, -3.75949144363403320000e-002) (9, -7.29615539312362670000e-002) (10, -7.18436250463128090000e-003) (11, -6.01495318114757540000e-002) (12, 9.04312580823898320000e-002) (13, 4.52501587569713590000e-002) (14, 5.40773980319499970000e-002) (15, -1.60757228732109070000e-002) (16, 7.48826116323471070000e-002) (17, 4.72487024962902070000e-002) (18, -8.08933600783348080000e-002) (19, -2.54067927598953250000e-002) (20, 3.29102505929768090000e-003) (21, -8.30637738108634950000e-002) (22, 2.47052516788244250000e-002) (23, -1.36648893356323240000e-001) (24, 4.90462593734264370000e-002) (25, -3.99801284074783330000e-002) (26, -5.17826303839683530000e-002) (27, -8.70595052838325500000e-002) (28, 1.60268470644950870000e-002) (29, -4.77296262979507450000e-002) (30, 1.21257212013006210000e-002) (31, -9.33499075472354890000e-003) (32, 1.80473662912845610000e-002) (33, -1.00439175963401790000e-001) (34, -3.79923405125737190000e-003) (35, -4.72405515611171720000e-002) (36, 2.12779436260461810000e-002) (37, 2.42768619209527970000e-002) (38, 3.24120298027992250000e-002) (39, 2.15881112962961200000e-002) (40, -7.06208646297454830000e-002) (41, -1.37888327240943910000e-001) (42, -4.52054031193256380000e-002) (43, -1.30114167928695680000e-001) (44, 6.06370717287063600000e-002) (45, -1.16735674440860750000e-001) (46, -1.16760633885860440000e-001) (47, -1.26390904188156130000e-001) (48, -1.02370515465736390000e-001) (49, -2.83246058970689770000e-002) (50, -3.78240309655666350000e-002) (51, 1.83122288435697560000e-002) (52, -8.87559577822685240000e-002) (53, 3.70016545057296750000e-002) (54, 5.28314635157585140000e-002) (55, 7.35766626894474030000e-003) (56, -1.61336176097393040000e-002) (57, -8.92018824815750120000e-002) (58, -2.64445506036281590000e-002) (59, 1.65959540754556660000e-002) (60, -4.87259328365325930000e-002) (61, -7.84147009253501890000e-002) (62, -9.62479854933917520000e-004) (63, -7.82847627997398380000e-002) (64, -2.65709049999713900000e-002) (65, -8.65772515535354610000e-002) (66, -8.55202227830886840000e-002) (67, -7.70459398627281190000e-002) (68, 1.91883984953165050000e-002) (69, -6.97075575590133670000e-002) (70, -9.99154075980186460000e-002) (71, -6.28330782055854800000e-002) (72, -8.13078787177801130000e-003) (73, -3.98533754050731660000e-002) (74, -8.17275494337081910000e-002) (75, -3.89811135828495030000e-002) (76, -3.31253670156002040000e-002) (77, -5.55177815258502960000e-002) (78, -8.08651000261306760000e-002) (79, -5.03597930073738100000e-002) (80, -7.35430195927619930000e-002) (81, 6.17297440767288210000e-002) (82, -1.58286821097135540000e-002) (83, 2.62791011482477190000e-002) (84, -1.70709379017353060000e-002) (85, -9.13715641945600510000e-003) (86, -1.11060261726379390000e-001) (87, -7.59277492761611940000e-002) (88, 6.90454021096229550000e-002) (89, -6.12036697566509250000e-002) (90, 8.90194922685623170000e-002) (91, -8.45079272985458370000e-002) (92, 7.06818401813507080000e-002) (93, 8.19323435425758360000e-002) (94, 9.70522537827491760000e-002) (95, 4.30032983422279360000e-002) (96, 2.28472445160150530000e-002) (97, -3.45794595777988430000e-002) (98, 2.88432221859693530000e-002) (99, -6.05308264493942260000e-002) (100, -7.82517436891794200000e-003) (101, -1.56586617231369020000e-001) (102, -5.77542744576931000000e-002) (103, -3.07842940092086790000e-002) (104, 4.55286838114261630000e-002) (105, 7.78701454401016240000e-002) (106, -7.93648138642311100000e-003) (107, -7.54100233316421510000e-002) (108, 8.17517265677452090000e-002) (109, -4.84815724194049840000e-002) (110, -6.70859664678573610000e-002) (111, -2.03029476106166840000e-002) (112, -1.06304369866847990000e-001) (113, -9.34868678450584410000e-002) (114, 6.19008801877498630000e-002) (115, 2.85080038011074070000e-002) (116, 3.02860811352729800000e-002) (117, -5.96341453492641450000e-002) (118, 1.51048097759485240000e-002) (119, 6.36038258671760560000e-002) (120, 3.74220684170722960000e-002) (121, -3.18595655262470250000e-002) (122, 3.12525928020477290000e-002) (123, 1.04827685281634330000e-002) (124, 1.74473226070404050000e-002) (125, -7.42044597864151000000e-002) (126, 9.40413400530815120000e-003) (127, -2.67836134880781170000e-002) (128, -3.08421235531568530000e-002) (0, -7.88953676819801330000e-002) (1, -1.08110420405864720000e-002) (2, 3.73829565942287450000e-002) (3, -7.25158005952835080000e-002) (4, 6.22657425701618190000e-002) (5, 3.40704441070556640000e-001) (6, -4.06329520046710970000e-002) (7, 1.42994313500821590000e-003) (8, 1.18346009403467180000e-002) (9, -5.60918599367141720000e-002) (10, -4.25584390759468080000e-002) (11, -3.34412269294261930000e-002) (12, 6.37685554102063180000e-003) (13, 1.91136877983808520000e-002) (14, 6.46884962916374210000e-002) (15, 2.66154203563928600000e-003) (16, -1.28328232094645500000e-002) (17, -1.18663914501667020000e-001) (18, -3.82927134633064270000e-002) (19, 1.19525693356990810000e-001) (20, -1.11503489315509800000e-001) (21, 7.36670568585395810000e-002) (22, 1.02340765297412870000e-001) (23, 1.64190322160720830000e-001) (24, -1.66849374771118160000e-001) (25, 4.79558482766151430000e-002) (26, 1.51772024109959600000e-002) (27, 8.08200910687446590000e-002) (28, -1.54212107881903650000e-002) (29, -2.00964789837598800000e-002) (30, -2.91478522121906280000e-002) (31, 5.91160990297794340000e-002) (32, -2.42159441113471980000e-001) (33, 2.33242064714431760000e-002) (34, -9.88410227000713350000e-003) (35, 6.17536623030900960000e-003) (36, -2.50352267175912860000e-002) (37, 6.64351508021354680000e-002) (38, -7.33486413955688480000e-002) (39, -1.31757203489542010000e-002) (40, 7.20355845987796780000e-003) (41, 1.74829170107841490000e-001) (42, -4.20947000384330750000e-002) (43, -8.47930833697319030000e-002) (44, 1.26255229115486150000e-002) (45, -1.22817428782582280000e-002) (46, 6.15179017186164860000e-002) (47, -5.35250455141067500000e-002) (48, 7.69617259502410890000e-002) (49, 3.51794920861721040000e-002) (50, -7.95806851238012310000e-003) (51, -3.89266200363636020000e-002) (52, -6.37199804186820980000e-002) (53, 5.01662969589233400000e-001) (54, 5.81801086664199830000e-002) (55, 6.46326020359992980000e-002) (56, 6.23632445931434630000e-002) (57, 3.72133515775203700000e-002) (58, 4.08556163311004640000e-002) (59, 4.85302597284317020000e-001) (60, 4.01440225541591640000e-002) (61, 6.66490057483315470000e-003) (62, -7.16239362955093380000e-002) (63, 4.82950471341609950000e-002) (64, 5.30874095857143400000e-002) (65, -3.67137752473354340000e-002) (66, -6.10597170889377590000e-002) (67, -6.00877813994884490000e-002) (68, -1.56775370240211490000e-001) (69, -6.70224353671073910000e-002) (70, -9.63553339242935180000e-002) (71, -9.31511744856834410000e-002) (72, 5.00067099928855900000e-002) (73, 1.54144288972020150000e-002) (74, -9.95456725358963010000e-002) (75, -6.68468847870826720000e-002) (76, -8.13296288251876830000e-002) (77, 3.32523658871650700000e-002) (78, 3.22713628411293030000e-002) (79, -1.05264775454998020000e-001) (80, 4.32755388319492340000e-002) (81, 5.40371686220169070000e-002) (82, -6.58317841589450840000e-003) (83, -9.80694517493247990000e-002) (84, 2.11636126041412350000e-002) (85, -6.79256990551948550000e-002) (86, -1.12020641565322880000e-001) (87, -6.44623935222625730000e-002) (88, 7.58434683084487920000e-002) (89, -4.03392640873789790000e-003) (90, -1.55251296237111090000e-002) (91, 4.99356910586357120000e-003) (92, 2.90808752179145810000e-002) (93, -2.41208411753177640000e-002) (94, -8.47816094756126400000e-002) (95, -3.97433936595916750000e-002) (96, -1.65221747010946270000e-002) (97, -7.08814039826393130000e-002) (98, 1.43532156944274900000e-002) (99, -1.13142810761928560000e-001) (100, 2.28068344295024870000e-002) (101, 2.83186845481395720000e-002) (102, 6.80008456110954280000e-002) (103, -1.98841863311827180000e-003) (104, -6.74825608730316160000e-002) (105, -1.05681838467717170000e-002) (106, 2.14485507458448410000e-002) (107, -4.87632900476455690000e-002) (108, -4.15618605911731720000e-002) (109, -3.42160537838935850000e-002) (110, -6.07759272679686550000e-003) (111, -1.79582741111516950000e-002) (112, -4.53988052904605870000e-002) (113, 1.28940001130104060000e-001) (114, -3.46144102513790130000e-002) (115, -9.31389033794403080000e-002) (116, -1.72501012682914730000e-001) (117, -1.35722383856773380000e-001) (118, 4.49071824550628660000e-002) (119, -9.67949330806732180000e-002) (120, 3.54327484965324400000e-002) (121, 7.57771208882331850000e-002) (122, 7.27837234735488890000e-002) (123, 1.69396996498107910000e-001) (124, -2.92113497853279110000e-002) (125, 6.17318972945213320000e-002) (126, 1.11585877835750580000e-001) (127, 1.06800369918346410000e-001) (128, 7.33047276735305790000e-002) (0, 9.39576029777526860000e-002) (1, 3.78523319959640500000e-002) (2, -4.16492372751235960000e-002) (3, -1.92266907542943950000e-002) (4, 1.09382674098014830000e-001) (5, -5.42760267853736880000e-002) (6, 9.31504182517528530000e-003) (7, 1.06575123965740200000e-001) (8, 3.14000919461250310000e-002) (9, -4.14299145340919490000e-002) (10, -2.73675546050071720000e-002) (11, -8.24280232191085820000e-002) (12, -1.08932629227638240000e-001) (13, 2.15214975178241730000e-002) (14, -3.73548232018947600000e-002) (15, 3.57623659074306490000e-002) (16, -1.26896817237138750000e-002) (17, 5.56865148246288300000e-002) (18, 4.59309592843055730000e-002) (19, 4.73624933511018750000e-003) (20, 1.15344204008579250000e-001) (21, -1.81456461548805240000e-001) (22, -2.06136584281921390000e-001) (23, -3.50433319807052610000e-001) (24, 2.45738953351974490000e-001) (25, -8.35245400667190550000e-002) (26, -1.57888799905776980000e-001) (27, -4.34484705328941350000e-002) (28, 8.96520912647247310000e-002) (29, 1.35420039296150210000e-001) (30, 1.41933262348175050000e-001) (31, 9.44920256733894350000e-002) (32, -1.56610775738954540000e-002) (33, 5.50710931420326230000e-002) (34, -1.03106684982776640000e-001) (35, -2.02877614647150040000e-002) (36, -1.10679395496845250000e-001) (37, 8.03672224283218380000e-002) (38, -5.41105587035417560000e-003) (39, 7.89110288023948670000e-002) (40, 7.21964240074157710000e-002) (41, -2.82399021089077000000e-002) (42, 2.12495196610689160000e-002) (43, 4.30483035743236540000e-002) (44, 1.91367249935865400000e-002) (45, 8.56761559844017030000e-002) (46, 1.29717230796813960000e-001) (47, 4.27270978689193730000e-001) (48, 7.12962299585342410000e-002) (49, -2.86258943378925320000e-002) (50, 5.48471771180629730000e-002) (51, 9.64628159999847410000e-002) (52, 6.31052315235137940000e-001) (53, 2.52638190984725950000e-001) (54, 8.67719352245330810000e-002) (55, 1.95947494357824330000e-002) (56, 2.50750482082366940000e-001) (57, 2.04469338059425350000e-001) (58, 9.79560986161231990000e-002) (59, -2.86203026771545410000e-002) (60, 1.14847674965858460000e-001) (61, -6.45432025194168090000e-002) (62, -9.57495439797639850000e-003) (63, -1.15751698613166810000e-001) (64, 3.24496030807495120000e-002) (65, 7.71912513300776480000e-003) (66, 1.21000766754150390000e-001) (67, -4.26728390157222750000e-002) (68, 3.77732217311859130000e-002) (69, 7.60949552059173580000e-002) (70, 9.64001845568418500000e-003) (71, -9.28800553083419800000e-003) (72, -5.73509838432073590000e-003) (73, 1.09334871172904970000e-001) (74, 1.22685685753822330000e-001) (75, 7.06368759274482730000e-002) (76, 1.09738059341907500000e-001) (77, 2.79018823057413100000e-002) (78, -2.60406956076622010000e-002) (79, -5.16267083585262300000e-002) (80, -9.28219482302665710000e-002) (81, 3.35964001715183260000e-002) (82, -1.40029564499855040000e-001) (83, -1.11669614911079410000e-001) (84, -5.19869243726134300000e-003) (85, -8.64537358283996580000e-002) (86, -2.58496403694152830000e-001) (87, -1.79204016923904420000e-001) (88, -2.35175359994173050000e-002) (89, -3.94172826781868930000e-003) (90, 2.00235787779092790000e-002) (91, -8.12522619962692260000e-002) (92, -6.81048259139060970000e-002) (93, 4.20986898243427280000e-002) (94, 4.96076941490173340000e-002) (95, -7.26256966590881350000e-002) (96, 1.86521008610725400000e-001) (97, 1.10807314515113830000e-001) (98, 7.89735019207000730000e-002) (99, 1.14547036588191990000e-001) (100, -3.75967949628829960000e-001) (101, -2.09787070751190190000e-001) (102, -2.41326168179512020000e-001) (103, -3.78273934125900270000e-001) (104, -2.27531456947326660000e+000) (105, -1.25390815734863280000e+000) (106, -8.74021887779235840000e-001) (107, 7.58915720507502560000e-003) (108, -3.42209711670875550000e-002) (109, -8.60111340880393980000e-002) (110, 8.25001001358032230000e-002) (111, 5.75005933642387390000e-002) (112, 1.92027352750301360000e-003) (113, 2.01239317655563350000e-001) (114, 2.29997798800468440000e-001) (115, 6.03242777287960050000e-002) (116, 2.10288792848587040000e-001) (117, 3.24352174997329710000e-001) (118, 3.56022089719772340000e-001) (119, 2.19604998826980590000e-001) (120, -7.11986720561981200000e-002) (121, 1.47415809333324430000e-002) (122, -7.71985799074172970000e-002) (123, -2.25142583250999450000e-001) (124, -1.36053636670112610000e-002) (125, -2.74389907717704770000e-002) (126, -2.76593118906021120000e-002) (127, -7.36868157982826230000e-002) (128, 5.77674917876720430000e-002) (129, -7.05440521240234380000e-001) (130, 1.81166887283325200000e-001) (131, 2.96282708644866940000e-001) (132, 3.10619056224823000000e-001) (133, -7.38743126392364500000e-001) (134, 1.06799185276031490000e-001) (135, 6.30652129650115970000e-001) (136, -2.06524729728698730000e-001) (137, 8.11595559120178220000e-001) (129, 1.00534245371818540000e-001) (130, -6.27642646431922910000e-002) (131, -2.85953223705291750000e-001) (132, 8.38574469089508060000e-002) (133, 1.26828002929687500000e+000) (134, 2.99754533916711810000e-002) (135, -3.16313862800598140000e-001) (136, 5.26422381401062010000e-001) (137, 2.08174847066402440000e-002) 
