FANN_FLO_2.1
num_layers=3
learning_rate=0.700000
connection_rate=1.000000
network_type=0
learning_momentum=0.000000
training_algorithm=3
train_error_function=1
train_stop_function=0
cascade_output_change_fraction=0.010000
quickprop_decay=-0.000100
quickprop_mu=1.750000
rprop_increase_factor=1.200000
rprop_decrease_factor=0.500000
rprop_delta_min=0.000000
rprop_delta_max=50.000000
rprop_delta_zero=0.100000
cascade_output_stagnation_epochs=12
cascade_candidate_change_fraction=0.010000
cascade_candidate_stagnation_epochs=12
cascade_max_out_epochs=150
cascade_max_cand_epochs=150
cascade_num_candidate_groups=2
bit_fail_limit=3.49999994039535520000e-001
cascade_candidate_limit=1.00000000000000000000e+003
cascade_weight_multiplier=4.00000005960464480000e-001
cascade_activation_functions_count=10
cascade_activation_functions=3 5 7 8 10 11 14 15 16 17 
cascade_activation_steepnesses_count=4
cascade_activation_steepnesses=2.50000000000000000000e-001 5.00000000000000000000e-001 7.50000000000000000000e-001 1.00000000000000000000e+000 
layer_sizes=129 9 3 
scale_included=0
neurons (num_inputs, activation_function, activation_steepness)=(0, 0, 0.00000000000000000000e+000) (0, 0, 0.00000000000000000000e+000) (0, 0, 0.00000000000000000000e+000) (0, 0, 0.00000000000000000000e+000) (0, 0, 0.00000000000000000000e+000) (0, 0, 0.00000000000000000000e+000) (0, 0, 0.00000000000000000000e+000) (0, 0, 0.00000000000000000000e+000) (0, 0, 0.00000000000000000000e+000) (0, 0, 0.00000000000000000000e+000) (0, 0, 0.00000000000000000000e+000) (0, 0, 0.00000000000000000000e+000) (0, 0, 0.00000000000000000000e+000) (0, 0, 0.00000000000000000000e+000) (0, 0, 0.00000000000000000000e+000) (0, 0, 0.00000000000000000000e+000) (0, 0, 0.00000000000000000000e+000) (0, 0, 0.00000000000000000000e+000) (0, 0, 0.00000000000000000000e+000) (0, 0, 0.00000000000000000000e+000) (0, 0, 0.00000000000000000000e+000) (0, 0, 0.00000000000000000000e+000) (0, 0, 0.00000000000000000000e+000) (0, 0, 0.00000000000000000000e+000) (0, 0, 0.00000000000000000000e+000) (0, 0, 0.00000000000000000000e+000) (0, 0, 0.00000000000000000000e+000) (0, 0, 0.00000000000000000000e+000) (0, 0, 0.00000000000000000000e+000) (0, 0, 0.00000000000000000000e+000) (0, 0, 0.00000000000000000000e+000) (0, 0, 0.00000000000000000000e+000) (0, 0, 0.00000000000000000000e+000) (0, 0, 0.00000000000000000000e+000) (0, 0, 0.00000000000000000000e+000) (0, 0, 0.00000000000000000000e+000) (0, 0, 0.00000000000000000000e+000) (0, 0, 0.00000000000000000000e+000) (0, 0, 0.00000000000000000000e+000) (0, 0, 0.00000000000000000000e+000) (0, 0, 0.00000000000000000000e+000) (0, 0, 0.00000000000000000000e+000) (0, 0, 0.00000000000000000000e+000) (0, 0, 0.00000000000000000000e+000) (0, 0, 0.00000000000000000000e+000) (0, 0, 0.00000000000000000000e+000) (0, 0, 0.00000000000000000000e+000) (0, 0, 0.00000000000000000000e+000) (0, 0, 0.00000000000000000000e+000) (0, 0, 0.00000000000000000000e+000) (0, 0, 0.00000000000000000000e+000) (0, 0, 0.00000000000000000000e+000) (0, 0, 0.00000000000000000000e+000) (0, 0, 0.00000000000000000000e+000) (0, 0, 0.00000000000000000000e+000) (0, 0, 0.00000000000000000000e+000) (0, 0, 0.00000000000000000000e+000) (0, 0, 0.00000000000000000000e+000) (0, 0, 0.00000000000000000000e+000) (0, 0, 0.00000000000000000000e+000) (0, 0, 0.00000000000000000000e+000) (0, 0, 0.00000000000000000000e+000) (0, 0, 0.00000000000000000000e+000) (0, 0, 0.00000000000000000000e+000) (0, 0, 0.00000000000000000000e+000) (0, 0, 0.00000000000000000000e+000) (0, 0, 0.00000000000000000000e+000) (0, 0, 0.00000000000000000000e+000) (0, 0, 0.00000000000000000000e+000) (0, 0, 0.00000000000000000000e+000) (0, 0, 0.00000000000000000000e+000) (0, 0, 0.00000000000000000000e+000) (0, 0, 0.00000000000000000000e+000) (0, 0, 0.00000000000000000000e+000) (0, 0, 0.00000000000000000000e+000) (0, 0, 0.00000000000000000000e+000) (0, 0, 0.00000000000000000000e+000) (0, 0, 0.00000000000000000000e+000) (0, 0, 0.00000000000000000000e+000) (0, 0, 0.00000000000000000000e+000) (0, 0, 0.00000000000000000000e+000) (0, 0, 0.00000000000000000000e+000) (0, 0, 0.00000000000000000000e+000) (0, 0, 0.00000000000000000000e+000) (0, 0, 0.00000000000000000000e+000) (0, 0, 0.00000000000000000000e+000) (0, 0, 0.00000000000000000000e+000) (0, 0, 0.00000000000000000000e+000) (0, 0, 0.00000000000000000000e+000) (0, 0, 0.00000000000000000000e+000) (0, 0, 0.00000000000000000000e+000) (0, 0, 0.00000000000000000000e+000) (0, 0, 0.00000000000000000000e+000) (0, 0, 0.00000000000000000000e+000) (0, 0, 0.00000000000000000000e+000) (0, 0, 0.00000000000000000000e+000) (0, 0, 0.00000000000000000000e+000) (0, 0, 0.00000000000000000000e+000) (0, 0, 0.00000000000000000000e+000) (0, 0, 0.00000000000000000000e+000) (0, 0, 0.00000000000000000000e+000) (0, 0, 0.00000000000000000000e+000) (0, 0, 0.00000000000000000000e+000) (0, 0, 0.00000000000000000000e+000) (0, 0, 0.00000000000000000000e+000) (0, 0, 0.00000000000000000000e+000) (0, 0, 0.00000000000000000000e+000) (0, 0, 0.00000000000000000000e+000) (0, 0, 0.00000000000000000000e+000) (0, 0, 0.00000000000000000000e+000) (0, 0, 0.00000000000000000000e+000) (0, 0, 0.00000000000000000000e+000) (0, 0, 0.00000000000000000000e+000) (0, 0, 0.00000000000000000000e+000) (0, 0, 0.00000000000000000000e+000) (0, 0, 0.00000000000000000000e+000) (0, 0, 0.00000000000000000000e+000) (0, 0, 0.00000000000000000000e+000) (0, 0, 0.00000000000000000000e+000) (0, 0, 0.00000000000000000000e+000) (0, 0, 0.00000000000000000000e+000) (0, 0, 0.00000000000000000000e+000) (0, 0, 0.00000000000000000000e+000) (0, 0, 0.00000000000000000000e+000) (0, 0, 0.00000000000000000000e+000) (0, 0, 0.00000000000000000000e+000) (0, 0, 0.00000000000000000000e+000) (0, 0, 0.00000000000000000000e+000) (0, 0, 0.00000000000000000000e+000) (129, 4, 1.10000002384185790000e+000) (129, 4, 1.10000002384185790000e+000) (129, 4, 1.10000002384185790000e+000) (129, 4, 1.10000002384185790000e+000) (129, 4, 1.10000002384185790000e+000) (129, 4, 1.10000002384185790000e+000) (129, 4, 1.10000002384185790000e+000) (129, 4, 1.10000002384185790000e+000) (0, 4, 1.10000002384185790000e+000) (9, 5, 1.00000000000000000000e+000) (9, 5, 1.00000000000000000000e+000) (0, 5, 1.00000000000000000000e+000) 
connections (connected_to_neuron, weight)=(0, 7.44579881429672240000e-002) (1, -2.18761023133993150000e-002) (2, 8.97501260042190550000e-002) (3, 6.77693560719490050000e-002) (4, 1.83441078662872310000e+000) (5, -1.72035932540893550000e-001) (6, -2.93460637331008910000e-001) (7, 6.12030029296875000000e-002) (8, -7.21369683742523190000e-002) (9, 8.45920965075492860000e-002) (10, 9.15772281587123870000e-003) (11, 1.07934184372425080000e-001) (12, -1.02318041026592250000e-001) (13, 6.11155591905117030000e-002) (14, 2.77312155812978740000e-002) (15, 2.16543972492218020000e-001) (16, -1.73953883349895480000e-002) (17, -2.36794188618659970000e-001) (18, -1.80561140179634090000e-001) (19, -1.26569822430610660000e-001) (20, 9.42325145006179810000e-002) (21, 2.45007619261741640000e-001) (22, -4.16101925075054170000e-002) (23, -1.45486927032470700000e+000) (24, 2.60443955659866330000e-001) (25, 3.35413776338100430000e-002) (26, 4.66677933931350710000e-001) (27, 9.51845765113830570000e-001) (28, 2.18670934438705440000e-001) (29, 7.85807073116302490000e-001) (30, 1.12927353382110600000e+000) (31, 1.61035192012786870000e+000) (32, -1.11691057682037350000e-001) (33, -4.23396319150924680000e-001) (34, -7.59702265262603760000e-001) (35, -1.64442285895347600000e-001) (36, 6.55004978179931640000e-001) (37, 1.99685141444206240000e-001) (38, 2.18221932649612430000e-001) (39, 4.70748782157897950000e-001) (40, -8.36554393172264100000e-002) (41, -1.44901007413864140000e-001) (42, -9.22524631023406980000e-002) (43, 2.61839088052511220000e-002) (44, -7.05566704273223880000e-002) (45, -2.42956906557083130000e-001) (46, -7.59638994932174680000e-002) (47, -1.34276449680328370000e-001) (48, -3.80713753402233120000e-002) (49, -1.07620328664779660000e-001) (50, -9.58991888910532000000e-003) (51, 3.90263982117176060000e-002) (52, -4.25400510430336000000e-002) (53, -1.33914276957511900000e-002) (54, 3.68832051753997800000e-002) (55, 1.70416748523712160000e+000) (56, -4.96587455272674560000e-001) (57, 3.71864140033721920000e-002) (58, 3.04457861930131910000e-002) (59, 1.91322695463895800000e-002) (60, 4.24698255956172940000e-002) (61, 2.11446240544319150000e-001) (62, 4.51868385076522830000e-001) (63, -2.17373599298298360000e-003) (64, -4.45702411234378810000e-002) (65, 3.72262522578239440000e-002) (66, -3.83809395134449010000e-002) (67, -6.65521174669265750000e-002) (68, -4.60922904312610630000e-002) (69, -5.09351827204227450000e-002) (70, 7.65932351350784300000e-002) (71, -7.48073309659957890000e-003) (72, -3.33596134185791020000e+000) (73, 2.98079997301101680000e-001) (74, 1.16825449466705320000e+000) (75, 1.02844135835766790000e-002) (76, -1.22775444760918620000e-002) (77, 9.10063162446022030000e-002) (78, 1.03218883275985720000e-001) (79, 5.39463497698307040000e-002) (80, -1.13376788794994350000e-001) (81, 3.52934747934341430000e-002) (82, -7.69359171390533450000e-002) (83, -1.02361448109149930000e-001) (84, -6.68001696467399600000e-002) (85, 1.22654624283313750000e-002) (86, 7.56298452615737920000e-002) (87, 1.07462657615542410000e-002) (88, 1.76422083377838130000e+000) (89, 1.38595092296600340000e+000) (90, 7.89718687534332280000e-001) (91, 5.19334338605403900000e-002) (92, 5.72840988636016850000e-001) (93, 9.85070419311523440000e+000) (94, -1.10564948990941050000e-002) (95, -3.71561534702777860000e-002) (96, 1.29069104790687560000e-001) (97, 1.31381645798683170000e-001) (98, 1.00297585129737850000e-001) (99, 1.31639227271080020000e-001) (100, -4.44711670279502870000e-002) (101, -9.71020013093948360000e-002) (102, 5.46254038810729980000e-001) (103, 9.06746149063110350000e-001) (104, -1.02901589870452880000e+000) (105, -1.98314934968948360000e-001) (106, -3.87049823999404910000e-001) (107, -2.35328003764152530000e-001) (108, 4.81088347733020780000e-002) (109, -4.44286912679672240000e-002) (110, -4.68899346888065340000e-002) (111, -4.13750499486923220000e-001) (112, 6.71068429946899410000e-002) (113, -1.58665273338556290000e-002) (114, -5.26068732142448430000e-002) (115, 1.17556368932127950000e-002) (116, -8.22952091693878170000e-002) (117, 8.77674698829650880000e-001) (118, -5.67819587886333470000e-002) (119, 1.71370245516300200000e-002) (120, -1.36680781841278080000e-001) (121, -9.89437103271484380000e-001) (122, -7.21565186977386470000e-001) (123, -4.55695763230323790000e-002) (124, 2.60303393006324770000e-002) (125, -1.28476530313491820000e-001) (126, -1.28537183627486230000e-002) (127, -8.37221294641494750000e-002) (128, -1.16190306842327120000e-001) (0, 5.51940128207206730000e-003) (1, 5.10053150355815890000e-003) (2, 5.52426911890506740000e-002) (3, -8.27728807926177980000e-002) (4, 4.48787249624729160000e-002) (5, -8.57429131865501400000e-002) (6, -6.88626691699028020000e-002) (7, -7.54375681281089780000e-002) (8, -5.03123477101325990000e-002) (9, 3.22590731084346770000e-002) (10, -1.27420332282781600000e-002) (11, -2.79504549689590930000e-003) (12, -1.07826422899961470000e-002) (13, -6.37587681412696840000e-002) (14, 3.39479967951774600000e-002) (15, -1.53602589853107930000e-003) (16, -6.78046494722366330000e-002) (17, -7.99957141280174260000e-002) (18, -1.45372644066810610000e-001) (19, -9.85764488577842710000e-002) (20, -8.98037329316139220000e-002) (21, 4.85424213111400600000e-002) (22, -5.76905608177185060000e-002) (23, -1.61633419338613750000e-003) (24, -6.91040754318237300000e-002) (25, 8.02798643708229060000e-002) (26, -1.00286282598972320000e-001) (27, 3.54912057518959050000e-002) (28, 6.41158595681190490000e-002) (29, 1.31170628592371940000e-002) (30, -5.67082986235618590000e-002) (31, 5.46482279896736150000e-002) (32, -7.75722563266754150000e-002) (33, 5.11694699525833130000e-002) (34, -1.55519530177116390000e-001) (35, 2.00537891942076390000e-004) (36, -4.88038770854473110000e-002) (37, -1.20546847581863400000e-001) (38, -1.17049008607864380000e-001) (39, 4.85648363828659060000e-002) (40, -2.82138083130121230000e-002) (41, 4.31747734546661380000e-003) (42, 3.83588559925556180000e-002) (43, 8.50048065185546880000e-002) (44, -3.37375998497009280000e-002) (45, -3.65926623344421390000e-002) (46, -1.39961123466491700000e-001) (47, -4.63110692799091340000e-002) (48, -4.55454960465431210000e-002) (49, 5.66944517195224760000e-002) (50, 8.74031111598014830000e-002) (51, -5.79905584454536440000e-002) (52, -6.80249333381652830000e-002) (53, -2.42089875973761080000e-003) (54, -8.29987600445747380000e-002) (55, 7.64434859156608580000e-002) (56, -5.55868446826934810000e-002) (57, 5.44023886322975160000e-003) (58, -6.39965236186981200000e-002) (59, 6.59886896610260010000e-002) (60, 2.85683926194906230000e-002) (61, 2.88035105913877490000e-002) (62, 4.60200309753417970000e-002) (63, 1.07932379469275470000e-002) (64, 1.44171863794326780000e-002) (65, -5.19139766693115230000e-002) (66, -1.03346619289368390000e-003) (67, 3.25713939964771270000e-002) (68, 1.67799778282642360000e-002) (69, -8.32949578762054440000e-002) (70, 1.35038327425718310000e-002) (71, 2.35658623278141020000e-002) (72, -6.94042071700096130000e-002) (73, 2.79439780861139300000e-002) (74, 7.86607414484024050000e-002) (75, 4.55708354711532590000e-002) (76, -9.76454541087150570000e-002) (77, 7.66516327857971190000e-002) (78, -4.80007007718086240000e-002) (79, 9.67677012085914610000e-002) (80, 4.06427234411239620000e-002) (81, 4.39084023237228390000e-002) (82, 1.31730102002620700000e-002) (83, 1.31160542368888850000e-002) (84, 4.10009548068046570000e-003) (85, 8.05652439594268800000e-002) (86, -8.38453397154808040000e-002) (87, 1.23716108500957490000e-002) (88, 7.50841721892356870000e-002) (89, -1.02956987917423250000e-001) (90, -2.44813822209835050000e-002) (91, -8.15234556794166560000e-002) (92, -9.35517996549606320000e-002) (93, 7.14255720376968380000e-002) (94, 1.60685200244188310000e-002) (95, -4.40352875739336010000e-003) (96, -2.96568181365728380000e-002) (97, 5.01838400959968570000e-002) (98, -9.33130979537963870000e-002) (99, -7.25664272904396060000e-002) (100, 1.21767129749059680000e-002) (101, -4.13163844496011730000e-003) (102, -1.03601157665252690000e-001) (103, 1.46947614848613740000e-002) (104, 4.75472547113895420000e-002) (105, -1.36850446462631230000e-001) (106, -5.32832518219947810000e-002) (107, -2.31087878346443180000e-002) (108, -5.22721605375409130000e-003) (109, -3.18393334746360780000e-002) (110, -9.55046191811561580000e-002) (111, -1.03297792375087740000e-001) (112, -5.74433133006095890000e-002) (113, -6.47720787674188610000e-003) (114, 2.39328630268573760000e-002) (115, -6.58968016505241390000e-002) (116, 9.18219536542892460000e-002) (117, -8.58275964856147770000e-002) (118, 7.18749016523361210000e-002) (119, -6.79660141468048100000e-002) (120, 4.15142625570297240000e-002) (121, -2.13446050882339480000e-001) (122, -1.66525542736053470000e-001) (123, -8.31184387207031250000e-002) (124, 3.52135300636291500000e-002) (125, -9.49000194668769840000e-002) (126, 3.17015424370765690000e-002) (127, 2.31588520109653470000e-002) (128, -1.18769504129886630000e-001) (0, -3.73185314238071440000e-002) (1, 1.18638403713703160000e-001) (2, 6.84998696669936180000e-003) (3, -1.97065249085426330000e-002) (4, 3.45017351210117340000e-002) (5, 7.21357017755508420000e-002) (6, 3.51065909489989280000e-003) (7, -3.89858596026897430000e-002) (8, 2.37021371722221370000e-002) (9, -2.63216607272624970000e-002) (10, -7.97507632523775100000e-003) (11, 1.05128675699234010000e-001) (12, -4.53299470245838170000e-002) (13, 5.62393516302108760000e-002) (14, -7.56396586075425150000e-003) (15, 6.58004805445671080000e-002) (16, 6.57663419842720030000e-002) (17, -1.40787009149789810000e-002) (18, 8.69279503822326660000e-002) (19, 7.00102075934410100000e-002) (20, -6.47077709436416630000e-002) (21, -1.01364716887474060000e-001) (22, -9.36079621315002440000e-002) (23, 1.05948135256767270000e-001) (24, 5.40894549340009690000e-003) (25, -1.85851752758026120000e-002) (26, 4.54182326793670650000e-002) (27, 5.89857529848814010000e-003) (28, -2.98270266503095630000e-002) (29, -3.77783142030239110000e-002) (30, -4.36432473361492160000e-002) (31, 3.13495956361293790000e-002) (32, 7.50235021114349370000e-002) (33, 6.19494952261447910000e-002) (34, -7.13204964995384220000e-002) (35, 8.50280225276947020000e-002) (36, -9.16443839669227600000e-002) (37, -1.09013043344020840000e-001) (38, -9.01678130030632020000e-002) (39, 1.36647270992398260000e-002) (40, -4.32133749127388000000e-002) (41, -5.11313676834106450000e-002) (42, 2.46210861951112750000e-002) (43, -1.10929161310195920000e-002) (44, -3.55955981649458410000e-003) (45, -8.82924124598503110000e-002) (46, -9.03962776064872740000e-002) (47, -8.46875756978988650000e-002) (48, 7.05460682511329650000e-002) (49, -6.75974637269973750000e-002) (50, 4.95161116123199460000e-002) (51, -5.62433153390884400000e-003) (52, 5.24580776691436770000e-002) (53, -1.32285347208380700000e-002) (54, -9.13998782634735110000e-002) (55, -9.96914207935333250000e-002) (56, 1.06285661458969120000e-001) (57, 5.01536298543214800000e-003) (58, 7.44156762957572940000e-002) (59, -8.12786146998405460000e-002) (60, 8.26567038893699650000e-002) (61, 6.76423385739326480000e-002) (62, 5.63249699771404270000e-002) (63, 4.20157657936215400000e-003) (64, 6.37441128492355350000e-002) (65, 4.56994138658046720000e-002) (66, -2.64512165449559690000e-003) (67, 4.77007701992988590000e-002) (68, -7.91166350245475770000e-002) (69, 2.86380443722009660000e-002) (70, -3.10861989855766300000e-002) (71, 4.36339415609836580000e-002) (72, -6.91061764955520630000e-002) (73, -3.08810882270336150000e-002) (74, -8.32404196262359620000e-002) (75, -9.99986976385116580000e-002) (76, 8.60183984041213990000e-002) (77, -7.78138190507888790000e-002) (78, -3.64923775196075440000e-002) (79, -2.75598894804716110000e-002) (80, -4.11415435373783110000e-002) (81, 4.13159169256687160000e-002) (82, -4.78838011622428890000e-002) (83, -5.09551502764225010000e-002) (84, -1.97034478187561040000e-002) (85, 6.60679936408996580000e-002) (86, 2.05963104963302610000e-002) (87, -2.14879456907510760000e-002) (88, -1.04610733687877660000e-001) (89, -7.20325186848640440000e-002) (90, 7.51397684216499330000e-002) (91, -8.28813463449478150000e-002) (92, 5.39881968870759010000e-003) (93, -9.10729169845581050000e-002) (94, 6.84033557772636410000e-002) (95, 3.44534330070018770000e-002) (96, -7.42901638150215150000e-002) (97, -1.16900406777858730000e-001) (98, -3.79515103995800020000e-002) (99, -5.75620345771312710000e-002) (100, -1.05370022356510160000e-001) (101, -2.60038748383522030000e-002) (102, -6.78464770317077640000e-002) (103, 3.71807776391506200000e-002) (104, 1.95242613554000850000e-002) (105, -4.14912812411785130000e-002) (106, -2.11991090327501300000e-002) (107, -6.31189644336700440000e-002) (108, 8.43208357691764830000e-002) (109, -9.88177955150604250000e-002) (110, -7.70866945385932920000e-002) (111, -1.28574511036276820000e-002) (112, 1.10551089048385620000e-001) (113, 8.00675377249717710000e-002) (114, 1.78808066993951800000e-002) (115, -1.82557962834835050000e-002) (116, 3.24428118765354160000e-002) (117, 9.10015031695365910000e-002) (118, 9.72352176904678340000e-002) (119, 4.48098545894026760000e-003) (120, -5.31212650239467620000e-002) (121, -5.01577965915203090000e-002) (122, -9.00945998728275300000e-003) (123, 3.57084500137716530000e-004) (124, 4.83028031885623930000e-003) (125, 6.69532716274261470000e-002) (126, 5.84250986576080320000e-002) (127, -1.84441432356834410000e-002) (128, 2.63849496841430660000e-002) (0, -6.48819208145141600000e-002) (1, -6.44511729478836060000e-002) (2, -1.49082606658339500000e-002) (3, -6.74173310399055480000e-002) (4, 6.81545883417129520000e-002) (5, -2.93828379362821580000e-002) (6, 9.73641276359558110000e-002) (7, -8.97992700338363650000e-002) (8, 1.89823079854249950000e-002) (9, -5.29645825736224650000e-004) (10, -2.42509134113788600000e-002) (11, -2.12431233376264570000e-002) (12, -7.44171533733606340000e-003) (13, -5.42763322591781620000e-002) (14, -9.26644280552864070000e-002) (15, -5.26780858635902400000e-002) (16, 6.40513449907302860000e-002) (17, 8.66916924715042110000e-002) (18, -5.35591617226600650000e-002) (19, 3.77222225069999690000e-002) (20, -3.24025228619575500000e-002) (21, -3.15490663051605220000e-002) (22, -4.75166663527488710000e-002) (23, 8.37586969137191770000e-002) (24, -3.19047272205352780000e-002) (25, -7.55682885646820070000e-002) (26, -4.20898906886577610000e-002) (27, 7.63611420989036560000e-002) (28, -7.51376673579216000000e-002) (29, 3.21245342493057250000e-002) (30, -7.26264342665672300000e-002) (31, 2.92920973151922230000e-002) (32, 7.12971016764640810000e-002) (33, -6.80295675992965700000e-002) (34, -4.01279591023921970000e-002) (35, 2.10725814104080200000e-002) (36, 1.93994585424661640000e-002) (37, -4.61672469973564150000e-002) (38, -5.03342151641845700000e-002) (39, -9.99950394034385680000e-002) (40, -2.71879695355892180000e-002) (41, -5.55086433887481690000e-002) (42, 4.32704240083694460000e-002) (43, 7.91433826088905330000e-002) (44, -5.17580918967723850000e-002) (45, -1.02587424218654630000e-001) (46, -5.68684786558151250000e-002) (47, -6.22047260403633120000e-002) (48, -1.09703496098518370000e-001) (49, -8.86852368712425230000e-002) (50, -1.78629737347364430000e-002) (51, -2.06076120957732200000e-003) (52, 8.78203138709068300000e-002) (53, -8.79449695348739620000e-002) (54, 9.79283228516578670000e-002) (55, 8.00845697522163390000e-002) (56, 6.39742165803909300000e-002) (57, -3.14095877110958100000e-002) (58, 1.60766262561082840000e-002) (59, -8.30193236470222470000e-002) (60, 8.49865004420280460000e-003) (61, -3.32502201199531560000e-002) (62, 9.61385369300842290000e-002) (63, 6.03781198151409630000e-004) (64, 8.28729867935180660000e-002) (65, -7.97911658883094790000e-002) (66, -9.87888127565383910000e-002) (67, 9.92354527115821840000e-002) (68, 3.57889272272586820000e-002) (69, -4.60002236068248750000e-002) (70, 8.68147984147071840000e-003) (71, -2.80410274863243100000e-002) (72, -8.43784213066101070000e-002) (73, -6.57968893647193910000e-002) (74, 4.52481806278228760000e-002) (75, -3.83225195109844210000e-002) (76, -3.88854369521141050000e-002) (77, -7.57689848542213440000e-002) (78, 2.63812998309731480000e-003) (79, -1.50219723582267760000e-003) (80, 8.07541385293006900000e-002) (81, 3.92707325518131260000e-002) (82, -8.16813088022172450000e-004) (83, 1.44129311665892600000e-002) (84, -4.86010732129216190000e-003) (85, -8.72589275240898130000e-002) (86, -8.59278142452239990000e-002) (87, -9.00033190846443180000e-002) (88, 5.49415759742259980000e-002) (89, 8.03309231996536250000e-002) (90, 1.09915152192115780000e-001) (91, 1.00803084671497340000e-001) (92, 7.88710564374923710000e-002) (93, 8.20411462336778640000e-003) (94, 3.37853841483592990000e-002) (95, -7.22121819853782650000e-002) (96, -8.67562294006347660000e-002) (97, 2.35467385500669480000e-002) (98, -5.32095367088913920000e-003) (99, -7.33558461070060730000e-002) (100, 2.15195138007402420000e-002) (101, -4.20179888606071470000e-002) (102, -5.28824925422668460000e-002) (103, 3.33722420036792760000e-002) (104, 4.02019955217838290000e-002) (105, -6.29638805985450740000e-002) (106, 2.54805479198694230000e-003) (107, -6.74288570880889890000e-002) (108, 6.41614869236946110000e-002) (109, 2.74670664221048360000e-002) (110, -3.13827507197856900000e-002) (111, 4.51725989580154420000e-001) (112, 4.96538467705249790000e-002) (113, 2.23698355257511140000e-002) (114, 2.01783739030361180000e-002) (115, 1.53739610686898230000e-002) (116, -6.01180084049701690000e-002) (117, 4.02588807046413420000e-002) (118, 6.93817064166069030000e-002) (119, 5.52554950118064880000e-002) (120, 8.88204853981733320000e-003) (121, 5.28083503246307370000e-001) (122, -3.43126766383647920000e-002) (123, 4.97137829661369320000e-002) (124, 6.65261968970298770000e-002) (125, 1.05805201455950740000e-002) (126, -1.04123470373451710000e-003) (127, -1.31841097027063370000e-002) (128, 8.10816138982772830000e-002) (0, -8.39520171284675600000e-002) (1, -7.38629698753356930000e-003) (2, 5.56954704225063320000e-002) (3, -4.86341007053852080000e-002) (4, -3.86062152683734890000e-002) (5, -6.28905892372131350000e-002) (6, 2.43737921118736270000e-003) (7, -1.01990662515163420000e-001) (8, 6.17381334304809570000e-002) (9, -2.49016210436820980000e-002) (10, -8.25609341263771060000e-002) (11, -5.05163595080375670000e-002) (12, -4.79462742805480960000e-002) (13, 5.99171295762062070000e-002) (14, 4.56098560243844990000e-003) (15, 2.38910838961601260000e-002) (16, -9.24052484333515170000e-003) (17, 2.18828413635492320000e-002) (18, 3.85060645639896390000e-002) (19, -2.34130211174488070000e-002) (20, 5.16844727098941800000e-002) (21, -5.76807521283626560000e-002) (22, 3.59544367529451850000e-003) (23, 6.78493678569793700000e-002) (24, -8.34727808833122250000e-002) (25, -6.94510340690612790000e-002) (26, -7.70877450704574580000e-002) (27, -2.28099897503852840000e-002) (28, -8.40843841433525090000e-002) (29, -1.89649853855371480000e-002) (30, 6.78431838750839230000e-002) (31, -5.57177588343620300000e-002) (32, 6.26067519187927250000e-002) (33, 5.24394772946834560000e-002) (34, 3.91786312684416770000e-003) (35, 6.93413428962230680000e-004) (36, -7.49619007110595700000e-002) (37, -6.79674893617630000000e-002) (38, 1.75910145044326780000e-002) (39, 2.59666517376899720000e-003) (40, -6.76950588822364810000e-002) (41, -1.34544391185045240000e-002) (42, -9.12139341235160830000e-002) (43, 2.84489076584577560000e-002) (44, -1.14181376993656160000e-002) (45, 2.16061826795339580000e-002) (46, -6.22588396072387700000e-002) (47, 1.88698209822177890000e-002) (48, 1.72404982149600980000e-002) (49, -5.72587400674819950000e-002) (50, 5.43203316628932950000e-002) (51, 9.91571545600891110000e-002) (52, 2.19012424349784850000e-002) (53, 8.42827707529067990000e-002) (54, 4.72439676523208620000e-002) (55, 3.81450764834880830000e-002) (56, -4.66352216899394990000e-002) (57, 1.18834666907787320000e-001) (58, 3.74446697533130650000e-002) (59, -1.63441374897956850000e-002) (60, 4.71033751964569090000e-002) (61, 6.24613016843795780000e-002) (62, 8.27290862798690800000e-002) (63, -6.82860910892486570000e-002) (64, -7.47407898306846620000e-002) (65, 3.39811891317367550000e-002) (66, -3.00301611423492430000e-002) (67, -8.02292749285697940000e-002) (68, -3.47568728029727940000e-002) (69, 2.55801547318696980000e-002) (70, 2.67255678772926330000e-002) (71, -4.55888696014881130000e-002) (72, 1.72208473086357120000e-002) (73, 8.42862576246261600000e-002) (74, 7.17620104551315310000e-002) (75, -8.63572657108306880000e-002) (76, -2.53465808928012850000e-002) (77, -4.59056720137596130000e-003) (78, -5.25945611298084260000e-002) (79, -6.34077414870262150000e-002) (80, -8.44529047608375550000e-002) (81, -9.07140895724296570000e-002) (82, 4.99840527772903440000e-002) (83, -7.16792652383446690000e-003) (84, -6.63423687219619750000e-002) (85, 8.89625474810600280000e-002) (86, -3.13650928437709810000e-002) (87, -7.48444274067878720000e-002) (88, 1.92110612988471980000e-002) (89, 1.07975162565708160000e-001) (90, -2.67070401459932330000e-002) (91, -2.39018499851226810000e-002) (92, 2.41610482335090640000e-002) (93, 1.46976653486490250000e-002) (94, 6.16342760622501370000e-004) (95, 7.27530494332313540000e-002) (96, -1.19380682706832890000e-001) (97, -6.37291744351387020000e-002) (98, 1.92886628210544590000e-002) (99, -1.38996765017509460000e-001) (100, -9.73046496510505680000e-002) (101, -1.09288573265075680000e-001) (102, -5.45661821961402890000e-002) (103, -8.61979424953460690000e-002) (104, -6.48614317178726200000e-002) (105, -2.27658152580261230000e-002) (106, -6.09224941581487660000e-003) (107, -7.14505761861801150000e-002) (108, -7.75875449180603030000e-002) (109, 5.99202401936054230000e-002) (110, -2.12813131511211400000e-002) (111, 4.35931459069252010000e-002) (112, -7.37209320068359380000e-002) (113, -6.75072818994522090000e-002) (114, -8.46308469772338870000e-002) (115, -6.79351836442947390000e-002) (116, 4.58979420363903050000e-002) (117, -8.37682932615280150000e-002) (118, -8.31136777997016910000e-002) (119, 2.85181626677513120000e-002) (120, -5.01270464155822990000e-004) (121, 1.52038587257266040000e-002) (122, 3.13552282750606540000e-003) (123, -5.45208677649497990000e-002) (124, -2.82851955853402610000e-003) (125, -4.51073944568634030000e-002) (126, 3.55521664023399350000e-002) (127, -7.77881294488906860000e-002) (128, 1.16956979036331180000e-002) (0, -3.37096638977527620000e-002) (1, -2.27690394967794420000e-002) (2, -8.79732891917228700000e-002) (3, 3.86536084115505220000e-002) (4, 2.21446566283702850000e-002) (5, -1.14710204303264620000e-001) (6, -5.58095239102840420000e-002) (7, 9.49100703001022340000e-002) (8, -4.59670573472976680000e-002) (9, -7.03208222985267640000e-002) (10, -1.98204256594181060000e-003) (11, -4.53679338097572330000e-002) (12, 8.06747898459434510000e-002) (13, 5.68133033812046050000e-002) (14, 7.84168243408203130000e-002) (15, 5.05271786823868750000e-003) (16, 7.17186480760574340000e-002) (17, -2.35981736332178120000e-002) (18, -1.89061865210533140000e-001) (19, -9.26891788840293880000e-002) (20, 6.69642770662903790000e-003) (21, -8.43263715505599980000e-002) (22, 3.20488810539245610000e-002) (23, -1.38793751597404480000e-001) (24, 1.05415076017379760000e-001) (25, 1.95996053516864780000e-002) (26, 1.04303456842899320000e-001) (27, 4.99544478952884670000e-002) (28, 7.03664049506187440000e-002) (29, 9.36682242900133130000e-003) (30, 4.05725777149200440000e-001) (31, 6.52103483676910400000e-001) (32, 3.05960681289434430000e-002) (33, -1.26716554164886470000e-001) (34, -9.65374112129211430000e-002) (35, -1.51604562997817990000e-001) (36, 1.27511590719223020000e-001) (37, 9.87051650881767270000e-002) (38, 1.09106920659542080000e-001) (39, 7.14609026908874510000e-002) (40, -4.47625443339347840000e-002) (41, -1.70311167836189270000e-001) (42, -6.72644888982176780000e-003) (43, -9.33195576071739200000e-002) (44, 3.87659482657909390000e-002) (45, -1.84884861111640930000e-001) (46, -1.82997733354568480000e-001) (47, -1.90858393907547000000e-001) (48, -9.00181978940963750000e-002) (49, -2.32212673872709270000e-002) (50, -3.13384495675563810000e-002) (51, 2.13801078498363490000e-002) (52, -9.42564457654953000000e-002) (53, 3.57401669025421140000e-002) (54, 5.20732589066028590000e-002) (55, -2.78033013455569740000e-003) (56, -1.09774991869926450000e-001) (57, 4.81705600395798680000e-003) (58, 1.40632733702659610000e-001) (59, 8.75884890556335450000e-002) (60, -1.30919039249420170000e-001) (61, -8.98343771696090700000e-002) (62, 7.83669576048851010000e-002) (63, -9.41170006990432740000e-002) (64, -3.59970703721046450000e-002) (65, -8.06511193513870240000e-002) (66, -7.46803730726242070000e-002) (67, -7.25237652659416200000e-002) (68, 2.47034747153520580000e-002) (69, -5.70850707590579990000e-002) (70, -9.13185924291610720000e-002) (71, -6.91899657249450680000e-002) (72, -2.57250629365444180000e-002) (73, -3.54084521532058720000e-002) (74, -7.26378858089447020000e-002) (75, -2.68096420913934710000e-002) (76, -3.47797796130180360000e-002) (77, -5.59228435158729550000e-002) (78, -7.32365548610687260000e-002) (79, -3.67608517408370970000e-002) (80, -1.02800443768501280000e-001) (81, 9.04925614595413210000e-002) (82, 1.25806378200650220000e-002) (83, 2.56652962416410450000e-002) (84, 3.64113077521324160000e-002) (85, 5.19106211140751840000e-003) (86, -9.93436872959136960000e-002) (87, -6.85484856367111210000e-002) (88, 3.21727335453033450000e-001) (89, 1.37194126844406130000e-001) (90, 1.14970929920673370000e-001) (91, -6.27995878458023070000e-002) (92, 7.72170349955558780000e-002) (93, 8.99869129061698910000e-002) (94, 9.74477827548980710000e-002) (95, 4.15553264319896700000e-002) (96, 9.93159338831901550000e-002) (97, 3.57446521520614620000e-002) (98, 9.02850329875946040000e-002) (99, -2.20312196761369710000e-002) (100, 1.03817358613014220000e-001) (101, 1.48604055866599080000e-002) (102, 2.89453893899917600000e-001) (103, 3.01748216152191160000e-001) (104, 1.11092943698167800000e-002) (105, -1.57978739589452740000e-002) (106, -9.83540341258049010000e-002) (107, -1.87449395656585690000e-001) (108, 7.07844570279121400000e-002) (109, -6.44320920109748840000e-002) (110, -1.05474062263965610000e-001) (111, -1.54364064335823060000e-001) (112, -1.08767181634902950000e-001) (113, -1.24151192605495450000e-001) (114, 4.13857325911521910000e-002) (115, 3.61030250787734990000e-002) (116, 6.44670575857162480000e-002) (117, -9.40815731883049010000e-002) (118, 3.21470052003860470000e-002) (119, 5.60925230383872990000e-002) (120, 3.05445287376642230000e-002) (121, -2.41008102893829350000e-001) (122, -1.74668088555336000000e-001) (123, -2.25954260677099230000e-002) (124, 6.46076444536447530000e-003) (125, -8.02336633205413820000e-002) (126, -9.69548057764768600000e-003) (127, -3.74992787837982180000e-002) (128, -2.40926817059516910000e-002) (0, -5.03329783678054810000e-002) (1, 6.19255192577838900000e-002) (2, 3.39533947408199310000e-002) (3, -1.12626843154430390000e-001) (4, 6.51883929967880250000e-002) (5, 6.66146352887153630000e-002) (6, -6.66750892996788020000e-002) (7, -2.68970732577145100000e-003) (8, 8.54221284389495850000e-002) (9, -7.72787213325500490000e-001) (10, -4.37021777033805850000e-002) (11, -3.47608141601085660000e-002) (12, 8.26888307929039000000e-002) (13, 2.26672999560832980000e-002) (14, 5.27578592300415040000e-002) (15, -4.22267839312553410000e-002) (16, 8.21193773299455640000e-003) (17, -4.17455025017261510000e-002) (18, -4.49279956519603730000e-002) (19, -2.78573006391525270000e-001) (20, -4.62025552988052370000e-002) (21, -5.69344218820333480000e-003) (22, -3.33133935928344730000e-001) (23, 1.00756265223026280000e-001) (24, -2.52706427127122880000e-002) (25, 1.79161801934242250000e-002) (26, 1.80779863148927690000e-002) (27, 9.33043807744979860000e-002) (28, -4.61588315665721890000e-002) (29, -5.82712292671203610000e-002) (30, -6.51093013584613800000e-003) (31, -1.69074848294258120000e-001) (32, -8.00800263881683350000e-001) (33, -1.58885121345520020000e-002) (34, 5.83251118659973140000e-002) (35, 1.32324928417801860000e-002) (36, -9.83990430831909180000e-002) (37, 1.08578696846961980000e-001) (38, -5.10202385485172270000e-002) (39, 3.50165501004084940000e-004) (40, -9.67764202505350110000e-003) (41, 2.06111282110214230000e-001) (42, 4.34911064803600310000e-002) (43, 5.38426861166954040000e-002) (44, -5.17840171232819560000e-003) (45, 3.81006710231304170000e-002) (46, 1.11108824610710140000e-001) (47, 2.46602427214384080000e-002) (48, 8.14982131123542790000e-003) (49, 4.43651378154754640000e-002) (50, -1.69636923819780350000e-002) (51, -7.60351354256272320000e-003) (52, -3.88124026358127590000e-002) (53, -6.68497979640960690000e-002) (54, 6.67248666286468510000e-002) (55, -2.30529949069023130000e-001) (56, 1.15046843886375430000e-001) (57, -1.33508190512657170000e-001) (58, -1.71942040324211120000e-002) (59, 1.15051688626408580000e-002) (60, -9.24302220344543460000e-001) (61, -1.93202719092369080000e-001) (62, -4.80797618627548220000e-001) (63, 5.09859509766101840000e-002) (64, 6.51674792170524600000e-002) (65, 2.78441049158573150000e-003) (66, -3.50391305983066560000e-003) (67, -3.36173959076404570000e-002) (68, -7.65983909368515010000e-002) (69, -5.15558458864688870000e-002) (70, -9.32829231023788450000e-002) (71, -4.33936417102813720000e-002) (72, 5.28366640210151670000e-002) (73, 7.12474063038825990000e-002) (74, -6.31351992487907410000e-002) (75, -6.75317868590354920000e-002) (76, -7.29124769568443300000e-002) (77, 4.79371473193168640000e-002) (78, 1.38044338673353200000e-002) (79, -1.29764929413795470000e-001) (80, 1.28356859087944030000e-001) (81, 7.84101933240890500000e-002) (82, 8.45464095473289490000e-002) (83, -4.55594062805175780000e-002) (84, 9.08615440130233760000e-002) (85, 9.56692546606063840000e-002) (86, -5.65091669559478760000e-002) (87, -1.15927224978804590000e-002) (88, 8.02784636616706850000e-002) (89, -9.56999659538269040000e-002) (90, -3.74434106051921840000e-002) (91, 4.78722341358661650000e-002) (92, 2.28212326765060420000e-002) (93, -1.05177117511630060000e-002) (94, -8.92420187592506410000e-002) (95, -5.99224567413330080000e-002) (96, 1.10409064218401910000e-002) (97, -4.27722781896591190000e-002) (98, 3.37379947304725650000e-002) (99, -7.70325511693954470000e-002) (100, -7.79746472835540770000e-002) (101, 3.74466367065906520000e-002) (102, -4.85537052154541020000e-002) (103, -2.05474242568016050000e-001) (104, 1.43770407885313030000e-002) (105, 9.89470109343528750000e-002) (106, 6.91047906875610350000e-002) (107, 3.03760338574647900000e-002) (108, 1.48426112718880180000e-003) (109, -3.82551066577434540000e-002) (110, 1.08727626502513890000e-003) (111, 1.06402240693569180000e-001) (112, -9.65705607086420060000e-003) (113, 1.04728460311889650000e+000) (114, -1.30181480199098590000e-002) (115, -5.44191002845764160000e-001) (116, -1.25321611762046810000e-001) (117, -2.10611701011657710000e-001) (118, -2.17644274234771730000e-001) (119, -4.31074313819408420000e-002) (120, -2.11135782301425930000e-002) (121, -3.84456396102905270000e-001) (122, -1.47372812032699580000e-001) (123, 6.07902891933918000000e-002) (124, -3.59962210059165950000e-002) (125, 8.39557219296693800000e-003) (126, 9.73042100667953490000e-002) (127, 1.04148223996162410000e-001) (128, 5.64327836036682130000e-002) (0, 8.41006264090538020000e-002) (1, 1.12168090417981150000e-002) (2, -4.97662536799907680000e-002) (3, -9.23217739909887310000e-003) (4, 8.14894437789916990000e-002) (5, -2.08359703421592710000e-001) (6, -2.03104630112648010000e-001) (7, 4.72780130803585050000e-002) (8, -2.37922137603163720000e-003) (9, -6.19045794010162350000e-002) (10, -3.45100909471511840000e-002) (11, -8.78982394933700560000e-002) (12, -1.12254358828067780000e-001) (13, 4.43517006933689120000e-002) (14, 2.12179366499185560000e-002) (15, 4.15837988257408140000e-002) (16, -3.39929386973381040000e-002) (17, -1.48501053452491760000e-001) (18, -2.54075974225997920000e-001) (19, -2.04032376408576970000e-001) (20, 1.39036532491445540000e-002) (21, -3.17592769861221310000e-002) (22, 5.63646554946899410000e-002) (23, -6.20714686810970310000e-002) (24, 7.03259781002998350000e-002) (25, 1.81400254368782040000e-001) (26, -1.37064680457115170000e-002) (27, 1.45813167095184330000e+000) (28, 4.63252030313014980000e-002) (29, 8.22149291634559630000e-002) (30, 8.12951326370239260000e-001) (31, 1.30909633636474610000e+000) (32, -7.89059326052665710000e-002) (33, -3.95854078233242030000e-002) (34, -2.74093538522720340000e-001) (35, -2.02493160963058470000e-001) (36, -9.79225412011146550000e-002) (37, 2.07404550164937970000e-002) (38, -4.95810387656092640000e-003) (39, 1.18919998407363890000e-001) (40, 7.09461644291877750000e-002) (41, -5.16095533967018130000e-002) (42, -9.09025669097900390000e-002) (43, -9.59191992878913880000e-002) (44, -4.40290048718452450000e-002) (45, -1.45281121134758000000e-001) (46, 1.54434321448206900000e-002) (47, -6.78448081016540530000e-002) (48, 5.95149546861648560000e-002) (49, -5.38388974964618680000e-002) (50, 4.78458553552627560000e-002) (51, 8.79085659980773930000e-002) (52, 7.56054446101188660000e-002) (53, -6.73941448330879210000e-002) (54, -5.54141961038112640000e-002) (55, 2.18385998159646990000e-002) (56, -3.00848662853240970000e-001) (57, 1.79552454501390460000e-002) (58, -2.04723738133907320000e-002) (59, -3.84349301457405090000e-002) (60, -3.25153432786464690000e-002) (61, -7.45578557252883910000e-002) (62, -8.02287552505731580000e-003) (63, -1.30721807479858400000e-001) (64, 2.21479497849941250000e-002) (65, -2.27868892252445220000e-002) (66, 8.06439593434333800000e-002) (67, -6.47855550050735470000e-002) (68, 1.36393466964364050000e-002) (69, 4.72031272947788240000e-002) (70, -1.21644642204046250000e-002) (71, -3.79085689783096310000e-002) (72, -1.44903078675270080000e-001) (73, 7.48282894492149350000e-002) (74, 9.67320740222930910000e-001) (75, 4.45562303066253660000e-002) (76, 9.45437476038932800000e-002) (77, 1.26501079648733140000e-002) (78, -4.12188358604907990000e-002) (79, -5.92038072645664220000e-002) (80, -1.27512350678443910000e-001) (81, 7.59914144873619080000e-002) (82, -6.21164552867412570000e-002) (83, -5.94305582344532010000e-002) (84, 1.09938912093639370000e-001) (85, 1.43465429544448850000e-001) (86, -3.34980450570583340000e-002) (87, -6.63985610008239750000e-002) (88, 1.18503540754318240000e-001) (89, 9.34541821479797360000e-001) (90, 3.73821854591369630000e-001) (91, -1.12025484442710880000e-001) (92, 1.60572254657745360000e+000) (93, 3.22383418679237370000e-002) (94, 4.80484142899513240000e-002) (95, -6.74487724900245670000e-002) (96, -2.81560104340314870000e-002) (97, -8.36877897381782530000e-002) (98, -3.02911736071109770000e-002) (99, 4.20526862144470210000e-002) (100, -4.29187826812267300000e-002) (101, 5.23726679384708400000e-002) (102, 4.34965163469314580000e-001) (103, 4.46865469217300420000e-001) (104, -1.56803607940673830000e-001) (105, -1.08776435256004330000e-001) (106, -6.60845637321472170000e-002) (107, -4.23649996519088750000e-002) (108, -6.99041187763214110000e-002) (109, -1.13412596285343170000e-001) (110, 2.61408332735300060000e-002) (111, -2.88157463073730470000e-001) (112, -9.89346727728843690000e-002) (113, 3.42614129185676570000e-002) (114, 8.13106521964073180000e-002) (115, 6.54702559113502500000e-002) (116, -1.10101560130715370000e-002) (117, -1.36444672942161560000e-001) (118, -8.34077894687652590000e-002) (119, -4.41016778349876400000e-002) (120, -2.09783717989921570000e-001) (121, -6.50818765163421630000e-001) (122, -5.01744568347930910000e-001) (123, -8.94963368773460390000e-003) (124, -2.49072653241455550000e-003) (125, -4.15377784520387650000e-003) (126, -1.27215102314949040000e-001) (127, -5.06575219333171840000e-002) (128, -2.09981463849544530000e-002) (129, -1.23017930984497070000e+000) (130, -1.47321783006191250000e-002) (131, 3.67855489253997800000e-001) (132, 3.39729249477386470000e-001) (133, 3.54450851678848270000e-001) (134, -1.02568358182907100000e-001) (135, 8.70079636573791500000e-001) (136, -1.82979315519332890000e-001) (137, 9.06614243984222410000e-001) (129, 1.16296505928039550000e+000) (130, 3.72341610491275790000e-002) (131, -1.90554305911064150000e-001) (132, 8.25013145804405210000e-002) (133, 4.95912581682205200000e-002) (134, 3.61069023609161380000e-001) (135, -1.37297344207763670000e+000) (136, 3.18775892257690430000e-001) (137, 7.27813094854354860000e-002) 
