FANN_FLO_2.1
num_layers=3
learning_rate=0.700000
connection_rate=1.000000
network_type=0
learning_momentum=0.000000
training_algorithm=3
train_error_function=1
train_stop_function=0
cascade_output_change_fraction=0.010000
quickprop_decay=-0.000100
quickprop_mu=1.750000
rprop_increase_factor=1.200000
rprop_decrease_factor=0.500000
rprop_delta_min=0.000000
rprop_delta_max=50.000000
rprop_delta_zero=0.100000
cascade_output_stagnation_epochs=12
cascade_candidate_change_fraction=0.010000
cascade_candidate_stagnation_epochs=12
cascade_max_out_epochs=150
cascade_max_cand_epochs=150
cascade_num_candidate_groups=2
bit_fail_limit=3.49999994039535520000e-001
cascade_candidate_limit=1.00000000000000000000e+003
cascade_weight_multiplier=4.00000005960464480000e-001
cascade_activation_functions_count=10
cascade_activation_functions=3 5 7 8 10 11 14 15 16 17 
cascade_activation_steepnesses_count=4
cascade_activation_steepnesses=2.50000000000000000000e-001 5.00000000000000000000e-001 7.50000000000000000000e-001 1.00000000000000000000e+000 
layer_sizes=129 9 3 
scale_included=0
neurons (num_inputs, activation_function, activation_steepness)=(0, 0, 0.00000000000000000000e+000) (0, 0, 0.00000000000000000000e+000) (0, 0, 0.00000000000000000000e+000) (0, 0, 0.00000000000000000000e+000) (0, 0, 0.00000000000000000000e+000) (0, 0, 0.00000000000000000000e+000) (0, 0, 0.00000000000000000000e+000) (0, 0, 0.00000000000000000000e+000) (0, 0, 0.00000000000000000000e+000) (0, 0, 0.00000000000000000000e+000) (0, 0, 0.00000000000000000000e+000) (0, 0, 0.00000000000000000000e+000) (0, 0, 0.00000000000000000000e+000) (0, 0, 0.00000000000000000000e+000) (0, 0, 0.00000000000000000000e+000) (0, 0, 0.00000000000000000000e+000) (0, 0, 0.00000000000000000000e+000) (0, 0, 0.00000000000000000000e+000) (0, 0, 0.00000000000000000000e+000) (0, 0, 0.00000000000000000000e+000) (0, 0, 0.00000000000000000000e+000) (0, 0, 0.00000000000000000000e+000) (0, 0, 0.00000000000000000000e+000) (0, 0, 0.00000000000000000000e+000) (0, 0, 0.00000000000000000000e+000) (0, 0, 0.00000000000000000000e+000) (0, 0, 0.00000000000000000000e+000) (0, 0, 0.00000000000000000000e+000) (0, 0, 0.00000000000000000000e+000) (0, 0, 0.00000000000000000000e+000) (0, 0, 0.00000000000000000000e+000) (0, 0, 0.00000000000000000000e+000) (0, 0, 0.00000000000000000000e+000) (0, 0, 0.00000000000000000000e+000) (0, 0, 0.00000000000000000000e+000) (0, 0, 0.00000000000000000000e+000) (0, 0, 0.00000000000000000000e+000) (0, 0, 0.00000000000000000000e+000) (0, 0, 0.00000000000000000000e+000) (0, 0, 0.00000000000000000000e+000) (0, 0, 0.00000000000000000000e+000) (0, 0, 0.00000000000000000000e+000) (0, 0, 0.00000000000000000000e+000) (0, 0, 0.00000000000000000000e+000) (0, 0, 0.00000000000000000000e+000) (0, 0, 0.00000000000000000000e+000) (0, 0, 0.00000000000000000000e+000) (0, 0, 0.00000000000000000000e+000) (0, 0, 0.00000000000000000000e+000) (0, 0, 0.00000000000000000000e+000) (0, 0, 0.00000000000000000000e+000) (0, 0, 0.00000000000000000000e+000) (0, 0, 0.00000000000000000000e+000) (0, 0, 0.00000000000000000000e+000) (0, 0, 0.00000000000000000000e+000) (0, 0, 0.00000000000000000000e+000) (0, 0, 0.00000000000000000000e+000) (0, 0, 0.00000000000000000000e+000) (0, 0, 0.00000000000000000000e+000) (0, 0, 0.00000000000000000000e+000) (0, 0, 0.00000000000000000000e+000) (0, 0, 0.00000000000000000000e+000) (0, 0, 0.00000000000000000000e+000) (0, 0, 0.00000000000000000000e+000) (0, 0, 0.00000000000000000000e+000) (0, 0, 0.00000000000000000000e+000) (0, 0, 0.00000000000000000000e+000) (0, 0, 0.00000000000000000000e+000) (0, 0, 0.00000000000000000000e+000) (0, 0, 0.00000000000000000000e+000) (0, 0, 0.00000000000000000000e+000) (0, 0, 0.00000000000000000000e+000) (0, 0, 0.00000000000000000000e+000) (0, 0, 0.00000000000000000000e+000) (0, 0, 0.00000000000000000000e+000) (0, 0, 0.00000000000000000000e+000) (0, 0, 0.00000000000000000000e+000) (0, 0, 0.00000000000000000000e+000) (0, 0, 0.00000000000000000000e+000) (0, 0, 0.00000000000000000000e+000) (0, 0, 0.00000000000000000000e+000) (0, 0, 0.00000000000000000000e+000) (0, 0, 0.00000000000000000000e+000) (0, 0, 0.00000000000000000000e+000) (0, 0, 0.00000000000000000000e+000) (0, 0, 0.00000000000000000000e+000) (0, 0, 0.00000000000000000000e+000) (0, 0, 0.00000000000000000000e+000) (0, 0, 0.00000000000000000000e+000) (0, 0, 0.00000000000000000000e+000) (0, 0, 0.00000000000000000000e+000) (0, 0, 0.00000000000000000000e+000) (0, 0, 0.00000000000000000000e+000) (0, 0, 0.00000000000000000000e+000) (0, 0, 0.00000000000000000000e+000) (0, 0, 0.00000000000000000000e+000) (0, 0, 0.00000000000000000000e+000) (0, 0, 0.00000000000000000000e+000) (0, 0, 0.00000000000000000000e+000) (0, 0, 0.00000000000000000000e+000) (0, 0, 0.00000000000000000000e+000) (0, 0, 0.00000000000000000000e+000) (0, 0, 0.00000000000000000000e+000) (0, 0, 0.00000000000000000000e+000) (0, 0, 0.00000000000000000000e+000) (0, 0, 0.00000000000000000000e+000) (0, 0, 0.00000000000000000000e+000) (0, 0, 0.00000000000000000000e+000) (0, 0, 0.00000000000000000000e+000) (0, 0, 0.00000000000000000000e+000) (0, 0, 0.00000000000000000000e+000) (0, 0, 0.00000000000000000000e+000) (0, 0, 0.00000000000000000000e+000) (0, 0, 0.00000000000000000000e+000) (0, 0, 0.00000000000000000000e+000) (0, 0, 0.00000000000000000000e+000) (0, 0, 0.00000000000000000000e+000) (0, 0, 0.00000000000000000000e+000) (0, 0, 0.00000000000000000000e+000) (0, 0, 0.00000000000000000000e+000) (0, 0, 0.00000000000000000000e+000) (0, 0, 0.00000000000000000000e+000) (0, 0, 0.00000000000000000000e+000) (0, 0, 0.00000000000000000000e+000) (0, 0, 0.00000000000000000000e+000) (0, 0, 0.00000000000000000000e+000) (0, 0, 0.00000000000000000000e+000) (0, 0, 0.00000000000000000000e+000) (0, 0, 0.00000000000000000000e+000) (129, 4, 1.10000002384185790000e+000) (129, 4, 1.10000002384185790000e+000) (129, 4, 1.10000002384185790000e+000) (129, 4, 1.10000002384185790000e+000) (129, 4, 1.10000002384185790000e+000) (129, 4, 1.10000002384185790000e+000) (129, 4, 1.10000002384185790000e+000) (129, 4, 1.10000002384185790000e+000) (0, 4, 1.10000002384185790000e+000) (9, 5, 1.00000000000000000000e+000) (9, 5, 1.00000000000000000000e+000) (0, 5, 1.00000000000000000000e+000) 
connections (connected_to_neuron, weight)=(0, 6.70574903488159180000e-002) (1, -6.24865293502807620000e-002) (2, 1.49785256385803220000e+000) (3, -7.53906220197677610000e-002) (4, 3.42712581157684330000e-001) (5, -5.55915348231792450000e-002) (6, 1.24609529972076420000e-001) (7, -5.32563090324401860000e-001) (8, 4.97660905122756960000e-001) (9, 1.02789729833602910000e-001) (10, -7.80685305595397950000e-001) (11, 3.47857475280761720000e+000) (12, 2.37021371722221370000e-001) (13, -1.43361389636993410000e-001) (14, -2.41878569126129150000e-001) (15, 8.47741216421127320000e-002) (16, 8.91426503658294680000e-002) (17, 1.49667605757713320000e-001) (18, 5.54625391960144040000e-002) (19, 2.89640933275222780000e-001) (20, -1.21937848627567290000e-001) (21, -1.00755076855421070000e-002) (22, -1.87206834554672240000e-001) (23, 1.10424563288688660000e-001) (24, -1.41427204012870790000e-001) (25, -8.16974937915802000000e-002) (26, -2.86767147481441500000e-002) (27, 2.02713418006896970000e+000) (28, 4.71179299056530000000e-002) (29, -2.56427787244319920000e-002) (30, -1.57682076096534730000e-001) (31, 1.35284042358398440000e+000) (32, -4.70482259988784790000e-001) (33, 2.13673710823059080000e-001) (34, -9.22619700431823730000e-002) (35, 3.78804385662078860000e-001) (36, 6.02088309824466710000e-003) (37, 1.22679118067026140000e-002) (38, -1.12425780296325680000e+000) (39, 1.20903146266937260000e+000) (40, -4.34076972305774690000e-002) (41, 1.36142015457153320000e-001) (42, 5.75309731066226960000e-002) (43, -8.19585561752319340000e-001) (44, 4.05599959194660190000e-002) (45, 7.02767670154571530000e-002) (46, 1.35922372341156010000e-001) (47, -2.10055530071258540000e-001) (48, 9.23824384808540340000e-002) (49, 1.22593566775321960000e-001) (50, 6.75262868404388430000e-001) (51, 2.22353115677833560000e-001) (52, 1.23047821223735810000e-001) (53, 4.39323693513870240000e-001) (54, 2.98352688550949100000e-001) (55, 1.09452299773693080000e-001) (56, 3.56131605803966520000e-002) (57, -8.29223632812500000000e-001) (58, 1.65954098105430600000e-001) (59, -9.60828214883804320000e-002) (60, 3.22959363460540770000e-001) (61, -2.86800712347030640000e-001) (62, 5.85744500160217290000e-001) (63, -6.78935497999191280000e-002) (64, 1.59639760851860050000e-001) (65, -1.05296090245246890000e-001) (66, -3.59182357788085940000e-001) (67, 2.15155458450317380000e+000) (68, -1.16982020437717440000e-001) (69, -1.77372843027114870000e-001) (70, -1.66310966014862060000e-001) (71, -3.47508728504180910000e-001) (72, -1.81882921606302260000e-002) (73, -2.84998025745153430000e-002) (74, -2.25344449281692500000e-001) (75, -1.24951243400573730000e+000) (76, 6.05830997228622440000e-002) (77, -1.35787025094032290000e-001) (78, 1.39176949858665470000e-001) (79, -7.39862859249114990000e-001) (80, -2.43044714443385600000e-003) (81, 1.78949534893035890000e-001) (82, -3.32835726439952850000e-002) (83, 2.59600400924682620000e-001) (84, 6.46309778094291690000e-002) (85, 2.63714700937271120000e-001) (86, -1.32466614246368410000e-001) (87, 3.08150023221969600000e-001) (88, 5.25545477867126460000e-001) (89, 6.72821402549743650000e-002) (90, 4.95606988668441770000e-001) (91, 2.11909222602844240000e+000) (92, 9.10657584667205810000e-001) (93, 8.47865641117095950000e-003) (94, -8.44774767756462100000e-003) (95, 3.39827120304107670000e-001) (96, 4.01493930816650390000e+000) (97, 2.64941692352294920000e-001) (98, -4.73764874041080470000e-002) (99, 8.58274102210998540000e-002) (100, 1.19044438004493710000e-001) (101, 5.25080502033233640000e-001) (102, 3.39622467756271360000e-001) (103, -1.99560612440109250000e-001) (104, 5.93071468174457550000e-002) (105, -3.71073216199874880000e-001) (106, 8.24922770261764530000e-002) (107, -7.40465342998504640000e-001) (108, 6.98854550719261170000e-002) (109, -1.35128438472747800000e-001) (110, -1.65537407156080010000e-003) (111, 2.12818369269371030000e-001) (112, 8.11335295438766480000e-002) (113, 7.44015909731388090000e-003) (114, -1.12005136907100680000e-002) (115, 6.15685701370239260000e-001) (116, -7.52361774444580080000e-001) (117, -4.21358272433280940000e-002) (118, 4.57942366600036620000e-001) (119, -8.94006133079528810000e-001) (120, 1.70381277799606320000e-001) (121, 3.44358049333095550000e-002) (122, 1.80837079882621770000e-001) (123, -2.11214113235473630000e+000) (124, 5.63284531235694890000e-002) (125, 1.77052151411771770000e-002) (126, 7.45789334177970890000e-002) (127, -6.12452067434787750000e-002) (128, 2.85921454429626460000e-001) (0, 1.74625450745224950000e-003) (1, 5.70926768705248830000e-003) (2, 5.37323020398616790000e-002) (3, -8.67896452546119690000e-002) (4, 3.50281149148941040000e-002) (5, -7.81797990202903750000e-002) (6, -6.38778656721115110000e-002) (7, -7.63299092650413510000e-002) (8, -6.48164749145507810000e-002) (9, 3.36502008140087130000e-002) (10, -1.29235601052641870000e-002) (11, 3.00224195234477520000e-003) (12, -2.20795627683401110000e-002) (13, -6.64912164211273190000e-002) (14, 3.07618565857410430000e-002) (15, 2.04427074640989300000e-003) (16, -7.81024545431137080000e-002) (17, -7.10052400827407840000e-002) (18, -6.78275078535079960000e-002) (19, -9.79160815477371220000e-002) (20, -1.06400668621063230000e-001) (21, 6.77295103669166560000e-002) (22, -3.78224588930606840000e-002) (23, 1.05602918192744260000e-002) (24, -8.95533412694931030000e-002) (25, 8.39452818036079410000e-002) (26, -9.61800813674926760000e-002) (27, 4.34572249650955200000e-002) (28, 5.40869534015655520000e-002) (29, 1.35221378877758980000e-002) (30, -5.30114695429801940000e-002) (31, 6.46431595087051390000e-002) (32, -9.48293283581733700000e-002) (33, 6.98312073945999150000e-002) (34, -7.26246014237403870000e-002) (35, 9.37938988208770750000e-002) (36, -6.14320859313011170000e-002) (37, -1.11810684204101560000e-001) (38, -1.08261726796627040000e-001) (39, 7.41776078939437870000e-002) (40, -3.31845283508300780000e-002) (41, 1.13020520657300950000e-002) (42, 2.75267101824283600000e-002) (43, 6.43081739544868470000e-002) (44, -1.52129745110869410000e-002) (45, -2.45521683245897290000e-003) (46, -1.19186058640480040000e-001) (47, -5.71317672729492190000e-002) (48, -5.93933761119842530000e-002) (49, 3.52549068629741670000e-002) (50, 8.58377292752265930000e-002) (51, -5.37765622138977050000e-002) (52, -8.92448872327804570000e-002) (53, -4.29556220769882200000e-002) (54, -1.01977691054344180000e-001) (55, 7.91265890002250670000e-002) (56, -6.44253864884376530000e-002) (57, -3.22831571102142330000e-002) (58, -2.19007492065429690000e-001) (59, 3.77881601452827450000e-002) (60, 3.81199046969413760000e-002) (61, 1.03815924376249310000e-002) (62, 1.89760047942399980000e-002) (63, -2.25210227072238920000e-002) (64, 1.03472555056214330000e-002) (65, -8.40308442711830140000e-002) (66, -1.42508754506707190000e-002) (67, 3.44609990715980530000e-002) (68, 3.23191937059164050000e-003) (69, -1.37509465217590330000e-001) (70, -1.44426878541707990000e-002) (71, 1.90650466829538350000e-002) (72, -7.83591791987419130000e-002) (73, -1.79267823696136470000e-002) (74, 1.92692573182284830000e-003) (75, 2.41775643080472950000e-002) (76, -1.10323652625083920000e-001) (77, 4.13525104522705080000e-002) (78, -5.57443164288997650000e-002) (79, 9.37934964895248410000e-002) (80, 5.50774298608303070000e-002) (81, 4.20541204512119290000e-002) (82, 5.54764177650213240000e-003) (83, 1.49447005242109300000e-002) (84, 6.77125481888651850000e-003) (85, 7.45735764503479000000e-002) (86, -9.88969281315803530000e-002) (87, 2.82162055373191830000e-003) (88, 7.94227346777915950000e-002) (89, -1.06715604662895200000e-001) (90, -2.94064730405807500000e-002) (91, -2.42958087474107740000e-002) (92, -9.49650332331657410000e-002) (93, 6.82901069521903990000e-002) (94, 1.56941954046487810000e-002) (95, -3.18067427724599840000e-003) (96, -1.64794437587261200000e-002) (97, 6.66791349649429320000e-002) (98, -8.43298360705375670000e-002) (99, -7.01702237129211430000e-002) (100, 1.95319373160600660000e-002) (101, 7.57231190800666810000e-003) (102, -1.05410352349281310000e-001) (103, -2.48547457158565520000e-002) (104, 6.52793124318122860000e-002) (105, -9.90846231579780580000e-002) (106, -1.87365375459194180000e-002) (107, -9.25773475319147110000e-003) (108, -6.09594117850065230000e-003) (109, -3.09968199580907820000e-002) (110, -8.82883369922637940000e-002) (111, -9.08210352063179020000e-002) (112, -5.71586154401302340000e-002) (113, -3.74087551608681680000e-003) (114, 2.46909335255622860000e-002) (115, -7.43763223290443420000e-002) (116, 9.16361361742019650000e-002) (117, -7.77499005198478700000e-002) (118, 8.49048271775245670000e-002) (119, -3.60712796449661250000e-001) (120, 4.14216555655002590000e-002) (121, -7.48601332306861880000e-002) (122, -1.99443157762289050000e-002) (123, -7.41956681013107300000e-002) (124, 3.41288559138774870000e-002) (125, -9.43489447236061100000e-002) (126, 3.36664728820323940000e-002) (127, 2.71538104861974720000e-002) (128, -1.39227375388145450000e-001) (0, -4.32165563106536870000e-002) (1, 9.91758108139038090000e-002) (2, 4.65382775291800500000e-003) (3, -1.45480139181017880000e-002) (4, 3.78564260900020600000e-002) (5, 5.10440841317176820000e-002) (6, -1.53742986731231210000e-003) (7, -3.47955822944641110000e-002) (8, 3.86689975857734680000e-003) (9, -2.58804112672805790000e-002) (10, -1.09467711299657820000e-002) (11, 1.04624122381210330000e-001) (12, -7.98259451985359190000e-002) (13, 4.15491089224815370000e-002) (14, -4.22960706055164340000e-003) (15, 7.35672861337661740000e-002) (16, 6.24715834856033330000e-002) (17, -2.09901407361030580000e-002) (18, 6.91583231091499330000e-002) (19, 6.44757300615310670000e-002) (20, -6.57840594649314880000e-002) (21, -6.53978139162063600000e-002) (22, -5.88507317006587980000e-002) (23, 8.90384390950202940000e-002) (24, -4.03514970093965530000e-003) (25, -2.90957298129796980000e-002) (26, 3.13277579843997960000e-002) (27, -1.51522550731897350000e-002) (28, -2.33625508844852450000e-002) (29, -2.14230250567197800000e-002) (30, -5.85052073001861570000e-002) (31, 4.68687452375888820000e-002) (32, 7.48254805803298950000e-002) (33, 6.66206777095794680000e-002) (34, -8.24643969535827640000e-002) (35, 8.85042399168014530000e-002) (36, -9.66357216238975520000e-002) (37, -9.34040769934654240000e-002) (38, -7.70563036203384400000e-002) (39, 3.58999259769916530000e-002) (40, -7.76132196187973020000e-002) (41, -7.22394436597824100000e-002) (42, -1.69785171747207640000e-002) (43, -6.00174143910408020000e-002) (44, 1.01047176867723460000e-002) (45, -7.29773566126823430000e-002) (46, -1.07595011591911320000e-001) (47, -1.21627256274223330000e-001) (48, 7.11328387260437010000e-002) (49, -8.35415124893188480000e-002) (50, 4.62552979588508610000e-002) (51, -1.90217494964599610000e-002) (52, 2.29514967650175090000e-002) (53, -6.26212283968925480000e-002) (54, -9.75318923592567440000e-002) (55, -9.18179601430892940000e-002) (56, 5.72877563536167140000e-002) (57, -6.36636987328529360000e-002) (58, 2.82692089676856990000e-002) (59, -1.12047530710697170000e-001) (60, 8.70284959673881530000e-002) (61, 5.31912669539451600000e-002) (62, 3.83535176515579220000e-002) (63, -4.08212468028068540000e-002) (64, 4.82882745563983920000e-002) (65, 6.04308210313320160000e-003) (66, 1.19039730634540320000e-003) (67, 4.78381514549255370000e-002) (68, -7.81587436795234680000e-002) (69, -1.01858731359243390000e-002) (70, -5.60134425759315490000e-002) (71, 3.38091664016246800000e-002) (72, -8.54303091764450070000e-002) (73, -9.15515646338462830000e-002) (74, -1.07290431857109070000e-001) (75, -9.85488221049308780000e-002) (76, 7.53747150301933290000e-002) (77, -1.15260384976863860000e-001) (78, -4.27691638469696040000e-002) (79, -2.04525850713253020000e-002) (80, -4.18279394507408140000e-002) (81, 5.02530708909034730000e-002) (82, -4.72461059689521790000e-002) (83, -3.63415479660034180000e-002) (84, -1.03519968688488010000e-002) (85, 6.85843750834465030000e-002) (86, 2.16245390474796300000e-002) (87, -2.72202845662832260000e-002) (88, -1.02075725793838500000e-001) (89, -6.41003996133804320000e-002) (90, 6.52439817786216740000e-002) (91, -1.06836460530757900000e-001) (92, 8.63990653306245800000e-003) (93, -9.03545916080474850000e-002) (94, 7.20686614513397220000e-002) (95, 3.43957617878913880000e-002) (96, -2.81705390661954880000e-002) (97, -8.62694680690765380000e-002) (98, -1.52719737961888310000e-002) (99, -3.50610911846160890000e-002) (100, -9.04283449053764340000e-002) (101, -2.63257883489131930000e-002) (102, -7.57966414093971250000e-002) (103, 2.98819746822118760000e-002) (104, 2.72834170609712600000e-002) (105, -7.03642889857292180000e-002) (106, -3.74444648623466490000e-002) (107, -2.23325818777084350000e-001) (108, 7.70424827933311460000e-002) (109, -9.23191905021667480000e-002) (110, -7.82686471939086910000e-002) (111, -4.43876050412654880000e-002) (112, 9.82205867767333980000e-002) (113, 4.18066717684268950000e-002) (114, 3.60779231414198880000e-003) (115, -6.99806027114391330000e-003) (116, 3.96321825683116910000e-002) (117, 7.89442285895347600000e-002) (118, 9.33065563440322880000e-002) (119, -1.51327550411224370000e-001) (120, -4.91274781525135040000e-002) (121, -9.06285196542739870000e-002) (122, -2.20092292875051500000e-002) (123, -1.67456820607185360000e-001) (124, -8.05382523685693740000e-003) (125, 6.83176293969154360000e-002) (126, 5.16757443547248840000e-002) (127, -2.60534249246120450000e-002) (128, -8.79504514159634710000e-005) (0, -6.08692802488803860000e-002) (1, -6.50490298867225650000e-002) (2, -2.83350721001625060000e-002) (3, -6.06218613684177400000e-002) (4, 9.79873687028884890000e-002) (5, -9.37567092478275300000e-003) (6, 9.38748344779014590000e-002) (7, -8.30757990479469300000e-002) (8, 3.18901054561138150000e-002) (9, 1.85961704701185230000e-002) (10, -4.77049825713038440000e-003) (11, -1.08438413590192790000e-002) (12, -2.21381653100252150000e-002) (13, -6.52874186635017400000e-002) (14, -9.66475158929824830000e-002) (15, -3.62326949834823610000e-002) (16, 4.60644215345382690000e-002) (17, 7.72115439176559450000e-002) (18, -7.06467628479003910000e-002) (19, -1.94133758544921880000e-001) (20, -2.68119871616363530000e-002) (21, 9.37998574227094650000e-003) (22, -1.84042733162641530000e-002) (23, 8.96559879183769230000e-002) (24, -1.50499790906906130000e-002) (25, -7.00406432151794430000e-002) (26, -3.49087156355381010000e-002) (27, 9.04734134674072270000e-002) (28, -8.27047824859619140000e-002) (29, 5.83887211978435520000e-002) (30, -6.40730112791061400000e-002) (31, 2.59563140571117400000e-002) (32, 9.75844413042068480000e-002) (33, -6.55861124396324160000e-002) (34, -3.66520509123802190000e-002) (35, 1.09079852700233460000e-002) (36, -1.04271560907363890000e-001) (37, -3.26895676553249360000e-002) (38, -1.76607398316264150000e-003) (39, -4.96560931205749510000e-002) (40, -3.19958515465259550000e-002) (41, -5.96284084022045140000e-002) (42, 4.59348745644092560000e-002) (43, 1.27263247966766360000e-001) (44, -3.55065204203128810000e-002) (45, -9.51401069760322570000e-002) (46, -7.01007395982742310000e-002) (47, 3.52172530256211760000e-003) (48, -1.22245647013187410000e-001) (49, -9.78570729494094850000e-002) (50, -7.31954909861087800000e-003) (51, 5.87467942386865620000e-003) (52, 5.06595075130462650000e-002) (53, -1.16183772683143620000e-001) (54, 9.41562354564666750000e-002) (55, 1.02701261639595030000e-001) (56, 2.79084537178277970000e-002) (57, -4.16833683848381040000e-002) (58, 1.74535606056451800000e-002) (59, -7.45210051536560060000e-002) (60, 1.10044833272695540000e-002) (61, -1.88821740448474880000e-002) (62, 2.09042876958847050000e-002) (63, -3.51116627454757690000e-001) (64, 6.32372200489044190000e-002) (65, -7.91689902544021610000e-002) (66, -6.13652318716049190000e-002) (67, 1.07341125607490540000e-001) (68, 3.64251472055912020000e-002) (69, -5.49558959901332860000e-002) (70, 2.24592927843332290000e-002) (71, -5.22561278194189070000e-003) (72, -9.29775163531303410000e-002) (73, -6.53647035360336300000e-002) (74, 8.82110819220542910000e-002) (75, -6.04399153962731360000e-003) (76, -5.54453656077384950000e-002) (77, -7.21694827079772950000e-002) (78, 4.90253344178199770000e-002) (79, -1.63934156298637390000e-002) (80, 8.71429741382598880000e-002) (81, 2.25630626082420350000e-002) (82, -7.72227905690670010000e-003) (83, 1.73994470387697220000e-002) (84, -1.79645568132400510000e-002) (85, -7.72858485579490660000e-002) (86, -1.91105436533689500000e-002) (87, -7.75156095623970030000e-002) (88, 2.89976764470338820000e-002) (89, 6.63273483514785770000e-002) (90, 1.24856054782867430000e-001) (91, -8.97100344300270080000e-002) (92, 7.09670633077621460000e-002) (93, 1.12242290924768890000e-004) (94, 3.52331511676311490000e-002) (95, -9.21822711825370790000e-002) (96, -2.16259676963090900000e-002) (97, 7.33514577150344850000e-002) (98, 5.85825778543949130000e-002) (99, 3.50142247043550010000e-003) (100, 1.09615055844187740000e-002) (101, -4.63600456714630130000e-002) (102, -4.02340963482856750000e-002) (103, 7.77919664978981020000e-002) (104, 3.87558736838400360000e-003) (105, -1.20065659284591670000e-001) (106, -7.97050446271896360000e-003) (107, 5.34794747829437260000e-001) (108, 6.10363185405731200000e-002) (109, 1.93506106734275820000e-002) (110, -4.05531004071235660000e-002) (111, 6.84858532622456550000e-003) (112, 5.20381554961204530000e-002) (113, 1.12357689067721370000e-002) (114, 1.73936728388071060000e-002) (115, 4.07193452119827270000e-002) (116, -6.25476464629173280000e-002) (117, 3.98984439671039580000e-002) (118, 5.63596971333026890000e-002) (119, 5.41110336780548100000e-002) (120, -8.05056467652320860000e-003) (121, -6.06960617005825040000e-002) (122, -4.90590818226337430000e-002) (123, 4.75498959422111510000e-002) (124, 6.85524716973304750000e-002) (125, 1.08187515288591380000e-002) (126, -3.10288509353995320000e-003) (127, -1.59981939941644670000e-002) (128, 8.27865451574325560000e-002) (0, -1.19475394487380980000e-001) (1, -4.47391457855701450000e-002) (2, 5.97520917654037480000e-002) (3, -3.67141515016555790000e-002) (4, -1.58786907792091370000e-001) (5, -8.32353383302688600000e-002) (6, 1.77543889731168750000e-002) (7, -1.04347892105579380000e-001) (8, 2.25680340081453320000e-002) (9, -4.81418780982494350000e-002) (10, -1.08953781425952910000e-001) (11, -4.12587411701679230000e-002) (12, -7.31782540678977970000e-002) (13, 4.02420498430728910000e-002) (14, 1.01132644340395930000e-002) (15, 4.06686142086982730000e-002) (16, -2.45266240090131760000e-002) (17, 6.27449825406074520000e-002) (18, 9.01240184903144840000e-002) (19, 4.48014959692955020000e-002) (20, -3.41869115829467770000e-001) (21, -4.25801686942577360000e-002) (22, 3.87758836150169370000e-002) (23, 5.74432276189327240000e-002) (24, -1.69744968414306640000e-001) (25, -6.36892169713974000000e-002) (26, -8.08955952525138850000e-002) (27, 1.74311891198158260000e-001) (28, -8.41377004981040950000e-002) (29, -5.69199305027723310000e-003) (30, 6.26146420836448670000e-002) (31, 2.08677008748054500000e-001) (32, -1.18977956473827360000e-001) (33, 9.36613529920578000000e-002) (34, 2.22010985016822810000e-002) (35, 2.68775224685668950000e-001) (36, -9.97921377420425420000e-002) (37, -6.92716687917709350000e-002) (38, -1.97073761373758320000e-002) (39, 2.59734224528074260000e-002) (40, -7.55977928638458250000e-002) (41, 2.05008480697870250000e-002) (42, 9.57347750663757320000e-001) (43, -5.11147856712341310000e-001) (44, 4.50668223202228550000e-002) (45, 1.03053905069828030000e-001) (46, -9.12930257618427280000e-003) (47, -5.23144006729125980000e-002) (48, 1.40908673405647280000e-001) (49, 7.82681331038475040000e-002) (50, 3.53766679763793950000e-002) (51, 8.04231911897659300000e-002) (52, 4.79454137384891510000e-002) (53, 1.39030292630195620000e-001) (54, -2.13090285658836360000e-001) (55, 9.77131305262446400000e-004) (56, -2.49428991228342060000e-002) (57, -4.31881984695792200000e-003) (58, -6.09638988971710210000e-002) (59, -1.19539007544517520000e-001) (60, 1.28121688961982730000e-001) (61, -3.65919321775436400000e-002) (62, 8.34735333919525150000e-002) (63, -9.62987020611763000000e-002) (64, -6.59252926707267760000e-002) (65, -4.38676215708255770000e-002) (66, -8.95488113164901730000e-002) (67, -7.78424665331840520000e-002) (68, -7.85523746162652970000e-003) (69, -1.77801623940467830000e-002) (70, -1.11983671784400940000e-001) (71, -4.10882681608200070000e-001) (72, 2.89380848407745360000e-002) (73, 1.28843239508569240000e-004) (74, -2.53040194511413570000e-002) (75, -1.27632737159729000000e-001) (76, -9.62939055170863870000e-004) (77, -5.95946870744228360000e-002) (78, 1.77621856331825260000e-001) (79, -2.88059823215007780000e-002) (80, -5.86368143558502200000e-002) (81, 9.23288092017173770000e-002) (82, 8.99370610713958740000e-002) (83, 2.20364462584257130000e-002) (84, -4.77569922804832460000e-002) (85, 1.70277327299118040000e-001) (86, -7.06467702984809880000e-002) (87, 2.28364452719688420000e-001) (88, 7.47465854510664940000e-003) (89, 1.33878901600837710000e-001) (90, 9.06609296798706050000e-002) (91, 9.42781627178192140000e-001) (92, 5.62034212052822110000e-002) (93, 1.97931565344333650000e-002) (94, -6.53186347335577010000e-003) (95, 8.91735628247261050000e-002) (96, -7.40803629159927370000e-002) (97, -3.46860215067863460000e-002) (98, 1.55062917619943620000e-002) (99, -1.47268861532211300000e-001) (100, -8.52394700050354000000e-002) (101, -1.32333621382713320000e-001) (102, -7.16908052563667300000e-002) (103, -2.38824442028999330000e-001) (104, -5.30456416308879850000e-002) (105, -3.21368835866451260000e-002) (106, -2.61511206626892090000e-002) (107, -1.52997446060180660000e+000) (108, -8.05187970399856570000e-002) (109, 8.67641195654869080000e-002) (110, -1.89060699194669720000e-002) (111, 7.81908035278320310000e-002) (112, -9.26281735301017760000e-002) (113, -8.92921090126037600000e-002) (114, -7.40183964371681210000e-002) (115, -1.30143761634826660000e-001) (116, 5.42529709637165070000e-002) (117, -5.57413473725318910000e-002) (118, -3.22848670184612270000e-002) (119, -7.13423967361450200000e-001) (120, 2.96688172966241840000e-002) (121, 7.16208815574646000000e-002) (122, 7.63824731111526490000e-002) (123, -5.74754190444946290000e+000) (124, -2.19816360622644420000e-002) (125, -3.88679243624210360000e-002) (126, 1.33550558239221570000e-002) (127, -8.03451016545295720000e-002) (128, -7.61033315211534500000e-003) (0, -3.69008518755435940000e-002) (1, -1.27633698284626010000e-002) (2, -9.27363410592079160000e-002) (3, 2.70587876439094540000e-002) (4, 1.39468228444457050000e-002) (5, -7.70759955048561100000e-002) (6, 6.13260408863425250000e-003) (7, 8.42010304331779480000e-002) (8, -4.30169627070426940000e-002) (9, -6.31062388420104980000e-002) (10, 3.78242158330976960000e-003) (11, -4.56703193485736850000e-002) (12, 8.85920897126197810000e-002) (13, 5.65945729613304140000e-002) (14, 6.72880485653877260000e-002) (15, -1.29336211830377580000e-003) (16, 6.80951252579689030000e-002) (17, 5.25111220777034760000e-002) (18, -8.24117511510849000000e-002) (19, -3.35522182285785680000e-002) (20, 2.96205352060496810000e-003) (21, -4.62399311363697050000e-002) (22, 6.11799322068691250000e-002) (23, -9.49594974517822270000e-002) (24, 7.91666656732559200000e-002) (25, 3.29267606139183040000e-002) (26, 2.75017544627189640000e-002) (27, -1.21918050572276120000e-002) (28, 3.86373363435268400000e-002) (29, -1.15947686135768890000e-002) (30, 5.03017976880073550000e-002) (31, 2.09725610911846160000e-002) (32, 1.57542955130338670000e-002) (33, -9.19949710369110110000e-002) (34, 1.04892242234200240000e-003) (35, -4.57318872213363650000e-002) (36, 2.57252193987369540000e-002) (37, 4.43822667002677920000e-002) (38, 4.42194826900959010000e-002) (39, 3.92638146877288820000e-002) (40, -1.63578875362873080000e-002) (41, -8.62475037574768070000e-002) (42, -6.17808476090431210000e-003) (43, -9.56862270832061770000e-002) (44, 8.82520526647567750000e-002) (45, -8.76769199967384340000e-002) (46, -1.06556355953216550000e-001) (47, -1.26385062932968140000e-001) (48, -1.07156112790107730000e-001) (49, -3.72877568006515500000e-002) (50, -2.77390107512474060000e-002) (51, 3.22743803262710570000e-002) (52, -1.06325998902320860000e-001) (53, 7.27133080363273620000e-003) (54, 3.93840745091438290000e-002) (55, 6.21374230831861500000e-003) (56, -2.29615978896617890000e-002) (57, -1.15830838680267330000e-001) (58, -5.31582012772560120000e-002) (59, -3.78889008425176140000e-003) (60, -5.63896223902702330000e-002) (61, -1.03629805147647860000e-001) (62, -3.62246073782444000000e-002) (63, -1.09746403992176060000e-001) (64, -3.18910963833332060000e-002) (65, -1.07122950255870820000e-001) (66, -8.62128883600234990000e-002) (67, -7.13396966457366940000e-002) (68, 7.73470150306820870000e-003) (69, -1.09926693141460420000e-001) (70, -1.20046615600585940000e-001) (71, -6.22406601905822750000e-002) (72, -1.95959247648715970000e-002) (73, -7.47380703687667850000e-002) (74, -1.06169067323207860000e-001) (75, -5.44015914201736450000e-002) (76, -4.57306951284408570000e-002) (77, -8.68675857782363890000e-002) (78, -8.91130790114402770000e-002) (79, -5.47186285257339480000e-002) (80, -6.08247518539428710000e-002) (81, 6.48011416196823120000e-002) (82, -1.15185389295220380000e-002) (83, 3.66610959172248840000e-002) (84, -9.27284825593233110000e-003) (85, -1.33252015803009270000e-003) (86, -1.06341145932674410000e-001) (87, -7.72787928581237790000e-002) (88, 6.60872757434844970000e-002) (89, -6.52062520384788510000e-002) (90, 8.16426649689674380000e-002) (91, -1.01136073470115660000e-001) (92, 6.77419677376747130000e-002) (93, 7.98241794109344480000e-002) (94, 9.58834290504455570000e-002) (95, 3.97304631769657140000e-002) (96, 7.30731338262557980000e-002) (97, 1.05751166120171550000e-002) (98, 5.90911731123924260000e-002) (99, -4.30689007043838500000e-002) (100, 7.96060264110565190000e-002) (101, -6.97870254516601560000e-002) (102, 5.55684603750705720000e-003) (103, -1.52072180062532420000e-002) (104, 5.99443279206752780000e-002) (105, 9.16054770350456240000e-002) (106, -8.30852877697907390000e-005) (107, -9.03808400034904480000e-002) (108, 8.05721282958984380000e-002) (109, -5.21469525992870330000e-002) (110, -6.83880820870399480000e-002) (111, -2.30325553566217420000e-002) (112, -9.73510518670082090000e-002) (113, -8.54704454541206360000e-002) (114, 6.80930167436599730000e-002) (115, 2.59791910648345950000e-002) (116, 6.42367452383041380000e-002) (117, -2.13844068348407750000e-002) (118, 5.11698871850967410000e-002) (119, 7.34153762459754940000e-002) (120, 4.02659885585308070000e-002) (121, -2.39223279058933260000e-002) (122, 4.15171124041080470000e-002) (123, 1.72967705875635150000e-002) (124, 1.62882059812545780000e-002) (125, -7.12262392044067380000e-002) (126, 9.35165118426084520000e-003) (127, -2.42606401443481450000e-002) (128, 8.82515683770179750000e-003) (0, -5.50322085618972780000e-002) (1, 3.29890698194503780000e-002) (2, 4.16328646242618560000e-002) (3, -7.32474550604820250000e-002) (4, 9.89180579781532290000e-002) (5, 4.06353920698165890000e-002) (6, -3.44676822423934940000e-002) (7, 5.08254766464233400000e-002) (8, 6.10114224255084990000e-002) (9, -2.99251861870288850000e-002) (10, -3.05784661322832110000e-002) (11, -1.34559050202369690000e-002) (12, 1.63206662982702260000e-002) (13, 1.15711884573102000000e-002) (14, 6.48748055100440980000e-002) (15, 4.97320592403411870000e-002) (16, 1.30304426420480010000e-003) (17, -9.31530892848968510000e-002) (18, -3.64389829337596890000e-002) (19, -3.19895327091217040000e-001) (20, -3.54791805148124690000e-002) (21, 7.14829415082931520000e-002) (22, -5.06484042853116990000e-003) (23, 3.43985445797443390000e-002) (24, -5.92419237364083530000e-004) (25, -2.50627025961875920000e-002) (26, -7.04110460355877880000e-003) (27, 1.39492854475975040000e-001) (28, 5.76137285679578780000e-003) (29, 1.14401597529649730000e-002) (30, 6.83002620935440060000e-002) (31, 1.05565160512924190000e-001) (32, -1.11371148377656940000e-002) (33, 1.69861800968647000000e-002) (34, 8.88837676029652360000e-004) (35, -1.00950263440608980000e-002) (36, -2.07141444087028500000e-001) (37, 1.02254427969455720000e-001) (38, -6.91570118069648740000e-002) (39, -5.22459149360656740000e-002) (40, -6.14681065082550050000e-001) (41, 9.76090356707572940000e-002) (42, -4.13570590317249300000e-002) (43, -5.69005310535430910000e-003) (44, 2.43946332484483720000e-002) (45, 1.38951074331998830000e-002) (46, 9.16564241051673890000e-002) (47, 6.81168437004089360000e-002) (48, 6.52512013912200930000e-002) (49, 4.86602745950222020000e-002) (50, 8.49879998713731770000e-003) (51, -2.40503740496933460000e-003) (52, -8.05222690105438230000e-002) (53, -1.05182513594627380000e-001) (54, 5.03369718790054320000e-002) (55, 2.06635091453790660000e-002) (56, 3.86068299412727360000e-002) (57, -5.07597066462039950000e-002) (58, 4.90530803799629210000e-002) (59, 2.78179422020912170000e-002) (60, 3.90754453837871550000e-002) (61, 2.09313184022903440000e-002) (62, -8.58402475714683530000e-002) (63, -7.57661461830139160000e-002) (64, 2.44237203150987630000e-002) (65, -4.68971673399209980000e-003) (66, 2.37967278808355330000e-002) (67, -2.65317223966121670000e-002) (68, -6.79976493120193480000e-002) (69, -4.56071533262729640000e-002) (70, -7.08819255232810970000e-002) (71, -3.77911403775215150000e-002) (72, 6.23479038476943970000e-002) (73, 6.90672993659973140000e-002) (74, -1.54362514149397610000e-003) (75, 1.24509438137465620000e-006) (76, -7.81634151935577390000e-002) (77, 5.43189160525798800000e-002) (78, 7.82752484083175660000e-002) (79, -1.02031141519546510000e-001) (80, 7.61970728635787960000e-002) (81, 6.04619793593883510000e-002) (82, -9.95803251862525940000e-003) (83, -8.14549848437309270000e-002) (84, 2.40304935723543170000e-002) (85, -7.22304880619049070000e-002) (86, -1.34365800768136980000e-002) (87, -1.37815047055482860000e-002) (88, 7.69167914986610410000e-002) (89, 4.74658161401748660000e-002) (90, 4.53594401478767400000e-002) (91, -1.49599999189376830000e-001) (92, 2.41389423608779910000e-002) (93, -9.95591655373573300000e-003) (94, -8.64015147089958190000e-002) (95, -6.99640586972236630000e-002) (96, 7.35275596380233760000e-002) (97, -9.80157777667045590000e-003) (98, 7.60592669248580930000e-002) (99, -4.27087172865867610000e-002) (100, -9.02948006987571720000e-002) (101, -1.70048186555504800000e-003) (102, 1.40248052775859830000e-002) (103, -3.92645858228206630000e-002) (104, -5.86495473980903630000e-002) (105, -4.84083220362663270000e-002) (106, 2.07994468510150910000e-002) (107, 7.38738238811492920000e-001) (108, -2.22460888326168060000e-002) (109, -4.98633645474910740000e-002) (110, -2.42834538221359250000e-002) (111, -5.96494376659393310000e-002) (112, -5.67300766706466670000e-002) (113, 1.25819612294435500000e-002) (114, -6.15720488131046300000e-002) (115, -8.55727568268775940000e-002) (116, -1.06217987835407260000e-001) (117, -9.89026054739952090000e-002) (118, 5.98992854356765750000e-002) (119, -6.85954838991165160000e-002) (120, 2.45589576661586760000e-003) (121, 6.11145533621311190000e-002) (122, 6.44078999757766720000e-002) (123, 7.00796023011207580000e-002) (124, -6.03443421423435210000e-002) (125, 1.63617804646492000000e-002) (126, 8.09912309050560000000e-002) (127, 9.67031121253967290000e-002) (128, 6.89281299710273740000e-002) (0, 9.92368310689926150000e-002) (1, 6.56940042972564700000e-002) (2, -3.59274037182331090000e-002) (3, -7.03949332237243650000e-002) (4, 1.69991344213485720000e-001) (5, -7.49742519110441210000e-003) (6, 1.16414739750325680000e-003) (7, 6.73745349049568180000e-002) (8, 8.39030891656875610000e-002) (9, -2.92897298932075500000e-002) (10, 2.11590230464935300000e-002) (11, -9.94105637073516850000e-002) (12, -9.71375852823257450000e-002) (13, 2.29833215475082400000e-001) (14, 1.42958546057343480000e-002) (15, 3.68751436471939090000e-002) (16, -1.77775353193283080000e-001) (17, 2.72446535527706150000e-002) (18, 4.11593839526176450000e-002) (19, -1.00565150380134580000e-001) (20, 5.76736927032470700000e-002) (21, 6.56250342726707460000e-002) (22, 3.88224758207798000000e-002) (23, -9.73078515380620960000e-003) (24, 6.52760490775108340000e-002) (25, 4.64417114853858950000e-002) (26, -5.76923228800296780000e-002) (27, 8.54810103774070740000e-002) (28, -1.83990299701690670000e-002) (29, 7.49450102448463440000e-002) (30, 4.77620176970958710000e-002) (31, 9.29567143321037290000e-002) (32, -1.11804991960525510000e-001) (33, 5.15282303094863890000e-002) (34, -8.59340801835060120000e-002) (35, -7.94780254364013670000e-003) (36, -1.26769527792930600000e-001) (37, 3.66847887635231020000e-002) (38, -4.28186804056167600000e-002) (39, 1.16304993629455570000e-001) (40, 7.55573585629463200000e-002) (41, -4.25075553357601170000e-002) (42, -1.29915371537208560000e-001) (43, 3.47398012876510620000e-001) (44, -2.47358158230781560000e-002) (45, 4.78357970714569090000e-002) (46, -1.35861530900001530000e-001) (47, 4.37499172985553740000e-002) (48, 1.98912955820560460000e-002) (49, -4.56634499132633210000e-002) (50, 1.12256266176700590000e-001) (51, 1.36316016316413880000e-001) (52, -5.17864525318145750000e-002) (53, -1.18801139295101170000e-001) (54, -3.60107272863388060000e-002) (55, 2.52365231513977050000e-001) (56, -2.90343873202800750000e-002) (57, -3.29766958020627500000e-003) (58, -1.30873933434486390000e-001) (59, -4.32830095291137700000e-001) (60, 4.09644991159439090000e-002) (61, -9.49626043438911440000e-002) (62, -9.95719432830810550000e-002) (63, -3.90219330787658690000e-001) (64, 4.73457314074039460000e-002) (65, -6.56146630644798280000e-002) (66, 1.16208843886852260000e-001) (67, -5.67135997116565700000e-002) (68, 4.39961627125740050000e-002) (69, -4.65358719229698180000e-002) (70, -1.77308902144432070000e-001) (71, -1.90585997188463810000e-004) (72, -1.96983553469181060000e-002) (73, 3.18767391145229340000e-002) (74, 1.64408367127180100000e-002) (75, 2.41068713366985320000e-002) (76, 1.00637264549732210000e-001) (77, -4.82976548373699190000e-002) (78, 1.78521558642387390000e-001) (79, -9.42536368966102600000e-002) (80, -9.62928608059883120000e-002) (81, 4.23865243792533870000e-002) (82, -2.32720598578453060000e-001) (83, -4.39635872840881350000e-001) (84, 6.27307593822479250000e-002) (85, 3.78957316279411320000e-002) (86, -2.28889565914869310000e-002) (87, -2.70482469350099560000e-002) (88, 2.97784984111785890000e-001) (89, 2.34447773545980450000e-002) (90, 6.04449808597564700000e-002) (91, 2.85496599972248080000e-002) (92, -6.94027021527290340000e-002) (93, 2.14959029108285900000e-002) (94, 6.47175461053848270000e-002) (95, -9.59284380078315730000e-002) (96, -1.45239140838384630000e-002) (97, -5.45125864446163180000e-002) (98, 7.48444423079490660000e-002) (99, 4.29790049791336060000e-001) (100, -5.19144721329212190000e-002) (101, -4.52587194740772250000e-002) (102, -4.53069210052490230000e-002) (103, -3.82241047918796540000e-002) (104, -8.75128358602523800000e-002) (105, -5.22383973002433780000e-002) (106, 1.18932069744914770000e-003) (107, 2.87810415029525760000e-001) (108, -4.19841222465038300000e-002) (109, -1.19839183986186980000e-001) (110, 8.73833373188972470000e-002) (111, -9.28019702434539790000e-001) (112, -6.11901171505451200000e-002) (113, 8.85450541973114010000e-002) (114, 1.03138454258441930000e-001) (115, -1.39253824949264530000e-001) (116, 4.72221858799457550000e-002) (117, 8.43278542160987850000e-002) (118, -2.19236165285110470000e-002) (119, -8.99329960346221920000e-001) (120, -7.26156532764434810000e-002) (121, 4.26965439692139630000e-003) (122, -8.02403986454010010000e-002) (123, -1.04149663448333740000e+000) (124, 3.07361423969268800000e-001) (125, 2.82637495547533040000e-003) (126, 3.73411700129508970000e-002) (127, -3.49224209785461430000e-002) (128, -9.27991494536399840000e-002) (129, -1.54499638080596920000e+000) (130, 4.41548228263854980000e-002) (131, 6.80290982127189640000e-002) (132, 3.98678779602050780000e-001) (133, -2.16264054179191590000e-001) (134, 1.32787059992551800000e-002) (135, 3.62102121114730830000e-001) (136, 8.12918365001678470000e-001) (137, 1.04562389850616460000e+000) (129, 1.51487243175506590000e+000) (130, 1.03678725659847260000e-001) (131, 1.07985362410545350000e-001) (132, 1.68332085013389590000e-002) (133, 1.31966698169708250000e+000) (134, 3.38338203728199010000e-002) (135, 7.21683502197265630000e-002) (136, -2.28661942481994630000e+000) (137, -1.09490789473056790000e-001) 
