FANN_FLO_2.1
num_layers=3
learning_rate=0.700000
connection_rate=1.000000
network_type=0
learning_momentum=0.000000
training_algorithm=3
train_error_function=1
train_stop_function=0
cascade_output_change_fraction=0.010000
quickprop_decay=-0.000100
quickprop_mu=1.750000
rprop_increase_factor=1.200000
rprop_decrease_factor=0.500000
rprop_delta_min=0.000000
rprop_delta_max=50.000000
rprop_delta_zero=0.100000
cascade_output_stagnation_epochs=12
cascade_candidate_change_fraction=0.010000
cascade_candidate_stagnation_epochs=12
cascade_max_out_epochs=150
cascade_max_cand_epochs=150
cascade_num_candidate_groups=2
bit_fail_limit=3.49999994039535520000e-001
cascade_candidate_limit=1.00000000000000000000e+003
cascade_weight_multiplier=4.00000005960464480000e-001
cascade_activation_functions_count=10
cascade_activation_functions=3 5 7 8 10 11 14 15 16 17 
cascade_activation_steepnesses_count=4
cascade_activation_steepnesses=2.50000000000000000000e-001 5.00000000000000000000e-001 7.50000000000000000000e-001 1.00000000000000000000e+000 
layer_sizes=60 9 3 
scale_included=0
neurons (num_inputs, activation_function, activation_steepness)=(0, 0, 0.00000000000000000000e+000) (0, 0, 0.00000000000000000000e+000) (0, 0, 0.00000000000000000000e+000) (0, 0, 0.00000000000000000000e+000) (0, 0, 0.00000000000000000000e+000) (0, 0, 0.00000000000000000000e+000) (0, 0, 0.00000000000000000000e+000) (0, 0, 0.00000000000000000000e+000) (0, 0, 0.00000000000000000000e+000) (0, 0, 0.00000000000000000000e+000) (0, 0, 0.00000000000000000000e+000) (0, 0, 0.00000000000000000000e+000) (0, 0, 0.00000000000000000000e+000) (0, 0, 0.00000000000000000000e+000) (0, 0, 0.00000000000000000000e+000) (0, 0, 0.00000000000000000000e+000) (0, 0, 0.00000000000000000000e+000) (0, 0, 0.00000000000000000000e+000) (0, 0, 0.00000000000000000000e+000) (0, 0, 0.00000000000000000000e+000) (0, 0, 0.00000000000000000000e+000) (0, 0, 0.00000000000000000000e+000) (0, 0, 0.00000000000000000000e+000) (0, 0, 0.00000000000000000000e+000) (0, 0, 0.00000000000000000000e+000) (0, 0, 0.00000000000000000000e+000) (0, 0, 0.00000000000000000000e+000) (0, 0, 0.00000000000000000000e+000) (0, 0, 0.00000000000000000000e+000) (0, 0, 0.00000000000000000000e+000) (0, 0, 0.00000000000000000000e+000) (0, 0, 0.00000000000000000000e+000) (0, 0, 0.00000000000000000000e+000) (0, 0, 0.00000000000000000000e+000) (0, 0, 0.00000000000000000000e+000) (0, 0, 0.00000000000000000000e+000) (0, 0, 0.00000000000000000000e+000) (0, 0, 0.00000000000000000000e+000) (0, 0, 0.00000000000000000000e+000) (0, 0, 0.00000000000000000000e+000) (0, 0, 0.00000000000000000000e+000) (0, 0, 0.00000000000000000000e+000) (0, 0, 0.00000000000000000000e+000) (0, 0, 0.00000000000000000000e+000) (0, 0, 0.00000000000000000000e+000) (0, 0, 0.00000000000000000000e+000) (0, 0, 0.00000000000000000000e+000) (0, 0, 0.00000000000000000000e+000) (0, 0, 0.00000000000000000000e+000) (0, 0, 0.00000000000000000000e+000) (0, 0, 0.00000000000000000000e+000) (0, 0, 0.00000000000000000000e+000) (0, 0, 0.00000000000000000000e+000) (0, 0, 0.00000000000000000000e+000) (0, 0, 0.00000000000000000000e+000) (0, 0, 0.00000000000000000000e+000) (0, 0, 0.00000000000000000000e+000) (0, 0, 0.00000000000000000000e+000) (0, 0, 0.00000000000000000000e+000) (0, 0, 0.00000000000000000000e+000) (60, 4, 1.10000002384185790000e+000) (60, 4, 1.10000002384185790000e+000) (60, 4, 1.10000002384185790000e+000) (60, 4, 1.10000002384185790000e+000) (60, 4, 1.10000002384185790000e+000) (60, 4, 1.10000002384185790000e+000) (60, 4, 1.10000002384185790000e+000) (60, 4, 1.10000002384185790000e+000) (0, 4, 1.10000002384185790000e+000) (9, 5, 1.00000000000000000000e+000) (9, 5, 1.00000000000000000000e+000) (0, 5, 1.00000000000000000000e+000) 
connections (connected_to_neuron, weight)=(0, -5.17075993120670320000e-002) (1, -2.57535874843597410000e-001) (2, -1.50272533297538760000e-001) (3, -1.79190672934055330000e-002) (4, -2.63970494270324710000e-001) (5, -3.04884854704141620000e-002) (6, -7.21205472946166990000e-002) (7, -5.13404756784439090000e-002) (8, -1.04915857315063480000e-001) (9, -2.52106219530105590000e-001) (10, -6.63700342178344730000e-001) (11, -8.56816768646240230000e-002) (12, -1.23681323602795600000e-002) (13, -7.51769170165061950000e-002) (14, 7.49870315194129940000e-002) (15, -9.84177365899086000000e-002) (16, -1.29199504852294920000e-001) (17, -1.83014608919620510000e-002) (18, -7.76197612285614010000e-002) (19, 5.23724615573883060000e-001) (20, 9.20021235942840580000e-002) (21, 6.69475272297859190000e-003) (22, -6.44093528389930730000e-002) (23, -1.16448424756526950000e-001) (24, 4.42887544631958010000e-001) (25, 1.21107131242752080000e-001) (26, 7.28027522563934330000e-002) (27, 3.11161335557699200000e-002) (28, 9.94846299290657040000e-002) (29, -3.84644091129302980000e-001) (30, -8.66794958710670470000e-002) (31, 2.22775593400001530000e-001) (32, -3.27911347150802610000e-001) (33, -1.15409374237060550000e+000) (34, -8.71846824884414670000e-002) (35, -7.17942342162132260000e-002) (36, -3.87161113321781160000e-002) (37, -4.68248501420021060000e-002) (38, -6.06323443353176120000e-002) (39, -1.55973270535469060000e-001) (40, -3.35463494062423710000e-001) (41, 4.23575825989246370000e-002) (42, -9.98233556747436520000e-002) (43, 9.60979461669921880000e-002) (44, -6.95061028003692630000e-001) (45, -1.82226195931434630000e-001) (46, -6.14315504208207130000e-003) (47, -1.02214843034744260000e-001) (48, -1.48829340934753420000e-001) (49, -2.48436391353607180000e-001) (50, -1.29083141684532170000e-001) (51, -1.34918019175529480000e-001) (52, 8.91991183161735530000e-002) (53, -6.88770115375518800000e-002) (54, 7.43970349431037900000e-002) (55, -5.43291866779327390000e-002) (56, -3.54548729956150050000e-002) (57, 8.63239407539367680000e-001) (58, 1.89912408590316770000e-001) (59, 2.02966947108507160000e-002) (0, -5.91108389198780060000e-002) (1, 6.08036410994827750000e-004) (2, -9.57983508706092830000e-002) (3, -1.66922491043806080000e-002) (4, 4.64631393551826480000e-002) (5, 3.25546935200691220000e-002) (6, -5.86902780923992400000e-004) (7, -5.00864684581756590000e-002) (8, -5.17860660329461100000e-003) (9, -2.10156999528408050000e-002) (10, 7.54942521452903750000e-002) (11, -4.52352650463581090000e-002) (12, 2.35093254595994950000e-002) (13, 8.97149369120597840000e-002) (14, 2.50814799219369890000e-002) (15, -4.84131043776869770000e-003) (16, 7.36143290996551510000e-002) (17, 2.57580298930406570000e-002) (18, 6.75950422883033750000e-002) (19, 8.71977955102920530000e-003) (20, 2.07486003637313840000e-002) (21, 4.10042190924286840000e-003) (22, -6.23274594545364380000e-002) (23, -4.87151443958282470000e-002) (24, -4.64587211608886720000e-002) (25, -2.85218730568885800000e-002) (26, 8.51246416568756100000e-002) (27, 3.71510721743106840000e-003) (28, -9.35296118259429930000e-002) (29, 1.64447855204343800000e-002) (30, -4.24766773357987400000e-003) (31, -3.46359349787235260000e-002) (32, -6.91745132207870480000e-002) (33, 8.42223763465881350000e-002) (34, 9.31749045848846440000e-002) (35, -5.25505021214485170000e-002) (36, 4.48053628206253050000e-002) (37, 4.92095723748207090000e-002) (38, 4.89764788653701540000e-004) (39, -3.58644872903823850000e-002) (40, -9.49072930961847310000e-003) (41, -3.85987758636474610000e-002) (42, -8.88894423842430110000e-002) (43, 9.09236520528793330000e-002) (44, 3.55122573673725130000e-002) (45, 5.45037537813186650000e-003) (46, -9.16425362229347230000e-002) (47, 7.71548673510551450000e-002) (48, -8.44499096274375920000e-002) (49, 8.70081409811973570000e-002) (50, 6.31679594516754150000e-003) (51, 3.82067151367664340000e-002) (52, -7.74101540446281430000e-002) (53, -3.94365191459655760000e-002) (54, 6.67790845036506650000e-002) (55, -8.54807421565055850000e-002) (56, 6.47931173443794250000e-002) (57, -4.97593916952610020000e-002) (58, 4.58553768694400790000e-002) (59, 2.62642465531826020000e-002) (0, -8.15019980072975160000e-002) (1, -7.11359232664108280000e-002) (2, 1.88689809292554860000e-002) (3, -3.37454304099082950000e-002) (4, -5.95692452043294910000e-003) (5, 6.92081451416015630000e-002) (6, 7.85630494356155400000e-002) (7, -8.43709930777549740000e-002) (8, 1.57871153205633160000e-002) (9, 1.56746432185173030000e-002) (10, 4.34258431196212770000e-002) (11, -1.18883475661277770000e-002) (12, -2.11001429706811900000e-002) (13, -2.25462168455123900000e-002) (14, -2.61466950178146360000e-002) (15, -6.51709511876106260000e-002) (16, 5.78122250735759740000e-002) (17, -8.15267115831375120000e-003) (18, -9.16096493601799010000e-002) (19, 7.56128206849098210000e-002) (20, -8.13113823533058170000e-002) (21, -9.99148711562156680000e-002) (22, -7.25534111261367800000e-002) (23, 3.20121757686138150000e-002) (24, -3.08042727410793300000e-002) (25, 1.70992594212293620000e-002) (26, 5.71498759090900420000e-002) (27, -7.78722912073135380000e-002) (28, 4.80380430817604060000e-002) (29, -3.35082784295082090000e-002) (30, -1.05984456837177280000e-001) (31, -6.57629445195198060000e-002) (32, -3.45953032374382020000e-002) (33, 5.75001128017902370000e-002) (34, -1.17451064288616180000e-002) (35, 6.97967335581779480000e-002) (36, -2.87308134138584140000e-002) (37, 9.24316234886646270000e-003) (38, 2.19261012971401210000e-002) (39, -7.68426284193992610000e-002) (40, 8.00308026373386380000e-003) (41, -1.36218266561627390000e-002) (42, -5.78717477619647980000e-002) (43, 5.05525618791580200000e-002) (44, -2.31021177023649220000e-002) (45, -4.39467281103134160000e-002) (46, -1.09433352947235110000e-001) (47, 5.29640354216098790000e-002) (48, 8.38828086853027340000e-002) (49, -5.45168407261371610000e-002) (50, -7.98549503087997440000e-002) (51, -7.63841718435287480000e-002) (52, -9.17446911334991460000e-002) (53, -2.12223292328417300000e-003) (54, -3.91495376825332640000e-002) (55, -7.46427252888679500000e-002) (56, -7.35003799200057980000e-002) (57, 7.25766494870185850000e-002) (58, -1.76154263317584990000e-002) (59, -1.89500480890274050000e-001) (0, -3.62673364579677580000e-002) (1, 1.75313800573349000000e-002) (2, 8.41402113437652590000e-002) (3, 6.75334557890892030000e-002) (4, 7.85749852657318120000e-002) (5, -3.09564787894487380000e-002) (6, -9.60224941372871400000e-002) (7, 8.35836529731750490000e-002) (8, 4.12132330238819120000e-002) (9, -7.24649205803871150000e-002) (10, -5.47402426600456240000e-002) (11, 9.37560498714447020000e-002) (12, -1.99209637939929960000e-002) (13, 9.11150965839624400000e-003) (14, 4.93155419826507570000e-003) (15, 1.43002718687057500000e-002) (16, 8.77221226692199710000e-002) (17, -7.68146142363548280000e-002) (18, -1.79357007145881650000e-002) (19, 1.68317630887031560000e-002) (20, 9.70948636531829830000e-002) (21, 5.06552495062351230000e-003) (22, -4.07735742628574370000e-002) (23, -4.20381724834442140000e-002) (24, 4.05381508171558380000e-002) (25, -7.52239748835563660000e-002) (26, 3.19986566901206970000e-002) (27, 4.20916117727756500000e-002) (28, 2.90598953142762180000e-003) (29, -5.78392483294010160000e-002) (30, 3.13746184110641480000e-002) (31, 5.75449615716934200000e-002) (32, 2.64585837721824650000e-002) (33, -7.17111378908157350000e-002) (34, -7.23379626870155330000e-002) (35, -4.26350086927413940000e-002) (36, -7.85732194781303410000e-002) (37, 7.05260783433914180000e-002) (38, 9.78376567363739010000e-002) (39, 2.93793231248855590000e-002) (40, -7.42215961217880250000e-002) (41, 4.01908084750175480000e-002) (42, -1.00288882851600650000e-001) (43, -9.31682661175727840000e-002) (44, 7.50504992902278900000e-003) (45, -8.06835517287254330000e-002) (46, 7.11649879813194270000e-002) (47, -8.55580493807792660000e-002) (48, 2.91284751147031780000e-002) (49, -1.03607028722763060000e-001) (50, -6.64864629507064820000e-002) (51, -1.12821646034717560000e-002) (52, -3.02585475146770480000e-002) (53, 2.69569829106330870000e-002) (54, -1.23012484982609750000e-002) (55, 8.84271285030990840000e-004) (56, 9.12231430411338810000e-002) (57, 6.97229930665344000000e-004) (58, -7.43105486035346980000e-002) (59, -1.17753140628337860000e-001) (0, 6.90361186861991880000e-002) (1, -5.19409142434597020000e-002) (2, 2.76139806956052780000e-002) (3, -5.92580884695053100000e-002) (4, -2.72042956203222270000e-002) (5, -7.42360055446624760000e-002) (6, -6.59954994916915890000e-002) (7, 1.39317056164145470000e-002) (8, -1.82320214807987210000e-002) (9, 4.22518700361251830000e-002) (10, -1.07074035331606860000e-002) (11, 7.75902569293975830000e-002) (12, -7.84215033054351810000e-002) (13, 3.86071801185607910000e-002) (14, 1.14336134865880010000e-002) (15, -5.69026395678520200000e-002) (16, -5.26411533355712890000e-002) (17, -5.36990491673350330000e-003) (18, -2.29524038732051850000e-002) (19, -9.30362492799758910000e-002) (20, 1.45056946203112600000e-002) (21, 4.49074804782867430000e-002) (22, -5.07321394979953770000e-002) (23, 2.88712438195943830000e-002) (24, -4.53293584287166600000e-002) (25, -8.58496353030204770000e-002) (26, 2.14518886059522630000e-002) (27, -8.93663428723812100000e-003) (28, -5.30592538416385650000e-002) (29, 9.60206687450408940000e-002) (30, 5.76100274920463560000e-002) (31, -2.61690048500895500000e-003) (32, 9.27823111414909360000e-002) (33, 7.30951726436614990000e-002) (34, 4.01439368724823000000e-002) (35, 4.96083050966262820000e-002) (36, -3.13634723424911500000e-002) (37, -6.58139064908027650000e-002) (38, 1.17190545424818990000e-002) (39, 7.89567828178405760000e-002) (40, -8.27657878398895260000e-002) (41, -3.24601121246814730000e-002) (42, 7.56005942821502690000e-002) (43, 6.22813180088996890000e-002) (44, 7.24768787622451780000e-002) (45, -3.77289652824401860000e-002) (46, 5.92275299131870270000e-002) (47, -3.83537672460079190000e-002) (48, -4.95147518813610080000e-002) (49, 2.96014081686735150000e-002) (50, 1.73282027244567870000e-002) (51, 1.63508988916873930000e-002) (52, -9.91297811269760130000e-002) (53, -8.79897698760032650000e-002) (54, -1.90191511064767840000e-002) (55, 5.09162507951259610000e-002) (56, -4.17759045958518980000e-002) (57, -1.13563681952655320000e-003) (58, -7.40044862031936650000e-002) (59, -5.63210770487785340000e-002) (0, -5.85715956985950470000e-002) (1, -9.17739886790513990000e-003) (2, -9.69052128493785860000e-003) (3, -2.08600834012031560000e-002) (4, -7.62130320072174070000e-002) (5, 5.12288846075534820000e-002) (6, 2.22557689994573590000e-002) (7, 9.61105749011039730000e-002) (8, -4.50955471023917200000e-003) (9, 5.19084259867668150000e-002) (10, 3.89913395047187810000e-002) (11, 3.22227366268634800000e-002) (12, 4.41321767866611480000e-002) (13, -8.29389840364456180000e-002) (14, 2.67192702740430830000e-002) (15, 2.85145398229360580000e-002) (16, -8.42497795820236210000e-002) (17, 1.10070500522851940000e-002) (18, -8.01968201994895940000e-002) (19, -3.56720685958862300000e-002) (20, -3.38778458535671230000e-002) (21, -3.45635414123535160000e-002) (22, 7.81010091304779050000e-003) (23, 3.11956740915775300000e-002) (24, 3.14331278204917910000e-002) (25, 9.85408350825309750000e-002) (26, -1.53884096071124080000e-002) (27, 4.63449954986572270000e-003) (28, 6.33720755577087400000e-002) (29, 4.82614003121852870000e-002) (30, 4.22513373196125030000e-002) (31, -5.49777671694755550000e-002) (32, 9.65776965022087100000e-002) (33, -3.28050255775451660000e-002) (34, 6.24845176935195920000e-003) (35, 5.04728779196739200000e-002) (36, -2.93181817978620530000e-002) (37, 3.39745171368122100000e-002) (38, -7.90934935212135310000e-002) (39, 3.95562015473842620000e-002) (40, 2.62342970818281170000e-002) (41, -8.72310400009155270000e-002) (42, 5.57032935321331020000e-002) (43, -1.25757725909352300000e-002) (44, -1.21632078662514690000e-002) (45, 4.39340323209762570000e-002) (46, -7.90578871965408330000e-002) (47, -8.42969119548797610000e-002) (48, -4.27266992628574370000e-002) (49, -8.10464844107627870000e-002) (50, -6.46266639232635500000e-002) (51, 1.15364650264382360000e-002) (52, -4.33191247284412380000e-002) (53, -4.26123403012752530000e-002) (54, -1.19845494627952580000e-002) (55, -1.28836662042886020000e-003) (56, 4.68248454853892330000e-003) (57, -7.28004723787307740000e-002) (58, -1.00145041942596440000e-002) (59, -1.00299626588821410000e-001) (0, 5.96077553927898410000e-002) (1, -9.51907113194465640000e-002) (2, -1.99113786220550540000e-002) (3, 7.08048865199089050000e-002) (4, 6.93803876638412480000e-002) (5, 2.92140562087297440000e-002) (6, 4.70928847789764400000e-003) (7, -6.01877495646476750000e-002) (8, 7.24290162324905400000e-002) (9, 2.51675657927989960000e-002) (10, -8.24613124132156370000e-002) (11, -2.77280285954475400000e-002) (12, 2.17426680028438570000e-002) (13, -1.48097649216651920000e-002) (14, -5.08060082793235780000e-002) (15, -1.07019223272800450000e-001) (16, 1.77982952445745470000e-002) (17, 1.14157469943165780000e-002) (18, 3.11771780252456670000e-002) (19, -1.89427650184370580000e-004) (20, -9.06204283237457280000e-002) (21, 6.41837343573570250000e-002) (22, -5.72660565376281740000e-002) (23, 7.28221386671066280000e-002) (24, -5.78963235020637510000e-002) (25, 8.34301784634590150000e-002) (26, 3.03631983697414400000e-002) (27, -5.52698858082294460000e-002) (28, 5.94358369708061220000e-002) (29, 3.62518765032291410000e-002) (30, -5.30670434236526490000e-002) (31, -6.94027021527290340000e-002) (32, 3.16517390310764310000e-002) (33, -4.26121577620506290000e-002) (34, 1.23363779857754710000e-002) (35, -9.93115641176700590000e-003) (36, -1.17170572280883790000e-001) (37, -6.73218742012977600000e-002) (38, 1.14571945741772650000e-002) (39, 2.22295541316270830000e-002) (40, -5.68783730268478390000e-002) (41, 7.87243023514747620000e-002) (42, 6.33652359247207640000e-002) (43, 2.07348577678203580000e-002) (44, -1.14568755030632020000e-001) (45, -7.09746405482292180000e-002) (46, -2.20286827534437180000e-002) (47, -1.59703809767961500000e-002) (48, -3.38605046272277830000e-002) (49, -1.20040327310562130000e-001) (50, -2.71475836634635930000e-002) (51, -2.20272671431303020000e-002) (52, 4.27043661475181580000e-002) (53, 8.63693356513977050000e-002) (54, -4.72826287150383000000e-002) (55, -5.55507540702819820000e-002) (56, 4.45937290787696840000e-002) (57, -5.43671771883964540000e-002) (58, -2.02491935342550280000e-002) (59, -1.98744848370552060000e-001) (0, -8.85838195681571960000e-002) (1, 6.68275207281112670000e-002) (2, -5.76142705976963040000e-002) (3, -2.21488112583756450000e-003) (4, 5.00924140214920040000e-002) (5, -2.30037923902273180000e-002) (6, -1.20140053331851960000e-003) (7, -5.77203854918479920000e-002) (8, -6.66951015591621400000e-002) (9, 1.19265969842672350000e-002) (10, -3.06236166507005690000e-002) (11, 5.09121380746364590000e-002) (12, 2.41483617573976520000e-002) (13, -4.02379594743251800000e-002) (14, -6.53415024280548100000e-002) (15, 1.15766767412424090000e-002) (16, 5.84236197173595430000e-002) (17, 5.71282133460044860000e-002) (18, -4.46614846587181090000e-002) (19, -2.79823392629623410000e-002) (20, 8.57973694801330570000e-002) (21, 6.07358217239379880000e-002) (22, -4.45667095482349400000e-002) (23, 7.69114121794700620000e-002) (24, 5.33793009817600250000e-002) (25, -9.78934317827224730000e-002) (26, -5.92571832239627840000e-002) (27, 7.90952667593955990000e-002) (28, -4.32717688381671910000e-002) (29, 2.28740014135837550000e-002) (30, -8.36520716547966000000e-002) (31, -8.76289904117584230000e-002) (32, 1.99882220476865770000e-002) (33, 8.59395563602447510000e-002) (34, 3.66069078445434570000e-002) (35, 8.36141556501388550000e-002) (36, 1.71275977045297620000e-002) (37, 9.38664227724075320000e-002) (38, -1.54698928818106650000e-002) (39, 8.50548967719078060000e-002) (40, 3.48922312259674070000e-002) (41, 8.65664854645729060000e-002) (42, 2.92901098728179930000e-002) (43, 8.16978290677070620000e-002) (44, 3.90663668513298030000e-002) (45, -9.21922326087951660000e-002) (46, 2.79556699097156520000e-002) (47, 5.76742850244045260000e-002) (48, 9.49413627386093140000e-002) (49, -8.89268368482589720000e-002) (50, -5.16146086156368260000e-002) (51, 2.22497452050447460000e-002) (52, 4.31730672717094420000e-002) (53, 3.55793833732604980000e-002) (54, -5.29318265616893770000e-002) (55, -3.09172458946704860000e-002) (56, -7.69311636686325070000e-002) (57, -7.67994374036788940000e-002) (58, 1.92554686218500140000e-002) (59, -9.30060744285583500000e-002) (60, 1.55274152755737300000e+000) (61, 7.98226743936538700000e-002) (62, 1.14317098632454870000e-002) (63, 4.20767068862915040000e-002) (64, -6.81603327393531800000e-003) (65, 1.38445878401398660000e-002) (66, 8.69712755084037780000e-002) (67, -7.45803257450461390000e-003) (68, -7.04455152153968810000e-002) (60, -2.21224331855773930000e+000) (61, 2.02374801039695740000e-001) (62, 7.80232027173042300000e-002) (63, 1.18900984525680540000e-001) (64, 1.62687689065933230000e-001) (65, 2.05985203385353090000e-001) (66, 6.35488256812095640000e-002) (67, 2.30363830924034120000e-001) (68, 8.06724548339843750000e-001) 
