FANN_FLO_2.1
num_layers=3
learning_rate=0.700000
connection_rate=1.000000
network_type=0
learning_momentum=0.000000
training_algorithm=3
train_error_function=1
train_stop_function=0
cascade_output_change_fraction=0.010000
quickprop_decay=-0.000100
quickprop_mu=1.750000
rprop_increase_factor=1.200000
rprop_decrease_factor=0.500000
rprop_delta_min=0.000000
rprop_delta_max=50.000000
rprop_delta_zero=0.100000
cascade_output_stagnation_epochs=12
cascade_candidate_change_fraction=0.010000
cascade_candidate_stagnation_epochs=12
cascade_max_out_epochs=150
cascade_max_cand_epochs=150
cascade_num_candidate_groups=2
bit_fail_limit=3.49999994039535520000e-001
cascade_candidate_limit=1.00000000000000000000e+003
cascade_weight_multiplier=4.00000005960464480000e-001
cascade_activation_functions_count=10
cascade_activation_functions=3 5 7 8 10 11 14 15 16 17 
cascade_activation_steepnesses_count=4
cascade_activation_steepnesses=2.50000000000000000000e-001 5.00000000000000000000e-001 7.50000000000000000000e-001 1.00000000000000000000e+000 
layer_sizes=60 9 3 
scale_included=0
neurons (num_inputs, activation_function, activation_steepness)=(0, 0, 0.00000000000000000000e+000) (0, 0, 0.00000000000000000000e+000) (0, 0, 0.00000000000000000000e+000) (0, 0, 0.00000000000000000000e+000) (0, 0, 0.00000000000000000000e+000) (0, 0, 0.00000000000000000000e+000) (0, 0, 0.00000000000000000000e+000) (0, 0, 0.00000000000000000000e+000) (0, 0, 0.00000000000000000000e+000) (0, 0, 0.00000000000000000000e+000) (0, 0, 0.00000000000000000000e+000) (0, 0, 0.00000000000000000000e+000) (0, 0, 0.00000000000000000000e+000) (0, 0, 0.00000000000000000000e+000) (0, 0, 0.00000000000000000000e+000) (0, 0, 0.00000000000000000000e+000) (0, 0, 0.00000000000000000000e+000) (0, 0, 0.00000000000000000000e+000) (0, 0, 0.00000000000000000000e+000) (0, 0, 0.00000000000000000000e+000) (0, 0, 0.00000000000000000000e+000) (0, 0, 0.00000000000000000000e+000) (0, 0, 0.00000000000000000000e+000) (0, 0, 0.00000000000000000000e+000) (0, 0, 0.00000000000000000000e+000) (0, 0, 0.00000000000000000000e+000) (0, 0, 0.00000000000000000000e+000) (0, 0, 0.00000000000000000000e+000) (0, 0, 0.00000000000000000000e+000) (0, 0, 0.00000000000000000000e+000) (0, 0, 0.00000000000000000000e+000) (0, 0, 0.00000000000000000000e+000) (0, 0, 0.00000000000000000000e+000) (0, 0, 0.00000000000000000000e+000) (0, 0, 0.00000000000000000000e+000) (0, 0, 0.00000000000000000000e+000) (0, 0, 0.00000000000000000000e+000) (0, 0, 0.00000000000000000000e+000) (0, 0, 0.00000000000000000000e+000) (0, 0, 0.00000000000000000000e+000) (0, 0, 0.00000000000000000000e+000) (0, 0, 0.00000000000000000000e+000) (0, 0, 0.00000000000000000000e+000) (0, 0, 0.00000000000000000000e+000) (0, 0, 0.00000000000000000000e+000) (0, 0, 0.00000000000000000000e+000) (0, 0, 0.00000000000000000000e+000) (0, 0, 0.00000000000000000000e+000) (0, 0, 0.00000000000000000000e+000) (0, 0, 0.00000000000000000000e+000) (0, 0, 0.00000000000000000000e+000) (0, 0, 0.00000000000000000000e+000) (0, 0, 0.00000000000000000000e+000) (0, 0, 0.00000000000000000000e+000) (0, 0, 0.00000000000000000000e+000) (0, 0, 0.00000000000000000000e+000) (0, 0, 0.00000000000000000000e+000) (0, 0, 0.00000000000000000000e+000) (0, 0, 0.00000000000000000000e+000) (0, 0, 0.00000000000000000000e+000) (60, 4, 1.10000002384185790000e+000) (60, 4, 1.10000002384185790000e+000) (60, 4, 1.10000002384185790000e+000) (60, 4, 1.10000002384185790000e+000) (60, 4, 1.10000002384185790000e+000) (60, 4, 1.10000002384185790000e+000) (60, 4, 1.10000002384185790000e+000) (60, 4, 1.10000002384185790000e+000) (0, 4, 1.10000002384185790000e+000) (9, 5, 1.00000000000000000000e+000) (9, 5, 1.00000000000000000000e+000) (0, 5, 1.00000000000000000000e+000) 
connections (connected_to_neuron, weight)=(0, -1.72864645719528200000e-002) (1, -5.89772537350654600000e-002) (2, 8.56512188911437990000e-002) (3, 1.21313836425542830000e-002) (4, 1.82563462294638160000e-003) (5, -8.11471417546272280000e-002) (6, -1.41207231208682060000e-002) (7, -7.04813674092292790000e-002) (8, -7.48672336339950560000e-002) (9, -3.96710969507694240000e-002) (10, -7.36946193501353260000e-003) (11, -2.64901556074619290000e-002) (12, 4.63952450081706050000e-003) (13, -8.57411324977874760000e-002) (14, 2.94994954019784930000e-002) (15, -4.62177172303199770000e-002) (16, -2.76968758553266530000e-002) (17, 2.13310513645410540000e-002) (18, -3.75507883727550510000e-002) (19, -9.14774909615516660000e-002) (20, 8.78168568015098570000e-002) (21, 3.36258001625537870000e-002) (22, -9.87042784690856930000e-002) (23, 7.06621259450912480000e-002) (24, 6.98064342141151430000e-002) (25, 8.57970267534255980000e-002) (26, 7.21911042928695680000e-002) (27, -1.18638820946216580000e-001) (28, 3.83729599416255950000e-002) (29, 1.03857582435011860000e-002) (30, -8.86223092675209050000e-002) (31, 4.77927327156066890000e-002) (32, -5.47433272004127500000e-002) (33, -4.35402728617191310000e-002) (34, -4.92497347295284270000e-002) (35, -9.03671234846115110000e-002) (36, 2.71772835403680800000e-002) (37, -4.91265803575515750000e-002) (38, -7.76460990309715270000e-002) (39, 6.17794133722782140000e-002) (40, 2.40602046251297000000e-002) (41, -6.94734528660774230000e-002) (42, -8.49544927477836610000e-002) (43, -2.60472879745066170000e-003) (44, 2.41602230817079540000e-002) (45, -1.18347175419330600000e-001) (46, -1.09208021312952040000e-002) (47, -9.93988960981369020000e-002) (48, 5.15651106834411620000e-002) (49, -5.17628118395805360000e-002) (50, 3.33843491971492770000e-002) (51, -8.57926011085510250000e-002) (52, 7.23398923873901370000e-002) (53, -2.92911734431982040000e-002) (54, 6.98157176375389100000e-002) (55, -3.92230898141860960000e-002) (56, -4.86576408147811890000e-002) (57, 3.89256291091442110000e-002) (58, 1.48971034213900570000e-002) (59, -2.73864209651947020000e-001) (0, -5.33802993595600130000e-002) (1, 2.95363715849816800000e-003) (2, -8.95292684435844420000e-002) (3, -1.00211845710873600000e-002) (4, 5.44156506657600400000e-002) (5, 4.07950952649116520000e-002) (6, 3.22487927041947840000e-003) (7, -4.25651855766773220000e-002) (8, 4.27383789792656900000e-003) (9, -1.57205853611230850000e-002) (10, 8.55861976742744450000e-002) (11, -4.59873527288436890000e-002) (12, 2.48810611665248870000e-002) (13, 9.64375212788581850000e-002) (14, 2.85702254623174670000e-002) (15, -1.50348444003611800000e-003) (16, 7.81565606594085690000e-002) (17, 2.84576583653688430000e-002) (18, 6.33827224373817440000e-002) (19, 3.86947719380259510000e-003) (20, 1.85561906546354290000e-002) (21, 7.33294896781444550000e-003) (22, -5.66854476928710940000e-002) (23, -4.58422899246215820000e-002) (24, -4.54680733382701870000e-002) (25, -2.52575464546680450000e-002) (26, 8.28466191887855530000e-002) (27, 2.87309382110834120000e-003) (28, -8.79614651203155520000e-002) (29, 2.32893321663141250000e-002) (30, 5.59134117793291810000e-004) (31, -3.34169678390026090000e-002) (32, -6.29517659544944760000e-002) (33, 9.64495167136192320000e-002) (34, 9.85274314880371090000e-002) (35, -4.79590520262718200000e-002) (36, 4.79524694383144380000e-002) (37, 4.90695759654045100000e-002) (38, 2.42556515149772170000e-003) (39, -3.17150205373764040000e-002) (40, -7.38794961944222450000e-003) (41, -2.95047964900732040000e-002) (42, -8.35713148117065430000e-002) (43, 8.92938822507858280000e-002) (44, 3.68905551731586460000e-002) (45, 1.18045201525092120000e-002) (46, -9.09492522478103640000e-002) (47, 7.92355537414550780000e-002) (48, -8.17719101905822750000e-002) (49, 9.07394513487815860000e-002) (50, 1.08332745730876920000e-002) (51, 3.95076572895050050000e-002) (52, -7.38670229911804200000e-002) (53, -3.48640382289886470000e-002) (54, 7.05619603395462040000e-002) (55, -8.24918448925018310000e-002) (56, 6.54992014169692990000e-002) (57, -5.15587255358695980000e-002) (58, 4.25340794026851650000e-002) (59, 4.10900488495826720000e-002) (0, -9.00928303599357600000e-002) (1, -6.44687041640281680000e-002) (2, 1.85705292969942090000e-002) (3, -3.50277498364448550000e-002) (4, -1.34800961241126060000e-002) (5, 6.50497823953628540000e-002) (6, 7.67550244927406310000e-002) (7, -9.14878100156784060000e-002) (8, 3.84728284552693370000e-003) (9, 8.29331856220960620000e-003) (10, 4.78022433817386630000e-002) (11, -2.29456778615713120000e-002) (12, -3.06790731847286220000e-002) (13, -4.50728014111518860000e-002) (14, -3.00462525337934490000e-002) (15, -6.41418620944023130000e-002) (16, 4.59982007741928100000e-002) (17, -1.70998871326446530000e-002) (18, -1.02424666285514830000e-001) (19, 5.51007948815822600000e-002) (20, -9.29607599973678590000e-002) (21, -1.06755644083023070000e-001) (22, -8.17968547344207760000e-002) (23, 2.31634993106126790000e-002) (24, -4.21778708696365360000e-002) (25, 4.56822616979479790000e-003) (26, 4.36483547091484070000e-002) (27, -8.02573487162590030000e-002) (28, 3.75908836722373960000e-002) (29, -3.49009186029434200000e-002) (30, -1.01649783551692960000e-001) (31, -5.61152249574661250000e-002) (32, -2.98602413386106490000e-002) (33, 5.97253330051898960000e-002) (34, -9.66578256338834760000e-003) (35, 6.45980089902877810000e-002) (36, -3.99146564304828640000e-002) (37, 1.23626859858632090000e-002) (38, 2.61990409344434740000e-002) (39, -7.54077211022377010000e-002) (40, 1.46156968548893930000e-002) (41, -1.67073085904121400000e-002) (42, -5.72054274380207060000e-002) (43, 6.04155473411083220000e-002) (44, -2.61992998421192170000e-002) (45, -5.11016398668289180000e-002) (46, -1.09914489090442660000e-001) (47, 5.49842678010463710000e-002) (48, 8.87888744473457340000e-002) (49, -5.55627420544624330000e-002) (50, -8.84582251310348510000e-002) (51, -7.96206295490264890000e-002) (52, -9.87552627921104430000e-002) (53, -1.84587426483631130000e-002) (54, -4.55559454858303070000e-002) (55, -8.36414247751235960000e-002) (56, -7.29538425803184510000e-002) (57, 6.65696784853935240000e-002) (58, -7.83191807568073270000e-003) (59, -2.01535061001777650000e-001) (0, -3.20199243724346160000e-002) (1, 2.31513120234012600000e-002) (2, 9.13694053888320920000e-002) (3, 7.46791437268257140000e-002) (4, 8.63313674926757810000e-002) (5, -2.73772664368152620000e-002) (6, -9.28181707859039310000e-002) (7, 8.94643217325210570000e-002) (8, 4.67574819922447200000e-002) (9, -6.97879791259765630000e-002) (10, -4.44548614323139190000e-002) (11, 9.18927788734436040000e-002) (12, -1.85500197112560270000e-002) (13, 1.47461052983999250000e-002) (14, 1.22635429725050930000e-002) (15, 2.10736263543367390000e-002) (16, 9.18296873569488530000e-002) (17, -7.00437501072883610000e-002) (18, -1.87063198536634450000e-002) (19, 1.12938107922673230000e-002) (20, 9.61552560329437260000e-002) (21, 8.51712282747030260000e-003) (22, -3.64751592278480530000e-002) (23, -3.41855697333812710000e-002) (24, 4.39149737358093260000e-002) (25, -7.14300125837326050000e-002) (26, 3.27807851135730740000e-002) (27, 4.23750840127468110000e-002) (28, 5.67151652649044990000e-003) (29, -4.97517362236976620000e-002) (30, 3.70019711554050450000e-002) (31, 6.58508464694023130000e-002) (32, 3.27800624072551730000e-002) (33, -6.66338428854942320000e-002) (34, -6.78180158138275150000e-002) (35, -3.93647179007530210000e-002) (36, -7.33193680644035340000e-002) (37, 7.50130563974380490000e-002) (38, 1.00270353257656100000e-001) (39, 3.24277952313423160000e-002) (40, -7.34744444489479060000e-002) (41, 4.72428202629089360000e-002) (42, -9.13510620594024660000e-002) (43, -8.81353169679641720000e-002) (44, 1.21009666472673420000e-002) (45, -7.57385641336441040000e-002) (46, 7.19776824116706850000e-002) (47, -7.90176913142204280000e-002) (48, 3.61691191792488100000e-002) (49, -1.01251959800720210000e-001) (50, -6.15090392529964450000e-002) (51, -6.16253586485981940000e-003) (52, -2.57192868739366530000e-002) (53, 3.03165186196565630000e-002) (54, -7.47138727456331250000e-003) (55, 5.22160483524203300000e-003) (56, 9.23058539628982540000e-002) (57, -1.03423115797340870000e-003) (58, -7.99857676029205320000e-002) (59, -1.13000564277172090000e-001) (0, 7.16906934976577760000e-002) (1, -4.96469438076019290000e-002) (2, 2.81312614679336550000e-002) (3, -5.40813952684402470000e-002) (4, -2.46289204806089400000e-002) (5, -7.02606588602066040000e-002) (6, -6.47028386592864990000e-002) (7, 1.95293799042701720000e-002) (8, -1.45365539938211440000e-002) (9, 4.26700972020626070000e-002) (10, -1.90466037020087240000e-003) (11, 7.29162991046905520000e-002) (12, -7.86848142743110660000e-002) (13, 4.32974547147750850000e-002) (14, 2.02813521027565000000e-002) (15, -5.16987293958663940000e-002) (16, -5.35930208861827850000e-002) (17, -9.93409776128828530000e-004) (18, -2.54855807870626450000e-002) (19, -9.82210412621498110000e-002) (20, 1.56904701143503190000e-002) (21, 4.74340282380580900000e-002) (22, -4.82959486544132230000e-002) (23, 3.40016447007656100000e-002) (24, -4.06784079968929290000e-002) (25, -8.20115283131599430000e-002) (26, 2.29510199278593060000e-002) (27, -9.88094136118888850000e-003) (28, -4.84456606209278110000e-002) (29, 1.00794225931167600000e-001) (30, 6.23609274625778200000e-002) (31, 7.77756841853260990000e-003) (32, 9.41011533141136170000e-002) (33, 7.66397789120674130000e-002) (34, 4.29300814867019650000e-002) (35, 5.31443543732166290000e-002) (36, -3.06221768260002140000e-002) (37, -6.26936033368110660000e-002) (38, 1.71721726655960080000e-002) (39, 7.92397782206535340000e-002) (40, -8.53487849235534670000e-002) (41, -2.53505855798721310000e-002) (42, 8.31076800823211670000e-002) (43, 6.85908198356628420000e-002) (44, 7.53775537014007570000e-002) (45, -3.64514254033565520000e-002) (46, 5.96111193299293520000e-002) (47, -3.18427346646785740000e-002) (48, -4.57129515707492830000e-002) (49, 2.93593350797891620000e-002) (50, 1.92684046924114230000e-002) (51, 1.98762156069278720000e-002) (52, -9.50688645243644710000e-002) (53, -8.86861011385917660000e-002) (54, -1.44293820485472680000e-002) (55, 5.33092319965362550000e-002) (56, -4.10016030073165890000e-002) (57, -1.97957735508680340000e-003) (58, -7.72122591733932500000e-002) (59, -5.48996515572071080000e-002) (0, -5.52960559725761410000e-002) (1, -1.29918698221445080000e-002) (2, -1.05192838236689570000e-002) (3, -1.38704227283596990000e-002) (4, -7.46874734759330750000e-002) (5, 5.65092712640762330000e-002) (6, 2.31763161718845370000e-002) (7, 1.03246815502643590000e-001) (8, 1.39373412821441890000e-003) (9, 5.30502870678901670000e-002) (10, 4.45697382092475890000e-002) (11, 3.08036450296640400000e-002) (12, 4.25616092979907990000e-002) (13, -7.37835615873336790000e-002) (14, 3.50218228995800020000e-002) (15, 3.18290218710899350000e-002) (16, -8.53644832968711850000e-002) (17, 1.37828402221202850000e-002) (18, -8.10752883553504940000e-002) (19, -3.22548486292362210000e-002) (20, -2.78298184275627140000e-002) (21, -3.10259833931922910000e-002) (22, 1.41161642968654630000e-002) (23, 3.42852137982845310000e-002) (24, 4.00299020111560820000e-002) (25, 1.08763121068477630000e-001) (26, -1.06849465519189830000e-002) (27, 4.33818530291318890000e-003) (28, 6.93363994359970090000e-002) (29, 5.08495233952999110000e-002) (30, 4.83265928924083710000e-002) (31, -4.55838069319725040000e-002) (32, 9.85724404454231260000e-002) (33, -2.87043284624814990000e-002) (34, 9.87882539629936220000e-003) (35, 5.55780641734600070000e-002) (36, -2.59597953408956530000e-002) (37, 3.84140796959400180000e-002) (38, -7.54030421376228330000e-002) (39, 4.16068062186241150000e-002) (40, 1.93176716566085820000e-002) (41, -7.68405720591545100000e-002) (42, 6.21999129652976990000e-002) (43, -7.41805415600538250000e-003) (44, -1.25374803319573400000e-002) (45, 4.57027368247509000000e-002) (46, -7.92387500405311580000e-002) (47, -8.00885632634162900000e-002) (48, -4.11280281841754910000e-002) (49, -8.13932791352272030000e-002) (50, -5.87832517921924590000e-002) (51, 1.24536640942096710000e-002) (52, -3.47381494939327240000e-002) (53, -3.94054912030696870000e-002) (54, -3.49266710691154000000e-003) (55, 4.98625542968511580000e-003) (56, 7.95678328722715380000e-003) (57, -7.18548968434333800000e-002) (58, -1.38205084949731830000e-002) (59, -9.63689684867858890000e-002) (0, 2.60012387298047540000e-003) (1, -7.69997760653495790000e-002) (2, -4.35797870159149170000e-002) (3, -2.14633405208587650000e-001) (4, 2.22300160676240920000e-002) (5, 6.12902734428644180000e-003) (6, 6.34044001344591380000e-004) (7, -2.68646150827407840000e-001) (8, -1.71587973833084110000e-001) (9, -5.02751395106315610000e-002) (10, -1.06094211339950560000e-001) (11, -2.64469683170318600000e-001) (12, -1.86119556427001950000e-001) (13, -3.60018789768218990000e-001) (14, -1.13694131374359130000e+000) (15, -3.21190953254699710000e-001) (16, -2.07491457462310790000e-001) (17, -2.71742850542068480000e-001) (18, -1.36065185070037840000e+000) (19, -9.94407653808593750000e-001) (20, -1.62881553173065190000e+000) (21, -1.28897339105606080000e-001) (22, -8.03298801183700560000e-002) (23, -6.73367500305175780000e-001) (24, -5.65801620483398440000e-001) (25, -1.92124426364898680000e-001) (26, -9.64338839054107670000e-001) (27, -9.67480614781379700000e-002) (28, -3.88345867395401000000e-002) (29, -6.00408732891082760000e-001) (30, -3.76517474651336670000e-001) (31, -9.89017114043235780000e-002) (32, -2.63656640052795410000e+000) (33, -1.22400653362274170000e+000) (34, -1.20112737640738490000e-002) (35, -5.84915466606616970000e-002) (36, -1.27384781837463380000e-001) (37, -5.45910112559795380000e-002) (38, -9.34909470379352570000e-003) (39, -1.51780819892883300000e+000) (40, 1.25874448567628860000e-002) (41, -1.75174623727798460000e-002) (42, 4.06765043735504150000e-002) (43, 2.85557489842176440000e-002) (44, -1.04563601315021510000e-001) (45, -7.50695690512657170000e-002) (46, 1.12918265163898470000e-001) (47, -5.82995042204856870000e-002) (48, -5.78090995550155640000e-002) (49, -9.57197323441505430000e-002) (50, -8.93593728542327880000e-001) (51, -6.22912831604480740000e-002) (52, -6.04800879955291750000e-001) (53, 4.24009673297405240000e-002) (54, -1.05021581053733830000e-001) (55, -4.65200185775756840000e-001) (56, 4.58022840321064000000e-002) (57, -6.14647418260574340000e-002) (58, 3.33332657814025880000e-001) (59, 6.09646081924438480000e-001) (0, -8.21287482976913450000e-002) (1, 6.29229471087455750000e-002) (2, -5.89081086218357090000e-002) (3, 5.95023250207304950000e-003) (4, 5.27524016797542570000e-002) (5, -1.67151074856519700000e-002) (6, -1.25562772154808040000e-003) (7, -4.65295575559139250000e-002) (8, -5.93421049416065220000e-002) (9, 1.33390035480260850000e-002) (10, -2.55267638713121410000e-002) (11, 5.00637553632259370000e-002) (12, 2.64465864747762680000e-002) (13, -2.78171729296445850000e-002) (14, -5.27141168713569640000e-002) (15, 1.47475237026810650000e-002) (16, 5.79054467380046840000e-002) (17, 6.15628249943256380000e-002) (18, -4.54474613070487980000e-002) (19, -2.40344554185867310000e-002) (20, 9.32833403348922730000e-002) (21, 6.68387860059738160000e-002) (22, -3.63797843456268310000e-002) (23, 8.19960087537765500000e-002) (24, 6.43453896045684810000e-002) (25, -8.51192846894264220000e-002) (26, -5.29550462961196900000e-002) (27, 7.91719555854797360000e-002) (28, -3.49962189793586730000e-002) (29, 2.56151370704174040000e-002) (30, -7.69065171480178830000e-002) (31, -7.69292265176773070000e-002) (32, 1.91361978650093080000e-002) (33, 8.89858603477478030000e-002) (34, 4.08474765717983250000e-002) (35, 8.97593349218368530000e-002) (36, 2.11676619946956630000e-002) (37, 9.81694608926773070000e-002) (38, -1.09952148050069810000e-002) (39, 8.48672240972518920000e-002) (40, 2.56291646510362630000e-002) (41, 9.91683006286621090000e-002) (42, 3.73379625380039220000e-002) (43, 8.83677750825881960000e-002) (44, 3.93655486404895780000e-002) (45, -9.08684134483337400000e-002) (46, 2.97669414430856700000e-002) (47, 6.32745474576950070000e-002) (48, 9.59137231111526490000e-002) (49, -8.96941423416137700000e-002) (50, -4.80463914573192600000e-002) (51, 2.56554391235113140000e-002) (52, 5.26359528303146360000e-002) (53, 3.99807468056678770000e-002) (54, -4.22778986394405360000e-002) (55, -2.60133445262908940000e-002) (56, -7.36627280712127690000e-002) (57, -7.60643258690834050000e-002) (58, 1.22918384149670600000e-002) (59, -8.58829244971275330000e-002) (60, 3.45037840306758880000e-002) (61, 9.85715836286544800000e-002) (62, 7.62800946831703190000e-002) (63, 1.71243231743574140000e-002) (64, 4.10607494413852690000e-002) (65, 5.82425072789192200000e-002) (66, 1.82323980331420900000e+000) (67, 3.29134725034236910000e-002) (68, 1.72988101840019230000e-002) (60, 7.11785480380058290000e-002) (61, 2.95540392398834230000e-001) (62, -1.56489849090576170000e-001) (63, 1.69646531343460080000e-001) (64, 1.78153723478317260000e-001) (65, 2.31143563985824580000e-001) (66, -2.01417613029479980000e+000) (67, 2.71608859300613400000e-001) (68, 4.89052981138229370000e-001) 
