FANN_FLO_2.1
num_layers=3
learning_rate=0.700000
connection_rate=1.000000
network_type=0
learning_momentum=0.000000
training_algorithm=3
train_error_function=1
train_stop_function=0
cascade_output_change_fraction=0.010000
quickprop_decay=-0.000100
quickprop_mu=1.750000
rprop_increase_factor=1.200000
rprop_decrease_factor=0.500000
rprop_delta_min=0.000000
rprop_delta_max=50.000000
rprop_delta_zero=0.100000
cascade_output_stagnation_epochs=12
cascade_candidate_change_fraction=0.010000
cascade_candidate_stagnation_epochs=12
cascade_max_out_epochs=150
cascade_max_cand_epochs=150
cascade_num_candidate_groups=2
bit_fail_limit=3.49999994039535520000e-001
cascade_candidate_limit=1.00000000000000000000e+003
cascade_weight_multiplier=4.00000005960464480000e-001
cascade_activation_functions_count=10
cascade_activation_functions=3 5 7 8 10 11 14 15 16 17 
cascade_activation_steepnesses_count=4
cascade_activation_steepnesses=2.50000000000000000000e-001 5.00000000000000000000e-001 7.50000000000000000000e-001 1.00000000000000000000e+000 
layer_sizes=60 9 3 
scale_included=0
neurons (num_inputs, activation_function, activation_steepness)=(0, 0, 0.00000000000000000000e+000) (0, 0, 0.00000000000000000000e+000) (0, 0, 0.00000000000000000000e+000) (0, 0, 0.00000000000000000000e+000) (0, 0, 0.00000000000000000000e+000) (0, 0, 0.00000000000000000000e+000) (0, 0, 0.00000000000000000000e+000) (0, 0, 0.00000000000000000000e+000) (0, 0, 0.00000000000000000000e+000) (0, 0, 0.00000000000000000000e+000) (0, 0, 0.00000000000000000000e+000) (0, 0, 0.00000000000000000000e+000) (0, 0, 0.00000000000000000000e+000) (0, 0, 0.00000000000000000000e+000) (0, 0, 0.00000000000000000000e+000) (0, 0, 0.00000000000000000000e+000) (0, 0, 0.00000000000000000000e+000) (0, 0, 0.00000000000000000000e+000) (0, 0, 0.00000000000000000000e+000) (0, 0, 0.00000000000000000000e+000) (0, 0, 0.00000000000000000000e+000) (0, 0, 0.00000000000000000000e+000) (0, 0, 0.00000000000000000000e+000) (0, 0, 0.00000000000000000000e+000) (0, 0, 0.00000000000000000000e+000) (0, 0, 0.00000000000000000000e+000) (0, 0, 0.00000000000000000000e+000) (0, 0, 0.00000000000000000000e+000) (0, 0, 0.00000000000000000000e+000) (0, 0, 0.00000000000000000000e+000) (0, 0, 0.00000000000000000000e+000) (0, 0, 0.00000000000000000000e+000) (0, 0, 0.00000000000000000000e+000) (0, 0, 0.00000000000000000000e+000) (0, 0, 0.00000000000000000000e+000) (0, 0, 0.00000000000000000000e+000) (0, 0, 0.00000000000000000000e+000) (0, 0, 0.00000000000000000000e+000) (0, 0, 0.00000000000000000000e+000) (0, 0, 0.00000000000000000000e+000) (0, 0, 0.00000000000000000000e+000) (0, 0, 0.00000000000000000000e+000) (0, 0, 0.00000000000000000000e+000) (0, 0, 0.00000000000000000000e+000) (0, 0, 0.00000000000000000000e+000) (0, 0, 0.00000000000000000000e+000) (0, 0, 0.00000000000000000000e+000) (0, 0, 0.00000000000000000000e+000) (0, 0, 0.00000000000000000000e+000) (0, 0, 0.00000000000000000000e+000) (0, 0, 0.00000000000000000000e+000) (0, 0, 0.00000000000000000000e+000) (0, 0, 0.00000000000000000000e+000) (0, 0, 0.00000000000000000000e+000) (0, 0, 0.00000000000000000000e+000) (0, 0, 0.00000000000000000000e+000) (0, 0, 0.00000000000000000000e+000) (0, 0, 0.00000000000000000000e+000) (0, 0, 0.00000000000000000000e+000) (0, 0, 0.00000000000000000000e+000) (60, 4, 1.10000002384185790000e+000) (60, 4, 1.10000002384185790000e+000) (60, 4, 1.10000002384185790000e+000) (60, 4, 1.10000002384185790000e+000) (60, 4, 1.10000002384185790000e+000) (60, 4, 1.10000002384185790000e+000) (60, 4, 1.10000002384185790000e+000) (60, 4, 1.10000002384185790000e+000) (0, 4, 1.10000002384185790000e+000) (9, 5, 1.00000000000000000000e+000) (9, 5, 1.00000000000000000000e+000) (0, 5, 1.00000000000000000000e+000) 
connections (connected_to_neuron, weight)=(0, -3.00232172012329100000e-002) (1, -6.71962648630142210000e-002) (2, 7.55595862865448000000e-002) (3, -1.24471832532435660000e-003) (4, -9.33014787733554840000e-003) (5, -7.17632472515106200000e-002) (6, -1.50903658941388130000e-002) (7, -7.18934088945388790000e-002) (8, -7.84801989793777470000e-002) (9, -3.32702472805976870000e-002) (10, -3.76746826805174350000e-003) (11, -2.75797694921493530000e-002) (12, 2.58382083848118780000e-003) (13, -8.79902169108390810000e-002) (14, 2.85310577601194380000e-002) (15, -4.86563555896282200000e-002) (16, -4.52096089720726010000e-002) (17, 3.36524820886552330000e-003) (18, -4.88137602806091310000e-002) (19, -7.65848308801651000000e-002) (20, 7.71816521883010860000e-002) (21, 3.15912291407585140000e-002) (22, -1.02630160748958590000e-001) (23, 5.48653155565261840000e-002) (24, 6.09919056296348570000e-002) (25, 7.84657597541809080000e-002) (26, 7.25347399711608890000e-002) (27, -1.17660269141197200000e-001) (28, 3.87460216879844670000e-002) (29, 5.91394631192088130000e-003) (30, -1.00988402962684630000e-001) (31, 3.31126227974891660000e-002) (32, -6.03555366396903990000e-002) (33, -4.09133397042751310000e-002) (34, -5.40296472609043120000e-002) (35, -9.18330326676368710000e-002) (36, 1.04777142405509950000e-002) (37, -6.31099417805671690000e-002) (38, -9.46337804198265080000e-002) (39, 5.42200766503810880000e-002) (40, 2.32676062732934950000e-002) (41, -7.63342380523681640000e-002) (42, -9.25375148653984070000e-002) (43, -2.17792522162199020000e-002) (44, 5.96456369385123250000e-003) (45, -1.23318091034889220000e-001) (46, -1.31891407072544100000e-002) (47, -1.09556689858436580000e-001) (48, 3.01188696175813670000e-002) (49, -6.39808923006057740000e-002) (50, 2.34011039137840270000e-002) (51, -8.96035060286521910000e-002) (52, 6.26711174845695500000e-002) (53, -3.25040370225906370000e-002) (54, 6.62066712975502010000e-002) (55, -4.84187677502632140000e-002) (56, -5.29516786336898800000e-002) (57, 4.38186153769493100000e-002) (58, 1.65477301925420760000e-002) (59, -2.54964262247085570000e-001) (0, -5.97734749317169190000e-002) (1, 4.21730708330869670000e-003) (2, -9.43504944443702700000e-002) (3, -1.53227457776665690000e-002) (4, 4.58979867398738860000e-002) (5, 3.72472666203975680000e-002) (6, -2.33660545200109480000e-003) (7, -5.00876866281032560000e-002) (8, -6.29790499806404110000e-003) (9, -2.03634463250637050000e-002) (10, 8.22087377309799190000e-002) (11, -4.75720763206481930000e-002) (12, 1.85075588524341580000e-002) (13, 8.60530734062194820000e-002) (14, 2.59541850537061690000e-002) (15, -3.51991807110607620000e-003) (16, 6.66649416089057920000e-002) (17, 1.61637272685766220000e-002) (18, 5.89627884328365330000e-002) (19, -2.03941785730421540000e-003) (20, 1.22943390160799030000e-002) (21, 1.18548725731670860000e-003) (22, -6.16419427096843720000e-002) (23, -5.53836487233638760000e-002) (24, -5.12488298118114470000e-002) (25, -3.18163782358169560000e-002) (26, 7.43637531995773320000e-002) (27, -1.51107693091034890000e-003) (28, -9.61600020527839660000e-002) (29, 1.89482904970645900000e-002) (30, -1.27166253514587880000e-003) (31, -3.75110544264316560000e-002) (32, -7.14472755789756770000e-002) (33, 9.16141495108604430000e-002) (34, 9.31300148367881770000e-002) (35, -5.49850016832351680000e-002) (36, 4.31639365851879120000e-002) (37, 4.80320602655410770000e-002) (38, -3.76419466920197010000e-003) (39, -4.15556617081165310000e-002) (40, -6.54039764776825900000e-003) (41, -3.91798466444015500000e-002) (42, -8.64629894495010380000e-002) (43, 8.85780751705169680000e-002) (44, 2.93590445071458820000e-002) (45, 9.21095442026853560000e-003) (46, -8.75529348850250240000e-002) (47, 8.06802958250045780000e-002) (48, -8.64369571208953860000e-002) (49, 8.61976146697998050000e-002) (50, 4.90891747176647190000e-003) (51, 3.22963185608386990000e-002) (52, -8.12597051262855530000e-002) (53, -3.84109467267990110000e-002) (54, 5.99098056554794310000e-002) (55, -8.69799554347991940000e-002) (56, 6.36560842394828800000e-002) (57, -5.19950017333030700000e-002) (58, 4.72018979489803310000e-002) (59, 3.80214117467403410000e-002) (0, -1.06832936406135560000e-001) (1, -7.13633000850677490000e-002) (2, 1.84971857815980910000e-002) (3, 5.18689826130867000000e-002) (4, -1.58247016370296480000e-002) (5, 8.18679705262184140000e-002) (6, 7.88478627800941470000e-002) (7, -1.12253889441490170000e-001) (8, -4.14648978039622310000e-003) (9, 2.71237362176179890000e-002) (10, 8.05905982851982120000e-002) (11, -2.03627441078424450000e-002) (12, -4.26436476409435270000e-002) (13, -2.68098860979080200000e-002) (14, 2.16449230909347530000e-001) (15, 1.70604497194290160000e-001) (16, 4.81021124869585040000e-003) (17, -3.28633219003677370000e-001) (18, -1.19232751429080960000e-001) (19, 6.33085146546363830000e-002) (20, -1.00742258131504060000e-001) (21, 5.01277931034564970000e-002) (22, -1.04738682508468630000e-001) (23, -2.68639926798641680000e-003) (24, 1.10885143280029300000e-001) (25, 1.95938181132078170000e-002) (26, -5.26080608367919920000e-001) (27, -8.33858624100685120000e-002) (28, 2.71759107708930970000e-002) (29, -5.79603239893913270000e-002) (30, -1.13479815423488620000e-001) (31, -5.86721003055572510000e-002) (32, -4.10625815391540530000e-001) (33, 5.84054142236709590000e-002) (34, -2.01322021894156930000e-003) (35, 7.35140219330787660000e-002) (36, -5.36775849759578700000e-002) (37, 1.37192338705062870000e-001) (38, -2.14061327278614040000e-002) (39, -2.91492432355880740000e-001) (40, 3.34364059381186960000e-003) (41, -3.38581055402755740000e-002) (42, 1.47673785686492920000e-001) (43, 5.53955622017383580000e-002) (44, -4.62309420108795170000e-001) (45, -4.93718013167381290000e-002) (46, 1.00863203406333920000e-001) (47, 6.42664670944213870000e-001) (48, 7.45631232857704160000e-002) (49, -9.55509468913078310000e-002) (50, -9.51211974024772640000e-002) (51, -3.15963923931121830000e-001) (52, -1.01756453514099120000e-001) (53, 4.02988924179226160000e-004) (54, -3.77462506294250490000e-001) (55, -8.27737972140312190000e-002) (56, 8.89166742563247680000e-002) (57, 8.23694989085197450000e-002) (58, 1.07987374067306520000e-001) (59, -1.07320919632911680000e-001) (0, -1.35125704109668730000e-002) (1, 2.42896489799022670000e-002) (2, 9.15210619568824770000e-002) (3, 7.18589276075363160000e-002) (4, 8.73430967330932620000e-002) (5, -2.94279027730226520000e-002) (6, -8.93660187721252440000e-002) (7, 1.06398522853851320000e-001) (8, 5.88475838303565980000e-002) (9, -7.60924592614173890000e-002) (10, -6.08761012554168700000e-002) (11, 9.65320542454719540000e-002) (12, -2.91195511817932130000e-003) (13, 1.11765470355749130000e-002) (14, -2.40136263892054560000e-003) (15, 3.71182337403297420000e-003) (16, 3.35088700056076050000e-001) (17, 2.41380929946899410000e-001) (18, -1.86410313472151760000e-003) (19, 1.77805516868829730000e-002) (20, 1.05293788015842440000e-001) (21, 1.75046916410792620000e-005) (22, -2.31934133917093280000e-002) (23, -2.67337206751108170000e-002) (24, 2.77258157730102540000e-002) (25, -8.29719603061676030000e-002) (26, 4.58628326654434200000e-001) (27, 5.15955090522766110000e-002) (28, 2.17089708894491200000e-002) (29, -3.74241881072521210000e-002) (30, 4.99465130269527440000e-002) (31, 6.46831318736076350000e-002) (32, 3.78895729780197140000e-001) (33, -6.14773593842983250000e-002) (34, -7.42798522114753720000e-002) (35, -4.34104353189468380000e-002) (36, -5.86474835872650150000e-002) (37, 6.65693879127502440000e-002) (38, 1.17234081029891970000e-001) (39, 2.66085505485534670000e-001) (40, -6.09818473458290100000e-002) (41, 6.34779706597328190000e-002) (42, -1.16489246487617490000e-001) (43, -9.91951674222946170000e-002) (44, 4.64619547128677370000e-001) (45, -6.92168101668357850000e-002) (46, 6.81563764810562130000e-002) (47, -3.84928435087203980000e-001) (48, 3.36755849421024320000e-002) (49, 1.17763556540012360000e-001) (50, -4.93774898350238800000e-002) (51, 3.77275701612234120000e-003) (52, -1.88754871487617490000e-002) (53, 1.78760606795549390000e-002) (54, 3.04902911186218260000e-001) (55, 1.27353407442569730000e-002) (56, 9.12954360246658330000e-002) (57, -7.45934620499610900000e-003) (58, -6.88201487064361570000e-002) (59, -1.09365679323673250000e-001) (0, 7.88439288735389710000e-002) (1, -4.96908165514469150000e-002) (2, 2.72347256541252140000e-002) (3, -5.78524693846702580000e-002) (4, -2.60220840573310850000e-002) (5, -7.28752538561820980000e-002) (6, -6.63462579250335690000e-002) (7, 2.57126651704311370000e-002) (8, -1.25068956986069680000e-002) (9, 3.73373068869113920000e-002) (10, -1.22629096731543540000e-002) (11, 7.43448436260223390000e-002) (12, -7.36251696944236760000e-002) (13, 3.74291054904460910000e-002) (14, 8.91782250255346300000e-003) (15, -6.37410134077072140000e-002) (16, -5.01542091369628910000e-002) (17, 3.00912070088088510000e-003) (18, -1.97287220507860180000e-002) (19, -9.51550900936126710000e-002) (20, 1.72868203371763230000e-002) (21, 4.13791239261627200000e-002) (22, -4.27048951387405400000e-002) (23, 3.13632711768150330000e-002) (24, -5.13976067304611210000e-002) (25, -9.06969308853149410000e-002) (26, 2.93356850743293760000e-002) (27, -6.49832282215356830000e-003) (28, -4.30199615657329560000e-002) (29, 1.04308083653450010000e-001) (30, 6.86296224594116210000e-002) (31, 3.95547505468130110000e-003) (32, 1.02882422506809230000e-001) (33, 7.87915438413620000000e-002) (34, 3.64594496786594390000e-002) (35, 4.82675209641456600000e-002) (36, -2.57379431277513500000e-002) (37, -6.78884759545326230000e-002) (38, 2.08461936563253400000e-002) (39, 8.77728462219238280000e-002) (40, -7.94094279408454900000e-002) (41, -2.11251582950353620000e-002) (42, 6.65498375892639160000e-002) (43, 5.84905669093132020000e-002) (44, 8.64470228552818300000e-002) (45, -3.45257483422756200000e-002) (46, 5.85755556821823120000e-002) (47, -6.05114698410034180000e-002) (48, -5.30492030084133150000e-002) (49, 3.88531126081943510000e-002) (50, 2.33918931335210800000e-002) (51, 2.08464227616786960000e-002) (52, -9.42404344677925110000e-002) (53, -9.57325100898742680000e-002) (54, -8.50129127502441410000e-003) (55, 5.51067516207695010000e-002) (56, -4.19580303132534030000e-002) (57, -4.82314918190240860000e-003) (58, -6.90136849880218510000e-002) (59, -5.48767410218715670000e-002) (0, -5.24693839251995090000e-002) (1, -8.19329544901847840000e-003) (2, -1.13863833248615260000e-002) (3, -2.13860068470239640000e-002) (4, -7.65825435519218440000e-002) (5, 5.15975877642631530000e-002) (6, 1.78976375609636310000e-002) (7, 1.06233522295951840000e-001) (8, 1.99663452804088590000e-004) (9, 4.73874099552631380000e-002) (10, 3.19497697055339810000e-002) (11, 3.12673225998878480000e-002) (12, 4.55221831798553470000e-002) (13, -8.54673311114311220000e-002) (14, 2.37159039825201030000e-002) (15, 2.14419234544038770000e-002) (16, -8.57304558157920840000e-002) (17, 1.72227509319782260000e-002) (18, -7.94487968087196350000e-002) (19, -3.77016104757785800000e-002) (20, -3.23778763413429260000e-002) (21, -3.85977327823638920000e-002) (22, 1.87478233128786090000e-002) (23, 2.94841192662715910000e-002) (24, 2.56161503493785860000e-002) (25, 9.80957746505737300000e-002) (26, -8.58986005187034610000e-003) (27, 5.67198405042290690000e-003) (28, 7.22734481096267700000e-002) (29, 5.53569048643112180000e-002) (30, 5.15804030001163480000e-002) (31, -4.92847189307212830000e-002) (32, 1.04695126414299010000e-001) (33, -3.31143997609615330000e-002) (34, 7.96813634224236010000e-004) (35, 4.69476617872715000000e-002) (36, -2.45275534689426420000e-002) (37, 3.24246808886528020000e-002) (38, -7.16388747096061710000e-002) (39, 4.64717410504817960000e-002) (40, 2.50129885971546170000e-002) (41, -7.70232081413269040000e-002) (42, 4.57451865077018740000e-002) (43, -1.47648155689239500000e-002) (44, -5.71652431972324850000e-004) (45, 4.47075366973876950000e-002) (46, -8.05870220065116880000e-002) (47, -1.06340557336807250000e-001) (48, -4.73745204508304600000e-002) (49, -7.44145512580871580000e-002) (50, -5.99501132965087890000e-002) (51, 1.32718235254287720000e-002) (52, -3.63902486860752110000e-002) (53, -4.69590015709400180000e-002) (54, -5.18722285050898790000e-004) (55, 1.30160048138350250000e-003) (56, 5.03654079511761670000e-003) (57, -7.61226415634155270000e-002) (58, -4.72483271732926370000e-003) (59, -1.01233497262001040000e-001) (0, 3.98228093981742860000e-002) (1, -9.21274870634078980000e-002) (2, -1.32829165086150170000e-002) (3, 7.59035050868988040000e-002) (4, 6.65085241198539730000e-002) (5, 3.86920981109142300000e-002) (6, 1.04234162718057630000e-002) (7, -7.40162357687950130000e-002) (8, 5.86044155061244960000e-002) (9, 3.66004034876823430000e-002) (10, -4.23691160976886750000e-002) (11, -3.51902619004249570000e-002) (12, 3.50407091900706290000e-003) (13, -2.43032276630401610000e-002) (14, -4.17718067765235900000e-002) (15, -8.91213268041610720000e-002) (16, -5.02138817682862280000e-003) (17, -2.11561825126409530000e-002) (18, 6.99844909831881520000e-003) (19, -1.37538248673081400000e-002) (20, -1.13127261400222780000e-001) (21, 6.39020651578903200000e-002) (22, -7.55009204149246220000e-002) (23, 5.76868169009685520000e-002) (24, -6.33738413453102110000e-002) (25, 7.49912261962890630000e-002) (26, 4.77252341806888580000e-003) (27, -6.33991435170173650000e-002) (28, 3.81762683391571040000e-002) (29, 3.12763080000877380000e-002) (30, -5.92402853071689610000e-002) (31, -7.30868503451347350000e-002) (32, 1.93020608276128770000e-002) (33, -1.98857132345438000000e-002) (34, 1.91166698932647710000e-002) (35, -1.17824301123619080000e-002) (36, -1.33957907557487490000e-001) (37, -6.95203468203544620000e-002) (38, -1.44957359880208970000e-002) (39, 1.82917341589927670000e-003) (40, -4.50712032616138460000e-002) (41, 6.27114027738571170000e-002) (42, 8.07176381349563600000e-002) (43, 1.57565213739871980000e-002) (44, -1.54879048466682430000e-001) (45, -6.93868622183799740000e-002) (46, -1.40409981831908230000e-002) (47, 1.13479308784008030000e-002) (48, -3.70188169181346890000e-002) (49, -1.34183481335639950000e-001) (50, -3.57305705547332760000e-002) (51, -3.35623361170291900000e-002) (52, 3.15429233014583590000e-002) (53, 8.81962999701499940000e-002) (54, -6.79128021001815800000e-002) (55, -6.24729618430137630000e-002) (56, 4.15268689393997190000e-002) (57, -5.19874878227710720000e-002) (58, -2.66130771487951280000e-002) (59, -1.85587942600250240000e-001) (0, -7.99769535660743710000e-002) (1, 6.53804540634155270000e-002) (2, -6.28417804837226870000e-002) (3, -3.58146172948181630000e-003) (4, 4.65099029242992400000e-002) (5, -2.27101575583219530000e-002) (6, -6.43509253859519960000e-003) (7, -4.60431128740310670000e-002) (8, -6.44683167338371280000e-002) (9, 3.65381594747304920000e-003) (10, -3.86750102043151860000e-002) (11, 4.85988669097423550000e-002) (12, 2.76263896375894550000e-002) (13, -4.38643880188465120000e-002) (14, -6.53498321771621700000e-002) (15, 3.38132539764046670000e-003) (16, 5.58535754680633540000e-002) (17, 6.18595220148563390000e-002) (18, -4.38936762511730190000e-002) (19, -3.05420644581317900000e-002) (20, 8.77540633082389830000e-002) (21, 5.63898496329784390000e-002) (22, -3.38900461792945860000e-002) (23, 7.51551613211631770000e-002) (24, 4.78057637810707090000e-002) (25, -9.76487919688224790000e-002) (26, -5.29196001589298250000e-002) (27, 8.01927298307418820000e-002) (28, -3.46498601138591770000e-002) (29, 2.85448171198368070000e-002) (30, -7.28574395179748540000e-002) (31, -8.04766118526458740000e-002) (32, 2.53779944032430650000e-002) (33, 8.52655693888664250000e-002) (34, 3.08359712362289430000e-002) (35, 7.93350115418434140000e-002) (36, 1.88998673111200330000e-002) (37, 9.16394963860511780000e-002) (38, -7.18755181878805160000e-003) (39, 8.93039554357528690000e-002) (40, 3.22928465902805330000e-002) (41, 9.78791192173957820000e-002) (42, 1.96924470365047450000e-002) (43, 8.00699070096015930000e-002) (44, 4.94388416409492490000e-002) (45, -9.38012525439262390000e-002) (46, 2.84653548151254650000e-002) (47, 3.62504795193672180000e-002) (48, 8.80525112152099610000e-002) (49, -8.33026692271232600000e-002) (50, -4.90631461143493650000e-002) (51, 2.50807981938123700000e-002) (52, 4.69341687858104710000e-002) (53, 3.05928047746419910000e-002) (54, -4.17857952415943150000e-002) (55, -2.88467407226562500000e-002) (56, -7.70265683531761170000e-002) (57, -7.98962041735649110000e-002) (58, 2.52597145736217500000e-002) (59, -9.24612060189247130000e-002) (60, 5.51574230194091800000e-002) (61, 1.59763708710670470000e-001) (62, 1.64434838294982910000e+000) (63, -4.85669821500778200000e-001) (64, 2.51696892082691190000e-002) (65, 8.21385309100151060000e-002) (66, 1.83590233325958250000e-001) (67, 9.45460572838783260000e-002) (68, -4.70526143908500670000e-002) (60, 4.49744686484336850000e-002) (61, 1.94128975272178650000e-001) (62, -5.88805675506591800000e-001) (63, 2.69549161195755000000e-001) (64, 2.11183935403823850000e-001) (65, 1.99272349476814270000e-001) (66, 1.64504554122686390000e-002) (67, 2.13767811655998230000e-001) (68, 2.81135082244873050000e-001) 
