FANN_FLO_2.1
num_layers=3
learning_rate=0.700000
connection_rate=1.000000
network_type=0
learning_momentum=0.000000
training_algorithm=3
train_error_function=1
train_stop_function=0
cascade_output_change_fraction=0.010000
quickprop_decay=-0.000100
quickprop_mu=1.750000
rprop_increase_factor=1.200000
rprop_decrease_factor=0.500000
rprop_delta_min=0.000000
rprop_delta_max=50.000000
rprop_delta_zero=0.100000
cascade_output_stagnation_epochs=12
cascade_candidate_change_fraction=0.010000
cascade_candidate_stagnation_epochs=12
cascade_max_out_epochs=150
cascade_max_cand_epochs=150
cascade_num_candidate_groups=2
bit_fail_limit=3.49999994039535520000e-001
cascade_candidate_limit=1.00000000000000000000e+003
cascade_weight_multiplier=4.00000005960464480000e-001
cascade_activation_functions_count=10
cascade_activation_functions=3 5 7 8 10 11 14 15 16 17 
cascade_activation_steepnesses_count=4
cascade_activation_steepnesses=2.50000000000000000000e-001 5.00000000000000000000e-001 7.50000000000000000000e-001 1.00000000000000000000e+000 
layer_sizes=60 9 3 
scale_included=0
neurons (num_inputs, activation_function, activation_steepness)=(0, 0, 0.00000000000000000000e+000) (0, 0, 0.00000000000000000000e+000) (0, 0, 0.00000000000000000000e+000) (0, 0, 0.00000000000000000000e+000) (0, 0, 0.00000000000000000000e+000) (0, 0, 0.00000000000000000000e+000) (0, 0, 0.00000000000000000000e+000) (0, 0, 0.00000000000000000000e+000) (0, 0, 0.00000000000000000000e+000) (0, 0, 0.00000000000000000000e+000) (0, 0, 0.00000000000000000000e+000) (0, 0, 0.00000000000000000000e+000) (0, 0, 0.00000000000000000000e+000) (0, 0, 0.00000000000000000000e+000) (0, 0, 0.00000000000000000000e+000) (0, 0, 0.00000000000000000000e+000) (0, 0, 0.00000000000000000000e+000) (0, 0, 0.00000000000000000000e+000) (0, 0, 0.00000000000000000000e+000) (0, 0, 0.00000000000000000000e+000) (0, 0, 0.00000000000000000000e+000) (0, 0, 0.00000000000000000000e+000) (0, 0, 0.00000000000000000000e+000) (0, 0, 0.00000000000000000000e+000) (0, 0, 0.00000000000000000000e+000) (0, 0, 0.00000000000000000000e+000) (0, 0, 0.00000000000000000000e+000) (0, 0, 0.00000000000000000000e+000) (0, 0, 0.00000000000000000000e+000) (0, 0, 0.00000000000000000000e+000) (0, 0, 0.00000000000000000000e+000) (0, 0, 0.00000000000000000000e+000) (0, 0, 0.00000000000000000000e+000) (0, 0, 0.00000000000000000000e+000) (0, 0, 0.00000000000000000000e+000) (0, 0, 0.00000000000000000000e+000) (0, 0, 0.00000000000000000000e+000) (0, 0, 0.00000000000000000000e+000) (0, 0, 0.00000000000000000000e+000) (0, 0, 0.00000000000000000000e+000) (0, 0, 0.00000000000000000000e+000) (0, 0, 0.00000000000000000000e+000) (0, 0, 0.00000000000000000000e+000) (0, 0, 0.00000000000000000000e+000) (0, 0, 0.00000000000000000000e+000) (0, 0, 0.00000000000000000000e+000) (0, 0, 0.00000000000000000000e+000) (0, 0, 0.00000000000000000000e+000) (0, 0, 0.00000000000000000000e+000) (0, 0, 0.00000000000000000000e+000) (0, 0, 0.00000000000000000000e+000) (0, 0, 0.00000000000000000000e+000) (0, 0, 0.00000000000000000000e+000) (0, 0, 0.00000000000000000000e+000) (0, 0, 0.00000000000000000000e+000) (0, 0, 0.00000000000000000000e+000) (0, 0, 0.00000000000000000000e+000) (0, 0, 0.00000000000000000000e+000) (0, 0, 0.00000000000000000000e+000) (0, 0, 0.00000000000000000000e+000) (60, 4, 1.10000002384185790000e+000) (60, 4, 1.10000002384185790000e+000) (60, 4, 1.10000002384185790000e+000) (60, 4, 1.10000002384185790000e+000) (60, 4, 1.10000002384185790000e+000) (60, 4, 1.10000002384185790000e+000) (60, 4, 1.10000002384185790000e+000) (60, 4, 1.10000002384185790000e+000) (0, 4, 1.10000002384185790000e+000) (9, 5, 1.00000000000000000000e+000) (9, 5, 1.00000000000000000000e+000) (0, 5, 1.00000000000000000000e+000) 
connections (connected_to_neuron, weight)=(0, -2.28019692003726960000e-002) (1, -6.59551396965980530000e-002) (2, 7.22879990935325620000e-002) (3, 3.21124959737062450000e-003) (4, 4.07409461331553760000e-005) (5, -7.40036293864250180000e-002) (6, -1.81831400841474530000e-002) (7, -7.14861899614334110000e-002) (8, -6.48643001914024350000e-002) (9, -3.18075194954872130000e-002) (10, -4.95916930958628650000e-003) (11, -2.44323033839464190000e-002) (12, 1.59069150686264040000e-002) (13, -7.54969418048858640000e-002) (14, 3.19622941315174100000e-002) (15, -4.70258519053459170000e-002) (16, -3.68647798895835880000e-002) (17, 1.66057590395212170000e-002) (18, -3.91949713230133060000e-002) (19, -8.16769823431968690000e-002) (20, 8.90935957431793210000e-002) (21, 3.37352976202964780000e-002) (22, -1.01654753088951110000e-001) (23, 5.41739016771316530000e-002) (24, 6.62438273429870610000e-002) (25, 8.33157896995544430000e-002) (26, 7.12299793958663940000e-002) (27, -1.12339109182357790000e-001) (28, 3.54406535625457760000e-002) (29, 7.01137492433190350000e-003) (30, -9.30560827255249020000e-002) (31, 2.25973352789878850000e-002) (32, -6.29058256745338440000e-002) (33, -4.05502431094646450000e-002) (34, -5.37075847387313840000e-002) (35, -9.54532846808433530000e-002) (36, 2.69925612956285480000e-002) (37, -5.26467971503734590000e-002) (38, -8.53750035166740420000e-002) (39, 4.61670905351638790000e-002) (40, 2.52357609570026400000e-002) (41, -7.95706436038017270000e-002) (42, -8.85844603180885310000e-002) (43, -8.18588677793741230000e-003) (44, 2.34879851341247560000e-002) (45, -1.22523672878742220000e-001) (46, -1.68938878923654560000e-002) (47, -9.91060957312583920000e-002) (48, 4.94355037808418270000e-002) (49, -6.07902556657791140000e-002) (50, 2.15866956859827040000e-002) (51, -8.49157348275184630000e-002) (52, 7.01024308800697330000e-002) (53, -4.29684855043888090000e-002) (54, 7.06583783030509950000e-002) (55, -5.12733720242977140000e-002) (56, -4.55624908208847050000e-002) (57, 3.86499837040901180000e-002) (58, 1.20742870494723320000e-002) (59, -2.84851759672164920000e-001) (0, -6.28376230597496030000e-002) (1, 2.07990477792918680000e-003) (2, -9.49740558862686160000e-002) (3, -1.37758627533912660000e-002) (4, 4.65268790721893310000e-002) (5, 3.79752740263938900000e-002) (6, 1.63423269987106320000e-003) (7, -4.93884421885013580000e-002) (8, -2.82310019247233870000e-003) (9, -1.97410956025123600000e-002) (10, 8.20865631103515630000e-002) (11, -4.88433949649333950000e-002) (12, 2.14262697845697400000e-002) (13, 8.66879597306251530000e-002) (14, 2.26590279489755630000e-002) (15, -4.53633815050125120000e-003) (16, 6.73197060823440550000e-002) (17, 1.90803762525320050000e-002) (18, 6.03577755391597750000e-002) (19, 6.22975174337625500000e-004) (20, 1.56766753643751140000e-002) (21, 3.10472631826996800000e-003) (22, -6.34364113211631770000e-002) (23, -5.45753613114356990000e-002) (24, -5.23011796176433560000e-002) (25, -3.19848358631134030000e-002) (26, 7.83406645059585570000e-002) (27, 4.03478089720010760000e-003) (28, -9.22538414597511290000e-002) (29, 1.92838832736015320000e-002) (30, -2.05967598594725130000e-003) (31, -4.34808246791362760000e-002) (32, -6.88408091664314270000e-002) (33, 9.38876941800117490000e-002) (34, 9.72282886505126950000e-002) (35, -5.14226332306861880000e-002) (36, 4.33499068021774290000e-002) (37, 4.91611286997795100000e-002) (38, -7.49197322875261310000e-004) (39, -3.68285551667213440000e-002) (40, -3.12230503186583520000e-003) (41, -3.66488061845302580000e-002) (42, -8.76211598515510560000e-002) (43, 9.12169888615608220000e-002) (44, 3.77449877560138700000e-002) (45, 1.05251474305987360000e-002) (46, -8.65938663482666020000e-002) (47, 7.43777826428413390000e-002) (48, -8.45846086740493770000e-002) (49, 8.92887860536575320000e-002) (50, 4.64692804962396620000e-003) (51, 3.59321460127830510000e-002) (52, -7.77139514684677120000e-002) (53, -4.05439138412475590000e-002) (54, 6.74797669053077700000e-002) (55, -8.89262631535530090000e-002) (56, 6.81999027729034420000e-002) (57, -5.09203039109706880000e-002) (58, 3.80975008010864260000e-002) (59, 1.80597249418497090000e-002) (0, -2.32531964778900150000e-001) (1, -5.71984872221946720000e-002) (2, -3.00135970115661620000e-001) (3, -7.99086987972259520000e-002) (4, -3.48047703504562380000e-001) (5, -3.15244332887232300000e-003) (6, -1.96770980954170230000e-001) (7, -1.26808494329452510000e-001) (8, -6.88206180930137630000e-002) (9, -3.58283162117004390000e-001) (10, 1.26568786799907680000e-002) (11, -8.03753957152366640000e-002) (12, -1.00245893001556400000e-001) (13, -7.36686661839485170000e-002) (14, -6.81276246905326840000e-002) (15, -1.16865120828151700000e-001) (16, -4.02217775583267210000e-001) (17, -5.68128526210784910000e-001) (18, -4.21783983707427980000e-001) (19, -1.16724602878093720000e-001) (20, -9.35249999165534970000e-002) (21, -1.34393826127052310000e-001) (22, -6.97414427995681760000e-002) (23, -1.80626869201660160000e-001) (24, -9.28165391087532040000e-002) (25, -6.51942268013954160000e-002) (26, -6.81384563446044920000e-001) (27, -4.45250160992145540000e-002) (28, -7.84418582916259770000e-002) (29, -6.03496208786964420000e-002) (30, -1.80975213646888730000e-001) (31, -3.73370468616485600000e-001) (32, -8.73819351196289060000e-001) (33, -2.54380989074707030000e+000) (34, -8.98154005408287050000e-002) (35, 6.73858895897865300000e-002) (36, -5.98756456747651100000e-003) (37, -4.42315749824047090000e-002) (38, -7.50296533107757570000e-001) (39, -4.75616812705993650000e-001) (40, -3.82403619587421420000e-002) (41, -2.47749820351600650000e-001) (42, -3.92167419195175170000e-001) (43, -1.66622638702392580000e-001) (44, -5.00512495636940000000e-002) (45, -3.93787473440170290000e-001) (46, 2.18087472021579740000e-002) (47, 5.18465861678123470000e-002) (48, -6.19837403297424320000e-001) (49, -1.13023586571216580000e-001) (50, -1.05778701603412630000e-001) (51, -5.27971237897872920000e-002) (52, -1.45918279886245730000e-001) (53, -2.93281543999910350000e-002) (54, -5.12177906930446620000e-002) (55, -2.38864824175834660000e-001) (56, 2.95067578554153440000e-001) (57, 9.10184010863304140000e-002) (58, -3.85811299085617070000e-001) (59, 4.10561442375183110000e-001) (0, -3.41666340827941890000e-002) (1, 2.19213310629129410000e-002) (2, 8.76361653208732600000e-002) (3, 7.31670930981636050000e-002) (4, 8.42042416334152220000e-002) (5, -2.33131721615791320000e-002) (6, -9.12520736455917360000e-002) (7, 8.96265283226966860000e-002) (8, 4.63251285254955290000e-002) (9, -6.74829334020614620000e-002) (10, -4.57518994808197020000e-002) (11, 9.53487008810043330000e-002) (12, -1.37080689892172810000e-002) (13, 1.31526393815875050000e-002) (14, 1.00448308512568470000e-002) (15, 2.04987861216068270000e-002) (16, 8.55982154607772830000e-002) (17, -7.65480548143386840000e-002) (18, -1.93685293197631840000e-002) (19, 1.27093652263283730000e-002) (20, 9.51444506645202640000e-002) (21, 6.28611398860812190000e-003) (22, -3.99460159242153170000e-002) (23, -4.16378080844879150000e-002) (24, 3.84487807750701900000e-002) (25, -7.43217095732688900000e-002) (26, 3.03043294697999950000e-002) (27, 4.16780561208724980000e-002) (28, 4.83838841319084170000e-003) (29, -5.16219176352024080000e-002) (30, 3.82600724697113040000e-002) (31, 5.98200000822544100000e-002) (32, 2.90034804493188860000e-002) (33, -6.37350529432296750000e-002) (34, -6.73929750919342040000e-002) (35, -4.30033914744853970000e-002) (36, -7.82297924160957340000e-002) (37, 7.41283893585205080000e-002) (38, 9.68379229307174680000e-002) (39, 3.06269749999046330000e-002) (40, -6.82601779699325560000e-002) (41, 4.40430454909801480000e-002) (42, -9.59084257483482360000e-002) (43, -8.60820934176445010000e-002) (44, 1.20418881997466090000e-002) (45, -7.72115662693977360000e-002) (46, 7.11471438407897950000e-002) (47, -8.23714360594749450000e-002) (48, 3.43414880335330960000e-002) (49, -1.00398227572441100000e-001) (50, -6.55842497944831850000e-002) (51, -1.02242426946759220000e-002) (52, -2.80967969447374340000e-002) (53, 2.31268983334302900000e-002) (54, -8.84604360908269880000e-003) (55, 4.66759270057082180000e-003) (56, 9.07585322856903080000e-002) (57, -1.98166561312973500000e-003) (58, -7.27329477667808530000e-002) (59, -1.23402684926986690000e-001) (0, 6.82328045368194580000e-002) (1, -5.29721155762672420000e-002) (2, 2.59465090930461880000e-002) (3, -5.57166971266269680000e-002) (4, -2.54302695393562320000e-002) (5, -6.73107728362083440000e-002) (6, -6.37108609080314640000e-002) (7, 1.70165803283452990000e-002) (8, -1.57164316624403000000e-002) (9, 4.39544729888439180000e-002) (10, -3.17377084866166110000e-003) (11, 7.57774710655212400000e-002) (12, -7.49375596642494200000e-002) (13, 3.93084175884723660000e-002) (14, 1.79868396371603010000e-002) (15, -5.24350032210350040000e-002) (16, -5.88655844330787660000e-002) (17, -7.97699671238660810000e-003) (18, -2.62627713382244110000e-002) (19, -9.70775857567787170000e-002) (20, 1.30985509604215620000e-002) (21, 4.52358759939670560000e-002) (22, -5.22537678480148320000e-002) (23, 2.66214013099670410000e-002) (24, -4.40875627100467680000e-002) (25, -8.32974016666412350000e-002) (26, 2.05424744635820390000e-002) (27, -1.01727629080414770000e-002) (28, -4.96117584407329560000e-002) (29, 9.66936424374580380000e-002) (30, 6.29633665084838870000e-002) (31, 1.20911141857504840000e-003) (32, 9.14992317557334900000e-002) (33, 7.89694488048553470000e-002) (34, 4.32718098163604740000e-002) (35, 5.00206612050533290000e-002) (36, -3.47519367933273320000e-002) (37, -6.16650320589542390000e-002) (38, 1.36241409927606580000e-002) (39, 7.68379941582679750000e-002) (40, -8.05252343416213990000e-002) (41, -2.88743078708648680000e-002) (42, 7.87672176957130430000e-002) (43, 7.05683454871177670000e-002) (44, 7.58065208792686460000e-002) (45, -3.74425053596496580000e-002) (46, 5.96579685807228090000e-002) (47, -3.50147001445293430000e-002) (48, -4.74852435290813450000e-002) (49, 3.01736705005168910000e-002) (50, 1.54177974909543990000e-002) (51, 1.64241604506969450000e-002) (52, -9.71822440624237060000e-002) (53, -9.34122502803802490000e-002) (54, -1.74892898648977280000e-002) (55, 5.18741086125373840000e-002) (56, -4.15649600327014920000e-002) (57, -2.55302712321281430000e-003) (58, -7.25199058651924130000e-002) (59, -6.54234215617179870000e-002) (0, -5.78669868409633640000e-002) (1, -1.21432589367032050000e-002) (2, -1.02692395448684690000e-002) (3, -1.51749560609459880000e-002) (4, -7.69933536648750310000e-002) (5, 6.23694881796836850000e-002) (6, 2.74445191025733950000e-002) (7, 9.97543856501579280000e-002) (8, 1.56780134420841930000e-003) (9, 5.80255985260009770000e-002) (10, 4.20968197286129000000e-002) (11, 3.13050784170627590000e-002) (12, 4.62521202862262730000e-002) (13, -8.06375667452812190000e-002) (14, 3.09514682739973070000e-002) (15, 3.12185212969779970000e-002) (16, -8.78327861428260800000e-002) (17, 9.79612767696380620000e-003) (18, -7.95219242572784420000e-002) (19, -3.14944572746753690000e-002) (20, -3.40245105326175690000e-002) (21, -3.40926833450794220000e-002) (22, 1.02967554703354840000e-002) (23, 2.99226306378841400000e-002) (24, 3.68938446044921880000e-002) (25, 1.05452843010425570000e-001) (26, -1.20543166995048520000e-002) (27, 3.64358955994248390000e-003) (28, 6.89352899789810180000e-002) (29, 4.91059012711048130000e-002) (30, 5.14640584588050840000e-002) (31, -4.89575155079364780000e-002) (32, 9.83599573373794560000e-002) (33, -3.07732131332159040000e-002) (34, 1.09760882332921030000e-002) (35, 4.98238690197467800000e-002) (36, -3.26353870332241060000e-002) (37, 4.22591902315616610000e-002) (38, -7.24625363945961000000e-002) (39, 4.14053089916706090000e-002) (40, 2.74266656488180160000e-002) (41, -7.94815868139266970000e-002) (42, 6.07672333717346190000e-002) (43, -2.07307212986052040000e-003) (44, -1.20808975771069530000e-002) (45, 4.44705411791801450000e-002) (46, -8.04856345057487490000e-002) (47, -8.54226127266883850000e-002) (48, -4.26808930933475490000e-002) (49, -7.91244283318519590000e-002) (50, -6.65243193507194520000e-002) (51, 5.95174916088581090000e-003) (52, -3.71443219482898710000e-002) (53, -4.54869531095027920000e-002) (54, -8.97989608347415920000e-003) (55, 4.57402179017663000000e-003) (56, 6.02999469265341760000e-003) (57, -7.31337890028953550000e-002) (58, -1.24499329831451180000e-003) (59, -1.08969852328300480000e-001) (0, 5.22709786891937260000e-002) (1, -8.80215764045715330000e-002) (2, -1.67539808899164200000e-002) (3, 7.81435444951057430000e-002) (4, 7.42105841636657710000e-002) (5, 3.46145257353782650000e-002) (6, 6.20837137103080750000e-003) (7, -5.98182007670402530000e-002) (8, 7.59941115975379940000e-002) (9, 2.70159412175416950000e-002) (10, -5.44903539121150970000e-002) (11, -2.73965373635292050000e-002) (12, 2.23075151443481450000e-002) (13, -1.86754185706377030000e-002) (14, -5.02654761075973510000e-002) (15, -9.85928028821945190000e-002) (16, 4.53927926719188690000e-003) (17, 5.54427271708846090000e-003) (18, 1.91690139472484590000e-002) (19, -1.90155729651451110000e-002) (20, -9.80663597583770750000e-002) (21, 6.42875656485557560000e-002) (22, -6.23690783977508540000e-002) (23, 6.49671852588653560000e-002) (24, -7.09102153778076170000e-002) (25, 7.10840001702308650000e-002) (26, 1.56221250072121620000e-002) (27, -5.01652099192142490000e-002) (28, 4.93809506297111510000e-002) (29, 4.46345172822475430000e-002) (30, -4.94713187217712400000e-002) (31, -9.28819030523300170000e-002) (32, 2.40920763462781910000e-002) (33, -2.11299117654562000000e-002) (34, 1.70830246061086650000e-002) (35, -1.29326768219470980000e-002) (36, -1.10535122454166410000e-001) (37, -6.94990828633308410000e-002) (38, 9.53996204771101470000e-004) (39, 1.21408123522996900000e-002) (40, -3.90662886202335360000e-002) (41, 7.27117136120796200000e-002) (42, 6.84510618448257450000e-002) (43, 1.84258222579956050000e-002) (44, -1.09359338879585270000e-001) (45, -6.48873224854469300000e-002) (46, -1.71825625002384190000e-002) (47, -8.24260525405406950000e-003) (48, -2.46636979281902310000e-002) (49, -1.14408314228057860000e-001) (50, -2.59848963469266890000e-002) (51, -1.62452422082424160000e-002) (52, 3.98563146591186520000e-002) (53, 7.85851776599884030000e-002) (54, -4.50186170637607570000e-002) (55, -6.24037720263004300000e-002) (56, 4.86305244266986850000e-002) (57, -6.30450323224067690000e-002) (58, -4.26630824804306030000e-002) (59, -2.04498186707496640000e-001) (0, -8.47698375582695010000e-002) (1, 6.37885108590126040000e-002) (2, -5.84169104695320130000e-002) (3, 4.22913953661918640000e-003) (4, 4.98085692524909970000e-002) (5, -9.86120849847793580000e-003) (6, 3.78469796851277350000e-003) (7, -5.10912947356700900000e-002) (8, -6.06015101075172420000e-002) (9, 1.80314276367425920000e-002) (10, -2.84224897623062130000e-002) (11, 5.02289570868015290000e-002) (12, 2.92986389249563220000e-002) (13, -3.73459272086620330000e-002) (14, -5.76333068311214450000e-002) (15, 1.38851357623934750000e-002) (16, 5.50399981439113620000e-002) (17, 5.63135445117950440000e-002) (18, -4.59400787949562070000e-002) (19, -2.29162890464067460000e-002) (20, 8.56744796037673950000e-002) (21, 6.23772144317626950000e-002) (22, -4.13274206221103670000e-002) (23, 7.67274349927902220000e-002) (24, 6.03766776621341710000e-002) (25, -8.95735472440719600000e-002) (26, -5.75207099318504330000e-002) (27, 7.64883682131767270000e-002) (28, -3.57569344341754910000e-002) (29, 2.36189328134059910000e-002) (30, -7.21819251775741580000e-002) (31, -7.30749219655990600000e-002) (32, 2.04701609909534450000e-002) (33, 8.73197391629219060000e-002) (34, 4.21103127300739290000e-002) (35, 8.32405537366867070000e-002) (36, 1.18547659367322920000e-002) (37, 1.03087276220321660000e-001) (38, -9.52583923935890200000e-003) (39, 8.59692245721817020000e-002) (40, 3.47411371767520900000e-002) (41, 9.69363301992416380000e-002) (42, 3.53652611374855040000e-002) (43, 9.42248851060867310000e-002) (44, 3.94064597785472870000e-002) (45, -9.22030806541442870000e-002) (46, 2.77096871286630630000e-002) (47, 5.66682294011116030000e-002) (48, 9.36201810836791990000e-002) (49, -8.68878513574600220000e-002) (50, -5.36203905940055850000e-002) (51, 1.75663735717535020000e-002) (52, 4.91855405271053310000e-002) (53, 3.34590561687946320000e-002) (54, -5.01153394579887390000e-002) (55, -2.41607725620269780000e-002) (56, -7.68361836671829220000e-002) (57, -7.75974094867706300000e-002) (58, 2.63014920055866240000e-002) (59, -1.05344213545322420000e-001) (60, 4.57881316542625430000e-002) (61, 1.12993448972702030000e-001) (62, 1.72133922576904300000e+000) (63, 1.95783134549856190000e-002) (64, 4.07915003597736360000e-002) (65, 3.22601422667503360000e-002) (66, 6.58384039998054500000e-002) (67, 1.96616128087043760000e-002) (68, -3.94518375396728520000e-002) (60, 5.23111317306756970000e-003) (61, 1.58772274851799010000e-001) (62, -2.19482612609863280000e+000) (63, 1.09603159129619600000e-001) (64, 1.16162955760955810000e-001) (65, 1.83283865451812740000e-001) (66, 5.27729988098144530000e-002) (67, 1.90223842859268190000e-001) (68, 7.55898356437683110000e-001) 
