FANN_FLO_2.1
num_layers=3
learning_rate=0.700000
connection_rate=1.000000
network_type=0
learning_momentum=0.000000
training_algorithm=3
train_error_function=1
train_stop_function=0
cascade_output_change_fraction=0.010000
quickprop_decay=-0.000100
quickprop_mu=1.750000
rprop_increase_factor=1.200000
rprop_decrease_factor=0.500000
rprop_delta_min=0.000000
rprop_delta_max=50.000000
rprop_delta_zero=0.100000
cascade_output_stagnation_epochs=12
cascade_candidate_change_fraction=0.010000
cascade_candidate_stagnation_epochs=12
cascade_max_out_epochs=150
cascade_max_cand_epochs=150
cascade_num_candidate_groups=2
bit_fail_limit=3.49999994039535520000e-001
cascade_candidate_limit=1.00000000000000000000e+003
cascade_weight_multiplier=4.00000005960464480000e-001
cascade_activation_functions_count=10
cascade_activation_functions=3 5 7 8 10 11 14 15 16 17 
cascade_activation_steepnesses_count=4
cascade_activation_steepnesses=2.50000000000000000000e-001 5.00000000000000000000e-001 7.50000000000000000000e-001 1.00000000000000000000e+000 
layer_sizes=60 9 3 
scale_included=0
neurons (num_inputs, activation_function, activation_steepness)=(0, 0, 0.00000000000000000000e+000) (0, 0, 0.00000000000000000000e+000) (0, 0, 0.00000000000000000000e+000) (0, 0, 0.00000000000000000000e+000) (0, 0, 0.00000000000000000000e+000) (0, 0, 0.00000000000000000000e+000) (0, 0, 0.00000000000000000000e+000) (0, 0, 0.00000000000000000000e+000) (0, 0, 0.00000000000000000000e+000) (0, 0, 0.00000000000000000000e+000) (0, 0, 0.00000000000000000000e+000) (0, 0, 0.00000000000000000000e+000) (0, 0, 0.00000000000000000000e+000) (0, 0, 0.00000000000000000000e+000) (0, 0, 0.00000000000000000000e+000) (0, 0, 0.00000000000000000000e+000) (0, 0, 0.00000000000000000000e+000) (0, 0, 0.00000000000000000000e+000) (0, 0, 0.00000000000000000000e+000) (0, 0, 0.00000000000000000000e+000) (0, 0, 0.00000000000000000000e+000) (0, 0, 0.00000000000000000000e+000) (0, 0, 0.00000000000000000000e+000) (0, 0, 0.00000000000000000000e+000) (0, 0, 0.00000000000000000000e+000) (0, 0, 0.00000000000000000000e+000) (0, 0, 0.00000000000000000000e+000) (0, 0, 0.00000000000000000000e+000) (0, 0, 0.00000000000000000000e+000) (0, 0, 0.00000000000000000000e+000) (0, 0, 0.00000000000000000000e+000) (0, 0, 0.00000000000000000000e+000) (0, 0, 0.00000000000000000000e+000) (0, 0, 0.00000000000000000000e+000) (0, 0, 0.00000000000000000000e+000) (0, 0, 0.00000000000000000000e+000) (0, 0, 0.00000000000000000000e+000) (0, 0, 0.00000000000000000000e+000) (0, 0, 0.00000000000000000000e+000) (0, 0, 0.00000000000000000000e+000) (0, 0, 0.00000000000000000000e+000) (0, 0, 0.00000000000000000000e+000) (0, 0, 0.00000000000000000000e+000) (0, 0, 0.00000000000000000000e+000) (0, 0, 0.00000000000000000000e+000) (0, 0, 0.00000000000000000000e+000) (0, 0, 0.00000000000000000000e+000) (0, 0, 0.00000000000000000000e+000) (0, 0, 0.00000000000000000000e+000) (0, 0, 0.00000000000000000000e+000) (0, 0, 0.00000000000000000000e+000) (0, 0, 0.00000000000000000000e+000) (0, 0, 0.00000000000000000000e+000) (0, 0, 0.00000000000000000000e+000) (0, 0, 0.00000000000000000000e+000) (0, 0, 0.00000000000000000000e+000) (0, 0, 0.00000000000000000000e+000) (0, 0, 0.00000000000000000000e+000) (0, 0, 0.00000000000000000000e+000) (0, 0, 0.00000000000000000000e+000) (60, 4, 1.10000002384185790000e+000) (60, 4, 1.10000002384185790000e+000) (60, 4, 1.10000002384185790000e+000) (60, 4, 1.10000002384185790000e+000) (60, 4, 1.10000002384185790000e+000) (60, 4, 1.10000002384185790000e+000) (60, 4, 1.10000002384185790000e+000) (60, 4, 1.10000002384185790000e+000) (0, 4, 1.10000002384185790000e+000) (9, 5, 1.00000000000000000000e+000) (9, 5, 1.00000000000000000000e+000) (0, 5, 1.00000000000000000000e+000) 
connections (connected_to_neuron, weight)=(0, 2.24409118294715880000e-001) (1, -5.95711506903171540000e-002) (2, 8.95368233323097230000e-002) (3, -4.85356226563453670000e-002) (4, 2.12959572672843930000e-002) (5, -6.24764189124107360000e-002) (6, 2.96222627162933350000e-001) (7, -3.81269231438636780000e-002) (8, -8.36642235517501830000e-002) (9, -8.25209021568298340000e-002) (10, 5.87062649428844450000e-002) (11, 3.38625371456146240000e-001) (12, 1.37067670002579690000e-002) (13, -1.08455173671245570000e-001) (14, -6.13618075847625730000e-001) (15, 3.53565722703933720000e-001) (16, 2.80251324176788330000e-001) (17, 2.70102947950363160000e-001) (18, -4.42451069829985500000e-004) (19, -2.10691064596176150000e-001) (20, 3.99695247411727910000e-001) (21, 5.43569289147853850000e-002) (22, 9.65290293097496030000e-002) (23, 6.67610347270965580000e-001) (24, 1.18175044655799870000e-001) (25, -9.83754873275756840000e-001) (26, 1.59700766205787660000e-001) (27, -1.51593312621116640000e-001) (28, -1.32867218926548960000e-002) (29, 1.86497252434492110000e-002) (30, 7.78350755572319030000e-002) (31, -5.21151483058929440000e-001) (32, -2.79493033885955810000e-001) (33, 7.12109684944152830000e-001) (34, 3.27646791934967040000e-001) (35, -3.61571520566940310000e-001) (36, 6.14734031260013580000e-002) (37, -3.09525936841964720000e-001) (38, -2.87063241004943850000e-001) (39, 1.98803514242172240000e-001) (40, 3.74508947134017940000e-001) (41, -8.68403688073158260000e-002) (42, -7.80932679772377010000e-002) (43, -1.56296893954277040000e-001) (44, 8.81784796714782710000e-001) (45, 1.83232188224792480000e-001) (46, -3.81701253354549410000e-002) (47, -3.80083590745925900000e-001) (48, 5.55866248905658720000e-002) (49, 1.51891604065895080000e-001) (50, -1.26955835148692130000e-002) (51, 7.15270400047302250000e-001) (52, 3.60699355602264400000e-001) (53, -4.84585702419281010000e-001) (54, 9.47230532765388490000e-002) (55, -1.40631785616278650000e-002) (56, -3.39067250490188600000e-001) (57, -2.87943915463984010000e-003) (58, -2.71756887435913090000e-001) (59, -2.58454620838165280000e-001) (0, -5.37939555943012240000e-002) (1, 3.27011803165078160000e-003) (2, -9.19867530465126040000e-002) (3, -1.03713888674974440000e-002) (4, 4.92287315428256990000e-002) (5, 3.71536463499069210000e-002) (6, 4.49846083938609810000e-005) (7, -4.67841997742652890000e-002) (8, -2.43558618240058420000e-003) (9, -1.93779859691858290000e-002) (10, 8.18896591663360600000e-002) (11, -4.74371835589408870000e-002) (12, 2.28984653949737550000e-002) (13, 8.48880410194396970000e-002) (14, 2.02500130981206890000e-002) (15, -5.98574709147214890000e-003) (16, 7.17811882495880130000e-002) (17, 2.23162807524204250000e-002) (18, 6.00529275834560390000e-002) (19, 5.16574538778513670000e-004) (20, 1.24741913750767710000e-002) (21, 3.18562821485102180000e-003) (22, -6.25633895397186280000e-002) (23, -4.80843894183635710000e-002) (24, -5.20244948565959930000e-002) (25, -3.69394272565841670000e-002) (26, 7.61595368385314940000e-002) (27, 1.58288481179624800000e-003) (28, -9.01476815342903140000e-002) (29, 2.19136495143175130000e-002) (30, -1.77650817204266790000e-003) (31, -3.97474132478237150000e-002) (32, -6.27355054020881650000e-002) (33, 9.10157784819602970000e-002) (34, 9.49958339333534240000e-002) (35, -5.22168129682540890000e-002) (36, 4.46316152811050420000e-002) (37, 4.54071499407291410000e-002) (38, 2.47077061794698240000e-003) (39, -3.95440459251403810000e-002) (40, -4.92662843316793440000e-003) (41, -3.52800711989402770000e-002) (42, -8.70275273919105530000e-002) (43, 9.28462073206901550000e-002) (44, 4.00358960032463070000e-002) (45, 8.61927121877670290000e-003) (46, -8.89002159237861630000e-002) (47, 7.53402486443519590000e-002) (48, -8.68311896920204160000e-002) (49, 8.93126428127288820000e-002) (50, 8.61297454684972760000e-003) (51, 3.76702286303043370000e-002) (52, -7.88094550371170040000e-002) (53, -4.13870699703693390000e-002) (54, 6.45474418997764590000e-002) (55, -8.54067280888557430000e-002) (56, 6.21691569685935970000e-002) (57, -5.23384921252727510000e-002) (58, 5.34010007977485660000e-002) (59, 2.10445802658796310000e-002) (0, -8.36613327264785770000e-002) (1, -7.53469690680503850000e-002) (2, 1.54105238616466520000e-002) (3, -3.18049043416976930000e-002) (4, -1.19334375485777850000e-002) (5, 6.82391151785850520000e-002) (6, 7.80543833971023560000e-002) (7, -8.17477330565452580000e-002) (8, 1.03885103017091750000e-002) (9, 1.06647750362753870000e-002) (10, 4.58888299763202670000e-002) (11, -1.90426353365182880000e-002) (12, -2.62836143374443050000e-002) (13, -3.18366177380084990000e-002) (14, -2.76077631860971450000e-002) (15, -6.64275437593460080000e-002) (16, 5.43301999568939210000e-002) (17, -9.53024998307228090000e-003) (18, -9.16251763701438900000e-002) (19, 6.89642131328582760000e-002) (20, -8.83796289563179020000e-002) (21, -1.02853089570999150000e-001) (22, -8.01083594560623170000e-002) (23, 3.18959243595600130000e-002) (24, -3.19736190140247340000e-002) (25, 7.36392661929130550000e-003) (26, 5.37169203162193300000e-002) (27, -7.82107934355735780000e-002) (28, 4.89779300987720490000e-002) (29, -3.24751324951648710000e-002) (30, -1.08706496655941010000e-001) (31, -6.62426650524139400000e-002) (32, -3.41711714863777160000e-002) (33, 5.59703446924686430000e-002) (34, -1.16764549165964130000e-002) (35, 7.14677497744560240000e-002) (36, -3.69158200919628140000e-002) (37, 3.27102746814489360000e-003) (38, 1.76681503653526310000e-002) (39, -8.26510563492774960000e-002) (40, 1.07222460210323330000e-002) (41, -1.17119820788502690000e-002) (42, -5.11943027377128600000e-002) (43, 5.28406277298927310000e-002) (44, -2.56324484944343570000e-002) (45, -4.44563180208206180000e-002) (46, -1.06777958571910860000e-001) (47, 5.27340061962604520000e-002) (48, 8.10461640357971190000e-002) (49, -5.69865703582763670000e-002) (50, -7.92437121272087100000e-002) (51, -7.50538706779479980000e-002) (52, -8.81313458085060120000e-002) (53, -1.25260790809988980000e-002) (54, -3.58184538781642910000e-002) (55, -7.25174844264984130000e-002) (56, -7.15852156281471250000e-002) (57, 7.42409601807594300000e-002) (58, -1.41871068626642230000e-002) (59, -1.92663103342056270000e-001) (0, -3.37736941874027250000e-002) (1, 1.79563313722610470000e-002) (2, 8.50767120718955990000e-002) (3, 7.01249912381172180000e-002) (4, 7.88336992263793950000e-002) (5, -3.01024224609136580000e-002) (6, -9.37413051724433900000e-002) (7, 8.59091207385063170000e-002) (8, 4.03077341616153720000e-002) (9, -7.54861459136009220000e-002) (10, -5.07453083992004390000e-002) (11, 9.03369262814521790000e-002) (12, -2.16165781021118160000e-002) (13, 2.81798187643289570000e-003) (14, 7.09883694071322680000e-004) (15, 1.42550915479660030000e-002) (16, 8.65869447588920590000e-002) (17, -7.56522119045257570000e-002) (18, -1.88360661268234250000e-002) (19, 8.89027584344148640000e-003) (20, 9.06720757484436040000e-002) (21, 3.68735892698168750000e-003) (22, -4.44557294249534610000e-002) (23, -4.03220094740390780000e-002) (24, 3.85920479893684390000e-002) (25, -8.69757980108261110000e-002) (26, 2.68895011395215990000e-002) (27, 4.03440706431865690000e-002) (28, 4.44771535694599150000e-003) (29, -5.46922832727432250000e-002) (30, 3.13790291547775270000e-002) (31, 5.22966831922531130000e-002) (32, 2.80005093663930890000e-002) (33, -6.82932510972023010000e-002) (34, -7.06435292959213260000e-002) (35, -4.30594794452190400000e-002) (36, -8.08779895305633540000e-002) (37, 6.49641603231430050000e-002) (38, 9.45221483707427980000e-002) (39, 2.69023030996322630000e-002) (40, -7.06616416573524480000e-002) (41, 4.15381677448749540000e-002) (42, -9.75348800420761110000e-002) (43, -9.26884338259696960000e-002) (44, 1.17739681154489520000e-002) (45, -7.90963843464851380000e-002) (46, 7.22623616456985470000e-002) (47, -8.72061103582382200000e-002) (48, 2.69821695983409880000e-002) (49, -1.03120513260364530000e-001) (50, -6.52489811182022090000e-002) (51, -1.01767927408218380000e-002) (52, -2.72634495049715040000e-002) (53, 2.10802946239709850000e-002) (54, -1.23431393876671790000e-002) (55, 1.07060128357261420000e-003) (56, 8.98319929838180540000e-002) (57, -1.41483993502333760000e-004) (58, -7.01653212308883670000e-002) (59, -1.20955519378185270000e-001) (0, 7.24043473601341250000e-002) (1, -5.34661412239074710000e-002) (2, 2.52981707453727720000e-002) (3, -6.07934184372425080000e-002) (4, -2.77624446898698810000e-002) (5, -7.34625160694122310000e-002) (6, -6.31620660424232480000e-002) (7, 1.79621893912553790000e-002) (8, -2.15898510068655010000e-002) (9, 3.32911796867847440000e-002) (10, -5.07728708907961850000e-003) (11, 7.37501308321952820000e-002) (12, -8.08265879750251770000e-002) (13, 2.98157166689634320000e-002) (14, 6.95069367066025730000e-003) (15, -5.62219358980655670000e-002) (16, -5.56874983012676240000e-002) (17, -5.66345406696200370000e-003) (18, -2.39721387624740600000e-002) (19, -1.02068051695823670000e-001) (20, 1.33959557861089710000e-002) (21, 4.36285138130187990000e-002) (22, -5.06721138954162600000e-002) (23, 3.11743300408124920000e-002) (24, -4.29252386093139650000e-002) (25, -9.78192836046218870000e-002) (26, 1.84277575463056560000e-002) (27, -1.48597648367285730000e-002) (28, -5.29579110443592070000e-002) (29, 9.74118188023567200000e-002) (30, 5.95887601375579830000e-002) (31, -7.47725600376725200000e-003) (32, 8.81463363766670230000e-002) (33, 7.73596912622451780000e-002) (34, 4.23876643180847170000e-002) (35, 4.59996871650218960000e-002) (36, -3.48423160612583160000e-002) (37, -7.43980407714843750000e-002) (38, 8.75541102141141890000e-003) (39, 7.58580416440963750000e-002) (40, -8.05843621492385860000e-002) (41, -3.23353521525859830000e-002) (42, 7.78904631733894350000e-002) (43, 6.18002340197563170000e-002) (44, 7.81704857945442200000e-002) (45, -3.74731309711933140000e-002) (46, 5.79274632036685940000e-002) (47, -4.27781641483306880000e-002) (48, -5.39335310459136960000e-002) (49, 2.98174582421779630000e-002) (50, 1.52872093021869660000e-002) (51, 1.78203340619802470000e-002) (52, -9.57609117031097410000e-002) (53, -9.82546135783195500000e-002) (54, -1.80328302085399630000e-002) (55, 5.06082996726036070000e-002) (56, -4.64782901108264920000e-002) (57, -4.14703134447336200000e-003) (58, -7.04366564750671390000e-002) (59, -6.78671300411224370000e-002) (0, -5.54734915494918820000e-002) (1, -1.39119382947683330000e-002) (2, -1.33702512830495830000e-002) (3, -2.46441010385751720000e-002) (4, -7.88958445191383360000e-002) (5, 5.20833320915699010000e-002) (6, 2.72837094962596890000e-002) (7, 1.00086867809295650000e-001) (8, -7.35841738060116770000e-003) (9, 4.06992621719837190000e-002) (10, 4.41394709050655360000e-002) (11, 3.11558302491903310000e-002) (12, 4.04566042125225070000e-002) (13, -9.33806225657463070000e-002) (14, 1.88607312738895420000e-002) (15, 2.88315154612064360000e-002) (16, -8.79726484417915340000e-002) (17, 1.07565699145197870000e-002) (18, -8.46254602074623110000e-002) (19, -4.29622866213321690000e-002) (20, -3.21019627153873440000e-002) (21, -3.53392250835895540000e-002) (22, 1.14298593252897260000e-002) (23, 3.40684279799461360000e-002) (24, 3.59653756022453310000e-002) (25, 8.69078785181045530000e-002) (26, -1.75652727484703060000e-002) (27, -2.87098693661391740000e-003) (28, 6.13150931894779210000e-002) (29, 5.02158738672733310000e-002) (30, 4.48860637843608860000e-002) (31, -6.15610443055629730000e-002) (32, 8.89887139201164250000e-002) (33, -2.77485195547342300000e-002) (34, 8.34428053349256520000e-003) (35, 4.50461953878402710000e-002) (36, -3.13918776810169220000e-002) (37, 2.38929465413093570000e-002) (38, -8.34229514002799990000e-002) (39, 3.71414348483085630000e-002) (40, 2.53957733511924740000e-002) (41, -8.80592763423919680000e-002) (42, 5.77869229018688200000e-002) (43, -1.33850676938891410000e-002) (44, -5.19501930102705960000e-003) (45, 4.24341149628162380000e-002) (46, -8.23636129498481750000e-002) (47, -9.01615321636199950000e-002) (48, -4.81391549110412600000e-002) (49, -8.24380666017532350000e-002) (50, -6.85314834117889400000e-002) (51, 1.30079770460724830000e-002) (52, -3.82763147354125980000e-002) (53, -5.12855648994445800000e-002) (54, -9.37939248979091640000e-003) (55, -5.07171847857534890000e-004) (56, 4.35108056990429760000e-004) (57, -7.70322978496551510000e-002) (58, -6.53846003115177150000e-003) (59, -1.12540788948535920000e-001) (0, -1.44802946597337720000e-002) (1, -1.02658912539482120000e-001) (2, -4.69935946166515350000e-002) (3, 3.52551899850368500000e-002) (4, 4.16418574750423430000e-002) (5, -1.77071290090680120000e-003) (6, -2.43485522270202640000e+000) (7, -9.45437401533126830000e-002) (8, -8.54220628738403320000e-001) (9, -1.00327536463737490000e-001) (10, -1.38442945480346680000e+000) (11, -5.77174574136734010000e-002) (12, -1.51821188628673550000e-002) (13, -6.21019080281257630000e-002) (14, -8.30921977758407590000e-002) (15, -1.65704131126403810000e-001) (16, -8.21958668529987340000e-003) (17, -2.48371269553899770000e-002) (18, 7.90358614176511760000e-003) (19, -1.91502177715301510000e+000) (20, -3.60479259490966800000e+000) (21, -1.16136901080608370000e-001) (22, -1.04687824845314030000e-001) (23, 3.17660421133041380000e-002) (24, -1.17098182439804080000e-001) (25, -2.30300736427307130000e+000) (26, -1.20950397104024890000e-002) (27, -2.13214382529258730000e-001) (28, 4.79396544396877290000e-002) (29, 3.59616102650761600000e-003) (30, -2.01953932642936710000e-001) (31, -6.44891560077667240000e-001) (32, -6.54665350914001460000e-001) (33, -9.17385768890380860000e+000) (34, -5.84932416677474980000e-002) (35, -3.81637888494879010000e-004) (36, -1.81547880172729490000e-001) (37, -5.96348494291305540000e-002) (38, -2.20259594917297360000e+000) (39, -1.85900032520294190000e+000) (40, -1.07475385069847110000e-001) (41, 5.25275692343711850000e-002) (42, 4.63525652885437010000e-002) (43, -1.38492298126220700000e+000) (44, -1.89565151929855350000e-001) (45, -2.25388035178184510000e-001) (46, -2.06214897334575650000e-002) (47, -3.62453050911426540000e-002) (48, -7.02967420220375060000e-002) (49, -5.18985271453857420000e-001) (50, -5.83769567310810090000e-002) (51, -9.76441800594329830000e-002) (52, -1.28880254924297330000e-002) (53, 1.01067662239074710000e-001) (54, -7.96708762645721440000e-002) (55, -7.20317885279655460000e-002) (56, 6.56809210777282710000e-002) (57, -3.56285348534584050000e-002) (58, -7.48607739806175230000e-002) (59, 9.56687808036804200000e-001) (0, -8.18037614226341250000e-002) (1, 6.32319450378417970000e-002) (2, -6.24049305915832520000e-002) (3, -9.74331237375736240000e-003) (4, 4.94900569319725040000e-002) (5, -2.26043276488780980000e-002) (6, 5.46738551929593090000e-003) (7, -5.00319562852382660000e-002) (8, -7.19848796725273130000e-002) (9, -5.44722843915224080000e-003) (10, -2.42432504892349240000e-002) (11, 5.13851493597030640000e-002) (12, 2.22314856946468350000e-002) (13, -5.39147891104221340000e-002) (14, -7.40634575486183170000e-002) (15, 1.38580091297626500000e-002) (16, 5.61586767435073850000e-002) (17, 5.89167065918445590000e-002) (18, -4.83950898051261900000e-002) (19, -3.84728386998176570000e-002) (20, 9.04228463768959050000e-002) (21, 6.03442862629890440000e-002) (22, -3.76384407281875610000e-002) (23, 8.18765014410018920000e-002) (24, 6.09742924571037290000e-002) (25, -1.13200232386589050000e-001) (26, -6.06379173696041110000e-002) (27, 6.73148259520530700000e-002) (28, -4.90982718765735630000e-002) (29, 2.25741043686866760000e-002) (30, -7.89789184927940370000e-002) (31, -9.78253260254859920000e-002) (32, 5.89429447427392010000e-003) (33, 9.38018485903739930000e-002) (34, 4.05143760144710540000e-002) (35, 7.43104144930839540000e-002) (36, 1.46780442446470260000e-002) (37, 7.84065946936607360000e-002) (38, -2.35071834176778790000e-002) (39, 8.44133347272872920000e-002) (40, 3.54167520999908450000e-002) (41, 8.38685929775238040000e-002) (42, 3.17868180572986600000e-002) (43, 7.75072127580642700000e-002) (44, 4.91555593907833100000e-002) (45, -9.41991060972213750000e-002) (46, 2.42576692253351210000e-002) (47, 4.49145361781120300000e-002) (48, 8.72123464941978450000e-002) (49, -8.82698372006416320000e-002) (50, -5.91011680662631990000e-002) (51, 2.71477419883012770000e-002) (52, 4.98137287795543670000e-002) (53, 2.27591115981340410000e-002) (54, -4.92579527199268340000e-002) (55, -3.09374481439590450000e-002) (56, -8.45292881131172180000e-002) (57, -8.39507058262825010000e-002) (58, 2.02511474490165710000e-002) (59, -1.10158778727054600000e-001) (60, -1.15597510337829590000e+000) (61, 1.97316616773605350000e-001) (62, 1.13379962742328640000e-001) (63, 1.34653314948081970000e-001) (64, 1.10345169901847840000e-001) (65, 1.12763799726963040000e-001) (66, 1.91257584095001220000e+000) (67, 8.71248766779899600000e-002) (68, 5.01367866992950440000e-001) (60, 1.44983720779418950000e+000) (61, 1.28244519233703610000e-001) (62, -2.99743860960006710000e-002) (63, 2.07232646644115450000e-002) (64, 1.05137966573238370000e-001) (65, 1.36824473738670350000e-001) (66, -1.86782896518707280000e+000) (67, 1.79921880364418030000e-001) (68, -5.95957301557064060000e-002) 
