FANN_FLO_2.1
num_layers=3
learning_rate=0.700000
connection_rate=1.000000
network_type=0
learning_momentum=0.000000
training_algorithm=3
train_error_function=1
train_stop_function=0
cascade_output_change_fraction=0.010000
quickprop_decay=-0.000100
quickprop_mu=1.750000
rprop_increase_factor=1.200000
rprop_decrease_factor=0.500000
rprop_delta_min=0.000000
rprop_delta_max=50.000000
rprop_delta_zero=0.100000
cascade_output_stagnation_epochs=12
cascade_candidate_change_fraction=0.010000
cascade_candidate_stagnation_epochs=12
cascade_max_out_epochs=150
cascade_max_cand_epochs=150
cascade_num_candidate_groups=2
bit_fail_limit=3.49999994039535520000e-001
cascade_candidate_limit=1.00000000000000000000e+003
cascade_weight_multiplier=4.00000005960464480000e-001
cascade_activation_functions_count=10
cascade_activation_functions=3 5 7 8 10 11 14 15 16 17 
cascade_activation_steepnesses_count=4
cascade_activation_steepnesses=2.50000000000000000000e-001 5.00000000000000000000e-001 7.50000000000000000000e-001 1.00000000000000000000e+000 
layer_sizes=60 9 3 
scale_included=0
neurons (num_inputs, activation_function, activation_steepness)=(0, 0, 0.00000000000000000000e+000) (0, 0, 0.00000000000000000000e+000) (0, 0, 0.00000000000000000000e+000) (0, 0, 0.00000000000000000000e+000) (0, 0, 0.00000000000000000000e+000) (0, 0, 0.00000000000000000000e+000) (0, 0, 0.00000000000000000000e+000) (0, 0, 0.00000000000000000000e+000) (0, 0, 0.00000000000000000000e+000) (0, 0, 0.00000000000000000000e+000) (0, 0, 0.00000000000000000000e+000) (0, 0, 0.00000000000000000000e+000) (0, 0, 0.00000000000000000000e+000) (0, 0, 0.00000000000000000000e+000) (0, 0, 0.00000000000000000000e+000) (0, 0, 0.00000000000000000000e+000) (0, 0, 0.00000000000000000000e+000) (0, 0, 0.00000000000000000000e+000) (0, 0, 0.00000000000000000000e+000) (0, 0, 0.00000000000000000000e+000) (0, 0, 0.00000000000000000000e+000) (0, 0, 0.00000000000000000000e+000) (0, 0, 0.00000000000000000000e+000) (0, 0, 0.00000000000000000000e+000) (0, 0, 0.00000000000000000000e+000) (0, 0, 0.00000000000000000000e+000) (0, 0, 0.00000000000000000000e+000) (0, 0, 0.00000000000000000000e+000) (0, 0, 0.00000000000000000000e+000) (0, 0, 0.00000000000000000000e+000) (0, 0, 0.00000000000000000000e+000) (0, 0, 0.00000000000000000000e+000) (0, 0, 0.00000000000000000000e+000) (0, 0, 0.00000000000000000000e+000) (0, 0, 0.00000000000000000000e+000) (0, 0, 0.00000000000000000000e+000) (0, 0, 0.00000000000000000000e+000) (0, 0, 0.00000000000000000000e+000) (0, 0, 0.00000000000000000000e+000) (0, 0, 0.00000000000000000000e+000) (0, 0, 0.00000000000000000000e+000) (0, 0, 0.00000000000000000000e+000) (0, 0, 0.00000000000000000000e+000) (0, 0, 0.00000000000000000000e+000) (0, 0, 0.00000000000000000000e+000) (0, 0, 0.00000000000000000000e+000) (0, 0, 0.00000000000000000000e+000) (0, 0, 0.00000000000000000000e+000) (0, 0, 0.00000000000000000000e+000) (0, 0, 0.00000000000000000000e+000) (0, 0, 0.00000000000000000000e+000) (0, 0, 0.00000000000000000000e+000) (0, 0, 0.00000000000000000000e+000) (0, 0, 0.00000000000000000000e+000) (0, 0, 0.00000000000000000000e+000) (0, 0, 0.00000000000000000000e+000) (0, 0, 0.00000000000000000000e+000) (0, 0, 0.00000000000000000000e+000) (0, 0, 0.00000000000000000000e+000) (0, 0, 0.00000000000000000000e+000) (60, 4, 1.10000002384185790000e+000) (60, 4, 1.10000002384185790000e+000) (60, 4, 1.10000002384185790000e+000) (60, 4, 1.10000002384185790000e+000) (60, 4, 1.10000002384185790000e+000) (60, 4, 1.10000002384185790000e+000) (60, 4, 1.10000002384185790000e+000) (60, 4, 1.10000002384185790000e+000) (0, 4, 1.10000002384185790000e+000) (9, 5, 1.00000000000000000000e+000) (9, 5, 1.00000000000000000000e+000) (0, 5, 1.00000000000000000000e+000) 
connections (connected_to_neuron, weight)=(0, -2.36672610044479370000e-002) (1, -6.42364099621772770000e-002) (2, 8.82352367043495180000e-002) (3, 1.42108621075749400000e-002) (4, 3.36062838323414330000e-003) (5, -6.38342648744583130000e-002) (6, -1.44648049026727680000e-002) (7, -7.29956850409507750000e-002) (8, -7.31675028800964360000e-002) (9, -3.52060087025165560000e-002) (10, -2.11503021419048310000e-002) (11, -2.58386172354221340000e-002) (12, 5.91388856992125510000e-003) (13, -7.24465698003768920000e-002) (14, 2.90270876139402390000e-002) (15, -5.65974041819572450000e-002) (16, -2.56927870213985440000e-002) (17, 1.13614536821842190000e-002) (18, -4.59214374423027040000e-002) (19, -7.52686411142349240000e-002) (20, 9.32238698005676270000e-002) (21, 3.79269272089004520000e-002) (22, -9.80893746018409730000e-002) (23, 5.97468763589859010000e-002) (24, 6.77822902798652650000e-002) (25, 7.52402022480964660000e-002) (26, 6.47547766566276550000e-002) (27, -1.16323985159397130000e-001) (28, 3.99944446980953220000e-002) (29, -1.11116515472531320000e-003) (30, -9.94369834661483760000e-002) (31, 3.63800637423992160000e-002) (32, -6.87653049826622010000e-002) (33, -4.66174818575382230000e-002) (34, -5.29314614832401280000e-002) (35, -9.47278738021850590000e-002) (36, 1.61461587995290760000e-002) (37, -5.18793910741806030000e-002) (38, -7.80817195773124690000e-002) (39, 5.29288128018379210000e-002) (40, 2.22141668200492860000e-002) (41, -6.07239045202732090000e-002) (42, -9.51929613947868350000e-002) (43, -6.63384189829230310000e-003) (44, 2.43789386004209520000e-002) (45, -1.19908951222896580000e-001) (46, -1.83615293353796010000e-002) (47, -1.14802271127700810000e-001) (48, 3.85243706405162810000e-002) (49, -5.94001114368438720000e-002) (50, 3.16789522767066960000e-002) (51, -8.99753645062446590000e-002) (52, 6.17588758468627930000e-002) (53, -3.74151617288589480000e-002) (54, 6.12828359007835390000e-002) (55, -4.39530946314334870000e-002) (56, -5.08349165320396420000e-002) (57, 4.15401607751846310000e-002) (58, 1.78515333682298660000e-002) (59, -2.60710000991821290000e-001) (0, -4.89342510700225830000e-002) (1, 4.51007205992937090000e-003) (2, -9.07586738467216490000e-002) (3, -8.18851683288812640000e-003) (4, 5.35476729273796080000e-002) (5, 3.97590771317481990000e-002) (6, 2.39953678101301190000e-003) (7, -4.67377454042434690000e-002) (8, -6.78276235703378920000e-004) (9, -2.05650646239519120000e-002) (10, 8.14671292901039120000e-002) (11, -4.57653179764747620000e-002) (12, 2.70187705755233760000e-002) (13, 8.47221836447715760000e-002) (14, 2.06417255103588100000e-002) (15, -2.76197190396487710000e-003) (16, 7.53573700785636900000e-002) (17, 2.58180405944585800000e-002) (18, 6.43329620361328130000e-002) (19, -1.77449220791459080000e-003) (20, 1.81266684085130690000e-002) (21, 1.04893734678626060000e-002) (22, -5.36063723266124730000e-002) (23, -4.82231862843036650000e-002) (24, -4.75891083478927610000e-002) (25, -2.74091139435768130000e-002) (26, 7.81205371022224430000e-002) (27, 6.02174503728747370000e-003) (28, -9.03382822871208190000e-002) (29, 2.27848179638385770000e-002) (30, 6.84654805809259410000e-004) (31, -3.35168838500976560000e-002) (32, -6.22299835085868840000e-002) (33, 9.41082835197448730000e-002) (34, 9.90184843540191650000e-002) (35, -5.40715865790843960000e-002) (36, 4.83550280332565310000e-002) (37, 5.24156317114830020000e-002) (38, 1.77652051206678150000e-004) (39, -3.31198461353778840000e-002) (40, -5.09795965626835820000e-004) (41, -3.26928757131099700000e-002) (42, -8.41399207711219790000e-002) (43, 8.95412936806678770000e-002) (44, 3.96270193159580230000e-002) (45, 1.39323761686682700000e-002) (46, -8.93374159932136540000e-002) (47, 8.83683338761329650000e-002) (48, -8.03392678499221800000e-002) (49, 9.49449017643928530000e-002) (50, 8.70895013213157650000e-003) (51, 3.75088974833488460000e-002) (52, -7.36341103911399840000e-002) (53, -3.51414456963539120000e-002) (54, 7.24463909864425660000e-002) (55, -8.25325325131416320000e-002) (56, 6.94519802927970890000e-002) (57, -5.26416823267936710000e-002) (58, 5.17700910568237300000e-002) (59, 4.85569536685943600000e-002) (0, -7.92659074068069460000e-002) (1, -6.88451454043388370000e-002) (2, 2.69035175442695620000e-002) (3, -2.25793607532978060000e-002) (4, -2.45922291651368140000e-003) (5, 7.66797736287117000000e-002) (6, 8.11596512794494630000e-002) (7, -8.36815834045410160000e-002) (8, 1.63371805101633070000e-002) (9, 1.45553387701511380000e-002) (10, 4.59729544818401340000e-002) (11, -1.53541173785924910000e-002) (12, -2.13755629956722260000e-002) (13, -1.60818230360746380000e-002) (14, -1.75493601709604260000e-002) (15, -6.26997575163841250000e-002) (16, 6.00219964981079100000e-002) (17, -9.68595221638679500000e-003) (18, -9.68627482652664180000e-002) (19, 7.91681632399559020000e-002) (20, -7.41638317704200740000e-002) (21, -9.42521020770072940000e-002) (22, -7.11015462875366210000e-002) (23, 3.12160588800907140000e-002) (24, -3.23738530278205870000e-002) (25, 1.22588500380516050000e-002) (26, 5.34674711525440220000e-002) (27, -7.57477134466171260000e-002) (28, 4.73443754017353060000e-002) (29, -3.24463360011577610000e-002) (30, -1.01336978375911710000e-001) (31, -5.93161657452583310000e-002) (32, -3.57170253992080690000e-002) (33, 5.82783296704292300000e-002) (34, -8.24328232556581500000e-003) (35, 6.67155906558036800000e-002) (36, -3.00096049904823300000e-002) (37, 1.11757982522249220000e-002) (38, 2.89490986615419390000e-002) (39, -7.48999342322349550000e-002) (40, 1.05030117556452750000e-002) (41, -4.63739689439535140000e-003) (42, -5.28082549571990970000e-002) (43, 5.60839250683784480000e-002) (44, -2.09090001881122590000e-002) (45, -4.20364588499069210000e-002) (46, -1.09407633543014530000e-001) (47, 5.31280525028705600000e-002) (48, 8.50696563720703130000e-002) (49, -5.25217466056346890000e-002) (50, -7.86902979016304020000e-002) (51, -7.58857876062393190000e-002) (52, -9.19432789087295530000e-002) (53, -1.12762330099940300000e-002) (54, -3.62940765917301180000e-002) (55, -7.17060714960098270000e-002) (56, -7.28879570960998540000e-002) (57, 7.09906071424484250000e-002) (58, -1.72528028488159180000e-002) (59, -1.86786189675331120000e-001) (0, -3.13566885888576510000e-002) (1, 2.22997087985277180000e-002) (2, 9.09804478287696840000e-002) (3, 7.50572606921195980000e-002) (4, 8.51397812366485600000e-002) (5, -2.55263037979602810000e-002) (6, -9.36915054917335510000e-002) (7, 8.57330039143562320000e-002) (8, 4.37223948538303380000e-002) (9, -7.27809965610504150000e-002) (10, -5.16316071152687070000e-002) (11, 9.01185944676399230000e-002) (12, -1.79989580065011980000e-002) (13, 9.74356010556221010000e-003) (14, 5.95102179795503620000e-003) (15, 1.55638242140412330000e-002) (16, 8.91743004322052000000e-002) (17, -7.67741873860359190000e-002) (18, -2.07905676215887070000e-002) (19, 1.18933422490954400000e-002) (20, 9.68015938997268680000e-002) (21, 1.02331014350056650000e-002) (22, -3.66079173982143400000e-002) (23, -4.14433032274246220000e-002) (24, 3.76791097223758700000e-002) (25, -7.80100151896476750000e-002) (26, 2.82894615083932880000e-002) (27, 4.43649925291538240000e-002) (28, 4.34575974941253660000e-003) (29, -5.45141696929931640000e-002) (30, 3.52848619222640990000e-002) (31, 5.98700158298015590000e-002) (32, 2.82513312995433810000e-002) (33, -6.71847164630889890000e-002) (34, -6.83363005518913270000e-002) (35, -4.37583513557910920000e-002) (36, -7.74009376764297490000e-002) (37, 7.21550807356834410000e-002) (38, 9.79694351553916930000e-002) (39, 3.12782637774944310000e-002) (40, -6.94985091686248780000e-002) (41, 4.79787364602088930000e-002) (42, -9.64627638459205630000e-002) (43, -9.01969447731971740000e-002) (44, 1.21243000030517580000e-002) (45, -7.64282122254371640000e-002) (46, 7.19273984432220460000e-002) (47, -8.07770416140556340000e-002) (48, 3.12484372407197950000e-002) (49, -9.96805503964424130000e-002) (50, -6.47489950060844420000e-002) (51, -1.04401977732777600000e-002) (52, -2.90401484817266460000e-002) (53, 2.48139575123786930000e-002) (54, -8.81734583526849750000e-003) (55, 2.62268399819731710000e-003) (56, 9.33279767632484440000e-002) (57, -1.36122142430394890000e-003) (58, -7.21438601613044740000e-002) (59, -1.05822756886482240000e-001) (0, 7.46607333421707150000e-002) (1, -5.18980883061885830000e-002) (2, 3.04342377930879590000e-002) (3, -5.17771355807781220000e-002) (4, -2.43094824254512790000e-002) (5, -6.84674456715583800000e-002) (6, -6.50228559970855710000e-002) (7, 1.69927775859832760000e-002) (8, -1.67235825210809710000e-002) (9, 3.94579619169235230000e-002) (10, -8.80522001534700390000e-003) (11, 7.16290399432182310000e-002) (12, -7.63886123895645140000e-002) (13, 3.79170589148998260000e-002) (14, 1.36532792821526530000e-002) (15, -5.65346777439117430000e-002) (16, -5.32910563051700590000e-002) (17, -6.33969902992248540000e-003) (18, -2.65011135488748550000e-002) (19, -9.76867750287055970000e-002) (20, 1.74239706248044970000e-002) (21, 5.11819757521152500000e-002) (22, -4.67277243733406070000e-002) (23, 2.86141987890005110000e-002) (24, -4.31133173406124110000e-002) (25, -8.50097388029098510000e-002) (26, 1.88034400343894960000e-002) (27, -7.15661514550447460000e-003) (28, -4.86208200454711910000e-002) (29, 9.79160889983177190000e-002) (30, 6.16154186427593230000e-002) (31, 2.96708429232239720000e-003) (32, 9.22340154647827150000e-002) (33, 7.64923319220542910000e-002) (34, 4.34175580739974980000e-002) (35, 4.85445261001586910000e-002) (36, -3.23035195469856260000e-002) (37, -6.25431090593338010000e-002) (38, 1.49586033076047900000e-002) (39, 7.89138600230216980000e-002) (40, -8.01528468728065490000e-002) (41, -2.60837767273187640000e-002) (42, 7.95282125473022460000e-002) (43, 6.66137337684631350000e-002) (44, 7.46736079454422000000e-002) (45, -3.50844413042068480000e-002) (46, 5.98122961819171910000e-002) (47, -3.05113065987825390000e-002) (48, -4.89773601293563840000e-002) (49, 3.26876193284988400000e-002) (50, 1.74894612282514570000e-002) (51, 1.65245793759822850000e-002) (52, -9.68510359525680540000e-002) (53, -9.09698382019996640000e-002) (54, -1.38526055961847310000e-002) (55, 5.14685660600662230000e-002) (56, -3.92002947628498080000e-002) (57, -2.53828451968729500000e-003) (58, -6.92974999547004700000e-002) (59, -4.87980283796787260000e-002) (0, -5.08011244237422940000e-002) (1, -1.11283184960484500000e-002) (2, -8.63474700599908830000e-003) (3, -6.36046286672353740000e-003) (4, -7.07098618149757390000e-002) (5, 6.14559240639209750000e-002) (6, 2.29368619620800020000e-002) (7, 1.03361546993255620000e-001) (8, 8.91856965608894820000e-004) (9, 4.79131042957305910000e-002) (10, 3.50084640085697170000e-002) (11, 2.69959084689617160000e-002) (12, 5.21810129284858700000e-002) (13, -8.99826884269714360000e-002) (14, 2.15456075966358180000e-002) (15, 2.89469640702009200000e-002) (16, -8.68677273392677310000e-002) (17, 1.11500797793269160000e-002) (18, -8.65523293614387510000e-002) (19, -4.13122959434986110000e-002) (20, -3.20320427417755130000e-002) (21, -2.18535624444484710000e-002) (22, 1.82921215891838070000e-002) (23, 3.03044132888317110000e-002) (24, 3.82584258913993840000e-002) (25, 1.03723809123039250000e-001) (26, -1.95246320217847820000e-002) (27, 8.05048178881406780000e-003) (28, 7.29552432894706730000e-002) (29, 5.40274791419506070000e-002) (30, 4.62302193045616150000e-002) (31, -5.15318997204303740000e-002) (32, 8.92764925956726070000e-002) (33, -2.76155695319175720000e-002) (34, 1.13863954320549960000e-002) (35, 4.58624474704265590000e-002) (36, -2.71447673439979550000e-002) (37, 3.71149554848670960000e-002) (38, -8.10712948441505430000e-002) (39, 4.20586578547954560000e-002) (40, 3.04305162280797960000e-002) (41, -7.74170905351638790000e-002) (42, 6.24361708760261540000e-002) (43, -1.18229994550347330000e-002) (44, -9.81466192752122880000e-003) (45, 4.91939894855022430000e-002) (46, -8.12726467847824100000e-002) (47, -7.44291469454765320000e-002) (48, -4.17432710528373720000e-002) (49, -7.70379304885864260000e-002) (50, -6.06823675334453580000e-002) (51, 1.42868002876639370000e-002) (52, -4.22406569123268130000e-002) (53, -4.29185442626476290000e-002) (54, -4.27320273593068120000e-003) (55, -1.02470198180526490000e-003) (56, 5.48030808568000790000e-003) (57, -7.57060721516609190000e-002) (58, -4.88248653709888460000e-003) (59, -8.84717777371406560000e-002) (0, -5.62324654310941700000e-003) (1, -7.12316036224365230000e-002) (2, -2.57017109543085100000e-002) (3, 1.49592375382781030000e-002) (4, 3.01579851657152180000e-002) (5, 2.40045841783285140000e-002) (6, -4.77876186370849610000e-001) (7, -5.22159576416015630000e-001) (8, -3.90732914209365840000e-001) (9, 8.11529636383056640000e-001) (10, -5.07098846137523650000e-002) (11, -6.15703221410512920000e-003) (12, -5.89687488973140720000e-002) (13, 3.72415557503700260000e-002) (14, 7.44882225990295410000e-003) (15, -4.01885211467742920000e-002) (16, 6.55919918790459630000e-003) (17, 4.45766467601060870000e-003) (18, 4.86790873110294340000e-002) (19, 1.57405212521553040000e-002) (20, -1.04705847799777980000e-001) (21, -1.61255300045013430000e-002) (22, -9.97867509722709660000e-002) (23, 6.00746124982833860000e-002) (24, -9.45484712719917300000e-002) (25, 5.33885844051837920000e-002) (26, 5.70724457502365110000e-002) (27, -6.84672072529792790000e-002) (28, -5.75120329856872560000e-001) (29, -1.08476262539625170000e-003) (30, -5.02594262361526490000e-002) (31, 4.07410055398941040000e-001) (32, 5.06161391735076900000e-001) (33, -1.55357718467712400000e+000) (34, -1.37216560542583470000e-002) (35, 3.01097277551889420000e-002) (36, -1.45390719175338750000e-001) (37, 6.39399349689483640000e-001) (38, 3.92330773174762730000e-002) (39, 3.52624617516994480000e-002) (40, -6.96328431367874150000e-002) (41, 7.13142082095146180000e-002) (42, 5.33860400319099430000e-002) (43, 5.42166419327259060000e-002) (44, -1.26726970076560970000e-001) (45, -8.12257081270217900000e-002) (46, 2.13006231933832170000e-002) (47, -9.76925715804100040000e-002) (48, -5.90809807181358340000e-002) (49, -1.51481211185455320000e-001) (50, -1.18956816196441650000e+000) (51, -3.43596005439758300000e+000) (52, 6.32626861333847050000e-002) (53, 9.26613137125968930000e-002) (54, -8.83483141660690310000e-002) (55, -1.82092208415269850000e-002) (56, 5.09704589843750000000e-001) (57, -2.35663559287786480000e-002) (58, -1.03427087888121600000e-002) (59, 3.68962645530700680000e-001) (0, -7.84741118550300600000e-002) (1, 6.42697885632514950000e-002) (2, -5.85393793880939480000e-002) (3, 1.06562580913305280000e-002) (4, 5.40096908807754520000e-002) (5, -1.29563817754387860000e-002) (6, -1.00380391813814640000e-003) (7, -4.93957065045833590000e-002) (8, -6.24404363334178920000e-002) (9, 3.86350625194609170000e-003) (10, -3.43672856688499450000e-002) (11, 4.50124144554138180000e-002) (12, 3.33584509789943700000e-002) (13, -4.73390147089958190000e-002) (14, -6.72207623720169070000e-002) (15, 1.12083936110138890000e-002) (16, 5.37184737622737880000e-002) (17, 5.46938292682170870000e-002) (18, -5.15894927084445950000e-002) (19, -3.39351482689380650000e-002) (20, 8.74262973666191100000e-002) (21, 7.35205933451652530000e-002) (22, -3.42557318508625030000e-002) (23, 7.60727450251579280000e-002) (24, 5.84157407283782960000e-002) (25, -9.10119041800498960000e-002) (26, -6.24967850744724270000e-002) (27, 8.28415676951408390000e-002) (28, -3.30664254724979400000e-002) (29, 2.78486367315053940000e-002) (30, -7.85666331648826600000e-002) (31, -8.25699567794799800000e-002) (32, 1.22623015195131300000e-002) (33, 9.05181914567947390000e-002) (34, 4.23080325126647950000e-002) (35, 7.90122002363204960000e-002) (36, 1.76446754485368730000e-002) (37, 9.76342707872390750000e-002) (38, -1.66330058127641680000e-002) (39, 8.56055766344070430000e-002) (40, 3.61713543534278870000e-002) (41, 9.64136123657226560000e-002) (42, 3.40478308498859410000e-002) (43, 8.37829113006591800000e-002) (44, 4.10601720213890080000e-002) (45, -8.81623849272727970000e-002) (46, 2.63199582695961000000e-002) (47, 6.78611844778060910000e-002) (48, 9.48453098535537720000e-002) (49, -8.46905037760734560000e-002) (50, -5.01139834523200990000e-002) (51, 2.60021016001701350000e-002) (52, 4.53234352171421050000e-002) (53, 3.53315360844135280000e-002) (54, -4.38074730336666110000e-002) (55, -3.13902795314788820000e-002) (56, -7.52817019820213320000e-002) (57, -7.89903402328491210000e-002) (58, 2.52553429454565050000e-002) (59, -8.21944922208786010000e-002) (60, 2.91273836046457290000e-002) (61, 1.10062941908836360000e-001) (62, 3.85190173983573910000e-002) (63, 5.00450469553470610000e-002) (64, 6.76740556955337520000e-002) (65, 3.41425389051437380000e-002) (66, 7.75157153606414790000e-001) (67, 4.87830899655818940000e-002) (68, -1.06110498309135440000e-002) (60, 8.12850818037986760000e-002) (61, 2.68537729978561400000e-001) (62, 9.89558547735214230000e-002) (63, 1.39189958572387700000e-001) (64, 1.82677313685417180000e-001) (65, 2.61381745338439940000e-001) (66, -9.30264174938201900000e-001) (67, 2.73361444473266600000e-001) (68, 4.27147984504699710000e-001) 
