FANN_FLO_2.1
num_layers=3
learning_rate=0.700000
connection_rate=1.000000
network_type=0
learning_momentum=0.000000
training_algorithm=3
train_error_function=1
train_stop_function=0
cascade_output_change_fraction=0.010000
quickprop_decay=-0.000100
quickprop_mu=1.750000
rprop_increase_factor=1.200000
rprop_decrease_factor=0.500000
rprop_delta_min=0.000000
rprop_delta_max=50.000000
rprop_delta_zero=0.100000
cascade_output_stagnation_epochs=12
cascade_candidate_change_fraction=0.010000
cascade_candidate_stagnation_epochs=12
cascade_max_out_epochs=150
cascade_max_cand_epochs=150
cascade_num_candidate_groups=2
bit_fail_limit=3.49999994039535520000e-001
cascade_candidate_limit=1.00000000000000000000e+003
cascade_weight_multiplier=4.00000005960464480000e-001
cascade_activation_functions_count=10
cascade_activation_functions=3 5 7 8 10 11 14 15 16 17 
cascade_activation_steepnesses_count=4
cascade_activation_steepnesses=2.50000000000000000000e-001 5.00000000000000000000e-001 7.50000000000000000000e-001 1.00000000000000000000e+000 
layer_sizes=60 9 3 
scale_included=0
neurons (num_inputs, activation_function, activation_steepness)=(0, 0, 0.00000000000000000000e+000) (0, 0, 0.00000000000000000000e+000) (0, 0, 0.00000000000000000000e+000) (0, 0, 0.00000000000000000000e+000) (0, 0, 0.00000000000000000000e+000) (0, 0, 0.00000000000000000000e+000) (0, 0, 0.00000000000000000000e+000) (0, 0, 0.00000000000000000000e+000) (0, 0, 0.00000000000000000000e+000) (0, 0, 0.00000000000000000000e+000) (0, 0, 0.00000000000000000000e+000) (0, 0, 0.00000000000000000000e+000) (0, 0, 0.00000000000000000000e+000) (0, 0, 0.00000000000000000000e+000) (0, 0, 0.00000000000000000000e+000) (0, 0, 0.00000000000000000000e+000) (0, 0, 0.00000000000000000000e+000) (0, 0, 0.00000000000000000000e+000) (0, 0, 0.00000000000000000000e+000) (0, 0, 0.00000000000000000000e+000) (0, 0, 0.00000000000000000000e+000) (0, 0, 0.00000000000000000000e+000) (0, 0, 0.00000000000000000000e+000) (0, 0, 0.00000000000000000000e+000) (0, 0, 0.00000000000000000000e+000) (0, 0, 0.00000000000000000000e+000) (0, 0, 0.00000000000000000000e+000) (0, 0, 0.00000000000000000000e+000) (0, 0, 0.00000000000000000000e+000) (0, 0, 0.00000000000000000000e+000) (0, 0, 0.00000000000000000000e+000) (0, 0, 0.00000000000000000000e+000) (0, 0, 0.00000000000000000000e+000) (0, 0, 0.00000000000000000000e+000) (0, 0, 0.00000000000000000000e+000) (0, 0, 0.00000000000000000000e+000) (0, 0, 0.00000000000000000000e+000) (0, 0, 0.00000000000000000000e+000) (0, 0, 0.00000000000000000000e+000) (0, 0, 0.00000000000000000000e+000) (0, 0, 0.00000000000000000000e+000) (0, 0, 0.00000000000000000000e+000) (0, 0, 0.00000000000000000000e+000) (0, 0, 0.00000000000000000000e+000) (0, 0, 0.00000000000000000000e+000) (0, 0, 0.00000000000000000000e+000) (0, 0, 0.00000000000000000000e+000) (0, 0, 0.00000000000000000000e+000) (0, 0, 0.00000000000000000000e+000) (0, 0, 0.00000000000000000000e+000) (0, 0, 0.00000000000000000000e+000) (0, 0, 0.00000000000000000000e+000) (0, 0, 0.00000000000000000000e+000) (0, 0, 0.00000000000000000000e+000) (0, 0, 0.00000000000000000000e+000) (0, 0, 0.00000000000000000000e+000) (0, 0, 0.00000000000000000000e+000) (0, 0, 0.00000000000000000000e+000) (0, 0, 0.00000000000000000000e+000) (0, 0, 0.00000000000000000000e+000) (60, 4, 1.10000002384185790000e+000) (60, 4, 1.10000002384185790000e+000) (60, 4, 1.10000002384185790000e+000) (60, 4, 1.10000002384185790000e+000) (60, 4, 1.10000002384185790000e+000) (60, 4, 1.10000002384185790000e+000) (60, 4, 1.10000002384185790000e+000) (60, 4, 1.10000002384185790000e+000) (0, 4, 1.10000002384185790000e+000) (9, 5, 1.00000000000000000000e+000) (9, 5, 1.00000000000000000000e+000) (0, 5, 1.00000000000000000000e+000) 
connections (connected_to_neuron, weight)=(0, -3.08134760707616810000e-002) (1, -7.21096917986869810000e-002) (2, 7.16154128313064580000e-002) (3, -2.53397831693291660000e-003) (4, -3.17661487497389320000e-003) (5, -6.35471940040588380000e-002) (6, -2.11204611696302890000e-003) (7, -7.50977396965026860000e-002) (8, -7.59528502821922300000e-002) (9, -4.13597039878368380000e-002) (10, -2.00640764087438580000e-002) (11, -3.79281193017959590000e-002) (12, -3.46853084920439870000e-005) (13, -8.38732570409774780000e-002) (14, 1.44994361326098440000e-002) (15, -5.39540350437164310000e-002) (16, -4.16350103914737700000e-002) (17, 4.31134784594178200000e-003) (18, -4.81785871088504790000e-002) (19, -8.07558670639991760000e-002) (20, 8.44251364469528200000e-002) (21, 2.87970174103975300000e-002) (22, -1.02441705763340000000e-001) (23, 5.14248274266719820000e-002) (24, 5.86803555488586430000e-002) (25, 8.41736271977424620000e-002) (26, 7.36418142914772030000e-002) (27, -1.19789585471153260000e-001) (28, 4.63818088173866270000e-002) (29, -4.10070456564426420000e-003) (30, -1.03244192898273470000e-001) (31, 3.71771007776260380000e-002) (32, -5.24667464196681980000e-002) (33, -4.61230240762233730000e-002) (34, -4.50028106570243840000e-002) (35, -9.39588844776153560000e-002) (36, 1.23273413628339770000e-002) (37, -4.66658994555473330000e-002) (38, -7.32468217611312870000e-002) (39, 6.11979588866233830000e-002) (40, 2.22865585237741470000e-002) (41, -7.26987347006797790000e-002) (42, -8.64167585968971250000e-002) (43, -7.14385940227657560000e-004) (44, 2.84500475972890850000e-002) (45, -1.20238639414310460000e-001) (46, -7.89590645581483840000e-003) (47, -1.09350048005580900000e-001) (48, 4.71619255840778350000e-002) (49, -5.00521101057529450000e-002) (50, 1.97941865772008900000e-002) (51, -9.20773968100547790000e-002) (52, 6.23183250427246090000e-002) (53, -3.04094422608613970000e-002) (54, 5.74057921767234800000e-002) (55, -5.08513376116752620000e-002) (56, -4.44772019982337950000e-002) (57, 4.34425547719001770000e-002) (58, 1.96764003485441210000e-002) (59, -2.50287801027297970000e-001) (0, -5.39417974650859830000e-002) (1, 3.47307743504643440000e-003) (2, -8.96369144320487980000e-002) (3, -1.45874265581369400000e-002) (4, 4.91591989994049070000e-002) (5, 4.03230600059032440000e-002) (6, 9.81951598078012470000e-004) (7, -5.07283322513103490000e-002) (8, -2.18966812826693060000e-003) (9, -1.97843890637159350000e-002) (10, 8.36741924285888670000e-002) (11, -4.67162877321243290000e-002) (12, 2.27710232138633730000e-002) (13, 8.65170210599899290000e-002) (14, 2.66518704593181610000e-002) (15, -6.51530968025326730000e-003) (16, 7.54457414150238040000e-002) (17, 2.43387836962938310000e-002) (18, 6.32062852382659910000e-002) (19, 2.77230956271523610000e-005) (20, 1.34090958163142200000e-002) (21, -1.87425385229289530000e-003) (22, -5.90084046125411990000e-002) (23, -4.69884388148784640000e-002) (24, -5.04167191684246060000e-002) (25, -2.86439750343561170000e-002) (26, 8.11968669295310970000e-002) (27, 1.19566987268626690000e-003) (28, -9.07953009009361270000e-002) (29, 1.93395279347896580000e-002) (30, -2.18908232636749740000e-003) (31, -3.55921797454357150000e-002) (32, -6.52535259723663330000e-002) (33, 9.34998467564582820000e-002) (34, 9.63323041796684270000e-002) (35, -5.34641146659851070000e-002) (36, 4.70311120152473450000e-002) (37, 4.93068322539329530000e-002) (38, 3.80855926778167490000e-004) (39, -3.39453928172588350000e-002) (40, -2.84690386615693570000e-003) (41, -3.55697870254516600000e-002) (42, -8.65724384784698490000e-002) (43, 9.00674238801002500000e-002) (44, 3.68817523121833800000e-002) (45, 1.00478921085596080000e-002) (46, -9.06265899538993840000e-002) (47, 8.47581252455711360000e-002) (48, -8.10969546437263490000e-002) (49, 9.01137590408325200000e-002) (50, 7.26749794557690620000e-003) (51, 3.62499915063381200000e-002) (52, -7.93213695287704470000e-002) (53, -3.99446077644824980000e-002) (54, 6.68808519840240480000e-002) (55, -8.29266905784606930000e-002) (56, 6.46698027849197390000e-002) (57, -5.36554045975208280000e-002) (58, 5.32112307846546170000e-002) (59, 3.91382612287998200000e-002) (0, -7.04087316989898680000e-002) (1, -2.70849138498306270000e-001) (2, 1.66190877556800840000e-001) (3, -4.94131967425346370000e-002) (4, -8.24648514389991760000e-002) (5, 1.02458789944648740000e-001) (6, 9.77837592363357540000e-002) (7, -9.04088675975799560000e-001) (8, 2.22681351006031040000e-002) (9, -1.39200799167156220000e-002) (10, 2.61372644454240800000e-002) (11, -8.31383541226387020000e-002) (12, -6.77383542060852050000e-002) (13, 7.42302089929580690000e-003) (14, 3.60885411500930790000e-001) (15, -8.48324894905090330000e-001) (16, 6.12406320869922640000e-002) (17, -2.70021054893732070000e-002) (18, -1.44693836569786070000e-001) (19, 6.07483834028244020000e-002) (20, -8.87423872947692870000e-001) (21, -5.16853451728820800000e-001) (22, -1.41058176755905150000e-001) (23, 2.62775598093867300000e-003) (24, -3.09200882911682130000e-002) (25, -5.88866621255874630000e-002) (26, 2.13810186833143230000e-002) (27, -1.08652122318744660000e-001) (28, -3.72715592384338380000e-001) (29, -7.10063427686691280000e-002) (30, -8.70223268866539000000e-002) (31, 4.16662305593490600000e-001) (32, 6.48737907409667970000e-001) (33, -5.03899157047271730000e-001) (34, -3.99998307228088380000e-001) (35, 6.63200467824935910000e-002) (36, -5.67869618535041810000e-002) (37, 5.95326311886310580000e-002) (38, 3.17331999540328980000e-002) (39, -8.42890813946723940000e-002) (40, -2.01220214366912840000e-002) (41, 1.41993327997624870000e-003) (42, -8.66107717156410220000e-002) (43, 1.02577507495880130000e-001) (44, 3.07211047038435940000e-003) (45, -3.71550135314464570000e-002) (46, -1.07188850641250610000e-001) (47, 5.78150331974029540000e-001) (48, -7.14128434658050540000e-001) (49, -6.32401034235954280000e-002) (50, -1.44748434424400330000e-001) (51, -4.66665863990783690000e-001) (52, -2.90351919829845430000e-002) (53, 1.90220437943935390000e-002) (54, 3.02701383829116820000e-001) (55, -7.88608938455581670000e-002) (56, -1.03605531156063080000e-001) (57, 1.09470799565315250000e-001) (58, 5.56880176067352290000e-001) (59, 1.85885578393936160000e-001) (0, -3.83006595075130460000e-002) (1, 2.21095271408557890000e-002) (2, 8.22198987007141110000e-002) (3, 7.04171881079673770000e-002) (4, 8.34653973579406740000e-002) (5, -2.72691585123538970000e-002) (6, -9.09726768732070920000e-002) (7, 8.64670649170875550000e-002) (8, 4.05015349388122560000e-002) (9, -7.08315446972846980000e-002) (10, -4.94718588888645170000e-002) (11, 9.27865281701087950000e-002) (12, -1.97431072592735290000e-002) (13, 5.28151076287031170000e-003) (14, 2.14801542460918430000e-003) (15, 1.60157997161149980000e-002) (16, 8.22837799787521360000e-002) (17, -7.92220607399940490000e-002) (18, -1.91833116114139560000e-002) (19, 9.67972911894321440000e-003) (20, 9.44262593984603880000e-002) (21, 4.89970855414867400000e-003) (22, -3.84374894201755520000e-002) (23, -4.34438586235046390000e-002) (24, 3.50229404866695400000e-002) (25, -7.15630427002906800000e-002) (26, 3.15971598029136660000e-002) (27, 4.28091473877429960000e-002) (28, 8.63779801875352860000e-003) (29, -5.50622977316379550000e-002) (30, 3.19381654262542720000e-002) (31, 5.86791820824146270000e-002) (32, 3.00235860049724580000e-002) (33, -6.24154843389987950000e-002) (34, -6.54797106981277470000e-002) (35, -4.27654385566711430000e-002) (36, -7.85525068640708920000e-002) (37, 7.28983432054519650000e-002) (38, 9.95661243796348570000e-002) (39, 3.13287265598773960000e-002) (40, -6.95418119430541990000e-002) (41, 4.19025830924510960000e-002) (42, -9.15798693895339970000e-002) (43, -9.06938463449478150000e-002) (44, 1.03411627933382990000e-002) (45, -7.91099667549133300000e-002) (46, 7.59017318487167360000e-002) (47, -8.86077955365180970000e-002) (48, 3.43555100262165070000e-002) (49, -9.78915616869926450000e-002) (50, -6.28777295351028440000e-002) (51, -8.61033890396356580000e-003) (52, -3.53814326226711270000e-002) (53, 2.43444889783859250000e-002) (54, -1.52153484523296360000e-002) (55, 9.80479293502867220000e-004) (56, 9.33230593800544740000e-002) (57, -3.07250884361565110000e-003) (58, -7.61975049972534180000e-002) (59, -1.07147142291069030000e-001) (0, 6.73166736960411070000e-002) (1, -5.11235669255256650000e-002) (2, 2.33063269406557080000e-002) (3, -5.78134134411811830000e-002) (4, -2.58909184485673900000e-002) (5, -6.99894800782203670000e-002) (6, -6.30505084991455080000e-002) (7, 1.53884366154670720000e-002) (8, -1.99959054589271550000e-002) (9, 4.11984287202358250000e-002) (10, -6.22251210734248160000e-003) (11, 7.35871866345405580000e-002) (12, -7.98574313521385190000e-002) (13, 3.48038561642169950000e-002) (14, 1.24420681968331340000e-002) (15, -5.73855675756931300000e-002) (16, -5.91868944466114040000e-002) (17, -8.81442893296480180000e-003) (18, -2.55222730338573460000e-002) (19, -9.94042530655860900000e-002) (20, 1.32150920107960700000e-002) (21, 4.23566140234470370000e-002) (22, -4.81744743883609770000e-002) (23, 2.69688740372657780000e-002) (24, -4.61814403533935550000e-002) (25, -8.25688168406486510000e-002) (26, 2.21544411033391950000e-002) (27, -9.78723354637622830000e-003) (28, -4.65227253735065460000e-002) (29, 9.56866145133972170000e-002) (30, 5.81313595175743100000e-002) (31, 2.09630746394395830000e-003) (32, 9.41553935408592220000e-002) (33, 7.96039476990699770000e-002) (34, 4.44772355258464810000e-002) (35, 4.98057976365089420000e-002) (36, -3.42410728335380550000e-002) (37, -6.20780214667320250000e-002) (38, 1.66597235947847370000e-002) (39, 7.85045698285102840000e-002) (40, -8.14872458577156070000e-002) (41, -3.00404280424118040000e-002) (42, 8.06227549910545350000e-002) (43, 6.70060068368911740000e-002) (44, 7.44615718722343440000e-002) (45, -3.89149338006973270000e-002) (46, 6.30161389708518980000e-002) (47, -3.73283326625823970000e-002) (48, -4.73155453801155090000e-002) (49, 3.04650254547595980000e-002) (50, 1.77162438631057740000e-002) (51, 1.71324834227561950000e-002) (52, -1.02804601192474370000e-001) (53, -9.41029265522956850000e-002) (54, -2.02640146017074580000e-002) (55, 5.04612587392330170000e-002) (56, -4.01029773056507110000e-002) (57, -3.69141250848770140000e-003) (58, -7.18309208750724790000e-002) (59, -5.15025295317173000000e-002) (0, -6.38176649808883670000e-002) (1, -4.92935115471482280000e-003) (2, -1.86261348426342010000e-002) (3, -1.84158235788345340000e-002) (4, -7.31811672449111940000e-002) (5, 5.48604466021060940000e-002) (6, 2.05231495201587680000e-002) (7, 1.00979596376419070000e-001) (8, -7.02977646142244340000e-003) (9, 5.37141896784305570000e-002) (10, 4.22059558331966400000e-002) (11, 3.45029309391975400000e-002) (12, 4.49538566172122960000e-002) (13, -8.97616893053054810000e-002) (14, 2.49358136206865310000e-002) (15, 3.22673283517360690000e-002) (16, -9.43370535969734190000e-002) (17, 7.35976034775376320000e-003) (18, -8.01237523555755620000e-002) (19, -3.88823412358760830000e-002) (20, -2.90820524096488950000e-002) (21, -3.21469269692897800000e-002) (22, 1.90660413354635240000e-002) (23, 2.87701580673456190000e-002) (24, 3.07117700576782230000e-002) (25, 1.10440239310264590000e-001) (26, -1.17217767983675000000e-002) (27, 6.52607064694166180000e-003) (28, 7.51705393195152280000e-002) (29, 4.90626245737075810000e-002) (30, 4.19728942215442660000e-002) (31, -5.30111119151115420000e-002) (32, 9.05392616987228390000e-002) (33, -2.30736974626779560000e-002) (34, 1.43332444131374360000e-002) (35, 5.02158291637897490000e-002) (36, -3.04644759744405750000e-002) (37, 3.33738587796688080000e-002) (38, -7.86649957299232480000e-002) (39, 3.91321592032909390000e-002) (40, 2.63954438269138340000e-002) (41, -8.54091569781303410000e-002) (42, 6.33204802870750430000e-002) (43, -1.22887128964066510000e-002) (44, -1.63109470158815380000e-002) (45, 4.03339937329292300000e-002) (46, -7.90436938405036930000e-002) (47, -8.85052978992462160000e-002) (48, -3.61659713089466090000e-002) (49, -8.14223363995552060000e-002) (50, -5.92528469860553740000e-002) (51, 1.55545845627784730000e-002) (52, -5.06091043353080750000e-002) (53, -4.80160042643547060000e-002) (54, -1.44640663638710980000e-002) (55, -1.24552892521023750000e-003) (56, 8.66301637142896650000e-003) (57, -7.76336416602134700000e-002) (58, -1.02732460945844650000e-002) (59, -8.91723483800888060000e-002) (0, 6.11773021519184110000e-002) (1, -1.01272128522396090000e-001) (2, -8.74998886138200760000e-003) (3, 7.28956386446952820000e-002) (4, 6.76314681768417360000e-002) (5, 4.24197837710380550000e-002) (6, 1.99343971908092500000e-002) (7, -6.89616575837135310000e-002) (8, 7.49397873878479000000e-002) (9, 2.29344815015792850000e-002) (10, -6.63931518793106080000e-002) (11, -3.87698560953140260000e-002) (12, 1.15605127066373830000e-002) (13, -1.82356797158718110000e-002) (14, -5.50237111747264860000e-002) (15, -1.11909151077270510000e-001) (16, 2.15540025383234020000e-002) (17, 4.36651846393942830000e-003) (18, 1.77329778671264650000e-002) (19, -1.63635425269603730000e-002) (20, -1.09651006758213040000e-001) (21, 4.80764433741569520000e-002) (22, -6.51848986744880680000e-002) (23, 6.81704953312873840000e-002) (24, -6.87706843018531800000e-002) (25, 7.06283524632453920000e-002) (26, 2.10834238678216930000e-002) (27, -6.08610548079013820000e-002) (28, 4.71176467835903170000e-002) (29, 3.70946899056434630000e-002) (30, -5.03079704940319060000e-002) (31, -6.48520365357398990000e-002) (32, 5.31174056231975560000e-002) (33, -3.09406369924545290000e-002) (34, 1.49159617722034450000e-002) (35, -1.46587872877717020000e-002) (36, -1.18450298905372620000e-001) (37, -5.82413189113140110000e-002) (38, 2.00331099331378940000e-002) (39, 3.17970700562000270000e-002) (40, -4.18695956468582150000e-002) (41, 8.29801484942436220000e-002) (42, 7.00987800955772400000e-002) (43, 3.19432616233825680000e-002) (44, -1.03792302310466770000e-001) (45, -6.14186301827430730000e-002) (46, -1.68600659817457200000e-002) (47, -1.08899623155593870000e-002) (48, -2.94056590646505360000e-002) (49, -1.09173052012920380000e-001) (50, -3.28238382935523990000e-002) (51, -3.02130673080682750000e-002) (52, 4.39379587769508360000e-002) (53, 8.68703722953796390000e-002) (54, -4.83021512627601620000e-002) (55, -5.55569231510162350000e-002) (56, 4.11101095378398900000e-002) (57, -5.53662888705730440000e-002) (58, -1.60595178604125980000e-002) (59, -1.90778493881225590000e-001) (0, -9.18845385313034060000e-002) (1, 7.12096989154815670000e-002) (2, -6.75583407282829280000e-002) (3, -4.21486241975799200000e-004) (4, 5.29559589922428130000e-002) (5, -1.88546217978000640000e-002) (6, -4.41752979531884190000e-003) (7, -5.14639578759670260000e-002) (8, -7.05735981464385990000e-002) (9, 1.25125097110867500000e-002) (10, -2.80200093984603880000e-002) (11, 5.25044612586498260000e-002) (12, 2.59532574564218520000e-002) (13, -4.65246140956878660000e-002) (14, -6.39947727322578430000e-002) (15, 1.33958179503679280000e-002) (16, 4.69025112688541410000e-002) (17, 5.26467151939868930000e-002) (18, -4.44376096129417420000e-002) (19, -3.05212736129760740000e-002) (20, 8.97822380065917970000e-002) (21, 6.32421374320983890000e-002) (22, -3.54747734963893890000e-002) (23, 7.40013867616653440000e-002) (24, 5.37866204977035520000e-002) (25, -8.57250839471817020000e-002) (26, -5.56821897625923160000e-002) (27, 7.96091705560684200000e-002) (28, -3.06200888007879260000e-002) (29, 2.34383195638656620000e-002) (30, -8.40065777301788330000e-002) (31, -8.37980955839157100000e-002) (32, 1.24383755028247830000e-002) (33, 9.48076471686363220000e-002) (34, 4.42932918667793270000e-002) (35, 8.38947594165802000000e-002) (36, 1.39301540330052380000e-002) (37, 9.31099355220794680000e-002) (38, -1.46230831742286680000e-002) (39, 8.28198641538620000000e-002) (40, 3.25201228260993960000e-002) (41, 8.95307585597038270000e-002) (42, 3.66383939981460570000e-002) (43, 8.30067843198776250000e-002) (44, 3.49432006478309630000e-002) (45, -9.78722497820854190000e-002) (46, 2.98109073191881180000e-002) (47, 5.45693226158618930000e-002) (48, 9.90998074412345890000e-002) (49, -9.00211259722709660000e-002) (50, -4.74437922239303590000e-002) (51, 2.72301435470581050000e-002) (52, 3.50905358791351320000e-002) (53, 2.97570750117301940000e-002) (54, -5.48603087663650510000e-002) (55, -3.20972912013530730000e-002) (56, -7.21011981368064880000e-002) (57, -8.13364610075950620000e-002) (58, 2.05951891839504240000e-002) (59, -8.64284932613372800000e-002) (60, 3.72336842119693760000e-002) (61, 1.11719116568565370000e-001) (62, 9.77624595165252690000e-001) (63, 8.70355498045682910000e-003) (64, 2.83344686031341550000e-002) (65, 5.54832583293318750000e-003) (66, 9.78702902793884280000e-002) (67, 1.93952973932027820000e-002) (68, -4.22345325350761410000e-002) (60, 5.26652000844478610000e-002) (61, 2.26670399308204650000e-001) (62, -1.16919159889221190000e+000) (63, 1.54902458190917970000e-001) (64, 1.72902494668960570000e-001) (65, 2.49059677124023440000e-001) (66, 6.85652717947959900000e-002) (67, 2.57656931877136230000e-001) (68, 5.62956809997558590000e-001) 
