FANN_FLO_2.1
num_layers=3
learning_rate=0.700000
connection_rate=1.000000
network_type=0
learning_momentum=0.000000
training_algorithm=3
train_error_function=1
train_stop_function=0
cascade_output_change_fraction=0.010000
quickprop_decay=-0.000100
quickprop_mu=1.750000
rprop_increase_factor=1.200000
rprop_decrease_factor=0.500000
rprop_delta_min=0.000000
rprop_delta_max=50.000000
rprop_delta_zero=0.100000
cascade_output_stagnation_epochs=12
cascade_candidate_change_fraction=0.010000
cascade_candidate_stagnation_epochs=12
cascade_max_out_epochs=150
cascade_max_cand_epochs=150
cascade_num_candidate_groups=2
bit_fail_limit=3.49999994039535520000e-001
cascade_candidate_limit=1.00000000000000000000e+003
cascade_weight_multiplier=4.00000005960464480000e-001
cascade_activation_functions_count=10
cascade_activation_functions=3 5 7 8 10 11 14 15 16 17 
cascade_activation_steepnesses_count=4
cascade_activation_steepnesses=2.50000000000000000000e-001 5.00000000000000000000e-001 7.50000000000000000000e-001 1.00000000000000000000e+000 
layer_sizes=60 9 3 
scale_included=0
neurons (num_inputs, activation_function, activation_steepness)=(0, 0, 0.00000000000000000000e+000) (0, 0, 0.00000000000000000000e+000) (0, 0, 0.00000000000000000000e+000) (0, 0, 0.00000000000000000000e+000) (0, 0, 0.00000000000000000000e+000) (0, 0, 0.00000000000000000000e+000) (0, 0, 0.00000000000000000000e+000) (0, 0, 0.00000000000000000000e+000) (0, 0, 0.00000000000000000000e+000) (0, 0, 0.00000000000000000000e+000) (0, 0, 0.00000000000000000000e+000) (0, 0, 0.00000000000000000000e+000) (0, 0, 0.00000000000000000000e+000) (0, 0, 0.00000000000000000000e+000) (0, 0, 0.00000000000000000000e+000) (0, 0, 0.00000000000000000000e+000) (0, 0, 0.00000000000000000000e+000) (0, 0, 0.00000000000000000000e+000) (0, 0, 0.00000000000000000000e+000) (0, 0, 0.00000000000000000000e+000) (0, 0, 0.00000000000000000000e+000) (0, 0, 0.00000000000000000000e+000) (0, 0, 0.00000000000000000000e+000) (0, 0, 0.00000000000000000000e+000) (0, 0, 0.00000000000000000000e+000) (0, 0, 0.00000000000000000000e+000) (0, 0, 0.00000000000000000000e+000) (0, 0, 0.00000000000000000000e+000) (0, 0, 0.00000000000000000000e+000) (0, 0, 0.00000000000000000000e+000) (0, 0, 0.00000000000000000000e+000) (0, 0, 0.00000000000000000000e+000) (0, 0, 0.00000000000000000000e+000) (0, 0, 0.00000000000000000000e+000) (0, 0, 0.00000000000000000000e+000) (0, 0, 0.00000000000000000000e+000) (0, 0, 0.00000000000000000000e+000) (0, 0, 0.00000000000000000000e+000) (0, 0, 0.00000000000000000000e+000) (0, 0, 0.00000000000000000000e+000) (0, 0, 0.00000000000000000000e+000) (0, 0, 0.00000000000000000000e+000) (0, 0, 0.00000000000000000000e+000) (0, 0, 0.00000000000000000000e+000) (0, 0, 0.00000000000000000000e+000) (0, 0, 0.00000000000000000000e+000) (0, 0, 0.00000000000000000000e+000) (0, 0, 0.00000000000000000000e+000) (0, 0, 0.00000000000000000000e+000) (0, 0, 0.00000000000000000000e+000) (0, 0, 0.00000000000000000000e+000) (0, 0, 0.00000000000000000000e+000) (0, 0, 0.00000000000000000000e+000) (0, 0, 0.00000000000000000000e+000) (0, 0, 0.00000000000000000000e+000) (0, 0, 0.00000000000000000000e+000) (0, 0, 0.00000000000000000000e+000) (0, 0, 0.00000000000000000000e+000) (0, 0, 0.00000000000000000000e+000) (0, 0, 0.00000000000000000000e+000) (60, 4, 1.10000002384185790000e+000) (60, 4, 1.10000002384185790000e+000) (60, 4, 1.10000002384185790000e+000) (60, 4, 1.10000002384185790000e+000) (60, 4, 1.10000002384185790000e+000) (60, 4, 1.10000002384185790000e+000) (60, 4, 1.10000002384185790000e+000) (60, 4, 1.10000002384185790000e+000) (0, 4, 1.10000002384185790000e+000) (9, 5, 1.00000000000000000000e+000) (9, 5, 1.00000000000000000000e+000) (0, 5, 1.00000000000000000000e+000) 
connections (connected_to_neuron, weight)=(0, -1.73224415630102160000e-002) (1, -5.81845045089721680000e-002) (2, 8.45763534307479860000e-002) (3, 1.57230738550424580000e-002) (4, 4.88170562312006950000e-003) (5, -6.21387474238872530000e-002) (6, -1.72225059941411020000e-003) (7, -6.85850679874420170000e-002) (8, -7.53166154026985170000e-002) (9, -3.90021577477455140000e-002) (10, -4.50095627456903460000e-003) (11, -2.42684837430715560000e-002) (12, 3.98905435577034950000e-003) (13, -8.83659198880195620000e-002) (14, 2.96809319406747820000e-002) (15, -4.69919294118881230000e-002) (16, -2.90330536663532260000e-002) (17, 2.06623692065477370000e-002) (18, -4.06226366758346560000e-002) (19, -8.46884101629257200000e-002) (20, 8.48870873451232910000e-002) (21, 3.17972563207149510000e-002) (22, -9.78503003716468810000e-002) (23, 6.93852230906486510000e-002) (24, 6.95544704794883730000e-002) (25, 8.72416794300079350000e-002) (26, 7.28030875325202940000e-002) (27, -1.23238191008567810000e-001) (28, 3.98775637149810790000e-002) (29, 1.30398869514465330000e-002) (30, -8.64141434431076050000e-002) (31, 4.81673516333103180000e-002) (32, -4.93364445865154270000e-002) (33, -3.97727340459823610000e-002) (34, -5.31796813011169430000e-002) (35, -9.76961180567741390000e-002) (36, 2.79150567948818210000e-002) (37, -4.91664037108421330000e-002) (38, -7.47281536459922790000e-002) (39, 6.41443431377410890000e-002) (40, 3.32653224468231200000e-002) (41, -6.34761080145835880000e-002) (42, -8.43628942966461180000e-002) (43, -1.28311826847493650000e-003) (44, 2.60789841413497920000e-002) (45, -1.07035890221595760000e-001) (46, -6.15185638889670370000e-003) (47, -9.83694121241569520000e-002) (48, 5.18002286553382870000e-002) (49, -5.37571534514427190000e-002) (50, 3.69917042553424840000e-002) (51, -8.47603455185890200000e-002) (52, 7.08541646599769590000e-002) (53, -3.19926626980304720000e-002) (54, 5.56402951478958130000e-002) (55, -3.97313423454761510000e-002) (56, -5.12023232877254490000e-002) (57, 3.82912829518318180000e-002) (58, 1.86023917049169540000e-002) (59, -2.84244447946548460000e-001) (0, -5.70468306541442870000e-002) (1, 2.95224762521684170000e-003) (2, -9.10280048847198490000e-002) (3, -1.40862409025430680000e-002) (4, 5.17359599471092220000e-002) (5, 3.90065722167491910000e-002) (6, -1.18971604388207200000e-003) (7, -4.64707314968109130000e-002) (8, -3.65883321501314640000e-003) (9, -2.08151116967201230000e-002) (10, 7.91304484009742740000e-002) (11, -4.78471890091896060000e-002) (12, 2.11971569806337360000e-002) (13, 9.22122523188591000000e-002) (14, 2.82329414039850230000e-002) (15, -3.87110281735658650000e-003) (16, 7.20918551087379460000e-002) (17, 2.39343363791704180000e-002) (18, 6.45954385399818420000e-002) (19, 8.22836905717849730000e-003) (20, 1.79121587425470350000e-002) (21, 2.72777769714593890000e-003) (22, -6.19134493172168730000e-002) (23, -4.97076474130153660000e-002) (24, -5.02251498401165010000e-002) (25, -2.78115291148424150000e-002) (26, 8.10145363211631770000e-002) (27, 1.41334836371243000000e-003) (28, -9.19316858053207400000e-002) (29, 2.29322835803031920000e-002) (30, -1.85784674249589440000e-003) (31, -3.36514413356781010000e-002) (32, -6.64354488253593440000e-002) (33, 9.22255814075469970000e-002) (34, 9.50002297759056090000e-002) (35, -5.36507405340671540000e-002) (36, 4.33320142328739170000e-002) (37, 5.04474975168704990000e-002) (38, -8.36859981063753370000e-004) (39, -3.53912636637687680000e-002) (40, -4.62089106440544130000e-003) (41, -3.48176509141922000000e-002) (42, -8.47821980714797970000e-002) (43, 8.97351950407028200000e-002) (44, 3.62249761819839480000e-002) (45, 1.18816038593649860000e-002) (46, -8.78564342856407170000e-002) (47, 7.60327205061912540000e-002) (48, -8.41078236699104310000e-002) (49, 8.89236256480216980000e-002) (50, 9.24385245889425280000e-003) (51, 3.59364822506904600000e-002) (52, -7.69385173916816710000e-002) (53, -3.70973646640777590000e-002) (54, 6.61187916994094850000e-002) (55, -8.49713087081909180000e-002) (56, 6.29316493868827820000e-002) (57, -4.83644157648086550000e-002) (58, 4.73574325442314150000e-002) (59, 3.74887175858020780000e-002) (0, -8.03825035691261290000e-002) (1, -6.15758188068866730000e-002) (2, 2.14798208326101300000e-002) (3, -2.33995560556650160000e-002) (4, -3.63328820094466210000e-003) (5, 7.76499360799789430000e-002) (6, 9.23061892390251160000e-002) (7, -8.01923349499702450000e-002) (8, 1.43661284819245340000e-002) (9, 1.39163341373205180000e-002) (10, 5.84924370050430300000e-002) (11, -1.45243750885128970000e-002) (12, -2.40128785371780400000e-002) (13, -3.01841348409652710000e-002) (14, -2.31687650084495540000e-002) (15, -6.06928654015064240000e-002) (16, 5.58304972946643830000e-002) (17, -7.03998748213052750000e-003) (18, -9.88212227821350100000e-002) (19, 6.65266960859298710000e-002) (20, -8.90842974185943600000e-002) (21, -1.00500628352165220000e-001) (22, -7.24350586533546450000e-002) (23, 3.30360457301139830000e-002) (24, -3.17873358726501460000e-002) (25, 1.65316760540008540000e-002) (26, 5.60444295406341550000e-002) (27, -7.92875736951828000000e-002) (28, 4.57341633737087250000e-002) (29, -2.26504057645797730000e-002) (30, -9.59251001477241520000e-002) (31, -5.21007739007472990000e-002) (32, -2.13873349130153660000e-002) (33, 6.91692456603050230000e-002) (34, -1.02140139788389210000e-002) (35, 6.32432103157043460000e-002) (36, -2.67433691769838330000e-002) (37, 1.42691694200038910000e-002) (38, 2.99888495355844500000e-002) (39, -6.51813969016075130000e-002) (40, 1.30252446979284290000e-002) (41, -9.54698119312524800000e-003) (42, -4.90677617490291600000e-002) (43, 6.35853260755538940000e-002) (44, -1.56422853469848630000e-002) (45, -3.76695953309535980000e-002) (46, -1.03197097778320310000e-001) (47, 6.24009594321250920000e-002) (48, 9.51629057526588440000e-002) (49, -5.42792864143848420000e-002) (50, -7.55568817257881160000e-002) (51, -6.73182904720306400000e-002) (52, -9.02868211269378660000e-002) (53, -1.27529799938201900000e-002) (54, -4.25906181335449220000e-002) (55, -7.40343332290649410000e-002) (56, -7.24945515394210820000e-002) (57, 6.41805380582809450000e-002) (58, -1.85735411942005160000e-002) (59, -1.95338174700737000000e-001) (0, -3.50988544523715970000e-002) (1, 2.27476041764020920000e-002) (2, 8.95871296525001530000e-002) (3, 7.70872384309768680000e-002) (4, 8.70391428470611570000e-002) (5, -2.12473571300506590000e-002) (6, -9.17163342237472530000e-002) (7, 9.08217877149581910000e-002) (8, 4.26537171006202700000e-002) (9, -7.11233243346214290000e-002) (10, -4.86070774495601650000e-002) (11, 9.38557013869285580000e-002) (12, -2.06602253019809720000e-002) (13, 1.13192414864897730000e-002) (14, 1.38798141852021220000e-002) (15, 2.14562676846981050000e-002) (16, 8.68329852819442750000e-002) (17, -7.34823271632194520000e-002) (18, -2.03023701906204220000e-002) (19, 1.15155838429927830000e-002) (20, 9.57041829824447630000e-002) (21, 5.28995832428336140000e-003) (22, -3.92888747155666350000e-002) (23, -3.65946590900421140000e-002) (24, 4.16021309792995450000e-002) (25, -7.14502856135368350000e-002) (26, 3.03954239934682850000e-002) (27, 3.87978181242942810000e-002) (28, 5.59220695868134500000e-003) (29, -4.70551848411560060000e-002) (30, 3.95013950765132900000e-002) (31, 6.82701244950294490000e-002) (32, 3.24808992445468900000e-002) (33, -6.35113269090652470000e-002) (34, -6.85331523418426510000e-002) (35, -4.14259992539882660000e-002) (36, -7.66501277685165410000e-002) (37, 7.58389234542846680000e-002) (38, 9.81110036373138430000e-002) (39, 3.30393388867378230000e-002) (40, -6.91831707954406740000e-002) (41, 4.70974706113338470000e-002) (42, -9.16829034686088560000e-002) (43, -8.82792547345161440000e-002) (44, 1.35103128850460050000e-002) (45, -7.35057815909385680000e-002) (46, 7.79395624995231630000e-002) (47, -8.09040814638137820000e-002) (48, 3.51886413991451260000e-002) (49, -1.00776307284832000000e-001) (50, -5.76936490833759310000e-002) (51, -7.21855554729700090000e-003) (52, -2.75179706513881680000e-002) (53, 2.74172984063625340000e-002) (54, -1.11537948250770570000e-002) (55, 3.51390358991920950000e-003) (56, 8.99743139743804930000e-002) (57, 4.04381612315773960000e-003) (58, -7.19022080302238460000e-002) (59, -1.17511279881000520000e-001) (0, 6.82726949453353880000e-002) (1, -4.98492531478405000000e-002) (2, 2.67751738429069520000e-002) (3, -5.34707121551036830000e-002) (4, -2.34726667404174800000e-002) (5, -6.81956708431243900000e-002) (6, -6.40541613101959230000e-002) (7, 1.77024193108081820000e-002) (8, -1.94027610123157500000e-002) (9, 4.00690287351608280000e-002) (10, -5.74089959263801570000e-003) (11, 7.39700496196746830000e-002) (12, -8.10225531458854680000e-002) (13, 3.88733334839344020000e-002) (14, 1.79192777723073960000e-002) (15, -5.50434142351150510000e-002) (16, -5.86267001926898960000e-002) (17, -4.76214941591024400000e-003) (18, -2.72861272096633910000e-002) (19, -9.78072434663772580000e-002) (20, 1.31535828113555910000e-002) (21, 4.36518639326095580000e-002) (22, -4.98688183724880220000e-002) (23, 2.85561494529247280000e-002) (24, -4.41624410450458530000e-002) (25, -8.18236693739891050000e-002) (26, 2.08789836615324020000e-002) (27, -1.19994012638926510000e-002) (28, -5.02132177352905270000e-002) (29, 1.01574525237083440000e-001) (30, 6.37324973940849300000e-002) (31, 8.10239836573600770000e-003) (32, 9.56920161843299870000e-002) (33, 7.85140916705131530000e-002) (34, 4.07420359551906590000e-002) (35, 4.90339808166027070000e-002) (36, -3.43639031052589420000e-002) (37, -6.23729079961776730000e-002) (38, 1.52662377804517750000e-002) (39, 8.00577104091644290000e-002) (40, -8.24717804789543150000e-002) (41, -2.77238413691520690000e-002) (42, 8.19019004702568050000e-002) (43, 6.85306116938591000000e-002) (44, 7.60943666100502010000e-002) (45, -3.56514491140842440000e-002) (46, 6.44380822777748110000e-002) (47, -3.40858809649944310000e-002) (48, -4.74881157279014590000e-002) (49, 2.83710882067680360000e-002) (50, 1.90011374652385710000e-002) (51, 1.79019980132579800000e-002) (52, -9.76221635937690730000e-002) (53, -9.10064727067947390000e-002) (54, -1.91211961209774020000e-002) (55, 5.07711283862590790000e-002) (56, -4.29750420153141020000e-002) (57, -1.18810089770704510000e-003) (58, -7.16778188943862920000e-002) (59, -5.79380355775356290000e-002) (0, -6.04519061744213100000e-002) (1, -1.39743275940418240000e-002) (2, -1.01521965116262440000e-002) (3, -1.74278002232313160000e-002) (4, -7.60983675718307500000e-002) (5, 5.82590512931346890000e-002) (6, 1.90461371093988420000e-002) (7, 9.93464887142181400000e-002) (8, -6.09802640974521640000e-003) (9, 5.01992180943489070000e-002) (10, 3.76278944313526150000e-002) (11, 2.83201858401298520000e-002) (12, 3.98598499596118930000e-002) (13, -7.88517966866493230000e-002) (14, 3.54590155184268950000e-002) (15, 3.11497375369071960000e-002) (16, -9.21701863408088680000e-002) (17, 8.74151010066270830000e-003) (18, -8.19397643208503720000e-002) (19, -3.16114351153373720000e-002) (20, -2.95287687331438060000e-002) (21, -3.45351547002792360000e-002) (22, 8.79493542015552520000e-003) (23, 3.04792597889900210000e-002) (24, 3.53973992168903350000e-002) (25, 1.06391936540603640000e-001) (26, -1.35545125231146810000e-002) (27, 8.73931683599948880000e-004) (28, 6.77632987499237060000e-002) (29, 5.15547990798950200000e-002) (30, 4.57936339080333710000e-002) (31, -4.42583076655864720000e-002) (32, 9.40579697489738460000e-002) (33, -3.25107015669345860000e-002) (34, 7.49993976205587390000e-003) (35, 5.21973781287670140000e-002) (36, -3.18144001066684720000e-002) (37, 3.90909723937511440000e-002) (38, -7.93636143207550050000e-002) (39, 3.64989377558231350000e-002) (40, 2.43807844817638400000e-002) (41, -7.81012326478958130000e-002) (42, 6.04437775909900670000e-002) (43, -8.10345821082592010000e-003) (44, -1.18275545537471770000e-002) (45, 4.60732541978359220000e-002) (46, -7.76378735899925230000e-002) (47, -8.41539576649665830000e-002) (48, -4.34495434165000920000e-002) (49, -8.26586931943893430000e-002) (50, -6.16855546832084660000e-002) (51, 9.05281212180852890000e-003) (52, -3.73708344995975490000e-002) (53, -3.94955724477767940000e-002) (54, -8.29378422349691390000e-003) (55, -1.04051359812729060000e-004) (56, 5.17718633636832240000e-003) (57, -6.60954937338829040000e-002) (58, -4.37316019088029860000e-003) (59, -9.93280559778213500000e-002) (0, -1.29965376108884810000e-002) (1, -7.40382373332977290000e-002) (2, -3.53801190853118900000e-001) (3, -1.79436579346656800000e-001) (4, -4.44849021732807160000e-002) (5, -1.23399525880813600000e-001) (6, 4.24578785896301270000e-002) (7, -2.56937295198440550000e-001) (8, -1.44127771258354190000e-001) (9, -2.24692985415458680000e-001) (10, -2.95380186289548870000e-002) (11, -4.62902262806892400000e-002) (12, 2.35886592417955400000e-003) (13, -2.48613625764846800000e-001) (14, -1.24381348490715030000e-001) (15, -1.54098764061927800000e-001) (16, -6.19162246584892270000e-002) (17, -1.52449654415249820000e-002) (18, -7.96991050243377690000e-001) (19, -1.43478906154632570000e+000) (20, -1.64259576797485350000e+000) (21, -4.13626760244369510000e-001) (22, -5.39851896464824680000e-002) (23, -1.25864461064338680000e-001) (24, -3.33981603384017940000e-001) (25, -2.12933495640754700000e-001) (26, -1.04225838184356690000e+000) (27, -7.13062137365341190000e-002) (28, -2.24599838256835940000e-001) (29, -2.21519395709037780000e-001) (30, -1.03580482304096220000e-001) (31, -3.58999162912368770000e-001) (32, 4.97051998972892760000e-002) (33, -1.86153277754783630000e-002) (34, -2.88197398185729980000e-001) (35, -1.84749603271484380000e-001) (36, 7.45733231306076050000e-002) (37, -6.67618587613105770000e-002) (38, 4.38891127705574040000e-002) (39, 5.76337315142154690000e-002) (40, -1.11120507121086120000e-001) (41, -3.50652009248733520000e-001) (42, -2.55613684654235840000e-001) (43, 4.11196127533912660000e-002) (44, -3.89425873756408690000e-001) (45, -2.31359168887138370000e-001) (46, -2.75748111307621000000e-002) (47, -3.16880643367767330000e-002) (48, -2.37878322601318360000e-001) (49, -2.43042364716529850000e-001) (50, -2.99823760986328130000e-001) (51, -2.22548767924308780000e-001) (52, -3.74816596508026120000e-001) (53, -8.70355665683746340000e-002) (54, -2.91063070297241210000e-001) (55, -2.55773901939392090000e-001) (56, 2.90038108825683590000e-001) (57, -2.89203524589538570000e-001) (58, 1.65579229593276980000e-001) (59, 4.63334739208221440000e-001) (0, -8.88479799032211300000e-002) (1, 6.12929500639438630000e-002) (2, -5.76257668435573580000e-002) (3, 2.64257076196372510000e-003) (4, 5.18344342708587650000e-002) (5, -1.42142251133918760000e-002) (6, -6.27722963690757750000e-003) (7, -5.08521795272827150000e-002) (8, -6.78559094667434690000e-002) (9, 9.76881757378578190000e-003) (10, -3.40328365564346310000e-002) (11, 4.73850965499877930000e-002) (12, 2.22262013703584670000e-002) (13, -3.38772684335708620000e-002) (14, -5.07377460598945620000e-002) (15, 1.53232682496309280000e-002) (16, 4.87943664193153380000e-002) (17, 5.50823323428630830000e-002) (18, -4.67580668628215790000e-002) (19, -2.48582102358341220000e-002) (20, 9.23482477664947510000e-002) (21, 6.13043718039989470000e-002) (22, -4.27207201719284060000e-002) (23, 7.76030793786048890000e-002) (24, 5.94180971384048460000e-002) (25, -8.71278494596481320000e-002) (26, -5.75552135705947880000e-002) (27, 7.26361423730850220000e-002) (28, -3.67304421961307530000e-002) (29, 2.81120352447032930000e-002) (30, -7.88120776414871220000e-002) (31, -7.37115517258644100000e-002) (32, 1.53830852359533310000e-002) (33, 8.66169631481170650000e-002) (34, 3.94475422799587250000e-002) (35, 8.75738412141799930000e-002) (36, 1.37379085645079610000e-002) (37, 9.91245880722999570000e-002) (38, -1.59223843365907670000e-002) (39, 7.94038623571395870000e-002) (40, 3.17294746637344360000e-002) (41, 9.86114889383316040000e-002) (42, 3.54973673820495610000e-002) (43, 8.69696140289306640000e-002) (44, 4.04034219682216640000e-002) (45, -9.03079807758331300000e-002) (46, 3.22924554347991940000e-002) (47, 5.83877526223659520000e-002) (48, 9.33403670787811280000e-002) (49, -9.01402011513710020000e-002) (50, -4.77589629590511320000e-002) (51, 2.23626829683780670000e-002) (52, 4.76726219058036800000e-002) (53, 3.84503006935119630000e-002) (54, -4.73806485533714290000e-002) (55, -2.96400450170040130000e-002) (56, -7.71011412143707280000e-002) (57, -6.69850707054138180000e-002) (58, 2.71162744611501690000e-002) (59, -9.40943285822868350000e-002) (60, 1.22466133907437320000e-002) (61, 1.12569272518157960000e-001) (62, 4.86574955284595490000e-002) (63, 2.82544661313295360000e-002) (64, 4.59101796150207520000e-002) (65, 4.57474887371063230000e-002) (66, 1.82795226573944090000e+000) (67, 3.43062095344066620000e-002) (68, -5.05232959985733030000e-002) (60, 8.60461518168449400000e-002) (61, 2.61365234851837160000e-001) (62, 6.52373507618904110000e-002) (63, 1.82974427938461300000e-001) (64, 1.68461337685585020000e-001) (65, 2.20796078443527220000e-001) (66, -2.04022574424743650000e+000) (67, 2.65842050313949580000e-001) (68, 5.31629741191864010000e-001) 
