FANN_FLO_2.1
num_layers=3
learning_rate=0.700000
connection_rate=1.000000
network_type=0
learning_momentum=0.000000
training_algorithm=3
train_error_function=1
train_stop_function=0
cascade_output_change_fraction=0.010000
quickprop_decay=-0.000100
quickprop_mu=1.750000
rprop_increase_factor=1.200000
rprop_decrease_factor=0.500000
rprop_delta_min=0.000000
rprop_delta_max=50.000000
rprop_delta_zero=0.100000
cascade_output_stagnation_epochs=12
cascade_candidate_change_fraction=0.010000
cascade_candidate_stagnation_epochs=12
cascade_max_out_epochs=150
cascade_max_cand_epochs=150
cascade_num_candidate_groups=2
bit_fail_limit=3.49999994039535520000e-001
cascade_candidate_limit=1.00000000000000000000e+003
cascade_weight_multiplier=4.00000005960464480000e-001
cascade_activation_functions_count=10
cascade_activation_functions=3 5 7 8 10 11 14 15 16 17 
cascade_activation_steepnesses_count=4
cascade_activation_steepnesses=2.50000000000000000000e-001 5.00000000000000000000e-001 7.50000000000000000000e-001 1.00000000000000000000e+000 
layer_sizes=60 9 3 
scale_included=0
neurons (num_inputs, activation_function, activation_steepness)=(0, 0, 0.00000000000000000000e+000) (0, 0, 0.00000000000000000000e+000) (0, 0, 0.00000000000000000000e+000) (0, 0, 0.00000000000000000000e+000) (0, 0, 0.00000000000000000000e+000) (0, 0, 0.00000000000000000000e+000) (0, 0, 0.00000000000000000000e+000) (0, 0, 0.00000000000000000000e+000) (0, 0, 0.00000000000000000000e+000) (0, 0, 0.00000000000000000000e+000) (0, 0, 0.00000000000000000000e+000) (0, 0, 0.00000000000000000000e+000) (0, 0, 0.00000000000000000000e+000) (0, 0, 0.00000000000000000000e+000) (0, 0, 0.00000000000000000000e+000) (0, 0, 0.00000000000000000000e+000) (0, 0, 0.00000000000000000000e+000) (0, 0, 0.00000000000000000000e+000) (0, 0, 0.00000000000000000000e+000) (0, 0, 0.00000000000000000000e+000) (0, 0, 0.00000000000000000000e+000) (0, 0, 0.00000000000000000000e+000) (0, 0, 0.00000000000000000000e+000) (0, 0, 0.00000000000000000000e+000) (0, 0, 0.00000000000000000000e+000) (0, 0, 0.00000000000000000000e+000) (0, 0, 0.00000000000000000000e+000) (0, 0, 0.00000000000000000000e+000) (0, 0, 0.00000000000000000000e+000) (0, 0, 0.00000000000000000000e+000) (0, 0, 0.00000000000000000000e+000) (0, 0, 0.00000000000000000000e+000) (0, 0, 0.00000000000000000000e+000) (0, 0, 0.00000000000000000000e+000) (0, 0, 0.00000000000000000000e+000) (0, 0, 0.00000000000000000000e+000) (0, 0, 0.00000000000000000000e+000) (0, 0, 0.00000000000000000000e+000) (0, 0, 0.00000000000000000000e+000) (0, 0, 0.00000000000000000000e+000) (0, 0, 0.00000000000000000000e+000) (0, 0, 0.00000000000000000000e+000) (0, 0, 0.00000000000000000000e+000) (0, 0, 0.00000000000000000000e+000) (0, 0, 0.00000000000000000000e+000) (0, 0, 0.00000000000000000000e+000) (0, 0, 0.00000000000000000000e+000) (0, 0, 0.00000000000000000000e+000) (0, 0, 0.00000000000000000000e+000) (0, 0, 0.00000000000000000000e+000) (0, 0, 0.00000000000000000000e+000) (0, 0, 0.00000000000000000000e+000) (0, 0, 0.00000000000000000000e+000) (0, 0, 0.00000000000000000000e+000) (0, 0, 0.00000000000000000000e+000) (0, 0, 0.00000000000000000000e+000) (0, 0, 0.00000000000000000000e+000) (0, 0, 0.00000000000000000000e+000) (0, 0, 0.00000000000000000000e+000) (0, 0, 0.00000000000000000000e+000) (60, 4, 1.10000002384185790000e+000) (60, 4, 1.10000002384185790000e+000) (60, 4, 1.10000002384185790000e+000) (60, 4, 1.10000002384185790000e+000) (60, 4, 1.10000002384185790000e+000) (60, 4, 1.10000002384185790000e+000) (60, 4, 1.10000002384185790000e+000) (60, 4, 1.10000002384185790000e+000) (0, 4, 1.10000002384185790000e+000) (9, 5, 1.00000000000000000000e+000) (9, 5, 1.00000000000000000000e+000) (0, 5, 1.00000000000000000000e+000) 
connections (connected_to_neuron, weight)=(0, -3.72806005179882050000e-002) (1, -6.32007941603660580000e-002) (2, 8.30933451652526860000e-002) (3, 1.12965675070881840000e-002) (4, -5.08355582132935520000e-003) (5, -6.93233683705329900000e-002) (6, -8.07882286608219150000e-003) (7, -8.11425223946571350000e-002) (8, -7.26899504661560060000e-002) (9, -4.20588478446006770000e-002) (10, -8.42280872166156770000e-003) (11, -3.06585170328617100000e-002) (12, 9.41430497914552690000e-003) (13, -8.36309492588043210000e-002) (14, 2.80284676700830460000e-002) (15, -4.73229400813579560000e-002) (16, -3.81417684257030490000e-002) (17, -1.28063047304749490000e-003) (18, -5.66693432629108430000e-002) (19, -7.41582810878753660000e-002) (20, 8.67359489202499390000e-002) (21, 3.95498760044574740000e-002) (22, -1.08856104314327240000e-001) (23, 5.65469339489936830000e-002) (24, 5.17700128257274630000e-002) (25, 7.91085213422775270000e-002) (26, 5.94637170433998110000e-002) (27, -1.10260523855686190000e-001) (28, 3.92459370195865630000e-002) (29, 1.88286614138633010000e-003) (30, -9.09938514232635500000e-002) (31, 3.34440208971500400000e-002) (32, -6.42700716853141780000e-002) (33, -4.59028854966163640000e-002) (34, -5.38286007940769200000e-002) (35, -8.70526880025863650000e-002) (36, 8.32753162831068040000e-003) (37, -5.74332065880298610000e-002) (38, -9.17625129222869870000e-002) (39, 4.96872738003730770000e-002) (40, 2.48462483286857600000e-002) (41, -7.53744244575500490000e-002) (42, -9.56725850701332090000e-002) (43, -5.81493508070707320000e-003) (44, 1.90831962972879410000e-002) (45, -1.21345899999141690000e-001) (46, -5.41161093860864640000e-003) (47, -1.10952921211719510000e-001) (48, 3.52868065237998960000e-002) (49, -6.69647604227066040000e-002) (50, 2.82256361097097400000e-002) (51, -9.98589918017387390000e-002) (52, 5.46242743730545040000e-002) (53, -4.02233041822910310000e-002) (54, 5.64628466963768010000e-002) (55, -5.18930144608020780000e-002) (56, -4.52839247882366180000e-002) (57, 4.52374629676342010000e-002) (58, 1.34764611721038820000e-002) (59, -2.47392460703849790000e-001) (0, -5.32671809196472170000e-002) (1, 5.37561997771263120000e-003) (2, -9.11789014935493470000e-002) (3, -1.43731618300080300000e-002) (4, 5.03773093223571780000e-002) (5, 4.02008444070816040000e-002) (6, 1.16692902520298960000e-003) (7, -4.53143380582332610000e-002) (8, -2.00482038781046870000e-003) (9, -1.91340129822492600000e-002) (10, 8.11498463153839110000e-002) (11, -4.56304810941219330000e-002) (12, 2.35311202704906460000e-002) (13, 8.82195830345153810000e-002) (14, 2.44043227285146710000e-002) (15, -3.19903972558677200000e-003) (16, 7.16333612799644470000e-002) (17, 2.31421031057834630000e-002) (18, 6.57749623060226440000e-002) (19, 3.34397365804761650000e-004) (20, 1.63492131978273390000e-002) (21, 2.61150277219712730000e-003) (22, -5.64026795327663420000e-002) (23, -5.06117567420005800000e-002) (24, -5.00318631529808040000e-002) (25, -3.00845783203840260000e-002) (26, 7.92894884943962100000e-002) (27, 2.00805347412824630000e-003) (28, -9.13855656981468200000e-002) (29, 2.06211358308792110000e-002) (30, 1.95453898049891000000e-003) (31, -3.47514078021049500000e-002) (32, -6.72181174159049990000e-002) (33, 9.24235060811042790000e-002) (34, 9.35915932059288020000e-002) (35, -5.42602725327014920000e-002) (36, 4.74862530827522280000e-002) (37, 4.93147745728492740000e-002) (38, 1.76981452386826280000e-003) (39, -3.48704308271408080000e-002) (40, -4.46046842262148860000e-003) (41, -3.61800827085971830000e-002) (42, -8.84571671485900880000e-002) (43, 9.00002941489219670000e-002) (44, 3.81649546325206760000e-002) (45, 1.17039410397410390000e-002) (46, -8.88613909482955930000e-002) (47, 7.49687105417251590000e-002) (48, -8.57273191213607790000e-002) (49, 9.18976143002510070000e-002) (50, 7.71586829796433450000e-003) (51, 3.53906042873859410000e-002) (52, -7.62337595224380490000e-002) (53, -3.91094274818897250000e-002) (54, 6.63342624902725220000e-002) (55, -8.16137641668319700000e-002) (56, 6.57685771584510800000e-002) (57, -5.30034378170967100000e-002) (58, 5.01708239316940310000e-002) (59, 6.24384433031082150000e-002) (0, -1.19135603308677670000e-001) (1, -5.14934770762920380000e-002) (2, 1.90173834562301640000e-002) (3, -1.00314468145370480000e-002) (4, -1.47847205400466920000e-001) (5, -1.96239009499549870000e-001) (6, 6.53333440423011780000e-002) (7, -2.40392699837684630000e-001) (8, -6.18214011192321780000e-002) (9, -4.89848712459206580000e-003) (10, 5.86639754474163060000e-002) (11, -5.37136346101760860000e-002) (12, -3.70150543749332430000e-002) (13, -1.44128780812025070000e-002) (14, 2.17083483934402470000e-001) (15, 7.11410641670227050000e-002) (16, -3.56473885476589200000e-002) (17, -3.80924567580223080000e-002) (18, -1.19863122701644900000e-001) (19, 4.65814083814620970000e-001) (20, -8.31778272986412050000e-002) (21, -1.03773109614849090000e-001) (22, -1.60584479570388790000e-001) (23, -2.18459516763687130000e-001) (24, -6.54877945780754090000e-002) (25, -1.67459864169359210000e-002) (26, -5.87692022323608400000e-001) (27, -9.16330441832542420000e-002) (28, -4.07851412892341610000e-002) (29, -5.01704886555671690000e-002) (30, -1.03044100105762480000e-001) (31, -5.88764771819114690000e-002) (32, -2.12284460663795470000e-001) (33, -1.69334754347801210000e-001) (34, -6.45554950460791590000e-003) (35, 6.12243451178073880000e-002) (36, -2.49765485525131230000e-001) (37, -1.68436571955680850000e-001) (38, -7.77500331401824950000e-001) (39, -6.63830190896987920000e-002) (40, 4.13812277838587760000e-003) (41, -3.22499126195907590000e-002) (42, -2.71546579897403720000e-002) (43, 7.45460093021392820000e-002) (44, -3.71227636933326720000e-002) (45, -4.02386523783206940000e-002) (46, 3.59199553728103640000e-001) (47, 2.93645262718200680000e-001) (48, 9.87548306584358220000e-002) (49, -8.47416147589683530000e-002) (50, -1.04677222669124600000e-001) (51, -6.78020536899566650000e-001) (52, -1.17933683097362520000e-001) (53, 3.04651469923555850000e-003) (54, -2.79636740684509280000e-001) (55, -7.45349898934364320000e-002) (56, -6.18245042860507970000e-002) (57, 1.51761019229888920000e+000) (58, -1.52954813092947010000e-002) (59, -1.45727498456835750000e-002) (0, -1.60735957324504850000e-002) (1, 2.12048627436161040000e-002) (2, 9.23817828297615050000e-002) (3, 7.06119313836097720000e-002) (4, 9.65892449021339420000e-002) (5, -7.77657562866806980000e-003) (6, -8.42059776186943050000e-002) (7, 1.08547024428844450000e-001) (8, 6.39161616563797000000e-002) (9, -6.14682473242282870000e-002) (10, -4.67939712107181550000e-002) (11, 1.05863988399505620000e-001) (12, -8.68557393550872800000e-003) (13, 5.37204556167125700000e-003) (14, -6.00546738132834430000e-003) (15, 1.07576278969645500000e-002) (16, 1.01222358644008640000e-001) (17, -6.59834071993827820000e-002) (18, -1.15499924868345260000e-002) (19, 2.11699560168199240000e-004) (20, 9.42275449633598330000e-002) (21, 1.26066273078322410000e-002) (22, -2.01619975268840790000e-002) (23, -2.39930357784032820000e-002) (24, 5.11019080877304080000e-002) (25, -6.70534446835517880000e-002) (26, 5.87229467928409580000e-002) (27, 5.63612207770347600000e-002) (28, 2.51095723360776900000e-002) (29, -4.36014160513877870000e-002) (30, 4.28356789052486420000e-002) (31, 6.51485174894332890000e-002) (32, 4.33024205267429350000e-002) (33, -5.72778768837451930000e-002) (34, -6.87214210629463200000e-002) (35, -3.64291816949844360000e-002) (36, -5.72703965008258820000e-002) (37, 8.81488099694252010000e-002) (38, 1.21177896857261660000e-001) (39, 2.83895842730998990000e-002) (40, -6.50323927402496340000e-002) (41, 5.35058192908763890000e-002) (42, -1.06521442532539370000e-001) (43, -9.46755334734916690000e-002) (44, 1.66076403111219410000e-002) (45, -7.62527137994766240000e-002) (46, 6.55401796102523800000e-002) (47, -1.09767898917198180000e-001) (48, 2.05923113971948620000e-002) (49, -8.84709656238555910000e-002) (50, -5.20504191517829900000e-002) (51, 1.08924293890595440000e-002) (52, -1.89686920493841170000e-002) (53, 1.95348337292671200000e-002) (54, 9.99615993350744250000e-003) (55, 6.00473675876855850000e-003) (56, 9.24750715494155880000e-002) (57, -7.93417543172836300000e-003) (58, -7.10978880524635310000e-002) (59, -1.12700149416923520000e-001) (0, 6.99667334556579590000e-002) (1, -4.93227243423461910000e-002) (2, 2.65877153724431990000e-002) (3, -5.70174343883991240000e-002) (4, -2.78317499905824660000e-002) (5, -6.83665126562118530000e-002) (6, -6.59152418375015260000e-002) (7, 1.77150350064039230000e-002) (8, -1.76327805966138840000e-002) (9, 4.06728014349937440000e-002) (10, -5.05171716213226320000e-003) (11, 7.26922079920768740000e-002) (12, -7.93134570121765140000e-002) (13, 3.73448282480239870000e-002) (14, 1.33487423881888390000e-002) (15, -5.65482564270496370000e-002) (16, -5.93603961169719700000e-002) (17, -9.73721314221620560000e-003) (18, -2.68105063587427140000e-002) (19, -9.93402227759361270000e-002) (20, 1.30102541297674180000e-002) (21, 4.46976311504840850000e-002) (22, -4.88205552101135250000e-002) (23, 2.62862890958786010000e-002) (24, -4.55629676580429080000e-002) (25, -8.64401832222938540000e-002) (26, 2.05738041549921040000e-002) (27, -8.18742346018552780000e-003) (28, -4.98520247638225560000e-002) (29, 9.60806757211685180000e-002) (30, 6.29775300621986390000e-002) (31, 3.64985899068415160000e-003) (32, 9.16678607463836670000e-002) (33, 7.55050554871559140000e-002) (34, 3.94170023500919340000e-002) (35, 4.95957881212234500000e-002) (36, -3.32016088068485260000e-002) (37, -6.33940920233726500000e-002) (38, 1.42018487676978110000e-002) (39, 7.68779888749122620000e-002) (40, -8.25052857398986820000e-002) (41, -2.98054795712232590000e-002) (42, 7.54338279366493230000e-002) (43, 6.51466324925422670000e-002) (44, 7.25259184837341310000e-002) (45, -3.73966731131076810000e-002) (46, 6.06445483863353730000e-002) (47, -4.21764142811298370000e-002) (48, -5.43174259364604950000e-002) (49, 2.96365246176719670000e-002) (50, 1.67338009923696520000e-002) (51, 1.45470537245273590000e-002) (52, -9.84432920813560490000e-002) (53, -9.32444855570793150000e-002) (54, -1.80246010422706600000e-002) (55, 5.17957396805286410000e-002) (56, -4.05524000525474550000e-002) (57, -2.06238939426839350000e-003) (58, -7.05978497862815860000e-002) (59, -3.96367423236370090000e-002) (0, 8.08744356036186220000e-002) (1, -1.41428345814347270000e-002) (2, -4.28996607661247250000e-003) (3, -2.05056797713041310000e-002) (4, -5.37478588521480560000e-002) (5, 3.28583240509033200000e-001) (6, 3.68777774274349210000e-002) (7, 1.30759105086326600000e-001) (8, 2.71789580583572390000e-002) (9, 6.36023506522178650000e-002) (10, 4.12306673824787140000e-002) (11, 5.24064041674137120000e-002) (12, 5.72231747210025790000e-002) (13, -9.17190834879875180000e-002) (14, 1.17568671703338620000e-002) (15, 2.05396506935358050000e-002) (16, 8.12817364931106570000e-002) (17, 2.90064588189125060000e-002) (18, -6.71873986721038820000e-002) (19, -5.67907430231571200000e-002) (20, -3.11570726335048680000e-002) (21, -2.44547855108976360000e-002) (22, 2.02867940068244930000e-001) (23, 5.56136071681976320000e-002) (24, 5.42157851159572600000e-002) (25, 1.20886318385601040000e-001) (26, 4.51327234506607060000e-001) (27, 2.57246717810630800000e-002) (28, 3.32384884357452390000e-001) (29, 6.32364675402641300000e-002) (30, 5.66743016242980960000e-002) (31, -4.30991090834140780000e-002) (32, 1.15401573479175570000e-001) (33, -1.65591463446617130000e-002) (34, 7.48686585575342180000e-003) (35, 6.04342818260192870000e-002) (36, -2.63247115071862940000e-004) (37, 6.42221122980117800000e-002) (38, 6.14894367754459380000e-002) (39, 3.47277186810970310000e-002) (40, 2.98245437443256380000e-002) (41, -6.98204711079597470000e-002) (42, 4.17799279093742370000e-002) (43, -1.60460304468870160000e-002) (44, 4.50932275271043180000e-005) (45, 4.20318543910980220000e-002) (46, -9.55351516604423520000e-002) (47, -1.18517905473709110000e-001) (48, -5.98509050905704500000e-002) (49, -6.25673905014991760000e-002) (50, -4.79791201651096340000e-002) (51, 1.52159184217453000000e-001) (52, -2.29609850794076920000e-002) (53, -5.33154085278511050000e-002) (54, 2.35674437135457990000e-002) (55, 2.12664413265883920000e-003) (56, 7.48837878927588460000e-003) (57, -8.41673687100410460000e-002) (58, -6.09909230843186380000e-003) (59, -9.13598164916038510000e-002) (0, 3.26077975332736970000e-002) (1, -8.36670100688934330000e-002) (2, -1.05579430237412450000e-002) (3, 8.14168155193328860000e-002) (4, 6.21658451855182650000e-002) (5, 2.48423703014850620000e-002) (6, 8.40232521295547490000e-003) (7, -8.30055177211761470000e-002) (8, 5.71048296988010410000e-002) (9, 2.08770465105772020000e-002) (10, -5.96343874931335450000e-002) (11, -4.12902086973190310000e-002) (12, 9.41538531333208080000e-003) (13, -1.73980835825204850000e-002) (14, -4.45086881518363950000e-002) (15, -9.54694002866745000000e-002) (16, 4.23531560227274890000e-003) (17, -1.10687399283051490000e-002) (18, 5.53029403090476990000e-003) (19, -1.75717915408313270000e-003) (20, -1.01308055222034450000e-001) (21, 5.79767003655433650000e-002) (22, -7.96471461653709410000e-002) (23, 5.12271709740161900000e-002) (24, -8.67962241172790530000e-002) (25, 6.14317208528518680000e-002) (26, -1.66512709110975270000e-002) (27, -6.35718256235122680000e-002) (28, 3.29743698239326480000e-002) (29, 3.28637212514877320000e-002) (30, -4.82998751103878020000e-002) (31, -7.47004076838493350000e-002) (32, 2.75216344743967060000e-002) (33, -2.83367075026035310000e-002) (34, 1.68976951390504840000e-002) (35, -1.71276424080133440000e-002) (36, -1.35659158229827880000e-001) (37, -8.15174877643585210000e-002) (38, -1.63815226405858990000e-002) (39, 2.48339213430881500000e-002) (40, -4.02270182967185970000e-002) (41, 7.33211860060691830000e-002) (42, 7.36340507864952090000e-002) (43, 2.54340805113315580000e-002) (44, -1.18486739695072170000e-001) (45, -6.41767159104347230000e-002) (46, -7.54641927778720860000e-003) (47, -8.46204720437526700000e-003) (48, -2.72447764873504640000e-002) (49, -1.27147644758224490000e-001) (50, -3.24926301836967470000e-002) (51, -4.76562678813934330000e-002) (52, 2.43132896721363070000e-002) (53, 8.20005238056182860000e-002) (54, -7.86451250314712520000e-002) (55, -6.18089921772480010000e-002) (56, 3.90769876539707180000e-002) (57, -5.22188246250152590000e-002) (58, -3.13427373766899110000e-002) (59, -1.79576307535171510000e-001) (0, -7.63298124074935910000e-002) (1, 6.44133538007736210000e-002) (2, -5.97538165748119350000e-002) (3, 3.65281812264584000000e-005) (4, 5.36002516746521000000e-002) (5, -9.09858103841543200000e-003) (6, -6.95018272381275890000e-004) (7, -4.21533063054084780000e-002) (8, -5.85766471922397610000e-002) (9, 1.22468275949358940000e-002) (10, -3.12975607812404630000e-002) (11, 5.33105209469795230000e-002) (12, 2.84842178225517270000e-002) (13, -4.30048331618309020000e-002) (14, -6.64257928729057310000e-002) (15, 8.78898613154888150000e-003) (16, 5.44128194451332090000e-002) (17, 5.89048936963081360000e-002) (18, -4.31758500635623930000e-002) (19, -3.53541672229766850000e-002) (20, 8.74620750546455380000e-002) (21, 6.38860538601875310000e-002) (22, -3.04319877177476880000e-002) (23, 8.05944353342056270000e-002) (24, 6.21586889028549190000e-002) (25, -8.79434049129486080000e-002) (26, -4.64513413608074190000e-002) (27, 8.42757225036621090000e-002) (28, -3.05457655340433120000e-002) (29, 2.54202038049697880000e-002) (30, -7.45234414935112000000e-002) (31, -7.72320106625556950000e-002) (32, 2.08578705787658690000e-002) (33, 8.84723961353302000000e-002) (34, 3.52838709950447080000e-002) (35, 8.42725932598114010000e-002) (36, 2.35830340534448620000e-002) (37, 1.02574400603771210000e-001) (38, -2.16586841270327570000e-003) (39, 8.16470608115196230000e-002) (40, 3.13072018325328830000e-002) (41, 9.37875583767890930000e-002) (42, 2.47544161975383760000e-002) (43, 8.48495736718177800000e-002) (44, 4.12901006639003750000e-002) (45, -9.32192131876945500000e-002) (46, 2.55695693194866180000e-002) (47, 4.55675683915615080000e-002) (48, 8.44071209430694580000e-002) (49, -8.49027782678604130000e-002) (50, -4.97762858867645260000e-002) (51, 3.01516056060791020000e-002) (52, 5.16385771334171300000e-002) (53, 3.18308137357234950000e-002) (54, -3.94839569926261900000e-002) (55, -2.65415329486131670000e-002) (56, -7.19759464263916020000e-002) (57, -7.99951106309890750000e-002) (58, 2.79203839600086210000e-002) (59, -7.10276961326599120000e-002) (60, 1.29118353128433230000e-001) (61, 1.74479648470878600000e-001) (62, 1.64122891426086430000e+000) (63, -3.06198745965957640000e-001) (64, 1.29598796367645260000e-001) (65, -4.81714189052581790000e-001) (66, 1.86653167009353640000e-001) (67, 1.31926834583282470000e-001) (68, 1.15504331886768340000e-001) (60, 3.12472283840179440000e-002) (61, 2.50089704990386960000e-001) (62, -1.31772840023040770000e+000) (63, 2.42583394050598140000e-001) (64, 1.64003029465675350000e-001) (65, 4.09162014722824100000e-001) (66, 4.92451228201389310000e-002) (67, 2.36894011497497560000e-001) (68, 3.36622416973114010000e-001) 
