FANN_FLO_2.1
num_layers=3
learning_rate=0.700000
connection_rate=1.000000
network_type=0
learning_momentum=0.000000
training_algorithm=3
train_error_function=1
train_stop_function=0
cascade_output_change_fraction=0.010000
quickprop_decay=-0.000100
quickprop_mu=1.750000
rprop_increase_factor=1.200000
rprop_decrease_factor=0.500000
rprop_delta_min=0.000000
rprop_delta_max=50.000000
rprop_delta_zero=0.100000
cascade_output_stagnation_epochs=12
cascade_candidate_change_fraction=0.010000
cascade_candidate_stagnation_epochs=12
cascade_max_out_epochs=150
cascade_max_cand_epochs=150
cascade_num_candidate_groups=2
bit_fail_limit=3.49999994039535520000e-001
cascade_candidate_limit=1.00000000000000000000e+003
cascade_weight_multiplier=4.00000005960464480000e-001
cascade_activation_functions_count=10
cascade_activation_functions=3 5 7 8 10 11 14 15 16 17 
cascade_activation_steepnesses_count=4
cascade_activation_steepnesses=2.50000000000000000000e-001 5.00000000000000000000e-001 7.50000000000000000000e-001 1.00000000000000000000e+000 
layer_sizes=60 9 3 
scale_included=0
neurons (num_inputs, activation_function, activation_steepness)=(0, 0, 0.00000000000000000000e+000) (0, 0, 0.00000000000000000000e+000) (0, 0, 0.00000000000000000000e+000) (0, 0, 0.00000000000000000000e+000) (0, 0, 0.00000000000000000000e+000) (0, 0, 0.00000000000000000000e+000) (0, 0, 0.00000000000000000000e+000) (0, 0, 0.00000000000000000000e+000) (0, 0, 0.00000000000000000000e+000) (0, 0, 0.00000000000000000000e+000) (0, 0, 0.00000000000000000000e+000) (0, 0, 0.00000000000000000000e+000) (0, 0, 0.00000000000000000000e+000) (0, 0, 0.00000000000000000000e+000) (0, 0, 0.00000000000000000000e+000) (0, 0, 0.00000000000000000000e+000) (0, 0, 0.00000000000000000000e+000) (0, 0, 0.00000000000000000000e+000) (0, 0, 0.00000000000000000000e+000) (0, 0, 0.00000000000000000000e+000) (0, 0, 0.00000000000000000000e+000) (0, 0, 0.00000000000000000000e+000) (0, 0, 0.00000000000000000000e+000) (0, 0, 0.00000000000000000000e+000) (0, 0, 0.00000000000000000000e+000) (0, 0, 0.00000000000000000000e+000) (0, 0, 0.00000000000000000000e+000) (0, 0, 0.00000000000000000000e+000) (0, 0, 0.00000000000000000000e+000) (0, 0, 0.00000000000000000000e+000) (0, 0, 0.00000000000000000000e+000) (0, 0, 0.00000000000000000000e+000) (0, 0, 0.00000000000000000000e+000) (0, 0, 0.00000000000000000000e+000) (0, 0, 0.00000000000000000000e+000) (0, 0, 0.00000000000000000000e+000) (0, 0, 0.00000000000000000000e+000) (0, 0, 0.00000000000000000000e+000) (0, 0, 0.00000000000000000000e+000) (0, 0, 0.00000000000000000000e+000) (0, 0, 0.00000000000000000000e+000) (0, 0, 0.00000000000000000000e+000) (0, 0, 0.00000000000000000000e+000) (0, 0, 0.00000000000000000000e+000) (0, 0, 0.00000000000000000000e+000) (0, 0, 0.00000000000000000000e+000) (0, 0, 0.00000000000000000000e+000) (0, 0, 0.00000000000000000000e+000) (0, 0, 0.00000000000000000000e+000) (0, 0, 0.00000000000000000000e+000) (0, 0, 0.00000000000000000000e+000) (0, 0, 0.00000000000000000000e+000) (0, 0, 0.00000000000000000000e+000) (0, 0, 0.00000000000000000000e+000) (0, 0, 0.00000000000000000000e+000) (0, 0, 0.00000000000000000000e+000) (0, 0, 0.00000000000000000000e+000) (0, 0, 0.00000000000000000000e+000) (0, 0, 0.00000000000000000000e+000) (0, 0, 0.00000000000000000000e+000) (60, 4, 1.10000002384185790000e+000) (60, 4, 1.10000002384185790000e+000) (60, 4, 1.10000002384185790000e+000) (60, 4, 1.10000002384185790000e+000) (60, 4, 1.10000002384185790000e+000) (60, 4, 1.10000002384185790000e+000) (60, 4, 1.10000002384185790000e+000) (60, 4, 1.10000002384185790000e+000) (0, 4, 1.10000002384185790000e+000) (9, 5, 1.00000000000000000000e+000) (9, 5, 1.00000000000000000000e+000) (0, 5, 1.00000000000000000000e+000) 
connections (connected_to_neuron, weight)=(0, -1.81758925318717960000e-002) (1, -6.56614825129508970000e-002) (2, 8.06986093521118160000e-002) (3, -1.28383783157914880000e-003) (4, 1.95421278476715090000e-003) (5, -6.50409981608390810000e-002) (6, -3.36080715060234070000e-002) (7, -7.53435939550399780000e-002) (8, -7.42241591215133670000e-002) (9, -3.92661280930042270000e-002) (10, -1.52062922716140750000e-002) (11, -3.02533935755491260000e-002) (12, 6.10215589404106140000e-003) (13, -7.79159218072891240000e-002) (14, 1.46938720718026160000e-002) (15, -6.17163032293319700000e-002) (16, -3.45526933670043950000e-002) (17, 4.75375913083553310000e-003) (18, -4.03028950095176700000e-002) (19, -7.97579586505889890000e-002) (20, 8.30947458744049070000e-002) (21, 2.20690499991178510000e-002) (22, -9.55378860235214230000e-002) (23, 6.98359683156013490000e-002) (24, 6.47455155849456790000e-002) (25, 8.45469534397125240000e-002) (26, 6.79037049412727360000e-002) (27, -1.17424346506595610000e-001) (28, 3.67618501186370850000e-002) (29, 7.00687570497393610000e-003) (30, -1.17487095296382900000e-001) (31, 2.53368243575096130000e-002) (32, -7.12061747908592220000e-002) (33, -5.69070540368556980000e-002) (34, -5.36839887499809270000e-002) (35, -8.34388434886932370000e-002) (36, 1.95604152977466580000e-002) (37, -5.95989637076854710000e-002) (38, -8.35024937987327580000e-002) (39, 4.55780886113643650000e-002) (40, 1.41993155702948570000e-002) (41, -8.66247937083244320000e-002) (42, -9.56315994262695310000e-002) (43, -1.48998545482754710000e-002) (44, 1.15751605480909350000e-002) (45, -1.30134955048561100000e-001) (46, -2.17878390103578570000e-002) (47, -1.01396970450878140000e-001) (48, 4.52091805636882780000e-002) (49, -6.06272332370281220000e-002) (50, 2.69446484744548800000e-002) (51, -8.97161886096000670000e-002) (52, 6.00058175623416900000e-002) (53, -3.31318899989128110000e-002) (54, 5.99371977150440220000e-002) (55, -4.10043597221374510000e-002) (56, -4.46745157241821290000e-002) (57, 4.49856929481029510000e-002) (58, 2.99855880439281460000e-002) (59, -2.53191798925399780000e-001) (0, -5.85859306156635280000e-002) (1, 4.97817713767290120000e-003) (2, -9.22365039587020870000e-002) (3, -1.63420271128416060000e-002) (4, 4.87959831953048710000e-002) (5, 3.89445982873439790000e-002) (6, 4.51119896024465560000e-003) (7, -4.73348312079906460000e-002) (8, -2.66294507309794430000e-003) (9, -1.90967842936515810000e-002) (10, 8.01709741353988650000e-002) (11, -4.71008531749248500000e-002) (12, 2.26519964635372160000e-002) (13, 8.83261561393737790000e-002) (14, 2.42044795304536820000e-002) (15, -3.95113322883844380000e-003) (16, 7.39002898335456850000e-002) (17, 2.24106758832931520000e-002) (18, 6.21443539857864380000e-002) (19, -1.15452078171074390000e-003) (20, 1.69623568654060360000e-002) (21, 1.85732915997505190000e-003) (22, -5.83941787481307980000e-002) (23, -4.97251264750957490000e-002) (24, -5.13056106865406040000e-002) (25, -3.20888943970203400000e-002) (26, 7.90566354990005490000e-002) (27, 9.91843058727681640000e-004) (28, -9.24161300063133240000e-002) (29, 2.01843436807394030000e-002) (30, 1.04891361843328920000e-004) (31, -3.49780432879924770000e-002) (32, -6.50798454880714420000e-002) (33, 9.32968929409980770000e-002) (34, 9.47303548455238340000e-002) (35, -5.23306839168071750000e-002) (36, 4.57256771624088290000e-002) (37, 4.98366653919219970000e-002) (38, 2.30402825400233270000e-003) (39, -3.55117544531822200000e-002) (40, -2.80689285136759280000e-003) (41, -3.45561839640140530000e-002) (42, -8.67343321442604060000e-002) (43, 9.23997685313224790000e-002) (44, 3.92852723598480220000e-002) (45, 1.20325898751616480000e-002) (46, -8.91444981098175050000e-002) (47, 7.63909518718719480000e-002) (48, -8.35495963692665100000e-002) (49, 8.97384062409400940000e-002) (50, 7.65955820679664610000e-003) (51, 3.52934338152408600000e-002) (52, -7.74483755230903630000e-002) (53, -3.85641828179359440000e-002) (54, 6.46824613213539120000e-002) (55, -8.49227234721183780000e-002) (56, 6.27499595284461980000e-002) (57, -5.34176006913185120000e-002) (58, 4.61753197014331820000e-002) (59, 3.71472015976905820000e-002) (0, -6.49535879492759700000e-002) (1, -6.38954788446426390000e-002) (2, 1.45786860957741740000e-002) (3, 8.99006612598896030000e-003) (4, -1.04651534929871560000e-002) (5, 5.97127862274646760000e-002) (6, -7.99883484840393070000e-001) (7, -1.18774674832820890000e-001) (8, -6.25208541750907900000e-002) (9, -1.98829025030136110000e-001) (10, 7.47160673141479490000e-001) (11, -3.65807265043258670000e-002) (12, -1.00743003189563750000e-001) (13, -2.99013257026672360000e-002) (14, -4.20147515833377840000e-002) (15, -2.15766370296478270000e-001) (16, 2.33993586152791980000e-002) (17, -2.87493299692869190000e-002) (18, -1.14156670868396760000e-001) (19, -3.15431773662567140000e-001) (20, -5.51167905330657960000e-001) (21, -2.52324730157852170000e-001) (22, 1.18174729868769650000e-002) (23, 1.51028141379356380000e-001) (24, 4.71423208713531490000e-001) (25, -2.60430514812469480000e-001) (26, -1.31825757026672360000e+000) (27, -1.33142694830894470000e-001) (28, -4.29018199443817140000e-001) (29, -3.65968346595764160000e-002) (30, -3.63174319267272950000e-001) (31, -8.40657278895378110000e-002) (32, -5.90647757053375240000e-001) (33, -3.26931297779083250000e-001) (34, -1.92294716835021970000e-002) (35, 8.69366005063056950000e-002) (36, 5.67047623917460440000e-003) (37, -2.44224295020103450000e-002) (38, 9.73632335662841800000e-002) (39, -4.46531742811203000000e-001) (40, -1.53540447354316710000e-001) (41, -9.92806404829025270000e-002) (42, 6.76992312073707580000e-002) (43, -1.04119336605072020000e+000) (44, -9.92350578308105470000e-001) (45, -2.12011650204658510000e-001) (46, -3.92694883048534390000e-002) (47, 1.66868358850479130000e-001) (48, 6.95117413997650150000e-002) (49, 8.05994868278503420000e-002) (50, -3.92610877752304080000e-001) (51, -9.22191292047500610000e-002) (52, -8.32158923149108890000e-002) (53, -1.18535244837403300000e-002) (54, -1.10843837261199950000e-001) (55, -8.06641653180122380000e-002) (56, -7.13423863053321840000e-002) (57, 8.82972553372383120000e-002) (58, 5.77951930463314060000e-002) (59, 1.32872611284255980000e-001) (0, -3.51872816681861880000e-002) (1, 1.94915011525154110000e-002) (2, 8.73953774571418760000e-002) (3, 6.50871247053146360000e-002) (4, 8.44121277332305910000e-002) (5, -2.05367486923933030000e-002) (6, -8.25750604271888730000e-002) (7, 9.29132476449012760000e-002) (8, 4.89382147789001460000e-002) (9, -6.63495734333992000000e-002) (10, -5.78838847577571870000e-002) (11, 9.22782197594642640000e-002) (12, -1.46373091265559200000e-002) (13, 1.02492887526750560000e-002) (14, 6.85765966773033140000e-003) (15, 2.10912879556417470000e-002) (16, 8.87516066431999210000e-002) (17, -7.64273405075073240000e-002) (18, -1.77040603011846540000e-002) (19, 1.69942844659090040000e-002) (20, 1.01204425096511840000e-001) (21, 1.11261960119009020000e-002) (22, -3.92466299235820770000e-002) (23, -4.36099730432033540000e-002) (24, 3.27254310250282290000e-002) (25, -7.26706758141517640000e-002) (26, 3.90339680016040800000e-002) (27, 4.91541102528572080000e-002) (28, 1.19752045720815660000e-002) (29, -5.14514446258544920000e-002) (30, 4.32627685368061070000e-002) (31, 6.09073862433433530000e-002) (32, 3.66124473512172700000e-002) (33, -6.00143671035766600000e-002) (34, -6.83061853051185610000e-002) (35, -4.09031771123409270000e-002) (36, -7.79938995838165280000e-002) (37, 7.53456428647041320000e-002) (38, 9.64734479784965520000e-002) (39, 3.74803841114044190000e-002) (40, -6.33821114897727970000e-002) (41, 4.82218973338603970000e-002) (42, -9.96448844671249390000e-002) (43, -8.18025097250938420000e-002) (44, 1.79380327463150020000e-002) (45, -7.04148411750793460000e-002) (46, 7.19808042049407960000e-002) (47, -8.53456705808639530000e-002) (48, 3.52684408426284790000e-002) (49, -1.03318087756633760000e-001) (50, -5.92039600014686580000e-002) (51, -7.09449034184217450000e-003) (52, -2.92082317173480990000e-002) (53, 2.44767703115940090000e-002) (54, -7.02174287289381030000e-003) (55, 3.72470729053020480000e-003) (56, 9.18688699603080750000e-002) (57, -1.87606993131339550000e-003) (58, -7.23820850253105160000e-002) (59, -1.16791091859340670000e-001) (0, 6.83668628334999080000e-002) (1, -5.27160912752151490000e-002) (2, 2.62473151087760930000e-002) (3, -6.22153393924236300000e-002) (4, -2.48867794871330260000e-002) (5, -6.69133737683296200000e-002) (6, -5.79661689698696140000e-002) (7, 1.95607244968414310000e-002) (8, -1.44961979240179060000e-002) (9, 4.43908460438251500000e-002) (10, -1.28957265987992290000e-002) (11, 7.27663636207580570000e-002) (12, -7.64672160148620610000e-002) (13, 3.86137403547763820000e-002) (14, 1.48948645219206810000e-002) (15, -5.31468167901039120000e-002) (16, -5.53634054958820340000e-002) (17, -7.54974829033017160000e-003) (18, -2.48127598315477370000e-002) (19, -9.38511937856674190000e-002) (20, 1.76311898976564410000e-002) (21, 4.76904921233654020000e-002) (22, -4.83923964202404020000e-002) (23, 2.59367767721414570000e-002) (24, -4.79228347539901730000e-002) (25, -8.21250900626182560000e-002) (26, 2.72120907902717590000e-002) (27, -5.72673464193940160000e-003) (28, -4.49593588709831240000e-002) (29, 9.68490615487098690000e-002) (30, 6.60170465707778930000e-002) (31, 2.94885644689202310000e-003) (32, 9.75869148969650270000e-002) (33, 8.05488675832748410000e-002) (34, 4.17823083698749540000e-002) (35, 5.12406714260578160000e-002) (36, -3.41329127550125120000e-002) (37, -6.12603984773159030000e-002) (38, 1.36270951479673390000e-002) (39, 8.17232578992843630000e-002) (40, -7.75966048240661620000e-002) (41, -2.60262861847877500000e-002) (42, 7.59695991873741150000e-002) (43, 7.33576118946075440000e-002) (44, 7.91893526911735530000e-002) (45, -3.27127724885940550000e-002) (46, 5.96853643655776980000e-002) (47, -3.91026698052883150000e-002) (48, -4.90394867956638340000e-002) (49, 2.77673043310642240000e-002) (50, 2.02526059001684190000e-002) (51, 1.83979049324989320000e-002) (52, -9.81876179575920100000e-002) (53, -9.23206955194473270000e-002) (54, -1.53912911191582680000e-002) (55, 5.18301203846931460000e-002) (56, -4.18892838060855870000e-002) (57, -2.68162041902542110000e-003) (58, -7.09404945373535160000e-002) (59, -5.82635700702667240000e-002) (0, -5.88980391621589660000e-002) (1, -1.10121276229619980000e-002) (2, -8.34901258349418640000e-003) (3, -2.81438939273357390000e-002) (4, -7.63684734702110290000e-002) (5, 6.29157945513725280000e-002) (6, 5.12866824865341190000e-002) (7, 1.08351498842239380000e-001) (8, 1.15547990426421170000e-002) (9, 6.43358305096626280000e-002) (10, 2.46850233525037770000e-002) (11, 3.51483635604381560000e-002) (12, 5.46669699251651760000e-002) (13, -7.83935412764549260000e-002) (14, 3.35759744048118590000e-002) (15, 4.35448773205280300000e-002) (16, -8.08724015951156620000e-002) (17, 1.24968225136399270000e-002) (18, -7.56391137838363650000e-002) (19, -2.91115287691354750000e-002) (20, -2.02365014702081680000e-002) (21, -1.84670891612768170000e-002) (22, 9.17542539536952970000e-003) (23, 2.55026016384363170000e-002) (24, 2.64510363340377810000e-002) (25, 1.09256245195865630000e-001) (26, -7.20205309335142370000e-004) (27, 2.11128052324056630000e-002) (28, 8.64211544394493100000e-002) (29, 5.02740368247032170000e-002) (30, 6.95651918649673460000e-002) (31, -4.29512970149517060000e-002) (32, 1.15962013602256770000e-001) (33, -1.29825267940759660000e-002) (34, 9.68269258737564090000e-003) (35, 5.36365844309329990000e-002) (36, -3.30939367413520810000e-002) (37, 4.72181849181652070000e-002) (38, -7.34933912754058840000e-002) (39, 5.70551194250583650000e-002) (40, 4.16525080800056460000e-002) (41, -6.67005106806755070000e-002) (42, 5.34204207360744480000e-002) (43, 9.77259315550327300000e-003) (44, 8.68953391909599300000e-003) (45, 6.13092146813869480000e-002) (46, -7.86705687642097470000e-002) (47, -8.98388251662254330000e-002) (48, -3.83905172348022460000e-002) (49, -8.56024771928787230000e-002) (50, -5.16281202435493470000e-002) (51, 1.34495235979557040000e-002) (52, -3.82513441145420070000e-002) (53, -4.09045405685901640000e-002) (54, 2.50451196916401390000e-003) (55, 5.06958784535527230000e-003) (56, 9.52027272433042530000e-003) (57, -7.62699097394943240000e-002) (58, -3.99678712710738180000e-003) (59, -9.25904735922813420000e-002) (0, 6.15447536110877990000e-002) (1, -8.69507268071174620000e-002) (2, -1.24635491520166400000e-002) (3, 7.96898826956748960000e-002) (4, 7.81413540244102480000e-002) (5, 3.62555608153343200000e-002) (6, -2.69065238535404210000e-002) (7, -6.65769800543785100000e-002) (8, 5.98724745213985440000e-002) (9, 1.57418157905340190000e-002) (10, -5.27031160891056060000e-002) (11, -3.62592898309230800000e-002) (12, 7.32701318338513370000e-003) (13, -2.22650505602359770000e-002) (14, -6.25999048352241520000e-002) (15, -1.21090561151504520000e-001) (16, 1.39897232875227930000e-002) (17, 4.60358220152556900000e-004) (18, 1.90140455961227420000e-002) (19, -1.70389618724584580000e-002) (20, -1.08959995210170750000e-001) (21, 3.96086238324642180000e-002) (22, -5.22992536425590520000e-002) (23, 7.84231647849082950000e-002) (24, -6.02308884263038640000e-002) (25, 7.00905174016952510000e-002) (26, 1.01698199287056920000e-002) (27, -7.18351677060127260000e-002) (28, 3.43493558466434480000e-002) (29, 4.43856753408908840000e-002) (30, -8.17109420895576480000e-002) (31, -8.30686986446380620000e-002) (32, 1.48998973891139030000e-002) (33, -4.50236611068248750000e-002) (34, 1.52136264368891720000e-002) (35, -1.06476088985800740000e-002) (36, -1.11323192715644840000e-001) (37, -8.01252424716949460000e-002) (38, 5.67959342151880260000e-003) (39, 1.50743185076862570000e-003) (40, -6.10054135322570800000e-002) (41, 5.67118152976036070000e-002) (42, 7.17309340834617610000e-002) (43, 6.99336640536785130000e-003) (44, -1.30318298935890200000e-001) (45, -8.41221958398818970000e-002) (46, -2.47991885989904400000e-002) (47, -9.25303436815738680000e-003) (48, -3.02290823310613630000e-002) (49, -1.12834624946117400000e-001) (50, -3.20338122546672820000e-002) (51, -2.45564542710781100000e-002) (52, 3.56384404003620150000e-002) (53, 8.05722549557685850000e-002) (54, -6.26138225197792050000e-002) (55, -5.60101158916950230000e-002) (56, 4.08888012170791630000e-002) (57, -5.49061298370361330000e-002) (58, -1.87812484800815580000e-002) (59, -1.91717937588691710000e-001) (0, -8.87058004736900330000e-002) (1, 6.39652013778686520000e-002) (2, -5.91385997831821440000e-002) (3, -1.16309616714715960000e-002) (4, 5.10020218789577480000e-002) (5, -7.43562309071421620000e-003) (6, 3.10592893511056900000e-002) (7, -3.79996709525585170000e-002) (8, -4.50088195502758030000e-002) (9, 2.96037625521421430000e-002) (10, -4.95876856148242950000e-002) (11, 5.54813109338283540000e-002) (12, 4.21319976449012760000e-002) (13, -3.50616760551929470000e-002) (14, -5.39481900632381440000e-002) (15, 3.36642898619174960000e-002) (16, 6.42187669873237610000e-002) (17, 6.12508952617645260000e-002) (18, -3.88242527842521670000e-002) (19, -1.79224815219640730000e-002) (20, 1.03888772428035740000e-001) (21, 8.38947072625160220000e-002) (22, -4.69103716313838960000e-002) (23, 6.71872571110725400000e-002) (24, 4.47122417390346530000e-002) (25, -8.31465050578117370000e-002) (26, -3.89220155775547030000e-002) (27, 1.00667655467987060000e-001) (28, -1.12739047035574910000e-002) (29, 2.53451876342296600000e-002) (30, 1.17447115480899810000e-001) (31, -7.65758231282234190000e-002) (32, 1.55937016010284420000e-001) (33, 1.12264417111873630000e-001) (34, 4.27146069705486300000e-002) (35, 8.65396484732627870000e-002) (36, 9.38007142394781110000e-003) (37, 1.10238432884216310000e-001) (38, -1.08732888475060460000e-002) (39, 1.08539454638957980000e-001) (40, 5.61765246093273160000e-002) (41, 1.13861180841922760000e-001) (42, 2.34021991491317750000e-002) (43, 1.10146440565586090000e-001) (44, 6.62322491407394410000e-002) (45, -6.89511075615882870000e-002) (46, 2.86655500531196590000e-002) (47, 4.66478168964385990000e-002) (48, 9.93716046214103700000e-002) (49, -9.63264107704162600000e-002) (50, -3.42130959033966060000e-002) (51, 2.71168109029531480000e-002) (52, 4.66421246528625490000e-002) (53, 3.59827913343906400000e-002) (54, -3.28110866248607640000e-002) (55, -2.74928491562604900000e-002) (56, -7.38101676106452940000e-002) (57, -8.25814083218574520000e-002) (58, 2.31411699205636980000e-002) (59, -7.87832364439964290000e-002) (60, 1.40852987766265870000e-001) (61, 1.24507576227188110000e-001) (62, 1.80590474605560300000e+000) (63, 2.18525361269712450000e-002) (64, 4.31479886174201970000e-002) (65, 1.29943701904267070000e-003) (66, 1.72264844179153440000e-001) (67, -3.77189189195632930000e-001) (68, 4.27369438111782070000e-002) (60, -5.50859654322266580000e-003) (61, 2.46599271893501280000e-001) (62, -1.84988081455230710000e+000) (63, 1.79526522755622860000e-001) (64, 1.90726473927497860000e-001) (65, 3.25070679187774660000e-001) (66, 2.58016511797904970000e-002) (67, 3.56426805257797240000e-001) (68, 4.20763313770294190000e-001) 
