FANN_FLO_2.1
num_layers=3
learning_rate=0.700000
connection_rate=1.000000
network_type=0
learning_momentum=0.000000
training_algorithm=3
train_error_function=1
train_stop_function=0
cascade_output_change_fraction=0.010000
quickprop_decay=-0.000100
quickprop_mu=1.750000
rprop_increase_factor=1.200000
rprop_decrease_factor=0.500000
rprop_delta_min=0.000000
rprop_delta_max=50.000000
rprop_delta_zero=0.100000
cascade_output_stagnation_epochs=12
cascade_candidate_change_fraction=0.010000
cascade_candidate_stagnation_epochs=12
cascade_max_out_epochs=150
cascade_max_cand_epochs=150
cascade_num_candidate_groups=2
bit_fail_limit=3.49999994039535520000e-001
cascade_candidate_limit=1.00000000000000000000e+003
cascade_weight_multiplier=4.00000005960464480000e-001
cascade_activation_functions_count=10
cascade_activation_functions=3 5 7 8 10 11 14 15 16 17 
cascade_activation_steepnesses_count=4
cascade_activation_steepnesses=2.50000000000000000000e-001 5.00000000000000000000e-001 7.50000000000000000000e-001 1.00000000000000000000e+000 
layer_sizes=60 9 3 
scale_included=0
neurons (num_inputs, activation_function, activation_steepness)=(0, 0, 0.00000000000000000000e+000) (0, 0, 0.00000000000000000000e+000) (0, 0, 0.00000000000000000000e+000) (0, 0, 0.00000000000000000000e+000) (0, 0, 0.00000000000000000000e+000) (0, 0, 0.00000000000000000000e+000) (0, 0, 0.00000000000000000000e+000) (0, 0, 0.00000000000000000000e+000) (0, 0, 0.00000000000000000000e+000) (0, 0, 0.00000000000000000000e+000) (0, 0, 0.00000000000000000000e+000) (0, 0, 0.00000000000000000000e+000) (0, 0, 0.00000000000000000000e+000) (0, 0, 0.00000000000000000000e+000) (0, 0, 0.00000000000000000000e+000) (0, 0, 0.00000000000000000000e+000) (0, 0, 0.00000000000000000000e+000) (0, 0, 0.00000000000000000000e+000) (0, 0, 0.00000000000000000000e+000) (0, 0, 0.00000000000000000000e+000) (0, 0, 0.00000000000000000000e+000) (0, 0, 0.00000000000000000000e+000) (0, 0, 0.00000000000000000000e+000) (0, 0, 0.00000000000000000000e+000) (0, 0, 0.00000000000000000000e+000) (0, 0, 0.00000000000000000000e+000) (0, 0, 0.00000000000000000000e+000) (0, 0, 0.00000000000000000000e+000) (0, 0, 0.00000000000000000000e+000) (0, 0, 0.00000000000000000000e+000) (0, 0, 0.00000000000000000000e+000) (0, 0, 0.00000000000000000000e+000) (0, 0, 0.00000000000000000000e+000) (0, 0, 0.00000000000000000000e+000) (0, 0, 0.00000000000000000000e+000) (0, 0, 0.00000000000000000000e+000) (0, 0, 0.00000000000000000000e+000) (0, 0, 0.00000000000000000000e+000) (0, 0, 0.00000000000000000000e+000) (0, 0, 0.00000000000000000000e+000) (0, 0, 0.00000000000000000000e+000) (0, 0, 0.00000000000000000000e+000) (0, 0, 0.00000000000000000000e+000) (0, 0, 0.00000000000000000000e+000) (0, 0, 0.00000000000000000000e+000) (0, 0, 0.00000000000000000000e+000) (0, 0, 0.00000000000000000000e+000) (0, 0, 0.00000000000000000000e+000) (0, 0, 0.00000000000000000000e+000) (0, 0, 0.00000000000000000000e+000) (0, 0, 0.00000000000000000000e+000) (0, 0, 0.00000000000000000000e+000) (0, 0, 0.00000000000000000000e+000) (0, 0, 0.00000000000000000000e+000) (0, 0, 0.00000000000000000000e+000) (0, 0, 0.00000000000000000000e+000) (0, 0, 0.00000000000000000000e+000) (0, 0, 0.00000000000000000000e+000) (0, 0, 0.00000000000000000000e+000) (0, 0, 0.00000000000000000000e+000) (60, 4, 1.10000002384185790000e+000) (60, 4, 1.10000002384185790000e+000) (60, 4, 1.10000002384185790000e+000) (60, 4, 1.10000002384185790000e+000) (60, 4, 1.10000002384185790000e+000) (60, 4, 1.10000002384185790000e+000) (60, 4, 1.10000002384185790000e+000) (60, 4, 1.10000002384185790000e+000) (0, 4, 1.10000002384185790000e+000) (9, 5, 1.00000000000000000000e+000) (9, 5, 1.00000000000000000000e+000) (0, 5, 1.00000000000000000000e+000) 
connections (connected_to_neuron, weight)=(0, -3.37058454751968380000e-002) (1, -6.83214962482452390000e-002) (2, 7.80053660273551940000e-002) (3, 5.19564235582947730000e-003) (4, 2.23966338671743870000e-003) (5, -7.16486349701881410000e-002) (6, -1.45250381901860240000e-002) (7, -8.83929878473281860000e-002) (8, -7.45885744690895080000e-002) (9, -5.52572496235370640000e-002) (10, -1.89082156866788860000e-002) (11, -2.90790572762489320000e-002) (12, -1.51554378680884840000e-003) (13, -8.72694849967956540000e-002) (14, 1.36583577841520310000e-002) (15, -6.96246773004531860000e-002) (16, -3.45900580286979680000e-002) (17, 1.85057856142520900000e-002) (18, -4.71513047814369200000e-002) (19, -7.77213051915168760000e-002) (20, 8.75900760293006900000e-002) (21, 3.52026149630546570000e-002) (22, -9.83454883098602290000e-002) (23, 6.69707581400871280000e-002) (24, 6.04451335966587070000e-002) (25, 8.36139023303985600000e-002) (26, 7.69991502165794370000e-002) (27, -1.02855943143367770000e-001) (28, 3.44695821404457090000e-002) (29, 6.13948469981551170000e-003) (30, -9.27311182022094730000e-002) (31, 4.51573804020881650000e-002) (32, -5.41115291416645050000e-002) (33, -4.96749021112918850000e-002) (34, -4.06880006194114690000e-002) (35, -8.81193056702613830000e-002) (36, 2.70521435886621480000e-002) (37, -5.08797280490398410000e-002) (38, -7.63999521732330320000e-002) (39, 6.30860924720764160000e-002) (40, 2.95227095484733580000e-002) (41, -6.46877810359001160000e-002) (42, -8.91695022583007810000e-002) (43, -9.73313581198453900000e-004) (44, 2.63085663318634030000e-002) (45, -1.12432487308979030000e-001) (46, -1.58591866493225100000e-002) (47, -1.15336775779724120000e-001) (48, 4.30084392428398130000e-002) (49, -5.63863627612590790000e-002) (50, 2.31913458555936810000e-002) (51, -9.38717722892761230000e-002) (52, 6.64556175470352170000e-002) (53, -3.17772738635540010000e-002) (54, 7.57922977209091190000e-002) (55, -3.80323119461536410000e-002) (56, -4.85210381448268890000e-002) (57, 3.70290689170360570000e-002) (58, 6.41965866088867190000e-003) (59, -1.93768888711929320000e-001) (0, -7.12189599871635440000e-002) (1, -3.11230309307575230000e-003) (2, -1.06420278549194340000e-001) (3, -1.31942396983504300000e-002) (4, 4.56706769764423370000e-002) (5, 2.56675854325294490000e-002) (6, -4.92539582774043080000e-003) (7, -6.66036382317543030000e-002) (8, -2.21212040632963180000e-002) (9, -6.41208812594413760000e-002) (10, 6.84464499354362490000e-002) (11, -5.92267215251922610000e-002) (12, 7.94541370123624800000e-003) (13, 6.58447667956352230000e-002) (14, -7.35755776986479760000e-003) (15, -3.93168069422245030000e-002) (16, 5.82136474549770360000e-002) (17, 3.86566370725631710000e-002) (18, 6.15220740437507630000e-002) (19, -8.34036327432841060000e-004) (20, 6.46073929965496060000e-003) (21, -1.80886071175336840000e-002) (22, -6.12313635647296910000e-002) (23, -5.87492920458316800000e-002) (24, -4.64464165270328520000e-002) (25, -3.26402224600315090000e-002) (26, 8.77297595143318180000e-002) (27, 2.13464032858610150000e-002) (28, -1.04690290987491610000e-001) (29, 1.95849314332008360000e-002) (30, 8.32931790500879290000e-003) (31, -2.62214336544275280000e-002) (32, -5.58470338582992550000e-002) (33, 9.69422161579132080000e-002) (34, 9.16784778237342830000e-002) (35, -6.48966506123542790000e-002) (36, 4.34283390641212460000e-002) (37, 5.92613779008388520000e-002) (38, 1.57562009990215300000e-002) (39, -2.23526619374752040000e-002) (40, 6.51381211355328560000e-003) (41, -3.47568131983280180000e-002) (42, -7.20422565937042240000e-002) (43, 1.17654636502265930000e-001) (44, 5.22117726504802700000e-002) (45, 2.97967214137315750000e-002) (46, -8.74087437987327580000e-002) (47, 7.67122730612754820000e-002) (48, -6.29954785108566280000e-002) (49, 9.31472405791282650000e-002) (50, 5.83588960580527780000e-004) (51, 3.79553101956844330000e-002) (52, -6.86777681112289430000e-002) (53, -3.39647196233272550000e-002) (54, 8.99614095687866210000e-002) (55, -8.57937857508659360000e-002) (56, 5.60650043189525600000e-002) (57, -5.65282814204692840000e-002) (58, 2.48972289264202120000e-002) (59, 5.06590455770492550000e-002) (0, -8.04404914379119870000e-002) (1, -8.12104791402816770000e-002) (2, -2.28606741875410080000e-002) (3, -2.13102892041206360000e-001) (4, 1.22773163020610810000e-001) (5, 2.69355420023202900000e-002) (6, -1.81543767452239990000e-001) (7, -1.94334462285041810000e-001) (8, 6.13246709108352660000e-002) (9, 1.10267870128154750000e-001) (10, 8.99837091565132140000e-002) (11, -1.07092903926968570000e-002) (12, -5.95945529639720920000e-002) (13, 2.97268237918615340000e-002) (14, 8.45978502184152600000e-003) (15, -1.00674256682395940000e-001) (16, 5.24283424019813540000e-002) (17, -4.41461443901062010000e-001) (18, -2.24109888076782230000e-001) (19, 6.35104477405548100000e-002) (20, 1.40169281512498860000e-002) (21, -2.97998845577239990000e-001) (22, 5.62004387378692630000e-001) (23, 3.13057720661163330000e-001) (24, -1.32509425282478330000e-001) (25, 4.66418303549289700000e-002) (26, -3.73268038034439090000e-001) (27, -7.30917930603027340000e-001) (28, -2.47838899493217470000e-001) (29, 3.85171337984502320000e-003) (30, -1.20029300451278690000e-001) (31, -7.88151174783706670000e-002) (32, 2.22538441419601440000e-001) (33, -5.50811171531677250000e-001) (34, -3.38875837624073030000e-002) (35, 9.01298969984054570000e-002) (36, 2.50707954168319700000e-001) (37, 2.04900130629539490000e-002) (38, 7.83801972866058350000e-002) (39, 1.19657449424266820000e-001) (40, -1.33933275938034060000e-001) (41, 3.41884344816207890000e-002) (42, -1.29081876948475840000e-002) (43, -7.31149137020111080000e-001) (44, -3.70295941829681400000e-002) (45, -1.23642422258853910000e-001) (46, -1.62464343011379240000e-002) (47, -1.91608443856239320000e-001) (48, -9.60521101951599120000e-002) (49, -3.34225557744503020000e-002) (50, 7.47579932212829590000e-002) (51, -1.84698000550270080000e-001) (52, -1.21936045587062840000e-001) (53, -2.04787440598011020000e-002) (54, -1.29999423027038570000e+000) (55, -6.48641884326934810000e-002) (56, 1.80979326367378230000e-001) (57, 7.59692341089248660000e-002) (58, 1.06389388442039490000e-001) (59, -2.01407238841056820000e-001) (0, -5.29081560671329500000e-002) (1, 1.32398223504424100000e-002) (2, 7.62159377336502080000e-002) (3, 6.49255812168121340000e-002) (4, 8.06941241025924680000e-002) (5, -3.59738357365131380000e-002) (6, -9.96711477637290950000e-002) (7, 6.48594647645950320000e-002) (8, 3.00930589437484740000e-002) (9, -1.03502340614795680000e-001) (10, -5.89805245399475100000e-002) (11, 8.16547945141792300000e-002) (12, -3.49602438509464260000e-002) (13, -6.56861020252108570000e-003) (14, -1.55169432982802390000e-002) (15, -1.21199591085314750000e-002) (16, 7.50124156475067140000e-002) (17, -7.39921927452087400000e-002) (18, -2.86772623658180240000e-002) (19, 9.51795186847448350000e-003) (20, 8.85730311274528500000e-002) (21, -8.35542473942041400000e-003) (22, -3.93973067402839660000e-002) (23, -4.52494286000728610000e-002) (24, 2.94819157570600510000e-002) (25, -7.86766856908798220000e-002) (26, 3.24772521853446960000e-002) (27, 5.02617396414279940000e-002) (28, -1.06276851147413250000e-002) (29, -5.65443672239780430000e-002) (30, 3.41613180935382840000e-002) (31, 6.35379031300544740000e-002) (32, 3.81974577903747560000e-002) (33, -6.84542655944824220000e-002) (34, -6.90519586205482480000e-002) (35, -4.85887005925178530000e-002) (36, -7.72419124841690060000e-002) (37, 7.38051682710647580000e-002) (38, 1.03816725313663480000e-001) (39, 4.04043756425380710000e-002) (40, -6.98373541235923770000e-002) (41, 4.34562377631664280000e-002) (42, -9.53163653612136840000e-002) (43, -8.01270529627799990000e-002) (44, 1.42916711047291760000e-002) (45, -7.54369273781776430000e-002) (46, 6.96087628602981570000e-002) (47, -9.63472202420234680000e-002) (48, 2.97214705497026440000e-002) (49, -1.04246363043785100000e-001) (50, -7.75393173098564150000e-002) (51, -1.72026678919792180000e-002) (52, -3.24747115373611450000e-002) (53, 2.52205338329076770000e-002) (54, -1.22640002518892290000e-003) (55, 1.29253044724464420000e-003) (56, 8.35324302315711980000e-002) (57, -3.43537656590342520000e-003) (58, -9.92891862988471980000e-002) (59, -1.06017939746379850000e-001) (0, 4.94739599525928500000e-002) (1, -6.59785345196723940000e-002) (2, 8.30634403973817830000e-003) (3, -7.00725391507148740000e-002) (4, -2.26055122911930080000e-002) (5, -8.15604999661445620000e-002) (6, -4.85934652388095860000e-002) (7, -1.59145910292863850000e-002) (8, -2.24445834755897520000e-002) (9, 3.16513702273368840000e-002) (10, -1.06992237269878390000e-002) (11, 5.75772523880004880000e-002) (12, -1.04914300143718720000e-001) (13, 3.32342647016048430000e-002) (14, -3.68139659985899930000e-003) (15, -9.39018651843070980000e-002) (16, -7.07129836082458500000e-002) (17, -8.22727847844362260000e-003) (18, -4.64636199176311490000e-002) (19, -9.62827652692794800000e-002) (20, 1.89916901290416720000e-002) (21, 1.85516085475683210000e-002) (22, -3.80374491214752200000e-002) (23, 3.43666821718215940000e-002) (24, -6.12571649253368380000e-002) (25, -7.32549801468849180000e-002) (26, 1.75221487879753110000e-002) (27, -8.78218282014131550000e-003) (28, -2.41769343614578250000e-001) (29, 1.00622616708278660000e-001) (30, 5.46447038650512700000e-002) (31, -3.43708181753754620000e-003) (32, 1.49292692542076110000e-001) (33, 9.22993496060371400000e-002) (34, 3.93856652081012730000e-002) (35, 4.18039225041866300000e-002) (36, -2.28616595268249510000e-002) (37, -6.31795600056648250000e-002) (38, 2.87875477224588390000e-002) (39, 1.14781610667705540000e-001) (40, -8.17247256636619570000e-002) (41, -1.76771879196166990000e-002) (42, 9.26606133580207820000e-002) (43, -1.03471532464027400000e-001) (44, 7.49359428882598880000e-002) (45, -4.78323847055435180000e-002) (46, 6.67082667350769040000e-002) (47, -1.57719999551773070000e-001) (48, -1.48190587759017940000e-001) (49, 2.79145911335945130000e-002) (50, 2.25631762295961380000e-002) (51, 1.36899366043508050000e-003) (52, -1.02495446801185610000e-001) (53, -9.31579470634460450000e-002) (54, -2.08469852805137630000e-002) (55, 5.46257235109806060000e-002) (56, -4.74738664925098420000e-002) (57, -3.29341297037899490000e-003) (58, -8.38942900300025940000e-002) (59, -4.66918535530567170000e-002) (0, -8.00445973873138430000e-002) (1, -3.18760201334953310000e-002) (2, -2.77963522821664810000e-002) (3, -3.56010645627975460000e-001) (4, -6.48814067244529720000e-002) (5, 6.41770362854003910000e-002) (6, 5.58750107884407040000e-002) (7, 9.01602953672409060000e-002) (8, 2.23692767322063450000e-002) (9, 7.89670050144195560000e-002) (10, 6.15292601287364960000e-002) (11, 1.08796404674649240000e-002) (12, 1.46171730011701580000e-002) (13, -6.37703388929367070000e-002) (14, 2.43107136338949200000e-002) (15, 9.94692090898752210000e-003) (16, -1.01928606629371640000e-001) (17, -6.37817263603210450000e-001) (18, -1.26712560653686520000e-001) (19, -2.94622220098972320000e-002) (20, -2.26779710501432420000e-002) (21, -4.31451797485351560000e-002) (22, 2.05808654427528380000e-002) (23, 2.90061607956886290000e-002) (24, -5.94635345041751860000e-002) (25, 1.21856428682804110000e-001) (26, -2.46990192681550980000e-002) (27, -5.00163257122039790000e-001) (28, -3.96910101175308230000e-001) (29, 4.71327379345893860000e-002) (30, 3.56477797031402590000e-002) (31, -4.46722917258739470000e-002) (32, 1.37676581740379330000e-001) (33, -8.89762863516807560000e-003) (34, 1.06981620192527770000e-002) (35, 5.58664947748184200000e-002) (36, -2.63378452509641650000e-002) (37, 3.16222198307514190000e-002) (38, -6.23071826994419100000e-002) (39, 7.32874572277069090000e-002) (40, 3.40453796088695530000e-002) (41, -6.67073279619216920000e-002) (42, -8.93110781908035280000e-003) (43, -7.74566602706909180000e+000) (44, -1.62119381129741670000e-002) (45, 4.02881167829036710000e-002) (46, -5.88262341916561130000e-002) (47, -8.98367643356323240000e-001) (48, -8.34659099578857420000e-001) (49, -7.76418969035148620000e-002) (50, -4.64160591363906860000e-002) (51, -2.60082840919494630000e-001) (52, -4.55081313848495480000e-002) (53, -4.19521145522594450000e-002) (54, -8.65221202373504640000e-001) (55, -7.06910993903875350000e-003) (56, -9.55235306173563000000e-003) (57, -6.60518258810043330000e-002) (58, -1.00189168006181720000e-002) (59, 1.12128525972366330000e-001) (0, 4.62773889303207400000e-002) (1, -7.21845626831054690000e-002) (2, 1.07981279492378230000e-001) (3, 6.33036494255065920000e-001) (4, -8.33420336246490480000e-001) (5, -7.64569818973541260000e-001) (6, -3.29396665096282960000e-001) (7, -4.92062233388423920000e-003) (8, -8.35732892155647280000e-002) (9, -4.00385260581970210000e-001) (10, -1.71523106098175050000e+000) (11, -1.67924328707158570000e-003) (12, 3.09366673231124880000e-001) (13, -2.14056625962257390000e-001) (14, -3.40250432491302490000e-001) (15, -2.69370954483747480000e-002) (16, 1.09767261892557140000e-002) (17, 1.57587563991546630000e+000) (18, 3.81350934505462650000e-001) (19, -7.19149261713027950000e-002) (20, -9.53837513923645020000e-001) (21, 8.71934592723846440000e-001) (22, -7.46166050434112550000e-001) (23, -2.19390437006950380000e-001) (24, 5.87105333805084230000e-001) (25, -2.14093048125505450000e-002) (26, 1.19442260265350340000e+000) (27, 3.24589788913726810000e-001) (28, 1.35544264316558840000e+000) (29, -8.96883979439735410000e-002) (30, -1.76716316491365430000e-002) (31, -4.90643875673413280000e-003) (32, -7.64234304428100590000e+000) (33, -1.57958340644836430000e+000) (34, 3.05057838559150700000e-002) (35, -3.97288560867309570000e-001) (36, -3.73893141746521000000e-001) (37, -6.56727999448776250000e-002) (38, -1.45103168487548830000e+000) (39, -1.70647203922271730000e+000) (40, -1.11731290817260740000e-001) (41, -3.85860167443752290000e-002) (42, 1.87812864780426030000e-001) (43, 1.31484103202819820000e+000) (44, -9.69672948122024540000e-002) (45, 3.72763335704803470000e-001) (46, -3.01675021648406980000e-001) (47, 2.41896438598632810000e+000) (48, 6.93106055259704590000e-001) (49, -2.97246873378753660000e-001) (50, -4.80154871940612790000e-001) (51, 6.19768559932708740000e-001) (52, 2.41100892424583440000e-001) (53, 3.90082858502864840000e-002) (54, 5.55154979228973390000e-001) (55, -1.83133091777563100000e-002) (56, 1.71911537647247310000e-001) (57, -9.42576900124549870000e-002) (58, -7.79096364974975590000e-001) (59, -2.39880755543708800000e-001) (0, -1.04907251894474030000e-001) (1, 5.56501075625419620000e-002) (2, -7.64242559671401980000e-002) (3, -8.96110199391841890000e-003) (4, 4.69883456826210020000e-002) (5, -2.62572150677442550000e-002) (6, -3.28367832116782670000e-003) (7, -7.63975679874420170000e-002) (8, -7.40481093525886540000e-002) (9, -1.30016319453716280000e-002) (10, -3.48861739039421080000e-002) (11, 3.36398072540760040000e-002) (12, 4.33697085827589040000e-003) (13, -5.36492057144641880000e-002) (14, -8.34666192531585690000e-002) (15, -1.97975113987922670000e-002) (16, 3.61739024519920350000e-002) (17, 5.45949935913085940000e-002) (18, -6.14745467901229860000e-002) (19, -3.25544886291027070000e-002) (20, 8.40978547930717470000e-002) (21, 4.23748306930065160000e-002) (22, -3.63321714103221890000e-002) (23, 7.29715377092361450000e-002) (24, 4.73708622157573700000e-002) (25, -8.96298736333847050000e-002) (26, -6.16747364401817320000e-002) (27, 8.64821895956993100000e-002) (28, -6.05227127671241760000e-002) (29, 2.31469664722681050000e-002) (30, -7.94700309634208680000e-002) (31, -7.74040222167968750000e-002) (32, 3.58101464807987210000e-002) (33, 9.06435102224349980000e-002) (34, 3.47873196005821230000e-002) (35, 7.81662985682487490000e-002) (36, 1.73820331692695620000e-002) (37, 1.01612150669097900000e-001) (38, 6.05746929068118330000e-004) (39, 1.01539313793182370000e-001) (40, 3.38540822267532350000e-002) (41, 9.72542613744735720000e-002) (42, -2.51140426844358440000e-002) (43, 1.00355647504329680000e-001) (44, 4.48590628802776340000e-002) (45, -9.65163707733154300000e-002) (46, 3.53896543383598330000e-002) (47, -1.56414657831192020000e-001) (48, -1.81676104664802550000e-001) (49, -9.00460630655288700000e-002) (50, -5.11130616068840030000e-002) (51, -6.91848248243331910000e-002) (52, 4.29253317415714260000e-002) (53, 3.62944938242435460000e-002) (54, -4.28216680884361270000e-002) (55, -3.47882471978664400000e-002) (56, -8.48092213273048400000e-002) (57, -7.67898410558700560000e-002) (58, 9.13562346249818800000e-003) (59, -9.32489559054374690000e-002) (60, 3.68220694363117220000e-002) (61, 2.02643692493438720000e-001) (62, -9.11657989025115970000e-001) (63, 7.33809173107147220000e-002) (64, -5.87678188458085060000e-003) (65, -1.65492377709597350000e-003) (66, 1.26591777801513670000e+000) (67, 8.10947865247726440000e-002) (68, -2.80656069517135620000e-002) (60, 1.11388996243476870000e-001) (61, 2.51901179552078250000e-001) (62, 1.69430291652679440000e+000) (63, 1.71714529395103450000e-001) (64, 4.10110682249069210000e-001) (65, 2.33507680892944340000e+000) (66, -1.05976593494415280000e+000) (67, 2.70488262176513670000e-001) (68, 3.68327975273132320000e-001) 
