FANN_FLO_2.1
num_layers=3
learning_rate=0.700000
connection_rate=1.000000
network_type=0
learning_momentum=0.000000
training_algorithm=3
train_error_function=1
train_stop_function=0
cascade_output_change_fraction=0.010000
quickprop_decay=-0.000100
quickprop_mu=1.750000
rprop_increase_factor=1.200000
rprop_decrease_factor=0.500000
rprop_delta_min=0.000000
rprop_delta_max=50.000000
rprop_delta_zero=0.100000
cascade_output_stagnation_epochs=12
cascade_candidate_change_fraction=0.010000
cascade_candidate_stagnation_epochs=12
cascade_max_out_epochs=150
cascade_max_cand_epochs=150
cascade_num_candidate_groups=2
bit_fail_limit=3.49999994039535520000e-001
cascade_candidate_limit=1.00000000000000000000e+003
cascade_weight_multiplier=4.00000005960464480000e-001
cascade_activation_functions_count=10
cascade_activation_functions=3 5 7 8 10 11 14 15 16 17 
cascade_activation_steepnesses_count=4
cascade_activation_steepnesses=2.50000000000000000000e-001 5.00000000000000000000e-001 7.50000000000000000000e-001 1.00000000000000000000e+000 
layer_sizes=60 9 3 
scale_included=0
neurons (num_inputs, activation_function, activation_steepness)=(0, 0, 0.00000000000000000000e+000) (0, 0, 0.00000000000000000000e+000) (0, 0, 0.00000000000000000000e+000) (0, 0, 0.00000000000000000000e+000) (0, 0, 0.00000000000000000000e+000) (0, 0, 0.00000000000000000000e+000) (0, 0, 0.00000000000000000000e+000) (0, 0, 0.00000000000000000000e+000) (0, 0, 0.00000000000000000000e+000) (0, 0, 0.00000000000000000000e+000) (0, 0, 0.00000000000000000000e+000) (0, 0, 0.00000000000000000000e+000) (0, 0, 0.00000000000000000000e+000) (0, 0, 0.00000000000000000000e+000) (0, 0, 0.00000000000000000000e+000) (0, 0, 0.00000000000000000000e+000) (0, 0, 0.00000000000000000000e+000) (0, 0, 0.00000000000000000000e+000) (0, 0, 0.00000000000000000000e+000) (0, 0, 0.00000000000000000000e+000) (0, 0, 0.00000000000000000000e+000) (0, 0, 0.00000000000000000000e+000) (0, 0, 0.00000000000000000000e+000) (0, 0, 0.00000000000000000000e+000) (0, 0, 0.00000000000000000000e+000) (0, 0, 0.00000000000000000000e+000) (0, 0, 0.00000000000000000000e+000) (0, 0, 0.00000000000000000000e+000) (0, 0, 0.00000000000000000000e+000) (0, 0, 0.00000000000000000000e+000) (0, 0, 0.00000000000000000000e+000) (0, 0, 0.00000000000000000000e+000) (0, 0, 0.00000000000000000000e+000) (0, 0, 0.00000000000000000000e+000) (0, 0, 0.00000000000000000000e+000) (0, 0, 0.00000000000000000000e+000) (0, 0, 0.00000000000000000000e+000) (0, 0, 0.00000000000000000000e+000) (0, 0, 0.00000000000000000000e+000) (0, 0, 0.00000000000000000000e+000) (0, 0, 0.00000000000000000000e+000) (0, 0, 0.00000000000000000000e+000) (0, 0, 0.00000000000000000000e+000) (0, 0, 0.00000000000000000000e+000) (0, 0, 0.00000000000000000000e+000) (0, 0, 0.00000000000000000000e+000) (0, 0, 0.00000000000000000000e+000) (0, 0, 0.00000000000000000000e+000) (0, 0, 0.00000000000000000000e+000) (0, 0, 0.00000000000000000000e+000) (0, 0, 0.00000000000000000000e+000) (0, 0, 0.00000000000000000000e+000) (0, 0, 0.00000000000000000000e+000) (0, 0, 0.00000000000000000000e+000) (0, 0, 0.00000000000000000000e+000) (0, 0, 0.00000000000000000000e+000) (0, 0, 0.00000000000000000000e+000) (0, 0, 0.00000000000000000000e+000) (0, 0, 0.00000000000000000000e+000) (0, 0, 0.00000000000000000000e+000) (60, 4, 1.10000002384185790000e+000) (60, 4, 1.10000002384185790000e+000) (60, 4, 1.10000002384185790000e+000) (60, 4, 1.10000002384185790000e+000) (60, 4, 1.10000002384185790000e+000) (60, 4, 1.10000002384185790000e+000) (60, 4, 1.10000002384185790000e+000) (60, 4, 1.10000002384185790000e+000) (0, 4, 1.10000002384185790000e+000) (9, 5, 1.00000000000000000000e+000) (9, 5, 1.00000000000000000000e+000) (0, 5, 1.00000000000000000000e+000) 
connections (connected_to_neuron, weight)=(0, -2.88363415747880940000e-002) (1, -7.00151771306991580000e-002) (2, 8.39240849018096920000e-002) (3, 3.27793811447918420000e-003) (4, 2.74995894869789480000e-004) (5, -7.62928277254104610000e-002) (6, -1.84862203896045680000e-002) (7, -8.85634273290634160000e-002) (8, -7.70411789417266850000e-002) (9, -4.39693257212638850000e-002) (10, -2.97693721950054170000e-002) (11, -2.79592797160148620000e-002) (12, 1.50345424190163610000e-002) (13, -7.62379691004753110000e-002) (14, 2.82310768961906430000e-002) (15, -5.26674762368202210000e-002) (16, -2.78622787445783620000e-002) (17, 1.19616771116852760000e-002) (18, -3.30673493444919590000e-002) (19, -6.61761164665222170000e-002) (20, 8.25553387403488160000e-002) (21, 4.06654290854930880000e-002) (22, -1.01119518280029300000e-001) (23, 7.28672742843627930000e-002) (24, 5.96210435032844540000e-002) (25, 7.80887082219123840000e-002) (26, 6.51368871331214900000e-002) (27, -1.23627170920372010000e-001) (28, 2.50200927257537840000e-002) (29, -1.15379998460412030000e-002) (30, -1.01765424013137820000e-001) (31, 2.65065245330333710000e-002) (32, -8.03348124027252200000e-002) (33, -6.04636967182159420000e-002) (34, -4.79970276355743410000e-002) (35, -7.84949362277984620000e-002) (36, 2.55019143223762510000e-002) (37, -5.20691424608230590000e-002) (38, -8.42580571770668030000e-002) (39, 4.18213270604610440000e-002) (40, 2.21173856407403950000e-002) (41, -6.13801069557666780000e-002) (42, -1.01499900221824650000e-001) (43, -4.14539501070976260000e-003) (44, 1.83589700609445570000e-002) (45, -1.11635796725749970000e-001) (46, -2.25355066359043120000e-002) (47, -1.22446954250335690000e-001) (48, 4.38280031085014340000e-002) (49, -5.17894364893436430000e-002) (50, 2.12506633251905440000e-002) (51, -1.03618361055850980000e-001) (52, 7.63564929366111760000e-002) (53, -3.59325483441352840000e-002) (54, 5.13437390327453610000e-002) (55, -4.18672598898410800000e-002) (56, -4.87515032291412350000e-002) (57, 4.15452159941196440000e-002) (58, 5.97901036962866780000e-003) (59, -2.26812049746513370000e-001) (0, -8.23330283164978030000e-002) (1, 2.06007994711399080000e-003) (2, -1.04214474558830260000e-001) (3, -5.15722390264272690000e-003) (4, 4.79014329612255100000e-002) (5, 3.98278310894966130000e-002) (6, 1.87633670866489410000e-002) (7, -4.63359989225864410000e-002) (8, 4.58675343543291090000e-003) (9, 1.94072499871253970000e-002) (10, 1.14742964506149290000e-001) (11, -3.71984317898750310000e-002) (12, 2.25640796124935150000e-002) (13, 8.88310596346855160000e-002) (14, 3.32146510481834410000e-002) (15, -3.76535346731543540000e-003) (16, 7.02690109610557560000e-002) (17, 1.49259269237518310000e-002) (18, 4.75257821381092070000e-002) (19, -4.10052716732025150000e-001) (20, 1.45193571224808690000e-002) (21, -2.09758263081312180000e-002) (22, -6.75541236996650700000e-002) (23, -3.36556397378444670000e-002) (24, -1.22647732496261600000e-001) (25, -3.33904057741165160000e-001) (26, 5.27914687991142270000e-002) (27, 6.14684028550982480000e-003) (28, -9.69693362712860110000e-002) (29, 2.50599789433181290000e-003) (30, -1.77680607885122300000e-002) (31, -5.44720031321048740000e-002) (32, -8.02105516195297240000e-002) (33, 1.05156444013118740000e-001) (34, 8.89108777046203610000e-002) (35, -6.88075646758079530000e-002) (36, 2.98315715044736860000e-002) (37, 2.60996632277965550000e-002) (38, 4.81182988733053210000e-003) (39, -5.00756427645683290000e-002) (40, -1.17877386510372160000e-002) (41, -4.20298911631107330000e-002) (42, -9.98630523681640630000e-002) (43, 8.55914354324340820000e-002) (44, 4.38588373363018040000e-002) (45, -1.75082404166460040000e-002) (46, -1.00515931844711300000e-001) (47, 6.53141587972640990000e-002) (48, -1.00043877959251400000e-001) (49, 7.62892737984657290000e-002) (50, -3.36729437112808230000e-002) (51, 1.44294276833534240000e-002) (52, -7.25312903523445130000e-002) (53, -4.98411916196346280000e-002) (54, 8.23351666331291200000e-002) (55, -8.60703587532043460000e-002) (56, 6.03650547564029690000e-002) (57, -6.62027224898338320000e-002) (58, 8.37610010057687760000e-003) (59, 2.86593735218048100000e-002) (0, -7.37728402018547060000e-002) (1, 6.62001362070441250000e-003) (2, 1.55085623264312740000e-002) (3, 6.99036493897438050000e-002) (4, 2.11980789899826050000e-001) (5, 1.67536690831184390000e-001) (6, 1.06637798249721530000e-001) (7, -3.11913620680570600000e-002) (8, 9.59826260805130000000e-002) (9, 1.26287519931793210000e-001) (10, 1.62099972367286680000e-001) (11, 3.31971533596515660000e-002) (12, -1.59419346600770950000e-002) (13, 5.30110411345958710000e-002) (14, 1.44420312717556950000e-002) (15, -1.95080235600471500000e-001) (16, -1.13043762743473050000e-001) (17, 1.29035478457808490000e-002) (18, -1.33741274476051330000e-001) (19, -4.52014029026031490000e-001) (20, 4.48048740625381470000e-001) (21, -1.33126750588417050000e-001) (22, -4.89369817078113560000e-002) (23, 3.16125988960266110000e-001) (24, -1.70579284429550170000e-001) (25, -8.46041664481163020000e-002) (26, 5.40433935821056370000e-002) (27, 8.23875740170478820000e-002) (28, 8.35076645016670230000e-002) (29, 2.91038537397980690000e-003) (30, -1.03256635367870330000e-001) (31, 3.24540305882692340000e-003) (32, 2.61210560798645020000e-001) (33, 1.03231728076934810000e-001) (34, 1.05482921935617920000e-003) (35, 3.98290902376174930000e-002) (36, -3.95157523453235630000e-002) (37, -4.35984842479228970000e-002) (38, 5.58980762958526610000e-001) (39, 1.60805568099021910000e-001) (40, 6.88551366329193120000e-002) (41, -1.28897754475474360000e-002) (42, -3.01486402750015260000e-001) (43, 5.89044094085693360000e-002) (44, 5.12681603431701660000e-001) (45, -6.27785921096801760000e-002) (46, -5.27844987809658050000e-002) (47, 8.71512219309806820000e-002) (48, -1.45230650901794430000e-001) (49, 3.60503457486629490000e-002) (50, -1.97408244013786320000e-001) (51, -6.25938326120376590000e-002) (52, -2.52750180661678310000e-002) (53, -4.79285903275012970000e-002) (54, 1.27268001437187190000e-001) (55, -2.40311011672019960000e-001) (56, -1.91785320639610290000e-002) (57, 4.23366837203502660000e-002) (58, -3.99726629257202150000e-003) (59, 1.69897675514221190000e-002) (0, -5.30177876353263850000e-002) (1, 3.02025806158781050000e-002) (2, 8.02970603108406070000e-002) (3, 1.23399555683135990000e-001) (4, 8.47815573215484620000e-002) (5, 3.21355424821376800000e-002) (6, -8.40659588575363160000e-002) (7, 9.69551429152488710000e-002) (8, 5.88188953697681430000e-002) (9, 8.02474915981292720000e-002) (10, 1.80645603686571120000e-002) (11, 1.05169780552387240000e-001) (12, -1.47053115069866180000e-002) (13, 1.65527481585741040000e-002) (14, 1.93498190492391590000e-002) (15, 2.60409209877252580000e-002) (16, 7.94529914855957030000e-002) (17, -7.67383873462677000000e-002) (18, -4.32762242853641510000e-002) (19, -4.30693387985229490000e-001) (20, 1.00986719131469730000e-001) (21, -1.95025540888309480000e-002) (22, -4.54350709915161130000e-002) (23, -3.21328192949295040000e-001) (24, 3.02896532230079170000e-003) (25, -1.34611606597900390000e-001) (26, 1.10700260847806930000e-002) (27, 1.81448772549629210000e-001) (28, -7.41163408383727070000e-003) (29, -6.86300322413444520000e-002) (30, 2.12392322719097140000e-002) (31, 5.05512878298759460000e-002) (32, 2.70040854811668400000e-002) (33, -6.11978620290756230000e-002) (34, -7.12174922227859500000e-002) (35, -5.99121339619159700000e-002) (36, -2.20695137977600100000e-001) (37, 4.68876324594020840000e-002) (38, 1.08310900628566740000e-001) (39, 9.33465585112571720000e-002) (40, -7.11570680141448970000e-002) (41, 4.31576296687126160000e-002) (42, -1.09900407493114470000e-001) (43, -9.55472216010093690000e-002) (44, 2.26628724485635760000e-002) (45, -1.02985076606273650000e-001) (46, 7.05702304840087890000e-002) (47, -8.29633101820945740000e-002) (48, 8.31415783613920210000e-003) (49, -2.59621292352676390000e-001) (50, -9.92281883955001830000e-002) (51, -2.43146903812885280000e-002) (52, -2.12923407554626460000e-001) (53, -1.48174703121185300000e-001) (54, 9.30159352719783780000e-003) (55, 6.26458600163459780000e-003) (56, 9.76650640368461610000e-002) (57, -1.86902470886707310000e-002) (58, -1.13506466150283810000e-001) (59, -1.00919239223003390000e-001) (0, 5.44297546148300170000e-002) (1, -5.26666380465030670000e-002) (2, 2.13949661701917650000e-002) (3, -5.40408007800579070000e-002) (4, -2.80040688812732700000e-002) (5, -7.05839917063713070000e-002) (6, -6.75556957721710210000e-002) (7, 1.41169661656022070000e-002) (8, -1.75057165324687960000e-002) (9, 4.76704463362693790000e-002) (10, -2.11310968734323980000e-003) (11, 7.85913392901420590000e-002) (12, -7.81956464052200320000e-002) (13, 3.90582978725433350000e-002) (14, 1.95353627204895020000e-002) (15, -6.00466653704643250000e-002) (16, -5.78899793326854710000e-002) (17, -1.04862814769148830000e-002) (18, -3.43949906527996060000e-002) (19, -1.07119686901569370000e-001) (20, 1.18547743186354640000e-002) (21, 3.18108722567558290000e-002) (22, -5.11010214686393740000e-002) (23, 3.39867398142814640000e-002) (24, -5.23196905851364140000e-002) (25, -1.01061142981052400000e-001) (26, 6.76798447966575620000e-003) (27, -7.94458296149969100000e-003) (28, -6.16945810616016390000e-002) (29, 8.32494348287582400000e-002) (30, 5.05486279726028440000e-002) (31, -1.08736641705036160000e-002) (32, 8.22878330945968630000e-002) (33, 7.08837062120437620000e-002) (34, 3.99272888898849490000e-002) (35, 4.49442863464355470000e-002) (36, -4.29111793637275700000e-002) (37, -7.44902715086936950000e-002) (38, 1.78829878568649290000e-002) (39, 6.81572780013084410000e-002) (40, -8.55979248881340030000e-002) (41, -3.03568225353956220000e-002) (42, 6.98434337973594670000e-002) (43, 6.74086436629295350000e-002) (44, 7.80534371733665470000e-002) (45, -5.08929267525672910000e-002) (46, 5.59619739651679990000e-002) (47, -4.45444993674755100000e-002) (48, -5.69046922028064730000e-002) (49, 2.34424695372581480000e-002) (50, -1.36601075064390900000e-003) (51, 1.90026394557207820000e-003) (52, -9.49791148304939270000e-002) (53, -9.71099659800529480000e-002) (54, -1.44404582679271700000e-002) (55, 5.20148687064647670000e-002) (56, -4.24789041280746460000e-002) (57, -7.34750274568796160000e-003) (58, -9.63379070162773130000e-002) (59, -6.91361576318740840000e-002) (0, -1.26385405659675600000e-001) (1, 8.27145650982856750000e-002) (2, -3.68824303150177000000e-002) (3, 1.48105427622795100000e-001) (4, -6.70697465538978580000e-002) (5, 1.92405343055725100000e-001) (6, 2.98423230648040770000e-001) (7, 9.67202037572860720000e-002) (8, 7.71655738353729250000e-002) (9, 6.44573330879211430000e-001) (10, 4.00591582059860230000e-001) (11, 4.45706658065319060000e-002) (12, 5.34280836582183840000e-002) (13, -3.44228409230709080000e-002) (14, 6.44841417670249940000e-002) (15, 2.62536406517028810000e-001) (16, -1.29061862826347350000e-001) (17, -5.51652163267135620000e-003) (18, -3.56391847133636470000e-001) (19, -4.15626317262649540000e-001) (20, 6.09061494469642640000e-002) (21, -7.41286873817443850000e-002) (22, -2.76767332106828690000e-002) (23, -5.57496130466461180000e-001) (24, -2.25574180483818050000e-001) (25, -2.37232327461242680000e-001) (26, -2.02178582549095150000e-001) (27, 2.61357367038726810000e-001) (28, 5.69742806255817410000e-002) (29, -2.83204875886440280000e-002) (30, -1.30756765604019170000e-001) (31, -3.27970981597900390000e-002) (32, 7.33246654272079470000e-002) (33, 2.19583675265312190000e-001) (34, 2.11053667590022090000e-003) (35, 2.40579694509506230000e-002) (36, -3.48783552646636960000e-001) (37, -1.37427877634763720000e-002) (38, 3.02306026220321660000e-001) (39, 1.74675881862640380000e-001) (40, 6.74069002270698550000e-002) (41, -9.41712036728858950000e-002) (42, -2.12825030088424680000e-001) (43, -2.25871279835700990000e-002) (44, 3.16071093082427980000e-001) (45, -6.45897015929222110000e-002) (46, -9.26934033632278440000e-002) (47, -1.12202651798725130000e-001) (48, -1.05738379061222080000e-001) (49, -1.42393112182617190000e-001) (50, -4.56766813993453980000e-001) (51, -5.94833306968212130000e-002) (52, -4.40574586391448970000e-001) (53, -1.03917613625526430000e-001) (54, 3.73391583561897280000e-002) (55, -3.43486405909061430000e-002) (56, 1.22232846915721890000e-002) (57, -9.85561981797218320000e-002) (58, -1.12937904894351960000e-001) (59, -3.33345681428909300000e-001) (0, 2.74343341588974000000e-001) (1, -6.95085763931274410000e-001) (2, 3.05946674197912220000e-002) (3, -6.98942601680755620000e-001) (4, -4.46458190679550170000e-001) (5, -4.24178183078765870000e-001) (6, -8.55585813522338870000e-001) (7, -1.51339828968048100000e-001) (8, -5.68982422351837160000e-001) (9, -1.46958851814270020000e+000) (10, -2.24012351036071780000e+000) (11, -3.75465661287307740000e-001) (12, -2.41190746426582340000e-001) (13, -2.14562371373176570000e-001) (14, -1.19912695884704590000e+000) (15, -6.92026317119598390000e-001) (16, 1.79188996553421020000e-001) (17, -1.05301477015018460000e-003) (18, 4.93146896362304690000e-001) (19, 1.80731177330017090000e+000) (20, -1.23039662837982180000e+000) (21, 1.94977343082427980000e-001) (22, 4.84721302986145020000e-001) (23, 1.10433208942413330000e+000) (24, 5.86008787155151370000e-001) (25, 8.67689669132232670000e-001) (26, 2.65150487422943120000e-001) (27, -1.42366683483123780000e+000) (28, -6.67144209146499630000e-002) (29, 1.11156076192855830000e-001) (30, 2.85430133342742920000e-001) (31, -1.61385625600814820000e-001) (32, -5.76859951019287110000e-001) (33, -8.72494161128997800000e-001) (34, 2.25075194612145420000e-003) (35, 8.09217765927314760000e-002) (36, 5.38612425327301030000e-001) (37, 2.93445348739624020000e-001) (38, -1.29083836078643800000e+000) (39, -3.42532217502593990000e-001) (40, -2.99543857574462890000e-001) (41, 1.12419046461582180000e-001) (42, 6.87054336071014400000e-001) (43, 4.81978319585323330000e-002) (44, -1.51126825809478760000e+000) (45, 2.28571221232414250000e-001) (46, -4.23140823841094970000e-002) (47, -4.80923652648925780000e-002) (48, 1.02770888805389400000e+000) (49, 4.62398111820220950000e-001) (50, 1.14795172214508060000e+000) (51, 6.54920190572738650000e-002) (52, 7.37695693969726560000e-001) (53, 1.82415530085563660000e-001) (54, -1.84779852628707890000e-001) (55, 2.48687848448753360000e-001) (56, -2.00285986065864560000e-001) (57, -5.70309348404407500000e-003) (58, 1.93955868482589720000e-001) (59, -5.04428229760378600000e-004) (0, -1.07619695365428920000e-001) (1, 6.43673166632652280000e-002) (2, -7.04306736588478090000e-002) (3, 5.64275402575731280000e-003) (4, 4.65812571346759800000e-002) (5, -1.49305276572704320000e-002) (6, 7.44407251477241520000e-002) (7, -5.26834689080715180000e-002) (8, -6.09883069992065430000e-002) (9, 2.74993088096380230000e-002) (10, -1.57432779669761660000e-002) (11, 5.20161874592304230000e-002) (12, 2.67166290432214740000e-002) (13, -3.65985482931137080000e-002) (14, -5.17338924109935760000e-002) (15, 1.39438165351748470000e-002) (16, 4.57969680428504940000e-002) (17, 4.64073047041893010000e-002) (18, -6.06329403817653660000e-002) (19, -4.77042719721794130000e-002) (20, 8.69608521461486820000e-002) (21, 4.50091324746608730000e-002) (22, -4.79711145162582400000e-002) (23, -1.11861377954483030000e-001) (24, 2.71772295236587520000e-002) (25, -1.14836424589157100000e-001) (26, -7.84957483410835270000e-002) (27, 8.35709199309349060000e-002) (28, -4.82208356261253360000e-002) (29, 6.67745107784867290000e-003) (30, -9.30155813694000240000e-002) (31, -9.33757945895195010000e-002) (32, 6.39411155134439470000e-003) (33, 9.15389880537986760000e-002) (34, 3.37221994996070860000e-002) (35, 7.63777568936347960000e-002) (36, -5.79482922330498700000e-003) (37, 8.05631726980209350000e-002) (38, -9.42614860832691190000e-003) (39, 7.21816197037696840000e-002) (40, 2.70069930702447890000e-002) (41, 8.86904150247573850000e-002) (42, 1.63375809788703920000e-002) (43, 8.55212435126304630000e-002) (44, 4.29576411843299870000e-002) (45, -1.14837944507598880000e-001) (46, 2.18654535710811610000e-002) (47, 4.88435849547386170000e-002) (48, 7.82596021890640260000e-002) (49, -1.08127407729625700000e-001) (50, -8.55145677924156190000e-002) (51, 4.55295015126466750000e-003) (52, -1.19820721447467800000e-001) (53, 2.32543330639600750000e-002) (54, -3.99735346436500550000e-002) (55, -3.45314368605613710000e-002) (56, -7.43789598345756530000e-002) (57, -8.35087150335311890000e-002) (58, -3.26670915819704530000e-003) (59, -9.95538979768753050000e-002) (60, 2.40509539842605590000e-001) (61, 1.23726941645145420000e-001) (62, -6.51335537433624270000e-001) (63, -1.20411321520805360000e-001) (64, 4.19296808540821080000e-002) (65, 6.41559362411499020000e-001) (66, 1.72956645488739010000e+000) (67, 7.00820162892341610000e-002) (68, -8.70636850595474240000e-002) (60, -8.37877765297889710000e-002) (61, 3.76432448625564580000e-001) (62, 8.03608536720275880000e-001) (63, 5.21884739398956300000e-001) (64, 1.73966795206069950000e-001) (65, 8.55542540550231930000e-001) (66, -1.14325296878814700000e+000) (67, 2.22539991140365600000e-001) (68, 1.90823078155517580000e-001) 
