FANN_FLO_2.1
num_layers=3
learning_rate=0.700000
connection_rate=1.000000
network_type=0
learning_momentum=0.000000
training_algorithm=3
train_error_function=1
train_stop_function=0
cascade_output_change_fraction=0.010000
quickprop_decay=-0.000100
quickprop_mu=1.750000
rprop_increase_factor=1.200000
rprop_decrease_factor=0.500000
rprop_delta_min=0.000000
rprop_delta_max=50.000000
rprop_delta_zero=0.100000
cascade_output_stagnation_epochs=12
cascade_candidate_change_fraction=0.010000
cascade_candidate_stagnation_epochs=12
cascade_max_out_epochs=150
cascade_max_cand_epochs=150
cascade_num_candidate_groups=2
bit_fail_limit=3.49999994039535520000e-001
cascade_candidate_limit=1.00000000000000000000e+003
cascade_weight_multiplier=4.00000005960464480000e-001
cascade_activation_functions_count=10
cascade_activation_functions=3 5 7 8 10 11 14 15 16 17 
cascade_activation_steepnesses_count=4
cascade_activation_steepnesses=2.50000000000000000000e-001 5.00000000000000000000e-001 7.50000000000000000000e-001 1.00000000000000000000e+000 
layer_sizes=60 9 3 
scale_included=0
neurons (num_inputs, activation_function, activation_steepness)=(0, 0, 0.00000000000000000000e+000) (0, 0, 0.00000000000000000000e+000) (0, 0, 0.00000000000000000000e+000) (0, 0, 0.00000000000000000000e+000) (0, 0, 0.00000000000000000000e+000) (0, 0, 0.00000000000000000000e+000) (0, 0, 0.00000000000000000000e+000) (0, 0, 0.00000000000000000000e+000) (0, 0, 0.00000000000000000000e+000) (0, 0, 0.00000000000000000000e+000) (0, 0, 0.00000000000000000000e+000) (0, 0, 0.00000000000000000000e+000) (0, 0, 0.00000000000000000000e+000) (0, 0, 0.00000000000000000000e+000) (0, 0, 0.00000000000000000000e+000) (0, 0, 0.00000000000000000000e+000) (0, 0, 0.00000000000000000000e+000) (0, 0, 0.00000000000000000000e+000) (0, 0, 0.00000000000000000000e+000) (0, 0, 0.00000000000000000000e+000) (0, 0, 0.00000000000000000000e+000) (0, 0, 0.00000000000000000000e+000) (0, 0, 0.00000000000000000000e+000) (0, 0, 0.00000000000000000000e+000) (0, 0, 0.00000000000000000000e+000) (0, 0, 0.00000000000000000000e+000) (0, 0, 0.00000000000000000000e+000) (0, 0, 0.00000000000000000000e+000) (0, 0, 0.00000000000000000000e+000) (0, 0, 0.00000000000000000000e+000) (0, 0, 0.00000000000000000000e+000) (0, 0, 0.00000000000000000000e+000) (0, 0, 0.00000000000000000000e+000) (0, 0, 0.00000000000000000000e+000) (0, 0, 0.00000000000000000000e+000) (0, 0, 0.00000000000000000000e+000) (0, 0, 0.00000000000000000000e+000) (0, 0, 0.00000000000000000000e+000) (0, 0, 0.00000000000000000000e+000) (0, 0, 0.00000000000000000000e+000) (0, 0, 0.00000000000000000000e+000) (0, 0, 0.00000000000000000000e+000) (0, 0, 0.00000000000000000000e+000) (0, 0, 0.00000000000000000000e+000) (0, 0, 0.00000000000000000000e+000) (0, 0, 0.00000000000000000000e+000) (0, 0, 0.00000000000000000000e+000) (0, 0, 0.00000000000000000000e+000) (0, 0, 0.00000000000000000000e+000) (0, 0, 0.00000000000000000000e+000) (0, 0, 0.00000000000000000000e+000) (0, 0, 0.00000000000000000000e+000) (0, 0, 0.00000000000000000000e+000) (0, 0, 0.00000000000000000000e+000) (0, 0, 0.00000000000000000000e+000) (0, 0, 0.00000000000000000000e+000) (0, 0, 0.00000000000000000000e+000) (0, 0, 0.00000000000000000000e+000) (0, 0, 0.00000000000000000000e+000) (0, 0, 0.00000000000000000000e+000) (60, 4, 1.10000002384185790000e+000) (60, 4, 1.10000002384185790000e+000) (60, 4, 1.10000002384185790000e+000) (60, 4, 1.10000002384185790000e+000) (60, 4, 1.10000002384185790000e+000) (60, 4, 1.10000002384185790000e+000) (60, 4, 1.10000002384185790000e+000) (60, 4, 1.10000002384185790000e+000) (0, 4, 1.10000002384185790000e+000) (9, 5, 1.00000000000000000000e+000) (9, 5, 1.00000000000000000000e+000) (0, 5, 1.00000000000000000000e+000) 
connections (connected_to_neuron, weight)=(0, -4.46357652544975280000e-002) (1, -6.85844123363494870000e-002) (2, 8.40196162462234500000e-002) (3, 7.64010148122906680000e-003) (4, 5.83972455933690070000e-003) (5, -6.38123005628585820000e-002) (6, -2.19663958996534350000e-002) (7, -9.12545695900917050000e-002) (8, -7.00547471642494200000e-002) (9, -4.30548153817653660000e-002) (10, -1.90616343170404430000e-002) (11, -2.43703462183475490000e-002) (12, 9.38748102635145190000e-003) (13, -7.37450420856475830000e-002) (14, 3.37781757116317750000e-002) (15, -4.99676764011383060000e-002) (16, -2.83977147191762920000e-002) (17, 1.50678269565105440000e-002) (18, -4.42867353558540340000e-002) (19, -7.31527954339981080000e-002) (20, 9.57480520009994510000e-002) (21, 3.70077528059482570000e-002) (22, -9.67518687248229980000e-002) (23, 6.39289692044258120000e-002) (24, 4.24733348190784450000e-002) (25, 8.42897146940231320000e-002) (26, 7.30070173740386960000e-002) (27, -1.11715346574783330000e-001) (28, 2.21875552088022230000e-002) (29, -1.29761509597301480000e-002) (30, -9.58439037203788760000e-002) (31, 3.87228615581989290000e-002) (32, -6.48718550801277160000e-002) (33, -4.75836098194122310000e-002) (34, -3.62981557846069340000e-002) (35, -7.93924033641815190000e-002) (36, 2.10892148315906520000e-002) (37, -5.76775558292865750000e-002) (38, -7.57968574762344360000e-002) (39, 5.54899983108043670000e-002) (40, 2.84766945987939830000e-002) (41, -5.77516034245491030000e-002) (42, -1.04214198887348180000e-001) (43, -1.23923411592841150000e-002) (44, 2.36748438328504560000e-002) (45, -1.20855294167995450000e-001) (46, -1.43643440678715710000e-002) (47, -1.28657907247543330000e-001) (48, 4.05985154211521150000e-002) (49, -5.58228120207786560000e-002) (50, 1.05121340602636340000e-002) (51, -1.08020633459091190000e-001) (52, 7.01613053679466250000e-002) (53, -2.72090155631303790000e-002) (54, 6.46061375737190250000e-002) (55, -3.62842008471488950000e-002) (56, -4.64062467217445370000e-002) (57, 3.26800718903541560000e-002) (58, 9.67711210250854490000e-003) (59, -1.82865127921104430000e-001) (0, -8.15232470631599430000e-002) (1, -3.52250924333930020000e-003) (2, -9.44040864706039430000e-002) (3, -2.93429307639598850000e-002) (4, 6.29739239811897280000e-002) (5, 4.02664914727211000000e-002) (6, -1.14254299551248550000e-002) (7, -6.05723559856414790000e-002) (8, -6.88580609858036040000e-003) (9, -2.50554326921701430000e-002) (10, 7.02031031250953670000e-002) (11, -4.44120950996875760000e-002) (12, 1.67783107608556750000e-002) (13, 9.38307642936706540000e-002) (14, 3.53345759212970730000e-002) (15, -4.33489726856350900000e-003) (16, 7.48659372329711910000e-002) (17, 3.17869372665882110000e-002) (18, 6.10987544059753420000e-002) (19, 6.67045591399073600000e-003) (20, 2.17017550021409990000e-002) (21, -4.94438922032713890000e-003) (22, -5.32971322536468510000e-002) (23, -5.85121735930442810000e-002) (24, -7.61899501085281370000e-002) (25, -3.07110659778118130000e-002) (26, 7.80922472476959230000e-002) (27, 6.60196738317608830000e-003) (28, -1.05376340448856350000e-001) (29, -3.13897663727402690000e-003) (30, -1.73197016119956970000e-002) (31, -3.73401008546352390000e-002) (32, -2.19965353608131410000e-002) (33, 1.53587132692337040000e-001) (34, 1.02731391787528990000e-001) (35, -3.90134006738662720000e-002) (36, 3.22382003068923950000e-002) (37, 3.59133332967758180000e-002) (38, 7.70830782130360600000e-003) (39, 6.93369328975677490000e-001) (40, 7.06077180802822110000e-003) (41, -2.50657014548778530000e-002) (42, -1.01606927812099460000e-001) (43, 1.01360797882080080000e-001) (44, 3.53763028979301450000e-002) (45, 4.35698730871081350000e-003) (46, -8.45099985599517820000e-002) (47, 5.55445328354835510000e-002) (48, -9.34202075004577640000e-002) (49, 9.95026603341102600000e-002) (50, -6.62864837795495990000e-003) (51, 2.89602410048246380000e-002) (52, -7.99844488501548770000e-002) (53, -1.66557580232620240000e-002) (54, 6.84982091188430790000e-002) (55, -8.34342911839485170000e-002) (56, 7.09816068410873410000e-002) (57, -4.21245694160461430000e-002) (58, 4.20356951653957370000e-002) (59, 3.79488132894039150000e-002) (0, -1.07812173664569850000e-001) (1, -5.49302585422992710000e-002) (2, 6.27641975879669190000e-002) (3, 5.58827593922615050000e-002) (4, 1.93974331021308900000e-001) (5, 1.25825762748718260000e-001) (6, 9.21258181333541870000e-002) (7, -6.59210830926895140000e-002) (8, 3.76224070787429810000e-002) (9, -3.59466560184955600000e-002) (10, 8.33015069365501400000e-002) (11, 8.08355510234832760000e-002) (12, 8.54638367891311650000e-002) (13, -6.00836724042892460000e-002) (14, 4.90827351808547970000e-001) (15, 3.21636229753494260000e-001) (16, 5.53103722631931300000e-002) (17, 1.05307705700397490000e-001) (18, -1.13814204931259160000e-001) (19, 5.78086525201797490000e-002) (20, -9.13224741816520690000e-003) (21, -8.54100063443183900000e-002) (22, 1.88286453485488890000e-001) (23, 3.66538986563682560000e-002) (24, -2.08407379686832430000e-002) (25, 5.36736011505126950000e-001) (26, 1.05932585895061490000e-001) (27, -1.71191453933715820000e-001) (28, -7.11727188900113110000e-003) (29, -3.58211733400821690000e-002) (30, -6.62799552083015440000e-002) (31, -1.06998398900032040000e-001) (32, -9.78965237736701970000e-002) (33, 1.96332787163555620000e-003) (34, 7.34022110700607300000e-002) (35, 1.82108730077743530000e-001) (36, -2.15952135622501370000e-002) (37, 1.95766296237707140000e-002) (38, 2.13429540395736690000e-001) (39, -3.32291990518569950000e-001) (40, -1.29438517615199090000e-002) (41, 2.98736449331045150000e-002) (42, -1.72997508198022840000e-002) (43, -7.06451460719108580000e-002) (44, 2.48736888170242310000e-001) (45, -1.19126558303833010000e-001) (46, -1.57879307866096500000e-001) (47, 3.70048992335796360000e-002) (48, 1.90533384680747990000e-001) (49, -2.23623756319284440000e-002) (50, 4.43452447652816770000e-002) (51, -1.01468779146671300000e-001) (52, 1.21258996427059170000e-001) (53, -1.90560780465602870000e-002) (54, -1.97487473487854000000e-001) (55, -2.92063672095537190000e-002) (56, -1.64452284574508670000e-001) (57, 2.64230910688638690000e-002) (58, 1.59238651394844060000e-001) (59, -8.36757197976112370000e-002) (0, -6.78634420037269590000e-002) (1, 1.26161919906735420000e-002) (2, 8.38043466210365300000e-002) (3, 6.00346103310585020000e-002) (4, 9.36141461133956910000e-002) (5, -2.40186825394630430000e-002) (6, -1.11864387989044190000e-001) (7, 6.37829005718231200000e-002) (8, 3.80090773105621340000e-002) (9, -8.10234248638153080000e-002) (10, -5.90994246304035190000e-002) (11, 9.31737348437309270000e-002) (12, -2.88882702589035030000e-002) (13, 1.01701878011226650000e-002) (14, 1.67454835027456280000e-002) (15, 1.66604500263929370000e-002) (16, 8.68651941418647770000e-002) (17, -7.88351148366928100000e-002) (18, -2.67861485481262210000e-002) (19, 1.82354748249053960000e-002) (20, 1.00226521492004390000e-001) (21, -1.50397396646440030000e-003) (22, -3.40664088726043700000e-002) (23, -4.91389520466327670000e-002) (24, 1.62612309213727710000e-003) (25, -7.70056471228599550000e-002) (26, 2.82112453132867810000e-002) (27, 4.22621145844459530000e-002) (28, -2.12289709597826000000e-002) (29, -7.75851085782051090000e-002) (30, 2.17771362513303760000e-002) (31, 5.79130649566650390000e-002) (32, 6.69321641325950620000e-002) (33, -1.86735931783914570000e-002) (34, -6.00452013313770290000e-002) (35, -3.10736335813999180000e-002) (36, -8.74197930097579960000e-002) (37, 6.04283660650253300000e-002) (38, 1.05451628565788270000e-001) (39, 5.84450721740722660000e-001) (40, -6.30149394273757930000e-002) (41, 5.39705976843833920000e-002) (42, -1.16760142147541050000e-001) (43, -9.02067571878433230000e-002) (44, 7.39787518978118900000e-003) (45, -8.33423584699630740000e-002) (46, 7.45559036731719970000e-002) (47, -1.09189733862876890000e-001) (48, 2.14152671396732330000e-002) (49, -9.37628149986267090000e-002) (50, -8.73626619577407840000e-002) (51, -2.42099035531282420000e-002) (52, -3.00263464450836180000e-002) (53, 4.10753041505813600000e-002) (54, -1.37039655819535260000e-002) (55, 2.69161211326718330000e-003) (56, 9.22183543443679810000e-002) (57, 1.60108879208564760000e-003) (58, -9.17323306202888490000e-002) (59, -9.41250249743461610000e-002) (0, 3.51475924253463750000e-002) (1, -6.01579546928405760000e-002) (2, 2.38108728080987930000e-002) (3, -6.17068782448768620000e-002) (4, -1.75931304693222050000e-002) (5, -6.55584037303924560000e-002) (6, -7.71511346101760860000e-002) (7, -1.96036091074347500000e-003) (8, -2.47517246752977370000e-002) (9, 2.36347652971744540000e-002) (10, -1.51617201045155530000e-002) (11, 7.14295580983161930000e-002) (12, -8.53916034102439880000e-002) (13, 3.51505130529403690000e-002) (14, 2.76052244007587430000e-002) (15, -4.87162955105304720000e-002) (16, -6.19687326252460480000e-002) (17, -1.20739238336682320000e-002) (18, -3.81381139159202580000e-002) (19, -9.53579694032669070000e-002) (20, 2.22971849143505100000e-002) (21, 3.50914783775806430000e-002) (22, -4.59500961005687710000e-002) (23, 1.85963790863752370000e-002) (24, -7.47688412666320800000e-002) (25, -7.57002010941505430000e-002) (26, 2.12623570114374160000e-002) (27, -2.42175199091434480000e-002) (28, -7.72134959697723390000e-002) (29, 7.24425986409187320000e-002) (30, 4.92319241166114810000e-002) (31, -3.45988129265606400000e-003) (32, 9.58194062113761900000e-002) (33, 8.66023004055023190000e-002) (34, 5.25764673948287960000e-002) (35, 6.16351775825023650000e-002) (36, -4.52134050428867340000e-002) (37, -7.64653608202934270000e-002) (38, 2.57081743329763410000e-002) (39, 7.96523392200469970000e-002) (40, -8.17326307296752930000e-002) (41, -1.98826342821121220000e-002) (42, 6.24957308173179630000e-002) (43, 5.81877566874027250000e-002) (44, 7.77722671627998350000e-002) (45, -4.98957298696041110000e-002) (46, 5.25748133659362790000e-002) (47, -6.41479119658470150000e-002) (48, -5.41691742837429050000e-002) (49, 3.46254929900169370000e-002) (50, 6.21530739590525630000e-003) (51, -3.77519358880817890000e-003) (52, -9.07245352864265440000e-002) (53, -8.04476141929626460000e-002) (54, -3.13175804913043980000e-002) (55, 5.13028204441070560000e-002) (56, -5.21719604730606080000e-002) (57, -5.19354408606886860000e-003) (58, -8.07599276304245000000e-002) (59, -5.00667691230773930000e-002) (0, -1.11629277467727660000e-001) (1, -2.44927611202001570000e-002) (2, -1.86743400990962980000e-002) (3, -1.20127173140645030000e-002) (4, -6.77775219082832340000e-002) (5, 6.47196471691131590000e-002) (6, 4.32764552533626560000e-002) (7, 9.85515043139457700000e-002) (8, -1.39052197337150570000e-002) (9, 1.77197176963090900000e-002) (10, 3.83727177977561950000e-002) (11, 2.36266460269689560000e-002) (12, 4.53743375837802890000e-002) (13, -9.20122787356376650000e-002) (14, 4.96867485344409940000e-002) (15, 9.45584401488304140000e-002) (16, -1.13520428538322450000e-001) (17, -8.41989576816558840000e-001) (18, -1.11996918916702270000e-001) (19, -5.18149100244045260000e-002) (20, -2.33311466872692110000e-002) (21, -5.43176084756851200000e-002) (22, 7.37741496413946150000e-003) (23, 1.19264125823974610000e-002) (24, -3.01891099661588670000e-002) (25, 3.56507807970047000000e-001) (26, -1.51234902441501620000e-002) (27, -3.76509502530097960000e-002) (28, 4.03330698609352110000e-002) (29, 8.87955073267221450000e-003) (30, 2.66027301549911500000e-002) (31, -5.87854050099849700000e-002) (32, 1.37055203318595890000e-001) (33, 1.50971859693527220000e-002) (34, 2.87512131035327910000e-002) (35, 6.73161000013351440000e-002) (36, -5.58785758912563320000e-002) (37, 1.43829593434929850000e-002) (38, -4.87877391278743740000e-002) (39, 5.54913431406021120000e-002) (40, 1.04255909100174900000e-002) (41, -8.29583853483200070000e-002) (42, 3.31661961972713470000e-002) (43, -1.21675765514373780000e+000) (44, 2.50998558476567270000e-003) (45, 1.57034397125244140000e-002) (46, -1.05227597057819370000e-001) (47, -1.68729275465011600000e-001) (48, -4.49272096157073970000e-002) (49, -5.34036941826343540000e-002) (50, -2.95760203152894970000e-002) (51, -2.04628091305494310000e-002) (52, 8.15421156585216520000e-003) (53, -3.65029014647006990000e-002) (54, -5.44792786240577700000e-002) (55, -4.53217793256044390000e-003) (56, -3.85340824723243710000e-002) (57, -8.98930206894874570000e-002) (58, 5.31030725687742230000e-003) (59, -6.24483302235603330000e-002) (0, 3.00260007381439210000e-001) (1, -4.50514517724514010000e-002) (2, 4.03969101607799530000e-002) (3, 6.75266832113265990000e-002) (4, -1.74026191234588620000e-001) (5, 1.39498868957161900000e-002) (6, 2.71141141653060910000e-001) (7, -1.22112303972244260000e-001) (8, 1.29160910844802860000e-001) (9, 4.17836397886276250000e-001) (10, -5.29723428189754490000e-002) (11, -3.98913435637950900000e-002) (12, 1.02992072701454160000e-001) (13, 6.17865264415740970000e-001) (14, -9.93356168270111080000e-001) (15, -5.26022255420684810000e-001) (16, 1.13089293241500850000e-001) (17, 3.31511259078979490000e-001) (18, 2.96854674816131590000e-001) (19, 4.31538978591561320000e-003) (20, -7.96815633773803710000e-001) (21, 1.49569317698478700000e-001) (22, -3.71939271688461300000e-001) (23, 9.74217504262924190000e-002) (24, 4.63308185338974000000e-001) (25, -1.16286265850067140000e+000) (26, -7.97175467014312740000e-002) (27, 4.40174609422683720000e-001) (28, 2.74258077144622800000e-001) (29, 1.08251124620437620000e-001) (30, 1.66618794202804570000e-001) (31, 1.93758919835090640000e-001) (32, -9.07168328762054440000e-001) (33, -1.41165685653686520000e+000) (34, -3.04841130971908570000e-001) (35, -3.17746162414550780000e-001) (36, -7.95580372214317320000e-002) (37, 4.33569103479385380000e-002) (38, -6.15938842296600340000e-001) (39, -1.37865853309631350000e+000) (40, -1.62966847419738770000e-002) (41, -1.02156534790992740000e-001) (42, 4.12759602069854740000e-001) (43, 8.34660708904266360000e-001) (44, -5.05090296268463130000e-001) (45, 2.53696143627166750000e-001) (46, 6.75034597516059880000e-002) (47, 3.91392081975936890000e-001) (48, -6.66885823011398320000e-002) (49, -3.44701856374740600000e-001) (50, -1.98204442858695980000e-001) (51, 6.49687573313713070000e-002) (52, -2.67273992300033570000e-001) (53, -7.35665142536163330000e-001) (54, 5.07829368114471440000e-001) (55, -1.08067303895950320000e-001) (56, 4.90912467241287230000e-001) (57, -5.61034493148326870000e-002) (58, -1.54088973999023440000e-001) (59, -4.32862974703311920000e-002) (0, -1.25105574727058410000e-001) (1, 5.43599985539913180000e-002) (2, -6.83414041996002200000e-002) (3, -1.33063383400440220000e-002) (4, 6.08189888298511510000e-002) (5, -1.46526759490370750000e-002) (6, -1.04520441964268680000e-002) (7, -7.16748386621475220000e-002) (8, -7.46730417013168330000e-002) (9, -7.47650256380438800000e-003) (10, -3.83367575705051420000e-002) (11, 4.48378548026084900000e-002) (12, 1.50176789611577990000e-002) (13, -4.37710434198379520000e-002) (14, -4.70005199313163760000e-002) (15, 1.82672459632158280000e-002) (16, 4.49076145887374880000e-002) (17, 4.63313311338424680000e-002) (18, -6.10625371336936950000e-002) (19, -2.85658985376358030000e-002) (20, 9.23145413398742680000e-002) (21, 4.96846958994865420000e-002) (22, -3.74416410923004150000e-002) (23, 6.03093653917312620000e-002) (24, 2.24798880517482760000e-002) (25, -8.07698443531990050000e-002) (26, -6.37703090906143190000e-002) (27, 6.33651167154312130000e-002) (28, -6.27542957663536070000e-002) (29, -5.30079612508416180000e-003) (30, -9.84388887882232670000e-002) (31, -8.63140076398849490000e-002) (32, 9.47447568178176880000e-002) (33, 1.96182087063789370000e-001) (34, 5.02179972827434540000e-002) (35, 1.00132852792739870000e-001) (36, -1.85151386540383100000e-003) (37, 7.91828557848930360000e-002) (38, 1.91140826791524890000e-003) (39, 1.90731063485145570000e-001) (40, 3.54373678565025330000e-002) (41, 1.02137841284275050000e-001) (42, 1.19536500424146650000e-002) (43, 7.93167129158973690000e-002) (44, 4.31995391845703130000e-002) (45, -1.05379238724708560000e-001) (46, 2.29780022054910660000e-002) (47, 2.96659376472234730000e-002) (48, 8.25819522142410280000e-002) (49, -8.02341401576995850000e-002) (50, -6.18187710642814640000e-002) (51, 4.46745753288269040000e-003) (52, 5.15374466776847840000e-002) (53, 5.25726154446601870000e-002) (54, -6.57510682940483090000e-002) (55, -3.14467921853065490000e-002) (56, -8.69569405913352970000e-002) (57, -7.54032284021377560000e-002) (58, 1.67455598711967470000e-002) (59, -8.72910916805267330000e-002) (60, 9.84333362430334090000e-003) (61, 3.29154491424560550000e-001) (62, -1.14998733997344970000e+000) (63, 2.27906361222267150000e-001) (64, 1.46580440923571590000e-002) (65, -1.62859886884689330000e-001) (66, 1.77816665172576900000e+000) (67, 1.51958346366882320000e-001) (68, 7.59688839316368100000e-002) (60, 1.40189155936241150000e-001) (61, 2.18850493431091310000e-001) (62, 8.98136317729949950000e-001) (63, 1.68957114219665530000e-001) (64, 2.42184296250343320000e-001) (65, 6.38764381408691410000e-001) (66, -1.73123502731323240000e+000) (67, 2.75600790977478030000e-001) (68, 3.39010626077651980000e-001) 
