FANN_FLO_2.1
num_layers=3
learning_rate=0.700000
connection_rate=1.000000
network_type=0
learning_momentum=0.000000
training_algorithm=3
train_error_function=1
train_stop_function=0
cascade_output_change_fraction=0.010000
quickprop_decay=-0.000100
quickprop_mu=1.750000
rprop_increase_factor=1.200000
rprop_decrease_factor=0.500000
rprop_delta_min=0.000000
rprop_delta_max=50.000000
rprop_delta_zero=0.100000
cascade_output_stagnation_epochs=12
cascade_candidate_change_fraction=0.010000
cascade_candidate_stagnation_epochs=12
cascade_max_out_epochs=150
cascade_max_cand_epochs=150
cascade_num_candidate_groups=2
bit_fail_limit=3.49999994039535520000e-001
cascade_candidate_limit=1.00000000000000000000e+003
cascade_weight_multiplier=4.00000005960464480000e-001
cascade_activation_functions_count=10
cascade_activation_functions=3 5 7 8 10 11 14 15 16 17 
cascade_activation_steepnesses_count=4
cascade_activation_steepnesses=2.50000000000000000000e-001 5.00000000000000000000e-001 7.50000000000000000000e-001 1.00000000000000000000e+000 
layer_sizes=60 9 3 
scale_included=0
neurons (num_inputs, activation_function, activation_steepness)=(0, 0, 0.00000000000000000000e+000) (0, 0, 0.00000000000000000000e+000) (0, 0, 0.00000000000000000000e+000) (0, 0, 0.00000000000000000000e+000) (0, 0, 0.00000000000000000000e+000) (0, 0, 0.00000000000000000000e+000) (0, 0, 0.00000000000000000000e+000) (0, 0, 0.00000000000000000000e+000) (0, 0, 0.00000000000000000000e+000) (0, 0, 0.00000000000000000000e+000) (0, 0, 0.00000000000000000000e+000) (0, 0, 0.00000000000000000000e+000) (0, 0, 0.00000000000000000000e+000) (0, 0, 0.00000000000000000000e+000) (0, 0, 0.00000000000000000000e+000) (0, 0, 0.00000000000000000000e+000) (0, 0, 0.00000000000000000000e+000) (0, 0, 0.00000000000000000000e+000) (0, 0, 0.00000000000000000000e+000) (0, 0, 0.00000000000000000000e+000) (0, 0, 0.00000000000000000000e+000) (0, 0, 0.00000000000000000000e+000) (0, 0, 0.00000000000000000000e+000) (0, 0, 0.00000000000000000000e+000) (0, 0, 0.00000000000000000000e+000) (0, 0, 0.00000000000000000000e+000) (0, 0, 0.00000000000000000000e+000) (0, 0, 0.00000000000000000000e+000) (0, 0, 0.00000000000000000000e+000) (0, 0, 0.00000000000000000000e+000) (0, 0, 0.00000000000000000000e+000) (0, 0, 0.00000000000000000000e+000) (0, 0, 0.00000000000000000000e+000) (0, 0, 0.00000000000000000000e+000) (0, 0, 0.00000000000000000000e+000) (0, 0, 0.00000000000000000000e+000) (0, 0, 0.00000000000000000000e+000) (0, 0, 0.00000000000000000000e+000) (0, 0, 0.00000000000000000000e+000) (0, 0, 0.00000000000000000000e+000) (0, 0, 0.00000000000000000000e+000) (0, 0, 0.00000000000000000000e+000) (0, 0, 0.00000000000000000000e+000) (0, 0, 0.00000000000000000000e+000) (0, 0, 0.00000000000000000000e+000) (0, 0, 0.00000000000000000000e+000) (0, 0, 0.00000000000000000000e+000) (0, 0, 0.00000000000000000000e+000) (0, 0, 0.00000000000000000000e+000) (0, 0, 0.00000000000000000000e+000) (0, 0, 0.00000000000000000000e+000) (0, 0, 0.00000000000000000000e+000) (0, 0, 0.00000000000000000000e+000) (0, 0, 0.00000000000000000000e+000) (0, 0, 0.00000000000000000000e+000) (0, 0, 0.00000000000000000000e+000) (0, 0, 0.00000000000000000000e+000) (0, 0, 0.00000000000000000000e+000) (0, 0, 0.00000000000000000000e+000) (0, 0, 0.00000000000000000000e+000) (60, 4, 1.10000002384185790000e+000) (60, 4, 1.10000002384185790000e+000) (60, 4, 1.10000002384185790000e+000) (60, 4, 1.10000002384185790000e+000) (60, 4, 1.10000002384185790000e+000) (60, 4, 1.10000002384185790000e+000) (60, 4, 1.10000002384185790000e+000) (60, 4, 1.10000002384185790000e+000) (0, 4, 1.10000002384185790000e+000) (9, 5, 1.00000000000000000000e+000) (9, 5, 1.00000000000000000000e+000) (0, 5, 1.00000000000000000000e+000) 
connections (connected_to_neuron, weight)=(0, -3.60981263220310210000e-002) (1, -6.53348192572593690000e-002) (2, 8.11664313077926640000e-002) (3, 7.69292935729026790000e-003) (4, 2.88141518831253050000e-003) (5, -6.38929307460784910000e-002) (6, -2.62944716960191730000e-002) (7, -8.50338116288185120000e-002) (8, -7.47898966073989870000e-002) (9, -4.47000227868556980000e-002) (10, -2.30456292629241940000e-002) (11, -2.74115391075611110000e-002) (12, 1.13826850429177280000e-002) (13, -7.78460502624511720000e-002) (14, 2.99362633377313610000e-002) (15, -4.92382310330867770000e-002) (16, -3.33112701773643490000e-002) (17, 7.22804944962263110000e-003) (18, -4.86457571387290950000e-002) (19, -7.75129795074462890000e-002) (20, 9.26464125514030460000e-002) (21, 3.98781634867191310000e-002) (22, -9.65895727276802060000e-002) (23, 6.43413141369819640000e-002) (24, 4.71513345837593080000e-002) (25, 7.68945664167404170000e-002) (26, 7.35892951488494870000e-002) (27, -1.00690133869647980000e-001) (28, 3.30789200961589810000e-002) (29, -4.77394182235002520000e-003) (30, -9.53008309006690980000e-002) (31, 3.36140915751457210000e-002) (32, -6.59736022353172300000e-002) (33, -5.51344379782676700000e-002) (34, -3.87912727892398830000e-002) (35, -8.44500884413719180000e-002) (36, 2.32683438807725910000e-002) (37, -5.21202087402343750000e-002) (38, -7.91947469115257260000e-002) (39, 5.26206865906715390000e-002) (40, 2.92680859565734860000e-002) (41, -6.34125396609306340000e-002) (42, -9.76003482937812810000e-002) (43, -1.14178759977221490000e-002) (44, 2.38534789532423020000e-002) (45, -1.20476990938186650000e-001) (46, -1.55368773266673090000e-002) (47, -1.31530717015266420000e-001) (48, 3.09802964329719540000e-002) (49, -5.77255673706531520000e-002) (50, 1.50626422837376590000e-002) (51, -1.07051543891429900000e-001) (52, 6.68891742825508120000e-002) (53, -3.07064764201641080000e-002) (54, 6.33533224463462830000e-002) (55, -3.45538742840290070000e-002) (56, -4.56701889634132390000e-002) (57, 3.07346843183040620000e-002) (58, 1.14649869501590730000e-002) (59, -1.78575888276100160000e-001) (0, -8.16444754600524900000e-002) (1, -4.71895886585116390000e-003) (2, -1.01956367492675780000e-001) (3, -3.48482988774776460000e-002) (4, 6.95873796939849850000e-002) (5, 2.62754596769809720000e-002) (6, -1.65192559361457820000e-001) (7, -7.08083361387252810000e-002) (8, -3.05004063993692400000e-002) (9, -5.54397404193878170000e-002) (10, 1.10152438282966610000e-002) (11, -5.94211705029010770000e-002) (12, -1.06351205613464120000e-003) (13, 6.48103654384613040000e-002) (14, 8.05859547108411790000e-003) (15, -2.30105817317962650000e-002) (16, 6.73126280307769780000e-002) (17, 1.36335026472806930000e-002) (18, 4.83011677861213680000e-002) (19, 4.44611813873052600000e-003) (20, 1.80366747081279750000e-002) (21, 9.48475021868944170000e-003) (22, -6.51956498622894290000e-002) (23, -7.21314623951911930000e-002) (24, -7.63759687542915340000e-002) (25, -7.48741775751113890000e-002) (26, 8.05839970707893370000e-002) (27, 1.90093457698822020000e+000) (28, -9.97962206602096560000e-002) (29, 1.67032927274703980000e-002) (30, -1.68661237694323060000e-003) (31, -2.96708103269338610000e-002) (32, -1.00832849740982060000e-001) (33, 5.66948316991329190000e-002) (34, 9.56407114863395690000e-002) (35, -5.73790743947029110000e-002) (36, 4.83809858560562130000e-002) (37, 4.92449440062046050000e-002) (38, -2.90195029228925700000e-002) (39, -2.11971662938594820000e-002) (40, -1.91596671938896180000e-002) (41, -5.11386767029762270000e-002) (42, -9.39664319157600400000e-002) (43, 9.44038406014442440000e-002) (44, 3.86954508721828460000e-002) (45, 1.99518892914056780000e-002) (46, -9.30224359035491940000e-002) (47, 5.45207820832729340000e-002) (48, -9.63632836937904360000e-002) (49, 1.12727254629135130000e-001) (50, -3.01336180418729780000e-002) (51, -6.72974740155041220000e-004) (52, -9.18616056442260740000e-002) (53, -4.33452539145946500000e-002) (54, 5.89020401239395140000e-002) (55, -9.17755961418151860000e-002) (56, 6.27673119306564330000e-002) (57, -5.55770471692085270000e-002) (58, 2.71802432835102080000e-002) (59, -4.78505641222000120000e-002) (0, -8.96882414817810060000e-002) (1, -3.41786183416843410000e-002) (2, -9.61232651025056840000e-003) (3, 6.37777000665664670000e-002) (4, 9.27828997373580930000e-002) (5, 2.49470397830009460000e-001) (6, 3.06324690580368040000e-001) (7, -5.28220832347869870000e-002) (8, 8.54989215731620790000e-002) (9, 8.86541232466697690000e-002) (10, 2.17068225145339970000e-001) (11, -1.42171317711472510000e-002) (12, 1.02969624102115630000e-001) (13, 6.65873661637306210000e-002) (14, 3.15284281969070430000e-001) (15, 4.27936874330043790000e-002) (16, -3.42537625692784790000e-003) (17, -1.12866774201393130000e-001) (18, -1.55674815177917480000e-001) (19, -4.62999790906906130000e-002) (20, -9.83698070049285890000e-002) (21, -2.49597355723381040000e-001) (22, 4.48014326393604280000e-002) (23, 1.57889395952224730000e-001) (24, -1.00954025983810420000e-001) (25, 3.37716966867446900000e-001) (26, 3.53413410484790800000e-002) (27, -8.79176497459411620000e-001) (28, -3.53719919919967650000e-001) (29, -1.14713422954082490000e-001) (30, -1.22519515454769130000e-001) (31, -1.83065563440322880000e-001) (32, 7.54633620381355290000e-002) (33, 2.06740483641624450000e-001) (34, -2.06840131431818010000e-002) (35, 7.00551122426986690000e-002) (36, -2.35665105283260350000e-002) (37, 1.91342700272798540000e-002) (38, 1.82407653331756590000e+000) (39, -2.26781323552131650000e-001) (40, 9.09389108419418330000e-002) (41, 1.58818647265434270000e-001) (42, -1.15001939237117770000e-001) (43, -8.00642192363739010000e-001) (44, 3.48044559359550480000e-002) (45, -2.05236122012138370000e-001) (46, -1.71220526099205020000e-001) (47, -2.08929330110549930000e-001) (48, 2.85863503813743590000e-002) (49, -3.16531285643577580000e-002) (50, -3.28974891453981400000e-003) (51, -6.70521780848503110000e-002) (52, 1.36726245284080510000e-001) (53, 2.05337494611740110000e-001) (54, -1.23771280050277710000e-001) (55, -4.04760241508483890000e-003) (56, -1.30147710442543030000e-001) (57, -1.82150565087795260000e-002) (58, -5.26451766490936280000e-002) (59, -1.37983351945877080000e-001) (0, -5.69818019866943360000e-002) (1, 1.72339156270027160000e-002) (2, 8.36979001760482790000e-002) (3, 6.36258870363235470000e-002) (4, 8.71438011527061460000e-002) (5, -2.95853670686483380000e-002) (6, -1.22219428420066830000e-001) (7, 6.62091076374053960000e-002) (8, 2.58542355149984360000e-002) (9, -9.34575796127319340000e-002) (10, -7.07590728998184200000e-002) (11, 8.60596820712089540000e-002) (12, -2.99229659140110020000e-002) (13, -3.73671355191618200000e-004) (14, 3.49699449725449090000e-003) (15, 9.79452673345804210000e-003) (16, 8.26266556978225710000e-002) (17, -8.66135656833648680000e-002) (18, -2.97399181872606280000e-002) (19, 1.44576467573642730000e-002) (20, 9.70342382788658140000e-002) (21, 6.82741496711969380000e-003) (22, -4.15113940834999080000e-002) (23, -4.95992004871368410000e-002) (24, 1.69257391244173050000e-002) (25, -8.96399095654487610000e-002) (26, 3.00342310220003130000e-002) (27, 4.84758205711841580000e-002) (28, -4.85144415870308880000e-003) (29, -5.95322027802467350000e-002) (30, 3.43063138425350190000e-002) (31, 6.24021217226982120000e-002) (32, 1.92360319197177890000e-002) (33, -8.29019024968147280000e-002) (34, -6.54474198818206790000e-002) (35, -4.35628741979599000000e-002) (36, -7.72425979375839230000e-002) (37, 7.26004615426063540000e-002) (38, 9.90018621087074280000e-002) (39, 3.54542396962642670000e-002) (40, -7.55411610007286070000e-002) (41, 3.82555499672889710000e-002) (42, -1.01163893938064580000e-001) (43, -9.00290906429290770000e-002) (44, 9.55977849662303920000e-003) (45, -8.21411535143852230000e-002) (46, 7.07271695137023930000e-002) (47, -1.04867838323116300000e-001) (48, 1.62410475313663480000e-002) (49, -1.01065091788768770000e-001) (50, -8.92502814531326290000e-002) (51, -3.43827828764915470000e-002) (52, -4.01292964816093440000e-002) (53, 2.29562856256961820000e-002) (54, -1.51966987177729610000e-002) (55, 8.56198370456695560000e-004) (56, 9.02397036552429200000e-002) (57, -5.57872653007507320000e-003) (58, -9.21923890709877010000e-002) (59, -1.11495502293109890000e-001) (0, 5.42213432490825650000e-002) (1, -5.28773441910743710000e-002) (2, 1.94467045366764070000e-002) (3, -5.73004744946956630000e-002) (4, -1.99434012174606320000e-002) (5, -6.53164535760879520000e-002) (6, -7.26896300911903380000e-002) (7, 9.67193581163883210000e-003) (8, -2.13676933199167250000e-002) (9, 2.94042993336915970000e-002) (10, -1.18975266814231870000e-002) (11, 6.81681260466575620000e-002) (12, -7.84357935190200810000e-002) (13, 3.74462865293025970000e-002) (14, 1.63136646151542660000e-002) (15, -5.45943602919578550000e-002) (16, -6.47908374667167660000e-002) (17, -2.31999233365058900000e-002) (18, -3.85261736810207370000e-002) (19, -1.02196022868156430000e-001) (20, 1.70188397169113160000e-002) (21, 4.30315099656581880000e-002) (22, -4.79105450212955470000e-002) (23, 2.60863006114959720000e-002) (24, -6.45199418067932130000e-002) (25, -8.69856178760528560000e-002) (26, 2.26767044514417650000e-002) (27, 3.95515514537692070000e-003) (28, -6.70150518417358400000e-002) (29, 8.60817208886146550000e-002) (30, 5.72113320231437680000e-002) (31, -1.13048660568892960000e-003) (32, 9.54038277268409730000e-002) (33, 7.44559392333030700000e-002) (34, 4.43337485194206240000e-002) (35, 5.08367605507373810000e-002) (36, -3.34812179207801820000e-002) (37, -6.21760264039039610000e-002) (38, 2.28990688920021060000e-002) (39, 8.24635773897171020000e-002) (40, -8.12053903937339780000e-002) (41, -2.44516246020793910000e-002) (42, 6.91788718104362490000e-002) (43, 6.19266293942928310000e-002) (44, 7.76978507637977600000e-002) (45, -4.38603870570659640000e-002) (46, 5.36050386726856230000e-002) (47, -1.54499366879463200000e-001) (48, -6.36384487152099610000e-002) (49, 3.56721580028533940000e-002) (50, 3.58725502155721190000e-003) (51, 2.34475064644357190000e-005) (52, -9.10561308264732360000e-002) (53, -8.54684188961982730000e-002) (54, -2.57517732679843900000e-002) (55, 5.70301339030265810000e-002) (56, -4.41476926207542420000e-002) (57, -1.15426909178495410000e-002) (58, -8.53338912129402160000e-002) (59, -5.16729988157749180000e-002) (0, -7.42302313446998600000e-002) (1, -7.63030210509896280000e-003) (2, -2.56459210067987440000e-002) (3, -1.10399238765239720000e-002) (4, -8.05792957544326780000e-002) (5, 7.00298771262168880000e-002) (6, 4.25749234855175020000e-002) (7, 9.92382019758224490000e-002) (8, -5.31466025859117510000e-003) (9, 4.56876084208488460000e-002) (10, 5.04605658352375030000e-002) (11, 2.29169428348541260000e-002) (12, 5.47625459730625150000e-002) (13, -8.11153948307037350000e-002) (14, 3.77199240028858180000e-002) (15, 3.54072004556655880000e-002) (16, -1.08891941606998440000e-001) (17, -1.80466193705797200000e-002) (18, -1.03562377393245700000e-001) (19, -5.44127076864242550000e-002) (20, -3.92024740576744080000e-002) (21, -5.43587356805801390000e-002) (22, 1.58650297671556470000e-002) (23, 3.73931452631950380000e-002) (24, 1.16790644824504850000e-002) (25, 1.29651889204978940000e-001) (26, -2.53842379897832870000e-002) (27, -8.43222618103027340000e-001) (28, 2.99470983445644380000e-002) (29, 2.81219538301229480000e-002) (30, 3.32313962280750270000e-002) (31, -6.56633302569389340000e-002) (32, 1.10095232725143430000e-001) (33, -1.85939148068428040000e-002) (34, 2.30274954810738560000e-003) (35, 4.66878488659858700000e-002) (36, -3.43159213662147520000e-002) (37, 3.66998948156833650000e-002) (38, 1.82147368788719180000e-001) (39, 2.72112730890512470000e-002) (40, 3.18700782954692840000e-002) (41, -7.03014060854911800000e-002) (42, 4.36708331108093260000e-002) (43, -2.25548166781663890000e-002) (44, -6.56795920804142950000e-003) (45, 2.29582581669092180000e-002) (46, -9.87498909235000610000e-002) (47, -1.64529487490653990000e-001) (48, -5.62886558473110200000e-002) (49, -8.26545730233192440000e-002) (50, -5.63503019511699680000e-002) (51, 2.10459134541451930000e-003) (52, -2.11223941296339040000e-002) (53, -3.32757309079170230000e-002) (54, -3.11951059848070140000e-002) (55, 8.51033348590135570000e-003) (56, -9.55345015972852710000e-003) (57, -9.16533768177032470000e-002) (58, -2.43752524256706240000e-002) (59, -9.96147766709327700000e-002) (0, 1.36467441916465760000e-001) (1, -1.10644347965717320000e-001) (2, 5.95866888761520390000e-002) (3, -1.18064649403095250000e-001) (4, -1.09230685234069820000e+000) (5, -4.32603627443313600000e-001) (6, -4.98136818408966060000e-001) (7, -6.82539194822311400000e-002) (8, 1.46814659237861630000e-002) (9, -6.07400238513946530000e-002) (10, -8.66894841194152830000e-001) (11, 4.40782308578491210000e-002) (12, 3.75617854297161100000e-002) (13, -6.37211576104164120000e-002) (14, -8.28136861324310300000e-001) (15, -2.16087371110916140000e-001) (16, 1.88456133008003230000e-001) (17, 4.83427405357360840000e-001) (18, 2.36585035920143130000e-001) (19, 2.82421082258224490000e-001) (20, -3.63502502441406250000e-002) (21, 8.95799219608306880000e-001) (22, -5.34318625926971440000e-001) (23, -2.37334176898002620000e-001) (24, 2.71639347076416020000e-001) (25, -6.75536036491394040000e-001) (26, 1.17277696728706360000e-001) (27, 3.11944693326950070000e-001) (28, 1.08036029338836670000e+000) (29, 3.69941294193267820000e-001) (30, 4.37115170061588290000e-002) (31, 3.32875624299049380000e-002) (32, -1.02875876426696780000e+000) (33, -4.57572042942047120000e-001) (34, 5.41603602468967440000e-002) (35, -4.61626937612891200000e-003) (36, -1.30596891045570370000e-001) (37, -1.09683506190776820000e-001) (38, -2.06253480911254880000e+000) (39, -1.26108682155609130000e+000) (40, -1.56005889177322390000e-001) (41, -2.12949484586715700000e-001) (42, 2.77197688817977910000e-001) (43, 1.24522292613983150000e+000) (44, -2.09729209542274480000e-001) (45, 3.53725194931030270000e-001) (46, 7.53107890486717220000e-002) (47, 9.59967970848083500000e-001) (48, 1.24407574534416200000e-001) (49, -6.70801281929016110000e-001) (50, -1.23431198298931120000e-001) (51, -3.85987460613250730000e-002) (52, -2.92432725429534910000e-001) (53, -7.41978704929351810000e-001) (54, 4.47249799966812130000e-001) (55, -1.12238034605979920000e-001) (56, 4.44286853075027470000e-001) (57, 1.24339915812015530000e-001) (58, 5.80305568873882290000e-002) (59, -1.90771035850048070000e-002) (0, -1.00861236453056340000e-001) (1, 6.77422955632209780000e-002) (2, -7.86213949322700500000e-002) (3, 1.25131048262119290000e-002) (4, 4.82348166406154630000e-002) (5, 8.41187080368399620000e-004) (6, 3.15786674618721010000e-002) (7, -4.71480339765548710000e-002) (8, -6.13526254892349240000e-002) (9, 1.12136742100119590000e-002) (10, -1.24485874548554420000e-002) (11, 3.79459857940673830000e-002) (12, 3.71009372174739840000e-002) (13, -3.78145314753055570000e-002) (14, -4.98214475810527800000e-002) (15, 1.56386289745569230000e-002) (16, 2.39510368555784230000e-002) (17, 1.93501617759466170000e-002) (18, -7.53375366330146790000e-002) (19, -5.09193502366542820000e-002) (20, 7.97787010669708250000e-002) (21, 3.48415672779083250000e-002) (22, -3.31974364817142490000e-002) (23, 8.51001739501953130000e-002) (24, 3.03845982998609540000e-002) (25, -5.56092038750648500000e-002) (26, -7.00926631689071660000e-002) (27, -6.40008389949798580000e-001) (28, -9.15763303637504580000e-002) (29, -6.16485765203833580000e-003) (30, -9.43250581622123720000e-002) (31, -1.00080050528049470000e-001) (32, 3.68542820215225220000e-002) (33, 1.09069474041461940000e-001) (34, 3.20316068828105930000e-002) (35, 7.80116915702819820000e-002) (36, 1.07862763106822970000e-002) (37, 9.64747518301010130000e-002) (38, 3.14030557870864870000e-001) (39, 8.46695303916931150000e-002) (40, 4.24724444746971130000e-002) (41, 1.09318040311336520000e-001) (42, 1.21558373793959620000e-002) (43, 6.86609223484992980000e-002) (44, 4.81395572423934940000e-002) (45, -1.15354232490062710000e-001) (46, 6.45802030339837070000e-003) (47, -5.37908375263214110000e-002) (48, 7.43245035409927370000e-002) (49, -8.95418822765350340000e-002) (50, -5.37470914423465730000e-002) (51, 1.78601294755935670000e-002) (52, 8.28777849674224850000e-002) (53, 4.95956689119338990000e-002) (54, -7.76917263865470890000e-002) (55, -1.90502777695655820000e-002) (56, -9.56086814403533940000e-002) (57, -1.02296255528926850000e-001) (58, 7.39541184157133100000e-003) (59, -1.11464783549308780000e-001) (60, 2.02747788280248640000e-002) (61, 2.62065976858139040000e-001) (62, -4.62299138307571410000e-001) (63, 1.00458681583404540000e-001) (64, 5.31857796013355260000e-002) (65, -1.03551514446735380000e-001) (66, 1.55169534683227540000e+000) (67, -8.30928236246109010000e-002) (68, -2.85637192428112030000e-003) (60, 9.61957946419715880000e-002) (61, 1.86169117689132690000e-001) (62, 1.57754826545715330000e+000) (63, 5.10808750987052920000e-002) (64, 1.63942903280258180000e-001) (65, 3.00707995891571040000e-001) (66, -1.28044664859771730000e+000) (67, 3.74669790267944340000e-001) (68, 2.14615315198898320000e-001) 
