FANN_FLO_2.1
num_layers=3
learning_rate=0.700000
connection_rate=1.000000
network_type=0
learning_momentum=0.000000
training_algorithm=3
train_error_function=1
train_stop_function=0
cascade_output_change_fraction=0.010000
quickprop_decay=-0.000100
quickprop_mu=1.750000
rprop_increase_factor=1.200000
rprop_decrease_factor=0.500000
rprop_delta_min=0.000000
rprop_delta_max=50.000000
rprop_delta_zero=0.100000
cascade_output_stagnation_epochs=12
cascade_candidate_change_fraction=0.010000
cascade_candidate_stagnation_epochs=12
cascade_max_out_epochs=150
cascade_max_cand_epochs=150
cascade_num_candidate_groups=2
bit_fail_limit=3.49999994039535520000e-001
cascade_candidate_limit=1.00000000000000000000e+003
cascade_weight_multiplier=4.00000005960464480000e-001
cascade_activation_functions_count=10
cascade_activation_functions=3 5 7 8 10 11 14 15 16 17 
cascade_activation_steepnesses_count=4
cascade_activation_steepnesses=2.50000000000000000000e-001 5.00000000000000000000e-001 7.50000000000000000000e-001 1.00000000000000000000e+000 
layer_sizes=60 9 3 
scale_included=0
neurons (num_inputs, activation_function, activation_steepness)=(0, 0, 0.00000000000000000000e+000) (0, 0, 0.00000000000000000000e+000) (0, 0, 0.00000000000000000000e+000) (0, 0, 0.00000000000000000000e+000) (0, 0, 0.00000000000000000000e+000) (0, 0, 0.00000000000000000000e+000) (0, 0, 0.00000000000000000000e+000) (0, 0, 0.00000000000000000000e+000) (0, 0, 0.00000000000000000000e+000) (0, 0, 0.00000000000000000000e+000) (0, 0, 0.00000000000000000000e+000) (0, 0, 0.00000000000000000000e+000) (0, 0, 0.00000000000000000000e+000) (0, 0, 0.00000000000000000000e+000) (0, 0, 0.00000000000000000000e+000) (0, 0, 0.00000000000000000000e+000) (0, 0, 0.00000000000000000000e+000) (0, 0, 0.00000000000000000000e+000) (0, 0, 0.00000000000000000000e+000) (0, 0, 0.00000000000000000000e+000) (0, 0, 0.00000000000000000000e+000) (0, 0, 0.00000000000000000000e+000) (0, 0, 0.00000000000000000000e+000) (0, 0, 0.00000000000000000000e+000) (0, 0, 0.00000000000000000000e+000) (0, 0, 0.00000000000000000000e+000) (0, 0, 0.00000000000000000000e+000) (0, 0, 0.00000000000000000000e+000) (0, 0, 0.00000000000000000000e+000) (0, 0, 0.00000000000000000000e+000) (0, 0, 0.00000000000000000000e+000) (0, 0, 0.00000000000000000000e+000) (0, 0, 0.00000000000000000000e+000) (0, 0, 0.00000000000000000000e+000) (0, 0, 0.00000000000000000000e+000) (0, 0, 0.00000000000000000000e+000) (0, 0, 0.00000000000000000000e+000) (0, 0, 0.00000000000000000000e+000) (0, 0, 0.00000000000000000000e+000) (0, 0, 0.00000000000000000000e+000) (0, 0, 0.00000000000000000000e+000) (0, 0, 0.00000000000000000000e+000) (0, 0, 0.00000000000000000000e+000) (0, 0, 0.00000000000000000000e+000) (0, 0, 0.00000000000000000000e+000) (0, 0, 0.00000000000000000000e+000) (0, 0, 0.00000000000000000000e+000) (0, 0, 0.00000000000000000000e+000) (0, 0, 0.00000000000000000000e+000) (0, 0, 0.00000000000000000000e+000) (0, 0, 0.00000000000000000000e+000) (0, 0, 0.00000000000000000000e+000) (0, 0, 0.00000000000000000000e+000) (0, 0, 0.00000000000000000000e+000) (0, 0, 0.00000000000000000000e+000) (0, 0, 0.00000000000000000000e+000) (0, 0, 0.00000000000000000000e+000) (0, 0, 0.00000000000000000000e+000) (0, 0, 0.00000000000000000000e+000) (0, 0, 0.00000000000000000000e+000) (60, 4, 1.10000002384185790000e+000) (60, 4, 1.10000002384185790000e+000) (60, 4, 1.10000002384185790000e+000) (60, 4, 1.10000002384185790000e+000) (60, 4, 1.10000002384185790000e+000) (60, 4, 1.10000002384185790000e+000) (60, 4, 1.10000002384185790000e+000) (60, 4, 1.10000002384185790000e+000) (0, 4, 1.10000002384185790000e+000) (9, 5, 1.00000000000000000000e+000) (9, 5, 1.00000000000000000000e+000) (0, 5, 1.00000000000000000000e+000) 
connections (connected_to_neuron, weight)=(0, -3.20076160132884980000e-002) (1, -6.35094791650772090000e-002) (2, 8.71537253260612490000e-002) (3, 1.66815277189016340000e-002) (4, 3.40974400751292710000e-003) (5, -6.34256526827812190000e-002) (6, -1.63706913590431210000e-002) (7, -8.60640630125999450000e-002) (8, -6.58418685197830200000e-002) (9, -3.07387504726648330000e-002) (10, -2.00340263545513150000e-002) (11, -2.42430157959461210000e-002) (12, 1.02923233062028880000e-002) (13, -6.87844827771186830000e-002) (14, 3.57527919113636020000e-002) (15, -4.53687347471714020000e-002) (16, -2.21915300935506820000e-002) (17, 2.00531370937824250000e-002) (18, -4.27326261997222900000e-002) (19, -7.10275396704673770000e-002) (20, 9.61960703134536740000e-002) (21, 4.17303144931793210000e-002) (22, -9.67523604631423950000e-002) (23, 6.65897056460380550000e-002) (24, 5.46582452952861790000e-002) (25, 6.65830373764038090000e-002) (26, 7.26951286196708680000e-002) (27, -1.08980059623718260000e-001) (28, 3.30624431371688840000e-002) (29, -2.21824250183999540000e-003) (30, -9.83681678771972660000e-002) (31, 3.57187986373901370000e-002) (32, -7.54714384675025940000e-002) (33, -5.84162883460521700000e-002) (34, -4.15515154600143430000e-002) (35, -8.45752209424972530000e-002) (36, 2.88626085966825490000e-002) (37, -5.10952770709991460000e-002) (38, -7.60633423924446110000e-002) (39, 5.64661435782909390000e-002) (40, 3.56842242181301120000e-002) (41, -6.10182471573352810000e-002) (42, -9.15645509958267210000e-002) (43, -3.74193931929767130000e-003) (44, 2.67374720424413680000e-002) (45, -1.13043457269668580000e-001) (46, -6.68559409677982330000e-003) (47, -1.20310246944427490000e-001) (48, 4.49707508087158200000e-002) (49, -5.93324825167655940000e-002) (50, 1.59190744161605830000e-002) (51, -1.01892650127410890000e-001) (52, 6.44401237368583680000e-002) (53, -3.31646651029586790000e-002) (54, 6.70318976044654850000e-002) (55, -3.45564857125282290000e-002) (56, -3.92888225615024570000e-002) (57, 3.27553786337375640000e-002) (58, 6.68656220659613610000e-003) (59, -1.87834993004798890000e-001) (0, -4.21730875968933110000e-002) (1, 3.33079934120178220000e-001) (2, -1.04570023715496060000e-001) (3, 8.73792916536331180000e-003) (4, 6.02227300405502320000e-002) (5, 2.32064127922058110000e-002) (6, 1.71174749732017520000e-001) (7, -2.08464846014976500000e-001) (8, -1.09894461929798130000e-001) (9, -2.87790689617395400000e-002) (10, -4.86659705638885500000e-002) (11, 4.72979955375194550000e-002) (12, 2.65914984047412870000e-002) (13, 1.12606179714202880000e+000) (14, 3.49150374531745910000e-002) (15, 2.46409371495246890000e-001) (16, 1.05235204100608830000e-001) (17, 1.29169926047325130000e-001) (18, 2.42005735635757450000e-001) (19, 6.97149634361267090000e-001) (20, 1.20577752590179440000e-001) (21, -9.29562840610742570000e-003) (22, 4.25906181335449220000e-001) (23, 9.27491962909698490000e-001) (24, -6.23801574110984800000e-002) (25, -3.68302833521738650000e-004) (26, 6.14209055900573730000e-001) (27, 1.14219397306442260000e-001) (28, -8.60904604196548460000e-002) (29, 8.82926303893327710000e-003) (30, -5.05611486732959750000e-002) (31, -1.63588777184486390000e-001) (32, -1.54882714152336120000e-001) (33, -6.54479488730430600000e-002) (34, 1.07976689934730530000e-001) (35, -4.84861694276332860000e-002) (36, 6.75304681062698360000e-002) (37, 2.43775416165590290000e-002) (38, -1.88011545687913890000e-002) (39, -2.36543789505958560000e-001) (40, -1.53111796826124190000e-002) (41, -4.45237345993518830000e-002) (42, -2.69681476056575780000e-002) (43, 5.92308677732944490000e-002) (44, 1.21737271547317500000e-002) (45, 1.20833399705588820000e-003) (46, -7.32326284050941470000e-002) (47, 3.88274699449539180000e-001) (48, -4.38057146966457370000e-002) (49, 6.59728720784187320000e-002) (50, -8.00286233425140380000e-002) (51, 1.76516398787498470000e-002) (52, -1.01887047290802000000e-001) (53, -2.81885657459497450000e-002) (54, 9.29038971662521360000e-002) (55, -1.02470569312572480000e-001) (56, 1.69215559959411620000e-001) (57, -4.61999140679836270000e-002) (58, 7.40521848201751710000e-002) (59, 2.67643462866544720000e-002) (0, -9.66658070683479310000e-002) (1, -6.83321729302406310000e-002) (2, 2.88096666336059570000e-002) (3, -2.04791128635406490000e-002) (4, -3.59213375486433510000e-003) (5, 7.60892778635025020000e-002) (6, 7.49636366963386540000e-002) (7, -1.01228982210159300000e-001) (8, 1.67456530034542080000e-002) (9, 1.50398854166269300000e-002) (10, 3.86840552091598510000e-002) (11, -1.10264886170625690000e-002) (12, -2.43221782147884370000e-002) (13, -1.32033033296465870000e-002) (14, -1.19683239609003070000e-002) (15, -5.59338442981243130000e-002) (16, 6.80810436606407170000e-002) (17, -4.44567250087857250000e-003) (18, -9.93348211050033570000e-002) (19, 8.17505344748497010000e-002) (20, -7.37089589238166810000e-002) (21, -9.84466895461082460000e-002) (22, -7.00273141264915470000e-002) (23, 3.19586582481861110000e-002) (24, -4.77723143994808200000e-002) (25, -2.81023583374917510000e-003) (26, 5.66061995923519130000e-002) (27, -7.49889761209487920000e-002) (28, 3.14015001058578490000e-002) (29, -4.35474626719951630000e-002) (30, -1.11018925905227660000e-001) (31, -6.76035881042480470000e-002) (32, -5.49969635903835300000e-002) (33, 4.15797717869281770000e-002) (34, -3.76107217743992810000e-003) (35, 7.04552233219146730000e-002) (36, -2.42218058556318280000e-002) (37, 1.08861066401004790000e-002) (38, 2.73046940565109250000e-002) (39, -8.16897973418235780000e-002) (40, 1.55047895386815070000e-002) (41, -6.20935717597603800000e-003) (42, -5.47987148165702820000e-002) (43, 5.99374361336231230000e-002) (44, -1.83510668575763700000e-002) (45, -4.56107631325721740000e-002) (46, -1.03002235293388370000e-001) (47, 4.67545725405216220000e-002) (48, 8.65224301815032960000e-002) (49, -6.33036121726036070000e-002) (50, -9.93909612298011780000e-002) (51, -8.93680378794670100000e-002) (52, -9.82923880219459530000e-002) (53, -1.30874598398804660000e-002) (54, -3.70338000357151030000e-002) (55, -6.43109381198883060000e-002) (56, -6.55047297477722170000e-002) (57, 6.07362575829029080000e-002) (58, -3.92409935593605040000e-002) (59, -1.72895058989524840000e-001) (0, -4.33032102882862090000e-002) (1, 2.39950548857450490000e-002) (2, 8.85631740093231200000e-002) (3, 7.93019458651542660000e-002) (4, 8.58616307377815250000e-002) (5, -2.50286404043436050000e-002) (6, -9.36330333352088930000e-002) (7, 7.04168751835823060000e-002) (8, 4.52015288174152370000e-002) (9, -7.11401402950286870000e-002) (10, -5.99676668643951420000e-002) (11, 9.81011390686035160000e-002) (12, -1.94778442382812500000e-002) (13, 2.21621133387088780000e-002) (14, 1.45727982744574550000e-002) (15, 2.66907252371311190000e-002) (16, 9.50450822710990910000e-002) (17, -6.98681697249412540000e-002) (18, -1.41296610236167910000e-002) (19, 2.15577967464923860000e-002) (20, 1.04690715670585630000e-001) (21, 5.06715197116136550000e-003) (22, -3.51010970771312710000e-002) (23, -3.79738882184028630000e-002) (24, 2.79204491525888440000e-002) (25, -8.99643450975418090000e-002) (26, 3.93694974482059480000e-002) (27, 4.75894734263420100000e-002) (28, -1.25525398179888730000e-002) (29, -6.29251003265380860000e-002) (30, 2.51640025526285170000e-002) (31, 4.94400858879089360000e-002) (32, 8.19067750126123430000e-003) (33, -8.49726945161819460000e-002) (34, -6.61756694316864010000e-002) (35, -4.13986928761005400000e-002) (36, -7.18030333518981930000e-002) (37, 7.03970640897750850000e-002) (38, 9.54513102769851680000e-002) (39, 3.12662161886692050000e-002) (40, -6.95851221680641170000e-002) (41, 4.49421629309654240000e-002) (42, -9.28454697132110600000e-002) (43, -9.30612161755561830000e-002) (44, 6.96599576622247700000e-003) (45, -7.80160129070281980000e-002) (46, 8.00325646996498110000e-002) (47, -8.43225792050361630000e-002) (48, 3.78286242485046390000e-002) (49, -1.07995234429836270000e-001) (50, -8.40636119246482850000e-002) (51, -2.12313551455736160000e-002) (52, -3.50201502442359920000e-002) (53, 2.51772440969944000000e-002) (54, -1.00929643958806990000e-002) (55, 3.02050705067813400000e-003) (56, 1.01250320672988890000e-001) (57, -4.69776522368192670000e-003) (58, -8.66895094513893130000e-002) (59, -9.76102054119110110000e-002) (0, 4.14165519177913670000e-002) (1, -3.51162075996398930000e-001) (2, 3.74274551868438720000e-002) (3, -7.26985335350036620000e-002) (4, -3.60080413520336150000e-002) (5, -4.89842630922794340000e-002) (6, -2.40418806672096250000e-001) (7, 1.35822802782058720000e-001) (8, 6.24751634895801540000e-002) (9, 5.63369505107402800000e-002) (10, 7.06300362944602970000e-002) (11, -4.90739680826663970000e-002) (12, -9.56091210246086120000e-002) (13, -1.31577864289283750000e-001) (14, 1.19236400350928310000e-002) (15, -1.00468963384628300000e-001) (16, -8.06998386979103090000e-002) (17, -1.34501591324806210000e-001) (18, -6.45349547266960140000e-002) (19, -2.39929318428039550000e-001) (20, -1.00588813424110410000e-001) (21, 5.61400726437568660000e-002) (22, -4.03278857469558720000e-001) (23, -6.66647911071777340000e-001) (24, -4.40036766231060030000e-002) (25, -1.35566502809524540000e-001) (26, -9.56474393606185910000e-002) (27, 1.10596558079123500000e-002) (28, -8.07835012674331670000e-002) (29, 9.44695025682449340000e-002) (30, 8.31905007362365720000e-002) (31, 5.36386780440807340000e-002) (32, 3.02880674600601200000e-001) (33, 1.91727951169013980000e-001) (34, 3.34518700838088990000e-002) (35, 4.10629771649837490000e-002) (36, -5.51179125905036930000e-002) (37, -3.99044044315814970000e-002) (38, 3.49129773676395420000e-002) (39, 2.54258513450622560000e-001) (40, -7.85707756876945500000e-002) (41, -1.91305726766586300000e-002) (42, 4.70615364611148830000e-002) (43, 9.66906324028968810000e-002) (44, 9.70324054360389710000e-002) (45, -1.98853369802236560000e-002) (46, 4.61790747940540310000e-002) (47, -4.02160435914993290000e-001) (48, -1.31639122962951660000e-001) (49, 4.97538149356842040000e-002) (50, 2.32454203069210050000e-002) (51, 6.14947127178311350000e-003) (52, -8.47379788756370540000e-002) (53, -1.04388698935508730000e-001) (54, -4.91552837193012240000e-002) (55, 6.74191936850547790000e-002) (56, -1.26565247774124150000e-001) (57, -1.84642523527145390000e-002) (58, -1.12738296389579770000e-001) (59, -5.98380453884601590000e-002) (0, -6.44363388419151310000e-002) (1, -1.13362502306699750000e-002) (2, -1.36969052255153660000e-002) (3, -1.59777067601680760000e-002) (4, -7.61843472719192500000e-002) (5, 5.84216751158237460000e-002) (6, 1.74991358071565630000e-002) (7, 8.37903618812561040000e-002) (8, -3.36117204278707500000e-003) (9, 5.49891777336597440000e-002) (10, 3.18494960665702820000e-002) (11, 2.82937102019786830000e-002) (12, 4.04919534921646120000e-002) (13, -7.61489644646644590000e-002) (14, 3.43479476869106290000e-002) (15, 3.88001166284084320000e-002) (16, -8.80097299814224240000e-002) (17, 1.17885293439030650000e-002) (18, -7.32289999723434450000e-002) (19, -3.20028513669967650000e-002) (20, -2.61177085340023040000e-002) (21, -3.31561155617237090000e-002) (22, 1.51068037375807760000e-002) (23, 2.91096214205026630000e-002) (24, 2.79404520988464360000e-002) (25, 9.15633514523506160000e-002) (26, -3.37011832743883130000e-003) (27, 8.97686276584863660000e-003) (28, 4.86490428447723390000e-002) (29, 3.98187041282653810000e-002) (30, 3.56004051864147190000e-002) (31, -5.82427866756916050000e-002) (32, 8.03999006748199460000e-002) (33, -4.54410836100578310000e-002) (34, 1.13175250589847560000e-002) (35, 4.95178960263729100000e-002) (36, -2.94880475848913190000e-002) (37, 3.64896133542060850000e-002) (38, -7.91127458214759830000e-002) (39, 4.18216027319431300000e-002) (40, 2.22481265664100650000e-002) (41, -8.32702070474624630000e-002) (42, 5.81021197140216830000e-002) (43, -9.11082513630390170000e-003) (44, -1.64679605513811110000e-002) (45, 4.69571053981781010000e-002) (46, -7.72978663444519040000e-002) (47, -8.25802013278007510000e-002) (48, -3.89285087585449220000e-002) (49, -8.34494307637214660000e-002) (50, -8.83384943008422850000e-002) (51, -9.38500917982310060000e-004) (52, -4.38123010098934170000e-002) (53, -4.54185269773006440000e-002) (54, -1.00872628390789030000e-002) (55, -2.91746063157916070000e-003) (56, 9.56020504236221310000e-003) (57, -7.59780779480934140000e-002) (58, -9.94234159588813780000e-003) (59, -8.54879990220069890000e-002) (0, -2.22501941025257110000e-002) (1, -2.58059293031692500000e-001) (2, 2.67956964671611790000e-002) (3, 3.69639918208122250000e-002) (4, -1.69160380959510800000e-001) (5, 8.82497802376747130000e-002) (6, -4.92813766002655030000e-001) (7, 3.11235755681991580000e-001) (8, 4.97710973024368290000e-001) (9, 4.76727545261383060000e-001) (10, 4.01029080152511600000e-001) (11, -2.34112575650215150000e-001) (12, 1.17568261921405790000e-001) (13, -2.43976160883903500000e-001) (14, -7.07400262355804440000e-001) (15, -5.69371938705444340000e-001) (16, -4.54182215034961700000e-002) (17, -3.23846459388732910000e-001) (18, -4.91008907556533810000e-001) (19, -1.27682581543922420000e-001) (20, -4.99483376741409300000e-001) (21, 1.21431842446327210000e-001) (22, -4.18971985578536990000e-001) (23, -6.12463951110839840000e-001) (24, 1.80717691779136660000e-001) (25, -3.41363884508609770000e-002) (26, -1.70045208930969240000e+000) (27, -1.85319602489471440000e-001) (28, 1.12924061715602870000e-001) (29, 7.04538077116012570000e-002) (30, 2.62023627758026120000e-001) (31, 2.26845875382423400000e-001) (32, 2.53965169191360470000e-001) (33, 4.53211605548858640000e-001) (34, -9.46890329942107200000e-004) (35, -2.15274766087532040000e-002) (36, -2.03532606363296510000e-001) (37, 3.00576031208038330000e-001) (38, 2.58284211158752440000e-001) (39, 6.38275563716888430000e-001) (40, 3.62365514039993290000e-001) (41, 4.86822098493576050000e-001) (42, -3.57501864433288570000e-001) (43, 1.08928821980953220000e-001) (44, -4.58251498639583590000e-002) (45, 1.48743782192468640000e-002) (46, -4.71889168024063110000e-001) (47, -9.03985559940338130000e-001) (48, -2.64334768056869510000e-001) (49, 2.32189428061246870000e-003) (50, 4.07866984605789180000e-001) (51, 5.60572184622287750000e-003) (52, 1.42073273658752440000e-001) (53, 3.44799682497978210000e-002) (54, -6.69178413227200510000e-003) (55, -1.82303064502775670000e-003) (56, -2.68048048019409180000e-001) (57, -9.56190675497055050000e-002) (58, -1.15073077380657200000e-001) (59, -3.12484009191393850000e-003) (0, -8.51320847868919370000e-002) (1, 6.51059597730636600000e-002) (2, -6.68955445289611820000e-002) (3, 7.21965217962861060000e-003) (4, 5.04648424685001370000e-002) (5, -2.22438815981149670000e-002) (6, 7.63905793428421020000e-003) (7, -7.45077282190322880000e-002) (8, -6.33391812443733220000e-002) (9, 6.45927619189023970000e-003) (10, -4.76044714450836180000e-002) (11, 5.69970943033695220000e-002) (12, 2.61627510190010070000e-002) (13, -2.39553917199373250000e-002) (14, -5.24645708501338960000e-002) (15, 2.89832521229982380000e-002) (16, 6.19965344667434690000e-002) (17, 6.67564421892166140000e-002) (18, -3.59167493879795070000e-002) (19, -1.73435769975185390000e-002) (20, 9.85705032944679260000e-002) (21, 5.76895587146282200000e-002) (22, -3.62109318375587460000e-002) (23, 7.97180458903312680000e-002) (24, 4.62640859186649320000e-002) (25, -8.95977392792701720000e-002) (26, 1.23870815150439740000e-003) (27, 8.69299396872520450000e-002) (28, -4.84743937849998470000e-002) (29, 1.09232747927308080000e-002) (30, -9.88672226667404170000e-002) (31, -9.85733196139335630000e-002) (32, 2.14071013033390050000e-003) (33, 6.06037899851799010000e-002) (34, 4.37191352248191830000e-002) (35, 8.47355276346206670000e-002) (36, 2.17284839600324630000e-002) (37, 8.82407948374748230000e-002) (38, -2.13537234812974930000e-002) (39, 8.44588428735733030000e-002) (40, 2.67322007566690440000e-002) (41, 8.80886837840080260000e-002) (42, 4.41362224519252780000e-002) (43, 7.72438496351242070000e-002) (44, 2.79248449951410290000e-002) (45, -9.80232357978820800000e-002) (46, 3.77609468996524810000e-002) (47, 7.90118202567100520000e-002) (48, 1.08939103782176970000e-001) (49, -1.02723650634288790000e-001) (50, -8.00037160515785220000e-002) (51, 1.05609297752380370000e-002) (52, 3.38273867964744570000e-002) (53, 3.52974906563758850000e-002) (54, -4.83315289020538330000e-002) (55, -3.79596911370754240000e-002) (56, -6.17178678512573240000e-002) (57, -7.58996978402137760000e-002) (58, 2.98305656760931020000e-002) (59, -6.72168433666229250000e-002) (60, 1.99623405933380130000e-002) (61, -2.80425816774368290000e-001) (62, -9.22999903559684750000e-003) (63, 2.93583888560533520000e-002) (64, 4.18093621730804440000e-001) (65, 9.32301580905914310000e-002) (66, 1.30890524387359620000e+000) (67, 3.95829090848565100000e-003) (68, -3.93746048212051390000e-002) (60, 1.31277963519096370000e-001) (61, 7.29102790355682370000e-001) (62, 1.71793520450592040000e-001) (63, 2.43039354681968690000e-001) (64, -3.18874508142471310000e-001) (65, 2.33804136514663700000e-001) (66, -1.31295061111450200000e+000) (67, 3.73808830976486210000e-001) (68, 3.50208789110183720000e-001) 
