FANN_FLO_2.1
num_layers=3
learning_rate=0.700000
connection_rate=1.000000
network_type=0
learning_momentum=0.000000
training_algorithm=3
train_error_function=1
train_stop_function=0
cascade_output_change_fraction=0.010000
quickprop_decay=-0.000100
quickprop_mu=1.750000
rprop_increase_factor=1.200000
rprop_decrease_factor=0.500000
rprop_delta_min=0.000000
rprop_delta_max=50.000000
rprop_delta_zero=0.100000
cascade_output_stagnation_epochs=12
cascade_candidate_change_fraction=0.010000
cascade_candidate_stagnation_epochs=12
cascade_max_out_epochs=150
cascade_max_cand_epochs=150
cascade_num_candidate_groups=2
bit_fail_limit=3.49999994039535520000e-001
cascade_candidate_limit=1.00000000000000000000e+003
cascade_weight_multiplier=4.00000005960464480000e-001
cascade_activation_functions_count=10
cascade_activation_functions=3 5 7 8 10 11 14 15 16 17 
cascade_activation_steepnesses_count=4
cascade_activation_steepnesses=2.50000000000000000000e-001 5.00000000000000000000e-001 7.50000000000000000000e-001 1.00000000000000000000e+000 
layer_sizes=60 9 3 
scale_included=0
neurons (num_inputs, activation_function, activation_steepness)=(0, 0, 0.00000000000000000000e+000) (0, 0, 0.00000000000000000000e+000) (0, 0, 0.00000000000000000000e+000) (0, 0, 0.00000000000000000000e+000) (0, 0, 0.00000000000000000000e+000) (0, 0, 0.00000000000000000000e+000) (0, 0, 0.00000000000000000000e+000) (0, 0, 0.00000000000000000000e+000) (0, 0, 0.00000000000000000000e+000) (0, 0, 0.00000000000000000000e+000) (0, 0, 0.00000000000000000000e+000) (0, 0, 0.00000000000000000000e+000) (0, 0, 0.00000000000000000000e+000) (0, 0, 0.00000000000000000000e+000) (0, 0, 0.00000000000000000000e+000) (0, 0, 0.00000000000000000000e+000) (0, 0, 0.00000000000000000000e+000) (0, 0, 0.00000000000000000000e+000) (0, 0, 0.00000000000000000000e+000) (0, 0, 0.00000000000000000000e+000) (0, 0, 0.00000000000000000000e+000) (0, 0, 0.00000000000000000000e+000) (0, 0, 0.00000000000000000000e+000) (0, 0, 0.00000000000000000000e+000) (0, 0, 0.00000000000000000000e+000) (0, 0, 0.00000000000000000000e+000) (0, 0, 0.00000000000000000000e+000) (0, 0, 0.00000000000000000000e+000) (0, 0, 0.00000000000000000000e+000) (0, 0, 0.00000000000000000000e+000) (0, 0, 0.00000000000000000000e+000) (0, 0, 0.00000000000000000000e+000) (0, 0, 0.00000000000000000000e+000) (0, 0, 0.00000000000000000000e+000) (0, 0, 0.00000000000000000000e+000) (0, 0, 0.00000000000000000000e+000) (0, 0, 0.00000000000000000000e+000) (0, 0, 0.00000000000000000000e+000) (0, 0, 0.00000000000000000000e+000) (0, 0, 0.00000000000000000000e+000) (0, 0, 0.00000000000000000000e+000) (0, 0, 0.00000000000000000000e+000) (0, 0, 0.00000000000000000000e+000) (0, 0, 0.00000000000000000000e+000) (0, 0, 0.00000000000000000000e+000) (0, 0, 0.00000000000000000000e+000) (0, 0, 0.00000000000000000000e+000) (0, 0, 0.00000000000000000000e+000) (0, 0, 0.00000000000000000000e+000) (0, 0, 0.00000000000000000000e+000) (0, 0, 0.00000000000000000000e+000) (0, 0, 0.00000000000000000000e+000) (0, 0, 0.00000000000000000000e+000) (0, 0, 0.00000000000000000000e+000) (0, 0, 0.00000000000000000000e+000) (0, 0, 0.00000000000000000000e+000) (0, 0, 0.00000000000000000000e+000) (0, 0, 0.00000000000000000000e+000) (0, 0, 0.00000000000000000000e+000) (0, 0, 0.00000000000000000000e+000) (60, 4, 1.10000002384185790000e+000) (60, 4, 1.10000002384185790000e+000) (60, 4, 1.10000002384185790000e+000) (60, 4, 1.10000002384185790000e+000) (60, 4, 1.10000002384185790000e+000) (60, 4, 1.10000002384185790000e+000) (60, 4, 1.10000002384185790000e+000) (60, 4, 1.10000002384185790000e+000) (0, 4, 1.10000002384185790000e+000) (9, 5, 1.00000000000000000000e+000) (9, 5, 1.00000000000000000000e+000) (0, 5, 1.00000000000000000000e+000) 
connections (connected_to_neuron, weight)=(0, -3.15749943256378170000e-002) (1, -6.54347687959671020000e-002) (2, 7.54454731941223140000e-002) (3, -1.30184441804885860000e-002) (4, -1.28306401893496510000e-003) (5, -7.08677917718887330000e-002) (6, -1.76294669508934020000e-002) (7, -7.55419433116912840000e-002) (8, -7.22537115216255190000e-002) (9, -4.36584614217281340000e-002) (10, -9.92600433528423310000e-003) (11, -2.92689409106969830000e-002) (12, 1.49142192676663400000e-002) (13, -8.69514346122741700000e-002) (14, 2.00139712542295460000e-002) (15, -5.07487244904041290000e-002) (16, -3.31927835941314700000e-002) (17, 1.46370502188801770000e-002) (18, -4.47725616395473480000e-002) (19, -8.12506899237632750000e-002) (20, 8.89535844326019290000e-002) (21, 3.12218051403760910000e-002) (22, -9.67498868703842160000e-002) (23, 6.71236664056777950000e-002) (24, 6.44681081175804140000e-002) (25, 8.81529375910758970000e-002) (26, 6.91526383161544800000e-002) (27, -1.08993619680404660000e-001) (28, 4.66983616352081300000e-002) (29, 8.25821235775947570000e-003) (30, -9.26912203431129460000e-002) (31, 2.18282025307416920000e-002) (32, -6.96799829602241520000e-002) (33, -4.79840599000453950000e-002) (34, -4.53219264745712280000e-002) (35, -9.20592099428176880000e-002) (36, 2.82289143651723860000e-002) (37, -4.95308116078376770000e-002) (38, -7.85627216100692750000e-002) (39, 5.64474351704120640000e-002) (40, 3.31935584545135500000e-002) (41, -5.95466271042823790000e-002) (42, -8.56138095259666440000e-002) (43, 1.64159107953310010000e-003) (44, 2.86794658750295640000e-002) (45, -1.21635384857654570000e-001) (46, -6.66515482589602470000e-003) (47, -1.05812512338161470000e-001) (48, 4.68918457627296450000e-002) (49, -4.87975068390369420000e-002) (50, 2.45979577302932740000e-002) (51, -8.56821537017822270000e-002) (52, 6.91205784678459170000e-002) (53, -2.84860674291849140000e-002) (54, 6.83983936905860900000e-002) (55, -3.62577438354492190000e-002) (56, -4.61219511926174160000e-002) (57, 4.09211628139019010000e-002) (58, 6.10514823347330090000e-003) (59, -2.16973111033439640000e-001) (0, -7.55441933870315550000e-002) (1, 3.61051689833402630000e-003) (2, -1.14810697734355930000e-001) (3, -4.07058447599411010000e-002) (4, 4.08974513411521910000e-002) (5, 3.34589108824729920000e-002) (6, -3.68276867084205150000e-003) (7, -5.56167289614677430000e-002) (8, -8.54574609547853470000e-003) (9, -2.54863575100898740000e-002) (10, 9.66904759407043460000e-002) (11, -5.64444810152053830000e-002) (12, 2.93845720589160920000e-002) (13, 8.73519331216812130000e-002) (14, 9.49644111096858980000e-003) (15, -3.91609792131930590000e-004) (16, 6.13644048571586610000e-002) (17, 3.46844010055065160000e-002) (18, 6.29603639245033260000e-002) (19, -5.76178403571248050000e-003) (20, 1.22789107263088230000e-002) (21, -1.20677212253212930000e-002) (22, -6.15059845149517060000e-002) (23, -5.57317882776260380000e-002) (24, -4.92506287992000580000e-002) (25, -2.16937568038702010000e-002) (26, 7.41565972566604610000e-002) (27, 1.27675256226211790000e-003) (28, -9.89256426692008970000e-002) (29, 1.36298742145299910000e-002) (30, -5.92473568394780160000e-003) (31, -6.39350861310958860000e-002) (32, -7.53638222813606260000e-002) (33, 1.00267671048641200000e-001) (34, 8.79202783107757570000e-002) (35, -6.95940852165222170000e-002) (36, 4.82797846198081970000e-002) (37, 5.48986420035362240000e-002) (38, 8.33995267748832700000e-003) (39, -2.55185142159461980000e-002) (40, 5.90831181034445760000e-003) (41, -2.77182571589946750000e-002) (42, -5.35589382052421570000e-002) (43, 1.18516944348812100000e-001) (44, 4.92679029703140260000e-002) (45, 1.65105797350406650000e-002) (46, -8.25460925698280330000e-002) (47, 8.12201797962188720000e-002) (48, -5.44361025094985960000e-002) (49, 1.01355969905853270000e-001) (50, 8.28891340643167500000e-003) (51, 4.70323450863361360000e-002) (52, -5.66334724426269530000e-002) (53, -2.80172564089298250000e-002) (54, 7.26256370544433590000e-002) (55, -8.08589607477188110000e-002) (56, 5.61481006443500520000e-002) (57, -5.47957904636859890000e-002) (58, 3.00479978322982790000e-002) (59, 5.98748326301574710000e-002) (0, -4.39199917018413540000e-002) (1, -9.88626629114151000000e-002) (2, 1.42514826729893680000e-002) (3, -5.33806532621383670000e-002) (4, 2.73924842476844790000e-002) (5, 1.42465651035308840000e-001) (6, 8.52631628513336180000e-002) (7, -1.06277272105216980000e-001) (8, 8.14950391650199890000e-002) (9, 4.35053966939449310000e-002) (10, 8.69444012641906740000e-002) (11, -5.62500506639480590000e-002) (12, -4.26690690219402310000e-002) (13, 1.06951758265495300000e-001) (14, -1.78725980222225190000e-002) (15, -1.91617105156183240000e-002) (16, 3.13136875629425050000e-002) (17, 1.98963478207588200000e-001) (18, -1.64993673563003540000e-001) (19, 8.80439206957817080000e-003) (20, 2.53973722457885740000e-001) (21, -1.13213941454887390000e-001) (22, 1.18103794753551480000e-001) (23, -3.16349114291369920000e-003) (24, -3.06347191333770750000e-001) (25, 2.19303201884031300000e-002) (26, -3.30455690622329710000e-001) (27, -6.60277679562568660000e-002) (28, 3.71924452483654020000e-002) (29, 2.60705649852752690000e-001) (30, -8.45540091395378110000e-002) (31, -1.67997404932975770000e-001) (32, -1.78340539336204530000e-001) (33, 9.79333519935607910000e-002) (34, -3.37874777615070340000e-002) (35, 1.33865382522344590000e-002) (36, -6.85117254033684730000e-003) (37, 1.47667393088340760000e-001) (38, 5.43822109699249270000e-001) (39, 1.66958803310990330000e-003) (40, 6.86831995844841000000e-002) (41, 1.25941127538681030000e-001) (42, -4.64505016803741460000e-001) (43, -3.57751488685607910000e+000) (44, 3.64338546991348270000e-001) (45, 8.28700885176658630000e-003) (46, -6.85456544160842900000e-002) (47, -2.86705088615417480000e+000) (48, 3.70244421064853670000e-002) (49, 1.98037028312683110000e-001) (50, 6.94983750581741330000e-002) (51, 2.57897675037384030000e-002) (52, 2.07543000578880310000e-001) (53, 2.55258053541183470000e-001) (54, -2.88956671953201290000e-001) (55, -1.00624926388263700000e-001) (56, -1.18512921035289760000e-001) (57, 6.74624890089035030000e-002) (58, -6.43244460225105290000e-002) (59, -1.85075238347053530000e-001) (0, -4.37678806483745570000e-002) (1, 2.26375851780176160000e-002) (2, 7.62305483222007750000e-002) (3, 5.10242730379104610000e-002) (4, 8.08102861046791080000e-002) (5, -2.58386135101318360000e-002) (6, -1.06264002621173860000e-001) (7, 7.69594684243202210000e-002) (8, 4.16416749358177190000e-002) (9, -8.57166796922683720000e-002) (10, -4.32786531746387480000e-002) (11, 8.46312642097473140000e-002) (12, -2.20207124948501590000e-002) (13, 7.87522736936807630000e-003) (14, -4.02665790170431140000e-003) (15, 1.77907403558492660000e-002) (16, 8.03190171718597410000e-002) (17, -8.18852111697196960000e-002) (18, -3.05291265249252320000e-002) (19, 2.77017289772629740000e-003) (20, 9.48503315448760990000e-002) (21, -8.64189118146896360000e-003) (22, -3.53273376822471620000e-002) (23, -4.35975715517997740000e-002) (24, 2.80811823904514310000e-002) (25, -7.09060430526733400000e-002) (26, 2.12988927960395810000e-002) (27, 3.90267036855220790000e-002) (28, 9.94660003925673660000e-005) (29, -5.49788773059844970000e-002) (30, 3.49077582359313960000e-002) (31, 3.22389118373394010000e-002) (32, 1.62789244204759600000e-002) (33, -6.50623887777328490000e-002) (34, -7.69532620906829830000e-002) (35, -5.41075058281421660000e-002) (36, -7.30938836932182310000e-002) (37, 7.79799148440361020000e-002) (38, 1.02929264307022090000e-001) (39, 3.61177064478397370000e-002) (40, -6.22307099401950840000e-002) (41, 5.30416816473007200000e-002) (42, -9.06996503472328190000e-002) (43, -7.45554864406585690000e-002) (44, 2.02522799372673030000e-002) (45, -7.39796981215476990000e-002) (46, 7.83229097723960880000e-002) (47, -9.80105698108673100000e-002) (48, 3.77929247915744780000e-002) (49, -9.48507934808731080000e-002) (50, -6.49385303258895870000e-002) (51, -7.50234210863709450000e-003) (52, -1.62997096776962280000e-002) (53, 3.14125046133995060000e-002) (54, -1.95231437683105470000e-002) (55, 2.88922525942325590000e-003) (56, 8.16260278224945070000e-002) (57, -2.32370197772979740000e-003) (58, -9.51883122324943540000e-002) (59, -9.92884263396263120000e-002) (0, 5.46900257468223570000e-002) (1, -5.27642928063869480000e-002) (2, 9.56510379910469060000e-003) (3, -7.88796693086624150000e-002) (4, -3.33634577691555020000e-002) (5, -7.33261629939079280000e-002) (6, -7.30456486344337460000e-002) (7, 8.48810747265815730000e-003) (8, -2.32273675501346590000e-002) (9, 3.19836437702178960000e-002) (10, 1.62736233323812480000e-003) (11, 6.63193240761756900000e-002) (12, -7.74078294634819030000e-002) (13, 3.60655710101127620000e-002) (14, 2.29950807988643650000e-003) (15, -5.47137781977653500000e-002) (16, -6.66211023926734920000e-002) (17, -4.61068237200379370000e-003) (18, -3.11183575540781020000e-002) (19, -1.04654170572757720000e-001) (20, 1.09889199957251550000e-002) (21, 3.06184384971857070000e-002) (22, -4.81552034616470340000e-002) (23, 2.55124289542436600000e-002) (24, -4.81686480343341830000e-002) (25, -8.03536847233772280000e-002) (26, 1.44829647615551950000e-002) (27, -1.13072916865348820000e-002) (28, -5.50371371209621430000e-002) (29, 9.38098281621932980000e-002) (30, 5.81160746514797210000e-002) (31, -2.21411921083927150000e-002) (32, 8.19638296961784360000e-002) (33, 7.85081908106803890000e-002) (34, 3.44971232116222380000e-002) (35, 3.75202074646949770000e-002) (36, -3.13743799924850460000e-002) (37, -5.94353824853897090000e-002) (38, 1.85751132667064670000e-002) (39, 8.25235694646835330000e-002) (40, -7.55876004695892330000e-002) (41, -2.20180433243513110000e-002) (42, 9.78055819869041440000e-002) (43, 8.56669172644615170000e-002) (44, 8.20949822664260860000e-002) (45, -3.46699357032775880000e-002) (46, 6.56959041953086850000e-002) (47, -3.60913947224617000000e-002) (48, -3.42167317867279050000e-002) (49, 3.67688909173011780000e-002) (50, 1.59366428852081300000e-002) (51, 2.17505712062120440000e-002) (52, -8.39750617742538450000e-002) (53, -8.46476033329963680000e-002) (54, -1.66750866919755940000e-002) (55, 5.27083016932010650000e-002) (56, -4.92169931530952450000e-002) (57, -3.53376474231481550000e-003) (58, -9.04289707541465760000e-002) (59, -3.85271571576595310000e-002) (0, -8.38078856468200680000e-002) (1, -2.16861870139837270000e-002) (2, -3.83984893560409550000e-002) (3, -5.65881729125976560000e-002) (4, -8.64012315869331360000e-002) (5, 7.38938972353935240000e-002) (6, 3.06526664644479750000e-002) (7, 7.44765698909759520000e-002) (8, -1.17399413138628010000e-002) (9, 5.18222376704216000000e-002) (10, 7.24218785762786870000e-002) (11, 1.47950754035264250000e-003) (12, -4.91377115249633790000e+000) (13, -9.18202474713325500000e-002) (14, 1.35019486770033840000e-002) (15, 4.91389110684394840000e-002) (16, -1.14497244358062740000e-001) (17, -6.38830542564392090000e-001) (18, -1.26310825347900390000e-001) (19, -5.95965683460235600000e-002) (20, -3.38398814201354980000e-002) (21, -4.76370789110660550000e-002) (22, 1.24288490042090420000e-002) (23, 1.07435788959264760000e-002) (24, 3.40777891688048840000e-003) (25, 1.02316081523895260000e-001) (26, -4.91480045020580290000e-002) (27, -2.03627273440361020000e-002) (28, 4.89711128175258640000e-002) (29, 4.77178432047367100000e-002) (30, 3.75799201428890230000e-002) (31, -6.69091194868087770000e-002) (32, 6.58224374055862430000e-002) (33, -1.24043447431176900000e-003) (34, -2.45121098123490810000e-003) (35, 2.33975853770971300000e-002) (36, -2.71122343838214870000e-002) (37, 4.52265404164791110000e-002) (38, 1.94696769118309020000e-001) (39, 5.10364659130573270000e-002) (40, 3.65225113928318020000e-002) (41, -7.26000219583511350000e-002) (42, -6.75794899463653560000e-001) (43, -1.11385814845561980000e-001) (44, 6.11369614489376540000e-004) (45, 4.65805307030677800000e-002) (46, -7.17076957225799560000e-002) (47, -2.22516000270843510000e-001) (48, -5.53056336939334870000e-002) (49, 1.80535912513732910000e-001) (50, -6.87426254153251650000e-002) (51, 1.24025987461209300000e-002) (52, 6.31278157234191890000e-002) (53, 3.54734919965267180000e-002) (54, -3.50471317768096920000e-001) (55, -9.25269257277250290000e-003) (56, -2.04483475536108020000e-002) (57, -7.44737982749938960000e-002) (58, -4.15437370538711550000e-002) (59, -1.16278186440467830000e-001) (0, -4.01316909119486810000e-003) (1, 3.51466611027717590000e-002) (2, 7.27648437023162840000e-001) (3, 7.65555620193481450000e-001) (4, 3.36857847869396210000e-002) (5, -1.05876278877258300000e+000) (6, -6.41349911689758300000e-001) (7, 5.81950545310974120000e-001) (8, -2.89510190486907960000e-002) (9, -5.37085711956024170000e-001) (10, -2.10642790794372560000e+000) (11, 2.48927652835845950000e-001) (12, 1.10538339614868160000e+000) (13, -8.35641205310821530000e-001) (14, -1.99425704777240750000e-002) (15, -8.47237944602966310000e-001) (16, 8.52188840508461000000e-002) (17, 1.27925658226013180000e+000) (18, 2.25574061274528500000e-001) (19, 5.47293536365032200000e-002) (20, -1.12402856349945070000e+000) (21, 3.17336991429328920000e-002) (22, -3.25688838958740230000e-001) (23, 7.54904448986053470000e-001) (24, 4.08705115318298340000e-001) (25, 1.90688744187355040000e-002) (26, 1.58907425403594970000e+000) (27, 5.61832124367356300000e-003) (28, 4.00934480130672450000e-002) (29, -1.83863079547882080000e+000) (30, -7.36499428749084470000e-002) (31, -2.01284706592559810000e-001) (32, 7.96942472457885740000e-001) (33, -1.78249371051788330000e+000) (34, 7.14043155312538150000e-002) (35, 1.06154799461364750000e+000) (36, -1.46540552377700810000e-001) (37, -1.89095765352249150000e-001) (38, -1.50643336772918700000e+000) (39, -2.41972774267196660000e-001) (40, -1.66412353515625000000e-001) (41, 2.19847336411476140000e-002) (42, 2.07363510131835940000e+000) (43, 6.13122892379760740000e+000) (44, -4.88606929779052730000e+000) (45, -1.76402300596237180000e-001) (46, -4.59086447954177860000e-002) (47, 3.57319331169128420000e+000) (48, 7.82879590988159180000e-001) (49, -3.97449874877929690000e+000) (50, -2.53450810909271240000e-001) (51, -1.15884006023406980000e+000) (52, -7.70673394203186040000e-001) (53, -4.98433887958526610000e-001) (54, 9.07689154148101810000e-001) (55, -8.01312644034624100000e-003) (56, 5.24700284004211430000e-001) (57, -6.61905556917190550000e-002) (58, -5.92513829469680790000e-002) (59, -2.22903117537498470000e-001) (0, -1.12365484237670900000e-001) (1, 6.17444366216659550000e-002) (2, -8.51817578077316280000e-002) (3, -2.72277090698480610000e-002) (4, 3.67787033319473270000e-002) (5, -2.05023735761642460000e-002) (6, -4.28358186036348340000e-003) (7, -6.45480826497077940000e-002) (8, -7.41805881261825560000e-002) (9, 6.70991325750947000000e-003) (10, -1.23060066252946850000e-002) (11, 3.44418697059154510000e-002) (12, 2.67898067831993100000e-002) (13, -4.34249825775623320000e-002) (14, -7.46301040053367610000e-002) (15, 1.68000385165214540000e-002) (16, 3.62862609326839450000e-002) (17, 5.16182892024517060000e-002) (18, -5.35707697272300720000e-002) (19, -3.57409231364727020000e-002) (20, 8.09226781129837040000e-002) (21, 4.82261180877685550000e-002) (22, -4.58355583250522610000e-002) (23, 6.62216916680336000000e-002) (24, 5.34545630216598510000e-002) (25, -8.56837257742881770000e-002) (26, -6.84629827737808230000e-002) (27, 7.53790140151977540000e-002) (28, -4.94117811322212220000e-002) (29, 1.23522253707051280000e-002) (30, -8.72138217091560360000e-002) (31, -1.06329880654811860000e-001) (32, 5.64562994986772540000e-003) (33, 9.59382504224777220000e-002) (34, 3.11190839856863020000e-002) (35, 6.73566311597824100000e-002) (36, 1.33923478424549100000e-002) (37, 9.97716188430786130000e-002) (38, -6.95145223289728160000e-003) (39, 8.94216895103454590000e-002) (40, 4.01507467031478880000e-002) (41, 9.73609685897827150000e-002) (42, 5.08538149297237400000e-002) (43, 1.14033013582229610000e-001) (44, 4.76993620395660400000e-002) (45, -9.07324254512786870000e-002) (46, 3.56339886784553530000e-002) (47, 6.14357255399227140000e-002) (48, 1.11330874264240260000e-001) (49, -7.94581770896911620000e-002) (50, -5.58288022875785830000e-002) (51, 2.79370248317718510000e-002) (52, 6.40713423490524290000e-002) (53, 4.34711351990699770000e-002) (54, -4.85747680068016050000e-002) (55, -2.97104306519031520000e-002) (56, -8.34164395928382870000e-002) (57, -7.83985331654548650000e-002) (58, 1.23002124018967150000e-003) (59, -6.97332546114921570000e-002) (60, 3.20840552449226380000e-002) (61, 7.99068287014961240000e-002) (62, -3.43308359384536740000e-001) (63, -3.95354665815830230000e-002) (64, 2.71499641239643100000e-002) (65, 8.18531960248947140000e-002) (66, 1.31974089145660400000e+000) (67, 8.92134457826614380000e-002) (68, -3.44859547913074490000e-002) (60, 1.43788114190101620000e-001) (61, 3.17223608493804930000e-001) (62, 1.28217649459838870000e+000) (63, 2.06165909767150880000e-001) (64, 2.39633947610855100000e-001) (65, 4.18705284595489500000e-001) (66, -1.12728559970855710000e+000) (67, 3.24167788028717040000e-001) (68, 4.18450802564620970000e-001) 
