FANN_FLO_2.1
num_layers=3
learning_rate=0.700000
connection_rate=1.000000
network_type=0
learning_momentum=0.000000
training_algorithm=3
train_error_function=1
train_stop_function=0
cascade_output_change_fraction=0.010000
quickprop_decay=-0.000100
quickprop_mu=1.750000
rprop_increase_factor=1.200000
rprop_decrease_factor=0.500000
rprop_delta_min=0.000000
rprop_delta_max=50.000000
rprop_delta_zero=0.100000
cascade_output_stagnation_epochs=12
cascade_candidate_change_fraction=0.010000
cascade_candidate_stagnation_epochs=12
cascade_max_out_epochs=150
cascade_max_cand_epochs=150
cascade_num_candidate_groups=2
bit_fail_limit=3.49999994039535520000e-001
cascade_candidate_limit=1.00000000000000000000e+003
cascade_weight_multiplier=4.00000005960464480000e-001
cascade_activation_functions_count=10
cascade_activation_functions=3 5 7 8 10 11 14 15 16 17 
cascade_activation_steepnesses_count=4
cascade_activation_steepnesses=2.50000000000000000000e-001 5.00000000000000000000e-001 7.50000000000000000000e-001 1.00000000000000000000e+000 
layer_sizes=241 9 3 
scale_included=0
neurons (num_inputs, activation_function, activation_steepness)=(0, 0, 0.00000000000000000000e+000) (0, 0, 0.00000000000000000000e+000) (0, 0, 0.00000000000000000000e+000) (0, 0, 0.00000000000000000000e+000) (0, 0, 0.00000000000000000000e+000) (0, 0, 0.00000000000000000000e+000) (0, 0, 0.00000000000000000000e+000) (0, 0, 0.00000000000000000000e+000) (0, 0, 0.00000000000000000000e+000) (0, 0, 0.00000000000000000000e+000) (0, 0, 0.00000000000000000000e+000) (0, 0, 0.00000000000000000000e+000) (0, 0, 0.00000000000000000000e+000) (0, 0, 0.00000000000000000000e+000) (0, 0, 0.00000000000000000000e+000) (0, 0, 0.00000000000000000000e+000) (0, 0, 0.00000000000000000000e+000) (0, 0, 0.00000000000000000000e+000) (0, 0, 0.00000000000000000000e+000) (0, 0, 0.00000000000000000000e+000) (0, 0, 0.00000000000000000000e+000) (0, 0, 0.00000000000000000000e+000) (0, 0, 0.00000000000000000000e+000) (0, 0, 0.00000000000000000000e+000) (0, 0, 0.00000000000000000000e+000) (0, 0, 0.00000000000000000000e+000) (0, 0, 0.00000000000000000000e+000) (0, 0, 0.00000000000000000000e+000) (0, 0, 0.00000000000000000000e+000) (0, 0, 0.00000000000000000000e+000) (0, 0, 0.00000000000000000000e+000) (0, 0, 0.00000000000000000000e+000) (0, 0, 0.00000000000000000000e+000) (0, 0, 0.00000000000000000000e+000) (0, 0, 0.00000000000000000000e+000) (0, 0, 0.00000000000000000000e+000) (0, 0, 0.00000000000000000000e+000) (0, 0, 0.00000000000000000000e+000) (0, 0, 0.00000000000000000000e+000) (0, 0, 0.00000000000000000000e+000) (0, 0, 0.00000000000000000000e+000) (0, 0, 0.00000000000000000000e+000) (0, 0, 0.00000000000000000000e+000) (0, 0, 0.00000000000000000000e+000) (0, 0, 0.00000000000000000000e+000) (0, 0, 0.00000000000000000000e+000) (0, 0, 0.00000000000000000000e+000) (0, 0, 0.00000000000000000000e+000) (0, 0, 0.00000000000000000000e+000) (0, 0, 0.00000000000000000000e+000) (0, 0, 0.00000000000000000000e+000) (0, 0, 0.00000000000000000000e+000) (0, 0, 0.00000000000000000000e+000) (0, 0, 0.00000000000000000000e+000) (0, 0, 0.00000000000000000000e+000) (0, 0, 0.00000000000000000000e+000) (0, 0, 0.00000000000000000000e+000) (0, 0, 0.00000000000000000000e+000) (0, 0, 0.00000000000000000000e+000) (0, 0, 0.00000000000000000000e+000) (0, 0, 0.00000000000000000000e+000) (0, 0, 0.00000000000000000000e+000) (0, 0, 0.00000000000000000000e+000) (0, 0, 0.00000000000000000000e+000) (0, 0, 0.00000000000000000000e+000) (0, 0, 0.00000000000000000000e+000) (0, 0, 0.00000000000000000000e+000) (0, 0, 0.00000000000000000000e+000) (0, 0, 0.00000000000000000000e+000) (0, 0, 0.00000000000000000000e+000) (0, 0, 0.00000000000000000000e+000) (0, 0, 0.00000000000000000000e+000) (0, 0, 0.00000000000000000000e+000) (0, 0, 0.00000000000000000000e+000) (0, 0, 0.00000000000000000000e+000) (0, 0, 0.00000000000000000000e+000) (0, 0, 0.00000000000000000000e+000) (0, 0, 0.00000000000000000000e+000) (0, 0, 0.00000000000000000000e+000) (0, 0, 0.00000000000000000000e+000) (0, 0, 0.00000000000000000000e+000) (0, 0, 0.00000000000000000000e+000) (0, 0, 0.00000000000000000000e+000) (0, 0, 0.00000000000000000000e+000) (0, 0, 0.00000000000000000000e+000) (0, 0, 0.00000000000000000000e+000) (0, 0, 0.00000000000000000000e+000) (0, 0, 0.00000000000000000000e+000) (0, 0, 0.00000000000000000000e+000) (0, 0, 0.00000000000000000000e+000) (0, 0, 0.00000000000000000000e+000) (0, 0, 0.00000000000000000000e+000) (0, 0, 0.00000000000000000000e+000) (0, 0, 0.00000000000000000000e+000) (0, 0, 0.00000000000000000000e+000) (0, 0, 0.00000000000000000000e+000) (0, 0, 0.00000000000000000000e+000) (0, 0, 0.00000000000000000000e+000) (0, 0, 0.00000000000000000000e+000) (0, 0, 0.00000000000000000000e+000) (0, 0, 0.00000000000000000000e+000) (0, 0, 0.00000000000000000000e+000) (0, 0, 0.00000000000000000000e+000) (0, 0, 0.00000000000000000000e+000) (0, 0, 0.00000000000000000000e+000) (0, 0, 0.00000000000000000000e+000) (0, 0, 0.00000000000000000000e+000) (0, 0, 0.00000000000000000000e+000) (0, 0, 0.00000000000000000000e+000) (0, 0, 0.00000000000000000000e+000) (0, 0, 0.00000000000000000000e+000) (0, 0, 0.00000000000000000000e+000) (0, 0, 0.00000000000000000000e+000) (0, 0, 0.00000000000000000000e+000) (0, 0, 0.00000000000000000000e+000) (0, 0, 0.00000000000000000000e+000) (0, 0, 0.00000000000000000000e+000) (0, 0, 0.00000000000000000000e+000) (0, 0, 0.00000000000000000000e+000) (0, 0, 0.00000000000000000000e+000) (0, 0, 0.00000000000000000000e+000) (0, 0, 0.00000000000000000000e+000) (0, 0, 0.00000000000000000000e+000) (0, 0, 0.00000000000000000000e+000) (0, 0, 0.00000000000000000000e+000) (0, 0, 0.00000000000000000000e+000) (0, 0, 0.00000000000000000000e+000) (0, 0, 0.00000000000000000000e+000) (0, 0, 0.00000000000000000000e+000) (0, 0, 0.00000000000000000000e+000) (0, 0, 0.00000000000000000000e+000) (0, 0, 0.00000000000000000000e+000) (0, 0, 0.00000000000000000000e+000) (0, 0, 0.00000000000000000000e+000) (0, 0, 0.00000000000000000000e+000) (0, 0, 0.00000000000000000000e+000) (0, 0, 0.00000000000000000000e+000) (0, 0, 0.00000000000000000000e+000) (0, 0, 0.00000000000000000000e+000) (0, 0, 0.00000000000000000000e+000) (0, 0, 0.00000000000000000000e+000) (0, 0, 0.00000000000000000000e+000) (0, 0, 0.00000000000000000000e+000) (0, 0, 0.00000000000000000000e+000) (0, 0, 0.00000000000000000000e+000) (0, 0, 0.00000000000000000000e+000) (0, 0, 0.00000000000000000000e+000) (0, 0, 0.00000000000000000000e+000) (0, 0, 0.00000000000000000000e+000) (0, 0, 0.00000000000000000000e+000) (0, 0, 0.00000000000000000000e+000) (0, 0, 0.00000000000000000000e+000) (0, 0, 0.00000000000000000000e+000) (0, 0, 0.00000000000000000000e+000) (0, 0, 0.00000000000000000000e+000) (0, 0, 0.00000000000000000000e+000) (0, 0, 0.00000000000000000000e+000) (0, 0, 0.00000000000000000000e+000) (0, 0, 0.00000000000000000000e+000) (0, 0, 0.00000000000000000000e+000) (0, 0, 0.00000000000000000000e+000) (0, 0, 0.00000000000000000000e+000) (0, 0, 0.00000000000000000000e+000) (0, 0, 0.00000000000000000000e+000) (0, 0, 0.00000000000000000000e+000) (0, 0, 0.00000000000000000000e+000) (0, 0, 0.00000000000000000000e+000) (0, 0, 0.00000000000000000000e+000) (0, 0, 0.00000000000000000000e+000) (0, 0, 0.00000000000000000000e+000) (0, 0, 0.00000000000000000000e+000) (0, 0, 0.00000000000000000000e+000) (0, 0, 0.00000000000000000000e+000) (0, 0, 0.00000000000000000000e+000) (0, 0, 0.00000000000000000000e+000) (0, 0, 0.00000000000000000000e+000) (0, 0, 0.00000000000000000000e+000) (0, 0, 0.00000000000000000000e+000) (0, 0, 0.00000000000000000000e+000) (0, 0, 0.00000000000000000000e+000) (0, 0, 0.00000000000000000000e+000) (0, 0, 0.00000000000000000000e+000) (0, 0, 0.00000000000000000000e+000) (0, 0, 0.00000000000000000000e+000) (0, 0, 0.00000000000000000000e+000) (0, 0, 0.00000000000000000000e+000) (0, 0, 0.00000000000000000000e+000) (0, 0, 0.00000000000000000000e+000) (0, 0, 0.00000000000000000000e+000) (0, 0, 0.00000000000000000000e+000) (0, 0, 0.00000000000000000000e+000) (0, 0, 0.00000000000000000000e+000) (0, 0, 0.00000000000000000000e+000) (0, 0, 0.00000000000000000000e+000) (0, 0, 0.00000000000000000000e+000) (0, 0, 0.00000000000000000000e+000) (0, 0, 0.00000000000000000000e+000) (0, 0, 0.00000000000000000000e+000) (0, 0, 0.00000000000000000000e+000) (0, 0, 0.00000000000000000000e+000) (0, 0, 0.00000000000000000000e+000) (0, 0, 0.00000000000000000000e+000) (0, 0, 0.00000000000000000000e+000) (0, 0, 0.00000000000000000000e+000) (0, 0, 0.00000000000000000000e+000) (0, 0, 0.00000000000000000000e+000) (0, 0, 0.00000000000000000000e+000) (0, 0, 0.00000000000000000000e+000) (0, 0, 0.00000000000000000000e+000) (0, 0, 0.00000000000000000000e+000) (0, 0, 0.00000000000000000000e+000) (0, 0, 0.00000000000000000000e+000) (0, 0, 0.00000000000000000000e+000) (0, 0, 0.00000000000000000000e+000) (0, 0, 0.00000000000000000000e+000) (0, 0, 0.00000000000000000000e+000) (0, 0, 0.00000000000000000000e+000) (0, 0, 0.00000000000000000000e+000) (0, 0, 0.00000000000000000000e+000) (0, 0, 0.00000000000000000000e+000) (0, 0, 0.00000000000000000000e+000) (0, 0, 0.00000000000000000000e+000) (0, 0, 0.00000000000000000000e+000) (0, 0, 0.00000000000000000000e+000) (0, 0, 0.00000000000000000000e+000) (0, 0, 0.00000000000000000000e+000) (0, 0, 0.00000000000000000000e+000) (0, 0, 0.00000000000000000000e+000) (0, 0, 0.00000000000000000000e+000) (0, 0, 0.00000000000000000000e+000) (0, 0, 0.00000000000000000000e+000) (0, 0, 0.00000000000000000000e+000) (0, 0, 0.00000000000000000000e+000) (0, 0, 0.00000000000000000000e+000) (0, 0, 0.00000000000000000000e+000) (0, 0, 0.00000000000000000000e+000) (0, 0, 0.00000000000000000000e+000) (0, 0, 0.00000000000000000000e+000) (0, 0, 0.00000000000000000000e+000) (0, 0, 0.00000000000000000000e+000) (0, 0, 0.00000000000000000000e+000) (241, 4, 1.10000002384185790000e+000) (241, 4, 1.10000002384185790000e+000) (241, 4, 1.10000002384185790000e+000) (241, 4, 1.10000002384185790000e+000) (241, 4, 1.10000002384185790000e+000) (241, 4, 1.10000002384185790000e+000) (241, 4, 1.10000002384185790000e+000) (241, 4, 1.10000002384185790000e+000) (0, 4, 1.10000002384185790000e+000) (9, 5, 1.00000000000000000000e+000) (9, 5, 1.00000000000000000000e+000) (0, 5, 1.00000000000000000000e+000) 
connections (connected_to_neuron, weight)=(0, 8.27001482248306270000e-002) (1, 3.79649661481380460000e-002) (2, -7.69748762249946590000e-002) (3, 1.34852128103375430000e-002) (4, 7.41903856396675110000e-002) (5, 9.04811546206474300000e-002) (6, 5.32678887248039250000e-002) (7, 7.49890655279159550000e-002) (8, 8.08428507298231120000e-003) (9, -5.46630099415779110000e-002) (10, -2.51313131302595140000e-002) (11, 6.97642043232917790000e-002) (12, -5.52163831889629360000e-002) (13, -2.51857154071331020000e-002) (14, 4.26677241921424870000e-002) (15, 1.13223502412438390000e-002) (16, -6.15552328526973720000e-002) (17, -3.68019044399261470000e-002) (18, -9.26823318004608150000e-002) (19, -9.76792871952056880000e-002) (20, 4.48598153889179230000e-002) (21, 6.71725347638130190000e-003) (22, 2.41711921989917760000e-002) (23, -3.66844423115253450000e-002) (24, 3.54391746222972870000e-002) (25, 4.83274273574352260000e-002) (26, 2.05400399863719940000e-002) (27, 1.50081589818000790000e-002) (28, -1.99369490146636960000e-002) (29, 6.88287019729614260000e-002) (30, -2.72285360842943190000e-002) (31, 6.41132444143295290000e-002) (32, 5.84960542619228360000e-002) (33, -4.02890034019947050000e-002) (34, -4.67488691210746770000e-002) (35, 2.50929072499275210000e-002) (36, 5.42681030929088590000e-002) (37, 2.86148674786090850000e-002) (38, 4.99918311834335330000e-002) (39, -2.26256493479013440000e-002) (40, 6.31735548377037050000e-002) (41, -1.02664589881896970000e-001) (42, -9.04351193457841870000e-003) (43, -1.03723481297492980000e-001) (44, 2.06937342882156370000e-002) (45, -2.34948750585317610000e-002) (46, 7.79559090733528140000e-002) (47, 9.63729619979858400000e-002) (48, -1.45191578194499020000e-002) (49, -6.23741820454597470000e-002) (50, -9.50936377048492430000e-002) (51, 1.70113667845726010000e-002) (52, 6.32509663701057430000e-002) (53, 7.24688544869422910000e-002) (54, 1.79491303861141200000e-002) (55, 6.65612071752548220000e-002) (56, -4.20337729156017300000e-002) (57, 5.44995851814746860000e-002) (58, 9.00039672851562500000e-002) (59, 7.82325118780136110000e-002) (60, -6.21484667062759400000e-002) (61, -5.13659715652465820000e-002) (62, 2.85848211497068410000e-002) (63, 1.89832635223865510000e-002) (64, 1.29403620958328250000e-002) (65, -2.34799049794673920000e-002) (66, -3.13301756978034970000e-002) (67, 9.61089879274368290000e-002) (68, -7.53102898597717290000e-002) (69, -8.63695517182350160000e-003) (70, -9.83315408229827880000e-002) (71, 2.58562881499528880000e-002) (72, -2.57416199892759320000e-002) (73, 7.57853016257286070000e-002) (74, -7.02513530850410460000e-002) (75, 1.29475127905607220000e-002) (76, 3.41684110462665560000e-002) (77, -1.66833177208900450000e-002) (78, -3.01322173327207570000e-002) (79, -3.78674827516078950000e-002) (80, 5.78876771032810210000e-002) (81, 7.41810277104377750000e-002) (82, 4.19397354125976560000e-002) (83, 8.53532254695892330000e-002) (84, 5.93198230490088460000e-003) (85, -4.39784601330757140000e-002) (86, -7.75797143578529360000e-002) (87, -1.01419776678085330000e-001) (88, 8.44243615865707400000e-002) (89, -3.98071035742759700000e-002) (90, -5.51562085747718810000e-002) (91, 6.95428848266601560000e-002) (92, 7.67060071229934690000e-002) (93, -8.59145969152450560000e-002) (94, -6.45026937127113340000e-002) (95, -4.52637337148189540000e-002) (96, -3.37556675076484680000e-002) (97, -1.17019645404070620000e-003) (98, -8.53862389922142030000e-002) (99, -7.99773931503295900000e-002) (100, 2.19930596649646760000e-002) (101, 4.33687977492809300000e-002) (102, -7.25463852286338810000e-002) (103, -4.06783595681190490000e-002) (104, -1.00339941680431370000e-001) (105, -5.06904423236846920000e-002) (106, 3.67385894060134890000e-002) (107, -4.17359955608844760000e-002) (108, -3.71636450290679930000e-002) (109, -2.75132451206445690000e-002) (110, 2.49631181359291080000e-002) (111, -6.69719204306602480000e-002) (112, -3.14996838569641110000e-002) (113, -7.96471070498228070000e-003) (114, 9.19560715556144710000e-003) (115, -5.78559823334217070000e-002) (116, -1.06259375810623170000e-001) (117, 7.89520964026451110000e-002) (118, 7.84839093685150150000e-002) (119, -1.02432459592819210000e-001) (120, 5.08916042745113370000e-002) (121, 8.46533626317977910000e-002) (122, 4.24167700111866000000e-002) (123, 4.77614440023899080000e-002) (124, 5.36683201789855960000e-002) (125, -1.45145151764154430000e-002) (126, -3.13747487962245940000e-002) (127, -6.93339481949806210000e-002) (128, 2.14403308928012850000e-002) (129, -7.99617394804954530000e-002) (130, 7.97114055603742600000e-003) (131, -2.55537172779440880000e-003) (132, -7.28731392882764340000e-004) (133, 6.90898578613996510000e-003) (134, -5.34547492861747740000e-002) (135, 3.20588983595371250000e-002) (136, -6.10230974853038790000e-002) (137, -9.02639403939247130000e-002) (138, -6.69147912412881850000e-003) (139, 3.02513558417558670000e-002) (140, -5.90735860168933870000e-002) (141, -8.68207514286041260000e-002) (142, 5.38831576704978940000e-002) (143, -2.38638110458850860000e-002) (144, 7.94616863131523130000e-002) (145, 8.04494246840476990000e-002) (146, -1.05323821306228640000e-001) (147, -2.60287988930940630000e-002) (148, 7.40370806306600570000e-003) (149, 1.98896601796150210000e-002) (150, -8.83596539497375490000e-002) (151, 1.49811515584588050000e-002) (152, 5.56500069797039030000e-002) (153, 4.79536429047584530000e-002) (154, 8.86204913258552550000e-002) (155, -1.74478385597467420000e-002) (156, -9.07278284430503850000e-002) (157, 2.72011533379554750000e-002) (158, 8.30975621938705440000e-002) (159, 6.19086325168609620000e-002) (160, -1.02567642927169800000e-001) (161, -5.61502687633037570000e-002) (162, 3.44610512256622310000e-002) (163, -9.75402146577835080000e-002) (164, 5.06249293684959410000e-002) (165, 3.17308902740478520000e-002) (166, 7.94840016169473530000e-005) (167, 4.78886961936950680000e-002) (168, 7.10677579045295720000e-002) (169, 9.14148092269897460000e-002) (170, 7.05094262957572940000e-002) (171, 9.30091366171836850000e-002) (172, 1.69531404972076420000e-002) (173, -1.00191727280616760000e-001) (174, -8.48815292119979860000e-002) (175, 8.13486799597740170000e-002) (176, -6.63507953286170960000e-002) (177, -9.13206040859222410000e-002) (178, -6.21405765414237980000e-002) (179, -3.10167949646711350000e-002) (180, -9.72239151597023010000e-002) (181, -8.66894945502281190000e-002) (182, -8.30389186739921570000e-002) (183, -1.84266157448291780000e-002) (184, 1.50788240134716030000e-002) (185, -1.02893881499767300000e-001) (186, 8.45013335347175600000e-002) (187, 6.74472004175186160000e-002) (188, -3.61817628145217900000e-002) (189, 7.40748569369316100000e-002) (190, -2.36643161624670030000e-002) (191, -8.21251980960369110000e-003) (192, 9.19122025370597840000e-002) (193, -4.74675633013248440000e-002) (194, 8.19127857685089110000e-002) (195, -2.66623087227344510000e-002) (196, 2.96981334686279300000e-002) (197, -2.86507457494735720000e-002) (198, 9.10658091306686400000e-002) (199, -5.91433383524417880000e-002) (200, 4.41908575594425200000e-002) (201, 3.29232518561184410000e-003) (202, -3.57314832508564000000e-002) (203, -5.24421073496341710000e-002) (204, 2.63531040400266650000e-002) (205, -3.18297706544399260000e-002) (206, -5.77208325266838070000e-002) (207, -9.94610562920570370000e-002) (208, -5.10947406291961670000e-002) (209, 5.08232004940509800000e-002) (210, 2.60033383965492250000e-002) (211, 1.38557069003582000000e-002) (212, 9.38213430345058440000e-004) (213, -4.91321347653865810000e-002) (214, -2.83432118594646450000e-002) (215, -5.63838854432106020000e-002) (216, 1.61848627030849460000e-002) (217, -1.61099284887313840000e-002) (218, 4.08814810216426850000e-002) (219, 4.19107787311077120000e-002) (220, 1.28604322671890260000e-002) (221, 6.01944625377655030000e-002) (222, 2.61877523735165600000e-003) (223, 2.84888111054897310000e-002) (224, 1.03673208504915240000e-002) (225, 1.60114616155624390000e-002) (226, -5.43054519221186640000e-003) (227, 5.26394620537757870000e-002) (228, -9.18452814221382140000e-002) (229, -7.11402371525764470000e-002) (230, 3.52616123855113980000e-002) (231, 1.82321146130561830000e-002) (232, 8.95887985825538640000e-002) (233, 8.60073566436767580000e-002) (234, -3.59516665339469910000e-002) (235, 7.60219767689704900000e-002) (236, 8.59691798686981200000e-002) (237, -1.59555617719888690000e-002) (238, -3.69592644274234770000e-002) (239, 1.49453142657876010000e-002) (240, -5.90250268578529360000e-003) (0, 9.71891134977340700000e-002) (1, -3.76170105300843720000e-003) (2, 4.31856215000152590000e-002) (3, -5.57916844263672830000e-003) (4, -7.87915196269750600000e-003) (5, -5.67560344934463500000e-002) (6, 1.39578022062778470000e-002) (7, -7.04015269875526430000e-002) (8, -6.55883774161338810000e-002) (9, -3.18011194467544560000e-002) (10, 7.83519744873046880000e-002) (11, 5.00102713704109190000e-002) (12, -6.77853375673294070000e-002) (13, 4.73113246262073520000e-002) (14, 1.07819631695747380000e-001) (15, 3.87099683284759520000e-002) (16, -1.71857737004756930000e-002) (17, -9.64013412594795230000e-002) (18, -8.93924757838249210000e-002) (19, 6.94975703954696660000e-002) (20, 2.12616010685451330000e-004) (21, 1.04894906282424930000e-001) (22, -5.17970062792301180000e-002) (23, 6.46904110908508300000e-002) (24, 9.14467647671699520000e-002) (25, -8.50885882973670960000e-002) (26, 9.63943526148796080000e-002) (27, -2.34297253191471100000e-002) (28, -6.92632123827934270000e-002) (29, 2.55047455430030820000e-002) (30, -6.12717531621456150000e-002) (31, 5.48746176064014430000e-002) (32, 1.33705483749508860000e-002) (33, -4.62537147104740140000e-002) (34, 7.85992369055747990000e-002) (35, -5.94337880611419680000e-002) (36, 6.32253140211105350000e-002) (37, 4.13875617086887360000e-002) (38, 5.85106983780860900000e-002) (39, -1.30753184203058480000e-003) (40, 9.18077379465103150000e-002) (41, 3.73402237892150880000e-002) (42, 7.30389058589935300000e-002) (43, -3.38617786765098570000e-002) (44, 4.21070531010627750000e-002) (45, -6.55099451541900630000e-002) (46, 7.50080868601799010000e-002) (47, 8.71886983513832090000e-002) (48, -4.79892343282699580000e-002) (49, 5.87585717439651490000e-002) (50, 7.01779276132583620000e-002) (51, 9.94379520416259770000e-002) (52, 4.66854125261306760000e-002) (53, -8.16769376397132870000e-002) (54, 5.00180795788764950000e-002) (55, -5.98945990204811100000e-002) (56, 5.56830540299415590000e-002) (57, -7.26785063743591310000e-002) (58, 3.08454427868127820000e-002) (59, -3.47194867208600040000e-003) (60, 5.74652031064033510000e-002) (61, -4.82765808701515200000e-002) (62, -4.07690368592739110000e-002) (63, 8.71674492955207820000e-002) (64, 1.89971644431352620000e-002) (65, -8.04232358932495120000e-002) (66, 2.78714373707771300000e-002) (67, -7.30325728654861450000e-002) (68, 5.38237988948822020000e-002) (69, 1.14847170189023020000e-002) (70, 4.40460294485092160000e-002) (71, 6.02534115314483640000e-002) (72, 6.41939193010330200000e-002) (73, -2.65120510011911390000e-002) (74, 7.30034410953521730000e-002) (75, -6.18434883654117580000e-002) (76, 3.91907095909118650000e-002) (77, -1.25633627176284790000e-002) (78, -1.00206948816776280000e-001) (79, -5.11254929006099700000e-002) (80, 9.59187522530555730000e-002) (81, 2.39675361663103100000e-002) (82, -4.99840974807739260000e-002) (83, 8.79474654793739320000e-002) (84, -4.18055243790149690000e-002) (85, 3.25842946767807010000e-002) (86, -7.58794546127319340000e-002) (87, -5.89547343552112580000e-002) (88, 7.22595974802970890000e-002) (89, -2.03591622412204740000e-002) (90, 8.34057107567787170000e-002) (91, -6.69295117259025570000e-002) (92, -8.80790352821350100000e-002) (93, 8.93886014819145200000e-003) (94, 4.78223375976085660000e-002) (95, -2.29666735976934430000e-002) (96, 5.91844096779823300000e-002) (97, 1.05371326208114620000e-001) (98, 2.89621930569410320000e-002) (99, 6.17991052567958830000e-002) (100, 2.36860360018908980000e-003) (101, 1.82593669742345810000e-002) (102, 5.82034066319465640000e-002) (103, 1.00296922028064730000e-001) (104, 2.41848621517419820000e-002) (105, -8.02405178546905520000e-002) (106, -1.26798860728740690000e-002) (107, -1.18340766057372090000e-002) (108, -7.53492629155516620000e-003) (109, 7.80201703310012820000e-002) (110, 2.98708584159612660000e-002) (111, 8.75226110219955440000e-002) (112, 4.66890148818492890000e-002) (113, 6.38881996273994450000e-002) (114, 2.26341094821691510000e-002) (115, 3.92071343958377840000e-002) (116, 5.14677725732326510000e-002) (117, -2.30355486273765560000e-002) (118, 4.53700050711631770000e-002) (119, 8.02235826849937440000e-002) (120, -6.65918067097663880000e-002) (121, -5.98508082330226900000e-002) (122, -3.53645682334899900000e-002) (123, 4.91964481770992280000e-002) (124, -2.50611770898103710000e-002) (125, 1.65703240782022480000e-002) (126, -6.56233802437782290000e-002) (127, 5.40942214429378510000e-002) (128, 2.25391015410423280000e-002) (129, -1.39175653457641600000e-002) (130, 6.03285245597362520000e-002) (131, 6.20066337287425990000e-002) (132, -1.98242496699094770000e-002) (133, 7.55561664700508120000e-002) (134, -1.96263398975133900000e-002) (135, -3.77290807664394380000e-002) (136, 7.63471499085426330000e-002) (137, 1.71392541378736500000e-002) (138, 8.35043378174304960000e-003) (139, 1.16963483393192290000e-001) (140, 2.76711266487836840000e-002) (141, 8.14576353877782820000e-003) (142, -3.83032560348510740000e-002) (143, -3.91285270452499390000e-002) (144, -6.70790374279022220000e-002) (145, 1.95596199482679370000e-002) (146, 3.20809967815876010000e-002) (147, -3.22857983410358430000e-002) (148, -5.47098778188228610000e-002) (149, 5.17323426902294160000e-002) (150, -6.11106045544147490000e-002) (151, -1.16923952009528880000e-003) (152, -5.78583963215351100000e-002) (153, 2.89852940477430820000e-003) (154, -3.89886908233165740000e-002) (155, 2.97761950641870500000e-002) (156, -3.55256013572216030000e-002) (157, 8.18759948015213010000e-002) (158, -1.06125526130199430000e-001) (159, -3.63816991448402400000e-002) (160, -6.08451850712299350000e-002) (161, 8.50290283560752870000e-002) (162, 7.67180323600769040000e-002) (163, 5.50286956131458280000e-002) (164, -4.68791946768760680000e-002) (165, 8.18213894963264470000e-002) (166, 3.17590646445751190000e-002) (167, -1.01906813681125640000e-001) (168, 5.26594109833240510000e-002) (169, -2.22392231225967410000e-002) (170, 1.28328101709485050000e-002) (171, 5.64058870077133180000e-002) (172, -7.10402503609657290000e-002) (173, -4.25510555505752560000e-002) (174, 4.14237678050994870000e-002) (175, -3.96753586828708650000e-002) (176, 6.88788667321205140000e-002) (177, 5.69187216460704800000e-002) (178, 2.03003305941820140000e-002) (179, 2.67444998025894170000e-002) (180, 8.80659595131874080000e-002) (181, 1.77700165659189220000e-002) (182, 1.86787396669387820000e-002) (183, 4.71753478050231930000e-002) (184, -2.99102086573839190000e-002) (185, -9.05296653509140010000e-002) (186, -5.85531815886497500000e-002) (187, -3.08079104870557790000e-002) (188, 1.54795628041028980000e-002) (189, -1.25317201018333440000e-002) (190, -3.48947979509830470000e-002) (191, -4.77649867534637450000e-002) (192, -7.93050508946180340000e-003) (193, 5.08082918822765350000e-002) (194, -6.98507279157638550000e-002) (195, 7.02890753746032710000e-002) (196, 1.00473977625370030000e-001) (197, -4.68071363866329190000e-002) (198, -4.38990108668804170000e-002) (199, 4.30886298418045040000e-002) (200, -1.02130919694900510000e-002) (201, -5.86926490068435670000e-002) (202, 1.11062489449977870000e-002) (203, 6.38388693332672120000e-002) (204, 6.00272156298160550000e-002) (205, -6.51913881301879880000e-002) (206, -2.36440785229206090000e-002) (207, 2.00554095208644870000e-002) (208, -4.24705967307090760000e-002) (209, -4.24880273640155790000e-002) (210, 5.93869052827358250000e-002) (211, 6.59364387392997740000e-002) (212, -6.38839080929756160000e-002) (213, 3.95645387470722200000e-003) (214, -4.52249730005860330000e-003) (215, -2.13741720654070380000e-003) (216, 6.29703551530838010000e-002) (217, 8.95913392305374150000e-002) (218, 9.04711708426475520000e-002) (219, -2.82558444887399670000e-002) (220, 7.38649070262908940000e-002) (221, -6.07544649392366410000e-003) (222, -8.31981971859931950000e-002) (223, 1.03167578577995300000e-001) (224, 1.10008165240287780000e-001) (225, -9.04812440276145940000e-002) (226, -3.39739434421062470000e-002) (227, 9.10659208893775940000e-002) (228, -9.19317156076431270000e-002) (229, -6.36518597602844240000e-002) (230, 2.84610074013471600000e-002) (231, 4.61750738322734830000e-002) (232, 1.00326895713806150000e-001) (233, 1.28667000681161880000e-002) (234, 4.63653877377510070000e-002) (235, 3.48318591713905330000e-002) (236, 3.78783270716667180000e-002) (237, -3.10796778649091720000e-002) (238, -5.38699403405189510000e-002) (239, 6.17601256817579270000e-003) (240, -8.85094925761222840000e-002) (0, -5.94286657869815830000e-002) (1, 8.36726650595664980000e-002) (2, -4.32641804218292240000e-002) (3, -1.79698541760444640000e-002) (4, -8.84619802236557010000e-002) (5, 8.52198339998722080000e-003) (6, 7.76915177702903750000e-002) (7, -9.08977165818214420000e-002) (8, 9.52711477875709530000e-002) (9, -1.89855694770812990000e-002) (10, 5.20500168204307560000e-003) (11, -2.80854050070047380000e-002) (12, -9.91251617670059200000e-002) (13, 1.07648938894271850000e-001) (14, -2.14126929640769960000e-001) (15, 5.57612553238868710000e-002) (16, -8.64393264055252080000e-003) (17, 7.98977017402648930000e-002) (18, -1.07295595109462740000e-001) (19, -2.12433189153671260000e-003) (20, -1.22117578983306880000e-001) (21, -2.62480620294809340000e-002) (22, -1.24715648591518400000e-001) (23, -1.20692588388919830000e-001) (24, -8.85916277766227720000e-002) (25, 1.12723167985677720000e-002) (26, -9.18308943510055540000e-002) (27, -1.49861793033778670000e-003) (28, -4.62060514837503430000e-003) (29, 1.52133882045745850000e-001) (30, -1.71720758080482480000e-001) (31, -1.74943730235099790000e-002) (32, 5.45755820348858830000e-003) (33, -2.12790258228778840000e-002) (34, 1.35820386931300160000e-002) (35, 1.40302821993827820000e-001) (36, -5.76432384550571440000e-002) (37, 1.17340050637722020000e-002) (38, 1.92487593740224840000e-002) (39, 1.37533798813819890000e-001) (40, -4.33267466723918910000e-002) (41, -2.76785828173160550000e-002) (42, -2.00736019760370250000e-002) (43, -8.54480788111686710000e-002) (44, -6.88517615199089050000e-002) (45, 1.10232830047607420000e-002) (46, 1.07399620115756990000e-001) (47, -1.63426160812377930000e-001) (48, 1.06483116745948790000e-001) (49, -8.26571807265281680000e-002) (50, -1.46418765187263490000e-001) (51, -4.67725358903408050000e-002) (52, -1.41931578516960140000e-001) (53, 3.17812897264957430000e-002) (54, -1.30628928542137150000e-001) (55, -2.41353176534175870000e-002) (56, -2.78686154633760450000e-002) (57, -9.58233103156089780000e-002) (58, 7.97660872340202330000e-002) (59, 1.26703798770904540000e-001) (60, 6.98752999305725100000e-002) (61, -8.56714248657226560000e-002) (62, -3.88467647135257720000e-002) (63, 1.89492069184780120000e-002) (64, -4.50417734682559970000e-002) (65, 2.97354767099022870000e-003) (66, -2.40286756306886670000e-002) (67, -3.10930572450160980000e-002) (68, -1.36942751705646510000e-002) (69, 1.56554490327835080000e-001) (70, -4.85893264412879940000e-002) (71, -1.62267126142978670000e-002) (72, -2.50192265957593920000e-002) (73, -1.00517086684703830000e-001) (74, -5.76511882245540620000e-002) (75, 3.72688062489032750000e-002) (76, 1.60933315753936770000e-001) (77, -1.92836552858352660000e-001) (78, 7.87518620491027830000e-002) (79, -4.88211475312709810000e-002) (80, 5.50289787352085110000e-002) (81, -1.97204053401947020000e-001) (82, -2.02064648270606990000e-001) (83, -1.42430573701858520000e-001) (84, -1.12833045423030850000e-001) (85, -1.69887006282806400000e-001) (86, 1.62104330956935880000e-002) (87, -2.42629647254943850000e-001) (88, -4.07852120697498320000e-002) (89, 5.48242479562759400000e-002) (90, 5.47638274729251860000e-002) (91, -9.57632213830947880000e-002) (92, -8.29407796263694760000e-002) (93, -8.58390554785728450000e-002) (94, -6.57333880662918090000e-002) (95, 1.33957415819168090000e-001) (96, 5.18744587898254390000e-002) (97, 8.47713500261306760000e-002) (98, -7.31789097189903260000e-002) (99, 6.14871121942996980000e-002) (100, -7.90784060955047610000e-002) (101, -1.13131694495677950000e-001) (102, -1.40216305851936340000e-001) (103, -2.22254604101181030000e-001) (104, -5.74969202280044560000e-002) (105, 1.10563851892948150000e-001) (106, 1.17865264415740970000e-001) (107, -6.51682838797569270000e-002) (108, 9.88242924213409420000e-002) (109, 1.09305091202259060000e-001) (110, -2.28099524974823000000e-001) (111, -5.30341602861881260000e-002) (112, -2.77124434709548950000e-001) (113, -2.32393115758895870000e-001) (114, -4.73403930664062500000e-001) (115, -8.61124768853187560000e-002) (116, 4.57637896761298180000e-003) (117, -6.89448788762092590000e-002) (118, -1.39026129618287090000e-002) (119, 6.02646395564079280000e-002) (120, 1.01692587137222290000e-001) (121, -1.48613855242729190000e-001) (122, -1.55755713582038880000e-001) (123, 1.69897973537445070000e-002) (124, 4.41001579165458680000e-002) (125, 6.50427639484405520000e-002) (126, 1.57917320728302000000e-001) (127, 1.92421704530715940000e-001) (128, -2.56257466971874240000e-002) (129, -2.45683100074529650000e-002) (130, 9.62307453155517580000e-002) (131, -7.55043700337409970000e-002) (132, 7.07643514033406970000e-004) (133, -1.19917601346969600000e-001) (134, -1.82462766766548160000e-001) (135, 4.91105765104293820000e-002) (136, 1.17067858576774600000e-001) (137, 4.81709055602550510000e-002) (138, -7.95470625162124630000e-002) (139, -1.83374151587486270000e-001) (140, -1.80674701929092410000e-001) (141, -7.50796049833297730000e-002) (142, -3.10288765467703340000e-003) (143, 1.25284316018223760000e-002) (144, -5.63664019107818600000e-001) (145, -5.05627645179629330000e-003) (146, 1.15927897393703460000e-001) (147, -1.76228489726781850000e-003) (148, -8.92359018325805660000e-002) (149, 2.17753928154706950000e-002) (150, -1.12955411896109580000e-003) (151, -8.97836238145828250000e-002) (152, -8.66678878664970400000e-002) (153, -9.12964567542076110000e-002) (154, 1.23935952782630920000e-001) (155, 1.59252792596817020000e-001) (156, 1.26946354284882550000e-002) (157, 1.40457540750503540000e-001) (158, 6.42041265964508060000e-002) (159, 1.77863493561744690000e-001) (160, -3.07276751846075060000e-002) (161, -7.46493116021156310000e-002) (162, -1.28028243780136110000e-001) (163, 1.09096050262451170000e-001) (164, -7.93214738368988040000e-002) (165, 2.39135306328535080000e-002) (166, -8.10370128601789470000e-003) (167, 8.68636816740036010000e-002) (168, 7.68165066838264470000e-002) (169, 2.23703589290380480000e-002) (170, -1.15600720047950740000e-001) (171, -1.85648962855339050000e-001) (172, -1.24430425465106960000e-001) (173, 4.22823093831539150000e-002) (174, 4.42633666098117830000e-002) (175, -1.62283450365066530000e-001) (176, 1.61444604396820070000e-001) (177, -7.02333971858024600000e-002) (178, -1.53157293796539310000e-001) (179, 8.45615416765213010000e-002) (180, -6.62884637713432310000e-002) (181, -1.15361437201499940000e-002) (182, -4.12103161215782170000e-002) (183, -8.11109021306037900000e-002) (184, -2.95312399975955490000e-003) (185, 9.43456292152404790000e-002) (186, 1.62277519702911380000e-001) (187, -2.25717108696699140000e-002) (188, 1.00253045558929440000e-001) (189, 3.70963335037231450000e-001) (190, -1.71968750655651090000e-002) (191, -8.60661789774894710000e-002) (192, -1.23746335506439210000e-001) (193, 3.43758892267942430000e-003) (194, -9.12337675690650940000e-002) (195, 1.53837621212005620000e-001) (196, 1.76677610725164410000e-002) (197, -1.03799896314740180000e-002) (198, 6.35700374841690060000e-002) (199, 7.07691162824630740000e-002) (200, 1.61077324301004410000e-002) (201, -1.92788466811180110000e-002) (202, -9.34028998017311100000e-002) (203, 1.41339182853698730000e-001) (204, -6.07846677303314210000e-002) (205, -1.60110965371131900000e-001) (206, 9.05304998159408570000e-002) (207, -5.33055476844310760000e-002) (208, -1.39179155230522160000e-002) (209, 1.24113701283931730000e-001) (210, 1.42391741275787350000e-001) (211, 5.17844259738922120000e-002) (212, -8.58837738633155820000e-002) (213, -4.28947284817695620000e-002) (214, -1.87532242853194480000e-003) (215, -9.99300032854080200000e-002) (216, 1.24643817543983460000e-001) (217, 2.13286257348954680000e-003) (218, 1.33233085274696350000e-001) (219, 8.20163115859031680000e-002) (220, -3.02291233092546460000e-002) (221, -5.24764880537986760000e-002) (222, -1.30588740110397340000e-001) (223, -1.27240940928459170000e-002) (224, -6.59240111708641050000e-002) (225, -7.06003457307815550000e-002) (226, 1.30234375596046450000e-001) (227, 8.85585919022560120000e-002) (228, 6.26485981047153470000e-003) (229, 7.96726569533348080000e-002) (230, -9.20749753713607790000e-002) (231, -8.32722187042236330000e-002) (232, -9.44261997938156130000e-002) (233, -3.60967107117176060000e-002) (234, -2.55739409476518630000e-002) (235, -3.02634239196777340000e-002) (236, 4.26617115736007690000e-002) (237, 1.22265666723251340000e-001) (238, 2.70260833203792570000e-002) (239, 1.20171815156936650000e-001) (240, 3.21470707654953000000e-001) (0, 7.30342790484428410000e-002) (1, -3.58569510281085970000e-002) (2, -2.80453804880380630000e-002) (3, -1.46464230492711070000e-002) (4, 3.94814275205135350000e-002) (5, 3.31379845738410950000e-002) (6, -3.87039594352245330000e-002) (7, 5.60315772891044620000e-002) (8, 2.06966754049062730000e-002) (9, 1.49879679083824160000e-002) (10, 6.05477318167686460000e-002) (11, 1.38704327400773760000e-003) (12, 7.30725079774856570000e-002) (13, -4.37885895371437070000e-002) (14, -3.55920381844043730000e-002) (15, -1.59452259540557860000e-002) (16, 7.61221349239349370000e-002) (17, 3.49107608199119570000e-002) (18, -2.08323020488023760000e-002) (19, 7.09856525063514710000e-002) (20, 4.66260090470314030000e-002) (21, 2.54327915608882900000e-002) (22, -4.39507439732551570000e-002) (23, -1.07789471745491030000e-001) (24, -4.95577342808246610000e-002) (25, 2.50959247350692750000e-002) (26, -4.82639931142330170000e-002) (27, -2.43162401020526890000e-002) (28, -9.34555307030677800000e-002) (29, -1.76547206938266750000e-002) (30, 3.24466563761234280000e-002) (31, -8.99669751524925230000e-002) (32, -1.09447374939918520000e-001) (33, 4.99920882284641270000e-002) (34, -3.15142273902893070000e-002) (35, -3.86171787977218630000e-002) (36, 6.98814541101455690000e-002) (37, -6.34912103414535520000e-002) (38, -9.69870910048484800000e-002) (39, -3.62417362630367280000e-002) (40, 6.63122758269310000000e-002) (41, -3.75291332602500920000e-002) (42, -2.32616998255252840000e-002) (43, -5.88795170187950130000e-003) (44, -4.51313331723213200000e-002) (45, 5.89074008166790010000e-003) (46, -2.46998611837625500000e-002) (47, -3.66636253893375400000e-002) (48, -6.37380257248878480000e-002) (49, -2.59156022220849990000e-002) (50, -9.02370363473892210000e-002) (51, -1.45955663174390790000e-002) (52, -6.62941262125968930000e-002) (53, 2.10716743022203450000e-002) (54, -2.19681020826101300000e-002) (55, 8.05214419960975650000e-002) (56, -2.61350329965353010000e-002) (57, 2.95591652393341060000e-002) (58, -2.58690081536769870000e-002) (59, -2.60592624545097350000e-002) (60, -2.27002557367086410000e-002) (61, 5.25719337165355680000e-002) (62, -8.19794982671737670000e-002) (63, -8.89751911163330080000e-002) (64, -1.09353445470333100000e-001) (65, -9.47294086217880250000e-002) (66, 4.20879572629928590000e-002) (67, -9.57142785191535950000e-002) (68, 7.81379714608192440000e-002) (69, -6.96207433938980100000e-002) (70, 6.89323171973228450000e-002) (71, -4.72139194607734680000e-002) (72, -9.60789173841476440000e-002) (73, -5.74834570288658140000e-002) (74, -1.32658546790480610000e-002) (75, -1.05732113122940060000e-001) (76, -8.86775851249694820000e-002) (77, -5.96900517120957370000e-003) (78, -1.00086040794849400000e-001) (79, -8.64853188395500180000e-002) (80, -9.04208123683929440000e-002) (81, -9.30444300174713130000e-002) (82, -8.67216065526008610000e-002) (83, 1.13253323361277580000e-002) (84, 5.17732128500938420000e-002) (85, 6.23877458274364470000e-002) (86, -6.23846054077148440000e-002) (87, 7.93918818235397340000e-002) (88, 7.31761604547500610000e-002) (89, 7.22518423572182660000e-003) (90, 4.75111790001392360000e-002) (91, 7.94115364551544190000e-002) (92, 7.69313201308250430000e-002) (93, -2.08232179284095760000e-003) (94, -4.42412458360195160000e-002) (95, -3.05080320686101910000e-003) (96, 3.26701216399669650000e-002) (97, -4.34821173548698430000e-002) (98, 1.32093699648976330000e-002) (99, -1.70801524072885510000e-002) (100, -2.77215242385864260000e-002) (101, -2.13651396334171300000e-002) (102, 8.02292227745056150000e-002) (103, -1.00769124925136570000e-001) (104, -1.13053239881992340000e-001) (105, 7.00283572077751160000e-002) (106, 7.52264680340886120000e-003) (107, -9.93697717785835270000e-002) (108, 4.71667908132076260000e-002) (109, -1.76128651946783070000e-002) (110, 3.34100909531116490000e-002) (111, 4.41613197326660160000e-002) (112, -6.25158399343490600000e-002) (113, -3.81155200302600860000e-002) (114, 7.14152678847312930000e-002) (115, 1.06099704280495640000e-002) (116, 5.42041622102260590000e-002) (117, 5.21022975444793700000e-002) (118, -1.00335134193301200000e-002) (119, 7.21619948744773860000e-002) (120, -2.97225266695022580000e-002) (121, 6.78969845175743100000e-002) (122, -8.42775106430053710000e-002) (123, -7.25416839122772220000e-002) (124, 8.49530845880508420000e-002) (125, -5.20447641611099240000e-002) (126, -4.77688536047935490000e-002) (127, 7.42428377270698550000e-002) (128, -5.27462922036647800000e-002) (129, 1.56060811132192610000e-002) (130, 4.64077442884445190000e-002) (131, -1.58260706812143330000e-002) (132, -1.00913286209106450000e-001) (133, 1.17953307926654820000e-002) (134, 2.22124028950929640000e-002) (135, 5.74319660663604740000e-002) (136, 1.88655722886323930000e-002) (137, -4.04733140021562580000e-003) (138, 6.88620209693908690000e-002) (139, -6.99473097920417790000e-002) (140, -4.28741872310638430000e-002) (141, -2.14717183262109760000e-002) (142, 3.23543101549148560000e-002) (143, -2.12571397423744200000e-002) (144, -2.71268263459205630000e-002) (145, 8.72621312737464900000e-002) (146, -6.88927173614501950000e-002) (147, 1.55787868425250050000e-002) (148, 1.50439152494072910000e-002) (149, 3.21972034871578220000e-002) (150, -2.74699069559574130000e-002) (151, 2.80024986714124680000e-002) (152, -1.14351525902748110000e-001) (153, -4.54092361032962800000e-002) (154, -4.98391464352607730000e-002) (155, -1.14565901458263400000e-003) (156, 2.15021185576915740000e-002) (157, 5.03562530502676960000e-003) (158, 3.27085182070732120000e-002) (159, -6.89231380820274350000e-002) (160, 3.78684587776660920000e-002) (161, -5.82932820543646810000e-003) (162, -2.91126109659671780000e-002) (163, 2.56039723753929140000e-002) (164, 5.82531504333019260000e-002) (165, -1.91509388387203220000e-002) (166, -8.80514457821846010000e-002) (167, 5.97052574157714840000e-002) (168, 6.37416988611221310000e-002) (169, 4.07910458743572240000e-002) (170, -5.22171370685100560000e-002) (171, -4.58294823765754700000e-002) (172, -1.87246855348348620000e-002) (173, -1.75921749323606490000e-002) (174, 3.68337961845099930000e-003) (175, -3.40694598853588100000e-002) (176, -4.44011427462100980000e-002) (177, 4.24483641982078550000e-002) (178, -1.10399246215820310000e-001) (179, 3.91532443463802340000e-002) (180, -2.78284144587814810000e-003) (181, -2.52371225506067280000e-002) (182, 4.34749536216259000000e-002) (183, 2.31144037097692490000e-002) (184, -5.28352670371532440000e-002) (185, 8.46526771783828740000e-002) (186, 3.72256375849246980000e-002) (187, 4.88626956939697270000e-002) (188, 1.34529953356832270000e-003) (189, 3.90238910913467410000e-002) (190, 3.32967378199100490000e-002) (191, -9.17421951889991760000e-002) (192, -7.00975656509399410000e-002) (193, -3.51514182984828950000e-002) (194, 6.30156621336936950000e-002) (195, 1.26333301886916160000e-002) (196, -3.24673093855381010000e-002) (197, -1.59623939543962480000e-002) (198, -4.51362840831279750000e-002) (199, -9.28698703646659850000e-002) (200, 1.68545916676521300000e-002) (201, -6.85449540615081790000e-002) (202, 7.24251270294189450000e-002) (203, 5.90734928846359250000e-002) (204, -1.46589968353509900000e-002) (205, -1.06955409049987790000e-001) (206, -8.44609588384628300000e-002) (207, 6.11881911754608150000e-002) (208, 8.15026760101318360000e-002) (209, -8.81595090031623840000e-002) (210, 7.71728381514549260000e-002) (211, 2.04704739153385160000e-002) (212, -3.55436280369758610000e-002) (213, -1.32171595469117160000e-002) (214, -1.76141299307346340000e-002) (215, -6.15161173045635220000e-002) (216, -3.12734842300415040000e-002) (217, 3.21674370206892490000e-003) (218, 8.18961486220359800000e-002) (219, -7.93638154864311220000e-002) (220, -6.73167556524276730000e-002) (221, 1.92034728825092320000e-002) (222, 6.64169117808341980000e-002) (223, 5.21575659513473510000e-003) (224, -1.15159951150417330000e-001) (225, -9.41973701119422910000e-002) (226, 2.52117812633514400000e-002) (227, -9.48243811726570130000e-002) (228, 7.95379430055618290000e-002) (229, -7.39249214529991150000e-002) (230, -1.09983108937740330000e-001) (231, -1.14126808941364290000e-001) (232, -1.12921044230461120000e-001) (233, -2.35609579831361770000e-002) (234, -1.06963418424129490000e-001) (235, 5.71580305695533750000e-002) (236, 9.61730815470218660000e-003) (237, 1.38379791751503940000e-002) (238, -9.01290476322174070000e-002) (239, 1.80210801772773270000e-004) (240, -9.83302071690559390000e-002) (0, -1.39374863356351850000e-002) (1, -6.44797235727310180000e-002) (2, -5.20225912332534790000e-002) (3, 8.97256471216678620000e-003) (4, 8.78798663616180420000e-002) (5, -2.57463231682777400000e-002) (6, -1.60591721534729000000e-001) (7, -1.13380528986454010000e-001) (8, 5.83871081471443180000e-002) (9, -7.95171558856964110000e-002) (10, -2.38422732800245290000e-002) (11, -1.10216625034809110000e-001) (12, -2.31849625706672670000e-002) (13, 8.01876783370971680000e-002) (14, -1.96682527661323550000e-001) (15, 1.08294803649187090000e-002) (16, 2.34586745500564580000e-002) (17, 4.86026406288146970000e-002) (18, 7.65377134084701540000e-002) (19, -7.74910449981689450000e-002) (20, 3.52689549326896670000e-002) (21, -3.29073742032051090000e-002) (22, 9.85615849494934080000e-002) (23, -5.06745241582393650000e-002) (24, -7.64907225966453550000e-002) (25, -1.00099503993988040000e-001) (26, -8.82304310798645020000e-002) (27, 6.97846785187721250000e-002) (28, -1.75966143608093260000e-001) (29, 1.43594369292259220000e-001) (30, -3.53647656738758090000e-002) (31, -7.73508474230766300000e-002) (32, -3.19708772003650670000e-002) (33, -2.92018260806798930000e-002) (34, 7.08513334393501280000e-002) (35, 1.11945122480392460000e-001) (36, -1.13414525985717770000e-001) (37, -8.88889580965042110000e-002) (38, 8.03219377994537350000e-002) (39, 1.21547974646091460000e-001) (40, -2.63545531779527660000e-002) (41, -3.57341542840003970000e-002) (42, -5.83793930709362030000e-002) (43, -1.08693733811378480000e-001) (44, 1.40176853165030480000e-002) (45, -8.37664827704429630000e-002) (46, 8.23390260338783260000e-002) (47, -1.10324457287788390000e-001) (48, -7.09044886752963070000e-003) (49, 2.77671739459037780000e-002) (50, 7.42610991001129150000e-002) (51, -4.74389679729938510000e-002) (52, -4.17672544717788700000e-002) (53, 8.15762802958488460000e-002) (54, -2.12151333689689640000e-002) (55, -1.10820673406124110000e-001) (56, 9.89484935998916630000e-002) (57, -1.25071883201599120000e-001) (58, -1.08776008710265160000e-003) (59, -1.13249151036143300000e-003) (60, -7.82797206193208690000e-003) (61, -5.72513379156589510000e-002) (62, -4.60771322250366210000e-002) (63, -1.47361941635608670000e-002) (64, -1.80193129926919940000e-002) (65, 6.11223839223384860000e-002) (66, -1.39813162386417390000e-002) (67, -8.31197574734687810000e-002) (68, -5.18534816801548000000e-002) (69, 1.11237645149230960000e-001) (70, -5.61764743179082870000e-003) (71, 5.03336191177368160000e-002) (72, 5.12091582641005520000e-003) (73, -9.12501662969589230000e-003) (74, -1.55480027198791500000e-001) (75, -6.56419694423675540000e-002) (76, 6.03382512927055360000e-002) (77, -6.14241920411586760000e-002) (78, -4.74651269614696500000e-002) (79, -7.45907500386238100000e-002) (80, -3.01932562142610550000e-002) (81, -1.46167084574699400000e-001) (82, -1.48855701088905330000e-001) (83, -1.48768976330757140000e-001) (84, -1.38609841465950010000e-001) (85, -1.70562967658042910000e-001) (86, 1.48762725293636320000e-002) (87, -1.16976827383041380000e-001) (88, -7.65676200389862060000e-002) (89, -3.12102660536766050000e-002) (90, -1.16684086620807650000e-001) (91, -1.34552627801895140000e-001) (92, -8.58286842703819270000e-002) (93, 2.36315615475177760000e-002) (94, -1.52657076716423030000e-001) (95, 4.68508265912532810000e-002) (96, 1.28250960260629650000e-002) (97, 1.05050802230834960000e-001) (98, -5.10877631604671480000e-002) (99, 2.76776142418384550000e-002) (100, -1.39366537332534790000e-001) (101, -1.49912506341934200000e-001) (102, -1.12784355878829960000e-001) (103, -8.03063288331031800000e-002) (104, -1.67293936014175420000e-001) (105, 1.70511826872825620000e-002) (106, -1.23396776616573330000e-002) (107, -7.73889827542006970000e-004) (108, 7.28063285350799560000e-002) (109, -6.36075884103775020000e-002) (110, -1.88170373439788820000e-001) (111, -5.36352097988128660000e-002) (112, -1.37377142906188960000e-001) (113, -1.14369951188564300000e-001) (114, -4.29279983043670650000e-001) (115, -8.42158123850822450000e-002) (116, -4.67639639973640440000e-002) (117, -4.35654893517494200000e-002) (118, -1.89111158251762390000e-001) (119, -3.26736941933631900000e-002) (120, -1.26803606748580930000e-001) (121, -1.99416697025299070000e-001) (122, -2.05292120575904850000e-001) (123, -1.19131598621606830000e-002) (124, -1.33534803986549380000e-001) (125, 4.41379696130752560000e-002) (126, -6.46333768963813780000e-002) (127, 1.80074572563171390000e-002) (128, -7.55917876958847050000e-002) (129, -8.80931839346885680000e-002) (130, -1.15416899323463440000e-001) (131, -1.24245159327983860000e-001) (132, -1.67685136198997500000e-001) (133, 3.35550531744956970000e-002) (134, -2.25445255637168880000e-001) (135, 4.50828261673450470000e-002) (136, 6.98122382164001460000e-002) (137, 1.93626228719949720000e-002) (138, -1.09617994166910650000e-003) (139, -1.14521488547325130000e-001) (140, -1.39349907636642460000e-001) (141, -9.67945009469985960000e-002) (142, -3.76538410782814030000e-002) (143, -3.09945214539766310000e-002) (144, -4.84880775213241580000e-001) (145, 1.22878290712833400000e-002) (146, 1.23953707516193390000e-002) (147, 2.90339346975088120000e-002) (148, -1.03295870125293730000e-001) (149, -5.98502680659294130000e-002) (150, -1.48978725075721740000e-001) (151, -5.27615956962108610000e-002) (152, -1.26829832792282100000e-001) (153, -7.76910856366157530000e-002) (154, -5.84558360278606410000e-002) (155, 2.07314137369394300000e-002) (156, -1.19443558156490330000e-001) (157, 1.36198744177818300000e-001) (158, 1.05138771235942840000e-001) (159, 5.01516386866569520000e-002) (160, -1.18192449212074280000e-001) (161, -1.48655712604522710000e-001) (162, -1.20623648166656490000e-001) (163, -1.26739069819450380000e-001) (164, -1.25739112496376040000e-001) (165, 8.24989527463912960000e-002) (166, -1.25789254903793330000e-001) (167, 5.74778206646442410000e-002) (168, 5.45611120760440830000e-002) (169, -1.43252998590469360000e-001) (170, -6.80470764636993410000e-002) (171, -2.34208211302757260000e-001) (172, -5.12831918895244600000e-002) (173, -1.15339703857898710000e-001) (174, -8.00050422549247740000e-002) (175, -1.28889352083206180000e-001) (176, -4.78165969252586360000e-002) (177, -1.57987549901008610000e-001) (178, -2.03612536191940310000e-001) (179, -1.27355739474296570000e-001) (180, -1.17869503796100620000e-001) (181, 2.04210318624973300000e-002) (182, -9.38264504075050350000e-002) (183, 3.59703525900840760000e-002) (184, 6.97492286562919620000e-002) (185, -8.43114256858825680000e-002) (186, 6.52809888124465940000e-002) (187, 4.15966808795928960000e-002) (188, -3.42566668987274170000e-002) (189, 1.11071042716503140000e-001) (190, -1.23491615056991580000e-001) (191, -1.50675317272543910000e-002) (192, -6.70488253235816960000e-002) (193, -2.53890268504619600000e-003) (194, 1.87806468456983570000e-002) (195, -4.60422635078430180000e-002) (196, 8.24065804481506350000e-002) (197, -2.95362398028373720000e-002) (198, 1.30367167294025420000e-002) (199, 2.18136352486908440000e-003) (200, -6.20113797485828400000e-002) (201, -5.89259527623653410000e-002) (202, -9.54215973615646360000e-002) (203, -3.99411320686340330000e-002) (204, -1.19119808077812190000e-001) (205, -1.15149512887001040000e-001) (206, 7.41744711995124820000e-002) (207, -1.30230132490396500000e-002) (208, -6.89236372709274290000e-002) (209, 9.16511118412017820000e-002) (210, 3.16073894500732420000e-002) (211, 1.97421479970216750000e-002) (212, -1.55780473724007610000e-002) (213, 1.40335544943809510000e-001) (214, -3.52465622127056120000e-002) (215, -1.42469510436058040000e-001) (216, -6.69333711266517640000e-002) (217, -5.37814386188983920000e-002) (218, -2.72779427468776700000e-002) (219, 2.92848385870456700000e-002) (220, -1.07685878872871400000e-001) (221, -8.29150602221488950000e-002) (222, -3.74293737113475800000e-002) (223, -1.15859754383564000000e-001) (224, -7.82977640628814700000e-002) (225, -6.92268460988998410000e-002) (226, -8.20006988942623140000e-003) (227, -5.36486133933067320000e-002) (228, 8.64909738302230830000e-002) (229, -6.34598135948181150000e-002) (230, -6.06373958289623260000e-002) (231, -1.04159764945507050000e-001) (232, -6.94270953536033630000e-002) (233, -2.92961448431015010000e-002) (234, -1.29816383123397830000e-001) (235, -2.27001793682575230000e-002) (236, -4.19752448797225950000e-002) (237, -8.98707881569862370000e-002) (238, 3.99814024567604060000e-002) (239, 1.86363652348518370000e-001) (240, 5.39259970188140870000e-001) (0, 1.05669379234313960000e-001) (1, 6.49718791246414180000e-002) (2, 2.88502052426338200000e-002) (3, 4.90273199975490570000e-002) (4, 2.19354778528213500000e-002) (5, -5.84430024027824400000e-002) (6, 5.18650524318218230000e-002) (7, -2.31080465018749240000e-002) (8, 5.36484010517597200000e-002) (9, -5.33133037388324740000e-002) (10, -6.26904144883155820000e-002) (11, -9.82029885053634640000e-002) (12, -7.46756047010421750000e-002) (13, -3.96522730588912960000e-002) (14, -5.00846803188323970000e-002) (15, 4.50437478721141820000e-002) (16, -1.69252790510654450000e-002) (17, 3.09026930481195450000e-002) (18, 4.51661907136440280000e-002) (19, 1.45945819094777110000e-002) (20, -2.94176563620567320000e-002) (21, -3.71668813750147820000e-003) (22, 8.99399146437644960000e-002) (23, -3.66369821131229400000e-002) (24, 6.60363957285881040000e-002) (25, 4.73249796777963640000e-003) (26, 1.28992721438407900000e-002) (27, 5.34020811319351200000e-002) (28, 6.99398666620254520000e-002) (29, 5.31327463686466220000e-002) (30, -7.17646777629852290000e-002) (31, 1.76340136677026750000e-002) (32, -3.50579321384429930000e-002) (33, 5.21238334476947780000e-002) (34, -2.36052982509136200000e-002) (35, 3.17034758627414700000e-002) (36, 5.12680560350418090000e-002) (37, -7.13578090071678160000e-002) (38, 5.72692155838012700000e-002) (39, 1.09807970002293590000e-002) (40, 6.10379353165626530000e-002) (41, -2.43539437651634220000e-002) (42, -1.51987094432115550000e-002) (43, -7.39029943943023680000e-002) (44, 8.47029685974121090000e-002) (45, -6.59997984766960140000e-002) (46, 3.83482985198497770000e-002) (47, -5.08314035832881930000e-002) (48, -9.00201275944709780000e-002) (49, 4.39914874732494350000e-002) (50, 7.92016014456748960000e-002) (51, -6.61318749189376830000e-003) (52, 1.71734169125556950000e-002) (53, 3.92660759389400480000e-002) (54, -8.03628265857696530000e-002) (55, -4.34056818485260010000e-002) (56, 3.57619337737560270000e-002) (57, -9.49000269174575810000e-002) (58, 6.51729181408882140000e-002) (59, 1.20946019887924190000e-002) (60, -5.76765928417444230000e-003) (61, -3.97429876029491420000e-002) (62, 6.72444477677345280000e-002) (63, 9.00419801473617550000e-002) (64, -2.40835994482040410000e-002) (65, 8.47829878330230710000e-002) (66, 6.27896115183830260000e-002) (67, -1.31137985736131670000e-002) (68, 2.73544434458017350000e-002) (69, -8.50516706705093380000e-002) (70, -8.98222699761390690000e-002) (71, 3.70453968644142150000e-002) (72, -3.16605828702449800000e-002) (73, 6.87274262309074400000e-002) (74, 3.21501307189464570000e-002) (75, 9.88811552524566650000e-002) (76, -5.52230440080165860000e-002) (77, -7.88360312581062320000e-002) (78, 8.33067856729030610000e-003) (79, 1.02915603201836350000e-003) (80, -9.64787602424621580000e-002) (81, 2.28919889777898790000e-002) (82, 1.31117664277553560000e-002) (83, 3.72385717928409580000e-002) (84, -8.96373484283685680000e-003) (85, 4.99955154955387120000e-002) (86, 3.54263372719287870000e-003) (87, 3.82446087896823880000e-002) (88, 6.87367990612983700000e-002) (89, 5.25311045348644260000e-002) (90, -1.64006266277283430000e-003) (91, -1.99129059910774230000e-002) (92, -3.14952321350574490000e-002) (93, 2.02930662781000140000e-002) (94, 7.25192800164222720000e-002) (95, -7.50105082988739010000e-002) (96, 9.70635786652565000000e-002) (97, -8.22874158620834350000e-002) (98, -2.25554201751947400000e-002) (99, 1.03683806955814360000e-001) (100, -2.80374307185411450000e-002) (101, -3.74085530638694760000e-002) (102, 4.37454879283905030000e-003) (103, 2.60701645165681840000e-002) (104, 2.43439599871635440000e-002) (105, 9.35884863138198850000e-002) (106, 1.57578513026237490000e-002) (107, -5.62543906271457670000e-002) (108, -1.43589461222290990000e-002) (109, -5.76912425458431240000e-002) (110, 7.56758078932762150000e-003) (111, -3.52173708379268650000e-002) (112, 6.55756192281842230000e-003) (113, 9.17205363512039180000e-002) (114, -9.56814959645271300000e-002) (115, -1.58679671585559840000e-002) (116, -6.40254765748977660000e-002) (117, -4.21861372888088230000e-002) (118, 6.50340691208839420000e-002) (119, -6.54725432395935060000e-002) (120, 6.97839781641960140000e-002) (121, -1.72116868197917940000e-002) (122, 3.26184667646884920000e-002) (123, -2.40004006773233410000e-002) (124, -6.75254762172698970000e-002) (125, -7.21395611763000490000e-002) (126, -7.84100145101547240000e-002) (127, -1.26142725348472600000e-002) (128, 5.27881830930709840000e-002) (129, -7.13694319128990170000e-002) (130, -2.00676321983337400000e-002) (131, 2.64861565083265300000e-002) (132, 7.91627690196037290000e-002) (133, -9.13380682468414310000e-002) (134, 7.05032944679260250000e-002) (135, 1.94763652980327610000e-002) (136, -5.88958561420440670000e-002) (137, 6.35785087943077090000e-002) (138, -3.55912894010543820000e-002) (139, -3.98537702858448030000e-002) (140, 1.28174601122736930000e-002) (141, -1.14899277687072750000e-002) (142, -8.97583141922950740000e-002) (143, 1.53919970616698270000e-002) (144, 5.16926348209381100000e-002) (145, -8.39817300438880920000e-002) (146, -8.25534015893936160000e-002) (147, -1.77930947393178940000e-003) (148, 3.90091389417648320000e-002) (149, 3.47087755799293520000e-002) (150, -4.68837935477495190000e-003) (151, -5.07139749825000760000e-002) (152, 2.26590074598789220000e-002) (153, 6.77919387817382810000e-002) (154, -3.32320295274257660000e-002) (155, 9.83344092965126040000e-002) (156, -3.59051488339900970000e-002) (157, 6.79952055215835570000e-002) (158, -9.35951471328735350000e-002) (159, 1.08154332265257840000e-002) (160, -2.67722420394420620000e-002) (161, -3.91648449003696440000e-002) (162, 9.45731103420257570000e-002) (163, 5.12344352900981900000e-002) (164, -5.23285344243049620000e-002) (165, -5.16930408775806430000e-002) (166, 7.34173133969306950000e-002) (167, 9.16873812675476070000e-002) (168, 2.21537388861179350000e-002) (169, 3.32601107656955720000e-002) (170, 6.55772686004638670000e-002) (171, 2.77919564396142960000e-002) (172, -2.24510543048381810000e-002) (173, -6.35899975895881650000e-002) (174, -8.74525159597396850000e-002) (175, -7.48785138130187990000e-002) (176, 8.62689167261123660000e-002) (177, -4.25538867712020870000e-002) (178, 8.83637368679046630000e-002) (179, 7.83991292119026180000e-002) (180, -8.80369693040847780000e-002) (181, 8.18269401788711550000e-002) (182, 9.74770709872245790000e-002) (183, 4.39299270510673520000e-002) (184, 3.60469259321689610000e-002) (185, 5.20497001707553860000e-002) (186, -7.69164338707923890000e-002) (187, -5.00652045011520390000e-002) (188, -5.50684742629528050000e-002) (189, 2.37117428332567210000e-002) (190, -7.07670897245407100000e-002) (191, 6.36424943804740910000e-002) (192, 7.87048134952783580000e-003) (193, -1.58846285194158550000e-002) (194, -2.08224076777696610000e-002) (195, 1.02059192955493930000e-001) (196, 4.69208918511867520000e-002) (197, -7.91252031922340390000e-002) (198, -1.82498781941831110000e-003) (199, -2.86004059016704560000e-002) (200, -5.18919974565505980000e-002) (201, 9.61956474930047990000e-003) (202, 7.75105580687522890000e-002) (203, -8.75366777181625370000e-002) (204, 7.18884170055389400000e-002) (205, 4.92516867816448210000e-002) (206, -2.77556348592042920000e-002) (207, 1.36172054335474970000e-002) (208, -8.27085748314857480000e-002) (209, 5.91045292094349860000e-003) (210, -1.91404819488525390000e-002) (211, 6.68759867548942570000e-002) (212, -3.34742367267608640000e-002) (213, 7.13274627923965450000e-002) (214, -9.53330565243959430000e-003) (215, 6.54440373182296750000e-002) (216, -9.97393298894166950000e-003) (217, -2.77871657162904740000e-002) (218, -2.87735313177108760000e-002) (219, -5.79030020162463190000e-004) (220, -8.74530822038650510000e-002) (221, 5.05921244621276860000e-002) (222, -8.02377760410308840000e-002) (223, -7.49739482998847960000e-002) (224, 1.36387273669242860000e-002) (225, -7.09683299064636230000e-002) (226, -1.99405588209629060000e-002) (227, -4.24065403640270230000e-002) (228, -6.45960569381713870000e-002) (229, 1.12672373652458190000e-002) (230, 6.87214499339461330000e-003) (231, 9.95875075459480290000e-002) (232, 3.84179577231407170000e-002) (233, 4.09321188926696780000e-002) (234, 4.33893315494060520000e-002) (235, -3.41315679252147670000e-002) (236, -3.66228967905044560000e-002) (237, -4.05563004314899440000e-002) (238, 1.87234138138592240000e-003) (239, 6.98463991284370420000e-002) (240, 5.43436296284198760000e-002) (0, 4.55669052898883820000e-002) (1, 6.42489045858383180000e-002) (2, 4.38031507655978200000e-003) (3, -1.22775651514530180000e-001) (4, -7.97396898269653320000e-002) (5, -8.52296575903892520000e-002) (6, -1.14024788141250610000e-001) (7, -9.33623127639293670000e-003) (8, 5.14004938304424290000e-002) (9, -3.73466536402702330000e-002) (10, -7.91867170482873920000e-003) (11, -1.25166364014148710000e-002) (12, 5.74467666447162630000e-002) (13, -4.60406877100467680000e-002) (14, -1.26770749688148500000e-001) (15, -7.98781514167785640000e-002) (16, -1.14925438538193700000e-002) (17, -3.75662818551063540000e-002) (18, -6.52999579906463620000e-002) (19, -2.16918289661407470000e-002) (20, 3.08795198798179630000e-002) (21, -1.15828472189605240000e-003) (22, -9.25679057836532590000e-002) (23, -1.00220061838626860000e-001) (24, -4.77985776960849760000e-002) (25, -1.09652332961559300000e-001) (26, -5.28657324612140660000e-002) (27, -1.55628984794020650000e-002) (28, 2.90539469569921490000e-002) (29, -1.57500524073839190000e-002) (30, 5.50409033894538880000e-003) (31, -7.01220929622650150000e-002) (32, -8.72167497873306270000e-002) (33, -9.26269590854644780000e-003) (34, -6.60565048456192020000e-002) (35, 5.97433093935251240000e-003) (36, -9.91941019892692570000e-002) (37, -4.21764813363552090000e-002) (38, 1.47853223606944080000e-002) (39, -2.99851763993501660000e-002) (40, -1.60406157374382020000e-002) (41, 3.33856791257858280000e-002) (42, -9.81766656041145320000e-002) (43, 4.08166050910949710000e-002) (44, -1.05189993977546690000e-001) (45, 6.62823319435119630000e-002) (46, -2.70874090492725370000e-002) (47, -1.12235978245735170000e-001) (48, 6.13043010234832760000e-002) (49, -9.43897962570190430000e-002) (50, -1.50412786751985550000e-002) (51, -3.47517170011997220000e-002) (52, -1.27362757921218870000e-001) (53, -1.22771523892879490000e-002) (54, -1.18512302637100220000e-001) (55, -5.36623876541852950000e-003) (56, 3.28937210142612460000e-002) (57, -4.63800653815269470000e-002) (58, -3.52648273110389710000e-002) (59, -2.52286940813064580000e-002) (60, -5.19071184098720550000e-002) (61, -2.15208623558282850000e-002) (62, 2.42614913731813430000e-002) (63, 3.55118289589881900000e-002) (64, -5.25863431394100190000e-002) (65, 6.94108977913856510000e-002) (66, -1.52311474084854130000e-002) (67, 2.30370964854955670000e-002) (68, 1.06833102181553840000e-002) (69, -8.02669376134872440000e-002) (70, 4.01457585394382480000e-002) (71, -7.86807909607887270000e-002) (72, -6.06015920639038090000e-002) (73, 4.25602421164512630000e-002) (74, -7.81391188502311710000e-003) (75, -6.43503293395042420000e-002) (76, 7.52575471997261050000e-002) (77, 5.44434562325477600000e-002) (78, -1.04178264737129210000e-001) (79, 2.90179369039833550000e-003) (80, -1.22200455516576770000e-002) (81, 3.35690751671791080000e-002) (82, -5.71215748786926270000e-002) (83, -5.38641810417175290000e-002) (84, -7.97540545463562010000e-002) (85, 3.26307155191898350000e-002) (86, -7.22500681877136230000e-002) (87, -1.47746410220861430000e-002) (88, 2.81155109405517580000e-002) (89, -8.71228501200675960000e-002) (90, 6.95465356111526490000e-002) (91, 2.77634188532829280000e-002) (92, -9.43725705146789550000e-002) (93, -6.36500194668769840000e-002) (94, 2.64697726815938950000e-002) (95, -8.27911645174026490000e-002) (96, -7.85463079810142520000e-002) (97, -9.56241041421890260000e-002) (98, 8.16536620259284970000e-002) (99, 2.72647142410278320000e-002) (100, 2.85477992147207260000e-002) (101, -1.10877938568592070000e-001) (102, -4.77238595485687260000e-002) (103, -1.05071410536766050000e-001) (104, 1.27325858920812610000e-002) (105, -4.30433191359043120000e-002) (106, -1.88096221536397930000e-002) (107, -1.64172910153865810000e-002) (108, 5.17022758722305300000e-002) (109, 8.42971634119749070000e-003) (110, -6.64521157741546630000e-002) (111, -1.22419580817222600000e-001) (112, -1.23981922864913940000e-001) (113, -6.51566386222839360000e-002) (114, -1.07282865792512890000e-002) (115, -5.35706318914890290000e-002) (116, 6.17408417165279390000e-002) (117, 9.29185654968023300000e-003) (118, -9.14038419723510740000e-002) (119, 1.98390781879425050000e-002) (120, -4.89888787269592290000e-002) (121, -8.06129910051822660000e-003) (122, 1.26365059986710550000e-002) (123, 2.36374065279960630000e-002) (124, -1.23816460371017460000e-001) (125, 3.76438982784748080000e-002) (126, 7.23974928259849550000e-002) (127, -1.02511666715145110000e-001) (128, 3.03652919828891750000e-002) (129, -3.68246696889400480000e-002) (130, -1.59652549773454670000e-002) (131, -6.21533393859863280000e-003) (132, -9.56743434071540830000e-002) (133, -6.45853281021118160000e-002) (134, -4.44429256021976470000e-002) (135, -2.15986557304859160000e-003) (136, -1.35031891986727710000e-002) (137, 5.13758212327957150000e-002) (138, 7.13684335350990300000e-002) (139, 5.44898509979248050000e-002) (140, 3.91299352049827580000e-002) (141, 1.17670148611068730000e-002) (142, 6.61848261952400210000e-002) (143, -7.75934234261512760000e-002) (144, 7.55017250776290890000e-003) (145, 1.41483955085277560000e-002) (146, -3.40488217771053310000e-002) (147, 9.64477751404047010000e-003) (148, 6.40584230422973630000e-002) (149, 4.86347964033484460000e-003) (150, -3.64867635071277620000e-002) (151, -7.08071365952491760000e-002) (152, -9.40220728516578670000e-002) (153, -3.45623418688774110000e-002) (154, -4.23352532088756560000e-002) (155, 3.80414724349975590000e-002) (156, 1.81776899844408040000e-002) (157, 3.70641723275184630000e-002) (158, -6.90845772624015810000e-003) (159, -2.94911442324519160000e-003) (160, 1.73839628696441650000e-002) (161, -1.89626943320035930000e-002) (162, 5.27791604399681090000e-002) (163, 5.80697618424892430000e-002) (164, 4.90756295621395110000e-002) (165, -2.55314148962497710000e-002) (166, -1.19911152869462970000e-002) (167, -8.11762437224388120000e-002) (168, 7.44500309228897090000e-002) (169, 5.99822886288166050000e-002) (170, -1.10260531306266780000e-001) (171, 1.75642259418964390000e-002) (172, -1.21347434818744660000e-001) (173, -1.18060395121574400000e-001) (174, -7.00287446379661560000e-002) (175, -1.31858840584754940000e-001) (176, -1.25857733655720950000e-003) (177, -4.00482583791017530000e-003) (178, -3.73613759875297550000e-002) (179, -4.23174090683460240000e-002) (180, 4.98390570282936100000e-002) (181, 3.08809452690184120000e-003) (182, -2.22901403903961180000e-002) (183, 5.10822869837284090000e-002) (184, -4.10520695149898530000e-002) (185, -9.52600762248039250000e-002) (186, -1.57904438674449920000e-002) (187, -1.01275742053985600000e-001) (188, 1.47252371534705160000e-002) (189, 7.41140497848391530000e-003) (190, -1.33330032229423520000e-001) (191, -1.15030027925968170000e-001) (192, 2.32326425611972810000e-002) (193, -1.12230829894542690000e-001) (194, -1.03805229067802430000e-001) (195, 4.21962849795818330000e-002) (196, -2.71122548729181290000e-002) (197, 8.80069658160209660000e-003) (198, -7.58186131715774540000e-002) (199, 2.42267772555351260000e-002) (200, -5.59888705611228940000e-002) (201, 4.11578640341758730000e-002) (202, -1.01929269731044770000e-002) (203, -9.06481221318244930000e-002) (204, -1.04729413986206050000e-001) (205, -7.86016322672367100000e-003) (206, -6.53910860419273380000e-002) (207, 3.81518527865409850000e-002) (208, -8.38886499404907230000e-002) (209, 6.62858784198760990000e-002) (210, -8.14162790775299070000e-002) (211, 6.68438300490379330000e-002) (212, -6.44272416830062870000e-002) (213, -1.22412264347076420000e-001) (214, 5.17844110727310180000e-002) (215, -2.60431300848722460000e-002) (216, -3.31022106111049650000e-002) (217, 6.24738819897174840000e-002) (218, -3.93956005573272710000e-002) (219, -5.79500794410705570000e-002) (220, -9.71809029579162600000e-002) (221, -2.24576424807310100000e-002) (222, 6.13914318382740020000e-002) (223, -1.67565736919641490000e-002) (224, -5.76117336750030520000e-002) (225, -4.51077446341514590000e-002) (226, 4.48680892586708070000e-002) (227, 1.55208632349967960000e-002) (228, 3.58253903687000270000e-003) (229, -1.49813769385218620000e-002) (230, -5.51753528416156770000e-002) (231, -9.25498828291893010000e-002) (232, 4.74595166742801670000e-002) (233, -3.22045274078845980000e-002) (234, 2.49045677483081820000e-002) (235, -5.33138168975710870000e-003) (236, -3.54981310665607450000e-002) (237, -1.75760183483362200000e-002) (238, 3.48985530436038970000e-002) (239, 4.06596921384334560000e-002) (240, -5.82694076001644130000e-002) (0, 1.04447610676288600000e-001) (1, -1.20540859643369910000e-003) (2, -9.23703163862228390000e-002) (3, -8.87126103043556210000e-003) (4, -6.48414641618728640000e-002) (5, 3.01833096891641620000e-002) (6, 7.59989991784095760000e-002) (7, 9.02688279747962950000e-002) (8, -1.07372581958770750000e-001) (9, 5.38768395781517030000e-002) (10, 4.76373881101608280000e-002) (11, -1.51679050177335740000e-002) (12, -3.42774204909801480000e-002) (13, 3.03418766707181930000e-002) (14, 3.37551757693290710000e-002) (15, 1.02275043725967410000e-001) (16, -3.70105057954788210000e-002) (17, 1.14382468163967130000e-002) (18, 6.18212372064590450000e-002) (19, 9.92303993552923200000e-003) (20, 6.03150799870491030000e-002) (21, 6.98697380721569060000e-003) (22, 1.08735837042331700000e-001) (23, -6.87058418989181520000e-002) (24, 3.79878468811511990000e-003) (25, -4.82626855373382570000e-002) (26, 8.87761414051055910000e-002) (27, -8.04049894213676450000e-002) (28, 2.88016125559806820000e-002) (29, -2.50584222376346590000e-002) (30, 7.94560462236404420000e-002) (31, -7.85489007830619810000e-002) (32, 3.45754288136959080000e-002) (33, 1.01364523172378540000e-001) (34, 9.82137024402618410000e-002) (35, 1.29057765007019040000e-002) (36, 8.97805541753768920000e-002) (37, -8.64398330450057980000e-002) (38, 4.78558354079723360000e-002) (39, -9.05698761343955990000e-002) (40, -3.34056913852691650000e-002) (41, -3.56617048382759090000e-002) (42, 6.08586631715297700000e-002) (43, 2.53932289779186250000e-002) (44, -1.76211353391408920000e-002) (45, -6.90586715936660770000e-002) (46, 5.73920905590057370000e-002) (47, -5.51369599997997280000e-002) (48, -9.09757390618324280000e-002) (49, 5.48046752810478210000e-002) (50, -5.92555999755859380000e-002) (51, 7.03312922269105910000e-003) (52, 2.59543266147375110000e-002) (53, 4.96603809297084810000e-002) (54, 5.36078363656997680000e-002) (55, 4.70112729817628860000e-003) (56, -2.85452194511890410000e-002) (57, 1.70936645008623600000e-003) (58, -9.37226712703704830000e-002) (59, -9.40843373537063600000e-002) (60, -3.42620611190795900000e-002) (61, -6.70206174254417420000e-002) (62, -5.16312643885612490000e-002) (63, -6.50801584124565120000e-002) (64, 2.26146373897790910000e-002) (65, 1.45859625190496440000e-002) (66, 3.75756435096263890000e-002) (67, -1.85789838433265690000e-002) (68, -4.50086444616317750000e-002) (69, 4.05018031597137450000e-002) (70, -1.35635137557983400000e-002) (71, 8.22829678654670720000e-002) (72, 2.44222842156887050000e-002) (73, 1.17359273135662080000e-001) (74, -1.42221963033080100000e-002) (75, 7.29895289987325670000e-003) (76, -1.08531322330236430000e-002) (77, -2.33137141913175580000e-002) (78, -7.34751895070075990000e-002) (79, -4.65319976210594180000e-002) (80, 7.61594697833061220000e-002) (81, 6.07356280088424680000e-002) (82, 5.06291538476943970000e-002) (83, 6.70382604002952580000e-002) (84, 6.37762248516082760000e-002) (85, -1.00764092057943340000e-002) (86, -5.03279604017734530000e-002) (87, 2.75582931935787200000e-002) (88, 7.08970353007316590000e-002) (89, 2.52959299832582470000e-002) (90, 7.89018422365188600000e-002) (91, 1.25093132257461550000e-001) (92, -3.98688800632953640000e-002) (93, -4.77397106587886810000e-002) (94, 6.96191415190696720000e-002) (95, 3.57859507203102110000e-002) (96, -1.09414726495742800000e-001) (97, 2.31162179261446000000e-002) (98, -2.78037860989570620000e-002) (99, -1.57664734870195390000e-002) (100, -2.52256523817777630000e-002) (101, 1.15094728767871860000e-001) (102, -2.64841783791780470000e-002) (103, 2.14227121323347090000e-002) (104, 3.87244485318660740000e-002) (105, -6.79937005043029790000e-002) (106, -3.83796319365501400000e-002) (107, 4.34485338628292080000e-002) (108, -7.42479860782623290000e-002) (109, 6.35032076388597490000e-003) (110, 6.87147676944732670000e-002) (111, 1.23679018020629880000e+000) (112, -5.27772456407547000000e-002) (113, 1.05092443525791170000e-001) (114, -1.79847497493028640000e-002) (115, 1.30700379610061650000e-001) (116, -3.12842950224876400000e-002) (117, 1.12461857497692110000e-001) (118, 1.23272180557250980000e-001) (119, -8.93572643399238590000e-002) (120, 6.49097561836242680000e-002) (121, -2.72727962583303450000e-002) (122, 7.76591375470161440000e-002) (123, -8.81184712052345280000e-002) (124, 1.15185312926769260000e-001) (125, 7.83364195376634600000e-003) (126, 6.56698122620582580000e-002) (127, -1.03097602725028990000e-001) (128, -1.65611077100038530000e-002) (129, -7.82956369221210480000e-003) (130, -9.62167140096426010000e-003) (131, 9.81403738260269170000e-002) (132, -2.80691101215779780000e-003) (133, 3.85670401155948640000e-002) (134, -4.93343956768512730000e-002) (135, -1.90672297030687330000e-002) (136, 2.88193486630916600000e-003) (137, -4.45788875222206120000e-002) (138, 2.46747508645057680000e-002) (139, 3.03895100951194760000e-002) (140, 7.76070728898048400000e-002) (141, 8.25940221548080440000e-002) (142, -7.43679702281951900000e-002) (143, -7.54694938659667970000e-002) (144, 5.02315834164619450000e-002) (145, -7.47324852272868160000e-003) (146, -6.19579926133155820000e-002) (147, 6.07475489377975460000e-002) (148, -3.21889333426952360000e-002) (149, -9.02097523212432860000e-002) (150, 2.31540650129318240000e-002) (151, 6.44961968064308170000e-002) (152, 6.19425848126411440000e-002) (153, 1.04938283562660220000e-001) (154, -8.19182023406028750000e-002) (155, -5.26070520281791690000e-002) (156, 5.71511089801788330000e-002) (157, -9.87316295504570010000e-002) (158, 4.90769334137439730000e-002) (159, 2.86471247673034670000e-002) (160, -2.05416046082973480000e-002) (161, 1.15590170025825500000e-001) (162, -3.54983308352530000000e-003) (163, 3.87483686208724980000e-002) (164, 1.22715100646018980000e-001) (165, 5.99108859896659850000e-002) (166, -6.46748766303062440000e-002) (167, -7.63475969433784480000e-002) (168, 3.79982925951480870000e-002) (169, 6.03484623134136200000e-002) (170, -2.49645821750164030000e-002) (171, 1.37877156957983970000e-002) (172, 5.71178160607814790000e-002) (173, -1.58780850470066070000e-002) (174, 9.93414297699928280000e-002) (175, -4.19644340872764590000e-002) (176, 5.64783401787281040000e-002) (177, 9.38399434089660640000e-002) (178, 7.98587799072265630000e-002) (179, 2.81543340533971790000e-002) (180, -6.65721371769905090000e-002) (181, 4.35336232185363770000e-002) (182, 8.08801203966140750000e-002) (183, 9.41876173019409180000e-002) (184, 8.98004993796348570000e-002) (185, -8.95837694406509400000e-002) (186, -1.55799835920333860000e-002) (187, 8.92095342278480530000e-002) (188, -7.90550559759140010000e-002) (189, -4.00144904851913450000e-002) (190, 1.12848639488220210000e-001) (191, 5.83051852881908420000e-002) (192, 6.22809045016765590000e-002) (193, 6.32046759128570560000e-002) (194, 9.11710411310195920000e-002) (195, 6.19816184043884280000e-002) (196, -3.04328389465808870000e-002) (197, -7.42714107036590580000e-002) (198, -2.96330638229846950000e-002) (199, -4.22802716493606570000e-002) (200, 3.18133202381432060000e-003) (201, 5.24362996220588680000e-002) (202, -6.27728528343141080000e-004) (203, 7.91560113430023190000e-002) (204, 1.29927322268486020000e-001) (205, 7.89146646857261660000e-002) (206, 3.07301264256238940000e-002) (207, 8.47952961921691890000e-002) (208, 9.00981351733207700000e-002) (209, -3.43885719776153560000e-002) (210, 7.34727904200553890000e-002) (211, 2.80382037162780760000e-002) (212, -8.91308952122926710000e-003) (213, 7.58359059691429140000e-002) (214, -7.44836702942848210000e-002) (215, -8.52054208517074580000e-002) (216, -7.50037357211112980000e-002) (217, 1.04977890849113460000e-001) (218, 1.43708987161517140000e-003) (219, -1.96848977357149120000e-002) (220, -4.48452569544315340000e-002) (221, -8.20707529783248900000e-002) (222, 1.59013215452432630000e-002) (223, 7.09881484508514400000e-002) (224, 6.33733645081520080000e-002) (225, -5.99751286208629610000e-002) (226, 6.61611631512641910000e-002) (227, -7.61268734931945800000e-002) (228, 7.77776241302490230000e-002) (229, 1.63884758949279790000e-002) (230, -6.20339857414364810000e-003) (231, -2.06043310463428500000e-002) (232, 5.12132905423641200000e-002) (233, -4.37156595289707180000e-002) (234, 9.73341092467308040000e-002) (235, -1.07022961601614950000e-002) (236, -6.89902678132057190000e-002) (237, -2.62933503836393360000e-002) (238, 9.46237295866012570000e-002) (239, -4.93627190589904790000e-002) (240, -8.89699980616569520000e-002) (241, 1.27678988501429560000e-002) (242, -1.25667527318000790000e-001) (243, 1.12573862075805660000e+000) (244, 1.43173843622207640000e-001) (245, 1.07750225067138670000e+000) (246, 5.16435466706752780000e-002) (247, 2.19930320978164670000e-001) (248, -2.60246127843856810000e-001) (249, 5.13875223696231840000e-002) (241, 2.17963859438896180000e-001) (242, 2.41065740585327150000e-001) (243, -1.38919508457183840000e+000) (244, 8.72884467244148250000e-002) (245, -1.80962526798248290000e+000) (246, 1.76685184240341190000e-001) (247, -2.04493150115013120000e-001) (248, 6.52727127075195310000e-001) (249, 6.31797611713409420000e-001) 
