FANN_FLO_2.1
num_layers=3
learning_rate=0.700000
connection_rate=1.000000
network_type=0
learning_momentum=0.000000
training_algorithm=3
train_error_function=1
train_stop_function=0
cascade_output_change_fraction=0.010000
quickprop_decay=-0.000100
quickprop_mu=1.750000
rprop_increase_factor=1.200000
rprop_decrease_factor=0.500000
rprop_delta_min=0.000000
rprop_delta_max=50.000000
rprop_delta_zero=0.100000
cascade_output_stagnation_epochs=12
cascade_candidate_change_fraction=0.010000
cascade_candidate_stagnation_epochs=12
cascade_max_out_epochs=150
cascade_max_cand_epochs=150
cascade_num_candidate_groups=2
bit_fail_limit=3.49999994039535520000e-001
cascade_candidate_limit=1.00000000000000000000e+003
cascade_weight_multiplier=4.00000005960464480000e-001
cascade_activation_functions_count=10
cascade_activation_functions=3 5 7 8 10 11 14 15 16 17 
cascade_activation_steepnesses_count=4
cascade_activation_steepnesses=2.50000000000000000000e-001 5.00000000000000000000e-001 7.50000000000000000000e-001 1.00000000000000000000e+000 
layer_sizes=241 9 3 
scale_included=0
neurons (num_inputs, activation_function, activation_steepness)=(0, 0, 0.00000000000000000000e+000) (0, 0, 0.00000000000000000000e+000) (0, 0, 0.00000000000000000000e+000) (0, 0, 0.00000000000000000000e+000) (0, 0, 0.00000000000000000000e+000) (0, 0, 0.00000000000000000000e+000) (0, 0, 0.00000000000000000000e+000) (0, 0, 0.00000000000000000000e+000) (0, 0, 0.00000000000000000000e+000) (0, 0, 0.00000000000000000000e+000) (0, 0, 0.00000000000000000000e+000) (0, 0, 0.00000000000000000000e+000) (0, 0, 0.00000000000000000000e+000) (0, 0, 0.00000000000000000000e+000) (0, 0, 0.00000000000000000000e+000) (0, 0, 0.00000000000000000000e+000) (0, 0, 0.00000000000000000000e+000) (0, 0, 0.00000000000000000000e+000) (0, 0, 0.00000000000000000000e+000) (0, 0, 0.00000000000000000000e+000) (0, 0, 0.00000000000000000000e+000) (0, 0, 0.00000000000000000000e+000) (0, 0, 0.00000000000000000000e+000) (0, 0, 0.00000000000000000000e+000) (0, 0, 0.00000000000000000000e+000) (0, 0, 0.00000000000000000000e+000) (0, 0, 0.00000000000000000000e+000) (0, 0, 0.00000000000000000000e+000) (0, 0, 0.00000000000000000000e+000) (0, 0, 0.00000000000000000000e+000) (0, 0, 0.00000000000000000000e+000) (0, 0, 0.00000000000000000000e+000) (0, 0, 0.00000000000000000000e+000) (0, 0, 0.00000000000000000000e+000) (0, 0, 0.00000000000000000000e+000) (0, 0, 0.00000000000000000000e+000) (0, 0, 0.00000000000000000000e+000) (0, 0, 0.00000000000000000000e+000) (0, 0, 0.00000000000000000000e+000) (0, 0, 0.00000000000000000000e+000) (0, 0, 0.00000000000000000000e+000) (0, 0, 0.00000000000000000000e+000) (0, 0, 0.00000000000000000000e+000) (0, 0, 0.00000000000000000000e+000) (0, 0, 0.00000000000000000000e+000) (0, 0, 0.00000000000000000000e+000) (0, 0, 0.00000000000000000000e+000) (0, 0, 0.00000000000000000000e+000) (0, 0, 0.00000000000000000000e+000) (0, 0, 0.00000000000000000000e+000) (0, 0, 0.00000000000000000000e+000) (0, 0, 0.00000000000000000000e+000) (0, 0, 0.00000000000000000000e+000) (0, 0, 0.00000000000000000000e+000) (0, 0, 0.00000000000000000000e+000) (0, 0, 0.00000000000000000000e+000) (0, 0, 0.00000000000000000000e+000) (0, 0, 0.00000000000000000000e+000) (0, 0, 0.00000000000000000000e+000) (0, 0, 0.00000000000000000000e+000) (0, 0, 0.00000000000000000000e+000) (0, 0, 0.00000000000000000000e+000) (0, 0, 0.00000000000000000000e+000) (0, 0, 0.00000000000000000000e+000) (0, 0, 0.00000000000000000000e+000) (0, 0, 0.00000000000000000000e+000) (0, 0, 0.00000000000000000000e+000) (0, 0, 0.00000000000000000000e+000) (0, 0, 0.00000000000000000000e+000) (0, 0, 0.00000000000000000000e+000) (0, 0, 0.00000000000000000000e+000) (0, 0, 0.00000000000000000000e+000) (0, 0, 0.00000000000000000000e+000) (0, 0, 0.00000000000000000000e+000) (0, 0, 0.00000000000000000000e+000) (0, 0, 0.00000000000000000000e+000) (0, 0, 0.00000000000000000000e+000) (0, 0, 0.00000000000000000000e+000) (0, 0, 0.00000000000000000000e+000) (0, 0, 0.00000000000000000000e+000) (0, 0, 0.00000000000000000000e+000) (0, 0, 0.00000000000000000000e+000) (0, 0, 0.00000000000000000000e+000) (0, 0, 0.00000000000000000000e+000) (0, 0, 0.00000000000000000000e+000) (0, 0, 0.00000000000000000000e+000) (0, 0, 0.00000000000000000000e+000) (0, 0, 0.00000000000000000000e+000) (0, 0, 0.00000000000000000000e+000) (0, 0, 0.00000000000000000000e+000) (0, 0, 0.00000000000000000000e+000) (0, 0, 0.00000000000000000000e+000) (0, 0, 0.00000000000000000000e+000) (0, 0, 0.00000000000000000000e+000) (0, 0, 0.00000000000000000000e+000) (0, 0, 0.00000000000000000000e+000) (0, 0, 0.00000000000000000000e+000) (0, 0, 0.00000000000000000000e+000) (0, 0, 0.00000000000000000000e+000) (0, 0, 0.00000000000000000000e+000) (0, 0, 0.00000000000000000000e+000) (0, 0, 0.00000000000000000000e+000) (0, 0, 0.00000000000000000000e+000) (0, 0, 0.00000000000000000000e+000) (0, 0, 0.00000000000000000000e+000) (0, 0, 0.00000000000000000000e+000) (0, 0, 0.00000000000000000000e+000) (0, 0, 0.00000000000000000000e+000) (0, 0, 0.00000000000000000000e+000) (0, 0, 0.00000000000000000000e+000) (0, 0, 0.00000000000000000000e+000) (0, 0, 0.00000000000000000000e+000) (0, 0, 0.00000000000000000000e+000) (0, 0, 0.00000000000000000000e+000) (0, 0, 0.00000000000000000000e+000) (0, 0, 0.00000000000000000000e+000) (0, 0, 0.00000000000000000000e+000) (0, 0, 0.00000000000000000000e+000) (0, 0, 0.00000000000000000000e+000) (0, 0, 0.00000000000000000000e+000) (0, 0, 0.00000000000000000000e+000) (0, 0, 0.00000000000000000000e+000) (0, 0, 0.00000000000000000000e+000) (0, 0, 0.00000000000000000000e+000) (0, 0, 0.00000000000000000000e+000) (0, 0, 0.00000000000000000000e+000) (0, 0, 0.00000000000000000000e+000) (0, 0, 0.00000000000000000000e+000) (0, 0, 0.00000000000000000000e+000) (0, 0, 0.00000000000000000000e+000) (0, 0, 0.00000000000000000000e+000) (0, 0, 0.00000000000000000000e+000) (0, 0, 0.00000000000000000000e+000) (0, 0, 0.00000000000000000000e+000) (0, 0, 0.00000000000000000000e+000) (0, 0, 0.00000000000000000000e+000) (0, 0, 0.00000000000000000000e+000) (0, 0, 0.00000000000000000000e+000) (0, 0, 0.00000000000000000000e+000) (0, 0, 0.00000000000000000000e+000) (0, 0, 0.00000000000000000000e+000) (0, 0, 0.00000000000000000000e+000) (0, 0, 0.00000000000000000000e+000) (0, 0, 0.00000000000000000000e+000) (0, 0, 0.00000000000000000000e+000) (0, 0, 0.00000000000000000000e+000) (0, 0, 0.00000000000000000000e+000) (0, 0, 0.00000000000000000000e+000) (0, 0, 0.00000000000000000000e+000) (0, 0, 0.00000000000000000000e+000) (0, 0, 0.00000000000000000000e+000) (0, 0, 0.00000000000000000000e+000) (0, 0, 0.00000000000000000000e+000) (0, 0, 0.00000000000000000000e+000) (0, 0, 0.00000000000000000000e+000) (0, 0, 0.00000000000000000000e+000) (0, 0, 0.00000000000000000000e+000) (0, 0, 0.00000000000000000000e+000) (0, 0, 0.00000000000000000000e+000) (0, 0, 0.00000000000000000000e+000) (0, 0, 0.00000000000000000000e+000) (0, 0, 0.00000000000000000000e+000) (0, 0, 0.00000000000000000000e+000) (0, 0, 0.00000000000000000000e+000) (0, 0, 0.00000000000000000000e+000) (0, 0, 0.00000000000000000000e+000) (0, 0, 0.00000000000000000000e+000) (0, 0, 0.00000000000000000000e+000) (0, 0, 0.00000000000000000000e+000) (0, 0, 0.00000000000000000000e+000) (0, 0, 0.00000000000000000000e+000) (0, 0, 0.00000000000000000000e+000) (0, 0, 0.00000000000000000000e+000) (0, 0, 0.00000000000000000000e+000) (0, 0, 0.00000000000000000000e+000) (0, 0, 0.00000000000000000000e+000) (0, 0, 0.00000000000000000000e+000) (0, 0, 0.00000000000000000000e+000) (0, 0, 0.00000000000000000000e+000) (0, 0, 0.00000000000000000000e+000) (0, 0, 0.00000000000000000000e+000) (0, 0, 0.00000000000000000000e+000) (0, 0, 0.00000000000000000000e+000) (0, 0, 0.00000000000000000000e+000) (0, 0, 0.00000000000000000000e+000) (0, 0, 0.00000000000000000000e+000) (0, 0, 0.00000000000000000000e+000) (0, 0, 0.00000000000000000000e+000) (0, 0, 0.00000000000000000000e+000) (0, 0, 0.00000000000000000000e+000) (0, 0, 0.00000000000000000000e+000) (0, 0, 0.00000000000000000000e+000) (0, 0, 0.00000000000000000000e+000) (0, 0, 0.00000000000000000000e+000) (0, 0, 0.00000000000000000000e+000) (0, 0, 0.00000000000000000000e+000) (0, 0, 0.00000000000000000000e+000) (0, 0, 0.00000000000000000000e+000) (0, 0, 0.00000000000000000000e+000) (0, 0, 0.00000000000000000000e+000) (0, 0, 0.00000000000000000000e+000) (0, 0, 0.00000000000000000000e+000) (0, 0, 0.00000000000000000000e+000) (0, 0, 0.00000000000000000000e+000) (0, 0, 0.00000000000000000000e+000) (0, 0, 0.00000000000000000000e+000) (0, 0, 0.00000000000000000000e+000) (0, 0, 0.00000000000000000000e+000) (0, 0, 0.00000000000000000000e+000) (0, 0, 0.00000000000000000000e+000) (0, 0, 0.00000000000000000000e+000) (0, 0, 0.00000000000000000000e+000) (0, 0, 0.00000000000000000000e+000) (0, 0, 0.00000000000000000000e+000) (0, 0, 0.00000000000000000000e+000) (0, 0, 0.00000000000000000000e+000) (0, 0, 0.00000000000000000000e+000) (0, 0, 0.00000000000000000000e+000) (0, 0, 0.00000000000000000000e+000) (0, 0, 0.00000000000000000000e+000) (0, 0, 0.00000000000000000000e+000) (0, 0, 0.00000000000000000000e+000) (0, 0, 0.00000000000000000000e+000) (0, 0, 0.00000000000000000000e+000) (0, 0, 0.00000000000000000000e+000) (0, 0, 0.00000000000000000000e+000) (0, 0, 0.00000000000000000000e+000) (0, 0, 0.00000000000000000000e+000) (0, 0, 0.00000000000000000000e+000) (0, 0, 0.00000000000000000000e+000) (0, 0, 0.00000000000000000000e+000) (0, 0, 0.00000000000000000000e+000) (0, 0, 0.00000000000000000000e+000) (0, 0, 0.00000000000000000000e+000) (0, 0, 0.00000000000000000000e+000) (0, 0, 0.00000000000000000000e+000) (0, 0, 0.00000000000000000000e+000) (0, 0, 0.00000000000000000000e+000) (0, 0, 0.00000000000000000000e+000) (0, 0, 0.00000000000000000000e+000) (0, 0, 0.00000000000000000000e+000) (241, 4, 1.10000002384185790000e+000) (241, 4, 1.10000002384185790000e+000) (241, 4, 1.10000002384185790000e+000) (241, 4, 1.10000002384185790000e+000) (241, 4, 1.10000002384185790000e+000) (241, 4, 1.10000002384185790000e+000) (241, 4, 1.10000002384185790000e+000) (241, 4, 1.10000002384185790000e+000) (0, 4, 1.10000002384185790000e+000) (9, 5, 1.00000000000000000000e+000) (9, 5, 1.00000000000000000000e+000) (0, 5, 1.00000000000000000000e+000) 
connections (connected_to_neuron, weight)=(0, 6.98315873742103580000e-002) (1, 3.89582104980945590000e-002) (2, -8.06337222456932070000e-002) (3, 5.44629758223891260000e-003) (4, 6.07350096106529240000e-002) (5, 8.53683128952980040000e-002) (6, 4.71816807985305790000e-002) (7, 7.26822912693023680000e-002) (8, 4.41468640929088000000e-004) (9, -5.92482201755046840000e-002) (10, -2.18633618205785750000e-002) (11, 6.89453333616256710000e-002) (12, -6.47233501076698300000e-002) (13, -2.40650214254856110000e-002) (14, 3.66484150290489200000e-002) (15, 1.00460797548294070000e-002) (16, -5.50971888005733490000e-002) (17, -4.49010394513607030000e-002) (18, -9.89247709512710570000e-002) (19, -8.58122408390045170000e-002) (20, 3.96080575883388520000e-002) (21, -1.40175083652138710000e-002) (22, 1.61586962640285490000e-002) (23, -3.77776771783828740000e-002) (24, 2.89160925894975660000e-002) (25, 5.37973567843437190000e-002) (26, 6.35780487209558490000e-003) (27, 1.64324715733528140000e-002) (28, -3.10846306383609770000e-002) (29, 6.93568065762519840000e-002) (30, -4.03363890945911410000e-002) (31, 6.44084140658378600000e-002) (32, 5.03398552536964420000e-002) (33, -4.89338412880897520000e-002) (34, -5.04690743982791900000e-002) (35, 3.16650494933128360000e-002) (36, 6.45068958401679990000e-002) (37, 3.41272242367267610000e-002) (38, 4.15557958185672760000e-002) (39, -1.86956115067005160000e-002) (40, 5.60599602758884430000e-002) (41, -1.07889793813228610000e-001) (42, 3.49291804013773800000e-004) (43, -1.08259044587612150000e-001) (44, 3.61108360812067990000e-003) (45, -2.49917395412921910000e-002) (46, 9.72640663385391240000e-002) (47, 1.00871995091438290000e-001) (48, -7.87091720849275590000e-003) (49, -5.31102307140827180000e-002) (50, -1.02877527475357060000e-001) (51, -4.30864281952381130000e-003) (52, 5.52108436822891240000e-002) (53, 5.69269061088562010000e-002) (54, 1.37721505016088490000e-002) (55, 5.95205575227737430000e-002) (56, -4.29780632257461550000e-002) (57, 5.10452017188072200000e-002) (58, 8.94067808985710140000e-002) (59, 7.50749409198760990000e-002) (60, -5.90375624597072600000e-002) (61, -4.93988022208213810000e-002) (62, 2.52404306083917620000e-002) (63, 2.20512058585882190000e-002) (64, 4.66227473225444560000e-004) (65, -1.23984431847929950000e-002) (66, -1.02024320513010030000e-002) (67, 9.81565266847610470000e-002) (68, -7.60269761085510250000e-002) (69, -7.92134611401706930000e-004) (70, -1.00958272814750670000e-001) (71, 3.29336747527122500000e-002) (72, -2.27768179029226300000e-002) (73, 6.72378018498420720000e-002) (74, -8.03016722202301030000e-002) (75, 1.85546949505805970000e-002) (76, 5.66997639834880830000e-002) (77, -8.53015575557947160000e-003) (78, -2.48502418398857120000e-002) (79, -4.52476628124713900000e-002) (80, 4.42533791065216060000e-002) (81, 6.98783993721008300000e-002) (82, 2.05050781369209290000e-002) (83, 6.92187547683715820000e-002) (84, -9.60112921893596650000e-003) (85, -5.04083409905433650000e-002) (86, -6.46344274282455440000e-002) (87, -1.03563435375690460000e-001) (88, 9.40821617841720580000e-002) (89, -5.16780763864517210000e-002) (90, -7.07013458013534550000e-002) (91, 6.45812526345252990000e-002) (92, 7.84450471401214600000e-002) (93, -9.21619981527328490000e-002) (94, -7.13738873600959780000e-002) (95, -5.88973499834537510000e-002) (96, -1.78249403834342960000e-002) (97, -1.37915341183543210000e-002) (98, -8.47124159336090090000e-002) (99, -8.87583941221237180000e-002) (100, 7.03924940899014470000e-003) (101, 3.69677171111106870000e-002) (102, -8.17594751715660100000e-002) (103, -6.05450533330440520000e-002) (104, -1.08491241931915280000e-001) (105, -6.03647269308567050000e-002) (106, 4.37007136642932890000e-002) (107, -4.90325428545475010000e-002) (108, -3.35531197488307950000e-002) (109, -3.29680591821670530000e-002) (110, 1.85052864253520970000e-002) (111, -5.94394169747829440000e-002) (112, -2.75693107396364210000e-002) (113, -7.94108584523200990000e-003) (114, 2.10738219320774080000e-002) (115, -7.28322565555572510000e-002) (116, -1.00828014314174650000e-001) (117, 7.28979483246803280000e-002) (118, 7.34486356377601620000e-002) (119, -2.75464713573455810000e-001) (120, 5.42587004601955410000e-002) (121, 7.15063735842704770000e-002) (122, 3.90224605798721310000e-002) (123, 4.03222478926181790000e-002) (124, 4.25451099872589110000e-002) (125, -1.54835134744644170000e-002) (126, -9.77336522191762920000e-003) (127, -7.08574205636978150000e-002) (128, -6.41964189708232880000e-003) (129, -9.66885313391685490000e-002) (130, -5.69900032132864000000e-003) (131, -2.00942363590002060000e-002) (132, -3.49874305538833140000e-003) (133, -1.21999895200133320000e-002) (134, -6.12106658518314360000e-002) (135, 2.22269725054502490000e-002) (136, -6.35128021240234380000e-002) (137, -1.03191792964935300000e-001) (138, -3.25225070118904110000e-002) (139, 1.23987728729844090000e-002) (140, -5.55523298680782320000e-002) (141, -8.35078880190849300000e-002) (142, 6.67901635169982910000e-002) (143, -1.13767739385366440000e-002) (144, -1.40361696481704710000e-001) (145, 9.41163673996925350000e-002) (146, -1.04539975523948670000e-001) (147, -2.98477876931428910000e-002) (148, 7.45347933843731880000e-003) (149, -3.36533963680267330000e-001) (150, -8.84183794260025020000e-002) (151, 1.82354673743247990000e-002) (152, 5.18779642879962920000e-002) (153, 4.99457605183124540000e-002) (154, 8.78247246146202090000e-002) (155, -7.84182734787464140000e-003) (156, -8.02313908934593200000e-002) (157, 3.79610583186149600000e-002) (158, 6.71788528561592100000e-002) (159, 6.25910907983779910000e-002) (160, -1.23366169631481170000e-001) (161, -6.61910399794578550000e-002) (162, 2.33022030442953110000e-002) (163, -1.10446296632289890000e-001) (164, 4.07723411917686460000e-002) (165, 4.55896481871604920000e-002) (166, -3.63952131010591980000e-003) (167, 5.57082481682300570000e-002) (168, 6.09186254441738130000e-002) (169, 7.56703689694404600000e-002) (170, 5.54431602358818050000e-002) (171, 8.93574655055999760000e-002) (172, 1.01787820458412170000e-002) (173, -1.12363651394844060000e-001) (174, -9.15809571743011470000e-002) (175, 9.18283462524414060000e-002) (176, -7.30385035276412960000e-002) (177, -8.43437165021896360000e-002) (178, -8.68835598230361940000e-002) (179, -4.77551966905593870000e-002) (180, -9.90801081061363220000e-002) (181, -7.56946429610252380000e-002) (182, -8.76847133040428160000e-002) (183, -2.07499302923679350000e-002) (184, 2.98383133485913280000e-003) (185, -9.70362126827239990000e-002) (186, 8.23582038283348080000e-002) (187, 6.71836882829666140000e-002) (188, -3.35887856781482700000e-002) (189, 8.37150365114212040000e-002) (190, -2.22292970865964890000e-002) (191, -1.00226299837231640000e-002) (192, 8.18421766161918640000e-002) (193, -5.05038462579250340000e-002) (194, 6.39347806572914120000e-002) (195, -1.97267681360244750000e-002) (196, 2.89235189557075500000e-002) (197, -2.00352799147367480000e-002) (198, 8.77955406904220580000e-002) (199, -5.21241798996925350000e-002) (200, 4.00191061198711400000e-002) (201, -1.57766845077276230000e-002) (202, -5.51904141902923580000e-002) (203, -4.59335967898368840000e-002) (204, 1.08652589842677120000e-002) (205, -1.84493716806173320000e-002) (206, -8.28945264220237730000e-002) (207, -9.76626202464103700000e-002) (208, -4.63473349809646610000e-002) (209, 5.64722530543804170000e-002) (210, 2.26868838071823120000e-002) (211, 1.57927908003330230000e-002) (212, -5.19351242110133170000e-003) (213, -5.38987144827842710000e-002) (214, -3.35550084710121150000e-002) (215, -5.79076968133449550000e-002) (216, 1.19329039007425310000e-002) (217, -2.83994842320680620000e-002) (218, 3.84563393890857700000e-002) (219, 4.80235964059829710000e-002) (220, 1.43621629104018210000e-002) (221, 6.85063675045967100000e-002) (222, -6.97947805747389790000e-003) (223, 2.03204136341810230000e-002) (224, 5.84409106522798540000e-003) (225, 1.02024208754301070000e-002) (226, -1.86901970300823450000e-003) (227, 4.46997694671154020000e-002) (228, -9.22017246484756470000e-002) (229, -6.03221505880355830000e-002) (230, 3.92299443483352660000e-002) (231, 1.54491784051060680000e-002) (232, 8.27609673142433170000e-002) (233, 8.51956307888031010000e-002) (234, -4.35364581644535060000e-002) (235, 8.88270512223243710000e-002) (236, 7.14039802551269530000e-002) (237, -1.35863339528441430000e-002) (238, -5.17301186919212340000e-002) (239, 2.21731830388307570000e-002) (240, -3.97532619535923000000e-002) (0, 8.10713991522789000000e-002) (1, -5.59708401560783390000e-002) (2, 3.93162444233894350000e-002) (3, -2.55802385509014130000e-002) (4, 1.86960157006978990000e-002) (5, -8.06940943002700810000e-002) (6, 1.07480855658650400000e-002) (7, -8.36693942546844480000e-002) (8, -1.29872106481343510000e-003) (9, -6.68924525380134580000e-002) (10, 3.44801507890224460000e-002) (11, 2.91617605835199360000e-002) (12, -8.15926864743232730000e-002) (13, 2.77501177042722700000e-002) (14, 6.37245401740074160000e-002) (15, 5.56619837880134580000e-003) (16, -6.43185898661613460000e-002) (17, -6.59964978694915770000e-002) (18, -6.90354332327842710000e-002) (19, -6.83540524914860730000e-003) (20, -9.37424041330814360000e-003) (21, 2.68097639083862300000e-001) (22, -5.13862930238246920000e-002) (23, 1.79231762886047360000e-002) (24, 6.86349123716354370000e-002) (25, -1.21854893863201140000e-001) (26, 1.40650480985641480000e-001) (27, -3.32139991223812100000e-002) (28, -5.93386068940162660000e-002) (29, 2.53358017653226850000e-002) (30, -4.06859554350376130000e-002) (31, 1.65883358567953110000e-002) (32, -1.47916877176612620000e-003) (33, -6.03342428803443910000e-002) (34, 5.41121177375316620000e-002) (35, -8.80164578557014470000e-002) (36, -1.92620426416397090000e-001) (37, -8.19738022983074190000e-003) (38, 1.30508586764335630000e-001) (39, -4.80413027107715610000e-002) (40, 7.86349847912788390000e-002) (41, 3.18069420754909520000e-002) (42, -2.36940570175647740000e-002) (43, -9.45848524570465090000e-002) (44, 8.16737636923789980000e-002) (45, -9.96421799063682560000e-002) (46, -2.00845181941986080000e-001) (47, 9.37259662896394730000e-003) (48, -1.00669726729393010000e-001) (49, 5.27098728343844410000e-003) (50, 5.59445135295391080000e-002) (51, 1.66630685329437260000e-001) (52, 5.62362819910049440000e-002) (53, -8.20815935730934140000e-003) (54, -7.87848234176635740000e-003) (55, -3.84941324591636660000e-002) (56, 9.44734811782836910000e-002) (57, -4.28267270326614380000e-002) (58, 2.29453090578317640000e-002) (59, -9.04687400907278060000e-003) (60, 1.31357759237289430000e-002) (61, -9.34007093310356140000e-002) (62, -9.16975736618041990000e-002) (63, 4.71853837370872500000e-002) (64, 6.39713928103446960000e-002) (65, -1.47912204265594480000e-001) (66, -4.20238912105560300000e-001) (67, -1.34134784340858460000e-001) (68, -1.44836716353893280000e-002) (69, -3.93894091248512270000e-002) (70, -1.93157733883708720000e-003) (71, -7.90014769881963730000e-003) (72, 1.98035072535276410000e-002) (73, -2.93313469737768170000e-002) (74, 6.61524534225463870000e-002) (75, -1.37126237154006960000e-001) (76, -2.91542202234268190000e-001) (77, -1.07374012470245360000e-001) (78, -1.88263788819313050000e-001) (79, -1.74125339835882190000e-002) (80, 1.37133643031120300000e-001) (81, -1.06407413259148600000e-002) (82, 1.61301214247941970000e-002) (83, 1.40648007392883300000e-001) (84, 1.53247592970728870000e-002) (85, -1.14691471680998800000e-002) (86, -9.84657257795333860000e-002) (87, -9.16662365198135380000e-002) (88, -1.57569963485002520000e-002) (89, 5.01007921993732450000e-002) (90, 2.30427578091621400000e-001) (91, -9.32651236653327940000e-002) (92, -1.34246841073036190000e-001) (93, 1.54290655627846720000e-002) (94, 8.66658240556716920000e-002) (95, 8.60216617584228520000e-002) (96, -2.68592745065689090000e-001) (97, 1.71615421772003170000e-001) (98, 1.55838706996291880000e-003) (99, 1.22058056294918060000e-001) (100, 1.58887177705764770000e-001) (101, 4.15612272918224330000e-002) (102, 9.21863242983818050000e-002) (103, 1.48949757218360900000e-001) (104, 1.38381242752075200000e-001) (105, 2.85238362848758700000e-002) (106, -4.62234131991863250000e-002) (107, 1.63292381912469860000e-002) (108, -1.33561743423342700000e-002) (109, 2.80377328395843510000e-001) (110, 4.70328144729137420000e-002) (111, 1.02735362946987150000e-001) (112, -2.35277488827705380000e-002) (113, 4.91276904940605160000e-002) (114, 8.77238661050796510000e-002) (115, 1.06136791408061980000e-001) (116, 4.27445322275161740000e-002) (117, 1.20536924805492160000e-003) (118, 1.78245902061462400000e-002) (119, 4.66835945844650270000e-001) (120, -9.96479690074920650000e-002) (121, 1.41774388030171390000e-002) (122, -7.16444030404090880000e-002) (123, 6.35355710983276370000e-002) (124, 4.66154552996158600000e-002) (125, 4.88119497895240780000e-002) (126, -1.58800646662712100000e-001) (127, 1.16182200610637660000e-001) (128, 1.44334897398948670000e-001) (129, 6.84575960040092470000e-002) (130, 1.44941225647926330000e-001) (131, 2.72988736629486080000e-001) (132, -6.12514354288578030000e-002) (133, 1.33645355701446530000e-001) (134, 1.01916432380676270000e-001) (135, 8.36625695228576660000e-003) (136, 1.14070922136306760000e-001) (137, 9.04939472675323490000e-002) (138, 8.87356773018836980000e-002) (139, 2.73715168237686160000e-001) (140, 3.75505164265632630000e-002) (141, 5.22659979760646820000e-002) (142, -1.20582893490791320000e-001) (143, -9.74773690104484560000e-002) (144, 3.55644613504409790000e-001) (145, -3.96223254501819610000e-002) (146, 6.08587637543678280000e-002) (147, 1.42601653933525090000e-002) (148, -9.62932184338569640000e-002) (149, 5.99268138408660890000e-001) (150, -1.09386660158634190000e-001) (151, -7.87043571472167970000e-002) (152, -1.08545273542404170000e-001) (153, -6.47329241037368770000e-002) (154, -7.46752843260765080000e-002) (155, -7.72738363593816760000e-003) (156, -3.51720541715621950000e-001) (157, 5.47841899096965790000e-002) (158, -5.80617599189281460000e-002) (159, -5.69862686097621920000e-002) (160, 3.07774264365434650000e-002) (161, 9.32772979140281680000e-002) (162, 2.71494239568710330000e-002) (163, 7.33919590711593630000e-002) (164, -3.25105637311935420000e-002) (165, 4.64343316853046420000e-002) (166, 3.11871804296970370000e-002) (167, -1.31865397095680240000e-001) (168, 6.49238377809524540000e-002) (169, 6.25426769256591800000e-002) (170, 9.62514206767082210000e-002) (171, 2.73472573608160020000e-002) (172, -7.34830871224403380000e-002) (173, 8.26698541641235350000e-003) (174, 3.50329786539077760000e-001) (175, -6.49184763431549070000e-001) (176, 1.10143616795539860000e-001) (177, -4.15956974029541020000e-002) (178, 4.45624478161334990000e-002) (179, 4.18141931295394900000e-001) (180, 4.41125929355621340000e-002) (181, -4.63697500526905060000e-002) (182, -2.63700112700462340000e-002) (183, -3.75843085348606110000e-002) (184, -1.50432223454117770000e-002) (185, -1.26925006508827210000e-001) (186, -7.33513310551643370000e-002) (187, -4.26062233746051790000e-002) (188, -3.35205495357513430000e-002) (189, -6.90761655569076540000e-002) (190, -1.05689316987991330000e-001) (191, -6.43752291798591610000e-002) (192, -4.27670031785964970000e-002) (193, 8.54378286749124530000e-003) (194, -4.38216663897037510000e-002) (195, 3.83353829383850100000e-002) (196, 7.23280161619186400000e-002) (197, -8.71946066617965700000e-002) (198, -8.49537476897239690000e-002) (199, -1.50493928231298920000e-003) (200, -4.75065410137176510000e-003) (201, -5.68589987233281140000e-003) (202, 3.61041203141212460000e-002) (203, -2.47264560312032700000e-003) (204, 5.77226690948009490000e-002) (205, -2.51238673925399780000e-001) (206, 1.34773328900337220000e-001) (207, 1.30705581977963450000e-002) (208, -1.37944996356964110000e-001) (209, -6.06769137084484100000e-002) (210, 5.22086247801780700000e-002) (211, 1.94978546351194380000e-002) (212, -8.81343483924865720000e-002) (213, 6.34566554799675940000e-003) (214, -9.64375305920839310000e-003) (215, -1.91601458936929700000e-002) (216, 5.06219789385795590000e-002) (217, 1.02924175560474400000e-001) (218, 1.19383320212364200000e-001) (219, -9.83721464872360230000e-002) (220, 9.96712595224380490000e-004) (221, -7.22083598375320430000e-002) (222, -7.10650980472564700000e-002) (223, 1.00230164825916290000e-001) (224, 5.54830767214298250000e-002) (225, -8.57385843992233280000e-002) (226, -6.43287897109985350000e-002) (227, 1.43103390932083130000e-001) (228, -1.18540547788143160000e-001) (229, -1.32541164755821230000e-001) (230, -2.98429187387228010000e-002) (231, -2.20805336721241470000e-003) (232, 9.88362953066825870000e-002) (233, 1.09481597319245340000e-002) (234, 3.49473282694816590000e-002) (235, -1.61128208041191100000e-001) (236, 1.23364664614200590000e-001) (237, -3.53995673358440400000e-002) (238, -2.88280546665191650000e-002) (239, -3.39086204767227170000e-002) (240, -1.66732415556907650000e-001) (0, -2.86952722817659380000e-002) (1, -1.00006852298974990000e-002) (2, -1.73910394310951230000e-001) (3, -3.75158386304974560000e-003) (4, -1.81766882538795470000e-001) (5, -1.98510047048330310000e-002) (6, 2.12595220655202870000e-002) (7, -1.62217631936073300000e-001) (8, -3.83105389773845670000e-002) (9, -7.68807828426361080000e-002) (10, -1.18582710623741150000e-001) (11, -1.12149991095066070000e-001) (12, -9.24373865127563480000e-002) (13, -1.76955834031105040000e-002) (14, -1.48411646485328670000e-001) (15, -1.93053875118494030000e-002) (16, -9.99311357736587520000e-002) (17, -3.47432866692543030000e-002) (18, -1.11410208046436310000e-001) (19, -1.12733207643032070000e-001) (20, -1.18610084056854250000e-001) (21, -4.98245283961296080000e-002) (22, -1.50838017463684080000e-001) (23, -1.14063829183578490000e-001) (24, -1.08220927417278290000e-001) (25, -9.31939631700515750000e-002) (26, -1.51313826441764830000e-001) (27, -1.05474293231964110000e-001) (28, -1.32417026907205580000e-002) (29, -3.37848626077175140000e-002) (30, -1.66834563016891480000e-001) (31, -1.27169772982597350000e-001) (32, 1.71351078897714610000e-002) (33, -2.67907865345478060000e-002) (34, -1.06025151908397670000e-001) (35, -2.90818344801664350000e-002) (36, -1.44025072455406190000e-001) (37, -5.54322600364685060000e-002) (38, -1.05483688414096830000e-001) (39, -5.65639045089483260000e-003) (40, -3.85350286960601810000e-002) (41, -4.81498874723911290000e-002) (42, -2.62025254778563980000e-003) (43, -4.32535335421562190000e-002) (44, -9.70300287008285520000e-002) (45, -4.83120121061801910000e-002) (46, -9.36948601156473160000e-003) (47, -1.44049361348152160000e-001) (48, 1.73162035644054410000e-002) (49, -1.25237748026847840000e-001) (50, -1.83819368481636050000e-001) (51, -1.00347205996513370000e-001) (52, -1.23374842107295990000e-001) (53, -1.04748860001564030000e-001) (54, -1.72738403081893920000e-001) (55, -4.20356169342994690000e-002) (56, -1.35226070880889890000e-001) (57, -1.70245155692100520000e-001) (58, -3.56124974787235260000e-002) (59, -6.09401240944862370000e-003) (60, -3.62296812236309050000e-002) (61, -9.11396592855453490000e-002) (62, 1.02034481242299080000e-002) (63, 2.14909389615058900000e-002) (64, -8.33201631903648380000e-002) (65, -1.21906429529190060000e-001) (66, -9.41131561994552610000e-002) (67, 1.35657461360096930000e-002) (68, 8.04765336215496060000e-003) (69, -5.36808138713240620000e-003) (70, -2.55391877144575120000e-002) (71, -2.13094186037778850000e-002) (72, -1.21407046914100650000e-001) (73, -1.09779357910156250000e-001) (74, -7.98014923930168150000e-002) (75, 1.85935944318771360000e-002) (76, 5.34322969615459440000e-002) (77, -1.38034120202064510000e-001) (78, -3.33002135157585140000e-002) (79, -1.44964143633842470000e-001) (80, -3.22829671204090120000e-002) (81, -1.41386628150939940000e-001) (82, -1.12763985991477970000e-001) (83, -1.74197494983673100000e-001) (84, -9.40384194254875180000e-002) (85, -1.63028746843338010000e-001) (86, -4.74609434604644780000e-002) (87, -1.59466460347175600000e-001) (88, -1.08774259686470030000e-001) (89, -6.86679035425186160000e-002) (90, -4.84191775321960450000e-002) (91, -6.62073586136102680000e-003) (92, -7.13750869035720830000e-002) (93, -1.62577241659164430000e-001) (94, -5.79348728060722350000e-002) (95, -2.64431349933147430000e-002) (96, -9.31870117783546450000e-002) (97, -2.36529726535081860000e-002) (98, -1.52276456356048580000e-001) (99, -8.33576098084449770000e-002) (100, -1.13461740314960480000e-001) (101, -6.15068823099136350000e-002) (102, -1.07751473784446720000e-001) (103, -1.54882907867431640000e-001) (104, -4.66384962201118470000e-002) (105, -4.98143471777439120000e-002) (106, -9.71113983541727070000e-003) (107, -1.23874284327030180000e-001) (108, -4.47520762681961060000e-002) (109, -9.47632715106010440000e-002) (110, -1.47801697254180910000e-001) (111, -5.82957640290260310000e-002) (112, -1.51706397533416750000e-001) (113, -1.08319565653800960000e-001) (114, -7.11188390851020810000e-002) (115, -7.44836032390594480000e-002) (116, -1.17313712835311890000e-001) (117, -1.43933624029159550000e-001) (118, 1.78728308528661730000e-002) (119, -1.60648882389068600000e-001) (120, 1.62139646708965300000e-002) (121, -1.29598900675773620000e-001) (122, -1.16583272814750670000e-001) (123, -1.00434683263301850000e-001) (124, -3.75062711536884310000e-002) (125, -9.12920385599136350000e-002) (126, 3.29213328659534450000e-002) (127, -5.61231300234794620000e-002) (128, -8.67357030510902400000e-002) (129, -5.90639635920524600000e-002) (130, -1.11046331003308300000e-002) (131, -6.12441524863243100000e-002) (132, 2.60727982968091960000e-002) (133, -1.10806502401828770000e-001) (134, -1.00088231265544890000e-001) (135, -1.24567914754152300000e-002) (136, -2.98164002597332000000e-002) (137, -4.73403148353099820000e-002) (138, -7.79435858130455020000e-002) (139, -1.21635995805263520000e-001) (140, -1.53162881731987000000e-001) (141, -1.97513043880462650000e-001) (142, -5.64522072672843930000e-002) (143, -5.59834428131580350000e-002) (144, -1.27627804875373840000e-001) (145, -8.33133682608604430000e-002) (146, -7.40649178624153140000e-002) (147, -1.50714784860610960000e-001) (148, -8.82572531700134280000e-002) (149, -1.85288488864898680000e-001) (150, 1.42060294747352600000e-002) (151, -3.18406559526920320000e-002) (152, -6.80995872244238850000e-003) (153, -1.17888122797012330000e-001) (154, -9.66588035225868230000e-003) (155, 4.05147597193717960000e-002) (156, -7.77650550007820130000e-002) (157, -1.02388255298137660000e-001) (158, -6.63054883480072020000e-002) (159, 3.43387089669704440000e-002) (160, -2.99943257123231890000e-002) (161, -3.42709235846996310000e-002) (162, 3.98886343464255330000e-003) (163, -5.30044781044125560000e-003) (164, -5.71791417896747590000e-002) (165, -1.35686561465263370000e-001) (166, -1.20228603482246400000e-001) (167, -9.29994955658912660000e-002) (168, -6.33969902992248540000e-002) (169, 2.67668184824287890000e-003) (170, -1.79618865251541140000e-001) (171, -8.74256342649459840000e-002) (172, -9.12863239645957950000e-002) (173, -7.79899656772613530000e-002) (174, -1.17014400660991670000e-001) (175, -1.39167249202728270000e-001) (176, 8.54012649506330490000e-003) (177, -4.14387285709381100000e-002) (178, -3.32645364105701450000e-002) (179, -8.39274004101753230000e-002) (180, -7.09339529275894170000e-002) (181, -1.41111671924591060000e-001) (182, -1.57089680433273320000e-002) (183, 7.02615434420295060000e-005) (184, -1.09124600887298580000e-001) (185, -2.06898786127567290000e-002) (186, 2.54339594393968580000e-002) (187, -1.54370561242103580000e-001) (188, 6.79479539394378660000e-002) (189, -1.64399214554578070000e-003) (190, 6.08386192470788960000e-003) (191, -1.85344651341438290000e-001) (192, -1.09717361629009250000e-001) (193, -7.71241821348667140000e-003) (194, -1.09088040888309480000e-001) (195, 3.53044383227825160000e-002) (196, -1.10445670783519740000e-001) (197, -1.24417953193187710000e-001) (198, 2.39182990044355390000e-002) (199, -8.15710648894310000000e-002) (200, -6.65169907733798030000e-003) (201, -7.51511603593826290000e-002) (202, -9.66737046837806700000e-003) (203, 3.03340386599302290000e-002) (204, -6.61881417036056520000e-002) (205, -1.58556744456291200000e-001) (206, -7.84652531147003170000e-002) (207, -1.55257016420364380000e-001) (208, -1.43974080681800840000e-001) (209, -1.34043321013450620000e-001) (210, 3.42432945035398010000e-003) (211, -3.70329506695270540000e-002) (212, -8.99615660309791560000e-002) (213, -1.56857416033744810000e-001) (214, -1.46736070513725280000e-001) (215, -1.39138787984848020000e-001) (216, 4.06409101560711860000e-003) (217, 1.28027740865945820000e-002) (218, -1.13992011174559590000e-002) (219, -4.38264645636081700000e-002) (220, 6.46820897236466410000e-003) (221, -1.40607208013534550000e-001) (222, -1.19766958057880400000e-001) (223, 4.82085831463336940000e-002) (224, -4.62437681853771210000e-002) (225, -1.07997104525566100000e-001) (226, -2.69385892897844310000e-002) (227, -7.70879015326499940000e-002) (228, -9.62819904088974000000e-002) (229, -5.20055592060089110000e-002) (230, -8.59739929437637330000e-002) (231, -1.11874125897884370000e-001) (232, -1.12189970910549160000e-001) (233, -1.36486753821372990000e-001) (234, -4.36739847064018250000e-002) (235, -1.00845254957675930000e-001) (236, -1.19188733398914340000e-001) (237, 5.66506618633866310000e-003) (238, -1.72320343554019930000e-002) (239, -7.33351558446884160000e-002) (240, 2.09735780954360960000e-001) (0, 6.34558647871017460000e-002) (1, -3.98595407605171200000e-002) (2, -3.83743532001972200000e-002) (3, -1.81153658777475360000e-002) (4, 2.03078389167785640000e-002) (5, 2.66359355300664900000e-002) (6, -4.98641952872276310000e-002) (7, 5.19173704087734220000e-002) (8, 4.16444940492510800000e-003) (9, 8.81564151495695110000e-003) (10, 6.02910928428173070000e-002) (11, -5.84860378876328470000e-003) (12, 6.55199065804481510000e-002) (13, -4.98136989772319790000e-002) (14, -3.77756133675575260000e-002) (15, -2.16867122799158100000e-002) (16, 7.42556899785995480000e-002) (17, 1.95703655481338500000e-002) (18, -3.16863283514976500000e-002) (19, 7.39778280258178710000e-002) (20, 3.86025644838809970000e-002) (21, 1.08649104367941620000e-003) (22, -5.01284897327423100000e-002) (23, -1.11043527722358700000e-001) (24, -5.46583719551563260000e-002) (25, 1.80600322782993320000e-002) (26, -6.61214888095855710000e-002) (27, -3.02308443933725360000e-002) (28, -1.05025984346866610000e-001) (29, -2.77694407850503920000e-002) (30, 1.51755074039101600000e-002) (31, -9.85442027449607850000e-002) (32, -1.18902362883090970000e-001) (33, 4.20493260025978090000e-002) (34, -4.20483499765396120000e-002) (35, -4.59572151303291320000e-002) (36, 7.15518444776535030000e-002) (37, -6.25392347574234010000e-002) (38, -1.14983834326267240000e-001) (39, -4.06040512025356290000e-002) (40, 5.43394014239311220000e-002) (41, -5.33689744770526890000e-002) (42, -1.37053979560732840000e-002) (43, -3.98062448948621750000e-003) (44, -7.07850232720375060000e-002) (45, -4.79814503341913220000e-003) (46, -2.10175272077322010000e-002) (47, -3.24649959802627560000e-002) (48, -6.58500641584396360000e-002) (49, -2.90042255073785780000e-002) (50, -1.05367682874202730000e-001) (51, -3.94228696823120120000e-002) (52, -7.76883587241172790000e-002) (53, -5.40538178756833080000e-003) (54, -2.98712048679590230000e-002) (55, 6.10995031893253330000e-002) (56, -4.15672957897186280000e-002) (57, 1.31438439711928370000e-002) (58, -3.47290337085723880000e-002) (59, -4.10094559192657470000e-002) (60, -2.93336678296327590000e-002) (61, 4.33529615402221680000e-002) (62, -8.60032364726066590000e-002) (63, -8.95414352416992190000e-002) (64, -1.32989495992660520000e-001) (65, -9.73412320017814640000e-002) (66, 4.99941818416118620000e-002) (67, -9.71670150756835940000e-002) (68, 7.38333165645599370000e-002) (69, -7.66865015029907230000e-002) (70, 6.16866350173950200000e-002) (71, -4.95600514113903050000e-002) (72, -1.04363262653350830000e-001) (73, -6.69652819633483890000e-002) (74, -2.33173742890357970000e-002) (75, -1.08907625079154970000e-001) (76, -8.52047428488731380000e-002) (77, -2.13546329177916050000e-003) (78, -1.06427997350692750000e-001) (79, -1.08918324112892150000e-001) (80, -1.12571060657501220000e-001) (81, -9.42618697881698610000e-002) (82, -1.10432937741279600000e-001) (83, -1.13467629998922350000e-002) (84, 3.71689945459365840000e-002) (85, 5.06626665592193600000e-002) (86, -6.53142109513282780000e-002) (87, 7.43448287248611450000e-002) (88, 7.81475901603698730000e-002) (89, -1.78155992180109020000e-002) (90, 1.77559293806552890000e-002) (91, 7.04623982310295100000e-002) (92, 7.33752772212028500000e-002) (93, -1.63601040840148930000e-002) (94, -5.97974807024002080000e-002) (95, -3.60596291720867160000e-002) (96, 3.22305336594581600000e-002) (97, -6.80244490504264830000e-002) (98, -2.86560709355399010000e-004) (99, -4.17680330574512480000e-002) (100, -5.78062385320663450000e-002) (101, -3.55917178094387050000e-002) (102, 6.37443661689758300000e-002) (103, -1.21351882815361020000e-001) (104, -1.33963927626609800000e-001) (105, 3.87621410191059110000e-002) (106, -2.43596779182553290000e-003) (107, -1.13259553909301760000e-001) (108, 2.76620108634233470000e-002) (109, -4.95407581329345700000e-002) (110, 2.33305972069501880000e-002) (111, 3.65869551897048950000e-002) (112, -5.52202463150024410000e-002) (113, -3.81222032010555270000e-002) (114, 6.70696273446083070000e-002) (115, -1.44372116774320600000e-002) (116, 4.01192009449005130000e-002) (117, 4.01754714548587800000e-002) (118, -1.98138356208801270000e-002) (119, -2.00327131897211070000e-002) (120, -3.70607003569602970000e-002) (121, 4.27132658660411830000e-002) (122, -8.99838507175445560000e-002) (123, -8.62783715128898620000e-002) (124, 6.27485290169715880000e-002) (125, -7.16228857636451720000e-002) (126, -4.29926142096519470000e-002) (127, 5.24316653609275820000e-002) (128, -9.10871550440788270000e-002) (129, -1.06166424229741100000e-002) (130, 2.08814200013875960000e-002) (131, -4.97175864875316620000e-002) (132, -1.03604346513748170000e-001) (133, -6.06941478326916690000e-003) (134, 4.99489251524209980000e-003) (135, 3.90411578118801120000e-002) (136, -1.33066740818321700000e-003) (137, -2.65372432768344880000e-002) (138, 3.47727760672569270000e-002) (139, -9.28965583443641660000e-002) (140, -5.06915487349033360000e-002) (141, -4.32386398315429690000e-002) (142, 3.75729352235794070000e-002) (143, -1.76294986158609390000e-002) (144, -9.87483337521553040000e-002) (145, 8.76213014125823970000e-002) (146, -8.99922996759414670000e-002) (147, -1.39689026400446890000e-003) (148, 3.55550926178693770000e-003) (149, -1.27098187804222110000e-001) (150, -2.96304933726787570000e-002) (151, 2.86280736327171330000e-002) (152, -1.13926678895950320000e-001) (153, -4.15783450007438660000e-002) (154, -6.27457201480865480000e-002) (155, -5.85210602730512620000e-003) (156, 2.45479717850685120000e-002) (157, -4.66068158857524390000e-004) (158, 1.01209748536348340000e-002) (159, -8.48488956689834590000e-002) (160, 8.41194298118352890000e-003) (161, -1.92122012376785280000e-002) (162, -3.24464365839958190000e-002) (163, 4.92037273943424220000e-003) (164, 4.62036207318305970000e-002) (165, -2.84695718437433240000e-002) (166, -9.99125987291336060000e-002) (167, 5.11199496686458590000e-002) (168, 4.34049889445304870000e-002) (169, 1.37782292440533640000e-002) (170, -7.43529647588729860000e-002) (171, -5.49138225615024570000e-002) (172, -2.53200270235538480000e-002) (173, -3.51831354200840000000e-002) (174, -6.60129860043525700000e-002) (175, -3.04890200495719910000e-002) (176, -6.57561793923377990000e-002) (177, 4.96748127043247220000e-002) (178, -1.29350453615188600000e-001) (179, -6.78088292479515080000e-002) (180, -5.16979489475488660000e-003) (181, -2.30885986238718030000e-002) (182, 4.18676324188709260000e-002) (183, 2.61602029204368590000e-002) (184, -6.96155577898025510000e-002) (185, 7.81606584787368770000e-002) (186, 2.87808030843734740000e-002) (187, 3.97583469748497010000e-002) (188, -4.11121174693107600000e-003) (189, 3.51133048534393310000e-002) (190, 3.59764769673347470000e-002) (191, -1.00844927132129670000e-001) (192, -7.66475573182106020000e-002) (193, -3.79293821752071380000e-002) (194, 4.10647764801979060000e-002) (195, 6.21275557205080990000e-003) (196, -3.79026532173156740000e-002) (197, -1.99874583631753920000e-002) (198, -5.41140213608741760000e-002) (199, -1.01342514157295230000e-001) (200, 3.75388702377676960000e-003) (201, -9.04641449451446530000e-002) (202, 5.67214302718639370000e-002) (203, 6.09112903475761410000e-002) (204, -2.74127032607793810000e-002) (205, -1.02823317050933840000e-001) (206, -1.23353108763694760000e-001) (207, 5.18703237175941470000e-002) (208, 7.83254504203796390000e-002) (209, -1.01703964173793790000e-001) (210, 6.51907920837402340000e-002) (211, 1.54177965596318240000e-002) (212, -4.27841134369373320000e-002) (213, -1.95814538747072220000e-002) (214, -2.99917440861463550000e-002) (215, -6.90808966755867000000e-002) (216, -4.27754260599613190000e-002) (217, -7.73193128407001500000e-003) (218, 7.22047835588455200000e-002) (219, -8.10221731662750240000e-002) (220, -6.77674859762191770000e-002) (221, 2.10425984114408490000e-002) (222, 5.49535527825355530000e-002) (223, 4.42455551819875840000e-004) (224, -1.15812562406063080000e-001) (225, -1.07292741537094120000e-001) (226, 1.93186737596988680000e-002) (227, -1.15965232253074650000e-001) (228, 7.06102773547172550000e-002) (229, -7.51908496022224430000e-002) (230, -1.07826597988605500000e-001) (231, -1.17287814617156980000e-001) (232, -1.17866218090057370000e-001) (233, -3.01695056259632110000e-002) (234, -1.20570570230484010000e-001) (235, 6.01003542542457580000e-002) (236, -1.28553938120603560000e-002) (237, 9.59673617035150530000e-003) (238, -1.08070552349090580000e-001) (239, -6.32832339033484460000e-003) (240, -1.64323180913925170000e-001) (0, -7.14058801531791690000e-003) (1, -1.00582368671894070000e-001) (2, -1.23359300196170810000e-001) (3, -1.72903127968311310000e-002) (4, -5.09146321564912800000e-003) (5, 2.06623096019029620000e-002) (6, -1.32423639297485350000e-001) (7, -4.58981730043888090000e-002) (8, -5.55098541080951690000e-002) (9, -5.77089190483093260000e-002) (10, -5.95702752470970150000e-002) (11, -1.00558526813983920000e-001) (12, 1.93164264783263210000e-003) (13, 6.40804646536707880000e-003) (14, -9.28047597408294680000e-002) (15, 4.08850312232971190000e-002) (16, 5.74057176709175110000e-002) (17, 5.47406524419784550000e-002) (18, 3.56694348156452180000e-002) (19, -5.62930926680564880000e-002) (20, 1.07801435515284540000e-002) (21, -5.00908568501472470000e-002) (22, 4.09645587205886840000e-002) (23, -3.69891189038753510000e-002) (24, -4.12846729159355160000e-002) (25, -1.03876665234565730000e-001) (26, -1.08382917940616610000e-001) (27, 1.79160591214895250000e-002) (28, -1.51367783546447750000e-001) (29, 3.27965989708900450000e-002) (30, -8.65286216139793400000e-002) (31, -1.22928023338317870000e-001) (32, -3.25056463479995730000e-002) (33, -8.86429995298385620000e-002) (34, -1.52137654367834330000e-003) (35, 3.35135199129581450000e-002) (36, -9.77134406566619870000e-002) (37, -5.45862130820751190000e-002) (38, -5.31267300248146060000e-002) (39, 7.02143460512161250000e-002) (40, -5.99062964320182800000e-002) (41, -5.24979010224342350000e-002) (42, -4.10146638751029970000e-002) (43, -6.83239847421646120000e-002) (44, -3.34385931491851810000e-002) (45, -1.13541781902313230000e-001) (46, 1.03039620444178580000e-002) (47, -9.18306782841682430000e-003) (48, -4.37608100473880770000e-002) (49, 2.54759341478347780000e-002) (50, 1.55849307775497440000e-002) (51, -9.82906445860862730000e-002) (52, -4.73616160452365880000e-002) (53, -6.63629695773124690000e-002) (54, -4.12200838327407840000e-002) (55, -1.49934962391853330000e-001) (56, -2.27542910724878310000e-002) (57, -1.82156696915626530000e-001) (58, -5.38751408457756040000e-002) (59, -7.60678127408027650000e-002) (60, -5.62184527516365050000e-002) (61, -9.08426940441131590000e-002) (62, -3.20658809505403040000e-003) (63, -7.33049586415290830000e-002) (64, -1.05827540159225460000e-001) (65, 3.81298847496509550000e-002) (66, -2.00000274926424030000e-002) (67, -3.59522104263305660000e-002) (68, 6.11259881407022480000e-003) (69, 5.83758428692817690000e-002) (70, -5.21709304302930830000e-003) (71, 2.78524290770292280000e-002) (72, -6.55377656221389770000e-002) (73, -6.72305449843406680000e-002) (74, -1.17997407913208010000e-001) (75, -4.90715205669403080000e-002) (76, -2.79814116656780240000e-002) (77, 4.98950853943824770000e-002) (78, -3.23152504861354830000e-002) (79, -1.24703556299209590000e-001) (80, -1.13458186388015750000e-001) (81, -6.40487670898437500000e-002) (82, -6.09765164554119110000e-002) (83, -2.09894284605979920000e-001) (84, -7.09679201245307920000e-002) (85, -1.20842874050140380000e-001) (86, -7.70066082477569580000e-002) (87, 1.97457280009984970000e-002) (88, -4.47652935981750490000e-002) (89, -8.51384773850440980000e-002) (90, -2.00556948781013490000e-001) (91, -7.04733729362487790000e-002) (92, -8.78928750753402710000e-002) (93, -5.90587556362152100000e-002) (94, -1.13692559301853180000e-001) (95, -9.89808291196823120000e-002) (96, -4.59758080542087550000e-002) (97, 4.71283262595534320000e-003) (98, -1.28972873091697690000e-001) (99, -2.87193730473518370000e-002) (100, -1.95386826992034910000e-001) (101, -9.47633087635040280000e-002) (102, -1.05013407766819000000e-001) (103, -7.46660679578781130000e-002) (104, -1.58752188086509700000e-001) (105, -1.40433445572853090000e-001) (106, -6.40593394637107850000e-002) (107, -3.00397220999002460000e-002) (108, -4.82246093451976780000e-002) (109, -2.04714640974998470000e-001) (110, -1.20405025780200960000e-001) (111, -6.92845731973648070000e-002) (112, 3.91553007066249850000e-002) (113, -1.25633915886282920000e-002) (114, -9.22625586390495300000e-002) (115, -9.76553261280059810000e-002) (116, -8.98083820939064030000e-002) (117, -5.42349629104137420000e-002) (118, -1.76362827420234680000e-001) (119, -1.66672363877296450000e-001) (120, -1.31647676229476930000e-001) (121, -2.31714278459548950000e-001) (122, -1.40058070421218870000e-001) (123, -7.48048648238182070000e-002) (124, -1.32702156901359560000e-001) (125, -7.31948390603065490000e-002) (126, -7.16131329536437990000e-002) (127, -1.67304649949073790000e-001) (128, -2.09098204970359800000e-001) (129, -7.33219757676124570000e-002) (130, -1.82069227099418640000e-001) (131, -1.25339642167091370000e-001) (132, -9.14094299077987670000e-002) (133, 1.87119115144014360000e-002) (134, -8.20392668247222900000e-002) (135, 8.36437381803989410000e-003) (136, -1.97598384693264960000e-003) (137, -3.62589098513126370000e-002) (138, -4.15562503039836880000e-002) (139, -2.70313080400228500000e-002) (140, -1.28636136651039120000e-001) (141, -1.69923633337020870000e-001) (142, -3.15621588379144670000e-003) (143, -3.00777181982994080000e-002) (144, -1.62856072187423710000e-001) (145, 1.02643026039004330000e-002) (146, -7.07312226295471190000e-002) (147, -8.51116850972175600000e-002) (148, -1.22003205120563510000e-001) (149, -1.56863600015640260000e-001) (150, -1.20227418839931490000e-001) (151, 1.53674148023128510000e-002) (152, -6.06890432536602020000e-002) (153, -4.60040122270584110000e-002) (154, -8.14880803227424620000e-002) (155, 1.28336185589432720000e-002) (156, -1.17620103061199190000e-001) (157, 3.54447290301322940000e-002) (158, -6.45276019349694250000e-003) (159, 3.76885943114757540000e-002) (160, -1.61606758832931520000e-001) (161, -5.50045594573020940000e-002) (162, 2.62589342892169950000e-002) (163, -2.03354328870773320000e-001) (164, -8.76241270452737810000e-003) (165, 1.13027188926935200000e-002) (166, -1.47993534803390500000e-001) (167, -1.62673499435186390000e-002) (168, -5.24473637342453000000e-002) (169, -1.57422795891761780000e-001) (170, -1.02036789059638980000e-001) (171, -1.11752368509769440000e-001) (172, -2.83094178885221480000e-002) (173, -1.50390982627868650000e-001) (174, -1.38193741440773010000e-001) (175, -5.67640699446201320000e-002) (176, -1.27560049295425420000e-001) (177, -7.54494965076446530000e-002) (178, -5.17518445849418640000e-002) (179, -2.20398560166358950000e-001) (180, -7.25538581609725950000e-002) (181, -1.78164206445217130000e-002) (182, -4.14455235004425050000e-002) (183, 1.15947447717189790000e-001) (184, -3.14780301414430140000e-003) (185, -7.23307877779006960000e-002) (186, 1.93395689129829410000e-002) (187, 5.30101135373115540000e-002) (188, -3.29100936651229860000e-002) (189, 4.44750301539897920000e-002) (190, -5.31906150281429290000e-002) (191, -6.80192038416862490000e-002) (192, -3.32279019057750700000e-002) (193, 5.83532936871051790000e-002) (194, 2.93172313831746580000e-003) (195, -4.92691025137901310000e-002) (196, 6.71439394354820250000e-002) (197, -5.05112558603286740000e-002) (198, 1.60513781011104580000e-002) (199, -1.00467326119542120000e-002) (200, -1.34104907512664790000e-001) (201, -5.56434057652950290000e-002) (202, -3.61978895962238310000e-002) (203, -5.98509088158607480000e-002) (204, -6.63772374391555790000e-002) (205, -1.01904205977916720000e-001) (206, -4.43217866122722630000e-002) (207, -4.37430217862129210000e-002) (208, -1.33070111274719240000e-001) (209, -4.01130206882953640000e-002) (210, -2.95913703739643100000e-002) (211, 6.61379424855113030000e-003) (212, -1.15352915599942210000e-002) (213, 4.55247350037097930000e-002) (214, -1.03789344429969790000e-001) (215, -8.46775248646736150000e-002) (216, -8.10976773500442500000e-002) (217, 8.30711424350738530000e-003) (218, -9.76576730608940120000e-002) (219, 1.13027850165963170000e-002) (220, -3.77208217978477480000e-002) (221, -3.56897637248039250000e-002) (222, -7.25776329636573790000e-002) (223, -3.37726175785064700000e-002) (224, 2.86344826221466060000e-001) (225, -3.72375622391700740000e-002) (226, -9.72349494695663450000e-002) (227, -1.05045557022094730000e-001) (228, 2.73284465074539180000e-002) (229, -6.89602270722389220000e-002) (230, -6.15096502006053920000e-002) (231, -3.11478506773710250000e-002) (232, -7.23438858985900880000e-002) (233, -1.02534532546997070000e-001) (234, -1.18756301701068880000e-001) (235, -1.93491857498884200000e-003) (236, -1.20011523365974430000e-001) (237, -1.14309571683406830000e-001) (238, -3.29530495218932630000e-003) (239, 7.99219906330108640000e-002) (240, 6.61940991878509520000e-001) (0, 1.04466713964939120000e-001) (1, 6.44428804516792300000e-002) (2, 3.50597128272056580000e-002) (3, 4.74351570010185240000e-002) (4, 1.50610087439417840000e-002) (5, -5.74719533324241640000e-002) (6, 4.89937253296375270000e-002) (7, -1.79365947842597960000e-002) (8, 5.96110261976718900000e-002) (9, -5.56413158774375920000e-002) (10, -5.23746684193611150000e-002) (11, -9.65953841805458070000e-002) (12, -7.37756937742233280000e-002) (13, -3.17784771323204040000e-002) (14, -5.55882900953292850000e-002) (15, 5.06326109170913700000e-002) (16, -5.42319007217884060000e-003) (17, 2.63658333569765090000e-002) (18, 4.96953576803207400000e-002) (19, 2.15981900691986080000e-002) (20, -2.42794174700975420000e-002) (21, -1.74962654709815980000e-002) (22, 9.09512862563133240000e-002) (23, -3.18579822778701780000e-002) (24, 6.67583420872688290000e-002) (25, 1.99478249996900560000e-002) (26, 1.03535410016775130000e-002) (27, 6.27353861927986150000e-002) (28, 6.34542778134346010000e-002) (29, 5.87749183177948000000e-002) (30, -7.37632811069488530000e-002) (31, 1.96186006069183350000e-002) (32, -3.59275974333286290000e-002) (33, 5.20491115748882290000e-002) (34, -2.57472768425941470000e-002) (35, 4.54393401741981510000e-002) (36, 6.51964321732521060000e-002) (37, -6.16710260510444640000e-002) (38, 6.18003085255622860000e-002) (39, 1.57602895051240920000e-002) (40, 6.60413429141044620000e-002) (41, -1.73669960349798200000e-002) (42, -4.21909196302294730000e-003) (43, -7.33827874064445500000e-002) (44, 7.54402503371238710000e-002) (45, -5.24244196712970730000e-002) (46, 5.85292838513851170000e-002) (47, -4.32866886258125310000e-002) (48, -7.85911679267883300000e-002) (49, 5.02433441579341890000e-002) (50, 7.37719386816024780000e-002) (51, -2.02289372682571410000e-002) (52, 1.56734790652990340000e-002) (53, 3.59482988715171810000e-002) (54, -8.65319669246673580000e-002) (55, -3.50371673703193660000e-002) (56, 4.41577695310115810000e-002) (57, -8.92587602138519290000e-002) (58, 7.23987668752670290000e-002) (59, 1.44007308408617970000e-002) (60, 4.27251495420932770000e-003) (61, -3.59094664454460140000e-002) (62, 6.75134956836700440000e-002) (63, 9.86294075846672060000e-002) (64, -2.82652266323566440000e-002) (65, 9.92034152150154110000e-002) (66, 8.29246491193771360000e-002) (67, -6.90528331324458120000e-003) (68, 3.60189750790596010000e-002) (69, -7.59527608752250670000e-002) (70, -8.43563005328178410000e-002) (71, 4.88890409469604490000e-002) (72, -2.29038652032613750000e-002) (73, 7.08876550197601320000e-002) (74, 2.38559525460004810000e-002) (75, 1.13029412925243380000e-001) (76, -3.67100089788436890000e-002) (77, -7.18756318092346190000e-002) (78, 2.48518362641334530000e-002) (79, 2.94818682596087460000e-003) (80, -1.03437319397926330000e-001) (81, 2.37261708825826640000e-002) (82, 3.56437661685049530000e-003) (83, 3.22942771017551420000e-002) (84, -1.68751683086156850000e-002) (85, 5.01313433051109310000e-002) (86, 1.50680672377347950000e-002) (87, 4.25589270889759060000e-002) (88, 7.96153545379638670000e-002) (89, 5.06154745817184450000e-002) (90, -4.69462887849658730000e-004) (91, -2.19633895903825760000e-002) (92, -2.52175219357013700000e-002) (93, 2.48413588851690290000e-002) (94, 6.98899924755096440000e-002) (95, -7.00473636388778690000e-002) (96, 1.14973850548267360000e-001) (97, -8.29354524612426760000e-002) (98, -7.25217303261160850000e-003) (99, 1.05204053223133090000e-001) (100, -2.63665951788425450000e-002) (101, -3.60147692263126370000e-002) (102, 5.48483291640877720000e-003) (103, 2.17426475137472150000e-002) (104, 2.08306424319744110000e-002) (105, 1.00686416029930110000e-001) (106, 2.60906703770160680000e-002) (107, -5.67635297775268550000e-002) (108, 2.18459079042077060000e-003) (109, -5.06489947438240050000e-002) (110, 9.34744440019130710000e-003) (111, -1.98585782200098040000e-002) (112, 1.09462244436144830000e-002) (113, 9.28922891616821290000e-002) (114, -8.36204737424850460000e-002) (115, -1.42957828938961030000e-002) (116, -5.41548430919647220000e-002) (117, -3.92697639763355260000e-002) (118, 6.95682018995285030000e-002) (119, -5.84934726357460020000e-002) (120, 7.74973407387733460000e-002) (121, -2.27852631360292430000e-002) (122, 3.56463491916656490000e-002) (123, -2.27324590086936950000e-002) (124, -7.33531937003135680000e-002) (125, -5.91603294014930730000e-002) (126, -6.09457232058048250000e-002) (127, -4.21152589842677120000e-003) (128, 4.83599193394184110000e-002) (129, -7.64708891510963440000e-002) (130, -1.83394718915224080000e-002) (131, 2.21583861857652660000e-002) (132, 8.15277621150016780000e-002) (133, -9.67668667435646060000e-002) (134, 7.20244497060775760000e-002) (135, 2.43437271565198900000e-002) (136, -5.25516048073768620000e-002) (137, 6.28766641020774840000e-002) (138, -4.19858992099761960000e-002) (139, -4.48023602366447450000e-002) (140, 1.67881231755018230000e-002) (141, -1.81547272950410840000e-003) (142, -8.19793120026588440000e-002) (143, 2.66463104635477070000e-002) (144, 6.68351128697395320000e-002) (145, -7.18398317694664000000e-002) (146, -7.35924914479255680000e-002) (147, 5.06720459088683130000e-003) (148, 4.39779497683048250000e-002) (149, 3.71911413967609410000e-002) (150, -3.15052529913373290000e-005) (151, -4.30066362023353580000e-002) (152, 2.44502406567335130000e-002) (153, 7.30099231004714970000e-002) (154, -2.77813505381345750000e-002) (155, 1.14550456404685970000e-001) (156, -2.34760437160730360000e-002) (157, 8.30574482679367070000e-002) (158, -9.28137525916099550000e-002) (159, 1.13573754206299780000e-002) (160, -3.07815037667751310000e-002) (161, -4.72412705421447750000e-002) (162, 9.13944169878959660000e-002) (163, 5.27313537895679470000e-002) (164, -5.68112581968307500000e-002) (165, -3.20684723556041720000e-002) (166, 7.95947462320327760000e-002) (167, 1.05921812355518340000e-001) (168, 2.76968535035848620000e-002) (169, 3.04519515484571460000e-002) (170, 6.42392113804817200000e-002) (171, 2.78837755322456360000e-002) (172, -2.17373762279748920000e-002) (173, -6.58982545137405400000e-002) (174, -8.37513655424118040000e-002) (175, -6.16689696907997130000e-002) (176, 9.01381894946098330000e-002) (177, -3.39743271470069890000e-002) (178, 7.97362178564071660000e-002) (179, 7.55607858300209050000e-002) (180, -8.36175233125686650000e-002) (181, 9.63382646441459660000e-002) (182, 9.80706736445426940000e-002) (183, 4.59340736269950870000e-002) (184, 3.65037173032760620000e-002) (185, 5.85427917540073390000e-002) (186, -7.02965855598449710000e-002) (187, -4.81265075504779820000e-002) (188, -4.55274060368537900000e-002) (189, 2.90439091622829440000e-002) (190, -6.61957040429115300000e-002) (191, 6.26680999994277950000e-002) (192, 7.82853551208972930000e-003) (193, -1.95776280015707020000e-002) (194, -3.18867154419422150000e-002) (195, 1.17206983268260960000e-001) (196, 5.34078776836395260000e-002) (197, -6.55851289629936220000e-002) (198, 1.11715565435588360000e-003) (199, -2.29273922741413120000e-002) (200, -4.74742092192173000000e-002) (201, -4.29876893758773800000e-003) (202, 6.81557133793830870000e-002) (203, -7.77922347187995910000e-002) (204, 6.24098926782608030000e-002) (205, 6.77407607436180110000e-002) (206, -3.59908193349838260000e-002) (207, 2.60398741811513900000e-002) (208, -7.67049863934516910000e-002) (209, 1.50663387030363080000e-002) (210, -1.27123314887285230000e-002) (211, 6.82743936777114870000e-002) (212, -3.20462174713611600000e-002) (213, 7.21038430929183960000e-002) (214, -1.13111920654773710000e-002) (215, 7.40614756941795350000e-002) (216, -1.05543155223131180000e-002) (217, -3.47916074097156520000e-002) (218, -2.06633731722831730000e-002) (219, 4.71156602725386620000e-003) (220, -7.94873759150505070000e-002) (221, 5.75064271688461300000e-002) (222, -8.14290121197700500000e-002) (223, -7.30352550745010380000e-002) (224, 9.32523328810930250000e-003) (225, -6.54586106538772580000e-002) (226, -9.72853600978851320000e-003) (227, -4.24232892692089080000e-002) (228, -5.41684329509735110000e-002) (229, 1.82414613664150240000e-002) (230, 1.67850535362958910000e-002) (231, 9.51415821909904480000e-002) (232, 3.65872904658317570000e-002) (233, 4.85824495553970340000e-002) (234, 4.67942841351032260000e-002) (235, -1.46320965141057970000e-002) (236, -4.22325208783149720000e-002) (237, -3.06360460817813870000e-002) (238, -3.03921382874250410000e-003) (239, 8.21257159113883970000e-002) (240, 4.66069206595420840000e-002) (0, 3.44264432787895200000e-002) (1, 9.90166366100311280000e-002) (2, 1.20312580838799480000e-003) (3, -9.70900505781173710000e-002) (4, -1.16237282752990720000e-001) (5, 1.37761175632476810000e-001) (6, -1.27969250082969670000e-001) (7, 4.30533289909362790000e-002) (8, -2.79170777648687360000e-002) (9, -1.19401970878243450000e-002) (10, 6.49500638246536250000e-002) (11, -2.82475668936967850000e-002) (12, 5.11350966989994050000e-002) (13, 3.17992329597473140000e-001) (14, -1.11872218549251560000e-001) (15, 2.37016635946929450000e-003) (16, 4.20158961787819860000e-003) (17, -8.83892774581909180000e-002) (18, -1.22198283672332760000e-001) (19, 2.61984430253505710000e-002) (20, 2.45920699089765550000e-002) (21, -2.38322153687477110000e-001) (22, -1.02519847452640530000e-001) (23, -2.97877117991447450000e-002) (24, -4.76476550102233890000e-002) (25, -1.14488489925861360000e-001) (26, -9.41997617483139040000e-002) (27, -2.64049377292394640000e-002) (28, -1.71604985371232030000e-003) (29, -2.71143876016139980000e-002) (30, -3.40227670967578890000e-002) (31, -5.54012097418308260000e-002) (32, -1.04462720453739170000e-001) (33, -8.05008821771480140000e-005) (34, -6.12386688590049740000e-002) (35, 8.76652356237173080000e-003) (36, 1.05438202619552610000e-001) (37, -1.61805804818868640000e-002) (38, -5.99859394133090970000e-002) (39, -1.20015721768140790000e-002) (40, -3.46174053847789760000e-002) (41, 9.91236791014671330000e-003) (42, 3.33425290882587430000e-002) (43, 1.10697925090789790000e-001) (44, -1.67742833495140080000e-001) (45, 6.31731972098350520000e-002) (46, 1.71463325619697570000e-001) (47, -7.30075016617774960000e-002) (48, 7.75925517082214360000e-002) (49, -7.31252282857894900000e-002) (50, -2.13873330503702160000e-002) (51, -1.01942799985408780000e-001) (52, -1.43032148480415340000e-001) (53, -9.39259529113769530000e-002) (54, -8.69254246354103090000e-002) (55, -5.44791296124458310000e-002) (56, -2.62120477855205540000e-002) (57, -7.32448324561119080000e-002) (58, -3.21585834026336670000e-002) (59, -3.61179448664188390000e-002) (60, -3.33418361842632290000e-002) (61, -5.95200620591640470000e-003) (62, 4.03447039425373080000e-002) (63, 5.84387369453907010000e-002) (64, -8.87653529644012450000e-002) (65, 9.86539497971534730000e-002) (66, 3.82076114416122440000e-001) (67, 4.47064749896526340000e-002) (68, 4.18556094169616700000e-001) (69, -5.99334873259067540000e-002) (70, 5.75411617755889890000e-002) (71, -3.07363737374544140000e-002) (72, -3.87675426900386810000e-002) (73, 2.62212455272674560000e-002) (74, 2.73424293845891950000e-003) (75, -3.39174233376979830000e-002) (76, 3.03475946187973020000e-001) (77, 1.05963915586471560000e-001) (78, 3.24523776769638060000e-001) (79, -4.52728345990180970000e-002) (80, -5.48319891095161440000e-002) (81, 5.28153255581855770000e-002) (82, -1.12851671874523160000e-001) (83, -9.98067334294319150000e-002) (84, -1.12803012132644650000e-001) (85, 3.83546315133571620000e-002) (86, -6.72025755047798160000e-002) (87, -1.18311364203691480000e-002) (88, 9.71633568406105040000e-002) (89, -1.36558040976524350000e-001) (90, -5.82692138850688930000e-002) (91, 3.30976322293281560000e-002) (92, -8.38956013321876530000e-002) (93, -9.53520834445953370000e-002) (94, 1.43019678071141240000e-002) (95, -1.65800824761390690000e-001) (96, 1.38487771153450010000e-001) (97, -1.47574067115783690000e-001) (98, 7.47086033225059510000e-002) (99, -1.94210633635520940000e-002) (100, -9.12380814552307130000e-002) (101, -1.18015781044960020000e-001) (102, -7.89384320378303530000e-002) (103, -1.64363190531730650000e-001) (104, -7.81521275639534000000e-002) (105, -1.70496761798858640000e-001) (106, -1.53936818242073060000e-003) (107, -3.90439294278621670000e-002) (108, 2.66568940132856370000e-002) (109, -1.16886377334594730000e-001) (110, -7.42252618074417110000e-002) (111, -1.07423119246959690000e-001) (112, -6.64084851741790770000e-002) (113, -6.95610493421554570000e-002) (114, -2.59943436831235890000e-002) (115, -1.15250475704669950000e-001) (116, 6.74636438488960270000e-002) (117, -1.15698119625449180000e-002) (118, -8.76107290387153630000e-002) (119, -1.11202187836170200000e-001) (120, -4.27738353610038760000e-002) (121, -6.96026682853698730000e-002) (122, 1.10933687537908550000e-002) (123, 3.17583093419671060000e-003) (124, -2.09861189126968380000e-001) (125, -1.39778098091483120000e-002) (126, 1.46168917417526250000e-001) (127, -1.57349616289138790000e-001) (128, -8.04673060774803160000e-002) (129, -8.63131806254386900000e-002) (130, -7.37072825431823730000e-002) (131, -1.55065655708312990000e-001) (132, -5.58285750448703770000e-002) (133, -1.07823155820369720000e-001) (134, -1.33685246109962460000e-001) (135, -4.51223067939281460000e-002) (136, -3.91944758594036100000e-002) (137, 2.39939615130424500000e-003) (138, -4.15121950209140780000e-003) (139, -4.21090647578239440000e-002) (140, 3.36756408214569090000e-002) (141, -7.35045177862048150000e-003) (142, 1.18385136127471920000e-001) (143, -3.70873287320137020000e-002) (144, -1.21563106775283810000e-001) (145, 4.55223470926284790000e-002) (146, -5.46359606087207790000e-002) (147, -1.98958683758974080000e-002) (148, 7.59872496128082280000e-002) (149, -4.27443563938140870000e-001) (150, -1.14912576973438260000e-002) (151, -2.33224760740995410000e-002) (152, -6.79156780242919920000e-002) (153, 4.39813770353794100000e-002) (154, -3.58109474182128910000e-002) (155, 3.68752442300319670000e-002) (156, 9.05997231602668760000e-002) (157, 4.06550914049148560000e-002) (158, -6.73544332385063170000e-002) (159, -1.25339096412062640000e-002) (160, -7.27700442075729370000e-002) (161, -3.34604866802692410000e-002) (162, 7.64411166310310360000e-002) (163, 1.68870128691196440000e-002) (164, 4.90965917706489560000e-002) (165, -3.74712869524955750000e-002) (166, -4.06944304704666140000e-002) (167, -8.83445143699646000000e-002) (168, 3.69454808533191680000e-002) (169, -6.83181453496217730000e-003) (170, -1.86501011252403260000e-001) (171, 3.66362780332565310000e-002) (172, -1.23522654175758360000e-001) (173, -1.52287364006042480000e-001) (174, -1.97002306580543520000e-001) (175, -1.01515673100948330000e-001) (176, -3.82508113980293270000e-002) (177, 5.83468675613403320000e-002) (178, -9.73654463887214660000e-002) (179, -2.90662258863449100000e-001) (180, 7.92710632085800170000e-002) (181, 1.60675972700119020000e-001) (182, 2.37992070615291600000e-002) (183, 2.07845300436019900000e-001) (184, -7.05432891845703130000e-002) (185, -1.02975219488143920000e-001) (186, -2.38375887274742130000e-002) (187, -1.15752093493938450000e-001) (188, 4.57082003355026250000e-001) (189, 3.95685620605945590000e-002) (190, -9.22413095831871030000e-002) (191, -1.20995804667472840000e-001) (192, 2.81212143599987030000e-002) (193, -5.17028495669364930000e-002) (194, -1.42175391316413880000e-001) (195, 2.67062224447727200000e-002) (196, -2.28304043412208560000e-002) (197, 1.33634181693196300000e-002) (198, 4.10783767700195310000e-001) (199, 3.54916006326675420000e-002) (200, -8.89709517359733580000e-002) (201, -6.27051573246717450000e-003) (202, -5.71112036705017090000e-002) (203, -5.49397170543670650000e-002) (204, -1.14473216235637660000e-001) (205, 9.47147700935602190000e-003) (206, -2.61455297470092770000e-001) (207, 5.22905634716153140000e-003) (208, -8.71401354670524600000e-002) (209, 5.75391389429569240000e-002) (210, -7.49713033437728880000e-002) (211, 8.97232964634895320000e-002) (212, -5.50644248723983760000e-002) (213, -1.26009002327919010000e-001) (214, 4.11621928215026860000e-002) (215, -3.38281169533729550000e-002) (216, -4.12286221981048580000e-002) (217, 2.56807766854763030000e-002) (218, -8.93980413675308230000e-002) (219, -1.27512942999601360000e-002) (220, -5.49272634088993070000e-002) (221, 1.13645642995834350000e-001) (222, 2.69131232053041460000e-002) (223, 6.24877274036407470000e-001) (224, 3.67303043603897090000e-002) (225, -9.76980775594711300000e-002) (226, 5.61096854507923130000e-002) (227, -5.79517595469951630000e-002) (228, 5.64975619316101070000e-001) (229, 2.53756251186132430000e-002) (230, -3.04153095930814740000e-002) (231, -6.72138854861259460000e-002) (232, 3.09630781412124630000e-002) (233, 1.53359472751617430000e-002) (234, 1.82163566350936890000e-002) (235, 1.27650676295161250000e-002) (236, -8.61108526587486270000e-002) (237, -3.70007269084453580000e-002) (238, -3.21539118885993960000e-002) (239, 6.18233457207679750000e-002) (240, 5.19675537943840030000e-002) (0, 6.30280897021293640000e-002) (1, -2.36082989722490310000e-002) (2, -9.66721251606941220000e-002) (3, -3.81538905203342440000e-002) (4, -7.82329663634300230000e-002) (5, 2.11080294102430340000e-002) (6, 5.93715272843837740000e-002) (7, 8.04771780967712400000e-002) (8, -8.45828428864479060000e-002) (9, 3.43044139444828030000e-002) (10, 3.87315340340137480000e-002) (11, -2.33794376254081730000e-002) (12, -5.78877069056034090000e-002) (13, 4.17174771428108220000e-002) (14, -8.33603739738464360000e-003) (15, 9.53548997640609740000e-002) (16, -4.40683364868164060000e-002) (17, 1.61007642745971680000e-002) (18, 6.29099756479263310000e-002) (19, 5.99842425435781480000e-003) (20, 3.87035310268402100000e-002) (21, -3.01191918551921840000e-002) (22, 9.26346778869628910000e-002) (23, -9.15186628699302670000e-002) (24, -2.44511906057596210000e-002) (25, -5.82823678851127620000e-002) (26, 7.28069320321083070000e-002) (27, -8.04307013750076290000e-002) (28, 5.10063674300909040000e-003) (29, -2.67668929882347580000e-003) (30, 6.16424903273582460000e-002) (31, -1.01564854383468630000e-001) (32, 1.88210960477590560000e-002) (33, 7.67437368631362920000e-002) (34, 7.98990204930305480000e-002) (35, 2.77947410941123960000e-002) (36, 8.43444541096687320000e-002) (37, -1.03631354868412020000e-001) (38, 6.43824711441993710000e-002) (39, -9.62351635098457340000e-002) (40, -5.28205148875713350000e-002) (41, -5.12269921600818630000e-002) (42, 3.18275503814220430000e-002) (43, -1.73444803804159160000e-002) (44, -3.42734865844249730000e-002) (45, -7.20251053571701050000e-002) (46, 6.99288696050643920000e-002) (47, -1.01841107010841370000e-001) (48, -9.80861559510231020000e-002) (49, 5.08073195815086360000e-002) (50, -7.54948556423187260000e-002) (51, -1.88331119716167450000e-002) (52, 3.44678177498281000000e-003) (53, 6.35759159922599790000e-002) (54, 3.10912933200597760000e-002) (55, -1.83000171091407540000e-003) (56, -1.67020391672849660000e-002) (57, -7.22731975838541980000e-003) (58, -9.50091257691383360000e-002) (59, -8.16607177257537840000e-002) (60, -5.22260069847106930000e-002) (61, -8.99643898010253910000e-002) (62, -8.45328345894813540000e-002) (63, -8.59535560011863710000e-002) (64, 1.35725634172558780000e-002) (65, 1.50380609557032590000e-002) (66, 4.40528169274330140000e-002) (67, -4.55712154507637020000e-002) (68, -6.66646733880043030000e-002) (69, 6.75037354230880740000e-002) (70, -4.78361472487449650000e-002) (71, 6.37093260884284970000e-002) (72, 1.55222108587622640000e-002) (73, 8.91686305403709410000e-002) (74, -4.80037368834018710000e-002) (75, -6.85226032510399820000e-003) (76, 7.11350888013839720000e-003) (77, -6.33217021822929380000e-002) (78, -6.97786211967468260000e-002) (79, -3.46486270427703860000e-002) (80, 6.44005984067916870000e-002) (81, 3.92942922189831730000e-003) (82, 2.42010969668626790000e-002) (83, 5.03501743078231810000e-002) (84, 3.04137095808982850000e-002) (85, -3.28638032078742980000e-002) (86, -3.77081260085105900000e-002) (87, -6.27546245232224460000e-003) (88, 4.98688146471977230000e-002) (89, 4.18473593890666960000e-002) (90, 8.31337645649909970000e-002) (91, 8.30702781677246090000e-002) (92, -5.99239543080329900000e-002) (93, -6.45367577672004700000e-002) (94, 5.14452084898948670000e-002) (95, 6.54709860682487490000e-002) (96, -9.31584984064102170000e-002) (97, 3.27122844755649570000e-002) (98, -2.73100454360246660000e-002) (99, 2.47024372220039370000e-003) (100, -2.92057879269123080000e-002) (101, 7.64629393815994260000e-002) (102, -3.02958413958549500000e-002) (103, -3.95261310040950780000e-003) (104, 2.92896553874015810000e-002) (105, -4.32865247130393980000e-002) (106, -2.23502777516841890000e-002) (107, 3.84584963321685790000e-002) (108, -5.15193678438663480000e-002) (109, 4.16721068322658540000e-002) (110, 4.33372706174850460000e-002) (111, -3.73569242656230930000e-002) (112, -8.91863405704498290000e-002) (113, 6.86809569597244260000e-002) (114, -2.80270986258983610000e-002) (115, 1.20380438864231110000e-001) (116, -1.74545440822839740000e-002) (117, 1.06672354042530060000e-001) (118, 1.02867618203163150000e-001) (119, -6.35178461670875550000e-002) (120, 4.96273450553417210000e-002) (121, -4.58840094506740570000e-002) (122, 4.51870337128639220000e-002) (123, -9.86853763461112980000e-002) (124, 9.67972651124000550000e-002) (125, 4.10149581730365750000e-002) (126, 6.85129389166831970000e-002) (127, -6.11984245479106900000e-002) (128, -7.55237042903900150000e-003) (129, -3.72654735110700130000e-003) (130, -2.98590864986181260000e-003) (131, 9.59011986851692200000e-002) (132, -2.82975714653730390000e-002) (133, 2.09930948913097380000e-002) (134, -8.03535804152488710000e-002) (135, -9.74229723215103150000e-003) (136, 2.68826168030500410000e-002) (137, -4.23130765557289120000e-002) (138, 1.04836728423833850000e-002) (139, 2.02681240625679490000e-003) (140, 5.85892945528030400000e-002) (141, 1.01660013198852540000e-001) (142, -9.00628566741943360000e-002) (143, -7.61449337005615230000e-002) (144, 5.79524114727973940000e-002) (145, -5.75228082016110420000e-003) (146, -3.23260389268398280000e-002) (147, 8.18265601992607120000e-002) (148, -4.40961569547653200000e-002) (149, -7.43623375892639160000e-002) (150, -3.43213952146470550000e-003) (151, 2.84551028162240980000e-002) (152, 1.76312010735273360000e-002) (153, 8.11833515763282780000e-002) (154, -9.01397019624710080000e-002) (155, -4.14955653250217440000e-002) (156, 4.78829294443130490000e-002) (157, -7.67798498272895810000e-002) (158, 5.62060512602329250000e-002) (159, 4.37418967485427860000e-002) (160, -1.99889708310365680000e-002) (161, 7.77037069201469420000e-002) (162, -6.91304951906204220000e-002) (163, 2.23436858505010600000e-002) (164, 8.02174806594848630000e-002) (165, 9.13074836134910580000e-002) (166, -5.25010749697685240000e-002) (167, -6.37457519769668580000e-002) (168, 3.93452979624271390000e-002) (169, 6.92366361618041990000e-002) (170, -2.52981204539537430000e-002) (171, -3.72183471918106080000e-002) (172, 4.11851108074188230000e-002) (173, -8.13680607825517650000e-003) (174, 1.06896527111530300000e-001) (175, -7.02861919999122620000e-002) (176, 7.64461159706115720000e-002) (177, 5.02871759235858920000e-002) (178, 2.95806750655174260000e-002) (179, 3.88938188552856450000e-002) (180, -8.82326513528823850000e-002) (181, 3.93308177590370180000e-002) (182, 4.65194992721080780000e-002) (183, 4.97097335755825040000e-002) (184, 7.63516351580619810000e-002) (185, -8.10761600732803340000e-002) (186, -2.20135804265737530000e-002) (187, 9.21384990215301510000e-002) (188, -7.65157341957092290000e-002) (189, 1.16126576904207470000e-003) (190, 7.64971971511840820000e-002) (191, 4.88875173032283780000e-002) (192, 2.09359079599380490000e-002) (193, 3.97061444818973540000e-002) (194, 6.89260289072990420000e-002) (195, 7.16345757246017460000e-002) (196, -3.62440347671508790000e-002) (197, -6.84904232621192930000e-002) (198, -2.88896244019269940000e-002) (199, -4.04072832316160200000e-003) (200, -5.49894291907548900000e-003) (201, 2.69530415534973140000e-002) (202, -3.38223055005073550000e-002) (203, 7.41873010993003850000e-002) (204, 9.26838815212249760000e-002) (205, 6.60499930381774900000e-002) (206, 5.58230839669704440000e-002) (207, 8.56178775429725650000e-002) (208, 9.39590260386466980000e-002) (209, 1.27090662717819210000e-002) (210, 7.36850425601005550000e-002) (211, 1.00189661607146260000e-002) (212, -3.33215817809104920000e-002) (213, 6.91468492150306700000e-002) (214, -7.58280679583549500000e-002) (215, -8.89517068862915040000e-002) (216, -8.67036655545234680000e-002) (217, 8.48611220717430110000e-002) (218, 1.67886968702077870000e-002) (219, -2.77270209044218060000e-002) (220, -7.90809169411659240000e-002) (221, -9.74848940968513490000e-002) (222, -2.56775273010134700000e-003) (223, 5.05244508385658260000e-002) (224, 1.76830329000949860000e-002) (225, -5.49748241901397710000e-002) (226, 6.63829892873764040000e-002) (227, -5.73864616453647610000e-002) (228, 9.41609591245651250000e-002) (229, 2.02733576297760010000e-002) (230, -2.77029853314161300000e-002) (231, -5.64732141792774200000e-002) (232, 3.66961993277072910000e-002) (233, -3.67633439600467680000e-002) (234, 8.15163999795913700000e-002) (235, -1.90969184041023250000e-002) (236, -7.03140348196029660000e-002) (237, -1.64815708994865420000e-002) (238, 9.73071157932281490000e-002) (239, -3.08831017464399340000e-002) (240, -9.72199067473411560000e-002) (241, 1.53603345155715940000e-001) (242, -6.45338058471679690000e-001) (243, 1.81467139720916750000e+000) (244, 1.86373218894004820000e-001) (245, 2.46088981628417970000e+000) (246, 1.64906725287437440000e-001) (247, 6.68192744255065920000e-001) (248, -5.79742854461073880000e-003) (249, 9.30780693888664250000e-002) (241, -5.98070723935961720000e-003) (242, 9.74105775356292720000e-001) (243, -1.42872571945190430000e+000) (244, -2.35780417919158940000e-001) (245, -2.21185231208801270000e+000) (246, 1.21841050684452060000e-001) (247, -9.11637187004089360000e-001) (248, 3.11640977859497070000e-001) (249, 6.12088322639465330000e-001) 
