FANN_FLO_2.1
num_layers=3
learning_rate=0.700000
connection_rate=1.000000
network_type=0
learning_momentum=0.000000
training_algorithm=3
train_error_function=1
train_stop_function=0
cascade_output_change_fraction=0.010000
quickprop_decay=-0.000100
quickprop_mu=1.750000
rprop_increase_factor=1.200000
rprop_decrease_factor=0.500000
rprop_delta_min=0.000000
rprop_delta_max=50.000000
rprop_delta_zero=0.100000
cascade_output_stagnation_epochs=12
cascade_candidate_change_fraction=0.010000
cascade_candidate_stagnation_epochs=12
cascade_max_out_epochs=150
cascade_max_cand_epochs=150
cascade_num_candidate_groups=2
bit_fail_limit=3.49999994039535520000e-001
cascade_candidate_limit=1.00000000000000000000e+003
cascade_weight_multiplier=4.00000005960464480000e-001
cascade_activation_functions_count=10
cascade_activation_functions=3 5 7 8 10 11 14 15 16 17 
cascade_activation_steepnesses_count=4
cascade_activation_steepnesses=2.50000000000000000000e-001 5.00000000000000000000e-001 7.50000000000000000000e-001 1.00000000000000000000e+000 
layer_sizes=241 9 3 
scale_included=0
neurons (num_inputs, activation_function, activation_steepness)=(0, 0, 0.00000000000000000000e+000) (0, 0, 0.00000000000000000000e+000) (0, 0, 0.00000000000000000000e+000) (0, 0, 0.00000000000000000000e+000) (0, 0, 0.00000000000000000000e+000) (0, 0, 0.00000000000000000000e+000) (0, 0, 0.00000000000000000000e+000) (0, 0, 0.00000000000000000000e+000) (0, 0, 0.00000000000000000000e+000) (0, 0, 0.00000000000000000000e+000) (0, 0, 0.00000000000000000000e+000) (0, 0, 0.00000000000000000000e+000) (0, 0, 0.00000000000000000000e+000) (0, 0, 0.00000000000000000000e+000) (0, 0, 0.00000000000000000000e+000) (0, 0, 0.00000000000000000000e+000) (0, 0, 0.00000000000000000000e+000) (0, 0, 0.00000000000000000000e+000) (0, 0, 0.00000000000000000000e+000) (0, 0, 0.00000000000000000000e+000) (0, 0, 0.00000000000000000000e+000) (0, 0, 0.00000000000000000000e+000) (0, 0, 0.00000000000000000000e+000) (0, 0, 0.00000000000000000000e+000) (0, 0, 0.00000000000000000000e+000) (0, 0, 0.00000000000000000000e+000) (0, 0, 0.00000000000000000000e+000) (0, 0, 0.00000000000000000000e+000) (0, 0, 0.00000000000000000000e+000) (0, 0, 0.00000000000000000000e+000) (0, 0, 0.00000000000000000000e+000) (0, 0, 0.00000000000000000000e+000) (0, 0, 0.00000000000000000000e+000) (0, 0, 0.00000000000000000000e+000) (0, 0, 0.00000000000000000000e+000) (0, 0, 0.00000000000000000000e+000) (0, 0, 0.00000000000000000000e+000) (0, 0, 0.00000000000000000000e+000) (0, 0, 0.00000000000000000000e+000) (0, 0, 0.00000000000000000000e+000) (0, 0, 0.00000000000000000000e+000) (0, 0, 0.00000000000000000000e+000) (0, 0, 0.00000000000000000000e+000) (0, 0, 0.00000000000000000000e+000) (0, 0, 0.00000000000000000000e+000) (0, 0, 0.00000000000000000000e+000) (0, 0, 0.00000000000000000000e+000) (0, 0, 0.00000000000000000000e+000) (0, 0, 0.00000000000000000000e+000) (0, 0, 0.00000000000000000000e+000) (0, 0, 0.00000000000000000000e+000) (0, 0, 0.00000000000000000000e+000) (0, 0, 0.00000000000000000000e+000) (0, 0, 0.00000000000000000000e+000) (0, 0, 0.00000000000000000000e+000) (0, 0, 0.00000000000000000000e+000) (0, 0, 0.00000000000000000000e+000) (0, 0, 0.00000000000000000000e+000) (0, 0, 0.00000000000000000000e+000) (0, 0, 0.00000000000000000000e+000) (0, 0, 0.00000000000000000000e+000) (0, 0, 0.00000000000000000000e+000) (0, 0, 0.00000000000000000000e+000) (0, 0, 0.00000000000000000000e+000) (0, 0, 0.00000000000000000000e+000) (0, 0, 0.00000000000000000000e+000) (0, 0, 0.00000000000000000000e+000) (0, 0, 0.00000000000000000000e+000) (0, 0, 0.00000000000000000000e+000) (0, 0, 0.00000000000000000000e+000) (0, 0, 0.00000000000000000000e+000) (0, 0, 0.00000000000000000000e+000) (0, 0, 0.00000000000000000000e+000) (0, 0, 0.00000000000000000000e+000) (0, 0, 0.00000000000000000000e+000) (0, 0, 0.00000000000000000000e+000) (0, 0, 0.00000000000000000000e+000) (0, 0, 0.00000000000000000000e+000) (0, 0, 0.00000000000000000000e+000) (0, 0, 0.00000000000000000000e+000) (0, 0, 0.00000000000000000000e+000) (0, 0, 0.00000000000000000000e+000) (0, 0, 0.00000000000000000000e+000) (0, 0, 0.00000000000000000000e+000) (0, 0, 0.00000000000000000000e+000) (0, 0, 0.00000000000000000000e+000) (0, 0, 0.00000000000000000000e+000) (0, 0, 0.00000000000000000000e+000) (0, 0, 0.00000000000000000000e+000) (0, 0, 0.00000000000000000000e+000) (0, 0, 0.00000000000000000000e+000) (0, 0, 0.00000000000000000000e+000) (0, 0, 0.00000000000000000000e+000) (0, 0, 0.00000000000000000000e+000) (0, 0, 0.00000000000000000000e+000) (0, 0, 0.00000000000000000000e+000) (0, 0, 0.00000000000000000000e+000) (0, 0, 0.00000000000000000000e+000) (0, 0, 0.00000000000000000000e+000) (0, 0, 0.00000000000000000000e+000) (0, 0, 0.00000000000000000000e+000) (0, 0, 0.00000000000000000000e+000) (0, 0, 0.00000000000000000000e+000) (0, 0, 0.00000000000000000000e+000) (0, 0, 0.00000000000000000000e+000) (0, 0, 0.00000000000000000000e+000) (0, 0, 0.00000000000000000000e+000) (0, 0, 0.00000000000000000000e+000) (0, 0, 0.00000000000000000000e+000) (0, 0, 0.00000000000000000000e+000) (0, 0, 0.00000000000000000000e+000) (0, 0, 0.00000000000000000000e+000) (0, 0, 0.00000000000000000000e+000) (0, 0, 0.00000000000000000000e+000) (0, 0, 0.00000000000000000000e+000) (0, 0, 0.00000000000000000000e+000) (0, 0, 0.00000000000000000000e+000) (0, 0, 0.00000000000000000000e+000) (0, 0, 0.00000000000000000000e+000) (0, 0, 0.00000000000000000000e+000) (0, 0, 0.00000000000000000000e+000) (0, 0, 0.00000000000000000000e+000) (0, 0, 0.00000000000000000000e+000) (0, 0, 0.00000000000000000000e+000) (0, 0, 0.00000000000000000000e+000) (0, 0, 0.00000000000000000000e+000) (0, 0, 0.00000000000000000000e+000) (0, 0, 0.00000000000000000000e+000) (0, 0, 0.00000000000000000000e+000) (0, 0, 0.00000000000000000000e+000) (0, 0, 0.00000000000000000000e+000) (0, 0, 0.00000000000000000000e+000) (0, 0, 0.00000000000000000000e+000) (0, 0, 0.00000000000000000000e+000) (0, 0, 0.00000000000000000000e+000) (0, 0, 0.00000000000000000000e+000) (0, 0, 0.00000000000000000000e+000) (0, 0, 0.00000000000000000000e+000) (0, 0, 0.00000000000000000000e+000) (0, 0, 0.00000000000000000000e+000) (0, 0, 0.00000000000000000000e+000) (0, 0, 0.00000000000000000000e+000) (0, 0, 0.00000000000000000000e+000) (0, 0, 0.00000000000000000000e+000) (0, 0, 0.00000000000000000000e+000) (0, 0, 0.00000000000000000000e+000) (0, 0, 0.00000000000000000000e+000) (0, 0, 0.00000000000000000000e+000) (0, 0, 0.00000000000000000000e+000) (0, 0, 0.00000000000000000000e+000) (0, 0, 0.00000000000000000000e+000) (0, 0, 0.00000000000000000000e+000) (0, 0, 0.00000000000000000000e+000) (0, 0, 0.00000000000000000000e+000) (0, 0, 0.00000000000000000000e+000) (0, 0, 0.00000000000000000000e+000) (0, 0, 0.00000000000000000000e+000) (0, 0, 0.00000000000000000000e+000) (0, 0, 0.00000000000000000000e+000) (0, 0, 0.00000000000000000000e+000) (0, 0, 0.00000000000000000000e+000) (0, 0, 0.00000000000000000000e+000) (0, 0, 0.00000000000000000000e+000) (0, 0, 0.00000000000000000000e+000) (0, 0, 0.00000000000000000000e+000) (0, 0, 0.00000000000000000000e+000) (0, 0, 0.00000000000000000000e+000) (0, 0, 0.00000000000000000000e+000) (0, 0, 0.00000000000000000000e+000) (0, 0, 0.00000000000000000000e+000) (0, 0, 0.00000000000000000000e+000) (0, 0, 0.00000000000000000000e+000) (0, 0, 0.00000000000000000000e+000) (0, 0, 0.00000000000000000000e+000) (0, 0, 0.00000000000000000000e+000) (0, 0, 0.00000000000000000000e+000) (0, 0, 0.00000000000000000000e+000) (0, 0, 0.00000000000000000000e+000) (0, 0, 0.00000000000000000000e+000) (0, 0, 0.00000000000000000000e+000) (0, 0, 0.00000000000000000000e+000) (0, 0, 0.00000000000000000000e+000) (0, 0, 0.00000000000000000000e+000) (0, 0, 0.00000000000000000000e+000) (0, 0, 0.00000000000000000000e+000) (0, 0, 0.00000000000000000000e+000) (0, 0, 0.00000000000000000000e+000) (0, 0, 0.00000000000000000000e+000) (0, 0, 0.00000000000000000000e+000) (0, 0, 0.00000000000000000000e+000) (0, 0, 0.00000000000000000000e+000) (0, 0, 0.00000000000000000000e+000) (0, 0, 0.00000000000000000000e+000) (0, 0, 0.00000000000000000000e+000) (0, 0, 0.00000000000000000000e+000) (0, 0, 0.00000000000000000000e+000) (0, 0, 0.00000000000000000000e+000) (0, 0, 0.00000000000000000000e+000) (0, 0, 0.00000000000000000000e+000) (0, 0, 0.00000000000000000000e+000) (0, 0, 0.00000000000000000000e+000) (0, 0, 0.00000000000000000000e+000) (0, 0, 0.00000000000000000000e+000) (0, 0, 0.00000000000000000000e+000) (0, 0, 0.00000000000000000000e+000) (0, 0, 0.00000000000000000000e+000) (0, 0, 0.00000000000000000000e+000) (0, 0, 0.00000000000000000000e+000) (0, 0, 0.00000000000000000000e+000) (0, 0, 0.00000000000000000000e+000) (0, 0, 0.00000000000000000000e+000) (0, 0, 0.00000000000000000000e+000) (0, 0, 0.00000000000000000000e+000) (0, 0, 0.00000000000000000000e+000) (0, 0, 0.00000000000000000000e+000) (0, 0, 0.00000000000000000000e+000) (0, 0, 0.00000000000000000000e+000) (0, 0, 0.00000000000000000000e+000) (0, 0, 0.00000000000000000000e+000) (0, 0, 0.00000000000000000000e+000) (0, 0, 0.00000000000000000000e+000) (0, 0, 0.00000000000000000000e+000) (0, 0, 0.00000000000000000000e+000) (0, 0, 0.00000000000000000000e+000) (0, 0, 0.00000000000000000000e+000) (0, 0, 0.00000000000000000000e+000) (0, 0, 0.00000000000000000000e+000) (0, 0, 0.00000000000000000000e+000) (0, 0, 0.00000000000000000000e+000) (0, 0, 0.00000000000000000000e+000) (0, 0, 0.00000000000000000000e+000) (0, 0, 0.00000000000000000000e+000) (0, 0, 0.00000000000000000000e+000) (0, 0, 0.00000000000000000000e+000) (0, 0, 0.00000000000000000000e+000) (0, 0, 0.00000000000000000000e+000) (0, 0, 0.00000000000000000000e+000) (0, 0, 0.00000000000000000000e+000) (0, 0, 0.00000000000000000000e+000) (0, 0, 0.00000000000000000000e+000) (0, 0, 0.00000000000000000000e+000) (241, 4, 1.10000002384185790000e+000) (241, 4, 1.10000002384185790000e+000) (241, 4, 1.10000002384185790000e+000) (241, 4, 1.10000002384185790000e+000) (241, 4, 1.10000002384185790000e+000) (241, 4, 1.10000002384185790000e+000) (241, 4, 1.10000002384185790000e+000) (241, 4, 1.10000002384185790000e+000) (0, 4, 1.10000002384185790000e+000) (9, 5, 1.00000000000000000000e+000) (9, 5, 1.00000000000000000000e+000) (0, 5, 1.00000000000000000000e+000) 
connections (connected_to_neuron, weight)=(0, 6.87394961714744570000e-002) (1, 3.33217941224575040000e-002) (2, -8.25951099395751950000e-002) (3, 3.14063159748911860000e-003) (4, 6.73663020133972170000e-002) (5, 7.89810791611671450000e-002) (6, 4.74932640790939330000e-002) (7, 7.28438943624496460000e-002) (8, 4.27485490217804910000e-003) (9, -6.20925314724445340000e-002) (10, -2.85537522286176680000e-002) (11, 6.69337511062622070000e-002) (12, -5.97014687955379490000e-002) (13, -2.54347771406173710000e-002) (14, 3.78737747669219970000e-002) (15, -2.04531592316925530000e-003) (16, -6.63884282112121580000e-002) (17, -3.90111543238162990000e-002) (18, -1.00823029875755310000e-001) (19, -1.03908725082874300000e-001) (20, 3.49441505968570710000e-002) (21, -1.79688227945007380000e-004) (22, 2.94363256543874740000e-002) (23, -3.48488949239254000000e-002) (24, 4.04927767813205720000e-002) (25, 3.59426885843276980000e-002) (26, 1.33279813453555110000e-002) (27, 1.42367053776979450000e-002) (28, -2.95610595494508740000e-002) (29, 6.58080205321311950000e-002) (30, -3.49849537014961240000e-002) (31, 5.71924149990081790000e-002) (32, 4.81150001287460330000e-002) (33, -5.05774021148681640000e-002) (34, -5.50202615559101100000e-002) (35, 2.16959137469530110000e-002) (36, 4.71009388566017150000e-002) (37, 2.48430036008358000000e-002) (38, 4.25489507615566250000e-002) (39, -3.42519283294677730000e-002) (40, 5.42061664164066310000e-002) (41, -1.11846201121807100000e-001) (42, -1.70707497745752330000e-002) (43, -1.13281920552253720000e-001) (44, 1.04878582060337070000e-002) (45, -3.48291695117950440000e-002) (46, 7.33858346939086910000e-002) (47, 8.51747468113899230000e-002) (48, -2.47614849358797070000e-002) (49, -7.46638253331184390000e-002) (50, -1.00055217742919920000e-001) (51, 1.32576217874884610000e-002) (52, 7.05110058188438420000e-002) (53, 8.01949873566627500000e-002) (54, 2.16033663600683210000e-002) (55, 5.59458471834659580000e-002) (56, -4.76191528141498570000e-002) (57, 5.38368597626686100000e-002) (58, 8.62725824117660520000e-002) (59, 7.20247849822044370000e-002) (60, -7.35050141811370850000e-002) (61, -5.89602552354335780000e-002) (62, 1.54275624081492420000e-002) (63, 1.50845889002084730000e-002) (64, 5.52536360919475560000e-003) (65, -3.28023284673690800000e-002) (66, -4.11913804709911350000e-002) (67, 8.67789760231971740000e-002) (68, -8.51078256964683530000e-002) (69, -2.04428769648075100000e-002) (70, -1.10091745853424070000e-001) (71, 1.34207978844642640000e-002) (72, -3.53326760232448580000e-002) (73, 7.20925852656364440000e-002) (74, -8.23774933815002440000e-002) (75, 1.95158878341317180000e-003) (76, 2.57870368659496310000e-002) (77, -2.54882238805294040000e-002) (78, -3.54378409683704380000e-002) (79, -4.89516928791999820000e-002) (80, 5.79731352627277370000e-002) (81, 7.26903527975082400000e-002) (82, 4.42921854555606840000e-002) (83, 9.14289802312850950000e-002) (84, 9.37329791486263280000e-003) (85, -5.67188560962677000000e-002) (86, -8.09852108359336850000e-002) (87, -1.06435239315032960000e-001) (88, 8.11877027153968810000e-002) (89, -4.53799404203891750000e-002) (90, -6.64590299129486080000e-002) (91, 5.65713383257389070000e-002) (92, 6.68937638401985170000e-002) (93, -9.16949063539505000000e-002) (94, -7.77597501873970030000e-002) (95, -5.73825165629386900000e-002) (96, -4.42420318722724910000e-002) (97, -1.16629544645547870000e-002) (98, -9.69467759132385250000e-002) (99, -9.16914120316505430000e-002) (100, 1.15720462054014210000e-002) (101, 2.99125518649816510000e-002) (102, -8.29287469387054440000e-002) (103, -4.50707376003265380000e-002) (104, -1.11124448478221890000e-001) (105, -5.70321753621101380000e-002) (106, 2.40372214466333390000e-002) (107, -4.79357801377773280000e-002) (108, -3.96471098065376280000e-002) (109, -3.26436944305896760000e-002) (110, 1.99558101594448090000e-002) (111, -5.96264004707336430000e-002) (112, -2.67902612686157230000e-002) (113, -7.80461169779300690000e-003) (114, 2.06468123942613600000e-002) (115, -7.14287236332893370000e-002) (116, -1.11493580043315890000e-001) (117, 7.70208090543746950000e-002) (118, 6.69807493686676030000e-002) (119, -1.02416127920150760000e-001) (120, 4.19147461652755740000e-002) (121, 7.39887580275535580000e-002) (122, 3.16890366375446320000e-002) (123, 3.94065938889980320000e-002) (124, 4.00301925837993620000e-002) (125, -2.60477587580680850000e-002) (126, -3.79387028515338900000e-002) (127, -7.47406259179115300000e-002) (128, 4.86331572756171230000e-003) (129, -9.33199375867843630000e-002) (130, -7.67500197980552910000e-004) (131, -1.36961983516812320000e-002) (132, -1.04015991091728210000e-002) (133, -2.02980381436645980000e-003) (134, -6.69773146510124210000e-002) (135, 1.91657878458499910000e-002) (136, -6.81992322206497190000e-002) (137, -1.00883014500141140000e-001) (138, -2.40952055901288990000e-002) (139, 7.30594201013445850000e-003) (140, -6.14179857075214390000e-002) (141, -8.47568660974502560000e-002) (142, 5.83137683570384980000e-002) (143, -1.96528974920511250000e-002) (144, 8.98581519722938540000e-002) (145, 7.30186477303504940000e-002) (146, -1.11999608576297760000e-001) (147, -2.57485006004571910000e-002) (148, 2.44985939934849740000e-003) (149, 1.42736025154590610000e-002) (150, -9.64652076363563540000e-002) (151, 3.32588842138648030000e-003) (152, 4.00757417082786560000e-002) (153, 4.22521978616714480000e-002) (154, 7.68994614481925960000e-002) (155, -2.27393172681331630000e-002) (156, -1.02351367473602290000e-001) (157, 1.88283994793891910000e-002) (158, 7.29434713721275330000e-002) (159, 3.96377444267272950000e-002) (160, -1.10454633831977840000e-001) (161, -6.53168782591819760000e-002) (162, 2.04574260860681530000e-002) (163, -1.02792248129844670000e-001) (164, 3.93070206046104430000e-002) (165, 3.12605462968349460000e-002) (166, -9.71016939729452130000e-003) (167, 4.51337285339832310000e-002) (168, 6.39054700732231140000e-002) (169, 7.18598738312721250000e-002) (170, 6.52655139565467830000e-002) (171, 8.20181742310523990000e-002) (172, 1.90933365374803540000e-002) (173, -9.89005863666534420000e-002) (174, -8.08806642889976500000e-002) (175, 6.86059370636940000000e-002) (176, -7.54876136779785160000e-002) (177, -9.91599857807159420000e-002) (178, -7.69264176487922670000e-002) (179, -4.09636646509170530000e-002) (180, -1.05501167476177220000e-001) (181, -9.45069491863250730000e-002) (182, -9.29315462708473210000e-002) (183, -2.75236461311578750000e-002) (184, 4.95041022077202800000e-003) (185, -1.08458884060382840000e-001) (186, 7.40421414375305180000e-002) (187, 6.33851215243339540000e-002) (188, -4.15870286524295810000e-002) (189, 5.83686605095863340000e-002) (190, -3.32654416561126710000e-002) (191, -1.19003709405660630000e-002) (192, 8.05914849042892460000e-002) (193, -5.66844195127487180000e-002) (194, 6.95860460400581360000e-002) (195, -3.49750965833663940000e-002) (196, 2.12455783039331440000e-002) (197, -3.31901088356971740000e-002) (198, 8.52395594120025630000e-002) (199, -7.29433819651603700000e-002) (200, 3.69181707501411440000e-002) (201, -5.33375982195138930000e-003) (202, -4.13844138383865360000e-002) (203, -5.85017055273056030000e-002) (204, 2.32271626591682430000e-002) (205, -4.29625846445560460000e-002) (206, -6.65561258792877200000e-002) (207, -1.05018116533756260000e-001) (208, -5.72121292352676390000e-002) (209, 4.88595142960548400000e-002) (210, 2.01700478792190550000e-002) (211, 9.96264908462762830000e-003) (212, -5.79616520553827290000e-003) (213, -5.36887124180793760000e-002) (214, -3.03292274475097660000e-002) (215, -6.43024146556854250000e-002) (216, 8.49600043147802350000e-003) (217, -2.05265618860721590000e-002) (218, 4.01883050799369810000e-002) (219, 3.10632139444351200000e-002) (220, 3.51048330776393410000e-003) (221, 5.80435916781425480000e-002) (222, 2.47777876211330290000e-004) (223, 2.19599418342113490000e-002) (224, 3.71402897872030740000e-003) (225, 2.26152758114039900000e-003) (226, -1.10847083851695060000e-002) (227, 4.95962090790271760000e-002) (228, -9.43551212549209590000e-002) (229, -8.07415395975112920000e-002) (230, 2.61747259646654130000e-002) (231, 1.45870829001069070000e-002) (232, 9.21522974967956540000e-002) (233, 8.94318744540214540000e-002) (234, -3.54952663183212280000e-002) (235, 6.63508102297782900000e-002) (236, 8.01165178418159480000e-002) (237, -1.88238210976123810000e-002) (238, -4.89843934774398800000e-002) (239, 5.06415357813239100000e-003) (240, -1.94143932312726970000e-002) (0, 8.68720412254333500000e-002) (1, -1.00345350801944730000e-002) (2, 4.71649058163166050000e-002) (3, -1.61362942308187480000e-002) (4, -2.97303730621933940000e-003) (5, -4.87256981432437900000e-002) (6, -1.92050624173134570000e-003) (7, -8.02146270871162410000e-002) (8, -5.31958080828189850000e-002) (9, -4.11809831857681270000e-002) (10, 8.37031751871109010000e-002) (11, 4.66783270239830020000e-002) (12, -6.94066137075424190000e-002) (13, 6.16584531962871550000e-002) (14, 8.43672007322311400000e-002) (15, 3.44714485108852390000e-002) (16, -1.97958312928676610000e-002) (17, -9.60723012685775760000e-002) (18, -8.29789265990257260000e-002) (19, 6.49456605315208440000e-002) (20, 1.62146973889321090000e-003) (21, 8.77135470509529110000e-002) (22, -6.37891367077827450000e-002) (23, 4.63553778827190400000e-002) (24, 6.94807097315788270000e-002) (25, -8.15323516726493840000e-002) (26, 8.95808264613151550000e-002) (27, -1.87903996556997300000e-002) (28, -7.63908475637435910000e-002) (29, 4.73701246082782750000e-002) (30, -6.92658647894859310000e-002) (31, 4.21227402985095980000e-002) (32, 5.70537755265831950000e-004) (33, -5.05209378898143770000e-002) (34, 7.54282698035240170000e-002) (35, -4.51053492724895480000e-002) (36, 5.62873743474483490000e-002) (37, 3.44854593276977540000e-002) (38, 7.32326284050941470000e-002) (39, -3.69306234642863270000e-003) (40, 8.78723040223121640000e-002) (41, 2.39327345043420790000e-002) (42, 7.95447975397109990000e-002) (43, -4.42560277879238130000e-002) (44, 4.47062179446220400000e-002) (45, -6.19027055799961090000e-002) (46, 7.99592360854148860000e-002) (47, 7.07442238926887510000e-002) (48, -3.35199199616909030000e-002) (49, 5.17388135194778440000e-002) (50, 6.17282018065452580000e-002) (51, 8.16195458173751830000e-002) (52, 3.27910669147968290000e-002) (53, -8.91450196504592900000e-002) (54, 4.04312089085578920000e-002) (55, -5.96496723592281340000e-002) (56, 6.44722953438758850000e-002) (57, -7.41242989897727970000e-002) (58, 3.52422110736370090000e-002) (59, -3.85331152938306330000e-003) (60, 6.19622468948364260000e-002) (61, -6.32635951042175290000e-002) (62, -5.59545494616031650000e-002) (63, 7.84025415778160100000e-002) (64, 8.53921566158533100000e-003) (65, -7.36983120441436770000e-002) (66, 2.90046520531177520000e-002) (67, -9.16123092174530030000e-002) (68, 4.71015349030494690000e-002) (69, 1.54448393732309340000e-002) (70, 3.20319831371307370000e-002) (71, 5.33919967710971830000e-002) (72, 7.11297988891601560000e-002) (73, -3.67758087813854220000e-002) (74, 6.29568547010421750000e-002) (75, -6.36985599994659420000e-002) (76, 4.24987860023975370000e-002) (77, -2.57520675659179690000e-002) (78, -1.03071168065071110000e-001) (79, -6.48747310042381290000e-002) (80, 9.01046171784400940000e-002) (81, -1.17877945303916930000e-002) (82, -6.98306262493133540000e-002) (83, 7.91785120964050290000e-002) (84, -5.77259920537471770000e-002) (85, 3.25242988765239720000e-002) (86, -7.29549378156661990000e-002) (87, -7.74124264717102050000e-002) (88, 6.04781359434127810000e-002) (89, -1.82241220027208330000e-002) (90, 7.96730890870094300000e-002) (91, -9.29919630289077760000e-002) (92, -9.02309417724609380000e-002) (93, 9.45263728499412540000e-003) (94, 4.17933687567710880000e-002) (95, -3.66002554073929790000e-003) (96, 6.35882690548896790000e-002) (97, 1.04607604444026950000e-001) (98, 3.66646014153957370000e-002) (99, 6.21237345039844510000e-002) (100, 3.94619815051555630000e-003) (101, -1.09640387818217280000e-002) (102, 5.90084977447986600000e-002) (103, 7.47500658035278320000e-002) (104, 2.04870924353599550000e-002) (105, -6.26821666955947880000e-002) (106, -1.90898757427930830000e-002) (107, -1.74910239875316620000e-002) (108, -3.62289184704422950000e-003) (109, 8.39391648769378660000e-002) (110, 1.52756143361330030000e-002) (111, 8.39920639991760250000e-002) (112, 2.46190056204795840000e-002) (113, 4.11633178591728210000e-002) (114, 1.32131865248084070000e-002) (115, 3.44720706343650820000e-002) (116, 5.88053986430168150000e-002) (117, -4.37435396015644070000e-002) (118, 4.17848490178585050000e-002) (119, 8.87332260608673100000e-002) (120, -7.21391215920448300000e-002) (121, -7.74239748716354370000e-002) (122, -4.95034307241439820000e-002) (123, 5.80583103001117710000e-002) (124, -2.61153057217597960000e-002) (125, 3.33882644772529600000e-002) (126, -7.47845247387886050000e-002) (127, 7.90552571415901180000e-002) (128, 3.21775712072849270000e-002) (129, -2.52657458186149600000e-002) (130, 6.64015114307403560000e-002) (131, 5.03897145390510560000e-002) (132, -1.91906131803989410000e-002) (133, 7.11205080151557920000e-002) (134, -3.11071742326021190000e-002) (135, -2.57400311529636380000e-002) (136, 7.43434950709342960000e-002) (137, 2.37782690674066540000e-002) (138, 8.94221849739551540000e-003) (139, 1.00493781268596650000e-001) (140, 6.05740817263722420000e-003) (141, 9.49716847389936450000e-003) (142, -4.85750436782836910000e-002) (143, -3.64601649343967440000e-002) (144, -7.04203546047210690000e-002) (145, 1.47506436333060260000e-002) (146, 4.69105839729309080000e-002) (147, -3.09815481305122380000e-002) (148, -6.84334561228752140000e-002) (149, 5.20482473075389860000e-002) (150, -7.30832666158676150000e-002) (151, -1.49382119998335840000e-002) (152, -7.28021264076232910000e-002) (153, -1.05960213113576170000e-003) (154, -3.25881913304328920000e-002) (155, 3.79831120371818540000e-002) (156, -4.56762723624706270000e-002) (157, 1.08245059847831730000e-001) (158, -9.55848172307014470000e-002) (159, -2.51902583986520770000e-002) (160, -6.26561939716339110000e-002) (161, 6.82717189192771910000e-002) (162, 5.80220557749271390000e-002) (163, 5.53473122417926790000e-002) (164, -6.29975497722625730000e-002) (165, 8.72553437948226930000e-002) (166, 2.69209071993827820000e-002) (167, -8.64629372954368590000e-002) (168, 6.58995658159255980000e-002) (169, -2.47569717466831210000e-002) (170, 9.55128017812967300000e-003) (171, 2.86516994237899780000e-002) (172, -9.22209993004798890000e-002) (173, -3.79896201193332670000e-002) (174, 3.38028408586978910000e-002) (175, -4.74956333637237550000e-002) (176, 6.77416920661926270000e-002) (177, 3.39261442422866820000e-002) (178, -1.06866529677063230000e-003) (179, 2.11398508399724960000e-002) (180, 8.48595723509788510000e-002) (181, 2.17812675982713700000e-002) (182, 1.07487151399254800000e-002) (183, 3.79129461944103240000e-002) (184, -3.30923944711685180000e-002) (185, -9.23817083239555360000e-002) (186, -6.76315277814865110000e-002) (187, -2.78937965631484990000e-002) (188, 1.46685913205146790000e-002) (189, -2.40391539409756660000e-003) (190, -4.71972301602363590000e-002) (191, -5.05825206637382510000e-002) (192, -1.33058102801442150000e-002) (193, 5.40095679461956020000e-002) (194, -6.95475712418556210000e-002) (195, 7.89482444524765010000e-002) (196, 9.30727645754814150000e-002) (197, -3.27791161835193630000e-002) (198, -4.77939620614051820000e-002) (199, 5.14450296759605410000e-002) (200, -1.19011187925934790000e-002) (201, -6.05029650032520290000e-002) (202, -1.28929466009140010000e-002) (203, 6.85931742191314700000e-002) (204, 4.72793318331241610000e-002) (205, -6.39157667756080630000e-002) (206, -1.96488983929157260000e-002) (207, 2.39803120493888850000e-002) (208, -4.21322695910930630000e-002) (209, -3.00165303051471710000e-002) (210, 7.01293945312500000000e-002) (211, 5.74097856879234310000e-002) (212, -7.31342881917953490000e-002) (213, 2.36377539113163950000e-003) (214, -6.65439572185277940000e-003) (215, -4.15365066146478060000e-004) (216, 5.36002553999423980000e-002) (217, 6.76131621003150940000e-002) (218, 9.84712541103363040000e-002) (219, -2.89299376308918000000e-002) (220, 5.63415996730327610000e-002) (221, -1.27941621467471120000e-002) (222, -9.40746292471885680000e-002) (223, 9.24217551946640010000e-002) (224, 8.75189378857612610000e-002) (225, -8.97133499383926390000e-002) (226, -3.47790345549583440000e-002) (227, 8.88353064656257630000e-002) (228, -8.75790938735008240000e-002) (229, -5.76138310134410860000e-002) (230, 2.86916792392730710000e-002) (231, 3.09423916041851040000e-002) (232, 8.71280431747436520000e-002) (233, 1.85217894613742830000e-002) (234, 2.74077598005533220000e-002) (235, 4.28660511970520020000e-002) (236, 3.20202670991420750000e-002) (237, -2.97883450984954830000e-002) (238, -4.78824488818645480000e-002) (239, 2.85600516945123670000e-002) (240, -1.06880374252796170000e-001) (0, 1.94714721292257310000e-002) (1, 3.51452678442001340000e-002) (2, -1.32465437054634090000e-001) (3, 3.29834818840026860000e-002) (4, -1.22488088905811310000e-001) (5, 4.22841496765613560000e-003) (6, 6.53157308697700500000e-002) (7, -1.27318948507308960000e-001) (8, -2.79111927375197410000e-003) (9, -5.38923591375350950000e-002) (10, -9.55007895827293400000e-002) (11, -7.19080418348312380000e-002) (12, -5.21766543388366700000e-002) (13, -3.28292697668075560000e-002) (14, -1.00137487053871150000e-001) (15, 9.70905553549528120000e-003) (16, -8.15263912081718440000e-002) (17, 9.00686066597700120000e-003) (18, -8.98159146308898930000e-002) (19, -1.02056100964546200000e-001) (20, -7.75461494922637940000e-002) (21, 2.72446740418672560000e-002) (22, -8.69670882821083070000e-002) (23, -5.22540546953678130000e-002) (24, -4.08487580716609950000e-002) (25, -6.33778497576713560000e-002) (26, -1.15116991102695470000e-001) (27, -7.02759474515914920000e-002) (28, 3.67496944963932040000e-002) (29, -1.02515323087573050000e-002) (30, -1.24280527234077450000e-001) (31, -7.32529461383819580000e-002) (32, 5.45974150300025940000e-002) (33, 1.40596954151988030000e-002) (34, -5.45970909297466280000e-002) (35, -1.68544915504753590000e-003) (36, -1.24009475111961360000e-001) (37, -2.79104840010404590000e-002) (38, -7.06158876419067380000e-002) (39, 6.98641967028379440000e-003) (40, -6.95297057973220940000e-005) (41, 4.50633885338902470000e-003) (42, 1.96751765906810760000e-002) (43, -8.02241079509258270000e-003) (44, -2.43040937930345540000e-002) (45, -1.19031183421611790000e-002) (46, 9.66867606621235610000e-004) (47, -1.17540046572685240000e-001) (48, 3.71726378798484800000e-002) (49, -1.10426254570484160000e-001) (50, -1.20274081826210020000e-001) (51, -1.74952205270528790000e-002) (52, -5.22265024483203890000e-002) (53, -2.18348130583763120000e-002) (54, -1.03968538343906400000e-001) (55, 8.60766600817441940000e-003) (56, -1.03297591209411620000e-001) (57, -1.15391969680786130000e-001) (58, 7.01018236577510830000e-003) (59, 2.71492619067430500000e-002) (60, -3.09521774761378770000e-003) (61, -3.43401692807674410000e-002) (62, 3.73162105679512020000e-002) (63, 6.05498738586902620000e-002) (64, -1.30656408146023750000e-002) (65, -1.02266386151313780000e-001) (66, -1.27483054995536800000e-001) (67, 4.55706790089607240000e-002) (68, 4.22335974872112270000e-002) (69, 9.84695274382829670000e-003) (70, 1.83427128940820690000e-002) (71, 4.86029917374253270000e-003) (72, -8.26924145221710210000e-002) (73, -4.96706143021583560000e-002) (74, -2.77024954557418820000e-002) (75, 4.63995300233364110000e-002) (76, 5.16877472400665280000e-002) (77, -1.15237630903720860000e-001) (78, 1.68120656162500380000e-002) (79, -9.98360440135002140000e-002) (80, 4.03153151273727420000e-002) (81, -8.35802927613258360000e-002) (82, -2.84127332270145420000e-002) (83, -8.77778008580207820000e-002) (84, -2.18574404716491700000e-002) (85, -1.22379302978515630000e-001) (86, -2.85445116460323330000e-002) (87, -1.13888472318649290000e-001) (88, -6.84710517525672910000e-002) (89, -1.20674334466457370000e-002) (90, 9.84970945864915850000e-003) (91, 4.68005090951919560000e-002) (92, -3.75882722437381740000e-002) (93, -1.10272303223609920000e-001) (94, -1.00880945101380350000e-002) (95, 3.05756330490112300000e-002) (96, -7.92614743113517760000e-002) (97, 2.83635072410106660000e-002) (98, -1.11359253525733950000e-001) (99, -4.10073958337306980000e-002) (100, -4.49236668646335600000e-002) (101, -1.11905429512262340000e-002) (102, -6.60603269934654240000e-002) (103, -9.05308574438095090000e-002) (104, 1.90436821430921550000e-002) (105, 1.61991566419601440000e-002) (106, 9.85267292708158490000e-003) (107, -8.46408084034919740000e-002) (108, 8.09300970286130910000e-003) (109, -2.80702523887157440000e-002) (110, -9.74958539009094240000e-002) (111, 1.33692417293787000000e-002) (112, -1.08343422412872310000e-001) (113, -7.14208632707595830000e-002) (114, -5.65119460225105290000e-003) (115, -1.78195443004369740000e-002) (116, -8.07650908827781680000e-002) (117, -9.64996814727783200000e-002) (118, 5.52124194800853730000e-002) (119, -4.28510569036006930000e-002) (120, 5.76603524386882780000e-002) (121, -5.40196411311626430000e-002) (122, -7.41491466760635380000e-002) (123, -5.75326643884181980000e-002) (124, 1.97001472115516660000e-002) (125, -4.60051111876964570000e-002) (126, 4.93632815778255460000e-002) (127, -1.35005880147218700000e-002) (128, -2.24500838667154310000e-002) (129, -2.30833329260349270000e-002) (130, 3.79475168883800510000e-002) (131, 1.27758486196398740000e-002) (132, 5.41118085384368900000e-002) (133, -6.82764351367950440000e-002) (134, -3.12012657523155210000e-002) (135, 2.56494116038084030000e-002) (136, 4.98931296169757840000e-003) (137, 2.21558520570397380000e-003) (138, -2.22707521170377730000e-002) (139, -7.68736749887466430000e-002) (140, -1.18476450443267820000e-001) (141, -1.26227900385856630000e-001) (142, -2.30117756873369220000e-002) (143, -3.43847274780273440000e-002) (144, 6.93854084238410000000e-003) (145, -6.24305270612239840000e-002) (146, -3.61300334334373470000e-002) (147, -1.02195389568805690000e-001) (148, -4.95707318186759950000e-002) (149, -4.61751334369182590000e-002) (150, 5.56617677211761470000e-002) (151, 1.28791807219386100000e-002) (152, 2.90430430322885510000e-002) (153, -1.28100931644439700000e-001) (154, 2.95725483447313310000e-002) (155, 7.01090171933174130000e-002) (156, -5.85966445505619050000e-002) (157, -8.95190462470054630000e-002) (158, -1.76616590470075610000e-002) (159, 4.59443964064121250000e-002) (160, 3.67487296462059020000e-002) (161, 2.17580627650022510000e-002) (162, 5.17626851797103880000e-002) (163, 6.45090192556381230000e-002) (164, -8.95437377039343120000e-004) (165, -9.58451032638549800000e-002) (166, -9.11871492862701420000e-002) (167, -5.85309006273746490000e-002) (168, -7.46946025174111130000e-004) (169, 3.97711843252182010000e-002) (170, -1.20742760598659520000e-001) (171, -3.16775590181350710000e-002) (172, -4.14488427340984340000e-002) (173, -3.54131013154983520000e-002) (174, 9.87589173018932340000e-003) (175, -1.13253705203533170000e-001) (176, 4.98578436672687530000e-002) (177, -9.75353177636861800000e-003) (178, 2.72606406360864640000e-002) (179, 3.70666980743408200000e-002) (180, -4.40514720976352690000e-002) (181, -1.10911354422569270000e-001) (182, 1.45185710862278940000e-002) (183, -9.49935987591743470000e-003) (184, -5.19992858171463010000e-002) (185, 1.12438565120100980000e-002) (186, 6.34679570794105530000e-002) (187, -1.18899390101432800000e-001) (188, 5.96589744091033940000e-002) (189, 4.02769073843955990000e-003) (190, 3.30208204686641690000e-002) (191, -1.36599302291870120000e-001) (192, -5.92974685132503510000e-002) (193, 3.43942530453205110000e-002) (194, -4.93060573935508730000e-002) (195, 5.94672970473766330000e-002) (196, -8.18117260932922360000e-002) (197, -1.02212630212306980000e-001) (198, 2.70728394389152530000e-002) (199, -7.15949684381484990000e-002) (200, 3.52638214826583860000e-002) (201, -1.77297722548246380000e-002) (202, 5.75782060623168950000e-002) (203, 5.40731474757194520000e-002) (204, -1.21903466060757640000e-002) (205, -1.38684973120689390000e-001) (206, -1.94604452699422840000e-002) (207, -1.14887520670890810000e-001) (208, -1.03606514632701870000e-001) (209, -1.00453309714794160000e-001) (210, 3.85270453989505770000e-002) (211, 1.37817487120628360000e-002) (212, -4.24663014709949490000e-002) (213, -1.15086346864700320000e-001) (214, -9.15453135967254640000e-002) (215, -1.12842015922069550000e-001) (216, 5.02085722982883450000e-002) (217, 5.99072352051734920000e-002) (218, 2.24796291440725330000e-002) (219, -3.24690602719783780000e-002) (220, 3.72423008084297180000e-002) (221, -9.92236807942390440000e-002) (222, -7.06718340516090390000e-002) (223, 3.69443595409393310000e-002) (224, 1.06973238289356230000e-002) (225, -6.96527063846588130000e-002) (226, -6.42056547803804280000e-005) (227, -2.65040341764688490000e-002) (228, -1.11686795949935910000e-001) (229, -4.61512096226215360000e-002) (230, -6.06748275458812710000e-002) (231, -6.78578317165374760000e-002) (232, -6.30400925874710080000e-002) (233, -9.35965478420257570000e-002) (234, 2.95989662408828740000e-002) (235, -7.97875821590423580000e-002) (236, -7.77302384376525880000e-002) (237, 3.72278094291687010000e-002) (238, 3.53288613259792330000e-002) (239, -5.57817295193672180000e-002) (240, -1.13220036029815670000e-001) (0, 5.82370348274707790000e-002) (1, -3.94124016165733340000e-002) (2, -3.86686436831951140000e-002) (3, -2.12641451507806780000e-002) (4, 1.36249978095293050000e-002) (5, 9.79800429195165630000e-003) (6, -3.26914489269256590000e-002) (7, 6.18837811052799220000e-002) (8, 9.64820478111505510000e-003) (9, 1.56007949262857440000e-002) (10, 3.90090346336364750000e-002) (11, -1.02729881182312970000e-002) (12, 5.45881986618041990000e-002) (13, -5.92743270099163060000e-002) (14, -3.40564474463462830000e-002) (15, -2.41151973605155940000e-002) (16, 6.29595518112182620000e-002) (17, 2.16318424791097640000e-002) (18, -5.34291490912437440000e-002) (19, 6.42011240124702450000e-002) (20, 1.27712385728955270000e-002) (21, 1.57992113381624220000e-002) (22, -3.92487160861492160000e-002) (23, -1.04201778769493100000e-001) (24, -2.64344923198223110000e-002) (25, -1.12688131630420680000e-002) (26, -6.69675916433334350000e-002) (27, -4.56819720566272740000e-002) (28, -1.19890987873077390000e-001) (29, -4.13043238222599030000e-002) (30, 1.85138601809740070000e-002) (31, -8.85641127824783330000e-002) (32, -1.09712995588779450000e-001) (33, 3.52930575609207150000e-002) (34, -4.36793044209480290000e-002) (35, -6.03668689727783200000e-002) (36, 6.81861415505409240000e-002) (37, -7.30101093649864200000e-002) (38, -1.16380654275417330000e-001) (39, -5.24624288082122800000e-002) (40, 4.66937944293022160000e-002) (41, -4.68230284750461580000e-002) (42, -5.29928691685199740000e-002) (43, -2.40219514816999440000e-002) (44, -7.39839375019073490000e-002) (45, -1.82918719947338100000e-002) (46, -3.56391929090023040000e-002) (47, -5.28425015509128570000e-002) (48, -9.71253886818885800000e-002) (49, -4.11386638879776000000e-002) (50, -9.67806726694107060000e-002) (51, -1.68737880885601040000e-002) (52, -5.23890443146228790000e-002) (53, 2.97968145459890370000e-002) (54, -1.26765761524438860000e-002) (55, 5.84354028105735780000e-002) (56, -5.36268539726734160000e-002) (57, 1.29662789404392240000e-002) (58, -4.59897816181182860000e-002) (59, -4.53066006302833560000e-002) (60, -5.66823221743106840000e-002) (61, 4.67828623950481410000e-002) (62, -9.64054390788078310000e-002) (63, -8.59775692224502560000e-002) (64, -1.10426381230354310000e-001) (65, -1.23828612267971040000e-001) (66, 2.58864462375640870000e-002) (67, -1.04348272085189820000e-001) (68, 5.66424168646335600000e-002) (69, -9.66236665844917300000e-002) (70, 5.00751808285713200000e-002) (71, -7.35783278942108150000e-002) (72, -1.23745501041412350000e-001) (73, -5.96273280680179600000e-002) (74, -3.03024966269731520000e-002) (75, -1.21991001069545750000e-001) (76, -1.07630841434001920000e-001) (77, -2.43775844573974610000e-002) (78, -9.90381017327308650000e-002) (79, -8.83034095168113710000e-002) (80, -9.47547256946563720000e-002) (81, -8.09290334582328800000e-002) (82, -8.03390443325042720000e-002) (83, 2.22944747656583790000e-002) (84, 6.20148293673992160000e-002) (85, 3.90865132212638850000e-002) (86, -7.53280818462371830000e-002) (87, 6.52159228920936580000e-002) (88, 7.72764012217521670000e-002) (89, -1.07421865686774250000e-002) (90, 2.70944517105817790000e-002) (91, 7.21771642565727230000e-002) (92, 5.77521808445453640000e-002) (93, -2.06540785729885100000e-002) (94, -6.04300200939178470000e-002) (95, -3.60360853374004360000e-002) (96, 1.40376994386315350000e-002) (97, -6.20033480226993560000e-002) (98, -1.16975344717502590000e-002) (99, -3.45187187194824220000e-002) (100, -5.96036538481712340000e-002) (101, -2.85750422626733780000e-002) (102, 5.49005195498466490000e-002) (103, -1.00530743598937990000e-001) (104, -1.34063959121704100000e-001) (105, 4.08528521656990050000e-002) (106, -1.23648652806878090000e-002) (107, -1.13448046147823330000e-001) (108, 3.81376780569553380000e-002) (109, -3.34051959216594700000e-002) (110, 2.83509250730276110000e-002) (111, 4.35878261923789980000e-002) (112, -4.58427108824253080000e-002) (113, -2.45558638125658040000e-002) (114, 8.03017765283584590000e-002) (115, -1.51363639160990720000e-002) (116, 3.26801240444183350000e-002) (117, 5.52269443869590760000e-002) (118, -2.87439636886119840000e-002) (119, 5.40632754564285280000e-002) (120, -4.40611466765403750000e-002) (121, 6.73267170786857600000e-002) (122, -9.08765718340873720000e-002) (123, -9.93366762995719910000e-002) (124, 6.05857409536838530000e-002) (125, -7.85016044974327090000e-002) (126, -4.36012893915176390000e-002) (127, 3.87669913470745090000e-002) (128, -8.88251513242721560000e-002) (129, 2.99687683582305910000e-003) (130, 1.68541204184293750000e-002) (131, -3.05643994361162190000e-002) (132, -1.26144334673881530000e-001) (133, -6.43231393769383430000e-003) (134, -1.75677821971476080000e-003) (135, 2.86328457295894620000e-002) (136, 5.74086559936404230000e-003) (137, -3.40467281639575960000e-002) (138, 3.40921208262443540000e-002) (139, -9.98111218214035030000e-002) (140, -4.02089096605777740000e-002) (141, -3.03110275417566300000e-002) (142, 4.38926182687282560000e-002) (143, -1.44051266834139820000e-002) (144, -2.57695633918046950000e-002) (145, 8.25087428092956540000e-002) (146, -1.00268319249153140000e-001) (147, 4.18779766187071800000e-003) (148, 1.19874132797122000000e-002) (149, 1.68841481208801270000e-002) (150, -3.47404666244983670000e-002) (151, 2.08639819175004960000e-002) (152, -1.30031019449234010000e-001) (153, -4.92343790829181670000e-002) (154, -7.73105248808860780000e-002) (155, -1.43081415444612500000e-002) (156, 1.43916746601462360000e-002) (157, -3.63880135118961330000e-002) (158, 1.29903024062514310000e-002) (159, -1.19430489838123320000e-001) (160, 1.23894764110445980000e-002) (161, -1.45175419747829440000e-002) (162, -4.63485494256019590000e-002) (163, 7.88899697363376620000e-003) (164, 4.66276519000530240000e-002) (165, -2.88060270249843600000e-002) (166, -9.66665148735046390000e-002) (167, 3.45572493970394130000e-002) (168, 4.32309135794639590000e-002) (169, 5.48842921853065490000e-003) (170, -6.74329474568367000000e-002) (171, -4.09481935203075410000e-002) (172, -1.12662734463810920000e-002) (173, -3.56179736554622650000e-002) (174, 1.80439755786210300000e-003) (175, -5.52470125257968900000e-002) (176, -5.00278025865554810000e-002) (177, 4.85805571079254150000e-002) (178, -1.27256721258163450000e-001) (179, 2.86878664046525960000e-002) (180, -2.41245403885841370000e-002) (181, -4.24480810761451720000e-002) (182, 2.57923211902379990000e-002) (183, 1.60727426409721370000e-002) (184, -6.71190991997718810000e-002) (185, 7.33156874775886540000e-002) (186, 3.28192748129367830000e-002) (187, 3.16598452627658840000e-002) (188, -1.40825221315026280000e-002) (189, 3.81161179393529890000e-003) (190, 1.74578838050365450000e-002) (191, -1.04793034493923190000e-001) (192, -9.39686745405197140000e-002) (193, -6.09392337501049040000e-002) (194, 3.39930541813373570000e-002) (195, -1.56204281374812130000e-002) (196, -3.44968587160110470000e-002) (197, -4.80180419981479640000e-002) (198, -5.47120198607444760000e-002) (199, -1.24101854860782620000e-001) (200, -4.21195756644010540000e-003) (201, -9.67118367552757260000e-002) (202, 6.61591738462448120000e-002) (203, 3.78387719392776490000e-002) (204, -2.75099109858274460000e-002) (205, -1.36950686573982240000e-001) (206, -1.04973778128623960000e-001) (207, 3.95674668252468110000e-002) (208, 6.89576342701911930000e-002) (209, -1.05309210717678070000e-001) (210, 6.36193305253982540000e-002) (211, 2.32904423028230670000e-002) (212, -4.42760325968265530000e-002) (213, -1.72910448163747790000e-002) (214, -2.03137062489986420000e-002) (215, -7.88784697651863100000e-002) (216, -3.44056226313114170000e-002) (217, 1.35742174461483960000e-002) (218, 7.64582082629203800000e-002) (219, -9.53038036823272710000e-002) (220, -7.31247961521148680000e-002) (221, 1.81097909808158870000e-002) (222, 6.58207014203071590000e-002) (223, -6.04596221819520000000e-004) (224, -1.07878066599369050000e-001) (225, -1.10893294215202330000e-001) (226, 1.65505520999431610000e-002) (227, -9.33569371700286870000e-002) (228, 6.16069361567497250000e-002) (229, -9.75266396999359130000e-002) (230, -1.36511668562889100000e-001) (231, -1.15844704210758210000e-001) (232, -1.06077134609222410000e-001) (233, -3.42418625950813290000e-002) (234, -9.52928736805915830000e-002) (235, 2.66825295984745030000e-002) (236, 9.22101084142923360000e-004) (237, 4.26401570439338680000e-003) (238, -1.23624473810195920000e-001) (239, -2.65907365828752520000e-002) (240, -5.46370707452297210000e-002) (0, -3.88008989393711090000e-002) (1, -2.53092646598815920000e-002) (2, -1.16400994360446930000e-001) (3, 3.88664379715919490000e-002) (4, -5.01713044941425320000e-002) (5, 6.76627516746521000000e-001) (6, 1.03205636143684390000e-001) (7, 2.22971633076667790000e-001) (8, 5.41301183402538300000e-002) (9, 8.26278254389762880000e-002) (10, -1.55306920409202580000e-001) (11, -1.06208100914955140000e-001) (12, -7.40090087056159970000e-002) (13, -7.94418379664421080000e-002) (14, -6.97408244013786320000e-002) (15, 1.55163675546646120000e-001) (16, 2.31458358466625210000e-002) (17, 6.57369196414947510000e-002) (18, -5.36845214664936070000e-002) (19, 1.25369317829608920000e-002) (20, -8.33714082837104800000e-002) (21, 2.05274838954210280000e-002) (22, 9.97204333543777470000e-002) (23, 2.32526678591966630000e-002) (24, 2.90708571672439580000e-001) (25, -1.79548561573028560000e-001) (26, -8.74132588505744930000e-002) (27, -3.23412679135799410000e-002) (28, -1.96358054876327510000e-001) (29, -3.49579453468322750000e-002) (30, 2.67630845308303830000e-001) (31, 1.31606850773096080000e-002) (32, 6.41384720802307130000e-002) (33, -8.82250368595123290000e-002) (34, 2.30606589466333390000e-002) (35, 7.38869979977607730000e-002) (36, -3.15335802733898160000e-002) (37, 1.69906783849000930000e-002) (38, -1.57150141894817350000e-002) (39, 7.09574446082115170000e-002) (40, -2.36355997622013090000e-002) (41, 6.88795223832130430000e-002) (42, -2.94735908508300780000e-001) (43, -1.13466620445251460000e-001) (44, -1.47250384092330930000e-001) (45, -9.14015397429466250000e-002) (46, 3.81277129054069520000e-002) (47, -5.08261807262897490000e-002) (48, -1.23549625277519230000e-001) (49, 1.00765645503997800000e-001) (50, 1.70675948262214660000e-001) (51, 6.03341162204742430000e-002) (52, 7.85692557692527770000e-002) (53, 1.24513842165470120000e-001) (54, 2.22043264657258990000e-002) (55, -6.40771463513374330000e-002) (56, -5.37573881447315220000e-002) (57, -1.63353517651557920000e-001) (58, -6.34684367105364800000e-003) (59, -8.15824419260025020000e-002) (60, -9.50814411044120790000e-002) (61, 7.37442970275878910000e-002) (62, 5.53712882101535800000e-002) (63, 1.00693069398403170000e-002) (64, 6.65332525968551640000e-002) (65, 7.00267031788825990000e-002) (66, -4.15271939709782600000e-003) (67, 6.73836395144462590000e-002) (68, -6.42532259225845340000e-002) (69, 1.52901485562324520000e-002) (70, 8.44673141837120060000e-002) (71, 3.21947447955608370000e-002) (72, -9.33116748929023740000e-002) (73, 5.01023791730403900000e-002) (74, -1.61054909229278560000e-001) (75, 3.55453751981258390000e-002) (76, 9.74752679467201230000e-002) (77, 9.83214378356933590000e-003) (78, 9.33421701192855830000e-002) (79, 2.07415342330932620000e-001) (80, 1.98676902800798420000e-002) (81, 9.84159260988235470000e-002) (82, 2.91825924068689350000e-002) (83, -7.16045871376991270000e-002) (84, -3.68772447109222410000e-002) (85, -1.61486998200416560000e-001) (86, -2.05526575446128850000e-002) (87, -2.46847484959289430000e-004) (88, 6.05555549263954160000e-002) (89, -5.52540794014930730000e-002) (90, -2.66196817159652710000e-001) (91, -1.57658848911523820000e-002) (92, -1.36983335018157960000e-001) (93, -8.29897522926330570000e-002) (94, -7.16392621397972110000e-002) (95, -1.33263602852821350000e-001) (96, 4.56387884914875030000e-002) (97, 1.13271787762641910000e-001) (98, -1.11395381391048430000e-001) (99, 2.00121656060218810000e-001) (100, -2.94486761093139650000e-001) (101, -5.94191346317529680000e-003) (102, -1.23019717633724210000e-001) (103, 6.94616287946701050000e-002) (104, -8.25446397066116330000e-002) (105, -9.30328220129013060000e-002) (106, 1.39327421784400940000e-001) (107, 5.81703111529350280000e-002) (108, 1.07775300741195680000e-001) (109, 8.47910046577453610000e-002) (110, -3.26276943087577820000e-002) (111, 1.89744327217340470000e-002) (112, 1.02825485169887540000e-001) (113, 5.40242232382297520000e-002) (114, -3.58416773378849030000e-002) (115, -3.83916705846786500000e-001) (116, -1.03791788220405580000e-001) (117, 1.19446791708469390000e-001) (118, -1.85037016868591310000e-001) (119, -1.14715090021491050000e-002) (120, 1.63401793688535690000e-002) (121, -5.07969222962856290000e-002) (122, -3.91982272267341610000e-002) (123, -1.48632705211639400000e-001) (124, -1.59056037664413450000e-001) (125, 6.86289519071578980000e-002) (126, 2.24927231669425960000e-001) (127, -2.52810597419738770000e-001) (128, -2.08428189158439640000e-001) (129, 2.99962788820266720000e-001) (130, -1.66183844208717350000e-001) (131, -2.61653568595647810000e-002) (132, -2.50523835420608520000e-001) (133, 1.98857877403497700000e-002) (134, -3.86595278978347780000e-001) (135, -7.45988625567406420000e-004) (136, 1.92901521921157840000e-001) (137, -8.99572595953941350000e-002) (138, -5.97776845097541810000e-002) (139, 3.31683941185474400000e-002) (140, 2.12151736021041870000e-001) (141, -4.81635704636573790000e-002) (142, 7.58438035845756530000e-002) (143, 3.64260107278823850000e-001) (144, -2.57809441536664960000e-002) (145, 2.51419872045516970000e-001) (146, -1.10788725316524510000e-001) (147, 8.44466220587491990000e-003) (148, 1.05803960468620060000e-003) (149, 1.06688238680362700000e-001) (150, -1.14023536443710330000e-002) (151, -1.06171565130352970000e-002) (152, -8.57378840446472170000e-002) (153, -4.90912385284900670000e-002) (154, -1.42591074109077450000e-001) (155, 1.05595476925373080000e-001) (156, 7.30319470167160030000e-002) (157, -2.53838151693344120000e-001) (158, 7.88735598325729370000e-002) (159, -4.02375847101211550000e-001) (160, -1.73585429787635800000e-001) (161, -4.64282110333442690000e-002) (162, -4.10229526460170750000e-002) (163, -1.34592756628990170000e-001) (164, -1.85523349791765210000e-002) (165, 1.47227793931961060000e-001) (166, -5.74807040393352510000e-002) (167, -7.57379904389381410000e-002) (168, 1.13538363948464390000e-002) (169, -3.50638270378112790000e-001) (170, -1.03616015985608100000e-002) (171, 1.27217024564743040000e-001) (172, 1.08978934586048130000e-001) (173, -1.84066161513328550000e-001) (174, 4.37904708087444310000e-002) (175, -8.71964842081069950000e-002) (176, 1.47878810763359070000e-001) (177, 9.44386795163154600000e-002) (178, -1.92335695028305050000e-002) (179, 6.89442753791809080000e-002) (180, -7.41558074951171880000e-002) (181, -6.60969913005828860000e-002) (182, -9.42796319723129270000e-002) (183, 1.61508042365312580000e-002) (184, 1.15769281983375550000e-001) (185, 8.29065870493650440000e-003) (186, 2.54812896251678470000e-001) (187, 9.42367315292358400000e-002) (188, 2.29085758328437810000e-002) (189, -1.52979567646980290000e-002) (190, -3.62466424703598020000e-002) (191, -9.24803763628005980000e-002) (192, -1.50601789355278020000e-001) (193, -1.11674793064594270000e-001) (194, -2.24533781409263610000e-001) (195, -1.29654303193092350000e-001) (196, 2.32454776763916020000e-001) (197, -1.77703455090522770000e-001) (198, 3.57720889151096340000e-002) (199, -2.40128282457590100000e-002) (200, -2.32298132032155990000e-002) (201, -1.40263020992279050000e-001) (202, 4.09980863332748410000e-002) (203, -1.33270949125289920000e-001) (204, -7.28859305381774900000e-002) (205, -1.86848565936088560000e-001) (206, -2.39762384444475170000e-002) (207, -4.81712184846401210000e-002) (208, -2.67611816525459290000e-002) (209, 6.19030930101871490000e-002) (210, 3.16368155181407930000e-002) (211, 1.67293995618820190000e-001) (212, 6.05488196015357970000e-002) (213, 1.09607428312301640000e-001) (214, 1.55422519892454150000e-002) (215, -1.12862989306449890000e-001) (216, 8.96912254393100740000e-003) (217, 3.06584805250167850000e-001) (218, 1.18645431939512490000e-003) (219, 5.29261752963066100000e-002) (220, 3.44642512500286100000e-002) (221, -3.25025618076324460000e-002) (222, 2.77601480484008790000e-002) (223, 9.50241810642182830000e-004) (224, 8.59617218375205990000e-002) (225, -1.32003463804721830000e-002) (226, -9.76457968354225160000e-002) (227, 6.73294365406036380000e-002) (228, 3.78282181918621060000e-002) (229, -1.26347929239273070000e-001) (230, -1.50521352887153630000e-001) (231, 3.48893515765666960000e-002) (232, -5.94316003844141960000e-003) (233, -1.43160805106163020000e-001) (234, 3.10050770640373230000e-002) (235, -1.02670624852180480000e-001) (236, -2.25912909954786300000e-002) (237, -3.75442095100879670000e-002) (238, -4.33120243251323700000e-002) (239, 4.62811551988124850000e-002) (240, 8.91283527016639710000e-002) (0, 1.10750988125801090000e-001) (1, 6.36926814913749690000e-002) (2, 3.46207581460475920000e-002) (3, 4.83505204319953920000e-002) (4, 3.36970128118991850000e-002) (5, -5.34416809678077700000e-002) (6, 3.81048694252967830000e-002) (7, -3.26535515487194060000e-002) (8, 5.63100166618824010000e-002) (9, -6.47819712758064270000e-002) (10, -5.41877374053001400000e-002) (11, -9.77938100695610050000e-002) (12, -7.03645721077919010000e-002) (13, -3.14676277339458470000e-002) (14, -5.43322227895259860000e-002) (15, 3.76577824354171750000e-002) (16, -2.18300130218267440000e-002) (17, 2.73174419999122620000e-002) (18, 5.23897334933280940000e-002) (19, 5.15892589464783670000e-003) (20, -1.89684648066759110000e-002) (21, -8.19335319101810460000e-003) (22, 8.96971449255943300000e-002) (23, -4.51476983726024630000e-002) (24, 5.43620437383651730000e-002) (25, 1.18412496522068980000e-002) (26, 9.79898218065500260000e-003) (27, 5.85039891302585600000e-002) (28, 6.99980631470680240000e-002) (29, 6.02000094950199130000e-002) (30, -7.07787275314331050000e-002) (31, 1.26674054190516470000e-002) (32, -4.10705469548702240000e-002) (33, 5.53230158984661100000e-002) (34, -2.11291816085577010000e-002) (35, 3.21075730025768280000e-002) (36, 4.40059453248977660000e-002) (37, -7.49424025416374210000e-002) (38, 6.44848346710205080000e-002) (39, 3.31081612966954710000e-003) (40, 6.38992637395858760000e-002) (41, -2.94685587286949160000e-002) (42, -1.00678368471562860000e-003) (43, -7.33453854918479920000e-002) (44, 9.37486961483955380000e-002) (45, -6.64784610271453860000e-002) (46, 3.83145958185195920000e-002) (47, -5.48049211502075200000e-002) (48, -8.21480453014373780000e-002) (49, 3.39313037693500520000e-002) (50, 7.17888474464416500000e-002) (51, -1.21753448620438580000e-002) (52, 1.16805694997310640000e-002) (53, 3.26524153351783750000e-002) (54, -8.76146703958511350000e-002) (55, -4.38061319291591640000e-002) (56, 4.36561740934848790000e-002) (57, -9.17112380266189580000e-002) (58, 6.55582547187805180000e-002) (59, 1.12142339348793030000e-002) (60, 2.70487926900386810000e-003) (61, -4.48098629713058470000e-002) (62, 6.41174688935279850000e-002) (63, 8.83074775338172910000e-002) (64, -3.08263488113880160000e-002) (65, 8.82728397846221920000e-002) (66, 5.99800683557987210000e-002) (67, -2.17132493853569030000e-002) (68, 2.91548687964677810000e-002) (69, -9.00633782148361210000e-002) (70, -9.22199189662933350000e-002) (71, 4.11933138966560360000e-002) (72, -2.36821901053190230000e-002) (73, 6.82934597134590150000e-002) (74, 3.15741747617721560000e-002) (75, 9.43272933363914490000e-002) (76, -5.86850382387638090000e-002) (77, -8.13494101166725160000e-002) (78, -3.70181002654135230000e-003) (79, -1.65948271751403810000e-002) (80, -9.97216030955314640000e-002) (81, 9.95909608900547030000e-003) (82, 9.36957728117704390000e-003) (83, 3.59628722071647640000e-002) (84, -1.36072617024183270000e-002) (85, 4.96785193681716920000e-002) (86, 3.28982574865221980000e-003) (87, 3.82755957543849950000e-002) (88, 5.69672361016273500000e-002) (89, 4.95630539953708650000e-002) (90, -3.17672383971512320000e-003) (91, -2.17577442526817320000e-002) (92, -2.57664062082767490000e-002) (93, 2.58236099034547810000e-002) (94, 7.41607546806335450000e-002) (95, -6.73106387257575990000e-002) (96, 9.51747000217437740000e-002) (97, -8.29073190689086910000e-002) (98, -1.95506177842617030000e-002) (99, 9.53797027468681340000e-002) (100, -2.18605883419513700000e-002) (101, -4.28880713880062100000e-002) (102, 1.30293872207403180000e-002) (103, 1.94856431335210800000e-002) (104, 2.78961360454559330000e-002) (105, 1.01286679506301880000e-001) (106, 1.12916184589266780000e-002) (107, -5.79625591635704040000e-002) (108, -1.84171646833419800000e-002) (109, -6.36380761861801150000e-002) (110, 3.27132409438490870000e-003) (111, -3.00285071134567260000e-002) (112, -1.03706179652363060000e-003) (113, 8.56655240058898930000e-002) (114, -9.50851887464523320000e-002) (115, -1.22260842472314830000e-002) (116, -5.91124258935451510000e-002) (117, -5.20344525575637820000e-002) (118, 6.61404728889465330000e-002) (119, -6.78116753697395320000e-002) (120, 6.57208338379859920000e-002) (121, -2.06156503409147260000e-002) (122, 2.77783498167991640000e-002) (123, -1.32186999544501300000e-002) (124, -6.30763471126556400000e-002) (125, -7.11762979626655580000e-002) (126, -9.22697558999061580000e-002) (127, -8.04935174528509380000e-004) (128, 6.28793463110923770000e-002) (129, -8.82966667413711550000e-002) (130, -1.21043436229228970000e-002) (131, 2.86165121942758560000e-002) (132, 8.60853046178817750000e-002) (133, -8.83566439151763920000e-002) (134, 7.29172974824905400000e-002) (135, 2.37311292439699170000e-002) (136, -6.33034631609916690000e-002) (137, 7.15202167630195620000e-002) (138, -2.91314199566841130000e-002) (139, -4.64197024703025820000e-002) (140, 5.07829757407307620000e-003) (141, -9.54554136842489240000e-003) (142, -9.42926779389381410000e-002) (143, 1.23786432668566700000e-002) (144, 5.92452511191368100000e-002) (145, -9.04787108302116390000e-002) (146, -7.42083936929702760000e-002) (147, 2.10806052200496200000e-003) (148, 3.23553979396820070000e-002) (149, 2.97709982842206950000e-002) (150, -1.36256217956542970000e-002) (151, -5.11056408286094670000e-002) (152, 2.23968662321567540000e-002) (153, 6.80264085531234740000e-002) (154, -2.75474824011325840000e-002) (155, 9.11584571003913880000e-002) (156, -4.59826104342937470000e-002) (157, 8.31923484802246090000e-002) (158, -9.06030610203742980000e-002) (159, 1.16504598408937450000e-002) (160, -2.42896806448698040000e-002) (161, -4.21568155288696290000e-002) (162, 9.33774784207344060000e-002) (163, 5.65631277859210970000e-002) (164, -5.98660595715045930000e-002) (165, -5.82624077796936040000e-002) (166, 6.84029981493949890000e-002) (167, 9.80207845568656920000e-002) (168, 2.73717567324638370000e-002) (169, 2.80721895396709440000e-002) (170, 6.79877325892448430000e-002) (171, 1.80159155279397960000e-002) (172, -2.83731613308191300000e-002) (173, -5.40489777922630310000e-002) (174, -9.03645530343055730000e-002) (175, -7.53785595297813420000e-002) (176, 8.26381668448448180000e-002) (177, -5.70342838764190670000e-002) (178, 8.50495100021362300000e-002) (179, 6.76245167851448060000e-002) (180, -8.65498036146163940000e-002) (181, 8.83829817175865170000e-002) (182, 9.71423760056495670000e-002) (183, 4.65730279684066770000e-002) (184, 3.67982275784015660000e-002) (185, 4.18707169592380520000e-002) (186, -8.62665995955467220000e-002) (187, -5.23772388696670530000e-002) (188, -5.62493428587913510000e-002) (189, 2.22106184810400010000e-002) (190, -7.47685953974723820000e-002) (191, 6.46081566810607910000e-002) (192, 1.26256477087736130000e-002) (193, -7.12837371975183490000e-003) (194, -1.57762393355369570000e-002) (195, 1.04842342436313630000e-001) (196, 3.94511744379997250000e-002) (197, -7.17635378241539000000e-002) (198, -4.33695828542113300000e-003) (199, -3.13983447849750520000e-002) (200, -5.11667579412460330000e-002) (201, 1.61693263798952100000e-002) (202, 7.57331848144531250000e-002) (203, -8.07955116033554080000e-002) (204, 7.19595402479171750000e-002) (205, 5.32674863934516910000e-002) (206, -2.72052977234125140000e-002) (207, 1.76422856748104100000e-002) (208, -8.55097025632858280000e-002) (209, 1.93271762691438200000e-003) (210, -1.70036461204290390000e-002) (211, 6.35801926255226140000e-002) (212, -3.58332842588424680000e-002) (213, 7.42673575878143310000e-002) (214, -1.16108469665050510000e-002) (215, 6.04570321738719940000e-002) (216, -1.92139539867639540000e-002) (217, -4.38659265637397770000e-002) (218, -3.08174341917037960000e-002) (219, -9.13215614855289460000e-003) (220, -9.66213867068290710000e-002) (221, 4.84703592956066130000e-002) (222, -8.31536352634429930000e-002) (223, -7.80719518661499020000e-002) (224, 3.72704095207154750000e-003) (225, -7.56506398320198060000e-002) (226, -2.51987855881452560000e-002) (227, -5.13137169182300570000e-002) (228, -6.38385117053985600000e-002) (229, 9.28808376193046570000e-003) (230, 1.26409018412232400000e-002) (231, 9.23151150345802310000e-002) (232, 3.56134586036205290000e-002) (233, 4.89384271204471590000e-002) (234, 3.22847738862037660000e-002) (235, -2.91070807725191120000e-002) (236, -4.36145476996898650000e-002) (237, -4.36850488185882570000e-002) (238, 9.37653984874486920000e-003) (239, 7.52738788723945620000e-002) (240, 3.41058447957038880000e-002) (0, 4.14268523454666140000e-002) (1, 6.10278919339179990000e-002) (2, -8.13887920230627060000e-003) (3, -1.25935584306716920000e-001) (4, -9.49617847800254820000e-002) (5, -1.06281660497188570000e-001) (6, -1.07251577079296110000e-001) (7, -5.87015412747859950000e-003) (8, 3.54722924530506130000e-002) (9, -3.63451652228832240000e-002) (10, -2.84349713474512100000e-002) (11, -1.75081957131624220000e-002) (12, 5.25264777243137360000e-002) (13, -6.22791424393653870000e-002) (14, -1.12494140863418580000e-001) (15, -9.07187536358833310000e-002) (16, -1.95449795573949810000e-002) (17, -4.77366819977760310000e-002) (18, -9.19162556529045100000e-002) (19, -2.62286495417356490000e-002) (20, 1.35193392634391780000e-002) (21, 5.85572980344295500000e-003) (22, -7.82460570335388180000e-002) (23, -8.67630913853645320000e-002) (24, -1.82495880872011180000e-002) (25, -1.33797347545623780000e-001) (26, -6.52237981557846070000e-002) (27, -2.94931735843420030000e-002) (28, 2.01448109000921250000e-002) (29, -3.89466769993305210000e-002) (30, -6.38956204056739810000e-003) (31, -6.82128667831420900000e-002) (32, -8.79462212324142460000e-002) (33, -1.93407125771045680000e-002) (34, -7.19466209411621090000e-002) (35, -1.45649574697017670000e-002) (36, -1.03867933154106140000e-001) (37, -4.76285144686698910000e-002) (38, -5.33022917807102200000e-003) (39, -4.45291660726070400000e-002) (40, -3.48584614694118500000e-002) (41, 3.14477123320102690000e-002) (42, -1.12806268036365510000e-001) (43, 3.75772714614868160000e-002) (44, -1.11609525978565220000e-001) (45, 4.48346622288227080000e-002) (46, -4.22435998916625980000e-002) (47, -1.13355092704296110000e-001) (48, 3.27892154455184940000e-002) (49, -1.05645269155502320000e-001) (50, -1.94931942969560620000e-002) (51, -2.16170605272054670000e-002) (52, -1.04711949825286870000e-001) (53, 2.46972008608281610000e-003) (54, -1.00784376263618470000e-001) (55, -2.12687887251377110000e-002) (56, 1.12015120685100560000e-002) (57, -5.10741621255874630000e-002) (58, -4.63611930608749390000e-002) (59, -4.02723327279090880000e-002) (60, -7.70947262644767760000e-002) (61, -2.55092624574899670000e-002) (62, 1.85555424541234970000e-002) (63, 3.73530983924865720000e-002) (64, -5.35353422164916990000e-002) (65, 4.63287830352783200000e-002) (66, -2.99710687249898910000e-002) (67, 2.05802917480468750000e-002) (68, -1.61756051238626240000e-003) (69, -1.01215712726116180000e-001) (70, 2.99315676093101500000e-002) (71, -1.02327376604080200000e-001) (72, -7.97629207372665410000e-002) (73, 5.10850548744201660000e-002) (74, -1.04675926268100740000e-002) (75, -7.59597867727279660000e-002) (76, 5.50593920052051540000e-002) (77, 4.85824681818485260000e-002) (78, -1.05026848614215850000e-001) (79, -5.03308838233351710000e-004) (80, -8.72634351253509520000e-003) (81, 5.61877265572547910000e-002) (82, -3.42560186982154850000e-002) (83, -3.62377166748046880000e-002) (84, -5.49201108515262600000e-002) (85, 2.10743714123964310000e-002) (86, -8.67963433265686040000e-002) (87, -1.28322923555970190000e-002) (88, 3.42729911208152770000e-002) (89, -9.77828502655029300000e-002) (90, 6.02770335972309110000e-002) (91, 3.17990407347679140000e-002) (92, -1.02974772453308110000e-001) (93, -6.96514099836349490000e-002) (94, 1.66909601539373400000e-002) (95, -1.09581597149372100000e-001) (96, -9.65895429253578190000e-002) (97, -1.05841346085071560000e-001) (98, 5.87225444614887240000e-002) (99, 1.41994068399071690000e-002) (100, 1.36551111936569210000e-002) (101, -1.10992744565010070000e-001) (102, -5.92110455036163330000e-002) (103, -9.02202352881431580000e-002) (104, 3.19183617830276490000e-003) (105, -6.59325271844863890000e-002) (106, -4.19402532279491420000e-002) (107, -1.78806595504283910000e-002) (108, 4.07049208879470830000e-002) (109, -7.39691453054547310000e-003) (110, -5.48998750746250150000e-002) (111, -1.19771726429462430000e-001) (112, -9.56624001264572140000e-002) (113, -3.80134098231792450000e-002) (114, 1.83791946619749070000e-003) (115, -6.23802915215492250000e-002) (116, 3.75275872647762300000e-002) (117, 1.65115632116794590000e-002) (118, -9.80578362941741940000e-002) (119, 9.22923907637596130000e-003) (120, -5.02732098102569580000e-002) (121, -1.81601464282721280000e-003) (122, 1.97944510728120800000e-002) (123, 7.41201872006058690000e-003) (124, -1.36919155716896060000e-001) (125, 1.64132807403802870000e-002) (126, 6.92744180560112000000e-002) (127, -1.28473788499832150000e-001) (128, 4.94219316169619560000e-003) (129, -4.42508682608604430000e-002) (130, -3.16465087234973910000e-002) (131, -1.24682206660509110000e-002) (132, -1.03620581328868870000e-001) (133, -6.99160546064376830000e-002) (134, -4.87945266067981720000e-002) (135, -1.77758187055587770000e-002) (136, -3.18763665854930880000e-002) (137, 3.70694249868392940000e-002) (138, 5.34972660243511200000e-002) (139, 4.35533225536346440000e-002) (140, 4.89068515598773960000e-002) (141, 3.94536554813385010000e-003) (142, 8.25739353895187380000e-002) (143, -6.93317577242851260000e-002) (144, 1.23659325763583180000e-002) (145, 9.56189353018999100000e-003) (146, -6.57222494482994080000e-002) (147, -7.84506439231336120000e-004) (148, 6.45958557724952700000e-002) (149, 1.73669250216335060000e-003) (150, -3.31729166209697720000e-002) (151, -7.07760900259017940000e-002) (152, -9.19124558568000790000e-002) (153, -3.05052958428859710000e-002) (154, -6.34710714221000670000e-002) (155, 2.85584516823291780000e-002) (156, 1.16461226716637610000e-002) (157, 1.44374673254787920000e-003) (158, -2.68344245851039890000e-002) (159, -4.14308607578277590000e-002) (160, 8.42925347387790680000e-003) (161, -1.43942795693874360000e-002) (162, 6.01683482527732850000e-002) (163, 5.48114925622940060000e-002) (164, 5.64651750028133390000e-002) (165, -3.36589291691780090000e-002) (166, -2.41354741156101230000e-002) (167, -1.00629836320877080000e-001) (168, 5.84707520902156830000e-002) (169, 3.64886857569217680000e-002) (170, -1.15236863493919370000e-001) (171, 3.11794672161340710000e-002) (172, -1.09734363853931430000e-001) (173, -1.27801805734634400000e-001) (174, -6.21025189757347110000e-002) (175, -1.40773549675941470000e-001) (176, -1.39418356120586400000e-002) (177, 6.23281812295317650000e-003) (178, -3.38883623480796810000e-002) (179, -3.95891219377517700000e-002) (180, 3.65437977015972140000e-002) (181, -9.17629804462194440000e-003) (182, -3.03690433502197270000e-002) (183, 4.94707189500331880000e-002) (184, -4.75684478878974910000e-002) (185, -1.03895582258701320000e-001) (186, -1.90118327736854550000e-002) (187, -1.12124361097812650000e-001) (188, 3.93067393451929090000e-003) (189, -2.05465760082006450000e-002) (190, -1.38177573680877690000e-001) (191, -1.19931124150753020000e-001) (192, 1.64536330848932270000e-002) (193, -1.23105093836784360000e-001) (194, -1.18346437811851500000e-001) (195, 1.90215129405260090000e-002) (196, -3.21831107139587400000e-002) (197, -1.46853355690836910000e-002) (198, -7.76669159531593320000e-002) (199, -1.75915821455419060000e-003) (200, -7.18516111373901370000e-002) (201, 3.10902502387762070000e-002) (202, 3.81987378932535650000e-003) (203, -1.01987913250923160000e-001) (204, -9.57795009016990660000e-002) (205, -3.23083586990833280000e-002) (206, -8.76219794154167180000e-002) (207, 2.14708838611841200000e-002) (208, -9.20432284474372860000e-002) (209, 4.62062731385231020000e-002) (210, -9.83646214008331300000e-002) (211, 7.00560584664344790000e-002) (212, -6.65677636861801150000e-002) (213, -1.26978054642677310000e-001) (214, 4.43356148898601530000e-002) (215, -3.79147790372371670000e-002) (216, -3.13717387616634370000e-002) (217, 7.33087509870529170000e-002) (218, -4.65970002114772800000e-002) (219, -6.86535537242889400000e-002) (220, -1.01296462118625640000e-001) (221, -2.12536100298166280000e-002) (222, 6.77714347839355470000e-002) (223, -1.56255085021257400000e-002) (224, -3.94081510603427890000e-002) (225, -5.82866668701171880000e-002) (226, 3.72118353843688960000e-002) (227, 1.02297728881239890000e-002) (228, -1.45758902654051780000e-002) (229, -3.40427421033382420000e-002) (230, -7.17485025525093080000e-002) (231, -8.24477747082710270000e-002) (232, 6.01507425308227540000e-002) (233, -3.78183014690876010000e-002) (234, 4.71768304705619810000e-002) (235, -2.93314531445503230000e-002) (236, -3.94290834665298460000e-002) (237, -2.61081270873546600000e-002) (238, 1.29231167957186700000e-002) (239, 1.30135659128427510000e-002) (240, -4.88557517528533940000e-002) (0, 8.22512283921241760000e-002) (1, -1.30083933472633360000e-002) (2, -8.47614035010337830000e-002) (3, -2.77419220656156540000e-002) (4, -5.91215975582599640000e-002) (5, 3.55818159878253940000e-002) (6, 4.44488599896430970000e-002) (7, 7.36008360981941220000e-002) (8, -9.28214862942695620000e-002) (9, 3.71660068631172180000e-002) (10, 5.83832934498786930000e-002) (11, -2.12693437933921810000e-002) (12, -4.07459586858749390000e-002) (13, 5.57437725365161900000e-002) (14, -2.61195050552487370000e-003) (15, 8.83077830076217650000e-002) (16, -4.26522083580493930000e-002) (17, 1.33329629898071290000e-002) (18, 7.22697973251342770000e-002) (19, 3.58770880848169330000e-003) (20, 5.93680515885353090000e-002) (21, -3.16063016653060910000e-002) (22, 9.85104665160179140000e-002) (23, -8.98362845182418820000e-002) (24, -3.00124194473028180000e-002) (25, -4.56123277544975280000e-002) (26, 7.17098936438560490000e-002) (27, -7.11915567517280580000e-002) (28, 1.28396647050976750000e-002) (29, 4.59661707282066350000e-003) (30, 6.71174451708793640000e-002) (31, -1.00847966969013210000e-001) (32, 1.14888763055205350000e-002) (33, 9.31015685200691220000e-002) (34, 9.20396149158477780000e-002) (35, 3.24955545365810390000e-002) (36, 7.61214643716812130000e-002) (37, -9.85703691840171810000e-002) (38, 6.33627101778984070000e-002) (39, -9.14296582341194150000e-002) (40, -4.18326891958713530000e-002) (41, -5.57150356471538540000e-002) (42, 6.89739510416984560000e-002) (43, 4.71471855416893960000e-003) (44, -1.75362788140773770000e-002) (45, -6.92125409841537480000e-002) (46, 6.88367560505867000000e-002) (47, -8.95911231637001040000e-002) (48, -7.87333622574806210000e-002) (49, 4.36997711658477780000e-002) (50, -7.56354257464408870000e-002) (51, -2.82267071306705470000e-002) (52, -5.56020422664005310000e-005) (53, 4.76686283946037290000e-002) (54, 3.94298620522022250000e-002) (55, -6.39682868495583530000e-003) (56, -1.50318751111626630000e-002) (57, -2.60028615593910220000e-003) (58, -8.78093466162681580000e-002) (59, -8.43587443232536320000e-002) (60, -2.87687517702579500000e-002) (61, -8.93224030733108520000e-002) (62, -8.06203410029411320000e-002) (63, -8.11011940240859990000e-002) (64, 6.91508967429399490000e-003) (65, 3.02078127861022950000e-002) (66, 4.40303198993206020000e-002) (67, -5.15871569514274600000e-002) (68, -5.82619942724704740000e-002) (69, 7.59078934788703920000e-002) (70, -3.61277088522911070000e-002) (71, 8.19784328341484070000e-002) (72, 3.66774238646030430000e-002) (73, 9.43920835852622990000e-002) (74, -3.53371016681194310000e-002) (75, -1.29928905516862870000e-003) (76, 3.44288302585482600000e-003) (77, -4.46588546037673950000e-002) (78, -8.23661610484123230000e-002) (79, -6.50754272937774660000e-002) (80, 6.43391311168670650000e-002) (81, -1.87104800716042520000e-003) (82, 1.41891092061996460000e-002) (83, 5.06100058555603030000e-002) (84, 3.52292917668819430000e-002) (85, -2.05394178628921510000e-002) (86, -4.29354645311832430000e-002) (87, 6.06334209442138670000e-003) (88, 5.13641834259033200000e-002) (89, 3.46297509968280790000e-002) (90, 6.83771520853042600000e-002) (91, 8.93659070134162900000e-002) (92, -4.24533709883689880000e-002) (93, -5.25671951472759250000e-002) (94, 6.04367926716804500000e-002) (95, 5.82874640822410580000e-002) (96, -9.15020108222961430000e-002) (97, 2.29003056883811950000e-002) (98, -2.15732939541339870000e-002) (99, -1.47914299741387370000e-002) (100, -2.93355379253625870000e-002) (101, 7.75366052985191350000e-002) (102, -2.33548339456319810000e-002) (103, -1.95721741765737530000e-002) (104, 2.97611076384782790000e-002) (105, -4.94773872196674350000e-002) (106, -2.73220315575599670000e-002) (107, 3.45077253878116610000e-002) (108, -6.08529187738895420000e-002) (109, 2.09115017205476760000e-002) (110, 3.67043688893318180000e-002) (111, -3.20141986012458800000e-002) (112, -9.15693715214729310000e-002) (113, 5.93230798840522770000e-002) (114, -2.78987213969230650000e-002) (115, 1.15354128181934360000e-001) (116, -1.42023870721459390000e-002) (117, 8.60448554158210750000e-002) (118, 1.04963041841983800000e-001) (119, -7.13777989149093630000e-002) (120, 5.09939827024936680000e-002) (121, -5.39643913507461550000e-002) (122, 4.68446798622608180000e-002) (123, -7.69799649715423580000e-002) (124, 1.08755685389041900000e-001) (125, 2.49499883502721790000e-002) (126, 6.24177604913711550000e-002) (127, -5.93886598944664000000e-002) (128, -1.08867445960640910000e-002) (129, -2.63537932187318800000e-002) (130, -3.00186732783913610000e-003) (131, 8.57587158679962160000e-002) (132, -8.33877641707658770000e-003) (133, 2.44592167437076570000e-002) (134, -7.98227936029434200000e-002) (135, -1.17931300774216650000e-002) (136, 1.37663260102272030000e-002) (137, -3.74811924993991850000e-002) (138, 1.27867879346013070000e-002) (139, -2.21444410271942620000e-003) (140, 4.71412055194377900000e-002) (141, 9.20832306146621700000e-002) (142, -8.96419808268547060000e-002) (143, -7.71438404917716980000e-002) (144, 5.36957569420337680000e-002) (145, -1.10713895410299300000e-002) (146, -3.02428416907787320000e-002) (147, 7.49106109142303470000e-002) (148, -5.21322116255760190000e-002) (149, -8.99381563067436220000e-002) (150, 4.88637539092451330000e-004) (151, 4.48062084615230560000e-002) (152, 3.32372225821018220000e-002) (153, 9.64648351073265080000e-002) (154, -7.24975094199180600000e-002) (155, -4.62326779961586000000e-002) (156, 4.69981208443641660000e-002) (157, -5.14324530959129330000e-002) (158, 5.87702281773090360000e-002) (159, 5.26130013167858120000e-002) (160, -2.88053359836339950000e-002) (161, 8.52830559015274050000e-002) (162, -4.73442561924457550000e-002) (163, 3.34118679165840150000e-002) (164, 8.50904434919357300000e-002) (165, 7.32953697443008420000e-002) (166, -6.66544511914253230000e-002) (167, -5.02360053360462190000e-002) (168, 4.79793436825275420000e-002) (169, 5.77082745730876920000e-002) (170, -3.59310768544673920000e-002) (171, -3.55335362255573270000e-002) (172, 3.10752075165510180000e-002) (173, 1.24644779134541750000e-003) (174, 9.74363833665847780000e-002) (175, -5.88988028466701510000e-002) (176, 6.24649710953235630000e-002) (177, 5.21792881190776820000e-002) (178, 3.43402586877346040000e-002) (179, 1.73335187137126920000e-002) (180, -7.11020007729530330000e-002) (181, 5.68633750081062320000e-002) (182, 6.51126727461814880000e-002) (183, 7.29712098836898800000e-002) (184, 8.17834511399269100000e-002) (185, -8.98619741201400760000e-002) (186, -3.06147076189517970000e-002) (187, 9.44155156612396240000e-002) (188, -7.69260898232460020000e-002) (189, 9.60340723395347600000e-003) (190, 9.02541801333427430000e-002) (191, 5.59661090373992920000e-002) (192, 4.50849644839763640000e-002) (193, 6.67499378323554990000e-002) (194, 8.32832083106040950000e-002) (195, 7.79333338141441350000e-002) (196, -3.98539341986179350000e-002) (197, -5.18294535577297210000e-002) (198, -3.70907820761203770000e-002) (199, -1.65249290876090530000e-003) (200, 1.65930646471679210000e-003) (201, 4.48453724384307860000e-002) (202, -3.94977815449237820000e-002) (203, 9.74279418587684630000e-002) (204, 1.08377628028392790000e-001) (205, 7.92278051376342770000e-002) (206, 4.11700271070003510000e-002) (207, 8.97032693028450010000e-002) (208, 9.05811116099357600000e-002) (209, 1.09204873442649840000e-002) (210, 8.40886309742927550000e-002) (211, 1.39124877750873570000e-002) (212, -2.50688381493091580000e-002) (213, 7.64996036887168880000e-002) (214, -7.37199559807777400000e-002) (215, -8.81769880652427670000e-002) (216, -9.39544364809989930000e-002) (217, 6.77911713719367980000e-002) (218, 7.17985862866044040000e-003) (219, -1.72655303031206130000e-002) (220, -7.42355808615684510000e-002) (221, -9.64612290263175960000e-002) (222, -3.89449088834226130000e-003) (223, 4.94912713766098020000e-002) (224, 1.91245265305042270000e-002) (225, -6.58388882875442500000e-002) (226, 6.58839344978332520000e-002) (227, -7.91312307119369510000e-002) (228, 8.86063575744628910000e-002) (229, 2.84066610038280490000e-002) (230, -8.14789161086082460000e-003) (231, -5.17158098518848420000e-002) (232, 3.84394638240337370000e-002) (233, -2.61267945170402530000e-002) (234, 7.51231238245964050000e-002) (235, -6.29448564723134040000e-003) (236, -7.88424089550971980000e-002) (237, -2.12401505559682850000e-002) (238, 1.02609537541866300000e-001) (239, -1.61311272531747820000e-002) (240, -9.05504971742630000000e-002) (241, 1.33721545338630680000e-001) (242, -7.53374397754669190000e-002) (243, 1.37826859951019290000e-001) (244, 2.19303369522094730000e-001) (245, 1.39333140850067140000e+000) (246, -7.37459063529968260000e-002) (247, 1.63986295461654660000e-001) (248, -6.30866959691047670000e-002) (249, 3.53918317705392840000e-003) (241, 1.02396816015243530000e-001) (242, 2.11690545082092290000e-001) (243, -2.86852747201919560000e-001) (244, -4.62216436862945560000e-001) (245, -1.64734160900115970000e+000) (246, 2.03996971249580380000e-001) (247, -4.99846547842025760000e-001) (248, 3.47066134214401250000e-001) (249, 9.39018905162811280000e-001) 
