FANN_FLO_2.1
num_layers=3
learning_rate=0.700000
connection_rate=1.000000
network_type=0
learning_momentum=0.000000
training_algorithm=3
train_error_function=1
train_stop_function=0
cascade_output_change_fraction=0.010000
quickprop_decay=-0.000100
quickprop_mu=1.750000
rprop_increase_factor=1.200000
rprop_decrease_factor=0.500000
rprop_delta_min=0.000000
rprop_delta_max=50.000000
rprop_delta_zero=0.100000
cascade_output_stagnation_epochs=12
cascade_candidate_change_fraction=0.010000
cascade_candidate_stagnation_epochs=12
cascade_max_out_epochs=150
cascade_max_cand_epochs=150
cascade_num_candidate_groups=2
bit_fail_limit=3.49999994039535520000e-001
cascade_candidate_limit=1.00000000000000000000e+003
cascade_weight_multiplier=4.00000005960464480000e-001
cascade_activation_functions_count=10
cascade_activation_functions=3 5 7 8 10 11 14 15 16 17 
cascade_activation_steepnesses_count=4
cascade_activation_steepnesses=2.50000000000000000000e-001 5.00000000000000000000e-001 7.50000000000000000000e-001 1.00000000000000000000e+000 
layer_sizes=241 9 3 
scale_included=0
neurons (num_inputs, activation_function, activation_steepness)=(0, 0, 0.00000000000000000000e+000) (0, 0, 0.00000000000000000000e+000) (0, 0, 0.00000000000000000000e+000) (0, 0, 0.00000000000000000000e+000) (0, 0, 0.00000000000000000000e+000) (0, 0, 0.00000000000000000000e+000) (0, 0, 0.00000000000000000000e+000) (0, 0, 0.00000000000000000000e+000) (0, 0, 0.00000000000000000000e+000) (0, 0, 0.00000000000000000000e+000) (0, 0, 0.00000000000000000000e+000) (0, 0, 0.00000000000000000000e+000) (0, 0, 0.00000000000000000000e+000) (0, 0, 0.00000000000000000000e+000) (0, 0, 0.00000000000000000000e+000) (0, 0, 0.00000000000000000000e+000) (0, 0, 0.00000000000000000000e+000) (0, 0, 0.00000000000000000000e+000) (0, 0, 0.00000000000000000000e+000) (0, 0, 0.00000000000000000000e+000) (0, 0, 0.00000000000000000000e+000) (0, 0, 0.00000000000000000000e+000) (0, 0, 0.00000000000000000000e+000) (0, 0, 0.00000000000000000000e+000) (0, 0, 0.00000000000000000000e+000) (0, 0, 0.00000000000000000000e+000) (0, 0, 0.00000000000000000000e+000) (0, 0, 0.00000000000000000000e+000) (0, 0, 0.00000000000000000000e+000) (0, 0, 0.00000000000000000000e+000) (0, 0, 0.00000000000000000000e+000) (0, 0, 0.00000000000000000000e+000) (0, 0, 0.00000000000000000000e+000) (0, 0, 0.00000000000000000000e+000) (0, 0, 0.00000000000000000000e+000) (0, 0, 0.00000000000000000000e+000) (0, 0, 0.00000000000000000000e+000) (0, 0, 0.00000000000000000000e+000) (0, 0, 0.00000000000000000000e+000) (0, 0, 0.00000000000000000000e+000) (0, 0, 0.00000000000000000000e+000) (0, 0, 0.00000000000000000000e+000) (0, 0, 0.00000000000000000000e+000) (0, 0, 0.00000000000000000000e+000) (0, 0, 0.00000000000000000000e+000) (0, 0, 0.00000000000000000000e+000) (0, 0, 0.00000000000000000000e+000) (0, 0, 0.00000000000000000000e+000) (0, 0, 0.00000000000000000000e+000) (0, 0, 0.00000000000000000000e+000) (0, 0, 0.00000000000000000000e+000) (0, 0, 0.00000000000000000000e+000) (0, 0, 0.00000000000000000000e+000) (0, 0, 0.00000000000000000000e+000) (0, 0, 0.00000000000000000000e+000) (0, 0, 0.00000000000000000000e+000) (0, 0, 0.00000000000000000000e+000) (0, 0, 0.00000000000000000000e+000) (0, 0, 0.00000000000000000000e+000) (0, 0, 0.00000000000000000000e+000) (0, 0, 0.00000000000000000000e+000) (0, 0, 0.00000000000000000000e+000) (0, 0, 0.00000000000000000000e+000) (0, 0, 0.00000000000000000000e+000) (0, 0, 0.00000000000000000000e+000) (0, 0, 0.00000000000000000000e+000) (0, 0, 0.00000000000000000000e+000) (0, 0, 0.00000000000000000000e+000) (0, 0, 0.00000000000000000000e+000) (0, 0, 0.00000000000000000000e+000) (0, 0, 0.00000000000000000000e+000) (0, 0, 0.00000000000000000000e+000) (0, 0, 0.00000000000000000000e+000) (0, 0, 0.00000000000000000000e+000) (0, 0, 0.00000000000000000000e+000) (0, 0, 0.00000000000000000000e+000) (0, 0, 0.00000000000000000000e+000) (0, 0, 0.00000000000000000000e+000) (0, 0, 0.00000000000000000000e+000) (0, 0, 0.00000000000000000000e+000) (0, 0, 0.00000000000000000000e+000) (0, 0, 0.00000000000000000000e+000) (0, 0, 0.00000000000000000000e+000) (0, 0, 0.00000000000000000000e+000) (0, 0, 0.00000000000000000000e+000) (0, 0, 0.00000000000000000000e+000) (0, 0, 0.00000000000000000000e+000) (0, 0, 0.00000000000000000000e+000) (0, 0, 0.00000000000000000000e+000) (0, 0, 0.00000000000000000000e+000) (0, 0, 0.00000000000000000000e+000) (0, 0, 0.00000000000000000000e+000) (0, 0, 0.00000000000000000000e+000) (0, 0, 0.00000000000000000000e+000) (0, 0, 0.00000000000000000000e+000) (0, 0, 0.00000000000000000000e+000) (0, 0, 0.00000000000000000000e+000) (0, 0, 0.00000000000000000000e+000) (0, 0, 0.00000000000000000000e+000) (0, 0, 0.00000000000000000000e+000) (0, 0, 0.00000000000000000000e+000) (0, 0, 0.00000000000000000000e+000) (0, 0, 0.00000000000000000000e+000) (0, 0, 0.00000000000000000000e+000) (0, 0, 0.00000000000000000000e+000) (0, 0, 0.00000000000000000000e+000) (0, 0, 0.00000000000000000000e+000) (0, 0, 0.00000000000000000000e+000) (0, 0, 0.00000000000000000000e+000) (0, 0, 0.00000000000000000000e+000) (0, 0, 0.00000000000000000000e+000) (0, 0, 0.00000000000000000000e+000) (0, 0, 0.00000000000000000000e+000) (0, 0, 0.00000000000000000000e+000) (0, 0, 0.00000000000000000000e+000) (0, 0, 0.00000000000000000000e+000) (0, 0, 0.00000000000000000000e+000) (0, 0, 0.00000000000000000000e+000) (0, 0, 0.00000000000000000000e+000) (0, 0, 0.00000000000000000000e+000) (0, 0, 0.00000000000000000000e+000) (0, 0, 0.00000000000000000000e+000) (0, 0, 0.00000000000000000000e+000) (0, 0, 0.00000000000000000000e+000) (0, 0, 0.00000000000000000000e+000) (0, 0, 0.00000000000000000000e+000) (0, 0, 0.00000000000000000000e+000) (0, 0, 0.00000000000000000000e+000) (0, 0, 0.00000000000000000000e+000) (0, 0, 0.00000000000000000000e+000) (0, 0, 0.00000000000000000000e+000) (0, 0, 0.00000000000000000000e+000) (0, 0, 0.00000000000000000000e+000) (0, 0, 0.00000000000000000000e+000) (0, 0, 0.00000000000000000000e+000) (0, 0, 0.00000000000000000000e+000) (0, 0, 0.00000000000000000000e+000) (0, 0, 0.00000000000000000000e+000) (0, 0, 0.00000000000000000000e+000) (0, 0, 0.00000000000000000000e+000) (0, 0, 0.00000000000000000000e+000) (0, 0, 0.00000000000000000000e+000) (0, 0, 0.00000000000000000000e+000) (0, 0, 0.00000000000000000000e+000) (0, 0, 0.00000000000000000000e+000) (0, 0, 0.00000000000000000000e+000) (0, 0, 0.00000000000000000000e+000) (0, 0, 0.00000000000000000000e+000) (0, 0, 0.00000000000000000000e+000) (0, 0, 0.00000000000000000000e+000) (0, 0, 0.00000000000000000000e+000) (0, 0, 0.00000000000000000000e+000) (0, 0, 0.00000000000000000000e+000) (0, 0, 0.00000000000000000000e+000) (0, 0, 0.00000000000000000000e+000) (0, 0, 0.00000000000000000000e+000) (0, 0, 0.00000000000000000000e+000) (0, 0, 0.00000000000000000000e+000) (0, 0, 0.00000000000000000000e+000) (0, 0, 0.00000000000000000000e+000) (0, 0, 0.00000000000000000000e+000) (0, 0, 0.00000000000000000000e+000) (0, 0, 0.00000000000000000000e+000) (0, 0, 0.00000000000000000000e+000) (0, 0, 0.00000000000000000000e+000) (0, 0, 0.00000000000000000000e+000) (0, 0, 0.00000000000000000000e+000) (0, 0, 0.00000000000000000000e+000) (0, 0, 0.00000000000000000000e+000) (0, 0, 0.00000000000000000000e+000) (0, 0, 0.00000000000000000000e+000) (0, 0, 0.00000000000000000000e+000) (0, 0, 0.00000000000000000000e+000) (0, 0, 0.00000000000000000000e+000) (0, 0, 0.00000000000000000000e+000) (0, 0, 0.00000000000000000000e+000) (0, 0, 0.00000000000000000000e+000) (0, 0, 0.00000000000000000000e+000) (0, 0, 0.00000000000000000000e+000) (0, 0, 0.00000000000000000000e+000) (0, 0, 0.00000000000000000000e+000) (0, 0, 0.00000000000000000000e+000) (0, 0, 0.00000000000000000000e+000) (0, 0, 0.00000000000000000000e+000) (0, 0, 0.00000000000000000000e+000) (0, 0, 0.00000000000000000000e+000) (0, 0, 0.00000000000000000000e+000) (0, 0, 0.00000000000000000000e+000) (0, 0, 0.00000000000000000000e+000) (0, 0, 0.00000000000000000000e+000) (0, 0, 0.00000000000000000000e+000) (0, 0, 0.00000000000000000000e+000) (0, 0, 0.00000000000000000000e+000) (0, 0, 0.00000000000000000000e+000) (0, 0, 0.00000000000000000000e+000) (0, 0, 0.00000000000000000000e+000) (0, 0, 0.00000000000000000000e+000) (0, 0, 0.00000000000000000000e+000) (0, 0, 0.00000000000000000000e+000) (0, 0, 0.00000000000000000000e+000) (0, 0, 0.00000000000000000000e+000) (0, 0, 0.00000000000000000000e+000) (0, 0, 0.00000000000000000000e+000) (0, 0, 0.00000000000000000000e+000) (0, 0, 0.00000000000000000000e+000) (0, 0, 0.00000000000000000000e+000) (0, 0, 0.00000000000000000000e+000) (0, 0, 0.00000000000000000000e+000) (0, 0, 0.00000000000000000000e+000) (0, 0, 0.00000000000000000000e+000) (0, 0, 0.00000000000000000000e+000) (0, 0, 0.00000000000000000000e+000) (0, 0, 0.00000000000000000000e+000) (0, 0, 0.00000000000000000000e+000) (0, 0, 0.00000000000000000000e+000) (0, 0, 0.00000000000000000000e+000) (0, 0, 0.00000000000000000000e+000) (0, 0, 0.00000000000000000000e+000) (0, 0, 0.00000000000000000000e+000) (0, 0, 0.00000000000000000000e+000) (0, 0, 0.00000000000000000000e+000) (0, 0, 0.00000000000000000000e+000) (0, 0, 0.00000000000000000000e+000) (0, 0, 0.00000000000000000000e+000) (0, 0, 0.00000000000000000000e+000) (0, 0, 0.00000000000000000000e+000) (0, 0, 0.00000000000000000000e+000) (0, 0, 0.00000000000000000000e+000) (0, 0, 0.00000000000000000000e+000) (0, 0, 0.00000000000000000000e+000) (0, 0, 0.00000000000000000000e+000) (0, 0, 0.00000000000000000000e+000) (0, 0, 0.00000000000000000000e+000) (0, 0, 0.00000000000000000000e+000) (0, 0, 0.00000000000000000000e+000) (0, 0, 0.00000000000000000000e+000) (0, 0, 0.00000000000000000000e+000) (0, 0, 0.00000000000000000000e+000) (0, 0, 0.00000000000000000000e+000) (0, 0, 0.00000000000000000000e+000) (0, 0, 0.00000000000000000000e+000) (241, 4, 1.10000002384185790000e+000) (241, 4, 1.10000002384185790000e+000) (241, 4, 1.10000002384185790000e+000) (241, 4, 1.10000002384185790000e+000) (241, 4, 1.10000002384185790000e+000) (241, 4, 1.10000002384185790000e+000) (241, 4, 1.10000002384185790000e+000) (241, 4, 1.10000002384185790000e+000) (0, 4, 1.10000002384185790000e+000) (9, 5, 1.00000000000000000000e+000) (9, 5, 1.00000000000000000000e+000) (0, 5, 1.00000000000000000000e+000) 
connections (connected_to_neuron, weight)=(0, 7.04262554645538330000e-002) (1, 3.33284996449947360000e-002) (2, -8.30698832869529720000e-002) (3, 6.35553663596510890000e-003) (4, 6.99206963181495670000e-002) (5, 8.21970477700233460000e-002) (6, 4.45891208946704860000e-002) (7, 7.45271369814872740000e-002) (8, 9.32453013956546780000e-003) (9, -6.65202513337135310000e-002) (10, -3.28537523746490480000e-002) (11, 6.30774796009063720000e-002) (12, -6.40032291412353520000e-002) (13, -2.60207802057266240000e-002) (14, 3.44581119716167450000e-002) (15, 2.40771099925041200000e-003) (16, -7.05736577510833740000e-002) (17, -4.13621179759502410000e-002) (18, -9.63733419775962830000e-002) (19, -1.07736393809318540000e-001) (20, 2.99488827586174010000e-002) (21, -3.98989208042621610000e-003) (22, 1.98457818478345870000e-002) (23, -4.60850372910499570000e-002) (24, 2.75252666324377060000e-002) (25, 4.04566749930381770000e-002) (26, 1.09102725982666020000e-002) (27, 1.35763408616185190000e-002) (28, -2.68230866640806200000e-002) (29, 6.32201805710792540000e-002) (30, -3.63860018551349640000e-002) (31, 5.60855641961097720000e-002) (32, 4.94870394468307500000e-002) (33, -4.48178052902221680000e-002) (34, -4.81613315641880040000e-002) (35, 2.57983598858118060000e-002) (36, 4.77087385952472690000e-002) (37, 2.52293050289154050000e-002) (38, 5.08425310254096980000e-002) (39, -3.66705320775508880000e-002) (40, 5.14917001128196720000e-002) (41, -1.12552560865879060000e-001) (42, -1.41746839508414270000e-002) (43, -1.14057771861553190000e-001) (44, 1.27659598365426060000e-002) (45, -3.27086932957172390000e-002) (46, 7.18298032879829410000e-002) (47, 8.61895456910133360000e-002) (48, -2.19523403793573380000e-002) (49, -7.63784646987915040000e-002) (50, -1.06976486742496490000e-001) (51, 1.03476643562316890000e-002) (52, 6.01184256374835970000e-002) (53, 6.70781731605529790000e-002) (54, 1.07869235798716550000e-002) (55, 5.60809858143329620000e-002) (56, -4.29819114506244660000e-002) (57, 5.40883317589759830000e-002) (58, 8.61068293452262880000e-002) (59, 6.71580806374549870000e-002) (60, -6.77221417427062990000e-002) (61, -5.79934120178222660000e-002) (62, 1.86976920813322070000e-002) (63, 1.43696004524827000000e-002) (64, 9.00764856487512590000e-003) (65, -2.28910334408283230000e-002) (66, -3.96904125809669490000e-002) (67, 8.82144942879676820000e-002) (68, -8.02553072571754460000e-002) (69, -2.08472795784473420000e-002) (70, -1.09609387814998630000e-001) (71, 2.03806143254041670000e-002) (72, -2.78352722525596620000e-002) (73, 7.05989599227905270000e-002) (74, -7.78324827551841740000e-002) (75, 5.30745787546038630000e-003) (76, 3.09953484684228900000e-002) (77, -2.08724047988653180000e-002) (78, -3.96204777061939240000e-002) (79, -5.44875189661979680000e-002) (80, 5.02860918641090390000e-002) (81, 6.81730285286903380000e-002) (82, 3.60251031816005710000e-002) (83, 7.65073299407958980000e-002) (84, -1.65998050943017010000e-003) (85, -5.83310611546039580000e-002) (86, -7.81222581863403320000e-002) (87, -1.05276286602020260000e-001) (88, 7.16889202594757080000e-002) (89, -4.82997149229049680000e-002) (90, -6.39038309454917910000e-002) (91, 6.47366642951965330000e-002) (92, 7.16597884893417360000e-002) (93, -9.17206630110740660000e-002) (94, -6.96648210287094120000e-002) (95, -5.01015745103359220000e-002) (96, -4.00727130472660060000e-002) (97, -6.44250307232141490000e-003) (98, -9.89631563425064090000e-002) (99, -8.44939872622489930000e-002) (100, 1.23330019414424900000e-002) (101, 3.66049632430076600000e-002) (102, -7.72837400436401370000e-002) (103, -5.23221082985401150000e-002) (104, -1.07303224503993990000e-001) (105, -4.94040772318840030000e-002) (106, 3.05390451103448870000e-002) (107, -4.59567941725254060000e-002) (108, -4.56897579133510590000e-002) (109, -2.97095850110054020000e-002) (110, 1.55471023172140120000e-002) (111, -5.93601614236831670000e-002) (112, -3.59462536871433260000e-002) (113, -1.98017358779907230000e-002) (114, 9.01698973029851910000e-003) (115, -6.67813643813133240000e-002) (116, -1.07891179621219640000e-001) (117, 7.54996463656425480000e-002) (118, 6.50263577699661250000e-002) (119, -1.04392625391483310000e-001) (120, 4.30801324546337130000e-002) (121, 8.00226107239723210000e-002) (122, 3.54142785072326660000e-002) (123, 4.10072952508926390000e-002) (124, 4.92592342197895050000e-002) (125, -2.31145545840263370000e-002) (126, -3.46465893089771270000e-002) (127, -6.86198696494102480000e-002) (128, 9.60433762520551680000e-003) (129, -8.45212042331695560000e-002) (130, -1.03647435025777670000e-004) (131, -7.07441335543990140000e-003) (132, -7.22022354602813720000e-003) (133, -6.06533838436007500000e-003) (134, -5.82240149378776550000e-002) (135, 2.52375397831201550000e-002) (136, -6.21574223041534420000e-002) (137, -9.76770371198654170000e-002) (138, -2.38158553838729860000e-002) (139, 2.08683591336011890000e-002) (140, -7.02444463968276980000e-002) (141, -8.29914584755897520000e-002) (142, 5.08003048598766330000e-002) (143, -3.08003742247819900000e-002) (144, 8.17598551511764530000e-002) (145, 7.45865181088447570000e-002) (146, -1.05759494006633760000e-001) (147, -2.82201543450355530000e-002) (148, -5.97504433244466780000e-003) (149, 1.44099276512861250000e-002) (150, -9.35532525181770320000e-002) (151, 1.01842600852251050000e-002) (152, 4.78657707571983340000e-002) (153, 4.36752997338771820000e-002) (154, 8.60330015420913700000e-002) (155, -2.40296032279729840000e-002) (156, -9.81926620006561280000e-002) (157, 2.63931006193161010000e-002) (158, 7.57426917552948000000e-002) (159, 5.34092560410499570000e-002) (160, -1.09168507158756260000e-001) (161, -6.30249828100204470000e-002) (162, 2.24613994359970090000e-002) (163, -1.06644906103610990000e-001) (164, 4.31492924690246580000e-002) (165, 2.87749040871858600000e-002) (166, -8.85849632322788240000e-003) (167, 4.19887192547321320000e-002) (168, 6.36623874306678770000e-002) (169, 8.13462883234024050000e-002) (170, 6.39522820711135860000e-002) (171, 7.98493847250938420000e-002) (172, 9.78231057524681090000e-003) (173, -1.03992693126201630000e-001) (174, -8.66521820425987240000e-002) (175, 7.15325325727462770000e-002) (176, -7.07449689507484440000e-002) (177, -1.02071776986122130000e-001) (178, -7.80536457896232600000e-002) (179, -3.96777950227260590000e-002) (180, -1.06830395758152010000e-001) (181, -8.76415893435478210000e-002) (182, -9.12888646125793460000e-002) (183, -2.66019608825445180000e-002) (184, 1.02961789816617970000e-002) (185, -1.09357237815856930000e-001) (186, 7.67372101545333860000e-002) (187, 6.38290792703628540000e-002) (188, -4.01231646537780760000e-002) (189, 6.59004673361778260000e-002) (190, -3.44695299863815310000e-002) (191, -1.26295741647481920000e-002) (192, 8.52499976754188540000e-002) (193, -5.34089282155036930000e-002) (194, 7.48018622398376460000e-002) (195, -3.72003689408302310000e-002) (196, 1.98273621499538420000e-002) (197, -3.24877500534057620000e-002) (198, 8.48443433642387390000e-002) (199, -6.89645186066627500000e-002) (200, 3.57190482318401340000e-002) (201, -2.30449950322508810000e-003) (202, -4.29138615727424620000e-002) (203, -6.08668774366378780000e-002) (204, 1.71823073178529740000e-002) (205, -4.16684001684188840000e-002) (206, -6.40904679894447330000e-002) (207, -1.01973004639148710000e-001) (208, -5.57050332427024840000e-002) (209, 4.76670898497104640000e-002) (210, 2.12898030877113340000e-002) (211, 8.10936186462640760000e-003) (212, -8.88768304139375690000e-003) (213, -4.97389510273933410000e-002) (214, -3.22898253798484800000e-002) (215, -6.64602890610694890000e-002) (216, 5.79145504161715510000e-003) (217, -2.88219563663005830000e-002) (218, 4.04711924493312840000e-002) (219, 3.59056405723094940000e-002) (220, 5.72049815673381090000e-004) (221, 5.53562752902507780000e-002) (222, -4.49195783585309980000e-003) (223, 1.97138525545597080000e-002) (224, 6.35864096693694590000e-004) (225, 2.76750861667096610000e-003) (226, -1.81355103850364690000e-002) (227, 4.28345650434494020000e-002) (228, -9.40141528844833370000e-002) (229, -7.75308758020401000000e-002) (230, 2.54783425480127330000e-002) (231, 1.07014076784253120000e-002) (232, 8.58338102698326110000e-002) (233, 8.38873460888862610000e-002) (234, -4.12497781217098240000e-002) (235, 6.41332045197486880000e-002) (236, 7.74779096245765690000e-002) (237, -1.94003228098154070000e-002) (238, -4.52873148024082180000e-002) (239, 1.19231464341282840000e-002) (240, -1.99859235435724260000e-002) (0, 6.47686272859573360000e-002) (1, -1.35602746158838270000e-002) (2, 2.98962015658617020000e-002) (3, -2.65950858592987060000e-002) (4, -2.58051361888647080000e-002) (5, -6.78011700510978700000e-002) (6, 8.61683511175215240000e-004) (7, -8.48933830857276920000e-002) (8, -6.82094395160675050000e-002) (9, -4.66668643057346340000e-002) (10, 5.93295916914939880000e-002) (11, 4.06898260116577150000e-002) (12, -8.57665538787841800000e-002) (13, 5.26543557643890380000e-002) (14, 8.03207233548164370000e-002) (15, 3.84500138461589810000e-002) (16, -2.83276904374361040000e-002) (17, -9.99523624777793880000e-002) (18, -9.91927310824394230000e-002) (19, 5.99372610449790950000e-002) (20, -2.83906571567058560000e-002) (21, 8.42153877019882200000e-002) (22, -6.13954477012157440000e-002) (23, 4.71576340496540070000e-002) (24, 7.89547562599182130000e-002) (25, -9.35100764036178590000e-002) (26, 8.05938616394996640000e-002) (27, -2.79708392918109890000e-002) (28, -8.69304835796356200000e-002) (29, 3.71583402156829830000e-002) (30, -8.48232358694076540000e-002) (31, 3.94376777112483980000e-002) (32, -4.41290158778429030000e-003) (33, -5.91964498162269590000e-002) (34, 6.91600292921066280000e-002) (35, -5.64493238925933840000e-002) (36, 5.42040579020977020000e-002) (37, 2.24397946149110790000e-002) (38, 5.39840497076511380000e-002) (39, -1.57715268433094020000e-002) (40, 6.64763972163200380000e-002) (41, 1.54604651033878330000e-002) (42, 5.81561587750911710000e-002) (43, -5.72286434471607210000e-002) (44, 2.30679884552955630000e-002) (45, -7.67529383301734920000e-002) (46, 6.79605156183242800000e-002) (47, 6.00564554333686830000e-002) (48, -5.85507228970527650000e-002) (49, 4.10110354423522950000e-002) (50, 4.92559745907783510000e-002) (51, 8.06004479527473450000e-002) (52, 3.24931703507900240000e-002) (53, -8.72508883476257320000e-002) (54, 3.26950177550315860000e-002) (55, -7.41058140993118290000e-002) (56, 5.25452308356761930000e-002) (57, -8.29054042696952820000e-002) (58, 2.54477970302104950000e-002) (59, -1.78505275398492810000e-002) (60, 4.21648137271404270000e-002) (61, -6.53800442814826970000e-002) (62, -6.68127462267875670000e-002) (63, 7.35945031046867370000e-002) (64, 1.29619035869836810000e-002) (65, -8.89661461114883420000e-002) (66, 1.59214604645967480000e-002) (67, -9.63890999555587770000e-002) (68, 2.68231835216283800000e-002) (69, 1.66339031420648100000e-003) (70, 1.62174701690673830000e-002) (71, 4.22522798180580140000e-002) (72, 5.33981658518314360000e-002) (73, -4.34867925941944120000e-002) (74, 5.46440370380878450000e-002) (75, -7.93588608503341670000e-002) (76, 3.28994654119014740000e-002) (77, -3.58332321047782900000e-002) (78, -1.04383356869220730000e-001) (79, -7.48606249690055850000e-002) (80, 7.41321519017219540000e-002) (81, -5.03237033262848850000e-003) (82, -7.82592073082923890000e-002) (83, 6.87471851706504820000e-002) (84, -6.78292885422706600000e-002) (85, 6.68560713529586790000e-003) (86, -7.95490741729736330000e-002) (87, -8.43567550182342530000e-002) (88, 5.92737458646297450000e-002) (89, -3.12854126095771790000e-002) (90, 6.83470517396926880000e-002) (91, -8.70088934898376460000e-002) (92, -9.98921543359756470000e-002) (93, -6.73001492395997050000e-003) (94, 3.30004766583442690000e-002) (95, -1.99781563133001330000e-002) (96, 6.20605759322643280000e-002) (97, 1.01795360445976260000e-001) (98, 2.31729950755834580000e-002) (99, 6.08533583581447600000e-002) (100, -1.61012373864650730000e-002) (101, -1.06020187959074970000e-002) (102, 4.23315614461898800000e-002) (103, 7.29496702551841740000e-002) (104, 4.98211150988936420000e-003) (105, -8.06864202022552490000e-002) (106, -1.33432783186435700000e-002) (107, -1.99510101228952410000e-002) (108, -2.26670573465526100000e-003) (109, 8.40466022491455080000e-002) (110, 6.30431715399026870000e-003) (111, 7.88709297776222230000e-002) (112, 1.98253653943538670000e-002) (113, 3.97715941071510310000e-002) (114, 1.00591303780674930000e-002) (115, 1.95727106183767320000e-002) (116, 5.28443120419979100000e-002) (117, -3.40279787778854370000e-002) (118, 2.58511658757925030000e-002) (119, 8.75796526670455930000e-002) (120, -7.59574174880981450000e-002) (121, -7.96271413564682010000e-002) (122, -5.20230978727340700000e-002) (123, 4.26943600177764890000e-002) (124, -3.98218259215354920000e-002) (125, 2.30966210365295410000e-002) (126, -6.00842162966728210000e-002) (127, 7.07859247922897340000e-002) (128, 1.93054936826229100000e-002) (129, -2.00533140450716020000e-002) (130, 5.14766238629817960000e-002) (131, 4.65255156159400940000e-002) (132, -3.18276770412921910000e-002) (133, 6.38144984841346740000e-002) (134, -3.75905334949493410000e-002) (135, -4.41171042621135710000e-002) (136, 8.25838968157768250000e-002) (137, 9.24891326576471330000e-003) (138, -5.11668762192130090000e-003) (139, 9.56440716981887820000e-002) (140, 6.62861764430999760000e-003) (141, 1.23568978160619740000e-002) (142, -4.60900738835334780000e-002) (143, -3.49662750959396360000e-002) (144, -7.69395157694816590000e-002) (145, 1.35837793350219730000e-002) (146, 4.27111349999904630000e-002) (147, -2.86704320460557940000e-002) (148, -6.70462101697921750000e-002) (149, 3.83240878582000730000e-002) (150, -6.79758489131927490000e-002) (151, -1.55818620696663860000e-002) (152, -8.07527005672454830000e-002) (153, -6.31284248083829880000e-003) (154, -4.15634512901306150000e-002) (155, 4.31952215731143950000e-002) (156, -4.00540679693222050000e-002) (157, 9.07114446163177490000e-002) (158, -9.48246866464614870000e-002) (159, -4.08375896513462070000e-002) (160, -6.97149634361267090000e-002) (161, 6.90032243728637700000e-002) (162, 5.12546561658382420000e-002) (163, 4.30654287338256840000e-002) (164, -6.27115368843078610000e-002) (165, 9.47012007236480710000e-002) (166, 2.34316829591989520000e-002) (167, -1.03630274534225460000e-001) (168, 5.96342794597148900000e-002) (169, -3.27479429543018340000e-002) (170, 2.73208878934383390000e-003) (171, 3.12839485704898830000e-002) (172, -8.16610455513000490000e-002) (173, -3.88566292822360990000e-002) (174, 4.11035977303981780000e-002) (175, -5.17610162496566770000e-002) (176, 7.24528804421424870000e-002) (177, 3.86305935680866240000e-002) (178, -1.04433540254831310000e-002) (179, 1.45711209625005720000e-002) (180, 7.16069787740707400000e-002) (181, 1.86850894242525100000e-002) (182, 4.22061281278729440000e-003) (183, 2.73910835385322570000e-002) (184, -3.77333462238311770000e-002) (185, -8.77622961997985840000e-002) (186, -6.24326243996620180000e-002) (187, -3.03504820913076400000e-002) (188, 9.64223127812147140000e-003) (189, -7.30824796482920650000e-003) (190, -5.38477525115013120000e-002) (191, -5.06565123796463010000e-002) (192, -2.19802726060152050000e-002) (193, 4.46256771683692930000e-002) (194, -7.92982801795005800000e-002) (195, 6.77612200379371640000e-002) (196, 9.00357291102409360000e-002) (197, -4.92519736289978030000e-002) (198, -4.97569590806961060000e-002) (199, 4.02532853186130520000e-002) (200, -1.96670796722173690000e-002) (201, -6.80318772792816160000e-002) (202, -1.16811534389853480000e-002) (203, 5.82465082406997680000e-002) (204, 4.80257384479045870000e-002) (205, -7.42710381746292110000e-002) (206, -2.40984074771404270000e-002) (207, 1.55981341376900670000e-002) (208, -4.14391495287418370000e-002) (209, -2.94769406318664550000e-002) (210, 5.90823180973529820000e-002) (211, 6.03490769863128660000e-002) (212, -8.68164822459220890000e-002) (213, -1.93686794955283400000e-003) (214, -1.56903956085443500000e-002) (215, -1.58519782125949860000e-002) (216, 5.25304935872554780000e-002) (217, 6.43528848886489870000e-002) (218, 8.92794504761695860000e-002) (219, -2.42449976503849030000e-002) (220, 5.24016991257667540000e-002) (221, -9.84063278883695600000e-003) (222, -1.01784870028495790000e-001) (223, 8.60664546489715580000e-002) (224, 8.35988149046897890000e-002) (225, -9.47430655360221860000e-002) (226, -4.52042631804943080000e-002) (227, 7.93756097555160520000e-002) (228, -9.23495292663574220000e-002) (229, -6.39991983771324160000e-002) (230, 1.53998536989092830000e-002) (231, 3.22375819087028500000e-002) (232, 9.45688858628273010000e-002) (233, 1.91709939390420910000e-002) (234, 4.59358394145965580000e-002) (235, 2.81633958220481870000e-002) (236, 2.83822286874055860000e-002) (237, -3.56176979839801790000e-002) (238, -6.03171847760677340000e-002) (239, 2.93324720114469530000e-002) (240, -1.04334548115730290000e-001) (0, 3.65244112908840180000e-002) (1, 3.73173505067825320000e-002) (2, -1.23933322727680210000e-001) (3, 4.83936220407485960000e-002) (4, -1.12972766160964970000e-001) (5, 1.76163949072360990000e-002) (6, 6.28488734364509580000e-002) (7, -1.25111073255538940000e-001) (8, 1.08171571046113970000e-002) (9, -5.34746833145618440000e-002) (10, -8.09247419238090520000e-002) (11, -7.58704915642738340000e-002) (12, -5.33717907965183260000e-002) (13, -3.45422737300395970000e-002) (14, -1.04665830731391910000e-001) (15, 8.93003586679697040000e-003) (16, -8.06809291243553160000e-002) (17, 5.66787598654627800000e-003) (18, -7.59655758738517760000e-002) (19, -1.04136280715465550000e-001) (20, -7.33072310686111450000e-002) (21, 1.41113195568323140000e-002) (22, -1.09893292188644410000e-001) (23, -6.67804703116416930000e-002) (24, -7.64696300029754640000e-002) (25, -6.01643621921539310000e-002) (26, -1.11428983509540560000e-001) (27, -7.04004913568496700000e-002) (28, 4.07767444849014280000e-002) (29, -1.66728254407644270000e-002) (30, -1.10142000019550320000e-001) (31, -7.28328526020050050000e-002) (32, 5.15905171632766720000e-002) (33, 2.30182688683271410000e-002) (34, -5.14611899852752690000e-002) (35, 8.68505891412496570000e-003) (36, -1.23548962175846100000e-001) (37, -2.21849717199802400000e-002) (38, -5.02224415540695190000e-002) (39, 1.54869481921195980000e-002) (40, 1.21673317626118660000e-002) (41, 1.32760619744658470000e-002) (42, 2.31270212680101390000e-002) (43, -1.17426682263612750000e-002) (44, -2.03892998397350310000e-002) (45, -1.83960574213415380000e-003) (46, -5.24293340276926760000e-004) (47, -1.15509100258350370000e-001) (48, 5.12246228754520420000e-002) (49, -1.06865495443344120000e-001) (50, -1.26437813043594360000e-001) (51, -2.47313883155584340000e-002) (52, -7.53035247325897220000e-002) (53, -4.35943007469177250000e-002) (54, -1.19410179555416110000e-001) (55, 1.75191704183816910000e-002) (56, -1.04196719825267790000e-001) (57, -1.17336414754390720000e-001) (58, 5.95404161140322690000e-003) (59, 2.89355535060167310000e-002) (60, 1.44080352038145070000e-002) (61, -2.83390786498785020000e-002) (62, 4.41433973610401150000e-002) (63, 6.04466684162616730000e-002) (64, -2.24149059504270550000e-002) (65, -8.27541202306747440000e-002) (66, -1.17803134024143220000e-001) (67, 4.47567962110042570000e-002) (68, 5.99312521517276760000e-002) (69, 1.38105088844895360000e-002) (70, 2.32695210725069050000e-002) (71, 2.69398093223571780000e-002) (72, -7.17024803161621090000e-002) (73, -6.00280687212944030000e-002) (74, -3.53320352733135220000e-002) (75, 6.09248653054237370000e-002) (76, 6.26472830772399900000e-002) (77, -1.12061865627765660000e-001) (78, 1.41437575221061710000e-002) (79, -9.86134484410285950000e-002) (80, 3.69039401412010190000e-002) (81, -9.59550738334655760000e-002) (82, -4.40775118768215180000e-002) (83, -1.06814764440059660000e-001) (84, -3.41648869216442110000e-002) (85, -1.08933590352535250000e-001) (86, -2.69352160394191740000e-002) (87, -1.11430183053016660000e-001) (88, -7.98051282763481140000e-002) (89, -1.80243775248527530000e-002) (90, 1.67190097272396090000e-002) (91, 4.47300598025321960000e-002) (92, -4.10984940826892850000e-002) (93, -1.03862918913364410000e-001) (94, -7.75937223806977270000e-004) (95, 4.86051738262176510000e-002) (96, -8.00856277346611020000e-002) (97, 2.11867913603782650000e-002) (98, -1.00420206785202030000e-001) (99, -4.25527803599834440000e-002) (100, -4.61076460778713230000e-002) (101, -3.50509886629879470000e-003) (102, -6.35575652122497560000e-002) (103, -1.02220341563224790000e-001) (104, 2.60025244206190110000e-002) (105, 2.57245805114507680000e-002) (106, 1.40183297917246820000e-002) (107, -9.66406017541885380000e-002) (108, 2.76770256459712980000e-003) (109, -2.35784240067005160000e-002) (110, -1.12290307879447940000e-001) (111, 5.37140853703022000000e-003) (112, -1.24917611479759220000e-001) (113, -1.02094329893589020000e-001) (114, -1.56778693199157710000e-002) (115, -1.25077459961175920000e-002) (116, -7.95086994767189030000e-002) (117, -1.03645764291286470000e-001) (118, 5.38726858794689180000e-002) (119, -4.81842495501041410000e-002) (120, 5.45210577547550200000e-002) (121, -5.22683635354042050000e-002) (122, -7.35677629709243770000e-002) (123, -5.87369278073310850000e-002) (124, 3.24544124305248260000e-002) (125, -2.94541511684656140000e-002) (126, 4.50572706758975980000e-002) (127, -1.56069044023752210000e-002) (128, -1.63197163492441180000e-002) (129, -2.00623422861099240000e-002) (130, 3.49579490721225740000e-002) (131, 1.77961774170398710000e-002) (132, 5.09259290993213650000e-002) (133, -7.64553919434547420000e-002) (134, -4.18461300432682040000e-002) (135, 3.89606207609176640000e-002) (136, 1.22818080708384510000e-002) (137, 5.67102199420332910000e-003) (138, -2.46399585157632830000e-002) (139, -6.71495422720909120000e-002) (140, -1.20077751576900480000e-001) (141, -1.36524885892868040000e-001) (142, -4.32964637875556950000e-002) (143, -5.83895258605480190000e-002) (144, 5.81314461305737500000e-003) (145, -5.38017861545085910000e-002) (146, -3.22876423597335820000e-002) (147, -1.06835238635540010000e-001) (148, -5.09112104773521420000e-002) (149, -3.58381010591983800000e-002) (150, 4.37385104596614840000e-002) (151, 1.00741768255829810000e-002) (152, 3.33934761583805080000e-002) (153, -1.30590721964836120000e-001) (154, 3.59427854418754580000e-002) (155, 6.13294206559658050000e-002) (156, -5.94711303710937500000e-002) (157, -7.53358304500579830000e-002) (158, -2.25999690592288970000e-002) (159, 6.48605898022651670000e-002) (160, 3.26493680477142330000e-002) (161, 1.47137586027383800000e-002) (162, 4.05648238956928250000e-002) (163, 6.28371089696884160000e-002) (164, -1.35765932500362400000e-002) (165, -1.03823885321617130000e-001) (166, -8.18369761109352110000e-002) (167, -5.06092645227909090000e-002) (168, -4.22701286152005200000e-003) (169, 5.06922192871570590000e-002) (170, -1.18965297937393190000e-001) (171, -3.24503779411315920000e-002) (172, -5.76256774365901950000e-002) (173, -5.02705164253711700000e-002) (174, -1.42225548624992370000e-002) (175, -1.08393281698226930000e-001) (176, 5.70367015898227690000e-002) (177, -1.23154381290078160000e-002) (178, 2.15006824582815170000e-002) (179, 4.05698232352733610000e-002) (180, -3.88014875352382660000e-002) (181, -1.07036978006362920000e-001) (182, 1.27941435202956200000e-002) (183, -4.85843699425458910000e-003) (184, -5.28098717331886290000e-002) (185, 3.27858747914433480000e-003) (186, 5.70497661828994750000e-002) (187, -1.17462851107120510000e-001) (188, 6.28391206264495850000e-002) (189, 5.37202367559075360000e-003) (190, 2.58776675909757610000e-002) (191, -1.44988805055618290000e-001) (192, -6.71343505382537840000e-002) (193, 2.35047489404678340000e-002) (194, -5.29792681336402890000e-002) (195, 6.17370977997779850000e-002) (196, -7.92358890175819400000e-002) (197, -9.00300368666648860000e-002) (198, 1.65753327310085300000e-002) (199, -6.27636015415191650000e-002) (200, 3.52048277854919430000e-002) (201, -2.68834885209798810000e-002) (202, 4.85654436051845550000e-002) (203, 5.70846013724803920000e-002) (204, -2.96775102615356450000e-002) (205, -1.30774065852165220000e-001) (206, -1.74253266304731370000e-002) (207, -1.10799677670001980000e-001) (208, -1.07117272913455960000e-001) (209, -1.09617017209529880000e-001) (210, 5.08594512939453130000e-002) (211, 2.84486985765397550000e-003) (212, -3.93195040524005890000e-002) (213, -1.13020017743110660000e-001) (214, -8.39258059859275820000e-002) (215, -1.01264707744121550000e-001) (216, 4.42590229213237760000e-002) (217, 6.17228187620639800000e-002) (218, 2.33881305903196330000e-002) (219, -4.10936661064624790000e-002) (220, 3.40715534985065460000e-002) (221, -1.14081278443336490000e-001) (222, -7.87933692336082460000e-002) (223, 3.72485369443893430000e-002) (224, 4.68217395246028900000e-003) (225, -7.04484432935714720000e-002) (226, -2.00541247613728050000e-003) (227, -1.92389357835054400000e-002) (228, -1.09419196844100950000e-001) (229, -3.98553870618343350000e-002) (230, -6.28347992897033690000e-002) (231, -8.03402811288833620000e-002) (232, -8.82202014327049260000e-002) (233, -1.10810570418834690000e-001) (234, 6.00199727341532710000e-003) (235, -7.42777660489082340000e-002) (236, -7.65437781810760500000e-002) (237, 4.27908077836036680000e-002) (238, 3.67070734500885010000e-002) (239, -5.69100007414817810000e-002) (240, -1.63143619894981380000e-001) (0, 1.09407179057598110000e-001) (1, -3.72506603598594670000e-002) (2, 8.51320289075374600000e-003) (3, 2.77086216956377030000e-002) (4, 7.97572582960128780000e-002) (5, 4.38099391758441930000e-002) (6, -4.51160334050655360000e-002) (7, 6.03340305387973790000e-002) (8, 5.55511973798274990000e-002) (9, 2.60859858244657520000e-002) (10, 2.05571755766868590000e-001) (11, -3.19486644002608950000e-005) (12, 8.82885158061981200000e-002) (13, -2.91743259876966480000e-002) (14, 1.59341783728450540000e-003) (15, -3.29564064741134640000e-002) (16, 8.64995047450065610000e-002) (17, 2.30949129909276960000e-002) (18, 1.33333774283528330000e-002) (19, 8.93532186746597290000e-002) (20, 7.80413746833801270000e-002) (21, 1.37062212452292440000e-002) (22, -4.46859262883663180000e-002) (23, -7.97461494803428650000e-002) (24, -7.17472583055496220000e-002) (25, 3.42461816035211090000e-003) (26, -2.99732014536857600000e-002) (27, -1.81253179907798770000e-002) (28, -7.02400803565979000000e-002) (29, -2.68218815326690670000e-002) (30, 6.34490177035331730000e-002) (31, -8.77577662467956540000e-002) (32, -9.68673005700111390000e-002) (33, 6.33147582411766050000e-002) (34, -1.39723494648933410000e-002) (35, -2.85837370902299880000e-002) (36, 6.73402324318885800000e-002) (37, -5.27206882834434510000e-002) (38, -5.71249574422836300000e-002) (39, -2.36044134944677350000e-002) (40, 1.58713221549987790000e-001) (41, -1.10243223607540130000e-002) (42, -9.10996273159980770000e-003) (43, 1.54424551874399190000e-002) (44, -1.63495559245347980000e-002) (45, 1.41464779153466220000e-002) (46, -5.26266591623425480000e-003) (47, -2.65582036226987840000e-002) (48, -3.21818962693214420000e-002) (49, -4.28266823291778560000e-003) (50, -1.08645725995302200000e-002) (51, -1.03279552422463890000e-003) (52, -5.55525794625282290000e-002) (53, 4.46373261511325840000e-002) (54, 1.40058333054184910000e-002) (55, 1.08663052320480350000e-001) (56, -2.77995895594358440000e-002) (57, 4.08557951450347900000e-002) (58, -2.39089899696409700000e-003) (59, 1.31773510947823520000e-002) (60, 1.02791190147399900000e-003) (61, 5.90349845588207240000e-002) (62, -5.18205501139163970000e-002) (63, -8.16202536225318910000e-002) (64, -1.08708396553993230000e-001) (65, -8.76281186938285830000e-002) (66, 7.41825476288795470000e-002) (67, -7.41203948855400090000e-002) (68, 1.06978580355644230000e-001) (69, -6.17832131683826450000e-002) (70, 1.67529374361038210000e-001) (71, -1.90705631393939260000e-003) (72, -5.76934739947319030000e-002) (73, -4.15219217538833620000e-002) (74, -5.48190996050834660000e-003) (75, -7.74351507425308230000e-002) (76, -4.87874001264572140000e-002) (77, 2.52529922872781750000e-002) (78, -6.46363943815231320000e-002) (79, 6.63907647132873540000e-001) (80, 1.60814687609672550000e-001) (81, -6.45992606878280640000e-002) (82, -5.20137287676334380000e-002) (83, 3.27080115675926210000e-002) (84, 8.85807126760482790000e-002) (85, 9.18276980519294740000e-002) (86, -4.66469675302505490000e-002) (87, 1.19843415915966030000e-001) (88, 1.06235049664974210000e-001) (89, 1.92863512784242630000e-002) (90, 6.95988908410072330000e-002) (91, 6.69589713215827940000e-002) (92, 7.28789567947387700000e-002) (93, 1.57635603100061420000e-002) (94, -1.97485573589801790000e-002) (95, 1.89027599990367890000e-002) (96, 2.64767259359359740000e-002) (97, -5.84412999451160430000e-002) (98, 3.48764546215534210000e-002) (99, -4.36484627425670620000e-002) (100, -1.35106761008501050000e-002) (101, 1.33748287335038190000e-002) (102, 9.47150662541389470000e-002) (103, -8.26273933053016660000e-002) (104, -7.12082609534263610000e-002) (105, 8.02351161837577820000e-002) (106, 1.31584899500012400000e-002) (107, -9.78911444544792180000e-002) (108, 6.91687762737274170000e-002) (109, -2.71645598113536830000e-002) (110, 4.17528152465820310000e-002) (111, 8.03314670920372010000e-002) (112, -2.70758196711540220000e-002) (113, -4.00635860860347750000e-002) (114, 1.07890397310256960000e-001) (115, 2.78797876089811330000e-002) (116, 5.39445355534553530000e-002) (117, 6.64592608809471130000e-002) (118, 2.40827426314353940000e-002) (119, 5.51411136984825130000e-002) (120, -3.49341928958892820000e-002) (121, 8.79382640123367310000e-002) (122, -8.13518464565277100000e-002) (123, -8.62793251872062680000e-002) (124, 1.12617351114749910000e-001) (125, -2.94288452714681630000e-002) (126, -6.38159811496734620000e-002) (127, 4.63289879262447360000e-002) (128, -5.99543750286102290000e-002) (129, -1.71194709837436680000e-002) (130, 4.98289726674556730000e-002) (131, 3.26646887697279450000e-003) (132, -9.55916717648506160000e-002) (133, 1.79898925125598910000e-002) (134, 6.97500724345445630000e-003) (135, 7.48049691319465640000e-002) (136, 1.11660249531269070000e-002) (137, 2.31070141308009620000e-003) (138, 6.05483129620552060000e-002) (139, -9.74323078989982600000e-002) (140, -1.50419650599360470000e-002) (141, -1.49797387421131130000e-002) (142, 4.94392886757850650000e-002) (143, -1.97210386395454410000e-002) (144, 7.55510339513421060000e-003) (145, 1.13242901861667630000e-001) (146, -7.75614678859710690000e-002) (147, 2.59223952889442440000e-002) (148, 3.30145768821239470000e-002) (149, 4.52959686517715450000e-002) (150, -4.19664643704891200000e-002) (151, 2.93281432241201400000e-002) (152, -9.64068323373794560000e-002) (153, -3.71574871242046360000e-002) (154, -4.37421724200248720000e-002) (155, -5.31532578170299530000e-002) (156, 1.87632907181978230000e-002) (157, 6.97065610438585280000e-003) (158, -2.11688522249460220000e-002) (159, -7.46135190129280090000e-002) (160, 3.15580144524574280000e-002) (161, -2.80011873692274090000e-002) (162, -3.34295183420181270000e-002) (163, 3.32737229764461520000e-002) (164, 4.64327298104763030000e-002) (165, -6.81583285331726070000e-002) (166, -5.24521656334400180000e-002) (167, 8.49231034517288210000e-002) (168, 6.44863620400428770000e-002) (169, 5.51818385720252990000e-002) (170, -4.89050522446632390000e-002) (171, -3.10552477836608890000e-001) (172, -1.16054713726043700000e-002) (173, -6.68483078479766850000e-002) (174, -3.06956209242343900000e-002) (175, -4.32152524590492250000e-002) (176, -2.76860501617193220000e-002) (177, 6.14812001585960390000e-002) (178, -1.05104260146617890000e-001) (179, 7.69537538290023800000e-002) (180, 2.38339807838201520000e-002) (181, -2.90513169020414350000e-002) (182, 5.33230602741241460000e-002) (183, 3.97144667804241180000e-002) (184, -4.03675697743892670000e-002) (185, 6.48085847496986390000e-002) (186, 2.80642826110124590000e-002) (187, 4.28550951182842250000e-002) (188, 2.07103751599788670000e-002) (189, 1.67616903781890870000e-002) (190, 4.43482547998428340000e-002) (191, -1.19072936475276950000e-001) (192, -6.98232054710388180000e-002) (193, -3.62161286175251010000e-002) (194, 6.31571784615516660000e-002) (195, 2.32708584517240520000e-002) (196, 6.11533690243959430000e-003) (197, 7.02030258253216740000e-003) (198, -3.00357304513454440000e-002) (199, -6.37331455945968630000e-002) (200, 3.13058458268642430000e-002) (201, -9.06386077404022220000e-002) (202, 8.16005542874336240000e-002) (203, 9.23219919204711910000e-002) (204, -4.48740981519222260000e-002) (205, -9.97040793299674990000e-002) (206, -7.11439475417137150000e-002) (207, 7.71143585443496700000e-002) (208, 8.41302573680877690000e-002) (209, -7.45852738618850710000e-002) (210, 1.08898051083087920000e-001) (211, 6.56054253340698780000e-005) (212, 1.67573112994432450000e-002) (213, 9.96642862446606160000e-004) (214, 3.01035847514867780000e-002) (215, -3.21446619927883150000e-002) (216, -3.41747961938381200000e-002) (217, 3.59454192221164700000e-002) (218, 1.05093248188495640000e-001) (219, -1.08519628643989560000e-001) (220, -5.26738688349723820000e-002) (221, -3.05294394493103030000e-002) (222, 8.88772308826446530000e-002) (223, 3.72297391295433040000e-002) (224, -6.27778321504592900000e-002) (225, -8.70219469070434570000e-002) (226, 5.44846542179584500000e-002) (227, -5.19146434962749480000e-002) (228, 9.98434871435165410000e-002) (229, -5.45026920735836030000e-002) (230, -1.00791081786155700000e-001) (231, -1.48239135742187500000e-001) (232, -1.22098274528980260000e-001) (233, -4.29683327674865720000e-002) (234, -8.64901185035705570000e-001) (235, 6.78914487361907960000e-002) (236, 2.63380892574787140000e-002) (237, 3.70668582618236540000e-002) (238, -8.38073417544364930000e-002) (239, -1.53067028149962430000e-002) (240, -9.14239138364791870000e-002) (0, 1.50667279958724980000e-001) (1, -1.00449204444885250000e-001) (2, -5.58974184095859530000e-002) (3, 6.14154525101184840000e-002) (4, 3.02071750164031980000e-001) (5, 1.87636051123263310000e-005) (6, -1.35148420929908750000e-001) (7, -9.73270535469055180000e-002) (8, -2.51805875450372700000e-002) (9, -4.05291803181171420000e-002) (10, 6.10127784311771390000e-002) (11, -1.15841783583164220000e-001) (12, 1.90270449966192250000e-002) (13, -3.33533845841884610000e-002) (14, -7.44722336530685420000e-002) (15, -3.50603722035884860000e-002) (16, 4.03410661965608600000e-003) (17, 1.49042215198278430000e-002) (18, 1.36542245745658870000e-002) (19, -9.61384326219558720000e-002) (20, 6.07420951128005980000e-002) (21, -2.64966815710067750000e-001) (22, 5.95876798033714290000e-002) (23, 4.39511844888329510000e-004) (24, -7.14190900325775150000e-002) (25, -1.47590965032577510000e-001) (26, -8.16110000014305110000e-002) (27, 1.22022628784179690000e-002) (28, -1.70167624950408940000e-001) (29, -8.19415599107742310000e-003) (30, 4.88024577498435970000e-002) (31, -6.49577751755714420000e-002) (32, -6.68832683004438880000e-004) (33, -6.27003088593482970000e-002) (34, 3.62180694937705990000e-002) (35, 2.77650728821754460000e-002) (36, -1.37855559587478640000e-001) (37, -8.10268372297286990000e-002) (38, 1.17151234298944470000e-002) (39, 9.19641777873039250000e-002) (40, 8.75850766897201540000e-002) (41, 5.52504472434520720000e-002) (42, -5.49561977386474610000e-002) (43, -7.04855546355247500000e-002) (44, 9.87389013171195980000e-002) (45, -9.51050147414207460000e-002) (46, -4.41570393741130830000e-002) (47, -5.11575490236282350000e-002) (48, -5.73170781135559080000e-002) (49, 5.80958761274814610000e-002) (50, 1.10588870942592620000e-001) (51, 2.29306276887655260000e-002) (52, -1.69784191530197860000e-003) (53, 1.43683170899748800000e-002) (54, 3.06916120462119580000e-003) (55, -6.28934949636459350000e-002) (56, -3.67420166730880740000e-002) (57, -1.40979483723640440000e-001) (58, -9.02195647358894350000e-002) (59, 9.25865955650806430000e-003) (60, -1.29105206578969960000e-002) (61, -1.69482845813035960000e-002) (62, 4.08681072294712070000e-002) (63, -5.56273013353347780000e-002) (64, -8.36072638630867000000e-002) (65, 5.51502667367458340000e-002) (66, -6.92137107253074650000e-002) (67, -6.18850477039814000000e-002) (68, -2.64592226594686510000e-002) (69, 2.81487666070461270000e-002) (70, 6.71247169375419620000e-002) (71, 1.78025096654891970000e-001) (72, 4.86871488392353060000e-002) (73, -3.33009026944637300000e-002) (74, -1.56641378998756410000e-001) (75, -1.82294826954603200000e-002) (76, -4.00703921914100650000e-002) (77, -6.45339349284768100000e-003) (78, -8.94711092114448550000e-002) (79, 8.88239368796348570000e-002) (80, -2.16350089758634570000e-002) (81, -3.09452377259731290000e-002) (82, 4.77162003517150880000e-002) (83, -8.30864533782005310000e-002) (84, -2.31735501438379290000e-002) (85, -8.59145745635032650000e-002) (86, -9.08441394567489620000e-002) (87, 5.78124597668647770000e-002) (88, -7.34873414039611820000e-002) (89, -4.83458936214447020000e-002) (90, -8.05522054433822630000e-002) (91, -4.84964251518249510000e-002) (92, -9.01052802801132200000e-002) (93, 3.71078178286552430000e-002) (94, -8.20511430501937870000e-002) (95, 5.82152307033538820000e-002) (96, -6.61252290010452270000e-002) (97, 2.79795937240123750000e-002) (98, -3.20847705006599430000e-002) (99, -2.75447983294725420000e-002) (100, -1.15057289600372310000e-001) (101, 8.94204247742891310000e-003) (102, -2.78119612485170360000e-002) (103, 2.18813903629779820000e-002) (104, -5.87946102023124690000e-002) (105, -3.22166979312896730000e-002) (106, -4.90527227520942690000e-002) (107, -3.95311526954174040000e-002) (108, 1.40915103256702420000e-002) (109, -1.10097512602806090000e-001) (110, -1.30541086196899410000e-001) (111, -3.18459942936897280000e-002) (112, 5.05006797611713410000e-002) (113, -4.28529316559433940000e-003) (114, -6.15551024675369260000e-002) (115, -2.22424566745758060000e-002) (116, -8.27538818120956420000e-002) (117, -2.24658031947910790000e-003) (118, -1.53572469949722290000e-001) (119, -4.87269639968872070000e-001) (120, -9.27421674132347110000e-002) (121, -1.10426582396030430000e-001) (122, -9.57087352871894840000e-002) (123, -4.99711148440837860000e-002) (124, -5.57332523167133330000e-002) (125, 8.31983163952827450000e-002) (126, -1.66117712855339050000e-001) (127, -2.01418578624725340000e-001) (128, -7.99855217337608340000e-002) (129, -4.72911782562732700000e-002) (130, -1.38753935694694520000e-001) (131, -9.65058710426092150000e-003) (132, -1.07113547623157500000e-001) (133, 4.42144349217414860000e-002) (134, -1.03970222175121310000e-001) (135, 8.38326960802078250000e-002) (136, 6.16005137562751770000e-002) (137, 6.94290995597839360000e-002) (138, -4.94038760662078860000e-001) (139, 1.72204384580254550000e-003) (140, -4.41264957189559940000e-002) (141, -1.36452272534370420000e-001) (142, -5.26337400078773500000e-002) (143, -8.69486853480339050000e-002) (144, 8.21513682603836060000e-003) (145, 4.95294071733951570000e-002) (146, -8.79587903618812560000e-002) (147, -1.28380497917532920000e-002) (148, -6.45228698849678040000e-002) (149, 6.09700456261634830000e-002) (150, -4.08778518438339230000e-001) (151, 1.42572065815329550000e-002) (152, -4.00204434990882870000e-002) (153, -1.13441206514835360000e-001) (154, -1.02080881595611570000e-001) (155, -1.14547029137611390000e-001) (156, -1.99788480997085570000e-001) (157, 1.41221154481172560000e-002) (158, -1.40853181481361390000e-001) (159, 5.91983497142791750000e-002) (160, -1.67567715048789980000e-001) (161, -1.58715575933456420000e-001) (162, -1.05685397982597350000e-001) (163, -8.29961970448493960000e-002) (164, -5.49328923225402830000e-002) (165, -1.88470050692558290000e-001) (166, -5.15899285674095150000e-002) (167, 3.44956628978252410000e-002) (168, -1.29009500145912170000e-001) (169, -1.01355835795402530000e-001) (170, 1.18922954425215720000e-002) (171, 7.29612782597541810000e-002) (172, -1.09890758991241460000e-001) (173, -2.63424336910247800000e-001) (174, -4.32625442743301390000e-001) (175, -2.62625694274902340000e-001) (176, -1.53986424207687380000e-001) (177, -1.03457786142826080000e-001) (178, -1.33097961544990540000e-001) (179, -3.36773023009300230000e-002) (180, -8.35625007748603820000e-002) (181, -5.68940602242946620000e-002) (182, -8.43763276934623720000e-002) (183, 8.22371914982795720000e-002) (184, 4.76764887571334840000e-002) (185, -1.18617333471775050000e-001) (186, 2.30501871556043620000e-003) (187, 2.37546917051076890000e-002) (188, -8.16160365939140320000e-002) (189, -5.40114760398864750000e-001) (190, -1.30423098802566530000e-001) (191, -2.49804452061653140000e-001) (192, -9.27214622497558590000e-002) (193, -1.36460065841674800000e-001) (194, 3.12415305525064470000e-002) (195, -1.75740867853164670000e-001) (196, 8.22553634643554690000e-002) (197, -6.22023716568946840000e-002) (198, -1.50872677564620970000e-001) (199, -2.40386538207530980000e-002) (200, -8.23331177234649660000e-002) (201, -2.20395103096961980000e-001) (202, 2.43218056857585910000e-003) (203, -1.97574589401483540000e-002) (204, -2.13562667369842530000e-001) (205, -2.30312496423721310000e-001) (206, -3.29395420849323270000e-002) (207, -4.37636487185955050000e-002) (208, -2.39114299416542050000e-001) (209, -5.71109876036643980000e-002) (210, -1.51066249236464500000e-002) (211, -2.64098439365625380000e-002) (212, 4.32756207883358000000e-002) (213, 4.98992800712585450000e-002) (214, -1.72700509428977970000e-002) (215, -7.47032165527343750000e-002) (216, -9.21607911586761470000e-002) (217, 5.08665814995765690000e-002) (218, -1.28841534256935120000e-001) (219, -9.32111665606498720000e-002) (220, -9.77492332458496090000e-002) (221, -2.40364164113998410000e-001) (222, -3.77931036055088040000e-002) (223, -4.78237196803092960000e-002) (224, 5.06339035928249360000e-002) (225, -8.50550830364227290000e-002) (226, -9.61477980017662050000e-002) (227, -2.82838270068168640000e-002) (228, -6.42387121915817260000e-002) (229, -9.72346737980842590000e-002) (230, -3.57267081737518310000e-001) (231, -1.60430982708930970000e-001) (232, -1.37546271085739140000e-001) (233, -4.06347990036010740000e-001) (234, -3.16640645265579220000e-001) (235, -4.62695360183715820000e-002) (236, -9.65849533677101140000e-002) (237, -1.08587957918643950000e-001) (238, -2.37141162157058720000e-001) (239, -1.23870909214019780000e-001) (240, 7.50612378120422360000e-001) (0, 9.04018878936767580000e-002) (1, 5.96185699105262760000e-002) (2, 1.97527166455984120000e-002) (3, 3.82905490696430210000e-002) (4, 1.42154647037386890000e-002) (5, -6.87999203801155090000e-002) (6, 4.05658408999443050000e-002) (7, -3.06657217442989350000e-002) (8, 5.05129322409629820000e-002) (9, -6.88693895936012270000e-002) (10, -7.37733095884323120000e-002) (11, -1.04598782956600190000e-001) (12, -8.47882032394409180000e-002) (13, -4.00729402899742130000e-002) (14, -6.19891695678234100000e-002) (15, 4.10103760659694670000e-002) (16, -2.97819953411817550000e-002) (17, 2.50049773603677750000e-002) (18, 3.78622300922870640000e-002) (19, 1.57070707064121960000e-003) (20, -4.55798134207725520000e-002) (21, -1.39705212786793710000e-002) (22, 8.75342711806297300000e-002) (23, -4.81860823929309840000e-002) (24, 6.15779086947441100000e-002) (25, -7.26215890608727930000e-004) (26, 1.06343679362908010000e-004) (27, 4.98222447931766510000e-002) (28, 6.03019297122955320000e-002) (29, 4.91764768958091740000e-002) (30, -8.35678279399871830000e-002) (31, 1.01895239204168320000e-002) (32, -4.40542325377464290000e-002) (33, 4.68446314334869380000e-002) (34, -2.67536006867885590000e-002) (35, 2.79715508222579960000e-002) (36, 4.18113395571708680000e-002) (37, -7.90061876177787780000e-002) (38, 5.46961165964603420000e-002) (39, -7.54484906792640690000e-003) (40, 4.84332479536533360000e-002) (41, -3.73441018164157870000e-002) (42, -2.13865023106336590000e-002) (43, -8.44766348600387570000e-002) (44, 7.31642693281173710000e-002) (45, -7.34573155641555790000e-002) (46, 2.78479624539613720000e-002) (47, -6.38229474425315860000e-002) (48, -9.79939699172973630000e-002) (49, 2.59941071271896360000e-002) (50, 6.57795071601867680000e-002) (51, -1.79124213755130770000e-002) (52, 1.26181449741125110000e-002) (53, 3.18404808640480040000e-002) (54, -9.36486423015594480000e-002) (55, -5.58993220329284670000e-002) (56, 3.18568497896194460000e-002) (57, -9.97563973069190980000e-002) (58, 5.87316416203975680000e-002) (59, -5.10386191308498380000e-003) (60, -1.31471063941717150000e-002) (61, -4.56130765378475190000e-002) (62, 5.59457466006278990000e-002) (63, 8.51948633790016170000e-002) (64, -2.62322798371315000000e-002) (65, 7.97633007168769840000e-002) (66, 4.81026135385036470000e-002) (67, -2.37389039248228070000e-002) (68, 1.59348547458648680000e-002) (69, -1.01671457290649410000e-001) (70, -1.01093314588069920000e-001) (71, 2.62814573943614960000e-002) (72, -3.85984443128108980000e-002) (73, 6.31252303719520570000e-002) (74, 2.34645009040832520000e-002) (75, 8.82332026958465580000e-002) (76, -6.58131688833236690000e-002) (77, -8.95612761378288270000e-002) (78, -1.80821225512772800000e-003) (79, -2.15343069285154340000e-002) (80, -1.08615815639495850000e-001) (81, 1.17397187277674670000e-002) (82, 2.13054497726261620000e-003) (83, 2.63913050293922420000e-002) (84, -2.42074262350797650000e-002) (85, 3.45468744635581970000e-002) (86, -2.55653448402881620000e-003) (87, 2.69935484975576400000e-002) (88, 5.32922782003879550000e-002) (89, 3.97825874388217930000e-002) (90, -1.21685126796364780000e-002) (91, -2.29323338717222210000e-002) (92, -3.45302037894725800000e-002) (93, 1.17787560448050500000e-002) (94, 6.49537965655326840000e-002) (95, -8.21160376071929930000e-002) (96, 9.09528434276580810000e-002) (97, -8.65071639418601990000e-002) (98, -3.33670377731323240000e-002) (99, 9.94052886962890630000e-002) (100, -3.75871174037456510000e-002) (101, -4.88716065883636470000e-002) (102, -3.06331785395741460000e-003) (103, 1.50565346702933310000e-002) (104, 1.29308877512812610000e-002) (105, 9.01585966348648070000e-002) (106, 8.81787668913602830000e-003) (107, -6.09125457704067230000e-002) (108, -2.21245754510164260000e-002) (109, -6.34680911898612980000e-002) (110, -2.20855767838656900000e-003) (111, -3.44212502241134640000e-002) (112, -4.24058921635150910000e-003) (113, 8.34717825055122380000e-002) (114, -1.02348208427429200000e-001) (115, -2.59022396057844160000e-002) (116, -6.63852393627166750000e-002) (117, -4.72099743783473970000e-002) (118, 5.03999479115009310000e-002) (119, -7.08636119961738590000e-002) (120, 6.35681971907615660000e-002) (121, -2.53690183162689210000e-002) (122, 2.55050323903560640000e-002) (123, -2.76459325104951860000e-002) (124, -7.69175738096237180000e-002) (125, -8.03563222289085390000e-002) (126, -8.16913470625877380000e-002) (127, -1.06450365856289860000e-002) (128, 4.70583401620388030000e-002) (129, -7.63139128684997560000e-002) (130, -2.61360984295606610000e-002) (131, 1.88918951898813250000e-002) (132, 7.32767507433891300000e-002) (133, -9.99605730175971980000e-002) (134, 6.74847587943077090000e-002) (135, 1.02952346205711360000e-002) (136, -6.11492022871971130000e-002) (137, 5.56567162275314330000e-002) (138, -4.67690192162990570000e-002) (139, -4.92439679801464080000e-002) (140, -4.32963599450886250000e-004) (141, -8.95110797137022020000e-003) (142, -9.28589552640914920000e-002) (143, 1.26419514417648320000e-002) (144, 4.68524508178234100000e-002) (145, -9.40259844064712520000e-002) (146, -8.22462961077690120000e-002) (147, -2.36138282343745230000e-003) (148, 2.60884743183851240000e-002) (149, 2.13468279689550400000e-002) (150, -7.85550754517316820000e-003) (151, -5.55737130343914030000e-002) (152, 1.38173662126064300000e-002) (153, 6.24249912798404690000e-002) (154, -3.65871973335742950000e-002) (155, 9.58673655986785890000e-002) (156, -4.44260276854038240000e-002) (157, 6.51654750108718870000e-002) (158, -9.28389802575111390000e-002) (159, -6.83195132296532390000e-004) (160, -3.08247432112693790000e-002) (161, -4.55780774354934690000e-002) (162, 8.56751501560211180000e-002) (163, 4.37607765197753910000e-002) (164, -5.88296353816986080000e-002) (165, -5.21108843386173250000e-002) (166, 6.16067647933959960000e-002) (167, 8.16745311021804810000e-002) (168, 1.92077625542879100000e-002) (169, 1.93936415016651150000e-002) (170, 5.90079799294471740000e-002) (171, 1.39138083904981610000e-002) (172, -2.64976080507040020000e-002) (173, -6.27423897385597230000e-002) (174, -8.95806849002838130000e-002) (175, -8.30471590161323550000e-002) (176, 8.15056413412094120000e-002) (177, -5.36854937672615050000e-002) (178, 7.42446780204772950000e-002) (179, 6.12915083765983580000e-002) (180, -9.84285175800323490000e-002) (181, 8.14110040664672850000e-002) (182, 9.09739658236503600000e-002) (183, 3.65083254873752590000e-002) (184, 3.19305770099163060000e-002) (185, 4.68505546450614930000e-002) (186, -8.40761363506317140000e-002) (187, -5.43324835598468780000e-002) (188, -6.20267912745475770000e-002) (189, 1.53158809989690780000e-002) (190, -7.92388319969177250000e-002) (191, 6.07041977345943450000e-002) (192, 3.57315945439040660000e-003) (193, -1.87268909066915510000e-002) (194, -2.62004658579826350000e-002) (195, 9.21609550714492800000e-002) (196, 3.34102846682071690000e-002) (197, -8.74339938163757320000e-002) (198, -7.73276109248399730000e-003) (199, -4.27861399948596950000e-002) (200, -5.95144927501678470000e-002) (201, 4.53355861827731130000e-003) (202, 6.96365907788276670000e-002) (203, -9.78839397430419920000e-002) (204, 6.30257353186607360000e-002) (205, 4.10562567412853240000e-002) (206, -3.55477407574653630000e-002) (207, 8.88253189623355870000e-003) (208, -8.69613140821456910000e-002) (209, 1.49786716792732480000e-003) (210, -2.61848494410514830000e-002) (211, 6.43151253461837770000e-002) (212, -4.71399351954460140000e-002) (213, 7.06487447023391720000e-002) (214, -1.83190926909446720000e-002) (215, 5.13834357261657710000e-002) (216, -2.17882022261619570000e-002) (217, -4.49235700070858000000e-002) (218, -3.23468595743179320000e-002) (219, -5.20161353051662450000e-003) (220, -9.85248163342475890000e-002) (221, 4.91464249789714810000e-002) (222, -8.91784504055976870000e-002) (223, -8.44718515872955320000e-002) (224, -9.31652466533705590000e-005) (225, -8.06034654378890990000e-002) (226, -3.62549982964992520000e-002) (227, -5.81433475017547610000e-002) (228, -6.80994763970375060000e-002) (229, 2.42795841768383980000e-003) (230, -9.69527114648371930000e-004) (231, 9.19326096773147580000e-002) (232, 3.71762774884700780000e-002) (233, 4.20436039566993710000e-002) (234, 4.00719456374645230000e-002) (235, -4.46829833090305330000e-002) (236, -4.86833527684211730000e-002) (237, -4.85817268490791320000e-002) (238, -5.61897223815321920000e-003) (239, 7.23719969391822810000e-002) (240, 4.04545627534389500000e-002) (0, 5.96784278750419620000e-002) (1, 6.53562471270561220000e-002) (2, 4.91962023079395290000e-003) (3, -1.09400622546672820000e-001) (4, -7.37918764352798460000e-002) (5, -8.47914144396781920000e-002) (6, -1.12242735922336580000e-001) (7, -5.48772746697068210000e-003) (8, 5.28145842254161830000e-002) (9, -3.63852307200431820000e-002) (10, -8.02218541502952580000e-003) (11, -1.71768888831138610000e-002) (12, 6.06497153639793400000e-002) (13, -5.75126037001609800000e-002) (14, -1.13639198243618010000e-001) (15, -8.85083600878715520000e-002) (16, -1.31071861833333970000e-002) (17, -4.62460629642009740000e-002) (18, -6.40897676348686220000e-002) (19, -2.64681763947010040000e-002) (20, 3.12831662595272060000e-002) (21, 7.60303868446499110000e-004) (22, -9.69075933098793030000e-002) (23, -9.73694920539855960000e-002) (24, -5.37373349070549010000e-002) (25, -1.18737205862998960000e-001) (26, -5.13435080647468570000e-002) (27, -1.93156898021698000000e-002) (28, 3.62120307981967930000e-002) (29, -3.69017012417316440000e-002) (30, 1.17298243567347530000e-002) (31, -7.18159377574920650000e-002) (32, -8.90120565891265870000e-002) (33, -8.74090660363435750000e-003) (34, -6.52561113238334660000e-002) (35, 8.17669962998479600000e-004) (36, -1.03608474135398860000e-001) (37, -3.91511805355548860000e-002) (38, 1.99680272489786150000e-002) (39, -3.33638638257980350000e-002) (40, -1.56558994203805920000e-002) (41, 4.18071150779724120000e-002) (42, -9.58202034235000610000e-002) (43, 4.48365695774555210000e-002) (44, -9.69274863600730900000e-002) (45, 6.21244087815284730000e-002) (46, -3.72808016836643220000e-002) (47, -1.04370407760143280000e-001) (48, 6.02741837501525880000e-002) (49, -9.87901091575622560000e-002) (50, -2.18416806310415270000e-002) (51, -2.34075691550970080000e-002) (52, -1.24611936509609220000e-001) (53, -1.87651775777339940000e-002) (54, -1.13196663558483120000e-001) (55, -3.24866035953164100000e-003) (56, 2.41711959242820740000e-002) (57, -4.39067520201206210000e-002) (58, -4.06917966902256010000e-002) (59, -3.03601678460836410000e-002) (60, -4.80154864490032200000e-002) (61, -2.26898584514856340000e-002) (62, 3.21110934019088750000e-002) (63, 3.86300049722194670000e-002) (64, -6.19083344936370850000e-002) (65, 7.25428313016891480000e-002) (66, -2.06281170248985290000e-002) (67, 2.72108633071184160000e-002) (68, 2.19680424779653550000e-002) (69, -9.08351838588714600000e-002) (70, 4.41575683653354640000e-002) (71, -7.51694515347480770000e-002) (72, -5.69724552333354950000e-002) (73, 4.60122935473918910000e-002) (74, -7.79978046193718910000e-003) (75, -5.65421022474765780000e-002) (76, 6.82940706610679630000e-002) (77, 6.52231946587562560000e-002) (78, -1.06941558420658110000e-001) (79, 1.39049335848540070000e-003) (80, -8.66358634084463120000e-003) (81, 4.62735444307327270000e-002) (82, -4.18457388877868650000e-002) (83, -5.24343512952327730000e-002) (84, -6.25087842345237730000e-002) (85, 4.09425012767314910000e-002) (86, -7.97503441572189330000e-002) (87, 2.77963024564087390000e-003) (88, 2.48183291405439380000e-002) (89, -9.63580161333084110000e-002) (90, 7.13176801800727840000e-002) (91, 2.95460578054189680000e-002) (92, -9.87213850021362300000e-002) (93, -5.61951287090778350000e-002) (94, 3.01702339202165600000e-002) (95, -8.17610025405883790000e-002) (96, -9.64508429169654850000e-002) (97, -1.04238741099834440000e-001) (98, 7.36919045448303220000e-002) (99, 1.54022276401519780000e-002) (100, 2.70018670707941060000e-002) (101, -1.00889243185520170000e-001) (102, -4.57237698137760160000e-002) (103, -9.81596112251281740000e-002) (104, 2.10933014750480650000e-002) (105, -4.32840809226036070000e-002) (106, -3.50074060261249540000e-002) (107, -1.94732211530208590000e-002) (108, 3.82467620074748990000e-002) (109, -3.82864265702664850000e-004) (110, -6.41160830855369570000e-002) (111, -1.19622461497783660000e-001) (112, -1.09507210552692410000e-001) (113, -6.48730471730232240000e-002) (114, -4.94063831865787510000e-003) (115, -4.53157201409339900000e-002) (116, 4.79519553482532500000e-002) (117, 1.19315031915903090000e-002) (118, -8.67400616407394410000e-002) (119, 8.87413788586854930000e-003) (120, -5.06493970751762390000e-002) (121, -3.43387899920344350000e-003) (122, 2.09147147834300990000e-002) (123, 1.26234050840139390000e-002) (124, -1.15185216069221500000e-001) (125, 3.82572412490844730000e-002) (126, 5.95633536577224730000e-002) (127, -1.18510283529758450000e-001) (128, 2.19162572175264360000e-002) (129, -4.22582030296325680000e-002) (130, -2.35291346907615660000e-002) (131, -5.25751104578375820000e-003) (132, -9.61313545703887940000e-002) (133, -6.81253895163536070000e-002) (134, -4.59020398557186130000e-002) (135, 4.64312499389052390000e-003) (136, -2.54460535943508150000e-002) (137, 5.45547120273113250000e-002) (138, 6.50955811142921450000e-002) (139, 6.08592294156551360000e-002) (140, 4.96508590877056120000e-002) (141, 2.36280218814499680000e-004) (142, 6.52901306748390200000e-002) (143, -8.80513414740562440000e-002) (144, 1.49904424324631690000e-002) (145, 2.04964671283960340000e-002) (146, -5.07517643272876740000e-002) (147, 2.34349025413393970000e-003) (148, 6.70029446482658390000e-002) (149, 1.38848414644598960000e-002) (150, -4.19788211584091190000e-002) (151, -6.99897035956382750000e-002) (152, -8.23251157999038700000e-002) (153, -3.27518284320831300000e-002) (154, -5.00388704240322110000e-002) (155, 2.22502592951059340000e-002) (156, 1.28604257479310040000e-002) (157, 2.80270613729953770000e-002) (158, -2.44654137641191480000e-002) (159, -1.03555181995034220000e-002) (160, 1.51508208364248280000e-002) (161, -1.61804240196943280000e-002) (162, 5.67736215889453890000e-002) (163, 5.83882406353950500000e-002) (164, 5.16546666622161870000e-002) (165, -4.16739657521247860000e-002) (166, -1.08303250744938850000e-002) (167, -8.43826830387115480000e-002) (168, 6.26792162656784060000e-002) (169, 6.01821281015872960000e-002) (170, -1.07721760869026180000e-001) (171, 3.15293967723846440000e-002) (172, -1.24741800129413600000e-001) (173, -1.32948741316795350000e-001) (174, -7.99745172262191770000e-002) (175, -1.29131793975830080000e-001) (176, -7.95748829841613770000e-003) (177, 3.19615169428288940000e-003) (178, -2.79916226863861080000e-002) (179, -3.32713983952999110000e-002) (180, 5.01451939344406130000e-002) (181, -4.04753535985946660000e-003) (182, -2.52245198935270310000e-002) (183, 5.78515604138374330000e-002) (184, -4.45967391133308410000e-002) (185, -1.08086034655570980000e-001) (186, -2.34535988420248030000e-002) (187, -1.06192618608474730000e-001) (188, 1.49947106838226320000e-002) (189, -7.51634174957871440000e-003) (190, -1.36462569236755370000e-001) (191, -1.23261995613574980000e-001) (192, 2.06274073570966720000e-002) (193, -1.22548475861549380000e-001) (194, -1.10096506774425510000e-001) (195, 3.21602299809455870000e-002) (196, -2.59444639086723330000e-002) (197, 9.07461531460285190000e-003) (198, -8.18077176809310910000e-002) (199, 1.79465617984533310000e-002) (200, -6.20790459215641020000e-002) (201, 3.86590249836444850000e-002) (202, 3.17824818193912510000e-003) (203, -9.26174446940422060000e-002) (204, -1.01813100278377530000e-001) (205, -1.29663627594709400000e-002) (206, -7.35656023025512700000e-002) (207, 3.72177101671695710000e-002) (208, -9.27942767739295960000e-002) (209, 4.81738336384296420000e-002) (210, -8.54059904813766480000e-002) (211, 5.60962818562984470000e-002) (212, -5.66410869359970090000e-002) (213, -1.24294072389602660000e-001) (214, 5.66349327564239500000e-002) (215, -2.07040850073099140000e-002) (216, -3.67560759186744690000e-002) (217, 7.49612003564834590000e-002) (218, -4.13251966238021850000e-002) (219, -7.32175335288047790000e-002) (220, -1.00305199623107910000e-001) (221, -3.36679853498935700000e-002) (222, 6.34638518095016480000e-002) (223, -1.12883662804961200000e-002) (224, -4.15600724518299100000e-002) (225, -5.22862188518047330000e-002) (226, 4.13786396384239200000e-002) (227, 1.82343404740095140000e-002) (228, -3.87156545184552670000e-003) (229, -1.91944260150194170000e-002) (230, -6.30378276109695430000e-002) (231, -9.24485251307487490000e-002) (232, 3.73888164758682250000e-002) (233, -5.00120595097541810000e-002) (234, 2.52683404833078380000e-002) (235, -1.12657286226749420000e-002) (236, -3.45291793346405030000e-002) (237, -1.51671878993511200000e-002) (238, 2.79314164072275160000e-002) (239, 2.07644868642091750000e-002) (240, -1.34299755096435550000e-001) (0, -6.09678737819194790000e-002) (1, 1.58881619572639470000e-002) (2, -1.56434416770935060000e-001) (3, -9.71791148185729980000e-002) (4, -1.50090128183364870000e-001) (5, 2.50948313623666760000e-002) (6, 8.54085832834243770000e-002) (7, 9.93856266140937810000e-002) (8, -1.08270728588104250000e+000) (9, 2.71948520094156270000e-002) (10, -1.49917513132095340000e-001) (11, -4.95867757126688960000e-003) (12, -5.52911199629306790000e-002) (13, 2.02562976628541950000e-002) (14, -4.98513877391815190000e-002) (15, 1.49002656340599060000e-001) (16, -5.25103807449340820000e-002) (17, 5.73493465781211850000e-002) (18, 2.87844389677047730000e-002) (19, -2.13666465133428570000e-002) (20, -3.80623303353786470000e-002) (21, 1.70489817857742310000e-001) (22, 1.30879744887351990000e-001) (23, -1.28339290618896480000e-001) (24, 7.74376392364501950000e-002) (25, 9.05165728181600570000e-003) (26, 5.13365678489208220000e-002) (27, -6.55093416571617130000e-002) (28, -1.86901330016553400000e-003) (29, 1.20993405580520630000e-002) (30, -3.44521999359130860000e-002) (31, -7.74746015667915340000e-002) (32, 2.22132615745067600000e-002) (33, 8.61635506153106690000e-002) (34, 7.83344805240631100000e-002) (35, 3.10109164565801620000e-002) (36, 1.07738971710205080000e-001) (37, -8.49740654230117800000e-002) (38, -2.30232432484626770000e-001) (39, -1.10418364405632020000e-001) (40, -1.93562388420104980000e-001) (41, -9.56737771630287170000e-002) (42, 4.31458726525306700000e-002) (43, -2.53909491002559660000e-002) (44, -8.40948820114135740000e-002) (45, -7.19421356916427610000e-002) (46, 3.19897979497909550000e-002) (47, -7.56245180964469910000e-002) (48, -1.23239293694496150000e-001) (49, -2.18483451753854750000e-002) (50, -2.10468009114265440000e-001) (51, -3.07811666280031200000e-002) (52, 1.82297583669424060000e-002) (53, 2.39316392689943310000e-002) (54, -2.43089944124221800000e-002) (55, -6.90898820757865910000e-002) (56, -1.42930960282683370000e-003) (57, -1.29750184714794160000e-003) (58, -9.90198552608489990000e-002) (59, -2.78125584125518800000e-001) (60, -8.28650519251823430000e-002) (61, -7.22087249159812930000e-002) (62, -1.17756515741348270000e-001) (63, -6.21064379811286930000e-002) (64, 4.41691465675830840000e-002) (65, 2.72002257406711580000e-002) (66, -9.19359028339385990000e-002) (67, -5.06238564848899840000e-002) (68, -9.06614884734153750000e-002) (69, 6.46036043763160710000e-002) (70, -1.76125645637512210000e-001) (71, -8.59704315662384030000e-002) (72, -5.30029498040676120000e-002) (73, 9.35272499918937680000e-002) (74, -2.63399928808212280000e-002) (75, -1.22137732803821560000e-001) (76, -6.13356471061706540000e-001) (77, -7.05029740929603580000e-002) (78, -1.15340910851955410000e-001) (79, -2.69162207841873170000e-001) (80, -1.48130044341087340000e-001) (81, -9.40119754523038860000e-003) (82, -2.48334184288978580000e-002) (83, 2.69069820642471310000e-002) (84, -1.56012102961540220000e-002) (85, -1.73506408929824830000e-001) (86, -5.67588955163955690000e-002) (87, -5.77112287282943730000e-002) (88, 2.02782521955668930000e-003) (89, -8.70846444740891460000e-004) (90, 4.41017821431159970000e-002) (91, 2.51395463943481450000e-001) (92, -1.67811531573534010000e-002) (93, -8.05798321962356570000e-002) (94, 2.64732763171195980000e-002) (95, 6.51448220014572140000e-003) (96, -7.74182304739952090000e-002) (97, 1.74230799078941350000e-001) (98, -7.50041306018829350000e-002) (99, 4.77086752653121950000e-002) (100, -4.66569252312183380000e-002) (101, 4.16329205036163330000e-002) (102, -4.58580888807773590000e-002) (103, -3.00076436251401900000e-002) (104, -4.93471585214138030000e-002) (105, -6.50699287652969360000e-002) (106, -3.86509634554386140000e-002) (107, 5.70653155446052550000e-002) (108, -9.91816073656082150000e-002) (109, 3.99132594466209410000e-002) (110, 5.43136745691299440000e-002) (111, -6.92754015326499940000e-002) (112, -1.24449953436851500000e-001) (113, 9.85313579440116880000e-002) (114, -8.51362198591232300000e-002) (115, 9.48588773608207700000e-002) (116, -2.13296599686145780000e-002) (117, 8.88324826955795290000e-002) (118, 5.27435541152954100000e-002) (119, -1.16575481370091440000e-002) (120, 9.82090234756469730000e-002) (121, -6.89301565289497380000e-002) (122, 6.15475922822952270000e-002) (123, -4.37001734972000120000e-002) (124, 4.93378266692161560000e-002) (125, -2.89630033075809480000e-002) (126, 1.30730047821998600000e-001) (127, 1.11233526840806010000e-002) (128, -7.62739218771457670000e-004) (129, 4.93888892233371730000e-002) (130, 4.80358954519033430000e-003) (131, 5.94442412257194520000e-002) (132, -2.28707827627658840000e-002) (133, 9.04797948896884920000e-003) (134, -2.19877362251281740000e-002) (135, -4.77849468588829040000e-002) (136, 2.78502460569143300000e-002) (137, -6.87523037195205690000e-002) (138, 3.51926647126674650000e-002) (139, 1.71429142355918880000e-001) (140, 1.21411541476845740000e-002) (141, 9.18444395065307620000e-002) (142, -1.01663663983345030000e-001) (143, -6.92931264638900760000e-002) (144, -1.77066735923290250000e-002) (145, -5.40991351008415220000e-002) (146, -1.43564948812127110000e-002) (147, 5.17658479511737820000e-002) (148, -8.40823426842689510000e-002) (149, -1.22146464884281160000e-001) (150, 8.20964574813842770000e-002) (151, 7.76816233992576600000e-002) (152, 1.33331436663866040000e-002) (153, 1.00413784384727480000e-001) (154, -9.16247293353080750000e-002) (155, 4.74245250225067140000e-002) (156, 5.86259402334690090000e-002) (157, -6.91904723644256590000e-002) (158, 1.59078627824783330000e-001) (159, 3.68885211646556850000e-002) (160, 1.18799405172467230000e-002) (161, 1.18506938219070430000e-001) (162, -4.41419007256627080000e-003) (163, 1.99968200176954270000e-002) (164, 1.46885961294174190000e-001) (165, 1.54217764735221860000e-001) (166, -1.53976798057556150000e-001) (167, -1.11918754875659940000e-001) (168, 5.15455827116966250000e-002) (169, 1.96900255978107450000e-002) (170, -2.33031027019023900000e-002) (171, 9.35976564884185790000e-001) (172, 4.86573465168476100000e-002) (173, 8.67859125137329100000e-002) (174, 1.66756778955459590000e-001) (175, -1.31788346916437150000e-002) (176, 3.19331735372543330000e-002) (177, 4.11369502544403080000e-002) (178, 5.26056215167045590000e-002) (179, -4.63577359914779660000e-002) (180, -1.14387519657611850000e-001) (181, 7.45657607913017270000e-002) (182, 6.37202486395835880000e-002) (183, 5.37335462868213650000e-002) (184, 7.13505670428276060000e-002) (185, -3.82141359150409700000e-002) (186, 1.56771554611623290000e-003) (187, 1.23084403574466710000e-001) (188, -8.95935595035552980000e-002) (189, 7.67755880951881410000e-002) (190, 8.12445282936096190000e-002) (191, 1.08632355928421020000e-001) (192, 7.44693279266357420000e-002) (193, 9.03309062123298650000e-002) (194, 1.01724684238433840000e-001) (195, 3.99948321282863620000e-002) (196, -9.88330319523811340000e-002) (197, -9.64828729629516600000e-002) (198, -3.65679375827312470000e-002) (199, -7.33144283294677730000e-002) (200, -1.73759851604700090000e-002) (201, 8.06376636028289790000e-002) (202, -3.83077524602413180000e-002) (203, 2.80215889215469360000e-002) (204, 1.60635218024253850000e-001) (205, 7.17652291059494020000e-002) (206, 1.34786088019609450000e-002) (207, 6.97785019874572750000e-002) (208, 1.31769180297851560000e-001) (209, -1.29091264680027960000e-002) (210, 9.92576777935028080000e-003) (211, 2.20691010355949400000e-001) (212, -1.27070784568786620000e-001) (213, 7.03295692801475520000e-002) (214, -1.51801869273185730000e-001) (215, -1.33549228310585020000e-001) (216, -7.62533918023109440000e-002) (217, 3.58412191271781920000e-002) (218, 4.02882136404514310000e-003) (219, 1.63837239146232600000e-001) (220, -7.51789063215255740000e-002) (221, 8.53020884096622470000e-003) (222, -1.83556936681270600000e-002) (223, -1.77353760227561000000e-003) (224, -6.92109540104866030000e-002) (225, -6.63038417696952820000e-002) (226, 3.45657090656459330000e-003) (227, -2.20740273594856260000e-001) (228, 7.61974006891250610000e-002) (229, -1.56091097742319110000e-002) (230, -1.44057227298617360000e-002) (231, 2.71320343017578130000e-002) (232, 8.83517786860466000000e-002) (233, 4.43530529737472530000e-002) (234, 5.69424629211425780000e-001) (235, -2.14148890227079390000e-002) (236, -9.40279066562652590000e-002) (237, -3.86486165225505830000e-002) (238, 1.14738218486309050000e-001) (239, 5.99828138947486880000e-002) (240, 1.03786438703536990000e-001) (241, 6.08926787972450260000e-002) (242, 8.31860303878784180000e-002) (243, 1.69788211584091190000e-001) (244, 4.09402728080749510000e-001) (245, 1.89076018333435060000e+000) (246, 4.46645356714725490000e-002) (247, 1.55641093850135800000e-001) (248, -6.98838412761688230000e-001) (249, 2.71578699350357060000e-001) (241, 2.04647123813629150000e-001) (242, 2.01521247625350950000e-001) (243, -2.93724775314331050000e-001) (244, -2.36301720142364500000e-001) (245, -2.41271376609802250000e+000) (246, 2.53979295492172240000e-001) (247, -1.52068510651588440000e-001) (248, 9.82022583484649660000e-001) (249, 3.87948811054229740000e-001) 
