FANN_FLO_2.1
num_layers=3
learning_rate=0.700000
connection_rate=1.000000
network_type=0
learning_momentum=0.000000
training_algorithm=3
train_error_function=1
train_stop_function=0
cascade_output_change_fraction=0.010000
quickprop_decay=-0.000100
quickprop_mu=1.750000
rprop_increase_factor=1.200000
rprop_decrease_factor=0.500000
rprop_delta_min=0.000000
rprop_delta_max=50.000000
rprop_delta_zero=0.100000
cascade_output_stagnation_epochs=12
cascade_candidate_change_fraction=0.010000
cascade_candidate_stagnation_epochs=12
cascade_max_out_epochs=150
cascade_max_cand_epochs=150
cascade_num_candidate_groups=2
bit_fail_limit=3.49999994039535520000e-001
cascade_candidate_limit=1.00000000000000000000e+003
cascade_weight_multiplier=4.00000005960464480000e-001
cascade_activation_functions_count=10
cascade_activation_functions=3 5 7 8 10 11 14 15 16 17 
cascade_activation_steepnesses_count=4
cascade_activation_steepnesses=2.50000000000000000000e-001 5.00000000000000000000e-001 7.50000000000000000000e-001 1.00000000000000000000e+000 
layer_sizes=241 9 3 
scale_included=0
neurons (num_inputs, activation_function, activation_steepness)=(0, 0, 0.00000000000000000000e+000) (0, 0, 0.00000000000000000000e+000) (0, 0, 0.00000000000000000000e+000) (0, 0, 0.00000000000000000000e+000) (0, 0, 0.00000000000000000000e+000) (0, 0, 0.00000000000000000000e+000) (0, 0, 0.00000000000000000000e+000) (0, 0, 0.00000000000000000000e+000) (0, 0, 0.00000000000000000000e+000) (0, 0, 0.00000000000000000000e+000) (0, 0, 0.00000000000000000000e+000) (0, 0, 0.00000000000000000000e+000) (0, 0, 0.00000000000000000000e+000) (0, 0, 0.00000000000000000000e+000) (0, 0, 0.00000000000000000000e+000) (0, 0, 0.00000000000000000000e+000) (0, 0, 0.00000000000000000000e+000) (0, 0, 0.00000000000000000000e+000) (0, 0, 0.00000000000000000000e+000) (0, 0, 0.00000000000000000000e+000) (0, 0, 0.00000000000000000000e+000) (0, 0, 0.00000000000000000000e+000) (0, 0, 0.00000000000000000000e+000) (0, 0, 0.00000000000000000000e+000) (0, 0, 0.00000000000000000000e+000) (0, 0, 0.00000000000000000000e+000) (0, 0, 0.00000000000000000000e+000) (0, 0, 0.00000000000000000000e+000) (0, 0, 0.00000000000000000000e+000) (0, 0, 0.00000000000000000000e+000) (0, 0, 0.00000000000000000000e+000) (0, 0, 0.00000000000000000000e+000) (0, 0, 0.00000000000000000000e+000) (0, 0, 0.00000000000000000000e+000) (0, 0, 0.00000000000000000000e+000) (0, 0, 0.00000000000000000000e+000) (0, 0, 0.00000000000000000000e+000) (0, 0, 0.00000000000000000000e+000) (0, 0, 0.00000000000000000000e+000) (0, 0, 0.00000000000000000000e+000) (0, 0, 0.00000000000000000000e+000) (0, 0, 0.00000000000000000000e+000) (0, 0, 0.00000000000000000000e+000) (0, 0, 0.00000000000000000000e+000) (0, 0, 0.00000000000000000000e+000) (0, 0, 0.00000000000000000000e+000) (0, 0, 0.00000000000000000000e+000) (0, 0, 0.00000000000000000000e+000) (0, 0, 0.00000000000000000000e+000) (0, 0, 0.00000000000000000000e+000) (0, 0, 0.00000000000000000000e+000) (0, 0, 0.00000000000000000000e+000) (0, 0, 0.00000000000000000000e+000) (0, 0, 0.00000000000000000000e+000) (0, 0, 0.00000000000000000000e+000) (0, 0, 0.00000000000000000000e+000) (0, 0, 0.00000000000000000000e+000) (0, 0, 0.00000000000000000000e+000) (0, 0, 0.00000000000000000000e+000) (0, 0, 0.00000000000000000000e+000) (0, 0, 0.00000000000000000000e+000) (0, 0, 0.00000000000000000000e+000) (0, 0, 0.00000000000000000000e+000) (0, 0, 0.00000000000000000000e+000) (0, 0, 0.00000000000000000000e+000) (0, 0, 0.00000000000000000000e+000) (0, 0, 0.00000000000000000000e+000) (0, 0, 0.00000000000000000000e+000) (0, 0, 0.00000000000000000000e+000) (0, 0, 0.00000000000000000000e+000) (0, 0, 0.00000000000000000000e+000) (0, 0, 0.00000000000000000000e+000) (0, 0, 0.00000000000000000000e+000) (0, 0, 0.00000000000000000000e+000) (0, 0, 0.00000000000000000000e+000) (0, 0, 0.00000000000000000000e+000) (0, 0, 0.00000000000000000000e+000) (0, 0, 0.00000000000000000000e+000) (0, 0, 0.00000000000000000000e+000) (0, 0, 0.00000000000000000000e+000) (0, 0, 0.00000000000000000000e+000) (0, 0, 0.00000000000000000000e+000) (0, 0, 0.00000000000000000000e+000) (0, 0, 0.00000000000000000000e+000) (0, 0, 0.00000000000000000000e+000) (0, 0, 0.00000000000000000000e+000) (0, 0, 0.00000000000000000000e+000) (0, 0, 0.00000000000000000000e+000) (0, 0, 0.00000000000000000000e+000) (0, 0, 0.00000000000000000000e+000) (0, 0, 0.00000000000000000000e+000) (0, 0, 0.00000000000000000000e+000) (0, 0, 0.00000000000000000000e+000) (0, 0, 0.00000000000000000000e+000) (0, 0, 0.00000000000000000000e+000) (0, 0, 0.00000000000000000000e+000) (0, 0, 0.00000000000000000000e+000) (0, 0, 0.00000000000000000000e+000) (0, 0, 0.00000000000000000000e+000) (0, 0, 0.00000000000000000000e+000) (0, 0, 0.00000000000000000000e+000) (0, 0, 0.00000000000000000000e+000) (0, 0, 0.00000000000000000000e+000) (0, 0, 0.00000000000000000000e+000) (0, 0, 0.00000000000000000000e+000) (0, 0, 0.00000000000000000000e+000) (0, 0, 0.00000000000000000000e+000) (0, 0, 0.00000000000000000000e+000) (0, 0, 0.00000000000000000000e+000) (0, 0, 0.00000000000000000000e+000) (0, 0, 0.00000000000000000000e+000) (0, 0, 0.00000000000000000000e+000) (0, 0, 0.00000000000000000000e+000) (0, 0, 0.00000000000000000000e+000) (0, 0, 0.00000000000000000000e+000) (0, 0, 0.00000000000000000000e+000) (0, 0, 0.00000000000000000000e+000) (0, 0, 0.00000000000000000000e+000) (0, 0, 0.00000000000000000000e+000) (0, 0, 0.00000000000000000000e+000) (0, 0, 0.00000000000000000000e+000) (0, 0, 0.00000000000000000000e+000) (0, 0, 0.00000000000000000000e+000) (0, 0, 0.00000000000000000000e+000) (0, 0, 0.00000000000000000000e+000) (0, 0, 0.00000000000000000000e+000) (0, 0, 0.00000000000000000000e+000) (0, 0, 0.00000000000000000000e+000) (0, 0, 0.00000000000000000000e+000) (0, 0, 0.00000000000000000000e+000) (0, 0, 0.00000000000000000000e+000) (0, 0, 0.00000000000000000000e+000) (0, 0, 0.00000000000000000000e+000) (0, 0, 0.00000000000000000000e+000) (0, 0, 0.00000000000000000000e+000) (0, 0, 0.00000000000000000000e+000) (0, 0, 0.00000000000000000000e+000) (0, 0, 0.00000000000000000000e+000) (0, 0, 0.00000000000000000000e+000) (0, 0, 0.00000000000000000000e+000) (0, 0, 0.00000000000000000000e+000) (0, 0, 0.00000000000000000000e+000) (0, 0, 0.00000000000000000000e+000) (0, 0, 0.00000000000000000000e+000) (0, 0, 0.00000000000000000000e+000) (0, 0, 0.00000000000000000000e+000) (0, 0, 0.00000000000000000000e+000) (0, 0, 0.00000000000000000000e+000) (0, 0, 0.00000000000000000000e+000) (0, 0, 0.00000000000000000000e+000) (0, 0, 0.00000000000000000000e+000) (0, 0, 0.00000000000000000000e+000) (0, 0, 0.00000000000000000000e+000) (0, 0, 0.00000000000000000000e+000) (0, 0, 0.00000000000000000000e+000) (0, 0, 0.00000000000000000000e+000) (0, 0, 0.00000000000000000000e+000) (0, 0, 0.00000000000000000000e+000) (0, 0, 0.00000000000000000000e+000) (0, 0, 0.00000000000000000000e+000) (0, 0, 0.00000000000000000000e+000) (0, 0, 0.00000000000000000000e+000) (0, 0, 0.00000000000000000000e+000) (0, 0, 0.00000000000000000000e+000) (0, 0, 0.00000000000000000000e+000) (0, 0, 0.00000000000000000000e+000) (0, 0, 0.00000000000000000000e+000) (0, 0, 0.00000000000000000000e+000) (0, 0, 0.00000000000000000000e+000) (0, 0, 0.00000000000000000000e+000) (0, 0, 0.00000000000000000000e+000) (0, 0, 0.00000000000000000000e+000) (0, 0, 0.00000000000000000000e+000) (0, 0, 0.00000000000000000000e+000) (0, 0, 0.00000000000000000000e+000) (0, 0, 0.00000000000000000000e+000) (0, 0, 0.00000000000000000000e+000) (0, 0, 0.00000000000000000000e+000) (0, 0, 0.00000000000000000000e+000) (0, 0, 0.00000000000000000000e+000) (0, 0, 0.00000000000000000000e+000) (0, 0, 0.00000000000000000000e+000) (0, 0, 0.00000000000000000000e+000) (0, 0, 0.00000000000000000000e+000) (0, 0, 0.00000000000000000000e+000) (0, 0, 0.00000000000000000000e+000) (0, 0, 0.00000000000000000000e+000) (0, 0, 0.00000000000000000000e+000) (0, 0, 0.00000000000000000000e+000) (0, 0, 0.00000000000000000000e+000) (0, 0, 0.00000000000000000000e+000) (0, 0, 0.00000000000000000000e+000) (0, 0, 0.00000000000000000000e+000) (0, 0, 0.00000000000000000000e+000) (0, 0, 0.00000000000000000000e+000) (0, 0, 0.00000000000000000000e+000) (0, 0, 0.00000000000000000000e+000) (0, 0, 0.00000000000000000000e+000) (0, 0, 0.00000000000000000000e+000) (0, 0, 0.00000000000000000000e+000) (0, 0, 0.00000000000000000000e+000) (0, 0, 0.00000000000000000000e+000) (0, 0, 0.00000000000000000000e+000) (0, 0, 0.00000000000000000000e+000) (0, 0, 0.00000000000000000000e+000) (0, 0, 0.00000000000000000000e+000) (0, 0, 0.00000000000000000000e+000) (0, 0, 0.00000000000000000000e+000) (0, 0, 0.00000000000000000000e+000) (0, 0, 0.00000000000000000000e+000) (0, 0, 0.00000000000000000000e+000) (0, 0, 0.00000000000000000000e+000) (0, 0, 0.00000000000000000000e+000) (0, 0, 0.00000000000000000000e+000) (0, 0, 0.00000000000000000000e+000) (0, 0, 0.00000000000000000000e+000) (0, 0, 0.00000000000000000000e+000) (0, 0, 0.00000000000000000000e+000) (0, 0, 0.00000000000000000000e+000) (0, 0, 0.00000000000000000000e+000) (0, 0, 0.00000000000000000000e+000) (0, 0, 0.00000000000000000000e+000) (0, 0, 0.00000000000000000000e+000) (0, 0, 0.00000000000000000000e+000) (0, 0, 0.00000000000000000000e+000) (0, 0, 0.00000000000000000000e+000) (0, 0, 0.00000000000000000000e+000) (0, 0, 0.00000000000000000000e+000) (0, 0, 0.00000000000000000000e+000) (0, 0, 0.00000000000000000000e+000) (0, 0, 0.00000000000000000000e+000) (0, 0, 0.00000000000000000000e+000) (0, 0, 0.00000000000000000000e+000) (0, 0, 0.00000000000000000000e+000) (0, 0, 0.00000000000000000000e+000) (0, 0, 0.00000000000000000000e+000) (0, 0, 0.00000000000000000000e+000) (0, 0, 0.00000000000000000000e+000) (0, 0, 0.00000000000000000000e+000) (0, 0, 0.00000000000000000000e+000) (0, 0, 0.00000000000000000000e+000) (241, 4, 1.10000002384185790000e+000) (241, 4, 1.10000002384185790000e+000) (241, 4, 1.10000002384185790000e+000) (241, 4, 1.10000002384185790000e+000) (241, 4, 1.10000002384185790000e+000) (241, 4, 1.10000002384185790000e+000) (241, 4, 1.10000002384185790000e+000) (241, 4, 1.10000002384185790000e+000) (0, 4, 1.10000002384185790000e+000) (9, 5, 1.00000000000000000000e+000) (9, 5, 1.00000000000000000000e+000) (0, 5, 1.00000000000000000000e+000) 
connections (connected_to_neuron, weight)=(0, 7.41670280694961550000e-002) (1, 3.88982184231281280000e-002) (2, -8.14700573682785030000e-002) (3, 1.01670725271105770000e-002) (4, 8.99452641606330870000e-002) (5, 5.10831251740455630000e-002) (6, 3.52362245321273800000e-002) (7, 4.29208390414714810000e-002) (8, 2.45849285274744030000e-002) (9, -1.01210057735443120000e-001) (10, -2.07012658938765530000e-003) (11, 5.70985935628414150000e-002) (12, -4.75949086248874660000e-002) (13, -2.03829724341630940000e-002) (14, 6.27545714378356930000e-002) (15, -1.75763722509145740000e-002) (16, -8.26601609587669370000e-002) (17, -3.64532172679901120000e-002) (18, -7.77160003781318660000e-002) (19, -1.03682890534400940000e-001) (20, 3.54321449995040890000e-002) (21, -1.21148852631449700000e-002) (22, 2.71973554044961930000e-002) (23, -5.50276599824428560000e-003) (24, 4.44605201482772830000e-002) (25, 2.44532749056816100000e-002) (26, 7.55359046161174770000e-003) (27, 9.42182261496782300000e-003) (28, -4.63409833610057830000e-002) (29, 6.23427294194698330000e-002) (30, -2.27909367531538010000e-002) (31, 7.61841386556625370000e-002) (32, 5.48461452126502990000e-002) (33, -6.60644546151161190000e-002) (34, -2.34647244215011600000e-002) (35, -2.35204701311886310000e-003) (36, 7.53808319568634030000e-002) (37, 2.50895675271749500000e-002) (38, 9.05163064599037170000e-002) (39, -6.39809668064117430000e-002) (40, 4.15316186845302580000e-002) (41, -6.50635138154029850000e-002) (42, 4.78821806609630580000e-002) (43, -9.23448875546455380000e-002) (44, 3.66647876799106600000e-002) (45, -5.98911307752132420000e-002) (46, 9.96655598282814030000e-002) (47, 1.18361622095108030000e-001) (48, 1.70174315571784970000e-002) (49, -9.53035950660705570000e-002) (50, -1.15544185042381290000e-001) (51, 6.27022832632064820000e-002) (52, 7.21352994441986080000e-002) (53, 9.48348119854927060000e-002) (54, 6.15904927253723140000e-002) (55, 2.99587398767471310000e-002) (56, -1.29465078935027120000e-002) (57, 1.44633734598755840000e-002) (58, 4.18840646743774410000e-002) (59, 9.43410098552703860000e-002) (60, -2.70214620977640150000e-002) (61, -5.66333206370472910000e-003) (62, 8.52780882269144060000e-003) (63, -1.65434684604406360000e-002) (64, 3.04649323225021360000e-002) (65, -2.26668585091829300000e-002) (66, 1.11176762729883190000e-002) (67, 1.30520612001419070000e-001) (68, -2.86486633121967320000e-002) (69, -9.35255829244852070000e-003) (70, -1.33375138044357300000e-001) (71, 3.49914096295833590000e-002) (72, -2.32902797870337960000e-003) (73, 5.49106933176517490000e-002) (74, -5.91092519462108610000e-002) (75, -9.50504094362258910000e-003) (76, 5.38831539452075960000e-002) (77, 1.32753909565508370000e-003) (78, -1.65494086104445160000e-004) (79, -5.89720681309700010000e-002) (80, 6.16398267447948460000e-002) (81, 1.05874635279178620000e-001) (82, 7.66044482588768010000e-002) (83, 1.17151446640491490000e-001) (84, 2.75408942252397540000e-002) (85, -4.20091003179550170000e-002) (86, -4.70473878085613250000e-002) (87, -1.12678207457065580000e-001) (88, 8.11152458190917970000e-002) (89, -4.46780882775783540000e-002) (90, -2.43002176284790040000e-002) (91, 5.98412714898586270000e-002) (92, 5.66742606461048130000e-002) (93, -4.10877391695976260000e-002) (94, -6.50396570563316350000e-002) (95, -1.11805535852909090000e-002) (96, -2.20677629113197330000e-002) (97, -3.24162580072879790000e-002) (98, -2.79290024191141130000e-002) (99, -2.96204369515180590000e-002) (100, 1.11849019303917880000e-002) (101, 8.46526324748992920000e-002) (102, -1.00779384374618530000e-001) (103, -4.31001298129558560000e-002) (104, -8.96908566355705260000e-002) (105, -6.14427104592323300000e-002) (106, 7.44500085711479190000e-002) (107, -7.68607854843139650000e-002) (108, 1.12278945744037630000e-002) (109, 1.69781222939491270000e-002) (110, 3.90461795032024380000e-002) (111, -3.98607812821865080000e-002) (112, -2.14929524809122090000e-002) (113, -1.79367646574974060000e-001) (114, 5.30164130032062530000e-002) (115, -1.52933485805988310000e-002) (116, -1.05583451688289640000e-001) (117, 5.36249764263629910000e-002) (118, -9.60745736956596370000e-002) (119, -1.00555062294006350000e-001) (120, 2.44174469262361530000e-002) (121, 9.53390747308731080000e-002) (122, -3.00392601639032360000e-003) (123, 4.07569929957389830000e-002) (124, 4.71698269248008730000e-002) (125, -3.09403836727142330000e-002) (126, -2.34246999025344850000e-002) (127, -8.87149721384048460000e-002) (128, 3.48612549714744090000e-003) (129, -7.30076655745506290000e-002) (130, -1.81362219154834750000e-002) (131, 1.42938997596502300000e-002) (132, 1.86394422780722380000e-003) (133, -3.94610799849033360000e-002) (134, -8.00030156970024110000e-002) (135, -5.42713236063718800000e-003) (136, -6.80643320083618160000e-002) (137, -1.00600935518741610000e-001) (138, -1.54308220371603970000e-002) (139, 3.80802080035209660000e-002) (140, -1.20175331830978390000e-002) (141, -6.32817596197128300000e-002) (142, 8.55027958750724790000e-002) (143, 4.56227548420429230000e-003) (144, 8.23627486824989320000e-002) (145, 1.03781506419181820000e-001) (146, -1.46884992718696590000e-001) (147, -2.15466450899839400000e-002) (148, 3.70023287832736970000e-002) (149, 1.15159265697002410000e-002) (150, -1.03849776089191440000e-001) (151, 2.25349441170692440000e-002) (152, 7.49843269586563110000e-002) (153, 9.29363220930099490000e-002) (154, 9.85567718744277950000e-002) (155, -2.08420027047395710000e-002) (156, -9.31419953703880310000e-002) (157, 1.45923960953950880000e-002) (158, 1.00687421858310700000e-001) (159, 5.31523488461971280000e-002) (160, -1.15912936627864840000e-001) (161, -5.33171147108078000000e-002) (162, 1.25394929200410840000e-002) (163, -5.94037882983684540000e-002) (164, 3.80172394216060640000e-002) (165, 3.88975888490676880000e-002) (166, 3.91747988760471340000e-002) (167, 3.66939678788185120000e-002) (168, 9.46876183152198790000e-002) (169, 6.27825409173965450000e-002) (170, 6.02941848337650300000e-002) (171, 9.38341617584228520000e-002) (172, 2.31742560863494870000e-002) (173, -1.24011009931564330000e-001) (174, -7.73660317063331600000e-002) (175, 8.28511565923690800000e-002) (176, -5.09345196187496190000e-002) (177, -5.54200932383537290000e-002) (178, -6.48165717720985410000e-002) (179, -3.85253801941871640000e-002) (180, -4.07548956573009490000e-002) (181, -1.04496479034423830000e-001) (182, -7.51171559095382690000e-002) (183, -4.64350655674934390000e-002) (184, 7.93758966028690340000e-003) (185, -7.56837651133537290000e-002) (186, 6.36657029390335080000e-002) (187, 3.93137633800506590000e-002) (188, 7.60527141392230990000e-003) (189, 7.80350863933563230000e-002) (190, 6.33102003484964370000e-003) (191, -1.73966586589813230000e-002) (192, 1.26819461584091190000e-001) (193, -1.79717950522899630000e-002) (194, 3.61714325845241550000e-002) (195, 2.71474244073033330000e-004) (196, 1.88442766666412350000e-002) (197, -2.33340039849281310000e-002) (198, 1.31223738193511960000e-001) (199, -9.98566523194313050000e-002) (200, 2.85096336156129840000e-002) (201, -1.13784018903970720000e-002) (202, -5.85006959736347200000e-002) (203, -7.22609758377075200000e-002) (204, 4.94001479819417000000e-003) (205, 9.56909079104661940000e-003) (206, -7.73370414972305300000e-002) (207, -7.09929540753364560000e-002) (208, -3.82981114089488980000e-002) (209, 2.44793239980936050000e-002) (210, 2.68232403323054310000e-003) (211, -1.00310575217008590000e-002) (212, -2.60819029062986370000e-002) (213, -6.78587779402732850000e-002) (214, -1.44606176763772960000e-002) (215, -6.50770589709281920000e-002) (216, 6.66203675791621210000e-003) (217, -6.59051463007926940000e-002) (218, 6.81114196777343750000e-002) (219, 7.02160643413662910000e-003) (220, 2.81151067465543750000e-002) (221, 1.89411006867885590000e-002) (222, 9.07006114721298220000e-003) (223, 3.24482545256614690000e-002) (224, 4.19696047902107240000e-002) (225, 5.88416168466210370000e-003) (226, -3.19808311760425570000e-002) (227, 3.92774306237697600000e-002) (228, -4.60829585790634160000e-002) (229, -6.39286339282989500000e-002) (230, 4.22833748161792760000e-002) (231, -1.60882417112588880000e-002) (232, 1.33518412709236150000e-001) (233, 9.24401357769966130000e-002) (234, -1.75459664314985280000e-002) (235, 7.80931413173675540000e-002) (236, 5.35580255091190340000e-002) (237, 2.24756971001625060000e-002) (238, -4.03128862380981450000e-002) (239, 3.35244759917259220000e-002) (240, -6.31941258907318120000e-002) (0, 3.13761979341506960000e-002) (1, -2.57410611957311630000e-002) (2, 4.62253838777542110000e-002) (3, -1.15653937682509420000e-002) (4, -2.38600268959999080000e-001) (5, -7.12529197335243230000e-002) (6, 1.25947715714573860000e-002) (7, -3.17755341529846190000e-002) (8, -7.74015411734580990000e-002) (9, -7.30432689189910890000e-001) (10, 2.98029594123363490000e-002) (11, 5.56285716593265530000e-002) (12, -9.98419150710105900000e-002) (13, 8.02791491150856020000e-002) (14, -4.99111980199813840000e-001) (15, 1.58113390207290650000e-002) (16, -9.01911593973636630000e-003) (17, -9.62463021278381350000e-002) (18, -8.78966972231864930000e-002) (19, -8.10225233435630800000e-002) (20, 3.09884995222091670000e-002) (21, 1.06022059917449950000e-001) (22, -5.65882027149200440000e-002) (23, 1.13483257591724400000e-002) (24, 6.37633949518203740000e-002) (25, -5.21655827760696410000e-002) (26, 9.35738831758499150000e-002) (27, -8.37610475718975070000e-003) (28, 2.23461106419563290000e-001) (29, 3.91049645841121670000e-002) (30, -1.31409391760826110000e-001) (31, 1.59580260515213010000e-002) (32, 4.04677633196115490000e-003) (33, 6.71620387583971020000e-003) (34, -4.36621569097042080000e-002) (35, -6.41269162297248840000e-002) (36, 1.00211873650550840000e-002) (37, 4.11566011607646940000e-002) (38, -9.15544405579566960000e-002) (39, 2.10985224694013600000e-002) (40, 1.24565690755844120000e-001) (41, -4.13645356893539430000e-002) (42, -2.71830763667821880000e-002) (43, -5.88489808142185210000e-002) (44, -1.81184694170951840000e-001) (45, -5.11915497481822970000e-002) (46, 4.25102189183235170000e-002) (47, 2.70886570215225220000e-002) (48, -1.44469559192657470000e-001) (49, 6.85553625226020810000e-002) (50, 1.16913460195064540000e-001) (51, 1.39860082417726520000e-002) (52, 2.91191134601831440000e-002) (53, -1.26518070697784420000e-001) (54, -1.72866526991128920000e-002) (55, -6.96233147755265240000e-003) (56, 2.80390400439500810000e-002) (57, -2.36137416213750840000e-002) (58, 1.20985910296440120000e-001) (59, -2.97132991254329680000e-002) (60, -1.89798008650541310000e-002) (61, -1.36236980557441710000e-001) (62, -3.87758910655975340000e-002) (63, 2.01104208827018740000e-001) (64, 1.13839274272322650000e-002) (65, -1.14132151007652280000e-001) (66, -4.77934777736663820000e-002) (67, -1.46986618638038640000e-001) (68, -1.56289607286453250000e-001) (69, -8.41617882251739500000e-002) (70, 1.42517149448394780000e-001) (71, 4.93524819612503050000e-002) (72, 2.44203787297010420000e-002) (73, 6.99993688613176350000e-003) (74, -8.42647701501846310000e-002) (75, -5.28360567986965180000e-002) (76, 1.40445698052644730000e-002) (77, -7.00030475854873660000e-002) (78, -2.32967212796211240000e-001) (79, -5.31231984496116640000e-002) (80, 8.35277885198593140000e-002) (81, -4.25401106476783750000e-002) (82, -1.41535252332687380000e-001) (83, -4.34000611305236820000e-001) (84, -1.09412431716918950000e+000) (85, -1.03201828896999360000e-002) (86, -1.03474132716655730000e-001) (87, -7.15228095650672910000e-002) (88, 5.30286952853202820000e-002) (89, -4.02527675032615660000e-002) (90, 3.10203731060028080000e-002) (91, -9.51953604817390440000e-002) (92, -5.60744293034076690000e-002) (93, -5.47135472297668460000e-002) (94, 6.36342838406562810000e-002) (95, -7.71999731659889220000e-002) (96, 4.30879704654216770000e-002) (97, 1.79293036460876460000e-001) (98, -8.35011675953865050000e-002) (99, -1.33348450064659120000e-001) (100, 6.98290299624204640000e-003) (101, -1.56809195876121520000e-001) (102, 1.12958058714866640000e-001) (103, 1.01926930248737340000e-001) (104, -4.57686325535178180000e-003) (105, -4.02912870049476620000e-002) (106, -7.55272135138511660000e-002) (107, 5.71631081402301790000e-002) (108, -4.38503101468086240000e-002) (109, -7.56093906238675120000e-003) (110, -2.16631907969713210000e-002) (111, 6.38518705964088440000e-002) (112, -2.60035740211606030000e-003) (113, 2.40090921521186830000e-001) (114, -5.55595941841602330000e-002) (115, -5.48564195632934570000e-002) (116, 6.30955919623374940000e-002) (117, 1.65524345356971030000e-003) (118, 3.56916785240173340000e-001) (119, 8.84829461574554440000e-002) (120, -2.49958373606204990000e-002) (121, -1.07983894646167760000e-001) (122, 1.37927681207656860000e-002) (123, 7.54265189170837400000e-002) (124, -3.60732674598693850000e-002) (125, 4.23404686152935030000e-002) (126, -8.75152051448822020000e-002) (127, 1.17951929569244380000e-001) (128, 5.06853051483631130000e-002) (129, -3.50931398570537570000e-002) (130, 1.14066943526268010000e-001) (131, -1.44025664776563640000e-002) (132, -3.51886935532093050000e-002) (133, 1.44112095236778260000e-001) (134, 1.58679075539112090000e-002) (135, 2.76813972741365430000e-002) (136, 1.01319402456283570000e-001) (137, 3.33549678325653080000e-002) (138, -1.60707929171621800000e-003) (139, 7.30981230735778810000e-002) (140, -6.49737343192100520000e-002) (141, -5.26030182838439940000e-001) (142, -1.01965345442295070000e-001) (143, -8.17105844616889950000e-002) (144, -6.18676207959651950000e-002) (145, -2.01160255819559100000e-002) (146, 5.47441065311431880000e-001) (147, -2.53719091415405270000e-002) (148, -1.20361290872097020000e-001) (149, 6.23248219490051270000e-001) (150, 3.79113927483558650000e-002) (151, -3.91044020652771000000e-002) (152, -1.16756595671176910000e-001) (153, -1.12487226724624630000e-001) (154, -8.21403712034225460000e-002) (155, 7.38608911633491520000e-002) (156, -4.01297658681869510000e-002) (157, 1.40428736805915830000e-001) (158, -1.20761014521121980000e-001) (159, -4.38684895634651180000e-002) (160, -1.86805315315723420000e-002) (161, 6.06932193040847780000e-002) (162, 7.58958384394645690000e-002) (163, -7.53874098882079120000e-003) (164, -8.04782658815383910000e-002) (165, 1.17591291666030880000e-001) (166, -3.43429595232009890000e-002) (167, -6.59646689891815190000e-002) (168, 6.23197713866829870000e-003) (169, -1.18213100358843800000e-003) (170, 3.49241375923156740000e-001) (171, 2.66992021352052690000e-002) (172, -9.11336541175842290000e-002) (173, 2.04497128725051880000e-002) (174, 3.24726589024066930000e-002) (175, -6.43474459648132320000e-002) (176, 5.26311323046684270000e-002) (177, -2.56386175751686100000e-002) (178, 9.73571185022592540000e-003) (179, 6.19734764099121090000e-001) (180, 6.45565241575241090000e-003) (181, 6.20643943548202510000e-002) (182, -1.50248026475310330000e-002) (183, 1.82299196720123290000e-001) (184, -2.28245258331298830000e-002) (185, -1.25868797302246090000e-001) (186, -3.78861501812934880000e-002) (187, 1.79155748337507250000e-002) (188, -2.94730424880981450000e-001) (189, -8.66015702486038210000e-002) (190, -8.51465463638305660000e-002) (191, -2.71030906587839130000e-002) (192, -8.29745903611183170000e-002) (193, 2.19316892325878140000e-002) (194, -4.65235672891139980000e-003) (195, 3.67750823497772220000e-002) (196, 1.15530706942081450000e-001) (197, -5.93273490667343140000e-002) (198, -1.19837485253810880000e-001) (199, 1.15911342203617100000e-001) (200, 3.65970283746719360000e-002) (201, -5.50686456263065340000e-002) (202, 1.50017989799380300000e-002) (203, 1.13938950002193450000e-001) (204, 7.91578590869903560000e-002) (205, -1.43406033515930180000e-001) (206, -9.95784532278776170000e-003) (207, -3.24902012944221500000e-002) (208, -6.33195415139198300000e-002) (209, 1.64647512137889860000e-002) (210, 1.04566723108291630000e-001) (211, 1.07217773795127870000e-001) (212, -3.30560132861137390000e-002) (213, 5.34808486700057980000e-002) (214, -2.06604450941085820000e-002) (215, -1.86670906841754910000e-002) (216, 6.55837282538414000000e-002) (217, 1.44295424222946170000e-001) (218, 8.11433792114257810000e-002) (219, -9.10355985164642330000e-001) (220, 2.67426893115043640000e-002) (221, 4.95003983378410340000e-002) (222, -9.27105098962783810000e-002) (223, 1.00813582539558410000e-001) (224, -1.10495708882808690000e-001) (225, -9.25180986523628230000e-002) (226, -5.59585308656096460000e-003) (227, 1.14839501678943630000e-001) (228, -1.27606987953186040000e-001) (229, -2.09573373198509220000e-001) (230, 1.12347928807139400000e-002) (231, 7.69788473844528200000e-002) (232, 2.60152295231819150000e-002) (233, 1.48091502487659450000e-002) (234, 1.41259068623185160000e-002) (235, 2.73236725479364400000e-002) (236, 7.19154328107833860000e-002) (237, -7.52969607710838320000e-002) (238, -3.29403467476367950000e-002) (239, -5.83900371566414830000e-003) (240, 9.44673642516136170000e-002) (0, 2.14431528002023700000e-002) (1, 4.30695712566375730000e-002) (2, -1.23039871454238890000e-001) (3, 3.32458019256591800000e-002) (4, -1.11782051622867580000e-001) (5, 1.92261592019349340000e-003) (6, 6.60555660724639890000e-002) (7, -1.22358135879039760000e-001) (8, -4.60639782249927520000e-003) (9, -6.61581605672836300000e-002) (10, -9.03703644871711730000e-002) (11, -6.05273954570293430000e-002) (12, -3.76328863203525540000e-002) (13, -3.54758836328983310000e-002) (14, -9.28090214729309080000e-002) (15, 3.86681477539241310000e-003) (16, -7.23191276192665100000e-002) (17, 2.02492792159318920000e-002) (18, -8.49220007658004760000e-002) (19, -1.04916974902153020000e-001) (20, -6.75141662359237670000e-002) (21, 3.89453992247581480000e-002) (22, -8.32660347223281860000e-002) (23, -5.99424950778484340000e-002) (24, -4.12341095507144930000e-002) (25, -5.51488362252712250000e-002) (26, -9.78659987449646000000e-002) (27, -5.58327659964561460000e-002) (28, 3.65428104996681210000e-002) (29, 2.62499175732955340000e-004) (30, -1.20390079915523530000e-001) (31, -6.49220496416091920000e-002) (32, 5.89985027909278870000e-002) (33, 1.71407535672187810000e-002) (34, -5.19432127475738530000e-002) (35, -7.61582702398300170000e-003) (36, -1.16070479154586790000e-001) (37, -1.85154899954795840000e-002) (38, -6.48356974124908450000e-002) (39, 7.51174241304397580000e-003) (40, 7.14946724474430080000e-003) (41, 2.45615355670452120000e-002) (42, 4.16704453527927400000e-002) (43, -8.19537788629531860000e-003) (44, -9.82315652072429660000e-003) (45, -1.42860459163784980000e-002) (46, 1.34333986788988110000e-002) (47, -1.02389603853225710000e-001) (48, 4.09258008003234860000e-002) (49, -1.07368186116218570000e-001) (50, -1.21896199882030490000e-001) (51, -8.61141644418239590000e-003) (52, -5.29684536159038540000e-002) (53, -3.25345098972320560000e-002) (54, -1.01391091942787170000e-001) (55, 1.13928467035293580000e-002) (56, -8.50983113050460820000e-002) (57, -1.07706949114799500000e-001) (58, 4.73301904276013370000e-003) (59, 3.82536724209785460000e-002) (60, 6.88150664791464810000e-003) (61, -1.91933084279298780000e-002) (62, 4.45580594241619110000e-002) (63, 5.35051003098487850000e-002) (64, -1.76364462822675700000e-002) (65, -9.91075858473777770000e-002) (66, -1.11980885267257690000e-001) (67, 5.28520829975605010000e-002) (68, 5.14175854623317720000e-002) (69, 1.08014671131968500000e-002) (70, 2.06443686038255690000e-002) (71, 3.08273211121559140000e-002) (72, -6.58777952194213870000e-002) (73, -5.76684847474098210000e-002) (74, -1.34757356718182560000e-002) (75, 4.45838384330272670000e-002) (76, 7.13193863630294800000e-002) (77, -1.02594055235385890000e-001) (78, 6.48819888010621070000e-003) (79, -9.96827632188797000000e-002) (80, 3.79309840500354770000e-002) (81, -7.67511278390884400000e-002) (82, -2.71073579788208010000e-002) (83, -9.84266400337219240000e-002) (84, -2.10894811898469920000e-002) (85, -1.20719403028488160000e-001) (86, -1.27945179119706150000e-002) (87, -1.09202340245246890000e-001) (88, -7.79925957322120670000e-002) (89, -9.00846160948276520000e-003) (90, 1.54827581718564030000e-002) (91, 6.00100941956043240000e-002) (92, -3.13902795314788820000e-002) (93, -1.13887518644332890000e-001) (94, -8.24879854917526250000e-003) (95, 4.13864478468894960000e-002) (96, -6.79602101445198060000e-002) (97, 3.28125059604644780000e-002) (98, -1.03117793798446660000e-001) (99, -3.66418585181236270000e-002) (100, -4.28738035261631010000e-002) (101, 5.16757555305957790000e-003) (102, -5.99685646593570710000e-002) (103, -1.01764075458049770000e-001) (104, 2.48814336955547330000e-002) (105, 1.97436176240444180000e-002) (106, 2.75115463882684710000e-002) (107, -8.68615433573722840000e-002) (108, 3.58178629539906980000e-003) (109, -2.22314912825822830000e-002) (110, -1.06313750147819520000e-001) (111, 1.69523023068904880000e-002) (112, -1.21227279305458070000e-001) (113, -9.23729315400123600000e-002) (114, -5.10324398055672650000e-003) (115, -1.14756785333156590000e-002) (116, -7.16682001948356630000e-002) (117, -1.04807153344154360000e-001) (118, 5.28102852404117580000e-002) (119, -3.98009456694126130000e-002) (120, 6.36939927935600280000e-002) (121, -5.31809031963348390000e-002) (122, -7.61272460222244260000e-002) (123, -5.06029874086380000000e-002) (124, 2.83063035458326340000e-002) (125, -3.72178293764591220000e-002) (126, 4.62240129709243770000e-002) (127, -8.24465602636337280000e-003) (128, -1.11659178510308270000e-002) (129, -1.75902117043733600000e-002) (130, 4.52966131269931790000e-002) (131, 1.69323738664388660000e-002) (132, 5.50001747906208040000e-002) (133, -6.77780508995056150000e-002) (134, -2.66957860440015790000e-002) (135, 3.25455665588378910000e-002) (136, 9.54112038016319270000e-003) (137, 5.72723662480711940000e-003) (138, -1.10663585364818570000e-002) (139, -6.16270005702972410000e-002) (140, -1.16418033838272090000e-001) (141, -1.20345614850521090000e-001) (142, -2.53724269568920140000e-002) (143, -3.53790111839771270000e-002) (144, 8.91130138188600540000e-003) (145, -5.79978078603744510000e-002) (146, -2.57059652358293530000e-002) (147, -9.97335240244865420000e-002) (148, -4.51076030731201170000e-002) (149, -4.41855639219284060000e-002) (150, 5.02089485526084900000e-002) (151, 1.68308578431606290000e-002) (152, 3.69635410606861110000e-002) (153, -1.28418073058128360000e-001) (154, 3.59921343624591830000e-002) (155, 6.88779205083847050000e-002) (156, -5.42978793382644650000e-002) (157, -7.27560967206954960000e-002) (158, -1.62847116589546200000e-002) (159, 5.84967248141765590000e-002) (160, 3.86405549943447110000e-002) (161, 2.51201000064611430000e-002) (162, 5.40510639548301700000e-002) (163, 6.56075701117515560000e-002) (164, 7.51966843381524090000e-003) (165, -1.00737407803535460000e-001) (166, -8.87729600071907040000e-002) (167, -5.16185127198696140000e-002) (168, -1.68446777388453480000e-003) (169, 5.06612099707126620000e-002) (170, -1.20532982051372530000e-001) (171, -2.77877356857061390000e-002) (172, -4.32777963578701020000e-002) (173, -4.12114821374416350000e-002) (174, 9.35526750981807710000e-003) (175, -1.08430385589599610000e-001) (176, 5.60164302587509160000e-002) (177, -2.36254232004284860000e-003) (178, 2.83473525196313860000e-002) (179, 4.04945090413093570000e-002) (180, -3.55013720691204070000e-002) (181, -1.01793736219406130000e-001) (182, 2.63468958437442780000e-002) (183, -1.28088453784585000000e-002) (184, -4.88291420042514800000e-002) (185, 1.06518641114234920000e-002) (186, 6.57691359519958500000e-002) (187, -1.06961160898208620000e-001) (188, 6.55140504240989690000e-002) (189, 8.50878097116947170000e-003) (190, 3.91400605440139770000e-002) (191, -1.27983063459396360000e-001) (192, -4.25590462982654570000e-002) (193, 3.57614830136299130000e-002) (194, -3.74628230929374690000e-002) (195, 6.59801065921783450000e-002) (196, -7.78073295950889590000e-002) (197, -8.39217230677604680000e-002) (198, 2.16755904257297520000e-002) (199, -6.43184110522270200000e-002) (200, 3.95267605781555180000e-002) (201, -3.64579702727496620000e-003) (202, 6.00100047886371610000e-002) (203, 4.91458922624588010000e-002) (204, -9.74777992814779280000e-003) (205, -1.26279860734939580000e-001) (206, -9.54534951597452160000e-003) (207, -9.96384099125862120000e-002) (208, -1.00363269448280330000e-001) (209, -9.46321859955787660000e-002) (210, 4.11709174513816830000e-002) (211, 1.80630832910537720000e-002) (212, -4.12542372941970830000e-002) (213, -1.18354693055152890000e-001) (214, -9.04265791177749630000e-002) (215, -1.15109801292419430000e-001) (216, 5.27013391256332400000e-002) (217, 6.20868988335132600000e-002) (218, 2.10288651287555690000e-002) (219, -3.62234078347682950000e-002) (220, 4.32499088346958160000e-002) (221, -9.35103148221969600000e-002) (222, -6.41586035490036010000e-002) (223, 3.69155891239643100000e-002) (224, 1.65951456874608990000e-002) (225, -6.96550831198692320000e-002) (226, 6.38501299545168880000e-003) (227, -1.59856230020523070000e-002) (228, -1.08620129525661470000e-001) (229, -3.95865701138973240000e-002) (230, -5.10798580944538120000e-002) (231, -5.97464703023433690000e-002) (232, -5.83670474588871000000e-002) (233, -9.56845805048942570000e-002) (234, 2.92362459003925320000e-002) (235, -7.38516673445701600000e-002) (236, -6.71269744634628300000e-002) (237, 4.88300956785678860000e-002) (238, 4.23979014158248900000e-002) (239, -4.17099259793758390000e-002) (240, -1.74541980028152470000e-001) (0, 6.82459324598312380000e-002) (1, -3.86185087263584140000e-002) (2, -3.01539562642574310000e-002) (3, -1.68573465198278430000e-002) (4, 4.21854481101036070000e-002) (5, 2.08488702774047850000e-002) (6, -4.30913008749485020000e-002) (7, 5.55528216063976290000e-002) (8, 1.29339927807450290000e-002) (9, 7.65912001952528950000e-003) (10, 5.46818636357784270000e-002) (11, 3.01096076145768170000e-003) (12, 7.89898782968521120000e-002) (13, -5.03307320177555080000e-002) (14, -2.30813361704349520000e-002) (15, -2.73996479809284210000e-002) (16, 7.46404528617858890000e-002) (17, 3.40226255357265470000e-002) (18, -2.71101053804159160000e-002) (19, 6.49034231901168820000e-002) (20, 4.56968359649181370000e-002) (21, 3.89982275664806370000e-002) (22, -3.26599255204200740000e-002) (23, -1.10743418335914610000e-001) (24, -3.62548194825649260000e-002) (25, 1.66733004152774810000e-002) (26, -4.32287007570266720000e-002) (27, -1.86682399362325670000e-002) (28, -1.03080652654170990000e-001) (29, -2.27760188281536100000e-002) (30, 2.67050508409738540000e-002) (31, -9.16502624750137330000e-002) (32, -1.10005818307399750000e-001) (33, 4.52643446624279020000e-002) (34, -2.91184298694133760000e-002) (35, -5.32514080405235290000e-002) (36, 6.56358078122138980000e-002) (37, -6.20795935392379760000e-002) (38, -1.02559968829154970000e-001) (39, -4.32467199862003330000e-002) (40, 5.98119460046291350000e-002) (41, -3.61666455864906310000e-002) (42, -1.58556438982486720000e-002) (43, -6.94319698959589000000e-003) (44, -3.81407514214515690000e-002) (45, -6.17987522855401040000e-003) (46, -2.75506787002086640000e-002) (47, -3.07531915605068210000e-002) (48, -7.31532126665115360000e-002) (49, -3.17540876567363740000e-002) (50, -9.40444767475128170000e-002) (51, -3.43247153796255590000e-003) (52, -5.42560219764709470000e-002) (53, 1.80087648332118990000e-002) (54, -1.32650593295693400000e-002) (55, 7.26814568042755130000e-002) (56, -2.34731528908014300000e-002) (57, 3.31624783575534820000e-002) (58, -3.71015518903732300000e-002) (59, -2.73574311286211010000e-002) (60, -2.71583981812000270000e-002) (61, 5.20048290491104130000e-002) (62, -8.22344869375228880000e-002) (63, -9.02712047100067140000e-002) (64, -1.11576192080974580000e-001) (65, -1.04464150965213780000e-001) (66, 3.67970839142799380000e-002) (67, -9.45555567741394040000e-002) (68, 7.52018913626670840000e-002) (69, -7.97081813216209410000e-002) (70, 6.65056556463241580000e-002) (71, -4.76037934422492980000e-002) (72, -9.56321880221366880000e-002) (73, -5.75348064303398130000e-002) (74, -7.60762160643935200000e-003) (75, -1.14144384860992430000e-001) (76, -9.35378372669219970000e-002) (77, -3.70576884597539900000e-003) (78, -1.10468558967113490000e-001) (79, -9.25620496273040770000e-002) (80, -9.12257656455039980000e-002) (81, -7.77369067072868350000e-002) (82, -7.58283063769340520000e-002) (83, 1.05557590723037720000e-002) (84, 6.43859282135963440000e-002) (85, 5.45807853341102600000e-002) (86, -6.11563250422477720000e-002) (87, 8.29793587327003480000e-002) (88, 6.35873451828956600000e-002) (89, 2.52147857099771500000e-003) (90, 4.29830774664878850000e-002) (91, 8.47252905368804930000e-002) (92, 7.64406397938728330000e-002) (93, -3.39311175048351290000e-003) (94, -4.55293878912925720000e-002) (95, -8.39016120880842210000e-003) (96, 2.41466276347637180000e-002) (97, -4.64307852089405060000e-002) (98, 6.02265400812029840000e-003) (99, -2.52354424446821210000e-002) (100, -3.34943011403083800000e-002) (101, -1.67924966663122180000e-002) (102, 8.12942311167716980000e-002) (103, -1.00340262055397030000e-001) (104, -1.13177806138992310000e-001) (105, 6.43840804696083070000e-002) (106, -3.78970697056502100000e-004) (107, -1.02169573307037350000e-001) (108, 3.69501449167728420000e-002) (109, -2.52724308520555500000e-002) (110, 3.16751077771186830000e-002) (111, 5.36296144127845760000e-002) (112, -5.55616058409214020000e-002) (113, -3.47604230046272280000e-002) (114, 8.01442936062812810000e-002) (115, 7.89801310747861860000e-003) (116, 4.82392646372318270000e-002) (117, 4.60900552570819850000e-002) (118, -1.34921958670020100000e-002) (119, 6.27972185611724850000e-002) (120, -3.18979360163211820000e-002) (121, 6.58603981137275700000e-002) (122, -8.48581641912460330000e-002) (123, -7.49274492263793950000e-002) (124, 8.41265916824340820000e-002) (125, -5.93940168619155880000e-002) (126, -5.86043670773506160000e-002) (127, 6.56250789761543270000e-002) (128, -5.99534660577774050000e-002) (129, 7.80725479125976560000e-003) (130, 4.23052385449409480000e-002) (131, -2.05881148576736450000e-002) (132, -1.06464721262454990000e-001) (133, 1.04282135143876080000e-002) (134, 2.72515844553709030000e-002) (135, 5.21548353135585780000e-002) (136, 6.91532716155052190000e-003) (137, -1.11109996214509010000e-002) (138, 6.46226108074188230000e-002) (139, -7.20707997679710390000e-002) (140, -4.12676781415939330000e-002) (141, -2.00429670512676240000e-002) (142, 3.90151254832744600000e-002) (143, -1.85972396284341810000e-002) (144, -2.20066104084253310000e-002) (145, 8.39184671640396120000e-002) (146, -7.62422233819961550000e-002) (147, 1.22452862560749050000e-002) (148, 1.20265819132328030000e-002) (149, 2.26730480790138240000e-002) (150, -3.13542559742927550000e-002) (151, 2.94359941035509110000e-002) (152, -1.12493850290775300000e-001) (153, -4.50382344424724580000e-002) (154, -5.71635700762271880000e-002) (155, -9.60917398333549500000e-003) (156, 1.70591976493597030000e-002) (157, -1.38978392351418730000e-003) (158, 2.11439318954944610000e-002) (159, -8.41641500592231750000e-002) (160, 3.53614240884780880000e-002) (161, -2.31708702631294730000e-003) (162, -2.59376540780067440000e-002) (163, 2.27873977273702620000e-002) (164, 6.16575740277767180000e-002) (165, -2.84638125449419020000e-002) (166, -9.49694514274597170000e-002) (167, 5.40120713412761690000e-002) (168, 5.47513701021671300000e-002) (169, 3.12221441417932510000e-002) (170, -5.88229037821292880000e-002) (171, -4.22670803964138030000e-002) (172, -1.45353488624095920000e-002) (173, -2.36041974276304240000e-002) (174, 4.14096610620617870000e-003) (175, -4.12741228938102720000e-002) (176, -5.43483942747116090000e-002) (177, 4.44718226790428160000e-002) (178, -1.11284010112285610000e-001) (179, 3.20050083100795750000e-002) (180, -4.31141164153814320000e-003) (181, -2.75885015726089480000e-002) (182, 4.29677218198776250000e-002) (183, 1.98354069143533710000e-002) (184, -5.46175800263881680000e-002) (185, 7.62957409024238590000e-002) (186, 3.28596159815788270000e-002) (187, 4.69181425869464870000e-002) (188, -5.46249095350503920000e-003) (189, 2.53513436764478680000e-002) (190, 3.16263288259506230000e-002) (191, -9.07964259386062620000e-002) (192, -6.30843341350555420000e-002) (193, -4.01963070034980770000e-002) (194, 6.27220645546913150000e-002) (195, 1.76530552562326190000e-003) (196, -3.50994095206260680000e-002) (197, -1.80842652916908260000e-002) (198, -5.62449879944324490000e-002) (199, -1.05188712477684020000e-001) (200, 1.06133995577692990000e-002) (201, -6.58075287938117980000e-002) (202, 8.00459831953048710000e-002) (203, 4.69427518546581270000e-002) (204, -7.92821869254112240000e-003) (205, -1.15086846053600310000e-001) (206, -9.01216119527816770000e-002) (207, 6.21004514396190640000e-002) (208, 7.25356936454772950000e-002) (209, -9.63468328118324280000e-002) (210, 6.73829242587089540000e-002) (211, 1.97910629212856290000e-002) (212, -3.74855212867259980000e-002) (213, -1.67632773518562320000e-002) (214, -2.04435680061578750000e-002) (215, -7.36004710197448730000e-002) (216, -3.55459451675415040000e-002) (217, 4.29727835580706600000e-003) (218, 7.38171264529228210000e-002) (219, -8.96448045969009400000e-002) (220, -6.94469660520553590000e-002) (221, 2.21777725964784620000e-002) (222, 7.37399458885192870000e-002) (223, 2.25796643644571300000e-003) (224, -1.04276366531848910000e-001) (225, -1.03590101003646850000e-001) (226, 2.17855293303728100000e-002) (227, -9.39958319067955020000e-002) (228, 7.03479051589965820000e-002) (229, -8.10378491878509520000e-002) (230, -1.12038277089595790000e-001) (231, -1.06495499610900880000e-001) (232, -1.06039516627788540000e-001) (233, -2.72265523672103880000e-002) (234, -9.90526527166366580000e-002) (235, 4.79129515588283540000e-002) (236, 1.08436606824398040000e-002) (237, 1.17629133164882660000e-002) (238, -9.94238778948783870000e-002) (239, -6.49993726983666420000e-003) (240, -1.06938228011131290000e-001) (0, 8.08796584606170650000e-002) (1, -2.47539915144443510000e-002) (2, -4.05252613127231600000e-002) (3, -7.60311260819435120000e-003) (4, 2.44122624397277830000e-001) (5, -4.48460131883621220000e-002) (6, -7.97500908374786380000e-002) (7, -8.74677672982215880000e-002) (8, -1.37984622269868850000e-002) (9, -3.33868891000747680000e-001) (10, -4.20040935277938840000e-002) (11, -1.07979707419872280000e-001) (12, 4.68037799000740050000e-002) (13, -6.00219257175922390000e-002) (14, -8.55870023369789120000e-002) (15, 6.39220641460269690000e-004) (16, -3.71850532246753570000e-004) (17, 4.37926091253757480000e-002) (18, 1.84913538396358490000e-002) (19, -1.13261369988322260000e-002) (20, -1.62557382136583330000e-002) (21, -2.14104838669300080000e-002) (22, 5.96031583845615390000e-002) (23, 1.75442975014448170000e-002) (24, -8.73900111764669420000e-003) (25, -1.51727959513664250000e-001) (26, -1.29694148898124690000e-001) (27, -8.98357946425676350000e-003) (28, -2.77445942163467410000e-001) (29, 1.17396358400583270000e-002) (30, 1.82821005582809450000e-002) (31, -1.15054240450263020000e-002) (32, 1.79888103157281880000e-002) (33, -6.82776495814323430000e-002) (34, 2.30102911591529850000e-001) (35, 8.07566847652196880000e-003) (36, -3.97943258285522460000e-002) (37, -6.60205036401748660000e-002) (38, 3.08876391500234600000e-002) (39, 4.00376468896865840000e-002) (40, -6.30050450563430790000e-002) (41, 9.30380448698997500000e-002) (42, 1.44204348325729370000e-002) (43, -5.05603775382041930000e-002) (44, 8.41090008616447450000e-002) (45, -1.29482850432395940000e-001) (46, 2.34676618129014970000e-002) (47, -1.92200839519500730000e-002) (48, -1.91307477653026580000e-002) (49, -5.45862130820751190000e-003) (50, -1.06010874733328820000e-002) (51, 6.31298571825027470000e-002) (52, 2.01629828661680220000e-002) (53, 2.44627203792333600000e-002) (54, 2.20815092325210570000e-002) (55, -1.32692217826843260000e-001) (56, 9.94001235812902450000e-003) (57, -2.07559674978256230000e-001) (58, -1.09122343361377720000e-001) (59, -5.14336191117763520000e-002) (60, 2.15704608708620070000e-002) (61, 5.94301633536815640000e-002) (62, 2.17450633645057680000e-002) (63, -1.02080032229423520000e-001) (64, -6.24988004565238950000e-002) (65, 4.72674667835235600000e-002) (66, -2.16652918606996540000e-002) (67, 1.82217936962842940000e-002) (68, 2.68406197428703310000e-002) (69, 2.73769676685333250000e-001) (70, -3.82191598415374760000e-001) (71, 2.63249725103378300000e-002) (72, 5.58713916689157490000e-004) (73, -6.67571946978569030000e-002) (74, -6.74100071191787720000e-002) (75, -8.07147622108459470000e-002) (76, -5.05532324314117430000e-002) (77, 7.89358168840408330000e-002) (78, 1.04754075407981870000e-001) (79, -6.43585175275802610000e-002) (80, -3.56685705482959750000e-002) (81, 9.80030745267868040000e-003) (82, 1.02501496672630310000e-001) (83, -5.84874227643013000000e-002) (84, -1.73785053193569180000e-002) (85, -9.37058776617050170000e-002) (86, -7.60179981589317320000e-002) (87, 5.17683811485767360000e-002) (88, -3.84774208068847660000e-002) (89, -4.29838858544826510000e-002) (90, -5.99119327962398530000e-002) (91, 2.41961982101202010000e-003) (92, -9.12603661417961120000e-002) (93, 2.47319936752319340000e-002) (94, -1.43484517931938170000e-001) (95, 9.30424593389034270000e-003) (96, -4.95574921369552610000e-002) (97, -9.52568370848894120000e-003) (98, -4.90806177258491520000e-002) (99, 1.65032535791397090000e-001) (100, -8.45632255077362060000e-002) (101, 6.05420358479022980000e-002) (102, -8.32893699407577510000e-002) (103, 2.49034222215414050000e-002) (104, -4.29206863045692440000e-002) (105, -1.00658960640430450000e-001) (106, 3.85980674764141440000e-004) (107, -3.76583710312843320000e-002) (108, 2.79379561543464660000e-002) (109, -2.15676221996545790000e-002) (110, -5.79895339906215670000e-002) (111, 8.01037531346082690000e-003) (112, 4.83533963561058040000e-002) (113, 1.52412541210651400000e-002) (114, -1.69556532055139540000e-002) (115, 5.17755076289176940000e-002) (116, -3.70890289545059200000e-001) (117, -2.55377680063247680000e-001) (118, -2.74187862873077390000e-001) (119, -3.10512129217386250000e-002) (120, -1.06972202658653260000e-001) (121, -6.90907388925552370000e-002) (122, -1.70414745807647710000e-001) (123, -5.75033798813819890000e-002) (124, -1.00143842399120330000e-001) (125, -1.53131885454058650000e-002) (126, -8.82659927010536190000e-002) (127, -1.69932618737220760000e-001) (128, -1.06378018856048580000e-001) (129, -4.69711013138294220000e-002) (130, -1.37241721153259280000e-001) (131, 5.75742833316326140000e-002) (132, -6.05761073529720310000e-002) (133, -2.38159418106079100000e-001) (134, -2.33621552586555480000e-001) (135, -1.62303373217582700000e-002) (136, -1.91270977258682250000e-001) (137, -2.03178063035011290000e-001) (138, 2.71895527839660640000e-002) (139, 4.30347621440887450000e-002) (140, -4.33102734386920930000e-002) (141, 3.18035453557968140000e-001) (142, 1.34603995829820630000e-002) (143, -3.70140234008431430000e-003) (144, -4.15221378207206730000e-002) (145, 7.72686768323183060000e-003) (146, -4.76584255695343020000e-001) (147, -2.61320024728775020000e-002) (148, -2.19856742769479750000e-002) (149, -5.92236399650573730000e-001) (150, -1.76153615117073060000e-001) (151, 4.03047613799571990000e-002) (152, 1.26502644270658490000e-002) (153, 1.34861841797828670000e-001) (154, -6.30018338561058040000e-002) (155, -2.35898979008197780000e-002) (156, -1.72825843095779420000e-001) (157, -3.04890796542167660000e-002) (158, 5.30225038528442380000e-002) (159, 1.89732834696769710000e-002) (160, -7.23381191492080690000e-002) (161, -3.09072397649288180000e-002) (162, 1.86114255338907240000e-002) (163, -6.68386965990066530000e-002) (164, 2.34884154051542280000e-002) (165, -1.24399168416857720000e-002) (166, -1.03704094886779790000e-001) (167, -5.27367629110813140000e-002) (168, 1.40262907370924950000e-002) (169, -1.42276585102081300000e-001) (170, -3.55298608541488650000e-001) (171, -7.57813304662704470000e-002) (172, -3.75482514500617980000e-002) (173, -1.93248778581619260000e-001) (174, -3.71348232030868530000e-001) (175, -3.60773921012878420000e-001) (176, -3.63961637020111080000e-001) (177, -7.28090777993202210000e-002) (178, -3.90397943556308750000e-002) (179, -6.94273352622985840000e-001) (180, -2.33713518828153610000e-002) (181, -8.47042873501777650000e-002) (182, -3.16892005503177640000e-002) (183, -2.89630025625228880000e-001) (184, -6.27097347751259800000e-003) (185, -8.51875543594360350000e-002) (186, -1.59447062760591510000e-002) (187, 4.96857194229960440000e-003) (188, 1.01768448948860170000e-001) (189, 4.03155907988548280000e-002) (190, -4.21350561082363130000e-002) (191, -8.98520573973655700000e-002) (192, 3.71141433715820310000e-002) (193, -5.71834295988082890000e-003) (194, -1.11493421718478200000e-002) (195, -3.09740249067544940000e-002) (196, 2.20962078310549260000e-003) (197, -7.24460259079933170000e-002) (198, 5.34426905214786530000e-002) (199, -1.00074209272861480000e-001) (200, -1.48354947566986080000e-001) (201, -1.89543291926383970000e-001) (202, -1.41032366082072260000e-002) (203, -3.78655314445495610000e-001) (204, -9.34507697820663450000e-002) (205, -8.35355892777442930000e-002) (206, -1.15730683319270610000e-003) (207, 8.21328815072774890000e-003) (208, -7.35343024134635930000e-002) (209, -9.77572798728942870000e-002) (210, -6.26960843801498410000e-002) (211, -2.32854187488555910000e-002) (212, 8.89648072188720110000e-005) (213, 3.11477985233068470000e-002) (214, -8.67889672517776490000e-002) (215, -1.14133499562740330000e-001) (216, -7.37859085202217100000e-002) (217, -3.48985902965068820000e-002) (218, -6.50975927710533140000e-002) (219, -5.23610785603523250000e-002) (220, -3.55060659348964690000e-002) (221, -1.65946498513221740000e-001) (222, -5.90253397822380070000e-002) (223, -6.72538354992866520000e-002) (224, 6.04393519461154940000e-003) (225, -7.88075253367424010000e-002) (226, -1.52166739106178280000e-001) (227, -1.30857735872268680000e-001) (228, 2.02159583568573000000e-002) (229, -1.37789085507392880000e-001) (230, -1.05928711593151090000e-001) (231, -9.85176563262939450000e-002) (232, -2.27069128304719920000e-002) (233, -1.54088050127029420000e-001) (234, -7.79589861631393430000e-002) (235, -6.29942566156387330000e-002) (236, -3.89079183340072630000e-001) (237, -1.03554494678974150000e-001) (238, -2.54305958747863770000e-001) (239, 5.90437799692153930000e-002) (240, 4.86398518085479740000e-001) (0, 9.05021056532859800000e-002) (1, 5.35965450108051300000e-002) (2, 2.44151931256055830000e-002) (3, 4.14412394165992740000e-002) (4, 1.38595663011074070000e-002) (5, -6.74513950943946840000e-002) (6, 3.75480912625789640000e-002) (7, -2.81404871493577960000e-002) (8, 4.70638349652290340000e-002) (9, -6.17775581777095790000e-002) (10, -7.14938640594482420000e-002) (11, -1.03775359690189360000e-001) (12, -8.35142731666564940000e-002) (13, -4.17619459331035610000e-002) (14, -5.85059225559234620000e-002) (15, 3.77628393471241000000e-002) (16, -2.44036614894866940000e-002) (17, 2.27311737835407260000e-002) (18, 3.45167294144630430000e-002) (19, 5.83789823576807980000e-003) (20, -3.86973023414611820000e-002) (21, -9.81734786182641980000e-003) (22, 8.76310467720031740000e-002) (23, -5.58162219822406770000e-002) (24, 5.80487698316574100000e-002) (25, -5.60990953817963600000e-003) (26, 9.27554257214069370000e-003) (27, 5.19192628562450410000e-002) (28, 4.97179254889488220000e-002) (29, 4.90449927747249600000e-002) (30, -8.34009945392608640000e-002) (31, 5.12463506311178210000e-003) (32, -4.35814410448074340000e-002) (33, 4.59502711892127990000e-002) (34, -2.92355231940746310000e-002) (35, 2.68494859337806700000e-002) (36, 3.54296341538429260000e-002) (37, -7.94223770499229430000e-002) (38, 4.73596565425395970000e-002) (39, 4.65113064274191860000e-003) (40, 5.34661933779716490000e-002) (41, -4.13352400064468380000e-002) (42, -2.82198823988437650000e-002) (43, -8.91354680061340330000e-002) (44, 7.60768130421638490000e-002) (45, -7.15175196528434750000e-002) (46, 2.86316387355327610000e-002) (47, -6.66498914361000060000e-002) (48, -1.04192674160003660000e-001) (49, 3.68026271462440490000e-002) (50, 7.38766789436340330000e-002) (51, -2.13031433522701260000e-002) (52, 1.18248052895069120000e-002) (53, 2.86533720791339870000e-002) (54, -9.32661667466163640000e-002) (55, -5.19455820322036740000e-002) (56, 2.78839860111474990000e-002) (57, -9.64350178837776180000e-002) (58, 5.75299412012100220000e-002) (59, 1.44589110277593140000e-003) (60, -1.78803484886884690000e-002) (61, -5.75257092714309690000e-002) (62, 5.77932707965373990000e-002) (63, 8.91017317771911620000e-002) (64, -3.26846130192279820000e-002) (65, 7.79327154159545900000e-002) (66, 4.66006398200988770000e-002) (67, -3.01706641912460330000e-002) (68, 8.20747669786214830000e-003) (69, -9.74811762571334840000e-002) (70, -9.39973145723342900000e-002) (71, 2.80310120433568950000e-002) (72, -3.92521247267723080000e-002) (73, 6.17746226489543910000e-002) (74, 2.10783891379833220000e-002) (75, 9.24876481294631960000e-002) (76, -6.52870982885360720000e-002) (77, -9.50042158365249630000e-002) (78, -5.45712653547525410000e-003) (79, -9.45989321917295460000e-003) (80, -1.04681305587291720000e-001) (81, 9.91695560514926910000e-003) (82, -2.22396478056907650000e-003) (83, 2.07348708063364030000e-002) (84, -2.08004023879766460000e-002) (85, 3.53154987096786500000e-002) (86, -5.97483199089765550000e-003) (87, 2.75768674910068510000e-002) (88, 5.28883934020996090000e-002) (89, 4.36828583478927610000e-002) (90, -1.34861255064606670000e-002) (91, -3.07225640863180160000e-002) (92, -3.89980264008045200000e-002) (93, 7.95489922165870670000e-003) (94, 6.66768327355384830000e-002) (95, -8.27149227261543270000e-002) (96, 8.71430858969688420000e-002) (97, -8.78266170620918270000e-002) (98, -3.55041027069091800000e-002) (99, 8.82340148091316220000e-002) (100, -3.62852700054645540000e-002) (101, -5.58046139776706700000e-002) (102, 9.10552742425352330000e-004) (103, 1.45401414483785630000e-002) (104, 1.51796005666255950000e-002) (105, 9.20265763998031620000e-002) (106, 9.42007463891059160000e-004) (107, -6.17223158478736880000e-002) (108, -2.34626382589340210000e-002) (109, -6.94701746106147770000e-002) (110, -8.75991210341453550000e-003) (111, -3.58448177576065060000e-002) (112, -8.68650677148252730000e-004) (113, 8.94593670964241030000e-002) (114, -1.00724607706069950000e-001) (115, -3.59414480626583100000e-002) (116, -6.80089443922042850000e-002) (117, -4.96653020381927490000e-002) (118, 5.96255697309970860000e-002) (119, -7.38122612237930300000e-002) (120, 6.29806369543075560000e-002) (121, -3.37285511195659640000e-002) (122, 2.65092067420482640000e-002) (123, -2.95636728405952450000e-002) (124, -7.57080614566802980000e-002) (125, -7.52775594592094420000e-002) (126, -9.03315022587776180000e-002) (127, -1.33516397327184680000e-002) (128, 4.57090325653553010000e-002) (129, -8.41243416070938110000e-002) (130, -2.53722574561834340000e-002) (131, 1.03451171889901160000e-002) (132, 6.29414916038513180000e-002) (133, -9.85581725835800170000e-002) (134, 6.41591101884841920000e-002) (135, 1.54762836173176770000e-002) (136, -6.71227201819419860000e-002) (137, 5.17095588147640230000e-002) (138, -4.73157837986946110000e-002) (139, -5.81041015684604640000e-002) (140, -1.86700851190835240000e-003) (141, -1.38019416481256480000e-002) (142, -9.64125916361808780000e-002) (143, 7.04948650673031810000e-003) (144, 5.28227314352989200000e-002) (145, -9.23263356089591980000e-002) (146, -7.85008668899536130000e-002) (147, -3.73162096366286280000e-003) (148, 2.36777588725090030000e-002) (149, 2.21554171293973920000e-002) (150, -1.32061252370476720000e-002) (151, -6.20311498641967770000e-002) (152, 5.33447181805968280000e-003) (153, 5.49069643020629880000e-002) (154, -4.35681752860546110000e-002) (155, 9.11421775817871090000e-002) (156, -4.63357754051685330000e-002) (157, 6.69223666191101070000e-002) (158, -1.08104623854160310000e-001) (159, -4.60522016510367390000e-003) (160, -3.48166823387146000000e-002) (161, -4.96974140405654910000e-002) (162, 8.08355063199996950000e-002) (163, 3.60346473753452300000e-002) (164, -6.56014606356620790000e-002) (165, -5.78238330781459810000e-002) (166, 5.92248700559139250000e-002) (167, 8.81244167685508730000e-002) (168, 1.04012889787554740000e-002) (169, 2.05865297466516490000e-002) (170, 5.10797500610351560000e-002) (171, 1.34430611506104470000e-002) (172, -2.91250459849834440000e-002) (173, -6.67415112257003780000e-002) (174, -9.47031602263450620000e-002) (175, -9.34763699769973750000e-002) (176, 7.54551813006401060000e-002) (177, -5.84531128406524660000e-002) (178, 6.89947754144668580000e-002) (179, 6.56575262546539310000e-002) (180, -1.02081671357154850000e-001) (181, 8.04671198129653930000e-002) (182, 8.55298712849617000000e-002) (183, 3.57697978615760800000e-002) (184, 2.91815027594566350000e-002) (185, 3.89179028570652010000e-002) (186, -8.64427536725997920000e-002) (187, -5.29650859534740450000e-002) (188, -7.43508040904998780000e-002) (189, 5.66888879984617230000e-003) (190, -8.82384404540061950000e-002) (191, 5.81202991306781770000e-002) (192, -6.81115919724106790000e-003) (193, -3.17934006452560420000e-002) (194, -2.78437938541173930000e-002) (195, 8.57599079608917240000e-002) (196, 3.92210818827152250000e-002) (197, -8.58690589666366580000e-002) (198, -2.61532459408044820000e-002) (199, -3.95245999097824100000e-002) (200, -6.35574087500572200000e-002) (201, -6.32866169326007370000e-004) (202, 6.94686323404312130000e-002) (203, -9.71519500017166140000e-002) (204, 6.23845830559730530000e-002) (205, 2.80729010701179500000e-002) (206, -3.42571064829826350000e-002) (207, 3.98234417662024500000e-003) (208, -9.83893200755119320000e-002) (209, 3.46401380375027660000e-003) (210, -2.30047944933176040000e-002) (211, 6.35736659169197080000e-002) (212, -3.88858467340469360000e-002) (213, 6.82592019438743590000e-002) (214, -1.68286785483360290000e-002) (215, 5.15969768166542050000e-002) (216, -2.26054359227418900000e-002) (217, -3.38043645024299620000e-002) (218, -4.16915155947208400000e-002) (219, -1.21915796771645550000e-002) (220, -9.93462726473808290000e-002) (221, 5.09025305509567260000e-002) (222, -8.73624086380004880000e-002) (223, -8.72793272137641910000e-002) (224, 5.17923792358487840000e-004) (225, -8.11119973659515380000e-002) (226, -2.54208184778690340000e-002) (227, -4.46484349668025970000e-002) (228, -8.15652832388877870000e-002) (229, -1.11419172026216980000e-003) (230, -2.84588686190545560000e-003) (231, 9.62840244174003600000e-002) (232, 2.76255980134010310000e-002) (233, 3.25326025485992430000e-002) (234, 3.24237421154975890000e-002) (235, -4.75545786321163180000e-002) (236, -4.06704209744930270000e-002) (237, -5.30643165111541750000e-002) (238, -1.62636954337358470000e-002) (239, 6.19506388902664180000e-002) (240, 3.85577753186225890000e-002) (0, 4.56044934689998630000e-002) (1, 6.96553736925125120000e-002) (2, 1.76615070085972550000e-003) (3, -1.31045162677764890000e-001) (4, -7.33541250228881840000e-002) (5, -1.03694692254066470000e-001) (6, -1.11024126410484310000e-001) (7, -9.47960373014211650000e-003) (8, 3.51634062826633450000e-002) (9, -5.24628423154354100000e-002) (10, -1.67971570044755940000e-002) (11, -4.11959085613489150000e-003) (12, 7.34821259975433350000e-002) (13, -6.49722963571548460000e-002) (14, -1.00835599005222320000e-001) (15, -9.86530333757400510000e-002) (16, -1.12708723172545430000e-002) (17, -3.79960462450981140000e-002) (18, -7.95396342873573300000e-002) (19, -2.95816343277692790000e-002) (20, 2.80048344284296040000e-002) (21, 1.73358563333749770000e-002) (22, -7.62342363595962520000e-002) (23, -9.21740755438804630000e-002) (24, -2.07064915448427200000e-002) (25, -1.22419424355030060000e-001) (26, -4.66351881623268130000e-002) (27, -1.34164607152342800000e-002) (28, 2.30841170996427540000e-002) (29, -2.40446962416172030000e-002) (30, 1.75085646333172920000e-004) (31, -6.24355338513851170000e-002) (32, -8.58082845807075500000e-002) (33, -2.33394280076026920000e-002) (34, -6.43864572048187260000e-002) (35, -1.81012041866779330000e-002) (36, -9.45064052939414980000e-002) (37, -3.94892394542694090000e-002) (38, 5.07000088691711430000e-003) (39, -4.53163906931877140000e-002) (40, -2.84339804202318190000e-002) (41, 5.45071363449096680000e-002) (42, -7.68538713455200200000e-002) (43, 4.13703247904777530000e-002) (44, -8.58955755829811100000e-002) (45, 4.38362732529640200000e-002) (46, -2.61740330606698990000e-002) (47, -9.46183726191520690000e-002) (48, 4.68684360384941100000e-002) (49, -1.03426709771156310000e-001) (50, -2.75863502174615860000e-002) (51, -8.35081655532121660000e-003) (52, -1.06240659952163700000e-001) (53, -9.81082767248153690000e-003) (54, -9.52599570155143740000e-002) (55, -1.94926820695400240000e-002) (56, 3.61193269491195680000e-002) (57, -4.41470891237258910000e-002) (58, -5.26591315865516660000e-002) (59, -2.39079929888248440000e-002) (60, -5.73683269321918490000e-002) (61, -1.18857165798544880000e-002) (62, 2.57144309580326080000e-002) (63, 2.10863109678030010000e-002) (64, -6.05472289025783540000e-002) (65, 5.47962673008441930000e-002) (66, -1.47034768015146260000e-002) (67, 3.08908186852931980000e-002) (68, 1.32377296686172490000e-002) (69, -9.41152051091194150000e-002) (70, 2.68062278628349300000e-002) (71, -7.79092535376548770000e-002) (72, -5.44803775846958160000e-002) (73, 3.90806645154953000000e-002) (74, 1.07043469324707980000e-002) (75, -7.85508230328559880000e-002) (76, 6.98837563395500180000e-002) (77, 6.91374912858009340000e-002) (78, -1.16815984249114990000e-001) (79, -1.67437968775630000000e-003) (80, -1.20684877038002010000e-002) (81, 6.23774453997612000000e-002) (82, -2.57186833769083020000e-002) (83, -4.17076535522937770000e-002) (84, -4.88484501838684080000e-002) (85, 2.83737573772668840000e-002) (86, -7.20905214548110960000e-002) (87, -2.47889757156372070000e-003) (88, 2.40708030760288240000e-002) (89, -9.05195698142051700000e-002) (90, 6.58575966954231260000e-002) (91, 3.90641018748283390000e-002) (92, -9.74828004837036130000e-002) (93, -6.95126876235008240000e-002) (94, 1.61075349897146220000e-002) (95, -9.19773951172828670000e-002) (96, -9.08216312527656560000e-002) (97, -1.06129959225654600000e-001) (98, 7.03312680125236510000e-002) (99, 2.21920441836118700000e-002) (100, 1.95922888815402980000e-002) (101, -9.31700617074966430000e-002) (102, -5.21198399364948270000e-002) (103, -1.05444878339767460000e-001) (104, 1.51222581043839450000e-002) (105, -5.95544166862964630000e-002) (106, -2.64395531266927720000e-002) (107, -2.33833789825439450000e-002) (108, 3.28579470515251160000e-002) (109, 2.98370514065027240000e-003) (110, -6.04399591684341430000e-002) (111, -1.15949034690856930000e-001) (112, -1.10980205237865450000e-001) (113, -6.53074681758880620000e-002) (114, 5.76982693746685980000e-003) (115, -4.48224954307079320000e-002) (116, 4.61671762168407440000e-002) (117, 2.24329275079071520000e-003) (118, -1.01290166378021240000e-001) (119, 1.12283369526267050000e-002) (120, -4.95889559388160710000e-002) (121, -6.63662748411297800000e-003) (122, 1.19858691468834880000e-002) (123, 1.70743037015199660000e-002) (124, -1.24256178736686710000e-001) (125, 2.46078930795192720000e-002) (126, 5.62004484236240390000e-002) (127, -1.21932633221149440000e-001) (128, 1.92479453980922700000e-002) (129, -4.29310388863086700000e-002) (130, -2.42834240198135380000e-002) (131, -7.28973373770713810000e-003) (132, -9.59789454936981200000e-002) (133, -7.04339444637298580000e-002) (134, -4.23804484307765960000e-002) (135, -1.17966588586568830000e-002) (136, -3.50963696837425230000e-002) (137, 4.61239665746688840000e-002) (138, 7.04045295715332030000e-002) (139, 6.31909072399139400000e-002) (140, 5.23820035159587860000e-002) (141, 1.25372270122170450000e-002) (142, 7.96916782855987550000e-002) (143, -6.81752040982246400000e-002) (144, 1.45635977387428280000e-002) (145, 1.33741376921534540000e-002) (146, -5.62354810535907750000e-002) (147, 1.29462149925529960000e-003) (148, 7.15558007359504700000e-002) (149, 7.62772862799465660000e-004) (150, -4.83731701970100400000e-002) (151, -6.69742748141288760000e-002) (152, -7.95886591076850890000e-002) (153, -2.93933395296335220000e-002) (154, -5.18841110169887540000e-002) (155, 2.23466008901596070000e-002) (156, 9.32979397475719450000e-003) (157, 2.20346469432115550000e-002) (158, -2.05996986478567120000e-002) (159, -2.07711569964885710000e-002) (160, 9.91386733949184420000e-003) (161, -1.27645963802933690000e-002) (162, 6.24892190098762510000e-002) (163, 6.31253644824028020000e-002) (164, 6.64923489093780520000e-002) (165, -4.51920479536056520000e-002) (166, -2.20031328499317170000e-002) (167, -9.28796380758285520000e-002) (168, 6.34828433394432070000e-002) (169, 5.11348545551300050000e-002) (170, -1.12472511827945710000e-001) (171, 3.06528825312852860000e-002) (172, -1.16151839494705200000e-001) (173, -1.33779317140579220000e-001) (174, -6.49276524782180790000e-002) (175, -1.31885692477226260000e-001) (176, -1.50899151340126990000e-002) (177, 1.00478418171405790000e-002) (178, -3.04596032947301860000e-002) (179, -4.41324636340141300000e-002) (180, 4.85348999500274660000e-002) (181, -6.06936588883399960000e-003) (182, -1.62064991891384120000e-002) (183, 3.86345051229000090000e-002) (184, -4.66000176966190340000e-002) (185, -1.06326587498188020000e-001) (186, -2.37943567335605620000e-002) (187, -1.04026176035404210000e-001) (188, 1.44522953778505330000e-002) (189, -6.89278729259967800000e-003) (190, -1.29952952265739440000e-001) (191, -1.14279597997665410000e-001) (192, 4.31395433843135830000e-002) (193, -1.17382943630218510000e-001) (194, -1.04021757841110230000e-001) (195, 3.13686579465866090000e-002) (196, -3.46016138792037960000e-002) (197, 9.23371687531471250000e-003) (198, -7.82202929258346560000e-002) (199, 7.30229215696454050000e-003) (200, -6.75696060061454770000e-002) (201, 5.04634380340576170000e-002) (202, 6.45055947825312610000e-003) (203, -1.06325805187225340000e-001) (204, -8.99610817432403560000e-002) (205, -9.04917251318693160000e-003) (206, -7.67784267663955690000e-002) (207, 4.32369709014892580000e-002) (208, -8.76215249300003050000e-002) (209, 5.09958118200302120000e-002) (210, -1.03713959455490110000e-001) (211, 6.35570138692855830000e-002) (212, -6.91457763314247130000e-002) (213, -1.38731375336647030000e-001) (214, 4.62908521294593810000e-002) (215, -4.00121770799160000000e-002) (216, -3.42262424528598790000e-002) (217, 6.48556798696517940000e-002) (218, -4.79508936405181880000e-002) (219, -7.37033039331436160000e-002) (220, -9.85645875334739690000e-002) (221, -2.25045029073953630000e-002) (222, 7.17079192399978640000e-002) (223, -1.75035744905471800000e-002) (224, -3.32074426114559170000e-002) (225, -6.20399713516235350000e-002) (226, 3.95093634724617000000e-002) (227, 1.17436815053224560000e-002) (228, -6.37540267780423160000e-003) (229, -2.30144821107387540000e-002) (230, -5.89431226253509520000e-002) (231, -7.98135399818420410000e-002) (232, 6.65746256709098820000e-002) (233, -3.94180491566658020000e-002) (234, 4.48848009109497070000e-002) (235, -1.73640605062246320000e-002) (236, -3.47976908087730410000e-002) (237, -1.26486513763666150000e-002) (238, 2.56039369851350780000e-002) (239, 3.29050309956073760000e-002) (240, -1.34373083710670470000e-001) (0, 5.81260360777378080000e-002) (1, -2.28624232113361360000e-002) (2, -9.78561341762542720000e-002) (3, -3.50572802126407620000e-002) (4, -8.44321027398109440000e-002) (5, 1.53812933713197710000e-002) (6, 4.78878058493137360000e-002) (7, 7.82666206359863280000e-002) (8, -1.00798279047012330000e-001) (9, 3.72849106788635250000e-002) (10, 4.14537005126476290000e-002) (11, -3.03605310618877410000e-002) (12, -5.85879720747470860000e-002) (13, 4.40753996372222900000e-002) (14, -5.42642502114176750000e-003) (15, 8.83928462862968440000e-002) (16, -4.59787026047706600000e-002) (17, 6.42379838973283770000e-003) (18, 5.06991334259510040000e-002) (19, 4.64979885146021840000e-003) (20, 3.50951403379440310000e-002) (21, -3.68413068354129790000e-002) (22, 9.55609381198883060000e-002) (23, -9.41474884748458860000e-002) (24, -2.32866555452346800000e-002) (25, -6.89857304096221920000e-002) (26, 6.84820786118507390000e-002) (27, -8.46078619360923770000e-002) (28, -1.18102505803108220000e-002) (29, -1.26646561548113820000e-002) (30, 5.31583130359649660000e-002) (31, -1.05450212955474850000e-001) (32, 9.60289314389228820000e-003) (33, 7.92342945933341980000e-002) (34, 8.45490917563438420000e-002) (35, 2.48727835714817050000e-002) (36, 7.47934356331825260000e-002) (37, -1.02655202150344850000e-001) (38, 4.71180193126201630000e-002) (39, -9.37973931431770320000e-002) (40, -5.61006926000118260000e-002) (41, -6.51739835739135740000e-002) (42, 3.82003635168075560000e-002) (43, -1.25879617407917980000e-002) (44, -4.43908348679542540000e-002) (45, -7.71406665444374080000e-002) (46, 6.35097771883010860000e-002) (47, -1.02333389222621920000e-001) (48, -1.02379806339740750000e-001) (49, 4.42215539515018460000e-002) (50, -7.23336115479469300000e-002) (51, -3.34650464355945590000e-002) (52, 1.32147246040403840000e-003) (53, 4.82201427221298220000e-002) (54, 3.84850651025772090000e-002) (55, -1.72827113419771190000e-002) (56, -3.18593159317970280000e-002) (57, -1.49227771908044820000e-002) (58, -1.01926527917385100000e-001) (59, -9.61486622691154480000e-002) (60, -5.05758821964263920000e-002) (61, -9.63996648788452150000e-002) (62, -9.01956334710121150000e-002) (63, -8.30329209566116330000e-002) (64, 9.37308277934789660000e-003) (65, 1.70192215591669080000e-002) (66, 3.59611101448535920000e-002) (67, -5.45788705348968510000e-002) (68, -7.86579921841621400000e-002) (69, 6.68948963284492490000e-002) (70, -4.19923327863216400000e-002) (71, 6.74521401524543760000e-002) (72, 1.86025686562061310000e-002) (73, 8.63930806517601010000e-002) (74, -4.68016639351844790000e-002) (75, -3.53461573831737040000e-003) (76, 2.30071091209538280000e-004) (77, -5.95208443701267240000e-002) (78, -7.70299360156059270000e-002) (79, -5.59230819344520570000e-002) (80, 6.07255138456821440000e-002) (81, 2.48698913492262360000e-003) (82, 3.44914384186267850000e-003) (83, 3.88252027332782750000e-002) (84, 2.65542753040790560000e-002) (85, -3.65199707448482510000e-002) (86, -4.97270561754703520000e-002) (87, -1.08345150947570800000e-002) (88, 5.25179654359817500000e-002) (89, 2.59186755865812300000e-002) (90, 6.17003627121448520000e-002) (91, 7.87898898124694820000e-002) (92, -6.09695799648761750000e-002) (93, -6.76592811942100520000e-002) (94, 5.33330589532852170000e-002) (95, 4.33480329811573030000e-002) (96, -9.72785949707031250000e-002) (97, 1.52633842080831530000e-002) (98, -3.29647548496723180000e-002) (99, -1.30650540813803670000e-002) (100, -4.80029098689556120000e-002) (101, 7.05586969852447510000e-002) (102, -4.36077862977981570000e-002) (103, -2.32274718582630160000e-002) (104, 1.63650047034025190000e-002) (105, -6.37066364288330080000e-002) (106, -3.16782854497432710000e-002) (107, 2.63640973716974260000e-002) (108, -5.79143092036247250000e-002) (109, 2.44389083236455920000e-002) (110, 2.71908417344093320000e-002) (111, -3.41975800693035130000e-002) (112, -8.74725803732872010000e-002) (113, 6.32829964160919190000e-002) (114, -2.87187341600656510000e-002) (115, 9.32786837220191960000e-002) (116, -2.36650742590427400000e-002) (117, 9.16349142789840700000e-002) (118, 9.50936004519462590000e-002) (119, -7.56080374121665950000e-002) (120, 4.66625578701496120000e-002) (121, -6.27453029155731200000e-002) (122, 4.44209612905979160000e-002) (123, -9.81174111366271970000e-002) (124, 9.33337509632110600000e-002) (125, 2.07678284496068950000e-002) (126, 7.29368999600410460000e-002) (127, -7.77243226766586300000e-002) (128, -3.35486829280853270000e-002) (129, -1.70690175145864490000e-002) (130, -2.23254580050706860000e-002) (131, 6.89685940742492680000e-002) (132, -3.42012606561183930000e-002) (133, 7.76434084400534630000e-003) (134, -9.28680002689361570000e-002) (135, -2.65629217028617860000e-002) (136, 1.27403633669018750000e-002) (137, -6.19800016283988950000e-002) (138, -1.05531914159655570000e-002) (139, -1.14781279116868970000e-002) (140, 4.67646047472953800000e-002) (141, 9.20275747776031490000e-002) (142, -8.68044421076774600000e-002) (143, -7.84202739596366880000e-002) (144, 4.57075051963329320000e-002) (145, -8.55269003659486770000e-003) (146, -3.91024835407733920000e-002) (147, 7.10645541548728940000e-002) (148, -5.73257058858871460000e-002) (149, -9.37721803784370420000e-002) (150, 1.93274067714810370000e-003) (151, 3.54030095040798190000e-002) (152, 1.72684993594884870000e-002) (153, 8.95303413271903990000e-002) (154, -8.90736281871795650000e-002) (155, -4.37882691621780400000e-002) (156, 5.06309568881988530000e-002) (157, -7.56868720054626460000e-002) (158, 4.19523715972900390000e-002) (159, 3.31293381750583650000e-002) (160, -4.24937792122364040000e-002) (161, 7.97552391886711120000e-002) (162, -6.45227283239364620000e-002) (163, 1.50220813229680060000e-002) (164, 7.98213854432106020000e-002) (165, 7.85316601395606990000e-002) (166, -6.74740448594093320000e-002) (167, -6.41701668500900270000e-002) (168, 3.39707806706428530000e-002) (169, 4.72647547721862790000e-002) (170, -5.30292280018329620000e-002) (171, -3.30980755388736720000e-002) (172, 3.53697314858436580000e-002) (173, -1.72984190285205840000e-002) (174, 9.62541103363037110000e-002) (175, -7.66375958919525150000e-002) (176, 6.26854673027992250000e-002) (177, 5.96979446709156040000e-002) (178, 1.70013178139925000000e-002) (179, 2.35718898475170140000e-002) (180, -8.26441124081611630000e-002) (181, 4.61919903755187990000e-002) (182, 5.16557060182094570000e-002) (183, 5.69566413760185240000e-002) (184, 7.40126892924308780000e-002) (185, -8.64346697926521300000e-002) (186, -2.71777492016553880000e-002) (187, 8.70978310704231260000e-002) (188, -9.23949778079986570000e-002) (189, -8.15020687878131870000e-003) (190, 8.06808695197105410000e-002) (191, 4.83458004891872410000e-002) (192, 2.18213219195604320000e-002) (193, 4.18043434619903560000e-002) (194, 6.27911314368247990000e-002) (195, 6.03427439928054810000e-002) (196, -3.55835929512977600000e-002) (197, -7.19257891178131100000e-002) (198, -5.44777438044548030000e-002) (199, -1.50960776954889300000e-002) (200, -1.37917911633849140000e-002) (201, 2.20538396388292310000e-002) (202, -4.98952902853488920000e-002) (203, 7.69560858607292180000e-002) (204, 9.37765613198280330000e-002) (205, 5.74889071285724640000e-002) (206, 3.14866937696933750000e-002) (207, 7.69178420305252080000e-002) (208, 8.17507132887840270000e-002) (209, 1.23674953356385230000e-002) (210, 7.64099135994911190000e-002) (211, 1.35062299668788910000e-002) (212, -3.11074815690517430000e-002) (213, 6.77778273820877080000e-002) (214, -7.79460892081260680000e-002) (215, -9.68263968825340270000e-002) (216, -9.47696343064308170000e-002) (217, 7.56607204675674440000e-002) (218, -7.69513193517923360000e-004) (219, -2.42433045059442520000e-002) (220, -7.30067342519760130000e-002) (221, -9.43654254078865050000e-002) (222, -1.04961581528186800000e-002) (223, 4.24111969769001010000e-002) (224, 2.03039608895778660000e-002) (225, -6.93856030702590940000e-002) (226, 6.67653381824493410000e-002) (227, -7.20136463642120360000e-002) (228, 7.43628293275833130000e-002) (229, 1.64333079010248180000e-002) (230, -2.43109855800867080000e-002) (231, -5.18693216145038600000e-002) (232, 3.59917767345905300000e-002) (233, -4.26734946668148040000e-002) (234, 7.94799774885177610000e-002) (235, -2.60986667126417160000e-002) (236, -7.68333524465560910000e-002) (237, -2.64062006026506420000e-002) (238, 7.44841843843460080000e-002) (239, -2.94645782560110090000e-002) (240, -7.50766322016716000000e-002) (241, 7.20658183097839360000e-001) (242, -8.99576067924499510000e-001) (243, 1.53067465871572490000e-002) (244, 1.03738553822040560000e-001) (245, 2.47347545623779300000e+000) (246, 2.90766893886029720000e-003) (247, 3.63637246191501620000e-002) (248, 1.10792852938175200000e-001) (249, 1.36330932378768920000e-001) (241, -1.14303417503833770000e-001) (242, 1.19531810283660890000e+000) (243, -3.27191799879074100000e-002) (244, 1.82438313961029050000e-001) (245, -3.40757751464843750000e+000) (246, 2.63670772314071660000e-001) (247, -2.47320860624313350000e-001) (248, 2.17640399932861330000e-001) (249, 4.75062757730484010000e-001) 
