<?xml version="1.0"?>
<opencv_storage>
<my_stat_model type_id="opencv-ml-LogitRegression">
  <nDim>128</nDim>
  <nC>4</nC>
  <LogitBeta type_id="opencv-matrix">
    <rows>4</rows>
    <cols>129</cols>
    <dt>d</dt>
    <data>
      1.4186949146691630 1.0912986148582347 -0.4688410552337041
      -0.0697800899937049 -0.3145055942377547 -0.9199728049349666
      -1.2833006214604845 -0.6063004944076480 1.2204953517668218
      -0.2657531191561542 -0.4322907904024727 -0.8145579432984008
      -0.5459193167619900 0.0170524765726758 0.2010489377703631
      0.3884598671197990 0.2522911037290950 0.2791910048893989
      0.2528631702618919 0.1382551169056553 -0.9414112410154530
      1.0415847881464515 -0.2883532155437998 -0.5852384558540900
      0.1347396801512784 -0.0569528962040992 0.2704326334531341
      0.1882527024485340 0.8720434005397711 -0.7767162454659065
      0.5259760525628126 0.7781342246388948 -0.3217030139989426
      -0.6439851191986633 -0.9404675251467827 -1.2683709208860656
      0.4654435563602021 -0.0415495417719114 -0.9803780925357517
      0.1901646246758383 -0.3279540074814931 0.5765064618477516
      -0.3369366303695642 0.4420366399043369 0.1780149333918138
      0.6502302010466758 0.8960572714596552 0.5909869093169118
      -1.7196966670844887 -0.8068824072434164 -2.2522099514768823
      -0.6018971531920706 -0.9423504295123129 0.4915753948554167
      0.5222940956766575 0.0480029653892681 0.8247224328835588
      0.7295090301141263 0.1017825272412599 0.4106028134542589
      -0.0700692581573593 0.7877343635794493 0.2300750192932952
      -0.6271467736530221 -0.2182461707413774 -1.1971263707292024
      -0.4910764418932301 -1.1210641073667191 -2.0382781730044419
      -0.2194281867392394 -0.2904336776968156 0.1204992388819471
      -0.8763117680989190 -0.8920376141878823 -0.2731219062578789
      -0.1897774957094766 -0.7823873070797226 -0.4874255102958086
      -0.0283146166823817 -0.6042826738437284 0.8276311819177280
      1.2529630786930601 0.4619227903531113 0.1320999519923655
      -0.8686344629718026 1.0086333864174672 -0.0233600938606271
      -0.1501173542203577 -0.3441068747521371 -0.3239007789983524
      -1.1799813689646104 -0.4702381536952356 0.2246970708254604
      -0.6806973645936983 0.1512344532156282 -0.2745240803206616
      -0.6986533896647230 -1.1320272437559078 -0.6312558164292724
      1.0488963179979036 -0.9572280901503734 -0.0425708974572572
      0.5790008723712081 0.3556695730950479 -0.6382779043090665
      -1.0598807992872008 -0.7298342428797389 0.0640499886599338
      1.2455959901032694 0.8589829842888438 0.5355850362848342
      -0.3032667985035335 0.1862727750619945 0.2499910858556876
      0.4719473682073820 -0.0891662230591748 -0.2196525891213310
      -0.5659443366893332 -0.1812202346601236 -1.0078755005034983
      0.6700587858280092 0.6939877969218632 0.0984923996547163
      -0.2135387200679549 -0.4413175992234696 -1.4059296470196827
      -1.3342029932055106 0.7523511965198425 1.5216314584917046
      -1.0825506015820041 0.0867169580129958 1.0093268382416483
      0.5848220302497105 0.4509016888830766 0.6019147704242928
      0.0213955363207699 -0.0606382432739974 -0.8298507736201287
      -0.2458155468503956 -1.2774114335545796 0.7623652845339757
      -0.2621606770484678 -0.3075684406410160 0.5385594569686564
      -1.4250764832922052 -0.7299972432933809 -0.1090736481787087
      -0.4629195912467393 -1.0184844072323136 1.4327192761991769
      -0.5184373804101184 -0.0378221290925977 0.3533367089002887
      0.1118636479504575 0.2882213642258979 0.1904188150908982
      0.1813362008318423 -0.7230635035328100 0.9911626135013627
      -0.3197412572746352 0.0940530320140422 -0.6852980252357912
      -0.2295757632033425 -1.2277974570426720 -0.5834827853114784
      -0.9003884442976712 0.3777581595353694 0.1895267934164080
      -0.9477368112089601 0.0980203285836324 -0.0562232939042276
      -0.4229120326733244 -0.2478848890337383 0.0975210069556017
      -1.0022859980247394 -0.6243993282133969 0.2722438546366351
      -0.5903177591602307 -1.3699550935975358 -0.2674997784859979
      -0.6050442455468034 -0.1020028344101349 -0.8219695420065127
      -0.0392965724987615 0.1473373033230327 0.1036245409921566
      0.3747005624855479 0.1977931056486047 0.9921362194390219
      0.2213415095668497 0.1480734005153967 0.3006385933836973
      0.9076411789769053 -0.6621410845020623 0.1493053660882689
      0.1418095121465627 0.3794340991033770 0.8079936974056046
      0.1620490714839528 -0.3896061665185647 -1.4826218826643707
      0.8647261268808679 -0.3858500321742607 0.1442884494141971
      0.1042364214929049 -0.3769348025017720 -0.3967687397236036
      -0.6004295185233662 0.1786845628417499 -0.0275046077235148
      -0.5185143856117555 -0.1638561986002590 0.8568844364346873
      0.8785545963951091 0.1501841963973155 -1.0191232006187452
      -0.3326522168936914 -0.7157840718823919 -0.3494085513921703
      0.9046437551839417 0.1421433271880543 0.0261234231707803
      0.6500396493778280 0.5692441131272447 0.0945587008545525
      0.1268626124905682 -0.3549717336305325 0.6858045069986558
      -0.3195321189777707 0.2448818107598475 0.5224204275743729
      -0.9560794863882177 0.2511236700751929 0.3101433493754861
      0.8968889103584050 0.6014489906755929 -0.2392266636434303
      -0.9769055830440898 -0.1469338967761854 0.1209377067417428
      0.6977863626696761 0.4701090611678643 -1.1328501989688085
      -0.5683652492778939 0.1295991624815381 -0.4482757170318710
      -0.3769856043794470 0.1421929989687704 0.3900796452302482
      0.3245891187412301 -0.3590133515264598 -0.1924815866726878
      0.6531245916849080 0.6427443984129821 -0.1527582374474746
      -0.3881564876210601 -0.0522086018899435 -0.8005002486412993
      -0.5590920340486737 -0.9014436937747123 -0.6906614753994957
      -0.1019455824335946 0.2077104765297286 0.3356017191503158
      0.0991285430354069 0.7230804031281203 0.4285986716164500
      -0.3498184143259405 0.5231168155182814 -0.2187826964181995
      0.6388615641889852 -0.5064117749524235 -0.6773043011025229
      0.7374445372545671 -0.0671469660794745 -0.1337985564126761
      0.9164527767801912 0.3971990027854281 -0.6954929672028481
      0.2301232464211356 -0.7959492918056950 0.5357254173244992
      0.5152758593403957 -0.0822290242070870 0.2538087442251485
      -0.7924599527721303 -0.1911879360864565 -0.8363102166941119
      -0.2943022739948477 -1.2159278490654415 1.3096598645136035
      1.5801979041582823 0.1415518893825962 -0.5356722579627123
      0.8528929689794920 -0.4206223265351248 -0.0253346295313973
      0.3720188484794779 0.4005079058067141 -0.5749641767375362
      0.0472195011074455 -0.0969700901563163 -0.6761448890149971
      -0.0978292999409641 -0.5849803683131195 -0.7305179287351713
      1.6012820952038380 -0.1217416390457116 -0.8157033258175345
      0.0621530798774151 0.8960927075256824 0.4009340771149275
      -0.1478334215050698 0.1700988585455260 -0.4641325593808831
      -1.0444467106957602 0.1117943424116883 -0.7616048191819544
      -0.1611589007148539 -1.2333608610419278 -0.2955176163626976
      0.0950345567094931 0.8944982005847902 0.2337080126534571
      -0.2223009032546618 1.3144359947669255 0.4189550561736318
      -0.6505009969711799 0.5595109693759922 0.6083968987985260
      -0.3161639218581963 0.7736333379869899 -0.3707589344119889
      0.1560729934397950 0.3110452532084790 0.6125148419122386
      -0.4743068553426806 -0.4516924719398267 -0.1852490163905022
      0.0622078203335076 -0.2928200858775171 -1.0524668313126775
      -0.2695384126696827 0.0830307414089263 1.0063726685136518
      0.1956856559527720 1.2667488055741247 0.2528566714870379
      0.0240386770550476 -0.1333716164986782 -0.6217381175014644
      -0.4122449118391817 -0.7180962053391982 0.0292900982814382
      0.6442417144155326 0.9244656093662742 -0.5229421579484634
      -1.0004699326945072 0.4624100495540508 -0.8022786546355790
      0.2302560905458123 0.1207871942123197 0.1421486298153402
      -0.0174059671940760 0.6079425632638681 -0.3077201145955050
      -0.7444078630765229 -0.9649179917168616 -0.2975673447504317
      -0.3252624383814013 0.0298506735481783 -0.1947211395637041
      -0.3555538370692093 0.5593607715515937 -0.3579496014355927
      0.8365001925908963 -9.3647231643532898e-003 0.5044380662796363
      -0.1967326201435474 -0.7018520757534170 -0.6916844758772625
      -0.2960984753387889 -0.5578474871955409 0.7326069232009265
      0.8972094586430978 -0.5986475659240720 -0.6659761205236687
      0.4007572746518263 -0.4119145212728997 0.2552776428603472
      -0.8537327478073872 -0.6926586667158226 -0.1176136491697798
      0.8001492154129255 0.0277254480924330 -1.0147629874212569
      0.9897660995398353 1.1030980612871697 0.4526473093651665
      0.1540429542562798 0.6281982730823446 -0.2820183250289455
      0.5091915661771481 0.6547612083593537 -0.3168102435793691
      -1.0528807533229516 0.3146399860476982 -0.0800472232134752
      -0.5723228073672023 1.7115020880559488 -0.2466754672799405
      -1.0505511448021645 0.0618690714304495 -0.6649745784110674
      0.4051700465667752 0.0460918261398259 0.4983969301014045
      -0.2606377751434893 0.4309354939013687 -0.1811113072845408
      -1.1659553015022415 0.9732056956225691 1.9971265826140177
      -0.4742828396551650 0.1622921189169818 1.0739229910632515
      0.4967433509987531 -0.2823179335863062 0.2294298450752720
      0.5726645594057414 -0.5483272061842998 0.6067214532108809
      0.1397358830905338 -0.1513466995768715 -0.3596343844870624
      -0.2927205187343639 1.4425862101783808 2.2006467677932720
      1.2074484060048818 -0.9736689221835465 -0.0822652101318776
      -0.1726933591404888 -0.1995645395622396 -0.1420829544106991
      0.5619565334395841 -0.2425830880717539 -0.7157329656721103
      0.0582034528729419 0.2308075063328973 -0.1816994828221397
      -0.5751008287760894 0.1326576373073430 1.4179729956056160
      0.9296787634466661 -0.8281291326282030 0.1400993586862885
      0.7568195348561456 0.4204241461368592 0.5218972398190654
      0.2246551822942138 -0.0348800661501790 0.5946238208010780
      0.4928821188330680 0.5043101155430860 0.1976325198191830
      1.5202026317675896 0.7331870630345660 -0.2235353461348026
      -1.1996236498759079 -0.6827661317223949 -0.2208070576685633
      -0.1208852277837685 -1.5178796981482043 -0.2544202398887050
      0.6028601898440806 -0.5832032745749709 0.3744137519002618
      -0.3476288586574545 0.0570238862535043 0.3800644903855222
      0.1935492418785864 0.1031430629189506 -0.2148131557669648
      -0.5416394931229510 0.3277968708451733 0.4677554572010753
      0.2741353073275150 -0.5628905108522848 0.3830637670932514
      0.2230635749526320 -0.9785028458601957 -0.0860872992105025
      0.3237055883168669 -0.5278919582780459 0.0767358254111554
      0.0369856466649978 0.1011682057635057 -0.9599489932021439
      -0.3939071984562962 -0.4889844829569133 0.9944594247754205
      0.1858512630252257 -0.6978186640797134 0.6404158116491362
      0.2393215539204935 0.4324201801278681 0.0679573944433844
      -0.8999235786578032 0.5136891758940763 0.8386098272785084
      -7.3839006109832689e-003 0.8231985216559135 0.8253016470000406
      0.6105770979574259 -0.3608742669509064 -3.8417306995676257</data></LogitBeta></my_stat_model>
</opencv_storage>
