<?xml version="1.0"?>
<opencv_storage>
<my_stat_model type_id="opencv-ml-LogitRegression">
  <nDim>128</nDim>
  <nC>4</nC>
  <LogitBeta type_id="opencv-matrix">
    <rows>4</rows>
    <cols>129</cols>
    <dt>d</dt>
    <data>
      -2.0056533808694628 -1.1826955216173838 0.6580423587159343
      0.1777263664621157 -1.1798018304249664 -0.9497767776362880
      -1.3644729507036901 0.0646602668052631 -3.5494839231039704e-003
      1.0861094388304444 -0.4172854900308806 0.0269909767799213
      0.1935333915424183 0.0873700498741403 0.4028575361663994
      1.2064531318382534 -0.6539133538252817 -0.1062529682675708
      0.7047827781116782 -0.9419147378465440 0.1615061436597425
      -0.7179913644624624 -0.5844726590079672 0.5165389665502125
      1.0520438931530651 -0.0494650040493237 -0.5109232542747161
      0.0804031673665579 -0.0993908953229927 -0.7431929479203636
      0.7118927439765843 0.0361782153012625 0.2165746271382963
      -0.8931434255802915 -0.1646151806215773 1.1044538064639895
      0.1736917805365103 -1.0560170460037179 -0.2268080882199911
      -0.9925273098923947 1.9281159355592998 -0.1505505666780922
      0.5469810647291509 -0.0489534449655236 0.4327962476399539
      -0.2765626441171133 -0.2970374543829727 -1.3140887586871055
      -0.4765746765062737 -1.2762789041433444 0.4998188734361810
      1.8936502021614869 0.6378517462027232 -0.0123342672568456
      0.1961996930336076 -0.5132326796427523 -0.4724203586467922
      0.3632138669557533 0.1595715417323926 -0.2993048440483939
      -0.4284665191580732 -0.3645176364970466 -0.9598068352024988
      -1.0525952294382031 -1.4805472294350865 -1.1781679124539493
      1.1156103045958314 1.7803629374659731 -1.4570008300979078
      -0.6657320196193010 0.0755102103226300 -0.3113466816233987
      0.3423776558394855 0.6309150448594312 0.0316922726007724
      -0.2888313335917920 -0.3635928050813471 0.1779229181269968
      0.6898426557119070 0.1940117018414040 -0.9273306341638813
      0.4541261212806131 0.7630792808778693 0.2682628092772226
      1.6198927099311577 0.2471308791447332 0.0633382525979985
      0.5653732690015287 0.4574787568019824 0.7788126933137785
      0.8560808442216077 0.3680850592195159 0.7545528738421844
      0.5107109850097206 -0.6465051522795298 -0.8546669184417250
      1.3060417607804828 -1.0339687385106011 0.2568170591068966
      -1.1704502234045946 0.4243486094369271 -0.2614262752208159
      0.2949855409289320 -0.0169171780919673 -0.1870858643017025
      0.2550437656186063 0.3076890066763242 -0.2776198994797737
      0.0104370150712890 0.2064605050706190 -0.7161579470254550
      -0.3771806667823380 -0.3341692957058971 -0.1246825803114886
      0.5593157986144772 0.9055280715855282 -0.7311775336359743
      -0.1258107327481195 -0.2836957245752798 -0.8719231077097072
      0.9960251450312103 0.8734490277555699 0.6206788482834161
      -0.9498186547126177 -0.1996465900188448 0.1092155248217166
      -0.1478978139933236 -0.8351973586295085 -0.3900433536008944
      0.0954778231264635 0.0433262138338449 -0.1875777470125116
      1.9257703316251011 -0.4773539448480086 0.2607569358165641
      -0.2867447310606248 0.0714965826324409 -0.6107704234845408
      -0.1913981088004297 -0.1746400640975717 0.9797040611632427
      -0.4417352467719914 0.2247811598160322 0.0622796166190088
      -0.3950407696872412 0.1250951216516995 -0.9297458924034749
      0.4704182563648500 -0.5451226371872159 -0.0729865697004874
      -0.4832813543778509 -0.5807478778417963 -0.9383314793416816
      0.5505297812394601 -0.0243914114315742 0.4909212952128378
      0.0855354253345874 -0.0633681897754445 1.4734225487939532
      -0.0771639824013519 0.5234552871635808 -0.2813003781916645
      -0.5548919070272100 -0.5666692132190656 0.3136756219477803
      0.1159350852062269 0.0737851825982068 0.1311820252082545
      0.2019111634838382 -0.7801551445393483 0.3147788480419684
      -0.1946449948967482 -1.9251202797546923e-003 0.1621561767157015
      0.5844525854035575 0.4830751526650144 0.1127662958133891
      0.1070801366160365 1.0359918605054055 -1.2720350333325128
      0.7051731429992075 -0.1971138886507126 0.4497087335043739
      -0.1947630339283840 0.5280775856233537 -0.0173129512957566
      -1.1039921928633074 -0.4616795699639382 -0.6405720787074001
      0.7219820610056214 -0.4576062024061783 0.5647468269073751
      0.0529528210944755 -0.8380779733880163 0.1745381052626189
      0.2081524245256398 -0.0825392926302761 -0.6068823658267957
      0.1543479914065110 -0.4407792085769988 0.0528255641620405
      -0.2577719871746312 -0.0535453872984221 -1.2345312814089417
      0.2864305137170016 0.8446536120964313 0.4352806091607925
      0.3751544675591079 0.7897652272965302 1.8057505993095992
      -0.8455006672434562 -0.5016645982385678 0.6991269088456124
      -1.3024903542879165 -0.4581833321344749 -0.4009170846649207
      -0.0726583537236905 0.5766469380726377 -0.2001328533200767
      -0.1694435330648459 0.3695443978074822 -0.4968976569285437
      -0.1794717957704257 0.2499790524598662 0.0101904782447145
      -0.1198488388239056 0.6070270136998960 0.5494273780164306
      1.5280656461421460 0.5095596673206848 0.1445203832995595
      -0.2116177790929708 -0.7084146294803474 -0.0756035765337922
      -0.9979770110696900 -0.1387337317772570 -0.5567105419140479
      -0.2565485842180533 0.6377326053359084 -0.2967352080686207
      -0.7252275609473412 -0.6745064238742183 -0.9038884986756761
      -0.4144572020798196 -1.2284240702300731 -0.3170314943061551
      -0.0982871473558684 -0.1416713605447471 -0.8747861601805946
      -0.5215985863168039 -1.1884289979083924 0.3923302392953857
      -0.5952979933422372 0.9137626871295311 -0.3190573571160756
      0.4160353039190639 -0.6087479416765690 0.0984269811889838
      0.9169637341487748 0.4236957703221699 0.2050645685259780
      -1.6438078494268125 -0.1009157420210516 -0.0997966517712992
      0.4441673321372299 0.8793752687249848 0.6640593193809226
      -0.1621354894046250 0.3384470272496864 -0.0798119846314792
      0.0428311995362997 -0.5140149522393810 0.0121012852227210
      -0.8129971492277454 -9.5209089420113281e-003 -0.1187689939129408
      -0.2467685136645955 0.5091467894727411 0.0343367831714540
      1.0355063263187694 -0.0175898908472703 0.3816863903260759
      -0.8327973855593668 -0.7795037393576766 -0.4163605708082240
      0.4503997720228705 -0.1037013297579840 -0.8991323382781801
      0.1816921329737902 -0.7914787771006973 -0.1738080587575829
      0.3682038245447968 1.4926004106511281 -0.8243288217341097
      0.1044212205530799 0.1424437540752332 -0.0163484763532171
      0.9230957442947351 -0.5188757521226828 -1.2238085408498129
      0.1332798465624159 9.0243799545408690e-003 -0.2922761597701727
      -0.1601374617931780 -0.1749082052209885 0.9129203902597196
      -0.0801663216939228 -0.7325856474827919 0.9331304134000589
      -0.1665982609445363 0.4008525733315903 -0.5184063424530343
      -0.0607951064509456 -1.4663377497760712 -0.2476269153032909
      0.0969322396707295 0.1722224691053892 0.1742574049006387
      0.0565746859858819 0.2109732577909834 -0.0352424259702776
      0.5303506446699435 0.8840763558938799 0.5640756257347555
      -0.9398784107697062 -0.2859655710842226 1.2062443276521144
      -0.0241722107065150 0.1367755493326928 -0.3502609393600633
      -0.1811501208260916 -0.8217853072548624 1.1013578313255872
      0.8317172989970889 -0.0848262680699429 -1.1632913452312044
      -0.3620500212297276 -0.2952642135276697 -0.9428866422498504
      0.3100253896469485 -0.2297936989564007 0.2369020791476360
      -1.4354992731322165 -0.6267141458768729 0.1208993657238202
      -1.3722815789441978 -1.0411308726376396 0.0148994588743768
      -0.2996766058670236 -0.4636264603107215 -0.1338542217649629
      -0.0302247025847338 -0.2238025638919670 0.0373309098266527
      -0.4515250143501357 -0.1370894431945671 -1.1540747429410250
      0.2555739871767579 -0.7161534213804369 0.4188506405766788
      0.5085415307064185 -0.8357653474514305 -0.6812469159214279
      0.3323691328948131 0.3265766710843613 0.0105910689583826
      0.0989451348013587 -0.7069518113880173 0.7185604673381418
      -0.3070818027053471 -0.5509228463881549 0.6540156432329476
      0.2244187968497326 -0.0340136027432217 0.1852649064402406
      -0.7252299013596211 1.1568783522209740 -0.6619925111942493
      -0.4585280475171210 0.6553190392481455 -0.8374138574845205
      5.2593627902558981e-004 0.0735195797369511 -0.4633058607950212
      -0.7189691171339854 0.2632669909046205 -8.2676259320332689e-003
      0.1293074480353252 0.1519852702611026 -1.0469503900761428
      -0.5287630330309211 1.3536497409775707 0.6622852470691470
      0.6349959020700609 -0.8827584508027714 0.1129021030076785
      -0.1688344211780750 0.3018756222430988 -0.4298032166244939
      0.1729371642151927 0.1642181223903560 -0.7234706234244944
      0.2085590764691281 0.1365771263050172 1.1441223899546020
      -1.0793722410039421 0.2613331936094686 -0.2747701996126322
      -0.3509354123377913 1.1555800855993024 -0.0422996460045824
      -1.1454973847480268 0.6678323414368477 0.3307557747287414
      -0.7766839040974423 0.6333929141857029 -0.5191219876657680
      -0.9544792893729361 0.0992570084909843 0.0963284819484044
      1.0236425871753907 -1.2055629636962060 -0.9180782703325334
      4.5628803504803922e-003 0.3140840716518937 -0.3338760790454816
      -0.3950164317887318 -0.4317741868188225 1.1283848669423939
      0.0139669043873585 -0.2080073692194168 -0.5150639368391107
      -0.3042210684543883 0.1593134167184847 -0.2004925055955458
      0.1146999796603186 0.7577680417808542 -0.5611253404451218
      -3.0920713729694977 -0.6408172804236821 -0.1226855460753195
      0.1779646874111562 1.9099098028849528 0.3032419204700427
      0.2734800043371095 -0.3125598126644648 1.0211049989004608
      -0.7228188776772893 0.7276723242239899 0.2565501292666850
      0.3519107096614592 0.7480627995462015 -0.3322325725522972
      -0.8741684446329796 -1.5901586022615541 0.1264893913182704
      0.2420638905810471 0.1050410779928857 0.4755077801621288
      0.1487338117729576 0.4547008749664879 -0.4776324769123577
      -1.2041994798138027 -0.8186308656223147 0.8377048092443830
      -0.3101791954443842 -0.9092993926408752 0.3401515268134283
      -0.3426636703447438 0.2573140894479303 -0.9421392093688108
      1.7506166848965186 0.8395637086484186 0.4527494083436682
      1.2371736389070147 0.2136922026815157 -0.6715961339815689
      0.0330166417722389 -0.0198747170953537 0.0862395837940515
      -0.3834138485723518 0.7476758410540023 0.3562545897356103
      -1.2195632535481815 0.5123074331299835 -0.0997402840572890
      -1.5958148849138494 -0.3669983962445663 -0.3670485183297028
      -0.5579321618864911 1.3908455206433454 0.4785806407203387
      0.2354012809742310 -0.5324385091365922 0.2611338271244006
      -0.0906469256760552 0.3423876288052065 0.4184331925347883
      1.4143243966836083 1.1840221133092761 0.0282549743869813
      -0.3102490747127063 0.3583888083561273 0.7488980314954397
      0.8194372813167212 -0.4561289453552651 2.4683037028671957
      0.4806420041575470 -0.3855019926395256 -9.0490020424856248e-003
      0.8627837389003824 -1.2503710405878821 0.7573219090065186
      0.3139872192787149 1.1551234599177806 -2.8151298218139922</data></LogitBeta></my_stat_model>
</opencv_storage>
