<?xml version="1.0"?>
<opencv_storage>
<my_stat_model type_id="opencv-ml-LogitRegression">
  <nDim>128</nDim>
  <nC>4</nC>
  <LogitBeta type_id="opencv-matrix">
    <rows>4</rows>
    <cols>129</cols>
    <dt>d</dt>
    <data>
      -0.4604507109816481 -0.7367984933494690 -0.3694757758222642
      -0.3213224810863077 0.3022678681672373 1.2045516517708037
      0.5710082147982017 0.7030652720375284 -1.0153414582165645
      0.3342543007387970 0.8279200244753403 0.2512403182555019
      -1.6539884954366535 -1.5320511966498911 -0.6138050660304614
      -0.0206028346427608 0.9492308549946978 0.5298957791220249
      -0.5973577620856956 -0.6748820402588800 -0.7905855450071425
      -1.0481362422529683 -2.0233874896940494 0.0643080073541726
      -2.4284744260323983 -1.3658665856424783 -0.6109379029502955
      -1.0281307397517585 0.5472449808947369 1.3466922915981805
      -0.3228640343696965 -0.8452869656273029 -0.4701334985430576
      -1.2765678521747812 0.0564918210212772 0.9916206252026258
      -0.5029386208368504 -0.6311282301874811 0.1397306211510926
      0.2783592399329899 -1.4975280134863460 -0.1521844941524503
      0.0253914092052779 3.5162682344352346e-003 1.5152745301106401
      -0.7015069642446217 -0.6513395528854815 -0.4680519898183596
      0.0853410541438995 0.5205673348173542 -0.0561199103664085
      -0.2373397646188326 -0.1741004644317178 0.3513900315939995
      -0.4020453216063463 -8.2148096925439770e-003 -0.6329272658919134
      0.5502837536905723 -0.6556320344251961 -1.5044370521684727
      1.0315046900095297 -0.1259381249674396 0.3772198454067008
      0.8158272593106631 -0.4247054328590788 0.4566424235506318
      -8.5385741363842305e-003 -0.7427488802107082 -0.3175036936525330
      0.6169916823924313 -0.7407251579094043 -0.3953467971146585
      -0.1482617798072050 0.9889644612272885 0.2894633336236229
      0.9810258696378134 -0.3602450117083132 0.0878537618011987
      0.5536656125971349 -0.9159403152416629 0.6326457284771048
      -1.3736335598616591 0.6226561798470890 0.4493967592488621
      1.6418208911983578 0.2314646058851790 -0.8537054774709041
      -0.4640215190465672 -0.3887327988014783 -0.3680849182909968
      0.8023267307413216 0.5858495771476511 -0.2853732192628361
      0.8331544859773191 0.4288423331177287 0.4748513646285472
      -1.0970787231379433 -0.3917796392963791 -1.2305402995896506
      -0.8030099687611578 -0.7807839959868771 0.0475623473236318
      1.2392416905920765 0.2288185607681877 0.0852114449645387
      -0.1660718602316378 -0.4818332610403177 0.0211549130067560
      0.7919613139758360 -0.5580431174350596 0.3710594752217755
      -0.5162744460091365 -0.9584845417933517 -0.3370416012691527
      0.5109274464617544 1.0484785185664260 0.0197222004133049
      0.2617702414343357 -0.6869970200350818 -1.5455001170706306
      0.6170937391619211 1.4347556408023230 0.3187002892564863
      1.3901806603703275 -0.9237245787047529 0.0497804974266334
      -1.5901737872610986 0.0927362974740931 1.5169043861957470
      -0.4264667302265900 0.3500453214056259 0.7900379828477405
      -0.4994129393364134 -0.3623514555307495 0.8832889106803892
      -0.9075688386797469 -0.5163579243633584 0.1459064907397689
      0.9294111710477403 -0.1840755913575684 0.3529900544499431
      -0.2747374907894656 0.1449449637203747 0.3985584066795222
      1.1779240367356780 0.3112818042681381 -1.3080621198989399
      -0.7557544023359990 0.4791424718037426 -0.4238777815034662
      -0.9735679892410983 1.0510965052612053 -0.5446171627445525
      -0.1674355815014778 -0.7463034971115784 -0.7667567589939845
      -0.1399213377512372 1.4582169535976011 -0.6161101394595610
      0.3454762752781426 0.6039656151584215 -0.8960413557011859
      0.7375313723468003 0.4144116710551023 0.5722750655621743
      -0.0513820911668909 0.1181464036346582 -1.1842974694928767
      0.6086990914052074 -0.9741540602535251 -0.8528592490608214
      -0.7581373950045089 -0.4549317928362539 -0.4879603821462417
      0.7913580209535956 0.5258991765614247 0.2837035723708358
      -0.5364927668467177 0.0496888682998673 0.0550371905281443
      -0.5769812386309949 -0.5622091883179763 0.2109691696846922
      -0.6399115765351645 -9.3486527715526384e-003 0.6176298147208398
      0.3198195173848112 0.3857787419078025 0.0918443720318325
      -0.1249973020628575 -0.4200654537751689 -0.2243258434953442
      0.4630960604487410 0.1504484790032324 -1.0887967424640219
      -8.0512724248387908e-003 -0.9301591770081654 0.3455807552288048
      0.2706624088703038 0.6403587507050572 0.4391049828344385
      1.0833359064561372 -1.0936248252853984 -0.0822661021659788
      -0.6842096381752224 -0.2721273522439602 -0.0363667486475026
      -0.4020898106292278 1.0676785893723035 -0.4234756856634631
      -1.1662871598965490 -0.1796577137540041 -0.5984524714843384
      -0.3529234279714352 0.1128567757808297 -0.2655429378489668
      0.3815396913184870 -7.8083441795154327e-004 -0.3097361336589171
      -0.0889561270849562 -1.0028686616092215 -0.3912813309401421
      -0.8399603596260932 1.2791279663774988 0.5653663333279154
      -1.0558539481229559 -0.1628444984293188 0.6252115531620722
      0.6612316922067179 0.6039238462521297 -0.5121812217191945
      0.3497389475437087 -0.1723817604930508 -0.1628223585191412
      0.3926208706935357 0.2530255147373458 0.3852112596808779
      -0.0819951690345335 0.5571969924399198 0.0821773526906119
      -0.5323268389118071 -0.8306509111026477 -0.2947829154125884
      -0.2977376214140881 0.3175177078732920 -1.0247893970477207
      -0.3130024222356036 0.2063604074922852 0.2897341409078938
      -0.1428776930347717 0.4081042957513894 0.7676749931774014
      -0.0406777544904102 1.8209121050243815 -1.0461023792039728
      0.1287562020496036 0.5756448496962755 -0.9440477025865987
      0.8260987543650161 1.6916451632517349 -0.4161345605392347
      0.6371863055333976 -0.0856299246948528 -2.1753353532938755
      0.3428562461476123 0.0899998247888351 0.4141204178400826
      -0.8697148875855707 -1.6160240865335072 -0.3136315725183602
      1.4479614532817131 0.8176568110214210 -0.3388205347295573
      -0.6893084515711959 -1.0756508358762371 -0.3527244381552971
      0.3891413437961671 0.3704140797071615 0.1503471404459612
      0.4906104692194004 0.7699868740159549 0.3377264937702810
      0.2790092293247332 1.1635577247918014 1.2100905866231397
      0.3825251386989251 -1.3716933309445296 -1.8919367318784459
      0.6806504957697790 0.5130372765034528 0.3007720992416006
      0.4628642656273096 -0.4571919623668489 -1.5074746330620394
      -0.2361804397368169 0.1236835994288449 0.3139006024657478
      -0.3428370068367257 -0.6061467412158607 0.8834466022328061
      0.3491203043403793 -0.0860237238885608 -1.4028225060405612
      -0.2806136331046826 0.6213948944991440 -0.6190859259184302
      0.3625189263090419 0.3176089544408237 0.4921304708439242
      1.0006152780033430 0.5780994966403192 -0.5551696953380215
      0.8598308580285973 -0.1421587713374298 0.6238516909884847
      -0.6859447470187106 0.5896312562224281 0.6675928678169363
      -1.4768909288611629 1.0314464620276234 -0.2816562852563747
      -0.0143504782629699 -0.0906066757171437 0.3780862900621102
      -0.3604434779054284 1.1790421865850595 0.4375899286725283
      -0.2543434984190310 0.0839737083424360 0.2221080571092692
      -0.5506555930399372 -0.8239991715628224 -0.6072316470821001
      -0.4903274764375586 -0.3108799570474187 -0.1332346245339879
      -0.6272838067789037 -0.3370019136682264 0.4239125512004077
      1.0336003314456244 -0.2247471352652525 0.0949348560656665
      -0.5298323195793190 -0.3539382674217621 1.6633348118066271
      -0.1971014229291075 0.6124966376132540 0.1850081474305440
      -0.0876467071596726 0.6351657402501700 -0.0887693823527165
      -0.6692494001585346 -1.6378687843420148 -0.3633226006458765
      0.3898177686830943 -0.2419136311259255 -0.2239925604249179
      0.2359027674276019 -0.0758357673602277 0.0161690153975835
      -0.3048107665183023 0.5078228565854377 -0.5468651201642851
      0.3759576708522341 -0.0513309141595062 -0.2097526008832633
      -0.4013755479290736 -0.1362492854238774 -0.6604844303344609
      0.1555501554727786 0.2751178674562604 0.6189974045057032
      -0.1067985742158138 -1.0854770565102503 0.4794897034190495
      -0.9316229232569242 0.7185957321968260 -0.1699003171512830
      -0.3242117665989492 -0.8001346327008122 -1.0837288270671788
      -0.0235425579342985 -1.3649070200774449 1.4934107907111318
      1.3587164009367667 -0.5552062177641205 -0.9574401094896941
      -0.1757095220603207 -1.7821490857423450 -0.3359407777539161
      0.1774736974302445 0.4017167724486230 0.4027152101272232
      -0.4937935252534004 -0.4087954620018124 0.8395718653759461
      0.0542968213790471 1.5177923359567231 0.0902898490939169
      0.6494019732620807 0.6306315584217591 0.5219975739038191
      -0.3777155738859223 0.0893247762180058 1.1370671199420237
      0.3528290122100029 0.0491546669323969 0.7692291821936530
      1.1602408543354155 0.0836125419320206 -0.0825109586904465
      1.3236921123576038 0.2611836827037602 -0.4407514634616389
      0.9823517964185976 0.0575280123156941 1.4314702961295556
      -0.4310341043021298 -1.1114210562820430 0.2608820460333706
      -0.1130411523355424 0.2760835419510366 0.4740945043474166
      0.3670153300456369 0.2871927355624752 0.9807030067460494
      -0.8147486321235230 2.4355040185810797 -0.2450147486555136
      0.1719565932286008 0.6647750147577590 0.7418708931261346
      0.4457723682385637 -0.5776167558944368 0.4242470851887567
      -0.1186314841525875 -0.6320056853432781 -0.3453557801404709
      -0.1099824775233277 -0.1528309294758555 0.6165418893791430
      -0.1454590208165855 0.4209917500409902 -0.0617467956486446
      -0.0235619607712368 -0.0779447560520392 0.3629225582442943
      0.7977716861104258 -0.9383426124465973 -0.3090941172915359
      -1.7417507133257044 0.4790861971777737 0.2376134137744277
      -0.0147025728080552 0.0449840241845891 -0.7432258187575425
      -0.6869631598056003 -0.7855719662697502 -0.6769722821164118
      -0.5343600005935583 0.7634014878170856 0.9331074887424130
      0.4136244697110902 1.3092604276876407 0.1516022569168050
      0.1484834490718589 0.1988551459078915 -0.7162228698766968
      1.2979727939963193 0.3661836300980252 -0.0795452708553557
      -0.8230624302316174 0.1769040679186505 -0.9394734343430637
      0.5027438251310784 -0.7414690222820688 0.3933942351522397
      -1.2017579338984001 -0.8754783528165270 0.9765396170825033
      0.9563905800491805 -0.6116205179334859 -0.3611155241804476
      1.0368803183266835 0.3128075852621240 0.7505964485902130
      -0.2408721434669134 0.3361877921243134 0.2473645432610595
      -1.3888864695470509 -0.8509945856650714 0.6294031548680332
      -1.1288238848341976 0.0470889146708281 -0.4923304056234597
      -0.5767542870429872 -0.3347595865356329 0.1915424669518712
      0.9923446717815695 0.7763643179900813 -0.0455723929957494
      -0.2812658800478780 -0.1639382257465309 0.4206762701907007
      0.9531810280249925 -0.3638123502529725 0.8280531550930088
      -0.5838133792243369 -1.2065960103437767 0.5329717650689639
      -1.5663989101949474 -0.2374485049038222 -1.0723413570800315
      -0.3612808395731661 -0.5710464131970525 -1.8686276730652445</data></LogitBeta></my_stat_model>
</opencv_storage>
