<?xml version="1.0"?>
<opencv_storage>
<my_stat_model type_id="opencv-ml-LogitRegression">
  <nDim>128</nDim>
  <nC>4</nC>
  <LogitBeta type_id="opencv-matrix">
    <rows>4</rows>
    <cols>129</cols>
    <dt>d</dt>
    <data>
      -0.6681170003511400 0.0368148875984425 -0.0327882715415772
      -0.3802619800472845 0.0504448596881218 -2.8152517668741071e-004
      -0.4800034086431467 -0.2775281048330979 0.3118960534331441
      0.9200211341746574 -0.2580152131838452 -0.4770752461825458
      -1.2507130355331453 -0.9280938089465608 -0.0140731274657276
      -0.1393567302835164 -0.4708338477746452 -0.3467657567130955
      -0.7022481396530563 -0.6444186541819588 0.1700188950971687
      -0.3050251843643084 0.6267505026028905 0.7796980042124829
      0.3355249365198038 0.6569859482701245 -0.5094097659174686
      -0.0880712556683549 -0.7857995578652192 -0.9021973180187771
      -0.8245226631929545 -0.6754080182774642 0.4769225573139775
      -0.7585407351322744 0.0537859157877964 -0.6199867388465955
      0.4461536376043880 -0.8424381370872016 1.1658093915843855
      0.0846738802708168 1.0209506414688831 0.0560705690403907
      -0.3348052978904814 0.0101617264532057 0.2716903695527880
      0.7786617017223741 0.2019829938963890 0.2973129360902553
      0.6665725006378345 0.1217331224475660 0.3423133770172636
      -0.2330073962653308 0.2926261704211775 0.1945818283799928
      -1.2093205175820063 0.4420441713771404 -0.3617206115837126
      -0.8284772187740020 -0.5570250526640492 0.1149988689051710
      0.2693080341666476 0.6940803668277386 -0.3584042888443129
      0.1080083387030470 -0.8313774013819224 -0.5140464297939038
      -1.0984470753792128 -0.2610281184335121 -0.4090497149085529
      0.2045010596871492 0.0678483566552975 0.0902429880780568
      -0.0592283663644688 -0.7600035192482717 -0.2325681244207213
      -0.4513365908902300 -0.1026411769122651 -0.6256751905265774
      0.0473625691230498 0.3969795208226317 0.6373212336766115
      -0.3125819411142131 0.4780231334007553 -0.2730117912047959
      0.0242901739866914 -0.9817666231606014 1.0740518487196249
      -0.6139659917405218 0.3546870215810891 -0.1744354347145979
      -0.4384029027499825 -0.1013425163038701 0.2279973192659909
      -0.6412402379549691 -0.4842958685118108 -0.0103353143860758
      -0.8264777761498767 0.2267170966401462 -0.0371454340612335
      0.0263266373567207 -0.0331155447112686 -1.0815683852500202
      0.1914265803141775 -1.1893439885000467 0.1321433832718638
      -0.0453471136109534 0.3497342230931867 1.2851750134910516
      0.4614865909837582 -0.3603635440391287 0.5104145403721176
      0.5388580748501854 -1.0238841233726788 -0.7243873460893366
      -0.7165718969984618 -0.1945462127344107 -0.4975582612201913
      -0.6171735829542681 -0.0644165781095289 0.3235302389160594
      0.1148348517093394 -0.8949126098319766 0.0322438261471731
      -0.1675428074303619 -0.5766764952277271 0.0572488181801375
      -0.4327133274385530 0.3734851875165918 1.0453984706128410
      -0.5161779040651709 -0.2192879249705142 -1.6327278799821188
      0.2084577920671118 -0.0346740622862977 -0.7602468071946292
      0.5031427951409335 0.1923818191421275 -0.3605875521327148
      -0.4402476668613868 0.5702506911223215 -0.6923590964865347
      -0.1260160763067876 2.7555509596732517e-003 -0.7599776336240656
      -0.8277587912050979 0.4138546569571583 0.1412746193402904
      0.7964688410659174 -0.5208143868369894 -0.4762034557600615
      0.9282585728726229 0.1192924124563276 0.3775208278887065
      0.4768117578674191 -0.6658301329536747 -0.3365390501208342
      0.8144668147346587 0.4833945778993259 -0.0589147843600199
      0.2214671936472371 -0.4839536652693451 -1.0839174851922493
      -0.0178118960210733 -0.8283948806679545 -0.8203461814517855
      -0.4752587526519720 0.7482472981954194 -0.9016879240685122
      -0.3780428940982439 0.0428877711225265 0.0464381735264413
      0.2609325936949035 -1.1089401296490982 1.0366700989004645
      -0.6799144134011921 0.0284958268200366 -1.0892868574739731
      -0.3780593572629155 -0.2926241328832381 -0.4193978915091065
      1.3378695762629125 0.4456300984691801 -0.0157652136007633
      -0.1448171672893779 -0.6023802454494524 0.0544005538891792
      0.5815952303751460 -0.0491102235550302 0.3693392229641888
      -0.1828228141330220 -1.3522548526442377 -0.2833997934781068
      0.0244504563540709 0.7148507599960108 -0.8178085422456132
      -0.6889524768220662 -0.4588016131324678 0.7454389931091603
      -0.5468773386229809 -0.3737383979164395 -0.7904764521901851
      -1.0611117460065498 -0.4495085502546584 0.1057064434091373
      0.1229787457991802 0.5638690194831469 -0.1932776004593213
      -0.2879614300947827 0.4462166627182527 -0.7052838404180341
      0.6311902845600118 -0.1333591223297961 0.2477824119590487
      -0.1904393797859145 -0.3256554349062839 -0.2332190115131868
      -1.2583319207753569 -0.7929569252514117 0.5301622616417261
      1.6606433374173437 -0.1551021108690911 -0.2360778078959018
      -0.1028797543456210 0.3843748992721713 0.1355493004415311
      -0.1703485223586514 -0.4140876346107478 -0.4174939577131542
      0.1029102794550460 -0.0570486304022549 0.4998809744386140
      0.8654707297384137 -0.4616628660039371 0.9535283132340326
      -1.0905780617048777 -0.7735519687770039 0.0150346867146647
      -0.4100966900027520 0.1854489222469133 -0.4696030642164680
      0.1220966649642771 -0.4872955287133122 0.8149466282460326
      -0.8681964350762553 1.3130788663126691 0.9006358629416604
      0.5363412746634559 -0.2989982820466615 -0.2960491611427379
      -0.6396061338121962 0.9319339799056534 0.0336579547700161
      0.5871687171514261 1.0782784694838810 -0.3024101056632325
      -0.9369772168798991 -0.5177764446890301 0.2988996347786939
      0.3908950844402908 0.1029992505842520 1.0512488834900156
      9.6514092372255288e-003 -2.4444154177920524e-004
      0.4290050196850948 -0.4791969466970544 0.4563071084634393
      -0.6327099991975751 -0.3359979923873172 -0.8064692875538078
      0.3759314794602368 0.5329507292604441 0.5238404377958061
      0.7871815961569770 0.5396073013117962 0.3346119852262731
      0.2068294511284478 0.1180345332892502 0.5066818178119787
      -0.5448909869255590 -0.1001726038926769 -0.3462370677877886
      -0.2980566022548770 -0.5485992992854237 -0.2130710950184316
      0.3593314733148826 -0.5433399231140377 -0.1312726451189552
      0.4551774077447442 -0.2345300428544498 1.6527280743516717
      0.7493031135495545 0.3152696718558269 -0.5632704683031742
      0.6641464614663779 0.5050465853988505 -0.1807295136045865
      0.0631931521389750 -0.7766336241965453 -1.2233975292112047
      -0.7362241730772228 0.4268711560874770 0.0777708887120035
      -1.3534502256095025 -0.3196864220542188 0.0201712248618968
      -0.1502699116570205 -0.0953733609342942 -0.0125203875188676
      0.3531885824188281 0.3813337576121819 -0.2219727520838672
      -0.8820130506429987 0.9770115884624112 -0.3701055490271346
      -0.4303313735133436 0.6522579400582537 0.5748564139448332
      -0.8594561194199033 -0.0125752187523459 -0.0454755965995213
      6.6267434383620802e-003 -0.3416972169264180 0.3501938505992235
      0.7260256009359571 0.3768261450465549 0.5866250975073816
      -0.9465322962144688 -0.6455122553463654 -0.1619579942167901
      0.4597251586230007 0.2051073455402187 0.4150176077602540
      0.0615512293077408 0.5549916769017140 -0.5727384922308236
      1.2190463363369184 0.4739787880637920 -0.8922251444426299
      -0.1182459753794482 -0.0846561452864990 -0.4752991990634078
      0.3314816791284719 0.5644800191744551 0.2037992393101444
      -0.3414951296994579 0.6599833829241432 0.9642295540094487
      -1.0956586058016584 -0.8239290717304492 -0.1022624958681834
      0.2442520715145435 0.3314599662327994 0.2127856851071818
      0.3082337264018424 0.4651263972591003 0.3388978415365691
      0.3053270125650666 0.6911646604847769 0.6136608178071620
      -0.1588080700447748 -0.8780357301461444 1.4126286013518068
      -1.0884021803999835 0.6832040287884466 0.1684112101251229
      -0.5280917138943142 0.6670777791576205 -0.3170590129606182
      -0.3688605321880402 -0.4911459838165770 0.7208533840973614
      -0.6089319302804928 0.4853347220965732 -0.0480507795574443
      -0.2918021563176992 0.5213691334366251 0.2951446301622727
      -0.3140304036996061 0.0608187049431860 -1.0408395405348294
      0.0174480159766684 0.1831539238255472 0.6929729456825802
      -0.1118470757066096 0.9193038996014462 0.0666972896522452
      -1.6102002742240156 0.7745674121871942 -0.0286755648424727
      0.2256501774244527 0.1606530342371254 0.2577419864380001
      0.5991727058494079 0.7432773358533752 -0.4171591719343212
      0.6993561188801420 -0.0735384989162604 0.5841102981746317
      0.7019675893233828 0.7963891483017006 0.2212690122053543
      -0.2464416873295790 0.2113957439875829 -0.2821753923734092
      -0.0228734150156816 -0.0770284604318843 0.3325011914163062
      1.1496564692045932 -0.5377965080880320 -0.2659118717488845
      -0.7805889230326940 -0.2833579180145013 0.2252975961185656
      0.6060922852844409 -0.2156091228110180 0.4396473069043207
      0.3478657663082272 0.6767638182596001 -1.0357900268467424
      -0.5365261387322864 0.5021149302741051 1.2810310525764341
      0.6689507337115298 -0.7124124665383211 0.1179805551166135
      -0.4562510170687599 0.8857639530114457 -0.2317787072720090
      0.8645052372815223 -0.3579006905438548 0.6189660365986958
      -0.5163548959441021 0.0610433851245149 -0.4240276848093751
      0.7939636589991765 -0.2871142909397970 0.0284349463101257
      -0.3723101130207358 -1.5045573903222418 -0.3488094016313160
      0.7939096588255759 0.2506331065814976 0.6186467799746098
      0.8111465909644461 -0.4230157899880289 -0.0455411800896056
      0.4124341742178604 0.0950199482775967 0.5746181666059670
      0.6834597808553987 0.3604561985635561 7.1726841526627725e-003
      0.1052744239828100 1.1617381368334245 0.0493911773100708
      0.7632150396363712 0.6601055360778712 0.4965792931223769
      0.1489234528420077 0.5669490874655291 0.8329752801970899
      0.0908763605408886 -0.3211128181135478 0.3157771796655132
      -1.0083273686850407 -0.3564611689473747 0.0399051197922006
      0.2821082836546945 -0.0465838193563126 0.1728061326321809
      -0.3452570643799687 -0.5099132618528417 0.8868726973868135
      -0.4050022985783475 1.1000102216150105 -0.5636803549904028
      1.1515526473747508 0.0744206887094292 0.5845213732783142
      -0.5534166224957456 0.1611274946538417 -0.3711488128921903
      -0.4599951100340162 0.4111529653964002 -0.2394416133290857
      0.1295010782351468 -0.8819241298306980 -0.8801472218147204
      0.5532933265577421 0.0416392990350852 -0.0918447270385309
      0.0347718825009693 0.1971827062039333 -0.0585764436082478
      -1.0845712133832184 -1.0279818482344458 0.6020599133158855
      0.5283169166490571 -0.1076550846450373 0.3659429607875196
      0.3606832618260508 0.8382815256083734 -1.1825013712727319
      -0.0806352054168115 -0.5535273709634631 0.0344152421670581
      0.1580128140743546 0.3302663032922885 0.8732344903901446
      -0.4097428001718956 -0.8936142480902781 -1.6028000070705994
      0.2680785394502043 0.4242747650306992 0.2628489506133381
      -3.8845362388317120</data></LogitBeta></my_stat_model>
</opencv_storage>
