<?xml version="1.0"?>
<opencv_storage>
<my_stat_model type_id="opencv-ml-LogitRegression">
  <nDim>128</nDim>
  <nC>4</nC>
  <LogitBeta type_id="opencv-matrix">
    <rows>4</rows>
    <cols>129</cols>
    <dt>d</dt>
    <data>
      -0.8291827996418441 7.4228378074676525e-004 -0.0741584421454534
      -0.9809334179712147 0.3334615346612985 0.2097806218997281
      0.3244216743804823 0.8511118863815812 0.3982432765010415
      -0.1531158686955388 -0.7262382106415478 -0.5357045201709513
      -1.1595951563853111 -0.2278489799983207 0.1879005289847032
      -0.9134686743863558 -1.1148044071045733 -1.4076175023268449
      -0.4889742975249061 -0.1494781452409926 -0.6214403874488238
      -0.3282795371117399 -0.1602759316478408 1.0636933943255991
      -0.8485744962614935 -0.1394890006202419 0.2725330672168675
      -0.3070716280070546 0.3812498122513112 0.3988561611431964
      0.6542362464576910 -1.4300362940558702 -0.2196536923076565
      0.9046769125065920 0.7473468728053428 1.1344548617881514
      -1.4615952803613721 -0.9996142535656638 0.5767241644645769
      -0.3540418748208534 -1.0316058453651220 0.5060258185915662
      0.3494606062306424 -0.2745552373890063 -0.9163319674403126
      -0.5846464328736857 0.0109978107072057 -1.1165766320497210
      -1.1252345764814742 0.6522433482179666 0.3086111689761211
      -0.7767102682583580 -2.3054482662773945 -0.9195640063349310
      -0.0361505794404598 -0.3339190042557280 0.0235434448860737
      -0.1960902026569562 0.4472954116975774 0.8742240281562190
      -0.1765010017617839 0.2519852766569503 0.9074422535544121
      -0.1807300547483691 -0.4932535161254159 1.7835587604156580
      1.5573678819184786 1.4149439481767840 -0.3521788002326087
      -1.0668361080898889 -0.1954182220160757 0.8295017373186783
      0.0106430861390252 -1.0454887401465356 -0.9513435138063556
      0.1049574495201821 0.3926903235035198 -0.3476119894401529
      0.3813491440012915 1.1182164205259859 -0.6654555052237687
      9.4371486810456220e-003 -0.5673797967685025 0.6183311288028699
      -0.2516160132493960 0.2233199757765975 -0.1513833796278798
      -0.0962237487829075 -0.9277205989625017 -0.8144724780839898
      0.1508185370940588 0.3070340955223200 0.2126019762192768
      0.5842228178196285 0.5669555608679844 -1.2398361426045776
      -0.1379745089994355 -0.4266789898304244 -0.1314876227503748
      -0.3292262943339210 -0.5953559990937543 0.6815842948727504
      0.5180695520572193 -0.3527178350399459 -1.0468214268832026
      -0.6216075104133633 -0.0220507317968588 -0.4234338296031054
      -0.1063012229231361 0.7432229149020576 -0.5483578819887303
      -1.4377783256426671 0.5726226722127047 -1.2017661302121430
      -0.6195593680992735 0.6401158872971396 -1.1717604135636572
      -0.7025083953282947 0.7995150733488124 0.6626035472966477
      -0.1858783458835360 0.1018509033438983 -0.1765760224295985
      -0.2584622060282057 -1.0301636107479883 0.5885455668919686
      0.7398360074870650 0.4003786000718151 0.2561827890697213
      -0.8664863497573563 -0.9050526617980037 -0.5750389002913063
      0.6749790884062821 0.3715584909691159 0.0713445968102704
      -0.2706492351691532 -0.5288721646106668 0.6813654905614796
      0.7581145810234762 0.5772615653677928 0.5208629237375875
      0.5167352772622615 -0.6047756673942049 -0.8600688925031238
      0.5838070789478704 -0.8367266667256669 -0.5631886019614123
      -0.3970022408596322 0.2009094209335017 -0.1454589621972539
      0.1006888390644680 -0.4521733697189710 0.0507266607478534
      1.0433258491137563 0.5339982237715202 -0.9907515064268140
      -0.4156774698652102 0.0972051958095881 -0.0901183533649429
      0.1817463545037774 0.4344153395345448 1.4324767821819659
      -0.3871278797042976 -0.0524984263168114 -0.1104282180395018
      -0.6296046812948670 -0.0162164594671350 -0.8378858097425963
      -0.4624502326126382 -0.0134070737134495 -0.2687007726740022
      0.2048005175723090 0.8528213905813792 0.1718414988279021
      -0.6673895949881890 -0.8018143820810509 0.2766874743837751
      -1.1709806276021471 0.6626621625357096 -0.1292215000831835
      -0.0558775744826328 0.3472316590356601 0.3141264768970929
      -0.3252637922411707 -0.2079879685762337 0.4874186688059818
      0.2925701127164398 -0.1762984177003510 5.8858893462582105e-003
      -0.5383388762833472 -1.2200512125040393 -1.0282134128257729
      -0.2322357190934797 -0.2809947054914200 -0.4155292749046036
      0.3420767360599260 -0.1194376804425368 0.0994759632375389
      0.5005271044723553 0.3707997248011764 -0.5163650195722350
      -0.2246350719677747 0.2197328651605392 0.4096628873732232
      -0.1111595387018422 -0.0435494742014798 -0.3041591343620693
      -0.0656111394857981 -0.3813696213892889 0.8269959848812156
      -0.6535080655057012 0.8295955919650107 -0.5832407220819197
      -1.5244076280223817 0.3169603459949179 0.8834158147599299
      -0.3972260145865740 0.0475161447134199 -0.3504798141102297
      -0.2602473225690751 -0.0920979452228516 0.7304740197885424
      -0.2808960907468228 -0.1914372469155852 -1.0736239727252874
      -0.6389763029360133 0.5229385420807216 0.0330050756874933
      1.2379181719616754 -1.0595003071314701 -0.8089053352186474
      -1.1089994317100436 0.6596658638646190 -0.4763989868009155
      -0.1654503177159230 0.5639339993235362 0.1367683000461163
      -1.1234974830691600 -0.9056451242571518 -0.2400338670275871
      -0.0205813247377982 0.4821573593195839 0.3818826814966668
      -0.3981128466515275 -0.2664200298988710 0.4512924028754197
      0.4287301160330065 0.0482428710669195 -0.2469173313551241
      -0.3192845895707050 -0.4773160274303741 0.3557485408380857
      0.5853768426925541 0.2469859219118885 -1.1355739364404425
      -1.0038361377126910 0.7016465195505481 0.5797079395519262
      1.8229930998602517 0.9443309412235372 1.0697716572371490
      0.5799472658924763 -0.6509972913169949 -0.9011760044225474
      -0.5923794310032329 -0.4260807762793039 -0.5322501324851620
      -0.0875091112857269 0.0569745778640390 0.0968403025335424
      0.1953445320191461 0.2223539679588056 0.2884864126180348
      0.4594917408230700 1.7355693025185097 1.3981495370849277
      0.0235398726101714 0.1003930848796678 0.4441340757675741
      -0.9657011617720455 0.4998773508593176 -1.3136551050242504
      1.7954585383206968e-003 -0.2766781841536448 0.0464905454507088
      0.0171734378408258 0.2311936597967177 -0.1379728516499679
      -0.4945398133386898 0.2051923142360124 -0.6693596433737186
      -0.5250265738070623 -1.6712384171990802 -1.4681018133800159
      1.1343802776486716 0.8145366415908820 -0.2667891780981022
      1.2982866552970378 0.2241731366223983 0.5581969915648037
      -1.8684349528282636 0.3621779597310648 -0.4377694692306067
      -0.0143201500934323 -0.0448795736585891 0.0764490486558736
      2.3092455244528325 -1.2731797637803755 0.2562072385340048
      0.4979644502904958 -0.1507923893390751 0.8024804067631987
      0.3694606951169512 0.4114258912858714 0.0489000779932593
      -0.2806071154285994 -1.4827774123515400 -0.5774088085149852
      0.6648200563954544 1.1363094307217279 1.0164540646380065
      0.2592042973146413 1.0034899054172075 -1.1285289499462681
      -1.6432894195758962 -1.5269085748553946 0.7193254527475486
      0.9677437512818807 -0.4701010677129289 -0.1691236344701391
      0.1301864052489236 0.1609578579864990 0.1405911405840215
      -0.1052646625315607 -0.4067195424452242 0.2968637159677266
      -0.2164010109067948 0.0601390954619555 -0.6030096110668171
      -0.2999373739149100 0.2157196949276146 0.3191219615348252
      0.3340878528589836 0.0983311166884938 -2.4572628689710734
      -0.5377591748736875 0.6145157017181916 0.1269914843931741
      0.6196744881059988 -0.2693843726347820 -1.0489239930009127
      -0.1698435184804084 -0.1675843727983882 0.7406762628186507
      0.0823958001621046 0.5928155468818022 0.4454218400074533
      -0.6446934151638816 1.1586737523545865 0.0276358581549590
      0.0944174210577659 0.2225996311045091 -0.8693364100700156
      0.3156119700483106 0.0205102970809265 0.3212783748882653
      -0.0267487433380977 -0.5390015912940175 -0.0769202656024821
      0.3927196307317781 -1.1395773319690268 -0.3170546648142292
      1.2914340811304474 0.4729397303002517 0.4652807871934563
      -0.1448675202059747 -1.2537386873701759 -0.2722870067142524
      -0.5924762329453269 -0.0496998158089431 0.2142679933828115
      -0.6561575680395602 0.1168086377060101 -0.0466056637078705
      0.2641641310783346 -0.6524878881631619 -0.1002983485242104
      -0.3952016746744212 -0.0544900553454531 -0.7034451604839895
      -0.4218207534140836 -0.2909362383181446 0.4558757553993868
      0.4775383845696953 0.2155793857863984 -0.5918190635754874
      -0.4073431275052361 0.4240467187778875 -0.1654807039833526
      0.4747790353192974 0.3447946070873244 0.2231346447858574
      -0.3458097294814658 -0.2559501312056087 0.5827142758938099
      1.5140647408215311 -0.9207047722210465 0.0450140347506851
      0.2563913646549346 0.3228531656850601 0.4700033147757960
      -0.3549035892702991 -0.2497146209819617 0.7001162009430068
      0.5246218666185717 -0.7038311711517075 -0.3580393090063571
      -0.3332581039405072 0.9361054459853672 -0.0967725153599772
      -0.8751100438690689 -0.2148609478573240 0.7163204100307830
      -0.2900629322551901 0.6840756061428368 2.8363659696528914e-003
      -1.1850767312510242 0.5766210670477000 -0.2717756135593401
      0.9905246848582827 -0.7010548770263448 0.6760902581487372
      1.2510448730590866 0.7571394878407508 0.3500830482494244
      -0.4266362413813599 -0.3502569051693922 -1.0685506085111773
      0.6251157066705525 1.1449154568743627 -0.0605033389485645
      0.1759747815794750 0.4158074884030910 -0.5274127158544247
      0.3035228034903710 1.0291565834219749 -0.2017114641401612
      0.1561656496310443 -0.1916758056924729 -0.7469240153737494
      -0.0476468078906150 0.0249281156496799 -0.5991706338046094
      -1.3324424778208286 -0.1962543702212320 -0.7835309522334791
      -0.7930025975259890 0.6280343344299398 0.2992954465802449
      -0.3908220058008729 0.2817156174267274 0.6460828273945570
      0.1117589450643267 -0.1641728489284232 -0.0434276273970731
      0.1578249844676969 -0.8460908392056744 0.7584471585198812
      0.9322812596828368 -0.3661579450600162 -0.9206518518507775
      1.3852571108081841 -0.6739810017048075 1.6406257140894815
      1.3582680943691079 0.2712147851930806 0.7627774145754627
      -0.2152328534600586 0.0470512718058740 0.2184520945910787
      -0.1636724524012765 -0.0953011252205245 1.6087227559294264
      0.6082463535275732 -0.4894508693612887 -0.8264427473746787
      -0.6660263936661021 0.2304281344542245 0.4217512252396492
      0.6969368757999362 -0.2435582117338652 1.3018074971378932
      4.1387191510228985e-004 -0.1925189823237646 -0.6215710119067557
      1.2090145784666844 0.8291661561723336 1.0411833245114119
      0.5315194656466108 0.1599495497982635 0.4883862312160834
      -1.4288248557326262 -1.4981815343837974 -0.2921684433872204
      0.4065553270973257 0.7199190510315341 0.0321558819875500
      0.6021055431054759 0.2582685671647869 -0.2199977990858084
      0.4796368243706378 1.0796877166762151 1.2123811424155584
      0.5031998809857947 -0.3776279990064100 -3.6975708758757406</data></LogitBeta></my_stat_model>
</opencv_storage>
