<?xml version="1.0"?>
<opencv_storage>
<my_stat_model type_id="opencv-ml-LogitRegression">
  <nDim>128</nDim>
  <nC>4</nC>
  <LogitBeta type_id="opencv-matrix">
    <rows>4</rows>
    <cols>129</cols>
    <dt>d</dt>
    <data>
      -1.1797068009523413 0.4401668518910731 -0.0593056440716415
      2.2888653242367676 0.7542432511810234 -0.8896501124758964
      0.5064191577339295 -0.5946116800580598 0.0903510761844759
      -0.0609886832321736 -0.5065045854952913 -0.2494831487323179
      -1.4341068527067391 1.3304607866892280 0.4165712702519411
      0.3800703550018193 -1.0764253131701542 -0.7482245804513600
      0.7891396605182971 1.0909184282888349 -0.5417636443321660
      0.2603705387894477 -1.0900551883885305 0.0804854119898624
      0.5964839034026245 1.4882506126709132 -6.7879399827147089e-003
      -1.3651870312244487 0.7929725132080643 0.3339662752895835
      -1.4151757702053069 -1.5936284987333378 -0.4121274224123093
      1.2531395510963221 0.5507577960595395 0.0147140792657250
      -0.2974205423771209 0.1539090616324388 -0.9927537919506626
      -0.5066946506159229 0.3253698891365941 -0.5272853165596249
      -1.0542625342643994 0.4755220833845527 -0.4799261755548727
      -0.0669471612001333 -1.1036168273729372 -1.3011420222826360
      -2.6182751386655059 1.2123095138546165 -0.0664934849909287
      -1.0413364783315744 -0.3253400751459451 -0.0752597468999464
      0.1870226630370756 -0.9524026419010957 -0.0614440304245620
      9.3275143309597808e-005 -0.4463881636991555 1.6677712981148232
      0.3434884814872030 1.1059276016317965 0.4974994424005320
      -0.3608238201397044 -0.4524335566246259 0.8484403703051070
      0.5158900210507991 -1.0905153583565228 -0.4413903811285334
      -1.9315636550564612 0.0714550259061367 -0.6274563789340739
      -0.7915759938990928 -0.4067942357953243 1.1570875834656584
      0.9054780010115231 -0.5560623759646971 -0.3305534350821841
      0.0941725709663636 -0.9119260476351342 0.4866546762482334
      0.6216727232800017 0.9303080734888773 -0.3642618099665310
      -0.1475346161470452 0.2192092388804671 -1.2054336695379719
      -0.3920983549279852 -0.3999519006707403 0.7523186874591600
      0.1747890499691729 1.4735640486879265 -0.2007871051005311
      -0.0151801430660526 -0.6849405714042817 0.0173456910341432
      0.4744197802220477 -0.1076357334422206 -1.0510301465327558
      -0.1407614095094101 -1.1454399921423990 0.5634094206949225
      -0.0392816895468819 0.9862773459368511 -0.1184921054614795
      -0.5551891639886640 -1.1683807933052028 -0.0758926571533578
      1.0527975662359077 -0.4905018266755942 0.2863691634552648
      -0.7541537728436895 -0.9342045631474064 -0.7519177248790552
      0.9436143275303096 1.0509417284307812 0.2208729712506905
      -0.3823435165205195 -0.0672490056056421 1.0262350730102514
      0.2066452254808983 0.4052177253925384 -0.6254698224780398
      0.2786227364017256 -1.6690099809734742 0.0496709069127065
      0.1730418019110864 0.1945451782469000 -0.1603865001452005
      -0.9372960979456063 -1.0546399103691417 -0.6476908571342611
      0.1710646610601543 0.5319602199734612 -0.2459758182464234
      -0.3691349466536409 -0.1619093214121320 0.8476308938714187
      -1.1353790463683138 0.1286861263513478 -8.0673610730749822e-003
      0.9125101644918966 -0.5387270397217346 1.4091436569874030
      0.2199814626564350 -0.9028236367436542 -0.7455267273931648
      0.9901610157159287 -0.8017003151925657 1.0901449247726311
      -0.4605017622269302 0.8928023961611030 0.3377488806395446
      -0.2399129683472635 -1.0896740443169939 -0.8908904534369212
      0.0434164647622104 0.4378733319455435 -0.3551921209428475
      -1.0371052977666608 0.9692021576080012 0.5917036245742695
      -0.4483241241692156 -7.1944499747953359e-003 -0.0505270582612347
      -0.5903396726899512 -0.8886154528128073 0.1512030060073710
      0.9893487667035501 0.0380446779238546 3.4311849459425468e-003
      1.8638905696707715e-003 -0.0353115027359880 1.0406474774095567
      0.6463877230216750 -0.8852203451300844 0.6463843218890875
      0.0683469293743844 0.1688661817384747 -0.8474713444758251
      0.3029681766487054 -0.1388034730138031 -0.4227346450287600
      -0.4960138220043882 1.2481471271427980 0.3304414756091815
      -0.4085341121017986 -0.0272169837074947 0.3814103968984116
      0.0358024192232476 -0.9939787683349682 0.1490307893002814
      0.6224987644032772 0.3521462304789877 0.0560836955982799
      0.4659234501833791 0.7897294963545563 -0.3921987108999175
      0.6769796791283094 0.8169743388296784 -0.1758639297363419
      0.0377159903870961 0.0436994834545054 -0.4366910185327816
      0.3812696463288606 0.6988139138587252 -0.1525120157751362
      -0.6013313295778078 0.2705059105081681 1.0459813160500500
      0.9755863748271728 -0.2876681429455514 0.1605473679885361
      -1.3604716634816625 -1.3732151959049121 0.3144133470249595
      -1.0082746130653646 -0.3436226547543206 -0.2874981046771525
      -0.2493372752250528 -0.5981067841731566 0.0353130091639361
      -0.0380043263862599 -0.0186657390055350 -0.5427391530650825
      0.6188333241946425 0.1429771329629245 0.5679505791687247
      0.7753966308281364 -1.1623598336501135 -0.6440658736912712
      -0.3476343425824601 -0.4011249876979977 -0.7790648571594215
      -0.3023307642276611 -0.1307231503343567 -0.6101289676308120
      0.5832625015474159 0.1669254986405955 -0.0480940044093742
      0.5039783439287310 0.6376695943688919 -0.4295089633708507
      -0.7718977961094951 -0.0421363574235996 -0.0458985237183912
      0.3855286531019391 0.2986039169859132 -0.5812034343042634
      -0.8152040255982879 -0.7053601217332666 0.8466842754908437
      0.1005259228366168 0.1131927471792824 -0.5186079720418962
      -0.1490175542378653 -0.4639791403315658 0.0139921223670800
      1.5309470338137410 0.3557117914049353 1.0591609856385442
      -2.0325016791407098 -0.5616001432175066 0.8430175069341314
      -0.2264896704750936 0.7266154328023142 -1.1741349217615575
      1.0484220837789378 0.5388247387312247 -0.5068493514023321
      -0.4079409027444368 -1.0136153996109178 -1.4485876610839323
      -0.3930984907346065 1.1778721775944847 1.2021928817303740
      -0.9132731014035577 0.1879812177123565 -0.3811649234195308
      0.0889381479295662 -1.2363806825011128 -0.4875391343066334
      -0.1076306462525057 -0.1237426524568978 0.0633409049824223
      0.4917775572473620 -0.1326387328704674 0.0190035209296380
      1.1040832338743756 -0.1463542291118717 0.2361053880540493
      -0.8152776599249306 -0.6989936984752345 0.4653148155542790
      0.3018006566926710 0.4127519840400677 0.3342100639005935
      0.1849288118516772 -0.4774782557955843 0.9880280335039290
      0.2873167504295662 -1.1679468546441527 -0.3549352681076063
      -1.2848882027755109 0.2899554567887018 -0.2687627224415237
      2.5535714275748096 -1.0017768868307215 -0.0742329083698674
      0.4916956395908315 -0.7040644959723333 5.2990126177525120e-003
      1.0404049571121770 -1.0444651089212991 -0.2624429772341647
      0.6780667290446197 -0.4290736561545636 -0.8251632330987998
      -0.8288841493128899 0.1159673732666513 -0.3387563384714724
      0.4010282386722447 0.5003450270527040 -0.6448881961027987
      -1.7814292986265448 0.3798408164413433 0.8124527096647427
      0.8276755619442235 -0.0861942804270179 0.4514904679682027
      0.4871304832953524 0.0205973698704997 -0.5816029667814826
      -0.8970786680049880 -0.4310912833389361 0.5399883667092108
      0.4153384538031253 -0.0942808964740660 -1.5355241688213024
      -0.6813520570251689 -0.9237470036418820 0.7877948648644014
      0.9761453082942654 0.3870766608832592 0.0481882437428821
      0.5554259157429599 1.5486718263519081 0.5528696539396557
      0.0724383969923699 -0.5195808505656835 -0.1281846980808107
      -0.5225265923911238 -0.1017945082195515 0.3588232392458419
      -0.1183077561976455 0.3834723918020305 0.6295435310000810
      -0.8176765541591893 0.3792608363498869 -0.4290411598656939
      -0.3106970632309596 -0.2199031362385622 -0.8894881077568813
      5.9862141074688898e-003 0.7586855981065233 0.6718861825912937
      -1.0026496535631202 -0.8727515275633546 0.1204558784767189
      -0.0351376476620811 -0.9406755086718884 0.9069103241457964
      0.1990970725412132 -0.2999873762211500 -0.7373363469056442
      -0.5211202673220521 -0.4464590412459571 -0.4671456063178449
      0.2739624043924469 -0.5844676775161267 -0.3905632150821919
      -0.3402586129998914 1.1239316821909739 0.2750264083668149
      0.2666391112989185 -0.1150190990972919 0.1501777148167974
      0.3446012167272815 0.4302108477900459 -0.7305918067959228
      -0.8595303920853340 -0.7602400625905285 -0.0560892029147288
      -0.1596084709804061 0.5113272425187108 0.1299343849858698
      -0.2554665778930192 -0.1756389063820923 1.1029191175173083
      1.1761414300290960 0.2477542799412304 -0.2862291566614147
      -0.1579168458870734 0.6315685878579856 0.4609834212840517
      -1.5627872396851152 -0.3582431545010720 -0.4358742288776787
      0.1411398653000693 2.1691398299639397 -0.2560111487456073
      -0.6270173315841249 -0.1433666894078909 0.9587235698652696
      0.2380617701962968 -0.4561265113039344 0.4535955568690590
      0.7236150690963472 0.7899347546489665 -0.5761519377003791
      -1.2298134468970836 -1.0084774177809215 -0.5423303763127275
      0.3754099588229036 0.5109274181778531 -0.3027742348134047
      -0.3927988250227993 -0.3407343175468998 -0.7454730930202939
      0.1978415414005981 0.9068790013900339 0.2878542750940766
      0.7591617776108408 1.2161402868710218 0.9626774738408307
      -0.7671141706065818 -1.1121392229625722 1.3062902452921830
      -0.0888720553002101 0.6409891445482534 0.4670474864330728
      -0.7953401841482162 0.6508684635131756 0.8251454617168504
      -0.0837594025392100 0.4382769392086640 -1.1225155327885274
      0.6678672806708560 -0.3019181944402145 -0.3521520844367914
      -0.7917285752400576 -0.0170819671317966 -1.3381162660548518
      0.5971467902919391 -0.7145961017556607 -0.6547662108721106
      0.1330457338910421 -0.8372329804316682 0.5599193857687708
      0.0988069983595782 -0.1949165561941383 0.4770080401672808
      -0.6708347908059384 0.0443395657118230 -0.1625633972762483
      -0.2330244538708182 0.5088814632637320 0.0909495480681307
      -0.8744342595614235 0.4026449766543780 -0.4358216789280615
      0.4541983065053978 0.8557760025905653 0.7651216566173084
      0.4669914480524519 -1.2599523289944881 -1.0005672520503983
      0.3539789902566158 0.3435828111772328 0.2855876074792359
      0.5681818669038545 0.9448628038008217 0.7136340958993579
      -0.3292248435256364 -0.1559233837007001 -0.7647746098593140
      -0.2409541450820241 0.9473563709368597 0.6173149892838654
      0.5143619357743818 -0.1372817488835194 1.6103478064341952
      0.4456464603702603 -0.0330376198108637 -0.0294260137049537
      0.5372931499186341 1.5350561011072401 -0.1145065941611887
      0.2839135757211296 0.9752852336181185 0.2813439854879438
      -0.2865033098218068 -0.2507161418844676 0.3380001459002197
      0.5075671069761643 0.7499655243963721 0.3148988519556048
      0.7709776526217469 1.0914463154675906 0.2608739557404274
      -0.6099148678847154 -0.0359587641578714 0.3668404195142226
      0.2318464605713246 0.4073416548370151 -3.4924755373797343</data></LogitBeta></my_stat_model>
</opencv_storage>
