<?xml version="1.0"?>
<opencv_storage>
<my_stat_model type_id="opencv-ml-LogitRegression">
  <nDim>128</nDim>
  <nC>4</nC>
  <LogitBeta type_id="opencv-matrix">
    <rows>4</rows>
    <cols>129</cols>
    <dt>d</dt>
    <data>
      0.4381362601562676 0.3213388391913620 0.3102806270561342
      0.3413970404985241 -0.1767815124406007 -0.0828410901308644
      0.5089749227168166 0.4920557756404837 -0.4595444965346029
      -0.5901247046604214 -1.5931122817834071 -0.3794520568861859
      -0.8164168358002646 -1.1975954204039327 -0.7938255375162331
      -0.6004885134647333 1.4209492158674546 -0.4260813061574894
      -1.3080946609989066 -1.2672282439124976 -1.6905349984618194
      -1.5648052867445770 -0.6130154026934956 -0.0610260499352838
      -0.7872675811384375 -0.2268415124358704 -1.1141446600037892
      -1.0049315488354837 -0.1448475746199801 0.7784032022380285
      1.0235672470743926 -0.2420616762728197 -0.2221499063654140
      -0.7207315614182122 -0.6573236613660591 0.8488159649917567
      -1.1803927877414992 -0.3659219817236259 -0.4165790998526067
      0.2303505907035183 -0.1133285855985325 0.1722478628245720
      -0.4682474386949436 -0.2921021358276928 0.7436262803175584
      0.9344561990694225 -0.2820826105301094 0.2171876076586896
      -1.4728035626028073 -0.3847277431773018 0.5812006491263320
      -0.2428856848016821 -0.2433766304488660 -0.1517663240681783
      -0.9853645487608163 -1.3273499843563559 -0.3883056118241065
      -0.0451059206491725 0.0653269233882132 0.6030946565546068
      1.4655904060504905 0.0327419430482903 -0.0304898646041785
      -0.4167030497149303 -0.2741004136602970 0.7828176173135426
      0.4837721717247811 -0.3497935256950675 -0.2917859882042072
      1.3533333142683686 0.1350009605447991 0.1115787520605685
      -0.8231854918917192 0.0515362759047543 0.0361529780578746
      -0.3459102201109722 0.0815515415159259 -0.3918920100036600
      1.3050021427970391 0.0291931597282175 0.9299351915591222
      0.2607388108798218 -0.7315793273972673 -0.8373781050431686
      -0.2208696450442385 1.0039083798629698 0.3536155713830518
      0.1626517254044647 -0.8338385947292996 0.3194630815753461
      -0.6265182805132407 1.0213279881427098 -0.4936877425653754
      0.5327478263472458 0.9797932855033232 0.3050130332101075
      0.1652719999522591 -0.2155537920373796 -0.9196765015409194
      -0.6529531533024026 0.4218471829369324 -0.5359169446185083
      0.1979600961295552 -0.2099314580921926 0.6832402552164774
      -0.1235622439230400 -1.1815665653457783 0.0540463485090492
      0.7411394854034590 0.4916249985924192 0.4969340456097913
      -1.9147105323021179 -1.8051013845653670 0.2751046844680180
      8.6380459185436548e-003 -0.6014629136360535 0.1214595806217049
      1.3500793062871614 0.7673087244381924 -0.1935018314029933
      -0.1573430637359129 0.8421683337806613 -0.3860382645163763
      -0.7857917509305815 -0.7651299934501619 -0.2194628614346038
      0.3559016746398883 -0.2424964997526946 1.6505529715379914
      0.5408807236130592 -0.3701017449310291 -0.0972926848921221
      0.1069429462192563 -0.4221397027949644 1.2674209356699253
      -0.0696510647795004 -0.0671182698247897 -0.8890220376236280
      0.2173850778824434 0.1538131922975168 1.0019102462598155
      -0.7820981704500978 0.2347974937749731 -0.3388236436262556
      1.4447219955535355 0.4300759985789314 -0.3309923416621505
      -0.3610845686167010 0.8382526865422316 -1.3203309560242456
      -0.4149547013283738 -0.3097394425720867 -0.3048517049926864
      -0.2065032198634352 -1.0643249293969541 0.5433288306237917
      0.3800040694870142 0.4694757311237970 -0.3092525682368822
      0.8156275438676917 0.0448138006013972 -0.0108641013059342
      -0.6743951145711805 -0.2344201400223339 0.1471664133625327
      -0.6973756138068372 -0.6790719431662973 -0.5895235340804012
      -0.6973903065258148 -1.5752250298140651 0.2992207032714892
      -0.2106905913382139 -0.1750918174835433 -0.2156875767652952
      -0.7443872101210877 0.3150700213065611 -0.2940774131654193
      -0.1016422745833604 0.4947912597746532 -0.7236876920340418
      -0.5364026465290664 0.0171999994787172 0.3153488639526342
      0.5270613836908706 -0.2979192757070351 -0.2595301145032416
      0.5833738338515809 -0.5376257591442288 0.2232791191856343
      0.7453103844873636 0.2656005838103314 0.2716158899419112
      0.6013347964729864 0.3861873159515074 -0.0516107828729399
      -0.4761810171174425 -0.9849245711550426 1.5885316874479178
      -0.1203153632956906 -0.2395542689240517 -0.0757354709260381
      -0.2478304831477661 -0.6416266135505134 -0.6068009135137169
      0.0954795937858427 -1.0719380191356038 -1.0148312472208174
      -1.2135721634001970 0.4607915670802132 -1.1085100435743145
      -1.3199542439435774 0.4374055491575324 0.8383852247372887
      0.5467916339314547 -0.4141233351455090 -0.7998912483317635
      -0.0816275324160144 0.0390929035272252 -0.8744759240416419
      0.6790236113399527 0.3019490080236914 0.5100399424178097
      -0.7046339242404349 -0.8220361367897850 0.3913813532885864
      -0.9492864633383091 -0.5544668745547797 0.8449289796749276
      0.7247386741129659 0.1316321766333738 0.0852947101765918
      -0.0448045845014291 0.7532274587384951 0.2253993044179119
      0.1633045746306484 0.6136828121037351 0.2207158018946882
      0.5371348164412912 -0.4952512216295613 0.1064619407469779
      -0.0256490786232307 -0.1321665548400576 -0.6765598912980683
      0.4669704741264640 0.6887813287327168 0.1046847492297272
      -0.2683377696488384 -0.0571437827718632 -1.3032400058789597
      -0.6090406364614315 -0.0451083369864743 1.4354906968936942
      1.5759399956315494 1.2061118130969850 0.0314185083191907
      -0.4216453249240705 -1.0614427223134635 -0.9384274450442546
      -1.2290683956299389 -1.1909919564975100 0.2590850120216929
      0.1555927089953512 0.4664847456444925 -0.8049119843970444
      -0.7603372473108078 -0.6323115201377784 0.6072161910509841
      0.1354474134548792 0.3813666212646730 -1.3451307405359618
      0.8219322155888503 1.1872381863848320 0.7846833553866714
      -0.1692668935471780 -0.9633876681655089 0.2274000554098415
      0.7423675148753709 0.3206658780372068 -0.0148678677539510
      -0.1569969785667979 0.7210654585579109 0.7829089613356222
      -0.9331286318659320 0.2293856616171733 0.4350374631970100
      0.4342599741961712 -0.4524775615400070 -0.4082902234390104
      -0.9531811656794120 0.6374485517713828 -0.7221246753139534
      0.1432662568835788 -0.5312953345440562 -1.4652706413072076
      0.1429100149712782 -0.2236520999035740 0.6796919294317555
      0.4318080089046550 -0.5107895738314707 -0.0350321084764510
      1.1252584543298383 0.0433508327699571 -0.5512809699011435
      -0.4289290791403215 0.2119896281211610 -0.5246686327112460
      0.7679326157526002 0.6733374050049231 0.7355428823867005
      0.6278652111698067 0.3060316666840705 0.6264241995790367
      1.0931187119526227 0.8804757400789227 0.0532187223800227
      -0.2577587602202500 0.9307212149502425 -1.7924765103405671
      -2.0379076079479193 0.6876374090272616 -0.1516719707076737
      0.4940106038362077 -0.1063165503937057 -0.0114670802226634
      0.5405181699410271 1.8171819010708241 -0.8023625527519763
      -1.0259666992851952 -0.2712203384272697 0.3758564992606925
      0.3565248273244754 0.9723280901919588 -3.1392983385339687e-003
      -0.8448019168429292 -0.1009175754006143 -0.5725766465968067
      -0.0474805921689170 -0.7136753327196059 0.3023030445171797
      0.3819747737348635 -0.0370062674816662 -0.0428944876474049
      -0.4508583855424225 -0.1711637256865073 0.4044673636723504
      0.2154933517387840 0.3170198696095943 -0.2683833704929221
      -0.2559917931791077 -0.2575617883860221 0.4374417910235555
      -0.5622933655335138 -0.5743718304586277 1.0999601165633661
      -0.0150697840587659 0.0259950853498148 -0.0109418790424831
      0.1267301022386982 -0.6687634581804214 0.7258775328321524
      0.6521984348426235 -0.2499737707243463 -0.9259252362235305
      -0.7727479875443825 0.6162044956924390 0.0257966607929265
      -0.9508502824985964 -0.1936438793814329 -0.7764822018045297
      1.2032814621826451 0.5067848080891723 0.4749209837828105
      0.0723229850905324 -1.4077581128263923 -0.2313166200588338
      -1.3259730064402522 -1.1762065943948206 1.5115283221247511
      0.0589185766640082 0.7516283729725775 -0.7336955871157961
      -0.6392776545357612 -0.6339022851037027 -0.1222384359086160
      0.3157444306332895 1.2505890691555135 -1.7540671226396940
      0.5034069140605058 1.5418606258290974 -0.7888483771622536
      -0.6850887099889916 0.5980139019615594 0.3977549563544039
      0.6979578828126966 0.0405992579450752 0.6307028023493545
      0.6186156640655723 0.5154129867739201 0.7611712019134848
      0.5632016494246248 -0.2286337170778788 0.3062320497633592
      -0.7141667166955162 -0.0966656482783011 0.9458481492022683
      0.2870084920357164 -0.2233526824527301 1.9126454391152823
      0.9739674282666062 0.3438617480325406 -0.2689261185199589
      1.1911529308077016 0.5100274419930770 0.1800965154381798
      -0.0888663707903599 0.5071038591168746 0.2972510051638727
      -0.6706480608970635 -1.0114373303849047 0.8481035339301706
      1.0665421444290397 1.3944721743937538 0.5604209017562066
      0.6321930619373628 0.7228487349643079 0.3152094749883412
      -0.1376444125126267 2.4102383857836189 -0.3482176558793329
      -0.8392064063195563 -0.0815312746421661 -0.0910405821016158
      0.3090764169379102 0.2059718294234334 0.6774527942684274
      0.7359356299531218 -0.4289580529626574 -0.2907113685801117
      0.3488202180345317 0.1240348548465828 -0.5121263803759615
      -0.7921096230095126 -0.2411349696088466 0.9867329186631150
      -0.3424567967576149 -0.4173067163148133 0.8378948581866789
      -0.3799872705508354 -1.1517720232321855 -0.4945428036397636
      -0.9203342457485864 -0.0758963353465055 -0.5439100475530256
      -0.7547346977837297 -0.5019907219347086 -0.4880901823315518
      -0.3974077792462459 0.2560460494806522 -0.1591478055275851
      0.4652644505230914 -1.5215102081990748 0.3020286231946831
      0.2800207868442295 1.2330525568434161 2.2424396348540396
      0.3381946007275468 -0.7565128806663189 -0.2468916260443531
      1.0011902451624592 0.5344129245993217 -0.2334656966169379
      -0.0758490868291267 -0.2008270492174621 -0.6472104910728576
      -1.4440721531369147 0.2172670924820633 0.6803843654496017
      2.0846939630083205e-003 -1.4279307437333260 0.3935287715226423
      0.8256248465911773 -0.0255020202641518 -1.8131070905487841
      0.6675974701981764 0.5283915611997014 -0.4180074587370234
      -0.2641088630312124 0.3048224782594268 -0.7528153914385022
      -0.8251282795898429 -0.6975022123309858 0.3524348245242548
      0.5151842247297832 -1.9775962825767618e-003 -1.3359186067145150
      -0.6060085266195963 -0.3111518543972964 0.2182736643178826
      0.5314879771267818 1.0196467141624428 0.0711349707685101
      -0.3747764511686266 1.4119899722721323 -0.6288054221075755
      -0.3264197323633443 0.8229663809477837 -0.1484085548630419
      0.4478051925084738 -1.2846051896006454 -0.3122476291115769
      0.4367832315297203 -0.2230740961917780 -0.3372404991998013
      -0.4769678129238606 -0.5290280428948520 -1.8511432251105078</data></LogitBeta></my_stat_model>
</opencv_storage>
