<?xml version="1.0"?>
<opencv_storage>
<my_stat_model type_id="opencv-ml-LogitRegression">
  <nDim>128</nDim>
  <nC>4</nC>
  <LogitBeta type_id="opencv-matrix">
    <rows>4</rows>
    <cols>129</cols>
    <dt>d</dt>
    <data>
      -0.8019089625615802 -0.8018649167749931 1.3838317242750775
      0.7186233012528085 0.0847511280684711 6.2295518976487737e-003
      -0.2243795457790778 0.4936991676692530 -1.1103558459895526
      -0.1050368922186884 1.7258024421150413 -1.2178358899303481
      -0.2819317302396674 -0.5382130366725832 1.3339256500424572
      -1.4784748596106698 -0.9662832081721997 -0.9477135506434352
      -0.9079702371945922 -0.5227698696954608 -0.1353345910398809
      -0.0905585568434189 -1.1526327866992918 0.1248640502808501
      -0.2282161771615694 0.3851154716283498 1.1732159813563874
      -1.1093966047235406 -0.1591291974194280 0.5956989156651955
      0.3250211591439094 0.4306105402580795 -1.0177830560045216
      -0.2281654906695673 -0.1757031756149674 -0.2794893034319875
      -0.0306158033492782 -1.2245648616471323 -0.2846272522436050
      0.7618388273785759 0.2146524743368960 -0.7816740518354604
      -0.5088507511907089 -0.0144484774941948 -0.0277514958872708
      0.8374095374018504 0.4520708965063562 -0.0643122938772723
      -0.1691789031406761 -0.6820161490351725 -0.0152419875234038
      -0.5673974418076300 -0.7802281846004127 -0.3251965404432408
      -0.8580335134778103 -0.6112126029772537 -1.5831188347740777
      -1.1835525279139625 -0.1244096675156002 -0.1365482358622547
      -0.0433076668816504 -0.5762968265540200 1.1482433931127183
      -0.7009634524491974 0.1060965548502990 0.0655639392515869
      -0.7010604285176550 0.3054332610103289 -0.5595801879823276
      0.3898668300021203 -0.1315096336965494 -0.6343611585995423
      0.3897647802290198 1.2794880246449507 0.1324454774133833
      -1.1622083818132070 -0.8263071074611171 0.5583245375122283
      0.4372987918252340 -1.4007738628634541 -0.1624468269661726
      0.3453822915565269 -0.0626962980975052 -0.0550402709686161
      -0.4099670154328900 -0.2704235607844229 0.4564989518640923
      -0.5505425778432015 -0.0901284899151226 -0.9629776008034824
      0.0480976871334271 -0.8934534486028810 0.4368332893875964
      1.3993403793755366 0.5547371203906810 -0.7683458340616670
      -1.6511890061806789 -0.9333451366983242 -2.7457142355664594e-003
      0.3421094792375574 0.7659533004702908 0.3849825645480863
      -0.8486679126560992 -1.5073282607683445 0.6622247182615657
      0.2844687918303180 -1.2152480290172933 -1.6500933154558046
      -0.2090716178404225 0.5202795172359215 1.1276886706593663
      -0.7011172615953377 0.7300852638196896 -0.3438588307324798
      0.3855785695088660 0.9447043460516076 0.6244941920149293
      -1.5969448581351995 -0.5529183924254086 1.0838584487811507
      -0.0133944458513192 1.0118339376250074 -0.4920419432575155
      0.0577561768675331 0.2524790966700264 1.0597369580591043
      0.3769857927717242 -0.3502527557870189 -0.5376452193486483
      1.0737770706175997 -0.0918398649032163 -0.9178966015153937
      0.6672423923058616 0.3717947583449607 0.1123310213676364
      -0.4577502905610367 -0.5125887716230140 0.7837430298357319
      0.9376228692535973 -0.4587043535958221 -0.0728267581084342
      -0.4706305074849597 0.3391340316525739 0.3612004602744103
      -0.0672445751451637 1.3159350903749440 -0.2112296570578439
      0.3873884390939890 0.9479663948055352 -0.2159191401585885
      -0.4050734842850372 -0.7505540611160728 -0.2302107363209870
      0.2910140110328033 0.2799545774156621 0.1608045533544970
      -0.5111501539446027 0.0418106318195044 0.5599447659679381
      1.1838995609008058e-003 -0.3733133973284636 0.8838614893245236
      -0.7384039785568497 -0.3468431624289705 -0.8682179840391547
      0.7596368361383750 0.1836023595264690 -0.4434700675210204
      1.6130570451388729e-003 0.3035281667064154 -0.7428637106450859
      -0.6067466541600567 -0.3855371020464690 0.3529432793443283
      -1.5092715794380618 0.7521517055797214 0.3204971573792784
      0.8392046350806142 0.0623205087732531 0.4648400114938697
      0.2905872069069626 0.2372363710453053 -0.4625615884939108
      0.2283812776402911 0.2900668859077774 0.9833380287943156
      -0.0118436359537056 0.0475680674868602 -0.8593181819523440
      0.7390753526720284 -1.0002164591079927 0.2266645614340190
      -0.8830714431278927 0.9033283277308921 0.7062925152761089
      -0.1449635777122318 1.0186575911849554e-003 -0.2521383270825645
      0.0612837995169680 0.2685935011788275 0.2019672575276774
      -0.9094072669124056 0.4242327200449045 0.0536939090503943
      -0.3929008784964345 0.2053414457766739 -0.0517584829765817
      0.8865179569304821 0.0697962089644740 0.6872867311532936
      0.1324619299616713 -0.3052284098842905 0.3695547389953676
      -0.9368094487889563 0.1031619513180693 -0.3699485102041112
      -0.2930300108691447 -0.3870265371010745 0.6783536200265653
      0.6312539825018557 0.2484749250459584 -0.8402397663718679
      -0.5240514017409399 0.5234753569469792 -1.0294378760389991
      0.3505964030974443 -0.0514554596164969 -0.3645957585853121
      -0.7116728581011361 0.2447541604849303 0.8117488761400348
      -0.0123834413982313 -0.7084893591831586 -0.0832404786654186
      -1.0390831819693711 0.0323370378112325 -1.2162004746480521
      -0.2601486126731116 0.7814978517266882 -1.6648424168042553
      -1.1137577971847614 0.3057578517613804 -0.4142114804400174
      -0.4020165355900390 -0.0562745153307497 -1.5447458547823363
      -0.1678277870047355 -0.9766058671634041 0.4352907378524362
      -0.2912227762405864 -0.7425646716572363 0.7966091658217902
      -0.7741326252599556 -0.1488286088699094 -0.4226368383469573
      0.7322597732492888 0.6150225553033729 0.3980910785425258
      -0.3952757373904905 1.2916835190543692 0.3513592330638637
      -0.9372915310212933 -0.1727730886156694 -0.2101619480491993
      0.1977665958588375 -0.7878520447838259 -0.6837397554862061
      -0.7210090088571207 0.8922572525286551 0.4760995339133195
      0.4519369729430861 0.9681927387246988 -1.3592199411186840
      1.0374618282359556 -0.2846404675865392 0.5112348054439171
      0.9471553187538563 0.3266354922791481 -0.3487482975666676
      -0.4980008274536962 0.7433715835452071 -0.0738385014090025
      -0.4724686208594542 0.5404720268666763 -0.2454119204040602
      0.6849353234218638 -0.4276523407179703 -0.8419285087926699
      -0.9610973041233371 0.4060384120849022 0.6406461244026478
      -0.2108319314575107 -0.2120520531953789 0.1302339256333489
      0.2051055343210781 1.1548502340080558 0.1691275654235675
      -0.2789224028039322 -0.9193435618447036 -0.3273332297420122
      0.4623158213285171 0.6347505979114791 -1.6597808087488017
      2.1810190167635182 -0.8029251681006170 -0.9497680237693790
      -0.5651587208817805 -0.6155884207869090 -0.6357079065531192
      0.4664967125860426 0.2193582470766687 0.8379005169602336
      -0.2752230070619732 0.2679519854090551 0.8413919398130638
      0.5722337647065421 -0.8566268255254035 -0.0563899352656027
      0.2297655100412159 0.7347450206499685 -0.5618362591722867
      0.6008870037549081 -0.1287394297919260 -0.6062944445709388
      0.9680289842879413 -0.1534349292367285 -0.4747024007471741
      0.3524039755510488 -0.4355637574599358 -0.5224579772237048
      -0.3892988615462391 -0.7139325481712907 -0.9540177765171753
      0.0251829431303612 0.0920120640238274 0.0797659894245783
      -1.5448329932461509 1.0551387746367620 -0.8047665675646714
      -0.2372550738437888 0.4301814567608611 -0.8980426619511515
      0.5396867708273453 -0.5144574262530511 0.7049378475100725
      -0.1072602670061602 -1.0841917058714041 -0.1836820120709145
      -1.0933021090434771 0.2611466801416132 0.1904904256136144
      -0.1089768560812649 0.3028759368276561 0.7222059476443452
      0.4194549608390129 0.5341255617298545 0.3243127225022263
      -0.1161127602742096 -0.6940004666447257 -0.4749002259811779
      0.9665533850513005 0.7685593182274680 -0.9624959621376634
      0.7636728107030565 -0.2743431833415037 0.6442532967517040
      1.1577299854636143 -0.7893648625190733 0.3733694012912230
      2.5127507217907952 -0.5465595277775095 -0.4709050985795047
      -0.4823577466093424 0.4454276024990331 0.5437580528048761
      0.8544152172319210 2.3159554002488750e-003 0.0479517118152415
      0.9310175411156326 -1.1363447693770949 -0.3100777006381724
      0.3742669669501372 -0.5993230994397737 -1.0655301287240782
      0.5030311581614692 -0.3729927392131923 -0.5561644940846154
      0.1479998509670631 -0.3013370235561421 -0.5302754491628727
      -0.2584846938433574 -0.2659759891986168 0.0958821769286966
      0.2475789079933287 0.8607095826987230 0.4322660826453066
      -0.3066830801948847 -2.0863749907079332 0.5751871896056359
      0.4463883030964185 -1.2323817697831789 -1.2980925149517151
      -0.2416600795363142 -0.3219267470953623 -0.1878180920314399
      -1.3862865756593836 -0.8571454373345384 0.6120439975609322
      1.1763321743055151 0.5028152007936591 0.0328220823970749
      0.4315910327986998 -1.0975435653869310 -1.1392319697202191
      0.8342319127568694 1.0717127370762531 -0.0427711814683140
      0.4416284732452774 -0.7010263384846047 -1.0973550701540880
      1.4727516517561030 0.8110030779559668 1.0598047447156280
      -0.9681346374314501 -0.3537622411286486 -0.1408944604777123
      -0.4394003415384554 0.8718463202210264 1.8276227861052399
      -0.3720562280716865 -1.1634020502809235 0.5704131032223678
      -1.0933479964376578 -0.2634462829017599 0.3470833403275299
      0.2029413370585592 1.0789090356643405 0.4426402318151018
      -0.1099004612578445 0.0978103837696993 -0.2677073301857725
      0.9446095801157981 -0.4514482033679829 -0.7433965080248846
      0.0391831037368551 0.7631953690708578 -7.1727756911521383e-003
      -1.2026822083425537 0.7867295085906363 -0.8388390729747198
      0.7288861478944324 -0.5270429977277858 0.0979638971699952
      -0.0786894719757521 0.2806879292273186 0.8784400857174851
      -1.0852165804860168 0.3884770230263037 1.1403920764248270
      0.6778814370302635 -0.8812411002009106 0.9535759478151784
      0.9505857652412554 -0.4072892735648373 -0.7580454056457171
      -0.5994161397293903 8.5551173803357673e-003 0.6994616307978590
      -0.0413511098822379 -0.3085334112225192 0.4587828998457395
      0.7904520995145631 1.0950114529708987 -0.4299337991347805
      0.0135539297772231 1.7409761273978677 0.4983495746376250
      0.4332714761759047 -0.0709867424316376 0.1434252361446471
      -1.2606611120844873 -0.7449088042658935 0.8891655510433364
      0.3322757135943282 0.1291945416709265 0.1112090687556509
      0.3750164693858383 -0.1701619924927982 -0.9413385204431838
      -0.2363842012197701 0.7592706751490151 0.4484736191391761
      -0.4428650842638113 1.0610931156516525 1.0037843076475053
      -0.7372867188517984 -0.6164463851529337 0.3850455337896881
      -1.3037566215399661 -0.4778488932016142 1.6141389948858320
      0.3254489828430925 -1.2673775779478300 0.6005633513465541
      0.7290807865756839 1.2004487826541923 -1.7867248587904159
      -0.7372022643694050 0.8062605761849154 -0.2651910478460622
      0.3156876754632393 0.4490979795986439 0.2309955211940427
      -1.9212138289378105 0.2420727214109442 -1.9667337106524112</data></LogitBeta></my_stat_model>
</opencv_storage>
