<?xml version="1.0"?>
<opencv_storage>
<cascade type_id="opencv-haar-classifier">
  <size>
    20 20</size>
  <stages>
    <_>
      <!-- stage 0 -->
      <trees>
        <_>
          <!-- tree 0 -->
          <_>
            <!-- root node -->
            <feature>
              <rects>
                <_>
                  8 10 4 4 -1.</_>
                <_>
                  8 12 4 2 2.</_></rects>
              <tilted>0</tilted></feature>
            <threshold>-8.3415247499942780e-003</threshold>
            <left_val>0.6428433060646057</left_val>
            <right_val>-0.6860613226890564</right_val></_></_>
        <_>
          <!-- tree 1 -->
          <_>
            <!-- root node -->
            <feature>
              <rects>
                <_>
                  4 0 12 13 -1.</_>
                <_>
                  8 0 4 13 3.</_></rects>
              <tilted>0</tilted></feature>
            <threshold>0.1068791970610619</threshold>
            <left_val>-0.4490168094635010</left_val>
            <right_val>0.6101076006889343</right_val></_></_>
        <_>
          <!-- tree 2 -->
          <_>
            <!-- root node -->
            <feature>
              <rects>
                <_>
                  4 8 12 4 -1.</_>
                <_>
                  4 10 12 2 2.</_></rects>
              <tilted>0</tilted></feature>
            <threshold>-0.0309383906424046</threshold>
            <left_val>0.5901874899864197</left_val>
            <right_val>-0.2717478871345520</right_val></_></_>
        <_>
          <!-- tree 3 -->
          <_>
            <!-- root node -->
            <feature>
              <rects>
                <_>
                  8 0 4 3 -1.</_>
                <_>
                  8 1 4 1 3.</_></rects>
              <tilted>0</tilted></feature>
            <threshold>3.7827470805495977e-003</threshold>
            <left_val>0.1611375957727432</left_val>
            <right_val>-0.8714731931686401</right_val></_></_>
        <_>
          <!-- tree 4 -->
          <_>
            <!-- root node -->
            <feature>
              <rects>
                <_>
                  7 12 2 2 -1.</_>
                <_>
                  7 13 2 1 2.</_></rects>
              <tilted>0</tilted></feature>
            <threshold>-6.8734318483620882e-004</threshold>
            <left_val>0.2944090962409973</left_val>
            <right_val>-0.2907021045684815</right_val></_></_>
        <_>
          <!-- tree 5 -->
          <_>
            <!-- root node -->
            <feature>
              <rects>
                <_>
                  3 0 13 3 -1.</_>
                <_>
                  3 1 13 1 3.</_></rects>
              <tilted>0</tilted></feature>
            <threshold>-8.2433875650167465e-003</threshold>
            <left_val>-0.7812278270721436</left_val>
            <right_val>0.0885181427001953</right_val></_></_>
        <_>
          <!-- tree 6 -->
          <_>
            <!-- root node -->
            <feature>
              <rects>
                <_>
                  4 0 10 13 -1.</_>
                <_>
                  9 0 5 13 2.</_></rects>
              <tilted>0</tilted></feature>
            <threshold>0.1678297966718674</threshold>
            <left_val>-0.1616671979427338</left_val>
            <right_val>0.5064905881881714</right_val></_></_>
        <_>
          <!-- tree 7 -->
          <_>
            <!-- root node -->
            <feature>
              <rects>
                <_>
                  7 0 8 19 -1.</_>
                <_>
                  11 0 4 19 2.</_></rects>
              <tilted>0</tilted></feature>
            <threshold>-0.1253246068954468</threshold>
            <left_val>0.5270997285842896</left_val>
            <right_val>-0.2034827023744583</right_val></_></_>
        <_>
          <!-- tree 8 -->
          <_>
            <!-- root node -->
            <feature>
              <rects>
                <_>
                  11 17 1 2 -1.</_>
                <_>
                  11 18 1 1 2.</_></rects>
              <tilted>0</tilted></feature>
            <threshold>2.7436570962890983e-004</threshold>
            <left_val>-0.1753728985786438</left_val>
            <right_val>0.3618417978286743</right_val></_></_></trees>
      <stage_threshold>-1.6527689695358276</stage_threshold>
      <parent>-1</parent>
      <next>-1</next></_>
    <_>
      <!-- stage 1 -->
      <trees>
        <_>
          <!-- tree 0 -->
          <_>
            <!-- root node -->
            <feature>
              <rects>
                <_>
                  8 11 5 2 -1.</_>
                <_>
                  8 12 5 1 2.</_></rects>
              <tilted>0</tilted></feature>
            <threshold>-3.1060529872775078e-003</threshold>
            <left_val>0.5816118717193604</left_val>
            <right_val>-0.6229494810104370</right_val></_></_>
        <_>
          <!-- tree 1 -->
          <_>
            <!-- root node -->
            <feature>
              <rects>
                <_>
                  4 0 12 15 -1.</_>
                <_>
                  8 0 4 15 3.</_></rects>
              <tilted>0</tilted></feature>
            <threshold>0.0629899874329567</threshold>
            <left_val>-0.5024414062500000</left_val>
            <right_val>0.3755038082599640</right_val></_></_>
        <_>
          <!-- tree 2 -->
          <_>
            <!-- root node -->
            <feature>
              <rects>
                <_>
                  5 10 9 2 -1.</_>
                <_>
                  5 11 9 1 2.</_></rects>
              <tilted>0</tilted></feature>
            <threshold>-5.5441441945731640e-003</threshold>
            <left_val>0.4157592952251434</left_val>
            <right_val>-0.4026896953582764</right_val></_></_>
        <_>
          <!-- tree 3 -->
          <_>
            <!-- root node -->
            <feature>
              <rects>
                <_>
                  6 8 2 1 -1.</_>
                <_>
                  7 8 1 1 2.</_></rects>
              <tilted>0</tilted></feature>
            <threshold>3.9056901005096734e-004</threshold>
            <left_val>-0.2329290062189102</left_val>
            <right_val>0.2863433063030243</right_val></_></_>
        <_>
          <!-- tree 4 -->
          <_>
            <!-- root node -->
            <feature>
              <rects>
                <_>
                  4 0 8 12 -1.</_>
                <_>
                  8 0 4 12 2.</_></rects>
              <tilted>0</tilted></feature>
            <threshold>-0.0781701803207397</threshold>
            <left_val>0.6815003752708435</left_val>
            <right_val>-0.0853556618094444</right_val></_></_>
        <_>
          <!-- tree 5 -->
          <_>
            <!-- root node -->
            <feature>
              <rects>
                <_>
                  7 0 8 11 -1.</_>
                <_>
                  11 0 4 11 2.</_></rects>
              <tilted>0</tilted></feature>
            <threshold>0.1152942031621933</threshold>
            <left_val>-0.0966482013463974</left_val>
            <right_val>0.7055714726448059</right_val></_></_>
        <_>
          <!-- tree 6 -->
          <_>
            <!-- root node -->
            <feature>
              <rects>
                <_>
                  11 5 2 4 -1.</_>
                <_>
                  12 5 1 4 2.</_></rects>
              <tilted>0</tilted></feature>
            <threshold>-1.0684949811547995e-003</threshold>
            <left_val>0.2690117955207825</left_val>
            <right_val>-0.3048956990242004</right_val></_></_>
        <_>
          <!-- tree 7 -->
          <_>
            <!-- root node -->
            <feature>
              <rects>
                <_>
                  8 13 5 2 -1.</_>
                <_>
                  8 14 5 1 2.</_></rects>
              <tilted>0</tilted></feature>
            <threshold>-3.7056440487504005e-003</threshold>
            <left_val>0.4604783952236176</left_val>
            <right_val>-0.1509952992200851</right_val></_></_>
        <_>
          <!-- tree 8 -->
          <_>
            <!-- root node -->
            <feature>
              <rects>
                <_>
                  5 8 11 4 -1.</_>
                <_>
                  5 10 11 2 2.</_></rects>
              <tilted>0</tilted></feature>
            <threshold>-0.0316314809024334</threshold>
            <left_val>0.4510343074798584</left_val>
            <right_val>-0.2261449992656708</right_val></_></_>
        <_>
          <!-- tree 9 -->
          <_>
            <!-- root node -->
            <feature>
              <rects>
                <_>
                  5 0 8 19 -1.</_>
                <_>
                  9 0 4 19 2.</_></rects>
              <tilted>0</tilted></feature>
            <threshold>0.1547832041978836</threshold>
            <left_val>-0.1207415983080864</left_val>
            <right_val>0.4440214931964874</right_val></_></_>
        <_>
          <!-- tree 10 -->
          <_>
            <!-- root node -->
            <feature>
              <rects>
                <_>
                  3 17 7 3 -1.</_>
                <_>
                  3 18 7 1 3.</_></rects>
              <tilted>0</tilted></feature>
            <threshold>1.2524640187621117e-003</threshold>
            <left_val>-0.2148590981960297</left_val>
            <right_val>0.2901628911495209</right_val></_></_>
        <_>
          <!-- tree 11 -->
          <_>
            <!-- root node -->
            <feature>
              <rects>
                <_>
                  6 0 8 15 -1.</_>
                <_>
                  10 0 4 15 2.</_></rects>
              <tilted>0</tilted></feature>
            <threshold>-0.1199050992727280</threshold>
            <left_val>0.4117347002029419</left_val>
            <right_val>-0.1392176002264023</right_val></_></_>
        <_>
          <!-- tree 12 -->
          <_>
            <!-- root node -->
            <feature>
              <rects>
                <_>
                  10 5 6 4 -1.</_>
                <_>
                  12 5 2 4 3.</_></rects>
              <tilted>0</tilted></feature>
            <threshold>2.3903520777821541e-003</threshold>
            <left_val>-0.1849976927042007</left_val>
            <right_val>0.2911042869091034</right_val></_></_>
        <_>
          <!-- tree 13 -->
          <_>
            <!-- root node -->
            <feature>
              <rects>
                <_>
                  16 9 2 9 -1.</_>
                <_>
                  17 9 1 9 2.</_></rects>
              <tilted>0</tilted></feature>
            <threshold>5.9789681108668447e-004</threshold>
            <left_val>-0.2447264045476914</left_val>
            <right_val>0.2276639938354492</right_val></_></_></trees>
      <stage_threshold>-1.8712890148162842</stage_threshold>
      <parent>0</parent>
      <next>-1</next></_>
    <_>
      <!-- stage 2 -->
      <trees>
        <_>
          <!-- tree 0 -->
          <_>
            <!-- root node -->
            <feature>
              <rects>
                <_>
                  7 1 6 15 -1.</_>
                <_>
                  7 6 6 5 3.</_></rects>
              <tilted>0</tilted></feature>
            <threshold>0.0661045834422112</threshold>
            <left_val>-0.6000462174415588</left_val>
            <right_val>0.4626280069351196</right_val></_></_>
        <_>
          <!-- tree 1 -->
          <_>
            <!-- root node -->
            <feature>
              <rects>
                <_>
                  4 0 12 13 -1.</_>
                <_>
                  8 0 4 13 3.</_></rects>
              <tilted>0</tilted></feature>
            <threshold>0.0969701334834099</threshold>
            <left_val>-0.4395922124385834</left_val>
            <right_val>0.3770264089107513</right_val></_></_>
        <_>
          <!-- tree 2 -->
          <_>
            <!-- root node -->
            <feature>
              <rects>
                <_>
                  4 10 10 2 -1.</_>
                <_>
                  4 11 10 1 2.</_></rects>
              <tilted>0</tilted></feature>
            <threshold>-3.8344769272953272e-003</threshold>
            <left_val>0.2748867869377136</left_val>
            <right_val>-0.4383260011672974</right_val></_></_>
        <_>
          <!-- tree 3 -->
          <_>
            <!-- root node -->
            <feature>
              <rects>
                <_>
                  12 14 8 4 -1.</_>
                <_>
                  12 14 4 2 2.</_>
                <_>
                  16 16 4 2 2.</_></rects>
              <tilted>0</tilted></feature>
            <threshold>-2.2317860275506973e-003</threshold>
            <left_val>0.3495588004589081</left_val>
            <right_val>-0.2192353010177612</right_val></_></_>
        <_>
          <!-- tree 4 -->
          <_>
            <!-- root node -->
            <feature>
              <rects>
                <_>
                  9 0 2 3 -1.</_>
                <_>
                  9 1 2 1 3.</_></rects>
              <tilted>0</tilted></feature>
            <threshold>2.3636349942535162e-003</threshold>
            <left_val>0.0916707888245583</left_val>
            <right_val>-0.8617960810661316</right_val></_></_>
        <_>
          <!-- tree 5 -->
          <_>
            <!-- root node -->
            <feature>
              <rects>
                <_>
                  17 14 3 6 -1.</_>
                <_>
                  17 16 3 2 3.</_></rects>
              <tilted>0</tilted></feature>
            <threshold>1.8504840554669499e-003</threshold>
            <left_val>-0.2228786051273346</left_val>
            <right_val>0.2611770927906036</right_val></_></_>
        <_>
          <!-- tree 6 -->
          <_>
            <!-- root node -->
            <feature>
              <rects>
                <_>
                  7 6 6 12 -1.</_>
                <_>
                  7 10 6 4 3.</_></rects>
              <tilted>0</tilted></feature>
            <threshold>0.1116591021418572</threshold>
            <left_val>-0.0819248035550117</left_val>
            <right_val>0.6440101861953735</right_val></_></_>
        <_>
          <!-- tree 7 -->
          <_>
            <!-- root node -->
            <feature>
              <rects>
                <_>
                  5 1 7 3 -1.</_>
                <_>
                  5 2 7 1 3.</_></rects>
              <tilted>0</tilted></feature>
            <threshold>-6.0459128580987453e-003</threshold>
            <left_val>-0.7741401195526123</left_val>
            <right_val>0.0576612912118435</right_val></_></_>
        <_>
          <!-- tree 8 -->
          <_>
            <!-- root node -->
            <feature>
              <rects>
                <_>
                  3 17 2 2 -1.</_>
                <_>
                  3 18 2 1 2.</_></rects>
              <tilted>0</tilted></feature>
            <threshold>0.0308801997452974</threshold>
            <left_val>-0.0217498391866684</left_val>
            <right_val>-2.5175939941406250e+003</right_val></_></_>
        <_>
          <!-- tree 9 -->
          <_>
            <!-- root node -->
            <feature>
              <rects>
                <_>
                  11 1 1 3 -1.</_>
                <_>
                  11 2 1 1 3.</_></rects>
              <tilted>0</tilted></feature>
            <threshold>1.2206949759274721e-003</threshold>
            <left_val>0.1022877022624016</left_val>
            <right_val>-0.7382779717445374</right_val></_></_>
        <_>
          <!-- tree 10 -->
          <_>
            <!-- root node -->
            <feature>
              <rects>
                <_>
                  5 13 3 4 -1.</_>
                <_>
                  5 15 3 2 2.</_></rects>
              <tilted>0</tilted></feature>
            <threshold>3.8574899081140757e-003</threshold>
            <left_val>-0.1561065018177033</left_val>
            <right_val>0.3006682991981506</right_val></_></_>
        <_>
          <!-- tree 11 -->
          <_>
            <!-- root node -->
            <feature>
              <rects>
                <_>
                  8 0 6 1 -1.</_>
                <_>
                  11 0 3 1 2.</_></rects>
              <tilted>0</tilted></feature>
            <threshold>-4.8574139364063740e-003</threshold>
            <left_val>0.3041234910488129</left_val>
            <right_val>-0.1633352041244507</right_val></_></_>
        <_>
          <!-- tree 12 -->
          <_>
            <!-- root node -->
            <feature>
              <rects>
                <_>
                  6 0 8 10 -1.</_>
                <_>
                  10 0 4 10 2.</_></rects>
              <tilted>0</tilted></feature>
            <threshold>0.0891495794057846</threshold>
            <left_val>-0.1178618967533112</left_val>
            <right_val>0.4781056940555573</right_val></_></_>
        <_>
          <!-- tree 13 -->
          <_>
            <!-- root node -->
            <feature>
              <rects>
                <_>
                  5 2 10 14 -1.</_>
                <_>
                  5 9 10 7 2.</_></rects>
              <tilted>0</tilted></feature>
            <threshold>-0.2949568927288055</threshold>
            <left_val>0.5773848295211792</left_val>
            <right_val>-0.0788932293653488</right_val></_></_>
        <_>
          <!-- tree 14 -->
          <_>
            <!-- root node -->
            <feature>
              <rects>
                <_>
                  6 0 6 13 -1.</_>
                <_>
                  9 0 3 13 2.</_></rects>
              <tilted>0</tilted></feature>
            <threshold>-0.0754833817481995</threshold>
            <left_val>0.5058522820472717</left_val>
            <right_val>-0.0874121636152267</right_val></_></_>
        <_>
          <!-- tree 15 -->
          <_>
            <!-- root node -->
            <feature>
              <rects>
                <_>
                  6 14 10 6 -1.</_>
                <_>
                  6 16 10 2 3.</_></rects>
              <tilted>0</tilted></feature>
            <threshold>-0.0187494792044163</threshold>
            <left_val>0.3757157027721405</left_val>
            <right_val>-0.1191176995635033</right_val></_></_></trees>
      <stage_threshold>-1.4542020559310913</stage_threshold>
      <parent>1</parent>
      <next>-1</next></_>
    <_>
      <!-- stage 3 -->
      <trees>
        <_>
          <!-- tree 0 -->
          <_>
            <!-- root node -->
            <feature>
              <rects>
                <_>
                  7 11 6 2 -1.</_>
                <_>
                  7 12 6 1 2.</_></rects>
              <tilted>0</tilted></feature>
            <threshold>-4.1359318420290947e-003</threshold>
            <left_val>0.4565457105636597</left_val>
            <right_val>-0.5595418214797974</right_val></_></_>
        <_>
          <!-- tree 1 -->
          <_>
            <!-- root node -->
            <feature>
              <rects>
                <_>
                  4 0 12 13 -1.</_>
                <_>
                  8 0 4 13 3.</_></rects>
              <tilted>0</tilted></feature>
            <threshold>0.1641902029514313</threshold>
            <left_val>-0.2973971962928772</left_val>
            <right_val>0.4601626992225647</right_val></_></_>
        <_>
          <!-- tree 2 -->
          <_>
            <!-- root node -->
            <feature>
              <rects>
                <_>
                  6 9 8 2 -1.</_>
                <_>
                  6 10 8 1 2.</_></rects>
              <tilted>0</tilted></feature>
            <threshold>-4.8755649477243423e-003</threshold>
            <left_val>0.4263777136802673</left_val>
            <right_val>-0.3069173097610474</right_val></_></_>
        <_>
          <!-- tree 3 -->
          <_>
            <!-- root node -->
            <feature>
              <rects>
                <_>
                  14 13 6 2 -1.</_>
                <_>
                  17 13 3 2 2.</_></rects>
              <tilted>0</tilted></feature>
            <threshold>2.5759900454431772e-003</threshold>
            <left_val>-0.2411078959703445</left_val>
            <right_val>0.2817999124526978</right_val></_></_>
        <_>
          <!-- tree 4 -->
          <_>
            <!-- root node -->
            <feature>
              <rects>
                <_>
                  0 15 8 4 -1.</_>
                <_>
                  0 15 4 2 2.</_>
                <_>
                  4 17 4 2 2.</_></rects>
              <tilted>0</tilted></feature>
            <threshold>3.7042701151221991e-003</threshold>
            <left_val>-0.1461441963911057</left_val>
            <right_val>0.3341414928436279</right_val></_></_>
        <_>
          <!-- tree 5 -->
          <_>
            <!-- root node -->
            <feature>
              <rects>
                <_>
                  6 4 6 3 -1.</_>
                <_>
                  6 5 6 1 3.</_></rects>
              <tilted>0</tilted></feature>
            <threshold>5.4061491973698139e-003</threshold>
            <left_val>0.0424651503562927</left_val>
            <right_val>-0.7786757946014404</right_val></_></_>
        <_>
          <!-- tree 6 -->
          <_>
            <!-- root node -->
            <feature>
              <rects>
                <_>
                  5 0 10 8 -1.</_>
                <_>
                  5 4 10 4 2.</_></rects>
              <tilted>0</tilted></feature>
            <threshold>-0.0235594399273396</threshold>
            <left_val>-0.5128694772720337</left_val>
            <right_val>0.1036743968725205</right_val></_></_>
        <_>
          <!-- tree 7 -->
          <_>
            <!-- root node -->
            <feature>
              <rects>
                <_>
                  6 0 8 4 -1.</_>
                <_>
                  6 2 8 2 2.</_></rects>
              <tilted>0</tilted></feature>
            <threshold>0.0271144602447748</threshold>
            <left_val>0.0628768876194954</left_val>
            <right_val>-0.7667663097381592</right_val></_></_>
        <_>
          <!-- tree 8 -->
          <_>
            <!-- root node -->
            <feature>
              <rects>
                <_>
                  8 13 4 2 -1.</_>
                <_>
                  8 14 4 1 2.</_></rects>
              <tilted>0</tilted></feature>
            <threshold>-5.0709219649434090e-003</threshold>
            <left_val>0.4262850880622864</left_val>
            <right_val>-0.1437446027994156</right_val></_></_>
        <_>
          <!-- tree 9 -->
          <_>
            <!-- root node -->
            <feature>
              <rects>
                <_>
                  10 10 1 2 -1.</_>
                <_>
                  10 11 1 1 2.</_></rects>
              <tilted>0</tilted></feature>
            <threshold>-1.2873030209448189e-004</threshold>
            <left_val>0.1794254034757614</left_val>
            <right_val>-0.2866266071796417</right_val></_></_>
        <_>
          <!-- tree 10 -->
          <_>
            <!-- root node -->
            <feature>
              <rects>
                <_>
                  1 5 19 2 -1.</_>
                <_>
                  1 6 19 1 2.</_></rects>
              <tilted>0</tilted></feature>
            <threshold>0.0161543209105730</threshold>
            <left_val>0.0528366193175316</left_val>
            <right_val>-0.6925001144409180</right_val></_></_>
        <_>
          <!-- tree 11 -->
          <_>
            <!-- root node -->
            <feature>
              <rects>
                <_>
                  7 0 6 8 -1.</_>
                <_>
                  10 0 3 8 2.</_></rects>
              <tilted>0</tilted></feature>
            <threshold>-0.0531514510512352</threshold>
            <left_val>0.3844383060932159</left_val>
            <right_val>-0.1196587979793549</right_val></_></_>
        <_>
          <!-- tree 12 -->
          <_>
            <!-- root node -->
            <feature>
              <rects>
                <_>
                  6 0 6 17 -1.</_>
                <_>
                  9 0 3 17 2.</_></rects>
              <tilted>0</tilted></feature>
            <threshold>0.0672525465488434</threshold>
            <left_val>-0.1753713935613632</left_val>
            <right_val>0.3654023110866547</right_val></_></_>
        <_>
          <!-- tree 13 -->
          <_>
            <!-- root node -->
            <feature>
              <rects>
                <_>
                  8 7 3 8 -1.</_>
                <_>
                  9 7 1 8 3.</_></rects>
              <tilted>0</tilted></feature>
            <threshold>-6.7610978148877621e-003</threshold>
            <left_val>-0.6840559244155884</left_val>
            <right_val>0.0631520375609398</right_val></_></_>
        <_>
          <!-- tree 14 -->
          <_>
            <!-- root node -->
            <feature>
              <rects>
                <_>
                  4 13 3 6 -1.</_>
                <_>
                  4 15 3 2 3.</_></rects>
              <tilted>0</tilted></feature>
            <threshold>5.5073299445211887e-003</threshold>
            <left_val>-0.1367949992418289</left_val>
            <right_val>0.2844473123550415</right_val></_></_>
        <_>
          <!-- tree 15 -->
          <_>
            <!-- root node -->
            <feature>
              <rects>
                <_>
                  2 16 4 2 -1.</_>
                <_>
                  2 17 4 1 2.</_></rects>
              <tilted>0</tilted></feature>
            <threshold>6.0120137641206384e-004</threshold>
            <left_val>-0.1680604070425034</left_val>
            <right_val>0.2334010004997253</right_val></_></_>
        <_>
          <!-- tree 16 -->
          <_>
            <!-- root node -->
            <feature>
              <rects>
                <_>
                  13 7 2 4 -1.</_>
                <_>
                  14 7 1 4 2.</_></rects>
              <tilted>0</tilted></feature>
            <threshold>-7.4330827919766307e-004</threshold>
            <left_val>0.1732635945081711</left_val>
            <right_val>-0.2150579988956451</right_val></_></_>
        <_>
          <!-- tree 17 -->
          <_>
            <!-- root node -->
            <feature>
              <rects>
                <_>
                  5 3 10 10 -1.</_>
                <_>
                  5 8 10 5 2.</_></rects>
              <tilted>0</tilted></feature>
            <threshold>-0.1663805991411209</threshold>
            <left_val>0.5285286903381348</left_val>
            <right_val>-0.0740421116352081</right_val></_></_>
        <_>
          <!-- tree 18 -->
          <_>
            <!-- root node -->
            <feature>
              <rects>
                <_>
                  5 4 8 12 -1.</_>
                <_>
                  9 4 4 12 2.</_></rects>
              <tilted>0</tilted></feature>
            <threshold>-0.1363255977630615</threshold>
            <left_val>0.5710002183914185</left_val>
            <right_val>-0.0513328388333321</right_val></_></_>
        <_>
          <!-- tree 19 -->
          <_>
            <!-- root node -->
            <feature>
              <rects>
                <_>
                  7 0 8 10 -1.</_>
                <_>
                  11 0 4 10 2.</_></rects>
              <tilted>0</tilted></feature>
            <threshold>0.1156663000583649</threshold>
            <left_val>-0.0721921026706696</left_val>
            <right_val>0.5464987158775330</right_val></_></_>
        <_>
          <!-- tree 20 -->
          <_>
            <!-- root node -->
            <feature>
              <rects>
                <_>
                  8 12 2 2 -1.</_>
                <_>
                  8 13 2 1 2.</_></rects>
              <tilted>0</tilted></feature>
            <threshold>-7.2600378189235926e-004</threshold>
            <left_val>0.1832239031791687</left_val>
            <right_val>-0.2128378003835678</right_val></_></_></trees>
      <stage_threshold>-1.6259880065917969</stage_threshold>
      <parent>2</parent>
      <next>-1</next></_>
    <_>
      <!-- stage 4 -->
      <trees>
        <_>
          <!-- tree 0 -->
          <_>
            <!-- root node -->
            <feature>
              <rects>
                <_>
                  6 3 2 10 -1.</_>
                <_>
                  7 3 1 10 2.</_></rects>
              <tilted>0</tilted></feature>
            <threshold>3.7252819165587425e-003</threshold>
            <left_val>-0.4247704148292542</left_val>
            <right_val>0.3916004002094269</right_val></_></_>
        <_>
          <!-- tree 1 -->
          <_>
            <!-- root node -->
            <feature>
              <rects>
                <_>
                  6 9 8 4 -1.</_>
                <_>
                  6 11 8 2 2.</_></rects>
              <tilted>0</tilted></feature>
            <threshold>-0.0272899493575096</threshold>
            <left_val>0.3700281977653503</left_val>
            <right_val>-0.3694731891155243</right_val></_></_>
        <_>
          <!-- tree 2 -->
          <_>
            <!-- root node -->
            <feature>
              <rects>
                <_>
                  12 3 2 10 -1.</_>
                <_>
                  13 3 1 10 2.</_></rects>
              <tilted>0</tilted></feature>
            <threshold>-3.7932540290057659e-003</threshold>
            <left_val>0.3503924012184143</left_val>
            <right_val>-0.3575901091098785</right_val></_></_>
        <_>
          <!-- tree 3 -->
          <_>
            <!-- root node -->
            <feature>
              <rects>
                <_>
                  9 12 2 2 -1.</_>
                <_>
                  9 13 2 1 2.</_></rects>
              <tilted>0</tilted></feature>
            <threshold>-9.2064990894868970e-004</threshold>
            <left_val>0.2406264990568161</left_val>
            <right_val>-0.3224338889122009</right_val></_></_>
        <_>
          <!-- tree 4 -->
          <_>
            <!-- root node -->
            <feature>
              <rects>
                <_>
                  0 13 6 1 -1.</_>
                <_>
                  3 13 3 1 2.</_></rects>
              <tilted>0</tilted></feature>
            <threshold>-1.5856099780648947e-003</threshold>
            <left_val>0.2912049889564514</left_val>
            <right_val>-0.1940702050924301</right_val></_></_>
        <_>
          <!-- tree 5 -->
          <_>
            <!-- root node -->
            <feature>
              <rects>
                <_>
                  3 0 13 3 -1.</_>
                <_>
                  3 1 13 1 3.</_></rects>
              <tilted>0</tilted></feature>
            <threshold>-8.3664869889616966e-003</threshold>
            <left_val>-0.7549315094947815</left_val>
            <right_val>0.0936471968889236</right_val></_></_>
        <_>
          <!-- tree 6 -->
          <_>
            <!-- root node -->
            <feature>
              <rects>
                <_>
                  7 1 6 2 -1.</_>
                <_>
                  9 1 2 2 3.</_></rects>
              <tilted>0</tilted></feature>
            <threshold>2.3114830255508423e-003</threshold>
            <left_val>-0.2171130031347275</left_val>
            <right_val>0.2208175063133240</right_val></_></_>
        <_>
          <!-- tree 7 -->
          <_>
            <!-- root node -->
            <feature>
              <rects>
                <_>
                  4 0 12 7 -1.</_>
                <_>
                  8 0 4 7 3.</_></rects>
              <tilted>0</tilted></feature>
            <threshold>-0.0498764403164387</threshold>
            <left_val>0.5491492152214050</left_val>
            <right_val>-0.1411702036857605</right_val></_></_>
        <_>
          <!-- tree 8 -->
          <_>
            <!-- root node -->
            <feature>
              <rects>
                <_>
                  9 7 3 11 -1.</_>
                <_>
                  10 7 1 11 3.</_></rects>
              <tilted>0</tilted></feature>
            <threshold>-7.2306580841541290e-003</threshold>
            <left_val>-0.6197395920753479</left_val>
            <right_val>0.1265493035316467</right_val></_></_>
        <_>
          <!-- tree 9 -->
          <_>
            <!-- root node -->
            <feature>
              <rects>
                <_>
                  6 0 8 19 -1.</_>
                <_>
                  10 0 4 19 2.</_></rects>
              <tilted>0</tilted></feature>
            <threshold>-0.1860561072826386</threshold>
            <left_val>0.4737710952758789</left_val>
            <right_val>-0.1200748011469841</right_val></_></_>
        <_>
          <!-- tree 10 -->
          <_>
            <!-- root node -->
            <feature>
              <rects>
                <_>
                  9 0 6 3 -1.</_>
                <_>
                  11 0 2 3 3.</_></rects>
              <tilted>0</tilted></feature>
            <threshold>2.2911729756742716e-003</threshold>
            <left_val>-0.1897453963756561</left_val>
            <right_val>0.2668761909008026</right_val></_></_>
        <_>
          <!-- tree 11 -->
          <_>
            <!-- root node -->
            <feature>
              <rects>
                <_>
                  4 7 15 9 -1.</_>
                <_>
                  4 10 15 3 3.</_></rects>
              <tilted>0</tilted></feature>
            <threshold>-0.0945951864123344</threshold>
            <left_val>0.3867132067680359</left_val>
            <right_val>-0.1208799034357071</right_val></_></_>
        <_>
          <!-- tree 12 -->
          <_>
            <!-- root node -->
            <feature>
              <rects>
                <_>
                  4 11 10 9 -1.</_>
                <_>
                  4 14 10 3 3.</_></rects>
              <tilted>0</tilted></feature>
            <threshold>-0.0660198479890823</threshold>
            <left_val>0.3521819114685059</left_val>
            <right_val>-0.1493127942085266</right_val></_></_>
        <_>
          <!-- tree 13 -->
          <_>
            <!-- root node -->
            <feature>
              <rects>
                <_>
                  5 3 8 3 -1.</_>
                <_>
                  5 4 8 1 3.</_></rects>
              <tilted>0</tilted></feature>
            <threshold>7.3739187791943550e-003</threshold>
            <left_val>0.0561987012624741</left_val>
            <right_val>-0.8288444876670837</right_val></_></_>
        <_>
          <!-- tree 14 -->
          <_>
            <!-- root node -->
            <feature>
              <rects>
                <_>
                  4 1 10 4 -1.</_>
                <_>
                  4 3 10 2 2.</_></rects>
              <tilted>0</tilted></feature>
            <threshold>-0.0143740195780993</threshold>
            <left_val>-0.5891355276107788</left_val>
            <right_val>0.0575091391801834</right_val></_></_>
        <_>
          <!-- tree 15 -->
          <_>
            <!-- root node -->
            <feature>
              <rects>
                <_>
                  14 13 6 4 -1.</_>
                <_>
                  14 13 3 2 2.</_>
                <_>
                  17 15 3 2 2.</_></rects>
              <tilted>0</tilted></feature>
            <threshold>-3.7700219545513391e-003</threshold>
            <left_val>0.2813633084297180</left_val>
            <right_val>-0.1447146981954575</right_val></_></_>
        <_>
          <!-- tree 16 -->
          <_>
            <!-- root node -->
            <feature>
              <rects>
                <_>
                  5 0 2 1 -1.</_>
                <_>
                  6 0 1 1 2.</_></rects>
              <tilted>0</tilted></feature>
            <threshold>1.2186219828436151e-004</threshold>
            <left_val>-0.1975684016942978</left_val>
            <right_val>0.1979510933160782</right_val></_></_>
        <_>
          <!-- tree 17 -->
          <_>
            <!-- root node -->
            <feature>
              <rects>
                <_>
                  7 0 8 20 -1.</_>
                <_>
                  11 0 4 20 2.</_></rects>
              <tilted>0</tilted></feature>
            <threshold>0.2037198990583420</threshold>
            <left_val>-0.0576355718076229</left_val>
            <right_val>0.5989596843719482</right_val></_></_>
        <_>
          <!-- tree 18 -->
          <_>
            <!-- root node -->
            <feature>
              <rects>
                <_>
                  9 0 2 4 -1.</_>
                <_>
                  10 0 1 4 2.</_></rects>
              <tilted>0</tilted></feature>
            <threshold>-1.5946639468893409e-003</threshold>
            <left_val>0.2920997142791748</left_val>
            <right_val>-0.1370511949062347</right_val></_></_>
        <_>
          <!-- tree 19 -->
          <_>
            <!-- root node -->
            <feature>
              <rects>
                <_>
                  5 0 7 2 -1.</_>
                <_>
                  5 1 7 1 2.</_></rects>
              <tilted>0</tilted></feature>
            <threshold>6.7375311627984047e-003</threshold>
            <left_val>0.0541773289442062</left_val>
            <right_val>-0.6573771834373474</right_val></_></_>
        <_>
          <!-- tree 20 -->
          <_>
            <!-- root node -->
            <feature>
              <rects>
                <_>
                  8 11 3 2 -1.</_>
                <_>
                  8 12 3 1 2.</_></rects>
              <tilted>0</tilted></feature>
            <threshold>-9.6738757565617561e-004</threshold>
            <left_val>0.1206253021955490</left_val>
            <right_val>-0.2829340994358063</right_val></_></_>
        <_>
          <!-- tree 21 -->
          <_>
            <!-- root node -->
            <feature>
              <rects>
                <_>
                  17 18 2 1 -1.</_>
                <_>
                  18 18 1 1 2.</_></rects>
              <tilted>0</tilted></feature>
            <threshold>9.0992187324445695e-005</threshold>
            <left_val>-0.1690915971994400</left_val>
            <right_val>0.2045006006956101</right_val></_></_>
        <_>
          <!-- tree 22 -->
          <_>
            <!-- root node -->
            <feature>
              <rects>
                <_>
                  7 4 11 3 -1.</_>
                <_>
                  7 5 11 1 3.</_></rects>
              <tilted>0</tilted></feature>
            <threshold>9.3462774530053139e-003</threshold>
            <left_val>0.0496274009346962</left_val>
            <right_val>-0.7424927949905396</right_val></_></_>
        <_>
          <!-- tree 23 -->
          <_>
            <!-- root node -->
            <feature>
              <rects>
                <_>
                  6 10 5 9 -1.</_>
                <_>
                  6 13 5 3 3.</_></rects>
              <tilted>0</tilted></feature>
            <threshold>0.0215033106505871</threshold>
            <left_val>-0.0861045569181442</left_val>
            <right_val>0.4160049855709076</right_val></_></_></trees>
      <stage_threshold>-1.5867899656295776</stage_threshold>
      <parent>3</parent>
      <next>-1</next></_>
    <_>
      <!-- stage 5 -->
      <trees>
        <_>
          <!-- tree 0 -->
          <_>
            <!-- root node -->
            <feature>
              <rects>
                <_>
                  6 10 8 2 -1.</_>
                <_>
                  6 11 8 1 2.</_></rects>
              <tilted>0</tilted></feature>
            <threshold>-7.3470510542392731e-003</threshold>
            <left_val>0.3567435145378113</left_val>
            <right_val>-0.3833529949188232</right_val></_></_>
        <_>
          <!-- tree 1 -->
          <_>
            <!-- root node -->
            <feature>
              <rects>
                <_>
                  4 1 12 13 -1.</_>
                <_>
                  8 1 4 13 3.</_></rects>
              <tilted>0</tilted></feature>
            <threshold>0.1074123978614807</threshold>
            <left_val>-0.3710573911666870</left_val>
            <right_val>0.3470726907253265</right_val></_></_>
        <_>
          <!-- tree 2 -->
          <_>
            <!-- root node -->
            <feature>
              <rects>
                <_>
                  9 11 2 2 -1.</_>
                <_>
                  9 12 2 1 2.</_></rects>
              <tilted>0</tilted></feature>
            <threshold>-7.8062189277261496e-004</threshold>
            <left_val>0.1774874031543732</left_val>
            <right_val>-0.4205411076545715</right_val></_></_>
        <_>
          <!-- tree 3 -->
          <_>
            <!-- root node -->
            <feature>
              <rects>
                <_>
                  4 15 13 2 -1.</_>
                <_>
                  4 16 13 1 2.</_></rects>
              <tilted>0</tilted></feature>
            <threshold>3.3440629485994577e-003</threshold>
            <left_val>-0.1685084998607636</left_val>
            <right_val>0.2933486104011536</right_val></_></_>
        <_>
          <!-- tree 4 -->
          <_>
            <!-- root node -->
            <feature>
              <rects>
                <_>
                  9 3 1 3 -1.</_>
                <_>
                  9 4 1 1 3.</_></rects>
              <tilted>0</tilted></feature>
            <threshold>-1.4153600204735994e-003</threshold>
            <left_val>-0.7145624160766602</left_val>
            <right_val>0.0665268003940582</right_val></_></_>
        <_>
          <!-- tree 5 -->
          <_>
            <!-- root node -->
            <feature>
              <rects>
                <_>
                  0 8 9 7 -1.</_>
                <_>
                  3 8 3 7 3.</_></rects>
              <tilted>0</tilted></feature>
            <threshold>-0.0134524302557111</threshold>
            <left_val>0.2087482959032059</left_val>
            <right_val>-0.2079081982374191</right_val></_></_>
        <_>
          <!-- tree 6 -->
          <_>
            <!-- root node -->
            <feature>
              <rects>
                <_>
                  13 6 3 2 -1.</_>
                <_>
                  14 6 1 2 3.</_></rects>
              <tilted>0</tilted></feature>
            <threshold>0.0327514298260212</threshold>
            <left_val>-0.0105005903169513</left_val>
            <right_val>-1.7302800292968750e+003</right_val></_></_>
        <_>
          <!-- tree 7 -->
          <_>
            <!-- root node -->
            <feature>
              <rects>
                <_>
                  6 0 8 18 -1.</_>
                <_>
                  10 0 4 18 2.</_></rects>
              <tilted>0</tilted></feature>
            <threshold>-0.1571968942880631</threshold>
            <left_val>0.4684605896472931</left_val>
            <right_val>-0.1117753013968468</right_val></_></_>
        <_>
          <!-- tree 8 -->
          <_>
            <!-- root node -->
            <feature>
              <rects>
                <_>
                  7 0 8 19 -1.</_>
                <_>
                  11 0 4 19 2.</_></rects>
              <tilted>0</tilted></feature>
            <threshold>0.1611797064542770</threshold>
            <left_val>-0.0988798663020134</left_val>
            <right_val>0.6099461913108826</right_val></_></_>
        <_>
          <!-- tree 9 -->
          <_>
            <!-- root node -->
            <feature>
              <rects>
                <_>
                  6 7 8 4 -1.</_>
                <_>
                  6 9 8 2 2.</_></rects>
              <tilted>0</tilted></feature>
            <threshold>-0.0257858093827963</threshold>
            <left_val>0.4185920059680939</left_val>
            <right_val>-0.1020139008760452</right_val></_></_>
        <_>
          <!-- tree 10 -->
          <_>
            <!-- root node -->
            <feature>
              <rects>
                <_>
                  8 12 4 4 -1.</_>
                <_>
                  8 14 4 2 2.</_></rects>
              <tilted>0</tilted></feature>
            <threshold>-0.0135587798431516</threshold>
            <left_val>0.4125005006790161</left_val>
            <right_val>-0.1586263030767441</right_val></_></_>
        <_>
          <!-- tree 11 -->
          <_>
            <!-- root node -->
            <feature>
              <rects>
                <_>
                  6 0 6 3 -1.</_>
                <_>
                  8 0 2 3 3.</_></rects>
              <tilted>0</tilted></feature>
            <threshold>3.1320690177381039e-003</threshold>
            <left_val>-0.1958187967538834</left_val>
            <right_val>0.2110081017017365</right_val></_></_>
        <_>
          <!-- tree 12 -->
          <_>
            <!-- root node -->
            <feature>
              <rects>
                <_>
                  8 4 2 2 -1.</_>
                <_>
                  8 5 2 1 2.</_></rects>
              <tilted>0</tilted></feature>
            <threshold>1.1454460036475211e-004</threshold>
            <left_val>-0.2094663977622986</left_val>
            <right_val>0.1903788000345230</right_val></_></_>
        <_>
          <!-- tree 13 -->
          <_>
            <!-- root node -->
            <feature>
              <rects>
                <_>
                  10 0 2 6 -1.</_>
                <_>
                  10 2 2 2 3.</_></rects>
              <tilted>0</tilted></feature>
            <threshold>-7.0834108628332615e-003</threshold>
            <left_val>-0.5891879200935364</left_val>
            <right_val>0.0580410510301590</right_val></_></_>
        <_>
          <!-- tree 14 -->
          <_>
            <!-- root node -->
            <feature>
              <rects>
                <_>
                  3 12 3 6 -1.</_>
                <_>
                  3 14 3 2 3.</_></rects>
              <tilted>0</tilted></feature>
            <threshold>3.5903661046177149e-003</threshold>
            <left_val>-0.1383039057254791</left_val>
            <right_val>0.2609502971172333</right_val></_></_>
        <_>
          <!-- tree 15 -->
          <_>
            <!-- root node -->
            <feature>
              <rects>
                <_>
                  9 0 4 6 -1.</_>
                <_>
                  9 2 4 2 3.</_></rects>
              <tilted>0</tilted></feature>
            <threshold>0.0161179900169373</threshold>
            <left_val>0.0489378198981285</left_val>
            <right_val>-0.7926604747772217</right_val></_></_>
        <_>
          <!-- tree 16 -->
          <_>
            <!-- root node -->
            <feature>
              <rects>
                <_>
                  1 4 13 12 -1.</_>
                <_>
                  1 8 13 4 3.</_></rects>
              <tilted>0</tilted></feature>
            <threshold>0.0595855489373207</threshold>
            <left_val>-0.2120120972394943</left_val>
            <right_val>0.1581050008535385</right_val></_></_>
        <_>
          <!-- tree 17 -->
          <_>
            <!-- root node -->
            <feature>
              <rects>
                <_>
                  9 0 6 3 -1.</_>
                <_>
                  11 0 2 3 3.</_></rects>
              <tilted>0</tilted></feature>
            <threshold>3.4951989073306322e-003</threshold>
            <left_val>-0.1641474962234497</left_val>
            <right_val>0.2099294960498810</right_val></_></_>
        <_>
          <!-- tree 18 -->
          <_>
            <!-- root node -->
            <feature>
              <rects>
                <_>
                  4 0 8 12 -1.</_>
                <_>
                  8 0 4 12 2.</_></rects>
              <tilted>0</tilted></feature>
            <threshold>-0.1076501011848450</threshold>
            <left_val>0.5706148147583008</left_val>
            <right_val>-0.0649042725563049</right_val></_></_>
        <_>
          <!-- tree 19 -->
          <_>
            <!-- root node -->
            <feature>
              <rects>
                <_>
                  6 9 9 2 -1.</_>
                <_>
                  6 10 9 1 2.</_></rects>
              <tilted>0</tilted></feature>
            <threshold>-4.0261521935462952e-003</threshold>
            <left_val>0.1903318017721176</left_val>
            <right_val>-0.2026609033346176</right_val></_></_>
        <_>
          <!-- tree 20 -->
          <_>
            <!-- root node -->
            <feature>
              <rects>
                <_>
                  10 16 10 4 -1.</_>
                <_>
                  10 16 5 2 2.</_>
                <_>
                  15 18 5 2 2.</_></rects>
              <tilted>0</tilted></feature>
            <threshold>-6.3168378546833992e-003</threshold>
            <left_val>0.2512106001377106</left_val>
            <right_val>-0.1372739970684052</right_val></_></_>
        <_>
          <!-- tree 21 -->
          <_>
            <!-- root node -->
            <feature>
              <rects>
                <_>
                  6 7 6 2 -1.</_>
                <_>
                  6 7 3 1 2.</_>
                <_>
                  9 8 3 1 2.</_></rects>
              <tilted>0</tilted></feature>
            <threshold>-3.7840029690414667e-003</threshold>
            <left_val>-0.6645401716232300</left_val>
            <right_val>0.0456476882100105</right_val></_></_>
        <_>
          <!-- tree 22 -->
          <_>
            <!-- root node -->
            <feature>
              <rects>
                <_>
                  11 8 9 7 -1.</_>
                <_>
                  14 8 3 7 3.</_></rects>
              <tilted>0</tilted></feature>
            <threshold>-0.0127775697037578</threshold>
            <left_val>0.1638433933258057</left_val>
            <right_val>-0.1933300048112869</right_val></_></_>
        <_>
          <!-- tree 23 -->
          <_>
            <!-- root node -->
            <feature>
              <rects>
                <_>
                  5 0 8 20 -1.</_>
                <_>
                  9 0 4 20 2.</_></rects>
              <tilted>0</tilted></feature>
            <threshold>0.1363020986318588</threshold>
            <left_val>-0.1202958971261978</left_val>
            <right_val>0.3028815090656281</right_val></_></_>
        <_>
          <!-- tree 24 -->
          <_>
            <!-- root node -->
            <feature>
              <rects>
                <_>
                  19 2 1 6 -1.</_>
                <_>
                  19 4 1 2 3.</_></rects>
              <tilted>0</tilted></feature>
            <threshold>7.1984861278906465e-004</threshold>
            <left_val>-0.1426288038492203</left_val>
            <right_val>0.2247465997934341</right_val></_></_>
        <_>
          <!-- tree 25 -->
          <_>
            <!-- root node -->
            <feature>
              <rects>
                <_>
                  5 2 10 2 -1.</_>
                <_>
                  5 3 10 1 2.</_></rects>
              <tilted>0</tilted></feature>
            <threshold>0.0110030602663755</threshold>
            <left_val>0.0395411401987076</left_val>
            <right_val>-0.8543410897254944</right_val></_></_>
        <_>
          <!-- tree 26 -->
          <_>
            <!-- root node -->
            <feature>
              <rects>
                <_>
                  0 0 20 2 -1.</_>
                <_>
                  0 1 20 1 2.</_></rects>
              <tilted>0</tilted></feature>
            <threshold>-8.5762143135070801e-003</threshold>
            <left_val>-0.5390232205390930</left_val>
            <right_val>0.0465332493185997</right_val></_></_>
        <_>
          <!-- tree 27 -->
          <_>
            <!-- root node -->
            <feature>
              <rects>
                <_>
                  10 0 2 4 -1.</_>
                <_>
                  11 0 1 4 2.</_></rects>
              <tilted>0</tilted></feature>
            <threshold>-1.2597580207511783e-003</threshold>
            <left_val>0.2022642046213150</left_val>
            <right_val>-0.1514088064432144</right_val></_></_>
        <_>
          <!-- tree 28 -->
          <_>
            <!-- root node -->
            <feature>
              <rects>
                <_>
                  9 0 6 5 -1.</_>
                <_>
                  12 0 3 5 2.</_></rects>
              <tilted>0</tilted></feature>
            <threshold>0.0273066293448210</threshold>
            <left_val>-0.0760978832840919</left_val>
            <right_val>0.4139806032180786</right_val></_></_>
        <_>
          <!-- tree 29 -->
          <_>
            <!-- root node -->
            <feature>
              <rects>
                <_>
                  4 1 11 16 -1.</_>
                <_>
                  4 9 11 8 2.</_></rects>
              <tilted>0</tilted></feature>
            <threshold>-0.4075698852539063</threshold>
            <left_val>0.5373885035514832</left_val>
            <right_val>-0.0502744689583778</right_val></_></_>
        <_>
          <!-- tree 30 -->
          <_>
            <!-- root node -->
            <feature>
              <rects>
                <_>
                  4 5 12 12 -1.</_>
                <_>
                  4 9 12 4 3.</_></rects>
              <tilted>0</tilted></feature>
            <threshold>0.1541609019041061</threshold>
            <left_val>-0.0897490382194519</left_val>
            <right_val>0.3693582117557526</right_val></_></_>
        <_>
          <!-- tree 31 -->
          <_>
            <!-- root node -->
            <feature>
              <rects>
                <_>
                  6 13 8 6 -1.</_>
                <_>
                  6 15 8 2 3.</_></rects>
              <tilted>0</tilted></feature>
            <threshold>0.0277160406112671</threshold>
            <left_val>-0.0989981666207314</left_val>
            <right_val>0.4314366877079010</right_val></_></_>
        <_>
          <!-- tree 32 -->
          <_>
            <!-- root node -->
            <feature>
              <rects>
                <_>
                  7 0 5 3 -1.</_>
                <_>
                  7 1 5 1 3.</_></rects>
              <tilted>0</tilted></feature>
            <threshold>4.0506660006940365e-003</threshold>
            <left_val>0.0462239310145378</left_val>
            <right_val>-0.7022076249122620</right_val></_></_>
        <_>
          <!-- tree 33 -->
          <_>
            <!-- root node -->
            <feature>
              <rects>
                <_>
                  11 5 3 15 -1.</_>
                <_>
                  12 5 1 15 3.</_></rects>
              <tilted>0</tilted></feature>
            <threshold>0.0147626800462604</threshold>
            <left_val>0.0366625301539898</left_val>
            <right_val>-0.6059042811393738</right_val></_></_>
        <_>
          <!-- tree 34 -->
          <_>
            <!-- root node -->
            <feature>
              <rects>
                <_>
                  7 16 2 4 -1.</_>
                <_>
                  7 18 2 2 2.</_></rects>
              <tilted>0</tilted></feature>
            <threshold>1.9125619437545538e-003</threshold>
            <left_val>-0.1358107030391693</left_val>
            <right_val>0.2019190937280655</right_val></_></_>
        <_>
          <!-- tree 35 -->
          <_>
            <!-- root node -->
            <feature>
              <rects>
                <_>
                  0 0 1 2 -1.</_>
                <_>
                  0 1 1 1 2.</_></rects>
              <tilted>0</tilted></feature>
            <threshold>1.2767979933414608e-004</threshold>
            <left_val>-0.1354780048131943</left_val>
            <right_val>0.1917109042406082</right_val></_></_></trees>
      <stage_threshold>-1.7082999944686890</stage_threshold>
      <parent>4</parent>
      <next>-1</next></_>
    <_>
      <!-- stage 6 -->
      <trees>
        <_>
          <!-- tree 0 -->
          <_>
            <!-- root node -->
            <feature>
              <rects>
                <_>
                  6 3 9 4 -1.</_>
                <_>
                  9 3 3 4 3.</_></rects>
              <tilted>0</tilted></feature>
            <threshold>9.2002991586923599e-003</threshold>
            <left_val>-0.4562064111232758</left_val>
            <right_val>0.2789986133575440</right_val></_></_>
        <_>
          <!-- tree 1 -->
          <_>
            <!-- root node -->
            <feature>
              <rects>
                <_>
                  7 11 5 2 -1.</_>
                <_>
                  7 12 5 1 2.</_></rects>
              <tilted>0</tilted></feature>
            <threshold>-3.1432379037141800e-003</threshold>
            <left_val>0.2365590929985046</left_val>
            <right_val>-0.4792782068252564</right_val></_></_>
        <_>
          <!-- tree 2 -->
          <_>
            <!-- root node -->
            <feature>
              <rects>
                <_>
                  5 9 10 2 -1.</_>
                <_>
                  5 10 10 1 2.</_></rects>
              <tilted>0</tilted></feature>
            <threshold>-8.4546403959393501e-003</threshold>
            <left_val>0.3613975048065186</left_val>
            <right_val>-0.1624021977186203</right_val></_></_>
        <_>
          <!-- tree 3 -->
          <_>
            <!-- root node -->
            <feature>
              <rects>
                <_>
                  4 0 9 16 -1.</_>
                <_>
                  7 0 3 16 3.</_></rects>
              <tilted>0</tilted></feature>
            <threshold>0.0714359283447266</threshold>
            <left_val>-0.2310242950916290</left_val>
            <right_val>0.2946614027023315</right_val></_></_>
        <_>
          <!-- tree 4 -->
          <_>
            <!-- root node -->
            <feature>
              <rects>
                <_>
                  0 13 6 2 -1.</_>
                <_>
                  3 13 3 2 2.</_></rects>
              <tilted>0</tilted></feature>
            <threshold>-2.5427769869565964e-003</threshold>
            <left_val>0.2597975134849548</left_val>
            <right_val>-0.2162726968526840</right_val></_></_>
        <_>
          <!-- tree 5 -->
          <_>
            <!-- root node -->
            <feature>
              <rects>
                <_>
                  14 13 6 1 -1.</_>
                <_>
                  17 13 3 1 2.</_></rects>
              <tilted>0</tilted></feature>
            <threshold>2.0073379855602980e-003</threshold>
            <left_val>-0.2079952955245972</left_val>
            <right_val>0.2270316034555435</right_val></_></_>
        <_>
          <!-- tree 6 -->
          <_>
            <!-- root node -->
            <feature>
              <rects>
                <_>
                  7 0 6 13 -1.</_>
                <_>
                  10 0 3 13 2.</_></rects>
              <tilted>0</tilted></feature>
            <threshold>0.0559004284441471</threshold>
            <left_val>-0.1213949993252754</left_val>
            <right_val>0.4005241990089417</right_val></_></_>
        <_>
          <!-- tree 7 -->
          <_>
            <!-- root node -->
            <feature>
              <rects>
                <_>
                  5 0 6 10 -1.</_>
                <_>
                  8 0 3 10 2.</_></rects>
              <tilted>0</tilted></feature>
            <threshold>-0.0419216416776180</threshold>
            <left_val>0.5574421882629395</left_val>
            <right_val>-0.0843817964196205</right_val></_></_>
        <_>
          <!-- tree 8 -->
          <_>
            <!-- root node -->
            <feature>
              <rects>
                <_>
                  12 8 2 3 -1.</_>
                <_>
                  13 8 1 3 2.</_></rects>
              <tilted>0</tilted></feature>
            <threshold>-1.9325580215081573e-003</threshold>
            <left_val>0.2421527057886124</left_val>
            <right_val>-0.2191817015409470</right_val></_></_>
        <_>
          <!-- tree 9 -->
          <_>
            <!-- root node -->
            <feature>
              <rects>
                <_>
                  6 0 2 1 -1.</_>
                <_>
                  7 0 1 1 2.</_></rects>
              <tilted>0</tilted></feature>
            <threshold>1.7581089923623949e-004</threshold>
            <left_val>-0.2119566053152084</left_val>
            <right_val>0.2013127058744431</right_val></_></_>
        <_>
          <!-- tree 10 -->
          <_>
            <!-- root node -->
            <feature>
              <rects>
                <_>
                  10 3 2 10 -1.</_>
                <_>
                  10 3 1 5 2.</_>
                <_>
                  11 8 1 5 2.</_></rects>
              <tilted>0</tilted></feature>
            <threshold>5.5682640522718430e-003</threshold>
            <left_val>0.0750342905521393</left_val>
            <right_val>-0.5923411846160889</right_val></_></_>
        <_>
          <!-- tree 11 -->
          <_>
            <!-- root node -->
            <feature>
              <rects>
                <_>
                  0 1 18 10 -1.</_>
                <_>
                  0 1 9 5 2.</_>
                <_>
                  9 6 9 5 2.</_></rects>
              <tilted>0</tilted></feature>
            <threshold>-0.0642268508672714</threshold>
            <left_val>-0.4627596139907837</left_val>
            <right_val>0.0717877075076103</right_val></_></_>
        <_>
          <!-- tree 12 -->
          <_>
            <!-- root node -->
            <feature>
              <rects>
                <_>
                  4 5 16 2 -1.</_>
                <_>
                  4 5 8 1 2.</_>
                <_>
                  12 6 8 1 2.</_></rects>
              <tilted>0</tilted></feature>
            <threshold>6.9913719780743122e-003</threshold>
            <left_val>0.0527312196791172</left_val>
            <right_val>-0.6236901283264160</right_val></_></_>
        <_>
          <!-- tree 13 -->
          <_>
            <!-- root node -->
            <feature>
              <rects>
                <_>
                  10 4 3 4 -1.</_>
                <_>
                  11 4 1 4 3.</_></rects>
              <tilted>0</tilted></feature>
            <threshold>6.5097180195152760e-003</threshold>
            <left_val>0.0501633286476135</left_val>
            <right_val>-0.6008182764053345</right_val></_></_>
        <_>
          <!-- tree 14 -->
          <_>
            <!-- root node -->
            <feature>
              <rects>
                <_>
                  7 13 6 2 -1.</_>
                <_>
                  7 14 6 1 2.</_></rects>
              <tilted>0</tilted></feature>
            <threshold>-6.1411499045789242e-003</threshold>
            <left_val>0.3105773925781250</left_val>
            <right_val>-0.1066242009401321</right_val></_></_>
        <_>
          <!-- tree 15 -->
          <_>
            <!-- root node -->
            <feature>
              <rects>
                <_>
                  8 10 1 2 -1.</_>
                <_>
                  8 11 1 1 2.</_></rects>
              <tilted>0</tilted></feature>
            <threshold>-1.2925370538141578e-004</threshold>
            <left_val>0.1061203032732010</left_val>
            <right_val>-0.3333514034748077</right_val></_></_>
        <_>
          <!-- tree 16 -->
          <_>
            <!-- root node -->
            <feature>
              <rects>
                <_>
                  7 0 5 6 -1.</_>
                <_>
                  7 2 5 2 3.</_></rects>
              <tilted>0</tilted></feature>
            <threshold>0.0157967004925013</threshold>
            <left_val>0.0492505207657814</left_val>
            <right_val>-0.6958556771278381</right_val></_></_>
        <_>
          <!-- tree 17 -->
          <_>
            <!-- root node -->
            <feature>
              <rects>
                <_>
                  7 0 4 2 -1.</_>
                <_>
                  7 1 4 1 2.</_></rects>
              <tilted>0</tilted></feature>
            <threshold>-3.7361129652708769e-003</threshold>
            <left_val>-0.6822608709335327</left_val>
            <right_val>0.0374951697885990</right_val></_></_>
        <_>
          <!-- tree 18 -->
          <_>
            <!-- root node -->
            <feature>
              <rects>
                <_>
                  1 14 7 6 -1.</_>
                <_>
                  1 16 7 2 3.</_></rects>
              <tilted>0</tilted></feature>
            <threshold>6.1962381005287170e-003</threshold>
            <left_val>-0.1498214006423950</left_val>
            <right_val>0.2064985930919647</right_val></_></_>
        <_>
          <!-- tree 19 -->
          <_>
            <!-- root node -->
            <feature>
              <rects>
                <_>
                  8 0 6 12 -1.</_>
                <_>
                  11 0 3 12 2.</_></rects>
              <tilted>0</tilted></feature>
            <threshold>0.0712636634707451</threshold>
            <left_val>-0.0749302878975868</left_val>
            <right_val>0.4526140093803406</right_val></_></_>
        <_>
          <!-- tree 20 -->
          <_>
            <!-- root node -->
            <feature>
              <rects>
                <_>
                  11 0 2 3 -1.</_>
                <_>
                  12 0 1 3 2.</_></rects>
              <tilted>0</tilted></feature>
            <threshold>-1.1817970080301166e-003</threshold>
            <left_val>0.2616856098175049</left_val>
            <right_val>-0.1626594066619873</right_val></_></_>
        <_>
          <!-- tree 21 -->
          <_>
            <!-- root node -->
            <feature>
              <rects>
                <_>
                  6 18 3 2 -1.</_>
                <_>
                  6 19 3 1 2.</_></rects>
              <tilted>0</tilted></feature>
            <threshold>6.4975151326507330e-004</threshold>
            <left_val>-0.1503469944000244</left_val>
            <right_val>0.2051638066768646</right_val></_></_>
        <_>
          <!-- tree 22 -->
          <_>
            <!-- root node -->
            <feature>
              <rects>
                <_>
                  6 17 5 3 -1.</_>
                <_>
                  6 18 5 1 3.</_></rects>
              <tilted>0</tilted></feature>
            <threshold>1.3267180183902383e-003</threshold>
            <left_val>-0.1202602982521057</left_val>
            <right_val>0.2234832942485809</right_val></_></_>
        <_>
          <!-- tree 23 -->
          <_>
            <!-- root node -->
            <feature>
              <rects>
                <_>
                  3 9 2 9 -1.</_>
                <_>
                  3 12 2 3 3.</_></rects>
              <tilted>0</tilted></feature>
            <threshold>5.0828731618821621e-003</threshold>
            <left_val>-0.1171644032001495</left_val>
            <right_val>0.2683844864368439</right_val></_></_>
        <_>
          <!-- tree 24 -->
          <_>
            <!-- root node -->
            <feature>
              <rects>
                <_>
                  6 2 10 2 -1.</_>
                <_>
                  6 2 5 1 2.</_>
                <_>
                  11 3 5 1 2.</_></rects>
              <tilted>0</tilted></feature>
            <threshold>4.2504169978201389e-003</threshold>
            <left_val>0.0595676302909851</left_val>
            <right_val>-0.5344318151473999</right_val></_></_>
        <_>
          <!-- tree 25 -->
          <_>
            <!-- root node -->
            <feature>
              <rects>
                <_>
                  19 0 1 2 -1.</_>
                <_>
                  19 1 1 1 2.</_></rects>
              <tilted>0</tilted></feature>
            <threshold>1.1190649820491672e-004</threshold>
            <left_val>-0.1532028019428253</left_val>
            <right_val>0.1857759058475494</right_val></_></_>
        <_>
          <!-- tree 26 -->
          <_>
            <!-- root node -->
            <feature>
              <rects>
                <_>
                  9 1 3 18 -1.</_>
                <_>
                  10 1 1 18 3.</_></rects>
              <tilted>0</tilted></feature>
            <threshold>0.0226815100759268</threshold>
            <left_val>0.0481584109365940</left_val>
            <right_val>-0.6153315901756287</right_val></_></_>
        <_>
          <!-- tree 27 -->
          <_>
            <!-- root node -->
            <feature>
              <rects>
                <_>
                  6 6 8 6 -1.</_>
                <_>
                  6 9 8 3 2.</_></rects>
              <tilted>0</tilted></feature>
            <threshold>0.0471655689179897</threshold>
            <left_val>-0.0689327567815781</left_val>
            <right_val>0.4017266035079956</right_val></_></_>
        <_>
          <!-- tree 28 -->
          <_>
            <!-- root node -->
            <feature>
              <rects>
                <_>
                  7 7 1 3 -1.</_>
                <_>
                  7 8 1 1 3.</_></rects>
              <tilted>0</tilted></feature>
            <threshold>-1.9593609031289816e-003</threshold>
            <left_val>-0.7519335150718689</left_val>
            <right_val>0.0422200113534927</right_val></_></_>
        <_>
          <!-- tree 29 -->
          <_>
            <!-- root node -->
            <feature>
              <rects>
                <_>
                  5 5 9 8 -1.</_>
                <_>
                  5 9 9 4 2.</_></rects>
              <tilted>0</tilted></feature>
            <threshold>-0.1196272000670433</threshold>
            <left_val>0.3659439086914063</left_val>
            <right_val>-0.0824526622891426</right_val></_></_>
        <_>
          <!-- tree 30 -->
          <_>
            <!-- root node -->
            <feature>
              <rects>
                <_>
                  4 0 10 20 -1.</_>
                <_>
                  9 0 5 20 2.</_></rects>
              <tilted>0</tilted></feature>
            <threshold>-0.3184565901756287</threshold>
            <left_val>0.5874289870262146</left_val>
            <right_val>-0.0494480505585670</right_val></_></_>
        <_>
          <!-- tree 31 -->
          <_>
            <!-- root node -->
            <feature>
              <rects>
                <_>
                  8 0 2 3 -1.</_>
                <_>
                  9 0 1 3 2.</_></rects>
              <tilted>0</tilted></feature>
            <threshold>1.5062279999256134e-003</threshold>
            <left_val>-0.1178852990269661</left_val>
            <right_val>0.2720549106597900</right_val></_></_>
        <_>
          <!-- tree 32 -->
          <_>
            <!-- root node -->
            <feature>
              <rects>
                <_>
                  3 0 9 4 -1.</_>
                <_>
                  6 0 3 4 3.</_></rects>
              <tilted>0</tilted></feature>
            <threshold>0.0125691201537848</threshold>
            <left_val>-0.1324295997619629</left_val>
            <right_val>0.2268695980310440</right_val></_></_>
        <_>
          <!-- tree 33 -->
          <_>
            <!-- root node -->
            <feature>
              <rects>
                <_>
                  1 5 17 9 -1.</_>
                <_>
                  1 8 17 3 3.</_></rects>
              <tilted>0</tilted></feature>
            <threshold>0.0474332682788372</threshold>
            <left_val>-0.2061771005392075</left_val>
            <right_val>0.1583393067121506</right_val></_></_></trees>
      <stage_threshold>-1.5519959926605225</stage_threshold>
      <parent>5</parent>
      <next>-1</next></_>
    <_>
      <!-- stage 7 -->
      <trees>
        <_>
          <!-- tree 0 -->
          <_>
            <!-- root node -->
            <feature>
              <rects>
                <_>
                  4 8 12 3 -1.</_>
                <_>
                  8 8 4 3 3.</_></rects>
              <tilted>0</tilted></feature>
            <threshold>0.0683652907609940</threshold>
            <left_val>-0.2177526950836182</left_val>
            <right_val>0.4828067123889923</right_val></_></_>
        <_>
          <!-- tree 1 -->
          <_>
            <!-- root node -->
            <feature>
              <rects>
                <_>
                  4 2 12 12 -1.</_>
                <_>
                  4 6 12 4 3.</_></rects>
              <tilted>0</tilted></feature>
            <threshold>0.0963785797357559</threshold>
            <left_val>-0.3491615056991577</left_val>
            <right_val>0.3077194094657898</right_val></_></_>
        <_>
          <!-- tree 2 -->
          <_>
            <!-- root node -->
            <feature>
              <rects>
                <_>
                  5 4 9 2 -1.</_>
                <_>
                  8 4 3 2 3.</_></rects>
              <tilted>0</tilted></feature>
            <threshold>5.5521610192954540e-003</threshold>
            <left_val>-0.3041569888591766</left_val>
            <right_val>0.1989040970802307</right_val></_></_>
        <_>
          <!-- tree 3 -->
          <_>
            <!-- root node -->
            <feature>
              <rects>
                <_>
                  15 4 4 4 -1.</_>
                <_>
                  15 4 2 2 2.</_>
                <_>
                  17 6 2 2 2.</_></rects>
              <tilted>0</tilted></feature>
            <threshold>0.0465515106916428</threshold>
            <left_val>-2.2121439687907696e-003</left_val>
            <right_val>-2.7622299804687500e+003</right_val></_></_>
        <_>
          <!-- tree 4 -->
          <_>
            <!-- root node -->
            <feature>
              <rects>
                <_>
                  11 11 2 2 -1.</_>
                <_>
                  11 12 2 1 2.</_></rects>
              <tilted>0</tilted></feature>
            <threshold>-1.3051140122115612e-003</threshold>
            <left_val>0.2030910998582840</left_val>
            <right_val>-0.2836366891860962</right_val></_></_>
        <_>
          <!-- tree 5 -->
          <_>
            <!-- root node -->
            <feature>
              <rects>
                <_>
                  2 15 14 2 -1.</_>
                <_>
                  2 16 14 1 2.</_></rects>
              <tilted>0</tilted></feature>
            <threshold>3.4735091030597687e-003</threshold>
            <left_val>-0.1560790985822678</left_val>
            <right_val>0.2434888929128647</right_val></_></_>
        <_>
          <!-- tree 6 -->
          <_>
            <!-- root node -->
            <feature>
              <rects>
                <_>
                  9 0 4 12 -1.</_>
                <_>
                  11 0 2 12 2.</_></rects>
              <tilted>0</tilted></feature>
            <threshold>0.0267578102648258</threshold>
            <left_val>-0.0684394687414169</left_val>
            <right_val>0.4973745048046112</right_val></_></_>
        <_>
          <!-- tree 7 -->
          <_>
            <!-- root node -->
            <feature>
              <rects>
                <_>
                  9 0 4 17 -1.</_>
                <_>
                  11 0 2 17 2.</_></rects>
              <tilted>0</tilted></feature>
            <threshold>-0.0281338691711426</threshold>
            <left_val>0.2599267959594727</left_val>
            <right_val>-0.1989822983741760</right_val></_></_>
        <_>
          <!-- tree 8 -->
          <_>
            <!-- root node -->
            <feature>
              <rects>
                <_>
                  3 4 15 2 -1.</_>
                <_>
                  3 5 15 1 2.</_></rects>
              <tilted>0</tilted></feature>
            <threshold>0.0106718596071005</threshold>
            <left_val>0.0739922672510147</left_val>
            <right_val>-0.5773457288742065</right_val></_></_>
        <_>
          <!-- tree 9 -->
          <_>
            <!-- root node -->
            <feature>
              <rects>
                <_>
                  7 4 6 8 -1.</_>
                <_>
                  7 4 3 4 2.</_>
                <_>
                  10 8 3 4 2.</_></rects>
              <tilted>0</tilted></feature>
            <threshold>0.0245729703456163</threshold>
            <left_val>0.0284326691180468</left_val>
            <right_val>-0.5510110855102539</right_val></_></_>
        <_>
          <!-- tree 10 -->
          <_>
            <!-- root node -->
            <feature>
              <rects>
                <_>
                  0 3 2 16 -1.</_>
                <_>
                  1 3 1 16 2.</_></rects>
              <tilted>0</tilted></feature>
            <threshold>-2.4001121055334806e-003</threshold>
            <left_val>0.2089778035879135</left_val>
            <right_val>-0.1517349034547806</right_val></_></_>
        <_>
          <!-- tree 11 -->
          <_>
            <!-- root node -->
            <feature>
              <rects>
                <_>
                  4 4 12 3 -1.</_>
                <_>
                  4 5 12 1 3.</_></rects>
              <tilted>0</tilted></feature>
            <threshold>-9.6727889031171799e-003</threshold>
            <left_val>-0.6139128804206848</left_val>
            <right_val>0.0557445585727692</right_val></_></_>
        <_>
          <!-- tree 12 -->
          <_>
            <!-- root node -->
            <feature>
              <rects>
                <_>
                  5 8 9 2 -1.</_>
                <_>
                  5 9 9 1 2.</_></rects>
              <tilted>0</tilted></feature>
            <threshold>-6.5644071437418461e-003</threshold>
            <left_val>0.2865310907363892</left_val>
            <right_val>-0.1112885996699333</right_val></_></_>
        <_>
          <!-- tree 13 -->
          <_>
            <!-- root node -->
            <feature>
              <rects>
                <_>
                  5 5 10 12 -1.</_>
                <_>
                  5 9 10 4 3.</_></rects>
              <tilted>0</tilted></feature>
            <threshold>0.1041546985507011</threshold>
            <left_val>-0.1426897943019867</left_val>
            <right_val>0.3405207991600037</right_val></_></_>
        <_>
          <!-- tree 14 -->
          <_>
            <!-- root node -->
            <feature>
              <rects>
                <_>
                  1 11 18 9 -1.</_>
                <_>
                  1 14 18 3 3.</_></rects>
              <tilted>0</tilted></feature>
            <threshold>0.1048552021384239</threshold>
            <left_val>-0.0856528505682945</left_val>
            <right_val>0.4396328926086426</right_val></_></_>
        <_>
          <!-- tree 15 -->
          <_>
            <!-- root node -->
            <feature>
              <rects>
                <_>
                  5 0 8 13 -1.</_>
                <_>
                  9 0 4 13 2.</_></rects>
              <tilted>0</tilted></feature>
            <threshold>-0.1576205044984818</threshold>
            <left_val>0.5359507203102112</left_val>
            <right_val>-0.0483068898320198</right_val></_></_>
        <_>
          <!-- tree 16 -->
          <_>
            <!-- root node -->
            <feature>
              <rects>
                <_>
                  7 0 4 17 -1.</_>
                <_>
                  9 0 2 17 2.</_></rects>
              <tilted>0</tilted></feature>
            <threshold>0.0284058991819620</threshold>
            <left_val>-0.1588930040597916</left_val>
            <right_val>0.2562308013439179</right_val></_></_>
        <_>
          <!-- tree 17 -->
          <_>
            <!-- root node -->
            <feature>
              <rects>
                <_>
                  6 10 1 2 -1.</_>
                <_>
                  6 11 1 1 2.</_></rects>
              <tilted>0</tilted></feature>
            <threshold>-2.7768110157921910e-004</threshold>
            <left_val>0.1403847932815552</left_val>
            <right_val>-0.2313852012157440</right_val></_></_>
        <_>
          <!-- tree 18 -->
          <_>
            <!-- root node -->
            <feature>
              <rects>
                <_>
                  9 17 5 2 -1.</_>
                <_>
                  9 18 5 1 2.</_></rects>
              <tilted>0</tilted></feature>
            <threshold>8.3955097943544388e-004</threshold>
            <left_val>-0.1647347956895828</left_val>
            <right_val>0.1905917972326279</right_val></_></_>
        <_>
          <!-- tree 19 -->
          <_>
            <!-- root node -->
            <feature>
              <rects>
                <_>
                  13 0 2 8 -1.</_>
                <_>
                  14 0 1 8 2.</_></rects>
              <tilted>0</tilted></feature>
            <threshold>-1.5358020318672061e-003</threshold>
            <left_val>0.1725267022848129</left_val>
            <right_val>-0.1771989017724991</right_val></_></_>
        <_>
          <!-- tree 20 -->
          <_>
            <!-- root node -->
            <feature>
              <rects>
                <_>
                  8 0 4 3 -1.</_>
                <_>
                  8 1 4 1 3.</_></rects>
              <tilted>0</tilted></feature>
            <threshold>4.0674312040209770e-003</threshold>
            <left_val>0.0361163392663002</left_val>
            <right_val>-0.7693905830383301</right_val></_></_>
        <_>
          <!-- tree 21 -->
          <_>
            <!-- root node -->
            <feature>
              <rects>
                <_>
                  1 0 18 2 -1.</_>
                <_>
                  1 1 18 1 2.</_></rects>
              <tilted>0</tilted></feature>
            <threshold>-5.7676248252391815e-003</threshold>
            <left_val>-0.4421634078025818</left_val>
            <right_val>0.0568157806992531</right_val></_></_>
        <_>
          <!-- tree 22 -->
          <_>
            <!-- root node -->
            <feature>
              <rects>
                <_>
                  18 13 2 1 -1.</_>
                <_>
                  19 13 1 1 2.</_></rects>
              <tilted>0</tilted></feature>
            <threshold>1.8721660308074206e-004</threshold>
            <left_val>-0.1476920992136002</left_val>
            <right_val>0.1821089982986450</right_val></_></_>
        <_>
          <!-- tree 23 -->
          <_>
            <!-- root node -->
            <feature>
              <rects>
                <_>
                  16 11 2 6 -1.</_>
                <_>
                  16 13 2 2 3.</_></rects>
              <tilted>0</tilted></feature>
            <threshold>1.7911789473146200e-003</threshold>
            <left_val>-0.1173230037093163</left_val>
            <right_val>0.2313010990619659</right_val></_></_>
        <_>
          <!-- tree 24 -->
          <_>
            <!-- root node -->
            <feature>
              <rects>
                <_>
                  9 1 2 6 -1.</_>
                <_>
                  9 3 2 2 3.</_></rects>
              <tilted>0</tilted></feature>
            <threshold>5.8208638802170753e-003</threshold>
            <left_val>0.0536603294312954</left_val>
            <right_val>-0.5276228189468384</right_val></_></_>
        <_>
          <!-- tree 25 -->
          <_>
            <!-- root node -->
            <feature>
              <rects>
                <_>
                  8 4 3 15 -1.</_>
                <_>
                  9 4 1 15 3.</_></rects>
              <tilted>0</tilted></feature>
            <threshold>0.0240143407136202</threshold>
            <left_val>0.0261754505336285</left_val>
            <right_val>-0.7725669741630554</right_val></_></_>
        <_>
          <!-- tree 26 -->
          <_>
            <!-- root node -->
            <feature>
              <rects>
                <_>
                  5 0 2 7 -1.</_>
                <_>
                  6 0 1 7 2.</_></rects>
              <tilted>0</tilted></feature>
            <threshold>1.9859450403600931e-003</threshold>
            <left_val>-0.1487126052379608</left_val>
            <right_val>0.1674745976924896</right_val></_></_>
        <_>
          <!-- tree 27 -->
          <_>
            <!-- root node -->
            <feature>
              <rects>
                <_>
                  6 7 8 6 -1.</_>
                <_>
                  6 10 8 3 2.</_></rects>
              <tilted>0</tilted></feature>
            <threshold>0.0400845408439636</threshold>
            <left_val>-0.0538073703646660</left_val>
            <right_val>0.5070050954818726</right_val></_></_>
        <_>
          <!-- tree 28 -->
          <_>
            <!-- root node -->
            <feature>
              <rects>
                <_>
                  7 10 3 7 -1.</_>
                <_>
                  8 10 1 7 3.</_></rects>
              <tilted>0</tilted></feature>
            <threshold>0.0108792595565319</threshold>
            <left_val>0.0416557192802429</left_val>
            <right_val>-0.6468442082405090</right_val></_></_>
        <_>
          <!-- tree 29 -->
          <_>
            <!-- root node -->
            <feature>
              <rects>
                <_>
                  8 18 5 2 -1.</_>
                <_>
                  8 19 5 1 2.</_></rects>
              <tilted>0</tilted></feature>
            <threshold>-4.7022090293467045e-003</threshold>
            <left_val>0.3185833096504211</left_val>
            <right_val>-0.0804027467966080</right_val></_></_>
        <_>
          <!-- tree 30 -->
          <_>
            <!-- root node -->
            <feature>
              <rects>
                <_>
                  0 16 8 2 -1.</_>
                <_>
                  4 16 4 2 2.</_></rects>
              <tilted>0</tilted></feature>
            <threshold>-2.9658980201929808e-003</threshold>
            <left_val>0.1722532957792282</left_val>
            <right_val>-0.1432881057262421</right_val></_></_>
        <_>
          <!-- tree 31 -->
          <_>
            <!-- root node -->
            <feature>
              <rects>
                <_>
                  11 8 2 3 -1.</_>
                <_>
                  11 9 2 1 3.</_></rects>
              <tilted>0</tilted></feature>
            <threshold>-3.8535878993570805e-003</threshold>
            <left_val>-0.7601521015167236</left_val>
            <right_val>0.0315873697400093</right_val></_></_>
        <_>
          <!-- tree 32 -->
          <_>
            <!-- root node -->
            <feature>
              <rects>
                <_>
                  19 4 1 16 -1.</_>
                <_>
                  19 12 1 8 2.</_></rects>
              <tilted>0</tilted></feature>
            <threshold>0.0264105405658484</threshold>
            <left_val>0.0340092293918133</left_val>
            <right_val>-0.5659077763557434</right_val></_></_>
        <_>
          <!-- tree 33 -->
          <_>
            <!-- root node -->
            <feature>
              <rects>
                <_>
                  8 5 5 4 -1.</_>
                <_>
                  8 7 5 2 2.</_></rects>
              <tilted>0</tilted></feature>
            <threshold>2.9280080925673246e-003</threshold>
            <left_val>-0.1423397958278656</left_val>
            <right_val>0.1498094052076340</right_val></_></_>
        <_>
          <!-- tree 34 -->
          <_>
            <!-- root node -->
            <feature>
              <rects>
                <_>
                  8 2 6 2 -1.</_>
                <_>
                  8 3 6 1 2.</_></rects>
              <tilted>0</tilted></feature>
            <threshold>-2.6025709230452776e-003</threshold>
            <left_val>-0.4404604136943817</left_val>
            <right_val>0.0551732890307903</right_val></_></_>
        <_>
          <!-- tree 35 -->
          <_>
            <!-- root node -->
            <feature>
              <rects>
                <_>
                  0 0 1 6 -1.</_>
                <_>
                  0 2 1 2 3.</_></rects>
              <tilted>0</tilted></feature>
            <threshold>4.8383790999650955e-004</threshold>
            <left_val>-0.1265387982130051</left_val>
            <right_val>0.1721232980489731</right_val></_></_>
        <_>
          <!-- tree 36 -->
          <_>
            <!-- root node -->
            <feature>
              <rects>
                <_>
                  3 5 12 6 -1.</_>
                <_>
                  3 8 12 3 2.</_></rects>
              <tilted>0</tilted></feature>
            <threshold>-0.0898259580135345</threshold>
            <left_val>0.4847339987754822</left_val>
            <right_val>-0.0441348813474178</right_val></_></_>
        <_>
          <!-- tree 37 -->
          <_>
            <!-- root node -->
            <feature>
              <rects>
                <_>
                  5 1 10 18 -1.</_>
                <_>
                  10 1 5 18 2.</_></rects>
              <tilted>0</tilted></feature>
            <threshold>0.2640706896781921</threshold>
            <left_val>-0.0573682896792889</left_val>
            <right_val>0.3890480101108551</right_val></_></_>
        <_>
          <!-- tree 38 -->
          <_>
            <!-- root node -->
            <feature>
              <rects>
                <_>
                  9 0 2 19 -1.</_>
                <_>
                  10 0 1 19 2.</_></rects>
              <tilted>0</tilted></feature>
            <threshold>-8.1577086821198463e-003</threshold>
            <left_val>0.2844327986240387</left_val>
            <right_val>-0.1101287975907326</right_val></_></_>
        <_>
          <!-- tree 39 -->
          <_>
            <!-- root node -->
            <feature>
              <rects>
                <_>
                  7 12 6 2 -1.</_>
                <_>
                  7 13 6 1 2.</_></rects>
              <tilted>0</tilted></feature>
            <threshold>-2.1921920124441385e-003</threshold>
            <left_val>0.1196271032094955</left_val>
            <right_val>-0.2055329978466034</right_val></_></_>
        <_>
          <!-- tree 40 -->
          <_>
            <!-- root node -->
            <feature>
              <rects>
                <_>
                  8 0 6 3 -1.</_>
                <_>
                  10 0 2 3 3.</_></rects>
              <tilted>0</tilted></feature>
            <threshold>3.2316059805452824e-003</threshold>
            <left_val>-0.1509025990962982</left_val>
            <right_val>0.1581276059150696</right_val></_></_>
        <_>
          <!-- tree 41 -->
          <_>
            <!-- root node -->
            <feature>
              <rects>
                <_>
                  12 11 4 4 -1.</_>
                <_>
                  12 11 2 2 2.</_>
                <_>
                  14 13 2 2 2.</_></rects>
              <tilted>0</tilted></feature>
            <threshold>-3.5423650406301022e-003</threshold>
            <left_val>0.3305554091930389</left_val>
            <right_val>-0.0719831287860870</right_val></_></_>
        <_>
          <!-- tree 42 -->
          <_>
            <!-- root node -->
            <feature>
              <rects>
                <_>
                  8 1 2 12 -1.</_>
                <_>
                  8 1 1 6 2.</_>
                <_>
                  9 7 1 6 2.</_></rects>
              <tilted>0</tilted></feature>
            <threshold>-7.9689994454383850e-003</threshold>
            <left_val>-0.5802779793739319</left_val>
            <right_val>0.0403406284749508</right_val></_></_>
        <_>
          <!-- tree 43 -->
          <_>
            <!-- root node -->
            <feature>
              <rects>
                <_>
                  0 2 2 2 -1.</_>
                <_>
                  1 2 1 2 2.</_></rects>
              <tilted>0</tilted></feature>
            <threshold>-4.4976067729294300e-003</threshold>
            <left_val>-0.7062091827392578</left_val>
            <right_val>0.0231610201299191</right_val></_></_></trees>
      <stage_threshold>-1.5381499528884888</stage_threshold>
      <parent>6</parent>
      <next>-1</next></_>
    <_>
      <!-- stage 8 -->
      <trees>
        <_>
          <!-- tree 0 -->
          <_>
            <!-- root node -->
            <feature>
              <rects>
                <_>
                  4 0 12 13 -1.</_>
                <_>
                  8 0 4 13 3.</_></rects>
              <tilted>0</tilted></feature>
            <threshold>0.1777320951223373</threshold>
            <left_val>-0.2596859037876129</left_val>
            <right_val>0.3706307113170624</right_val></_></_>
        <_>
          <!-- tree 1 -->
          <_>
            <!-- root node -->
            <feature>
              <rects>
                <_>
                  6 10 8 2 -1.</_>
                <_>
                  6 11 8 1 2.</_></rects>
              <tilted>0</tilted></feature>
            <threshold>-5.0022569485008717e-003</threshold>
            <left_val>0.2378575056791306</left_val>
            <right_val>-0.4322513043880463</right_val></_></_>
        <_>
          <!-- tree 2 -->
          <_>
            <!-- root node -->
            <feature>
              <rects>
                <_>
                  8 12 5 2 -1.</_>
                <_>
                  8 13 5 1 2.</_></rects>
              <tilted>0</tilted></feature>
            <threshold>-5.0635919906198978e-003</threshold>
            <left_val>0.2596020996570587</left_val>
            <right_val>-0.2018996030092239</right_val></_></_>
        <_>
          <!-- tree 3 -->
          <_>
            <!-- root node -->
            <feature>
              <rects>
                <_>
                  11 8 9 7 -1.</_>
                <_>
                  14 8 3 7 3.</_></rects>
              <tilted>0</tilted></feature>
            <threshold>-0.0127830700948834</threshold>
            <left_val>0.2221262007951737</left_val>
            <right_val>-0.1879107952117920</right_val></_></_>
        <_>
          <!-- tree 4 -->
          <_>
            <!-- root node -->
            <feature>
              <rects>
                <_>
                  0 14 20 6 -1.</_>
                <_>
                  0 16 20 2 3.</_></rects>
              <tilted>0</tilted></feature>
            <threshold>0.0345924310386181</threshold>
            <left_val>-0.1370674967765808</left_val>
            <right_val>0.2960661947727203</right_val></_></_>
        <_>
          <!-- tree 5 -->
          <_>
            <!-- root node -->
            <feature>
              <rects>
                <_>
                  4 0 12 20 -1.</_>
                <_>
                  10 0 6 20 2.</_></rects>
              <tilted>0</tilted></feature>
            <threshold>0.2860884964466095</threshold>
            <left_val>-0.0921537578105927</left_val>
            <right_val>0.4354501962661743</right_val></_></_>
        <_>
          <!-- tree 6 -->
          <_>
            <!-- root node -->
            <feature>
              <rects>
                <_>
                  6 0 6 13 -1.</_>
                <_>
                  9 0 3 13 2.</_></rects>
              <tilted>0</tilted></feature>
            <threshold>-0.0646587163209915</threshold>
            <left_val>0.5060092806816101</left_val>
            <right_val>-0.1034391969442368</right_val></_></_>
        <_>
          <!-- tree 7 -->
          <_>
            <!-- root node -->
            <feature>
              <rects>
                <_>
                  6 7 8 4 -1.</_>
                <_>
                  6 9 8 2 2.</_></rects>
              <tilted>0</tilted></feature>
            <threshold>-0.0253668408840895</threshold>
            <left_val>0.3299908936023712</left_val>
            <right_val>-0.1213442981243134</right_val></_></_>
        <_>
          <!-- tree 8 -->
          <_>
            <!-- root node -->
            <feature>
              <rects>
                <_>
                  0 9 9 7 -1.</_>
                <_>
                  3 9 3 7 3.</_></rects>
              <tilted>0</tilted></feature>
            <threshold>-0.0180468596518040</threshold>
            <left_val>0.1997303962707520</left_val>
            <right_val>-0.2073713988065720</right_val></_></_>
        <_>
          <!-- tree 9 -->
          <_>
            <!-- root node -->
            <feature>
              <rects>
                <_>
                  10 11 3 2 -1.</_>
                <_>
                  10 12 3 1 2.</_></rects>
              <tilted>0</tilted></feature>
            <threshold>-1.4208119828253984e-003</threshold>
            <left_val>0.1408831030130386</left_val>
            <right_val>-0.2575508952140808</right_val></_></_>
        <_>
          <!-- tree 10 -->
          <_>
            <!-- root node -->
            <feature>
              <rects>
                <_>
                  6 0 8 2 -1.</_>
                <_>
                  6 1 8 1 2.</_></rects>
              <tilted>0</tilted></feature>
            <threshold>8.8557973504066467e-003</threshold>
            <left_val>0.0379096902906895</left_val>
            <right_val>-0.8001809120178223</right_val></_></_>
        <_>
          <!-- tree 11 -->
          <_>
            <!-- root node -->
            <feature>
              <rects>
                <_>
                  11 0 2 17 -1.</_>
                <_>
                  12 0 1 17 2.</_></rects>
              <tilted>0</tilted></feature>
            <threshold>-7.1411938406527042e-003</threshold>
            <left_val>0.1992695927619934</left_val>
            <right_val>-0.1770630031824112</right_val></_></_>
        <_>
          <!-- tree 12 -->
          <_>
            <!-- root node -->
            <feature>
              <rects>
                <_>
                  5 0 12 8 -1.</_>
                <_>
                  5 4 12 4 2.</_></rects>
              <tilted>0</tilted></feature>
            <threshold>-0.0197380501776934</threshold>
            <left_val>-0.3812913894653320</left_val>
            <right_val>0.0834095999598503</right_val></_></_>
        <_>
          <!-- tree 13 -->
          <_>
            <!-- root node -->
            <feature>
              <rects>
                <_>
                  4 3 12 2 -1.</_>
                <_>
                  4 4 12 1 2.</_></rects>
              <tilted>0</tilted></feature>
            <threshold>0.0102094998583198</threshold>
            <left_val>0.0294549409300089</left_val>
            <right_val>-0.6621453166007996</right_val></_></_>
        <_>
          <!-- tree 14 -->
          <_>
            <!-- root node -->
            <feature>
              <rects>
                <_>
                  9 0 4 1 -1.</_>
                <_>
                  11 0 2 1 2.</_></rects>
              <tilted>0</tilted></feature>
