FANN_FLO_2.1
num_layers=3
learning_rate=0.700000
connection_rate=1.000000
network_type=0
learning_momentum=0.000000
training_algorithm=3
train_error_function=1
train_stop_function=0
cascade_output_change_fraction=0.010000
quickprop_decay=-0.000100
quickprop_mu=1.750000
rprop_increase_factor=1.200000
rprop_decrease_factor=0.500000
rprop_delta_min=0.000000
rprop_delta_max=50.000000
rprop_delta_zero=0.100000
cascade_output_stagnation_epochs=12
cascade_candidate_change_fraction=0.010000
cascade_candidate_stagnation_epochs=12
cascade_max_out_epochs=150
cascade_max_cand_epochs=150
cascade_num_candidate_groups=2
bit_fail_limit=3.49999994039535520000e-001
cascade_candidate_limit=1.00000000000000000000e+003
cascade_weight_multiplier=4.00000005960464480000e-001
cascade_activation_functions_count=10
cascade_activation_functions=3 5 7 8 10 11 14 15 16 17 
cascade_activation_steepnesses_count=4
cascade_activation_steepnesses=2.50000000000000000000e-001 5.00000000000000000000e-001 7.50000000000000000000e-001 1.00000000000000000000e+000 
layer_sizes=129 9 3 
scale_included=0
neurons (num_inputs, activation_function, activation_steepness)=(0, 0, 0.00000000000000000000e+000) (0, 0, 0.00000000000000000000e+000) (0, 0, 0.00000000000000000000e+000) (0, 0, 0.00000000000000000000e+000) (0, 0, 0.00000000000000000000e+000) (0, 0, 0.00000000000000000000e+000) (0, 0, 0.00000000000000000000e+000) (0, 0, 0.00000000000000000000e+000) (0, 0, 0.00000000000000000000e+000) (0, 0, 0.00000000000000000000e+000) (0, 0, 0.00000000000000000000e+000) (0, 0, 0.00000000000000000000e+000) (0, 0, 0.00000000000000000000e+000) (0, 0, 0.00000000000000000000e+000) (0, 0, 0.00000000000000000000e+000) (0, 0, 0.00000000000000000000e+000) (0, 0, 0.00000000000000000000e+000) (0, 0, 0.00000000000000000000e+000) (0, 0, 0.00000000000000000000e+000) (0, 0, 0.00000000000000000000e+000) (0, 0, 0.00000000000000000000e+000) (0, 0, 0.00000000000000000000e+000) (0, 0, 0.00000000000000000000e+000) (0, 0, 0.00000000000000000000e+000) (0, 0, 0.00000000000000000000e+000) (0, 0, 0.00000000000000000000e+000) (0, 0, 0.00000000000000000000e+000) (0, 0, 0.00000000000000000000e+000) (0, 0, 0.00000000000000000000e+000) (0, 0, 0.00000000000000000000e+000) (0, 0, 0.00000000000000000000e+000) (0, 0, 0.00000000000000000000e+000) (0, 0, 0.00000000000000000000e+000) (0, 0, 0.00000000000000000000e+000) (0, 0, 0.00000000000000000000e+000) (0, 0, 0.00000000000000000000e+000) (0, 0, 0.00000000000000000000e+000) (0, 0, 0.00000000000000000000e+000) (0, 0, 0.00000000000000000000e+000) (0, 0, 0.00000000000000000000e+000) (0, 0, 0.00000000000000000000e+000) (0, 0, 0.00000000000000000000e+000) (0, 0, 0.00000000000000000000e+000) (0, 0, 0.00000000000000000000e+000) (0, 0, 0.00000000000000000000e+000) (0, 0, 0.00000000000000000000e+000) (0, 0, 0.00000000000000000000e+000) (0, 0, 0.00000000000000000000e+000) (0, 0, 0.00000000000000000000e+000) (0, 0, 0.00000000000000000000e+000) (0, 0, 0.00000000000000000000e+000) (0, 0, 0.00000000000000000000e+000) (0, 0, 0.00000000000000000000e+000) (0, 0, 0.00000000000000000000e+000) (0, 0, 0.00000000000000000000e+000) (0, 0, 0.00000000000000000000e+000) (0, 0, 0.00000000000000000000e+000) (0, 0, 0.00000000000000000000e+000) (0, 0, 0.00000000000000000000e+000) (0, 0, 0.00000000000000000000e+000) (0, 0, 0.00000000000000000000e+000) (0, 0, 0.00000000000000000000e+000) (0, 0, 0.00000000000000000000e+000) (0, 0, 0.00000000000000000000e+000) (0, 0, 0.00000000000000000000e+000) (0, 0, 0.00000000000000000000e+000) (0, 0, 0.00000000000000000000e+000) (0, 0, 0.00000000000000000000e+000) (0, 0, 0.00000000000000000000e+000) (0, 0, 0.00000000000000000000e+000) (0, 0, 0.00000000000000000000e+000) (0, 0, 0.00000000000000000000e+000) (0, 0, 0.00000000000000000000e+000) (0, 0, 0.00000000000000000000e+000) (0, 0, 0.00000000000000000000e+000) (0, 0, 0.00000000000000000000e+000) (0, 0, 0.00000000000000000000e+000) (0, 0, 0.00000000000000000000e+000) (0, 0, 0.00000000000000000000e+000) (0, 0, 0.00000000000000000000e+000) (0, 0, 0.00000000000000000000e+000) (0, 0, 0.00000000000000000000e+000) (0, 0, 0.00000000000000000000e+000) (0, 0, 0.00000000000000000000e+000) (0, 0, 0.00000000000000000000e+000) (0, 0, 0.00000000000000000000e+000) (0, 0, 0.00000000000000000000e+000) (0, 0, 0.00000000000000000000e+000) (0, 0, 0.00000000000000000000e+000) (0, 0, 0.00000000000000000000e+000) (0, 0, 0.00000000000000000000e+000) (0, 0, 0.00000000000000000000e+000) (0, 0, 0.00000000000000000000e+000) (0, 0, 0.00000000000000000000e+000) (0, 0, 0.00000000000000000000e+000) (0, 0, 0.00000000000000000000e+000) (0, 0, 0.00000000000000000000e+000) (0, 0, 0.00000000000000000000e+000) (0, 0, 0.00000000000000000000e+000) (0, 0, 0.00000000000000000000e+000) (0, 0, 0.00000000000000000000e+000) (0, 0, 0.00000000000000000000e+000) (0, 0, 0.00000000000000000000e+000) (0, 0, 0.00000000000000000000e+000) (0, 0, 0.00000000000000000000e+000) (0, 0, 0.00000000000000000000e+000) (0, 0, 0.00000000000000000000e+000) (0, 0, 0.00000000000000000000e+000) (0, 0, 0.00000000000000000000e+000) (0, 0, 0.00000000000000000000e+000) (0, 0, 0.00000000000000000000e+000) (0, 0, 0.00000000000000000000e+000) (0, 0, 0.00000000000000000000e+000) (0, 0, 0.00000000000000000000e+000) (0, 0, 0.00000000000000000000e+000) (0, 0, 0.00000000000000000000e+000) (0, 0, 0.00000000000000000000e+000) (0, 0, 0.00000000000000000000e+000) (0, 0, 0.00000000000000000000e+000) (0, 0, 0.00000000000000000000e+000) (0, 0, 0.00000000000000000000e+000) (0, 0, 0.00000000000000000000e+000) (0, 0, 0.00000000000000000000e+000) (0, 0, 0.00000000000000000000e+000) (0, 0, 0.00000000000000000000e+000) (0, 0, 0.00000000000000000000e+000) (0, 0, 0.00000000000000000000e+000) (0, 0, 0.00000000000000000000e+000) (0, 0, 0.00000000000000000000e+000) (129, 4, 1.10000002384185790000e+000) (129, 4, 1.10000002384185790000e+000) (129, 4, 1.10000002384185790000e+000) (129, 4, 1.10000002384185790000e+000) (129, 4, 1.10000002384185790000e+000) (129, 4, 1.10000002384185790000e+000) (129, 4, 1.10000002384185790000e+000) (129, 4, 1.10000002384185790000e+000) (0, 4, 1.10000002384185790000e+000) (9, 5, 1.00000000000000000000e+000) (9, 5, 1.00000000000000000000e+000) (0, 5, 1.00000000000000000000e+000) 
connections (connected_to_neuron, weight)=(0, 4.26794290542602540000e-002) (1, -2.83109918236732480000e-002) (2, 7.05277323722839360000e-002) (3, 5.27984201908111570000e-001) (4, 4.29031141102314000000e-002) (5, -2.85653695464134220000e-002) (6, 1.20909847319126130000e-001) (7, 6.66270375251770020000e-001) (8, -1.42166644334793090000e-001) (9, -2.11250737309455870000e-001) (10, -1.61177977919578550000e-001) (11, 1.76034539937973020000e-001) (12, 7.05955475568771360000e-002) (13, 8.85413065552711490000e-002) (14, -1.75927028059959410000e-001) (15, -3.42802181839942930000e-002) (16, -3.21053378283977510000e-002) (17, -6.20292387902736660000e-002) (18, 1.15345507860183720000e-001) (19, 1.41106754541397090000e-001) (20, 8.79395520314574240000e-005) (21, -6.27836942672729490000e-001) (22, -9.86814722418785100000e-002) (23, 2.38670065999031070000e-001) (24, -3.74907553195953370000e-002) (25, -2.92764425277709960000e-001) (26, 1.36780083179473880000e-001) (27, -1.05191044509410860000e-001) (28, -8.26900750398635860000e-002) (29, 3.23968708515167240000e-001) (30, -5.22557161748409270000e-002) (31, 7.24176689982414250000e-002) (32, 2.65762824565172200000e-002) (33, 1.10570117831230160000e-001) (34, 9.22045409679412840000e-002) (35, 5.40906637907028200000e-002) (36, -2.63897657394409180000e-001) (37, 1.44316285848617550000e-001) (38, 4.20036286115646360000e-001) (39, -7.30865120887756350000e-001) (40, 9.42402146756649020000e-003) (41, 9.56258252263069150000e-002) (42, 4.91595506668090820000e-001) (43, -7.66475275158882140000e-002) (44, 3.44748534262180330000e-002) (45, -1.54174165800213810000e-002) (46, -2.33033746480941770000e-002) (47, -8.38051974773406980000e-001) (48, -1.34103968739509580000e-001) (49, -4.68054056167602540000e-001) (50, 7.19016432762146000000e-001) (51, 2.72393012046813960000e+000) (52, -5.03420054912567140000e-001) (53, 3.23071852326393130000e-002) (54, 1.22598730027675630000e-001) (55, 7.37524256110191350000e-002) (56, 7.89174810051918030000e-002) (57, 3.23662012815475460000e-002) (58, -1.81403029710054400000e-002) (59, 6.62183836102485660000e-002) (60, -3.35852280259132390000e-002) (61, 2.42364302277565000000e-001) (62, -2.99691203981637950000e-002) (63, 9.62747186422348020000e-002) (64, -1.68720349669456480000e-001) (65, -2.16278001666069030000e-001) (66, 2.21496075391769410000e-001) (67, 3.19723516702651980000e-001) (68, -8.53514894843101500000e-002) (69, -1.47582679986953740000e-001) (70, -3.17378691397607330000e-003) (71, 3.67216691374778750000e-002) (72, -7.15467870235443120000e-001) (73, 2.20628697425127030000e-002) (74, -1.71455380041152240000e-003) (75, -3.16418856382370000000e-002) (76, 4.98101674020290370000e-002) (77, 1.21542565524578090000e-001) (78, 6.65773153305053710000e-002) (79, 3.26205864548683170000e-002) (80, 1.23631600290536880000e-002) (81, 6.08096309006214140000e-002) (82, 4.19038720428943630000e-002) (83, -5.23746907711029050000e-001) (84, 3.25209230184555050000e-001) (85, 8.07264894247055050000e-002) (86, -3.26261073350906370000e-002) (87, -3.70475918054580690000e-001) (88, -9.33396220207214360000e-002) (89, -7.78500437736511230000e-002) (90, 1.12059926614165310000e-002) (91, 8.99656713008880620000e-002) (92, 1.05190604925155640000e-001) (93, 5.05174100399017330000e-001) (94, 1.86307802796363830000e-001) (95, -6.25786408782005310000e-002) (96, 8.27313512563705440000e-002) (97, 3.51306557655334470000e-001) (98, 6.20805919170379640000e-001) (99, -1.29236757755279540000e+000) (100, -6.11170940101146700000e-002) (101, -1.60214051604270940000e-001) (102, -3.70660156011581420000e-001) (103, 1.23189382255077360000e-001) (104, -5.31476922333240510000e-002) (105, 1.61382228136062620000e-001) (106, 1.16071328520774840000e-001) (107, 5.86760818958282470000e-001) (108, 1.49856567382812500000e-001) (109, -5.92600321397185330000e-003) (110, -8.16814694553613660000e-003) (111, 1.49294224684126680000e-004) (112, 1.29172933101654050000e+000) (113, 3.77799063920974730000e-001) (114, 8.52709859609603880000e-002) (115, -1.25152170658111570000e-001) (116, 8.08203667402267460000e-002) (117, -1.11884333193302150000e-001) (118, 1.28734663128852840000e-001) (119, 1.83438509702682500000e-001) (120, 2.58473575115203860000e-001) (121, 4.24639843404293060000e-002) (122, 2.05217763781547550000e-001) (123, 5.40363311767578130000e-001) (124, 9.39270108938217160000e-002) (125, -8.08439925312995910000e-002) (126, 1.06670632958412170000e-001) (127, 4.67889696359634400000e-001) (128, -2.18688830733299260000e-001) (0, 1.29663916304707530000e-002) (1, 5.54967857897281650000e-003) (2, 4.18000891804695130000e-002) (3, -8.76091569662094120000e-002) (4, 6.65755346417427060000e-002) (5, -9.15322005748748780000e-002) (6, -1.09009504318237300000e-001) (7, -8.97357240319252010000e-002) (8, -3.80324795842170720000e-002) (9, 1.69293470680713650000e-002) (10, -4.35997433960437770000e-002) (11, -1.26484176144003870000e-002) (12, -2.02052798122167590000e-002) (13, -7.47555419802665710000e-002) (14, 2.81874835491180420000e-002) (15, -9.90362744778394700000e-003) (16, -4.97146062552928920000e-002) (17, -7.53179267048835750000e-002) (18, -7.75643140077590940000e-002) (19, -1.00959300994873050000e-001) (20, -7.98958390951156620000e-002) (21, 6.73837065696716310000e-002) (22, -4.16859239339828490000e-002) (23, -7.60070746764540670000e-003) (24, -8.99300053715705870000e-002) (25, 3.86022366583347320000e-002) (26, -1.31591647863388060000e-001) (27, 2.63953842222690580000e-002) (28, 5.80255277454853060000e-002) (29, -6.12870603799819950000e-003) (30, -6.26237913966178890000e-002) (31, 4.44819293916225430000e-002) (32, -9.05937552452087400000e-002) (33, 5.25302588939666750000e-002) (34, -8.74971151351928710000e-002) (35, 9.61963012814521790000e-002) (36, -3.57966832816600800000e-002) (37, -1.13575905561447140000e-001) (38, -1.07131272554397580000e-001) (39, 8.71987044811248780000e-002) (40, -8.06463286280632020000e-002) (41, -9.58475004881620410000e-003) (42, 4.25625219941139220000e-002) (43, 1.04826651513576510000e-001) (44, -6.43404871225357060000e-002) (45, -4.67262975871562960000e-002) (46, -8.98378118872642520000e-002) (47, 4.56283148378133770000e-003) (48, -5.41090331971645360000e-002) (49, 6.07302822172641750000e-002) (50, 9.86181572079658510000e-002) (51, -4.77733686566352840000e-002) (52, -6.24485686421394350000e-002) (53, -7.25393323227763180000e-003) (54, -8.09550806879997250000e-002) (55, 9.82039645314216610000e-002) (56, -6.95015937089920040000e-002) (57, 6.36942079290747640000e-003) (58, -4.98672388494014740000e-002) (59, 6.95588365197181700000e-002) (60, 2.10342202335596080000e-002) (61, 6.38010771945118900000e-003) (62, 5.69370128214359280000e-002) (63, 2.60589271783828740000e-002) (64, 1.21227772906422620000e-002) (65, -4.39415983855724330000e-002) (66, 3.36689990945160390000e-003) (67, 3.11066489666700360000e-002) (68, 1.60058923065662380000e-002) (69, -7.61937722563743590000e-002) (70, 3.50581035017967220000e-002) (71, 3.53442505002021790000e-002) (72, -6.11218661069870000000e-002) (73, 4.43350709974765780000e-002) (74, 1.12269461154937740000e-001) (75, 5.59880137443542480000e-002) (76, -1.16968974471092220000e-001) (77, 5.70685453712940220000e-002) (78, -4.71756979823112490000e-002) (79, 1.01929269731044770000e-001) (80, 3.82097102701663970000e-002) (81, 5.08334152400493620000e-002) (82, 2.59364154189825060000e-002) (83, 1.09230745583772660000e-002) (84, -3.84753160178661350000e-002) (85, 5.55908791720867160000e-002) (86, -7.11397603154182430000e-002) (87, 2.27211359888315200000e-002) (88, 7.87717774510383610000e-002) (89, -1.04123055934906010000e-001) (90, -3.01580084487795830000e-003) (91, -7.86104649305343630000e-002) (92, -1.00041598081588750000e-001) (93, 7.14414939284324650000e-002) (94, 7.86245893687009810000e-003) (95, -2.93468707241117950000e-003) (96, -3.97342033684253690000e-002) (97, 2.72857677191495900000e-002) (98, -1.20092883706092830000e-001) (99, -8.05072858929634090000e-002) (100, -1.96892898529767990000e-002) (101, -2.99780089408159260000e-002) (102, -9.40297394990921020000e-002) (103, 7.35601317137479780000e-003) (104, -8.26876983046531680000e-003) (105, -1.46504819393157960000e-001) (106, -2.70550660789012910000e-002) (107, 6.04909332469105720000e-003) (108, -1.61704327911138530000e-002) (109, -2.42514889687299730000e-002) (110, -8.78077819943428040000e-002) (111, -9.64620560407638550000e-002) (112, -7.14226439595222470000e-002) (113, -4.32415977120399480000e-002) (114, -6.26819254830479620000e-003) (115, -5.42376711964607240000e-002) (116, 6.52512758970260620000e-002) (117, -1.01723052561283110000e-001) (118, 5.50870336592197420000e-002) (119, -6.45388439297676090000e-002) (120, 1.56932268291711810000e-002) (121, -1.18802197277545930000e-001) (122, -1.05093330144882200000e-001) (123, -7.14661478996276860000e-002) (124, 3.38337868452072140000e-002) (125, -9.15636047720909120000e-002) (126, 3.14800217747688290000e-002) (127, 2.58190054446458820000e-002) (128, -9.37489569187164310000e-002) (0, -4.43117804825305940000e-002) (1, 9.73150804638862610000e-002) (2, 3.92498960718512540000e-003) (3, -1.52793033048510550000e-002) (4, 3.97019013762474060000e-002) (5, 4.11492846906185150000e-002) (6, -1.77504662424325940000e-002) (7, -3.78203690052032470000e-002) (8, -1.01438979618251320000e-003) (9, -6.00469745695590970000e-002) (10, -3.81648242473602290000e-002) (11, 9.21378284692764280000e-002) (12, -8.04898366332054140000e-002) (13, 3.67814861238002780000e-002) (14, -1.17838941514492030000e-002) (15, 6.46853223443031310000e-002) (16, 7.01026991009712220000e-002) (17, -2.14934386312961580000e-002) (18, 7.23476484417915340000e-002) (19, 6.86219260096549990000e-002) (20, -4.67672459781169890000e-002) (21, -7.05996900796890260000e-002) (22, -6.58513456583023070000e-002) (23, 8.26781168580055240000e-002) (24, -1.58120393753051760000e-002) (25, -6.00691065192222600000e-002) (26, 1.08843827620148660000e-002) (27, -3.01690809428691860000e-002) (28, -4.45201881229877470000e-002) (29, -3.80109772086143490000e-002) (30, -6.34317398071289060000e-002) (31, 4.05240803956985470000e-002) (32, 8.75807330012321470000e-002) (33, 6.50314390659332280000e-002) (34, -8.56849774718284610000e-002) (35, 8.99858996272087100000e-002) (36, -8.12442526221275330000e-002) (37, -9.00425985455513000000e-002) (38, -7.42500349879264830000e-002) (39, 3.25923785567283630000e-002) (40, -1.04260735213756560000e-001) (41, -8.77180472016334530000e-002) (42, 2.04388126730918880000e-002) (43, -2.54549775272607800000e-002) (44, -9.66179836541414260000e-003) (45, -8.96974280476570130000e-002) (46, -9.12252068519592290000e-002) (47, -7.67846181988716130000e-002) (48, 8.02855864167213440000e-002) (49, -8.15426483750343320000e-002) (50, 4.31162603199481960000e-002) (51, -1.78983695805072780000e-002) (52, 4.45748902857303620000e-002) (53, -2.62682661414146420000e-002) (54, -9.25952121615409850000e-002) (55, -9.17145386338233950000e-002) (56, 6.28075748682022090000e-002) (57, -1.54777495190501210000e-002) (58, 8.58107879757881160000e-002) (59, -7.92700573801994320000e-002) (60, 8.96999463438987730000e-002) (61, 7.19902142882347110000e-002) (62, 6.80120289325714110000e-002) (63, -5.41840353980660440000e-003) (64, 5.37979155778884890000e-002) (65, 4.25923429429531100000e-002) (66, 1.29268562886863950000e-003) (67, 4.28936518728733060000e-002) (68, -6.79581314325332640000e-002) (69, 4.05834279954433440000e-002) (70, -2.43485700339078900000e-002) (71, 2.74379551410675050000e-002) (72, -7.78532177209854130000e-002) (73, -5.74960969388484950000e-002) (74, -9.46699678897857670000e-002) (75, -9.37649160623550420000e-002) (76, 8.53325352072715760000e-002) (77, -9.27446782588958740000e-002) (78, -4.34740036725997920000e-002) (79, -1.63400750607252120000e-002) (80, -4.45610843598842620000e-002) (81, 5.80373182892799380000e-002) (82, -3.70632857084274290000e-002) (83, -4.35480028390884400000e-002) (84, -2.18263715505599980000e-002) (85, 5.77119253575801850000e-002) (86, 2.60138530284166340000e-002) (87, -2.39703450351953510000e-002) (88, -1.08006097376346590000e-001) (89, -6.52791783213615420000e-002) (90, 6.47196397185325620000e-002) (91, -1.02881401777267460000e-001) (92, 9.34473238885402680000e-003) (93, -8.87197554111480710000e-002) (94, 6.37520998716354370000e-002) (95, 2.79793702065944670000e-002) (96, -4.25398834049701690000e-002) (97, -9.99921783804893490000e-002) (98, -2.14248839765787120000e-002) (99, -4.08601239323616030000e-002) (100, -1.33123263716697690000e-001) (101, -6.19182176887989040000e-002) (102, -7.74106010794639590000e-002) (103, 5.53604662418365480000e-002) (104, -1.03537524119019510000e-002) (105, -8.96812528371810910000e-002) (106, -3.80103215575218200000e-002) (107, -8.52719396352767940000e-002) (108, 7.78628736734390260000e-002) (109, -8.89551714062690730000e-002) (110, -8.05342346429824830000e-002) (111, -4.69967946410179140000e-002) (112, 9.42637696862220760000e-002) (113, 3.41677106916904450000e-002) (114, -3.45260277390480040000e-003) (115, -5.82040101289749150000e-003) (116, 2.33111716806888580000e-002) (117, 5.31814433634281160000e-002) (118, 8.04624333977699280000e-002) (119, -2.27590333670377730000e-002) (120, -6.14524222910404210000e-002) (121, -1.15551955997943880000e-001) (122, -3.67611236870288850000e-002) (123, -2.59840711951255800000e-002) (124, -7.57955526933074000000e-003) (125, 6.73074200749397280000e-002) (126, 4.60422299802303310000e-002) (127, -2.75461301207542420000e-002) (128, -1.04201687499880790000e-002) (0, -7.02198222279548650000e-002) (1, -8.20836946368217470000e-002) (2, -1.96436475962400440000e-002) (3, -6.64611086249351500000e-002) (4, 8.05716365575790410000e-002) (5, -2.64395494014024730000e-002) (6, 9.03000906109809880000e-002) (7, -9.52807068824768070000e-002) (8, 9.05371550470590590000e-003) (9, -2.36436189152300360000e-003) (10, -2.75084134191274640000e-002) (11, -3.67538481950759890000e-002) (12, -4.05426025390625000000e-002) (13, -7.09248483180999760000e-002) (14, -9.36877951025962830000e-002) (15, -6.34461417794227600000e-002) (16, 7.48988091945648190000e-002) (17, 7.91296362876892090000e-002) (18, -6.96899890899658200000e-002) (19, 3.06341964751482010000e-002) (20, -3.27927991747856140000e-002) (21, -5.70105807855725290000e-003) (22, -1.50984488427639010000e-002) (23, 7.42566436529159550000e-002) (24, -3.87968793511390690000e-002) (25, -7.82583355903625490000e-002) (26, -4.83853109180927280000e-002) (27, 4.19812686741352080000e-002) (28, -7.39569216966629030000e-002) (29, 5.01048266887664790000e-002) (30, -8.43565538525581360000e-002) (31, 6.17676088586449620000e-003) (32, 8.52411538362503050000e-002) (33, -7.02401921153068540000e-002) (34, -5.05036823451519010000e-002) (35, 1.95501465350389480000e-002) (36, 1.43484063446521760000e-002) (37, -4.60860654711723330000e-002) (38, -3.53981666266918180000e-002) (39, -6.78420662879943850000e-002) (40, -5.65714687108993530000e-002) (41, -6.07898272573947910000e-002) (42, 5.52662648260593410000e-002) (43, 8.44999775290489200000e-002) (44, -4.15808595716953280000e-002) (45, -9.87736508250236510000e-002) (46, -5.71956746280193330000e-002) (47, -4.70687784254550930000e-002) (48, -1.08372792601585390000e-001) (49, -1.00581161677837370000e-001) (50, -1.84112805873155590000e-002) (51, -4.20740153640508650000e-003) (52, 7.92461335659027100000e-002) (53, -1.07936426997184750000e-001) (54, 9.26141738891601560000e-002) (55, 9.09290015697479250000e-002) (56, 2.93870978057384490000e-002) (57, -6.82300701737403870000e-002) (58, 2.72327009588480000000e-002) (59, -7.71474614739418030000e-002) (60, 1.06448186561465260000e-002) (61, -6.01138174533843990000e-002) (62, 8.09848830103874210000e-002) (63, -3.73240117914974690000e-003) (64, 7.34057947993278500000e-002) (65, -7.97903984785079960000e-002) (66, -9.18626859784126280000e-002) (67, 9.62349995970726010000e-002) (68, 4.04546558856964110000e-002) (69, -3.64422611892223360000e-002) (70, 2.06941012293100360000e-002) (71, -3.93397510051727290000e-002) (72, -8.74337852001190190000e-002) (73, -8.40857923030853270000e-002) (74, 3.27608995139598850000e-002) (75, -3.81336696445941930000e-002) (76, -4.72543090581893920000e-002) (77, -1.02905161678791050000e-001) (78, -1.00449901074171070000e-002) (79, 2.46489048004150390000e-003) (80, 8.20408314466476440000e-002) (81, 5.21816089749336240000e-002) (82, 1.42590086907148360000e-002) (83, 2.30466835200786590000e-002) (84, -1.60052385181188580000e-002) (85, -8.94914269447326660000e-002) (86, -6.77143186330795290000e-002) (87, -8.51219221949577330000e-002) (88, 3.81730496883392330000e-002) (89, 5.10361082851886750000e-002) (90, 8.70058760046958920000e-002) (91, 7.43370130658149720000e-002) (92, 7.69119113683700560000e-002) (93, 4.15325211361050610000e-003) (94, 1.95837337523698810000e-002) (95, -7.60953947901725770000e-002) (96, -3.98196838796138760000e-002) (97, 5.46657964587211610000e-002) (98, 2.03569270670413970000e-002) (99, -3.90288755297660830000e-002) (100, 2.68676429986953740000e-002) (101, -4.32280190289020540000e-002) (102, -3.80267426371574400000e-002) (103, 4.33536656200885770000e-002) (104, 6.24088104814291000000e-004) (105, -1.07603922486305240000e-001) (106, -1.78736634552478790000e-002) (107, -9.68235805630683900000e-002) (108, 5.60632832348346710000e-002) (109, 3.46704907715320590000e-002) (110, -3.50751243531703950000e-002) (111, 1.63403879851102830000e-002) (112, 3.61170470714569090000e-002) (113, -1.22042670845985410000e-002) (114, 1.95334106683731080000e-002) (115, 4.70573045313358310000e-002) (116, -5.45202679932117460000e-002) (117, 3.69001999497413640000e-002) (118, 7.01186284422874450000e-002) (119, 5.19002974033355710000e-002) (120, 1.29658672958612440000e-002) (121, -5.89426495134830470000e-002) (122, -3.80055308341979980000e-002) (123, 3.41612696647644040000e-002) (124, 5.56736402213573460000e-002) (125, 7.89098255336284640000e-003) (126, -7.48811103403568270000e-003) (127, -2.01327912509441380000e-002) (128, 7.07503780722618100000e-002) (0, -8.94527882337570190000e-002) (1, -2.26756762713193890000e-002) (2, 5.46476468443870540000e-002) (3, -4.43998388946056370000e-002) (4, -3.52882221341133120000e-002) (5, -6.39508664608001710000e-002) (6, 8.11852607876062390000e-003) (7, -1.04693412780761720000e-001) (8, 3.30248288810253140000e-002) (9, -6.65363222360610960000e-002) (10, -1.04503348469734190000e-001) (11, -6.57087787985801700000e-002) (12, -7.59667456150054930000e-002) (13, 4.24863323569297790000e-002) (14, -3.93660273402929310000e-003) (15, 2.00980119407176970000e-002) (16, -5.36597613245248790000e-003) (17, 5.58871552348136900000e-002) (18, 7.86491110920906070000e-002) (19, 5.56908373255282640000e-004) (20, 5.88832423090934750000e-002) (21, -2.70510576665401460000e-002) (22, 3.33816893398761750000e-002) (23, 6.39776140451431270000e-002) (24, -1.32906034588813780000e-001) (25, -1.20837159454822540000e-001) (26, -1.03717155754566190000e-001) (27, -5.45512996613979340000e-002) (28, -1.27278134226799010000e-001) (29, -1.98090244084596630000e-002) (30, 5.69699145853519440000e-002) (31, -7.57364928722381590000e-002) (32, 9.03291031718254090000e-002) (33, 9.86191332340240480000e-002) (34, 3.91138345003128050000e-002) (35, 4.59818206727504730000e-002) (36, -7.46610462665557860000e-002) (37, -5.45870698988437650000e-002) (38, 4.45126295089721680000e-002) (39, 3.35164666175842290000e-002) (40, -1.19202807545661930000e-001) (41, -3.22757028043270110000e-002) (42, -8.40521529316902160000e-002) (43, 3.19447368383407590000e-002) (44, 9.02980752289295200000e-003) (45, 6.37407302856445310000e-002) (46, -3.61507013440132140000e-002) (47, 6.61833807826042180000e-002) (48, 2.69709639251232150000e-002) (49, -7.13165774941444400000e-002) (50, 4.98461984097957610000e-002) (51, 9.26615595817565920000e-002) (52, 1.37212453410029410000e-002) (53, 7.28463977575302120000e-002) (54, 4.61202226579189300000e-002) (55, 4.21753637492656710000e-002) (56, -6.17000609636306760000e-002) (57, 9.22243669629096980000e-002) (58, 4.45748046040534970000e-002) (59, -1.48798367008566860000e-002) (60, 9.36904549598693850000e-002) (61, 6.06301128864288330000e-002) (62, 7.11128413677215580000e-002) (63, -8.20013061165809630000e-002) (64, -8.60780328512191770000e-002) (65, 1.98391601443290710000e-002) (66, -2.81210094690322880000e-002) (67, -8.07773023843765260000e-002) (68, -2.96863075345754620000e-002) (69, 3.35741564631462100000e-002) (70, 3.18937636911869050000e-002) (71, -5.98809830844402310000e-002) (72, 1.59672088921070100000e-002) (73, 5.29320798814296720000e-002) (74, 5.27442060410976410000e-002) (75, -8.70321616530418400000e-002) (76, -2.51115337014198300000e-002) (77, -1.97604876011610030000e-002) (78, -6.10636286437511440000e-002) (79, -6.00833371281623840000e-002) (80, -8.38525146245956420000e-002) (81, -8.59997346997261050000e-002) (82, 4.42795790731906890000e-002) (83, -6.97949249297380450000e-003) (84, -7.31564611196517940000e-002) (85, 7.79919102787971500000e-002) (86, -3.36418785154819490000e-002) (87, -7.15153515338897710000e-002) (88, -7.67471035942435260000e-003) (89, 8.10171291232109070000e-002) (90, -5.89647330343723300000e-002) (91, -5.09208776056766510000e-002) (92, 2.79169324785470960000e-002) (93, 1.47334886714816090000e-002) (94, -1.29650253802537920000e-002) (95, 5.53091093897819520000e-002) (96, -8.20882692933082580000e-002) (97, -3.21097634732723240000e-002) (98, 4.83648627996444700000e-002) (99, -1.00603796541690830000e-001) (100, -1.39975741505622860000e-001) (101, -1.46295383572578430000e-001) (102, -5.50697408616542820000e-002) (103, -6.00713565945625310000e-002) (104, -9.87544953823089600000e-002) (105, -4.01661805808544160000e-002) (106, 2.03416636213660240000e-003) (107, -5.98574802279472350000e-002) (108, -8.05834382772445680000e-002) (109, 6.61466047167778020000e-002) (110, -2.15304326266050340000e-002) (111, 5.43378069996833800000e-002) (112, -7.64046162366867070000e-002) (113, -9.08706188201904300000e-002) (114, -9.03462916612625120000e-002) (115, -4.71504814922809600000e-002) (116, 4.23920378088951110000e-002) (117, -6.98550269007682800000e-002) (118, -5.39902038872241970000e-002) (119, 2.26301923394203190000e-002) (120, 4.04958613216876980000e-003) (121, 6.22411184012889860000e-002) (122, 8.51086676120758060000e-002) (123, -5.33968657255172730000e-002) (124, -1.35025372728705410000e-002) (125, -4.43884581327438350000e-002) (126, 3.63573357462883000000e-002) (127, -8.30015838146209720000e-002) (128, -5.22363372147083280000e-002) (0, -4.48962636291980740000e-002) (1, -2.86040604114532470000e-002) (2, -1.06932915747165680000e-001) (3, 1.94076970219612120000e-002) (4, 1.35638266801834110000e-002) (5, -1.10237099230289460000e-001) (6, -3.68730165064334870000e-002) (7, 6.56719878315925600000e-002) (8, -6.21467344462871550000e-002) (9, -1.41859024763107300000e-001) (10, -6.64698332548141480000e-002) (11, -6.87881633639335630000e-002) (12, 8.14760625362396240000e-002) (13, 2.70576626062393190000e-002) (14, 3.56693603098392490000e-002) (15, -1.44672095775604250000e-002) (16, 7.13024735450744630000e-002) (17, 5.17671145498752590000e-002) (18, -7.68197253346443180000e-002) (19, -2.30620484799146650000e-002) (20, 1.41644142568111420000e-002) (21, -6.59997239708900450000e-002) (22, 3.62018756568431850000e-002) (23, -1.15622438490390780000e-001) (24, 2.27683521807193760000e-002) (25, -5.03164082765579220000e-002) (26, -2.30180099606513980000e-002) (27, -3.80230434238910680000e-002) (28, -2.29711886495351790000e-002) (29, -6.31398409605026250000e-002) (30, 2.98612080514431000000e-002) (31, 9.68446861952543260000e-003) (32, 2.00571566820144650000e-002) (33, -9.52030718326568600000e-002) (34, 5.70426136255264280000e-003) (35, -3.76557148993015290000e-002) (36, 3.27589325606822970000e-002) (37, 4.15519326925277710000e-002) (38, 4.04319353401660920000e-002) (39, 2.51379460096359250000e-002) (40, -9.55275371670722960000e-002) (41, -1.41033217310905460000e-001) (42, -8.75461753457784650000e-003) (43, -8.58307033777236940000e-002) (44, 3.44235002994537350000e-002) (45, -1.40144705772399900000e-001) (46, -1.01034015417099000000e-001) (47, -9.88984704017639160000e-002) (48, -1.11924387514591220000e-001) (49, -4.71739023923873900000e-002) (50, -4.00051511824131010000e-002) (51, 2.84724310040473940000e-002) (52, -9.75061058998107910000e-002) (53, 2.80671752989292140000e-002) (54, 4.06883098185062410000e-002) (55, -3.86395724490284920000e-003) (56, -3.49827818572521210000e-002) (57, -9.53171402215957640000e-002) (58, -2.63735670596361160000e-002) (59, 1.74843240529298780000e-002) (60, -6.01086169481277470000e-002) (61, -9.89568009972572330000e-002) (62, -1.08778737485408780000e-002) (63, -7.35367983579635620000e-002) (64, -4.15101163089275360000e-002) (65, -1.08874164521694180000e-001) (66, -9.47984904050827030000e-002) (67, -8.55478867888450620000e-002) (68, 4.48758900165557860000e-003) (69, -8.75227451324462890000e-002) (70, -1.15282587707042690000e-001) (71, -8.07352885603904720000e-002) (72, -2.51101180911064150000e-002) (73, -4.75532598793506620000e-002) (74, -9.15265828371047970000e-002) (75, -5.73816783726215360000e-002) (76, -4.26911935210227970000e-002) (77, -6.97981119155883790000e-002) (78, -9.93308424949646000000e-002) (79, -6.46415874361991880000e-002) (80, -7.45256394147872920000e-002) (81, 5.87509386241436000000e-002) (82, -2.17436328530311580000e-002) (83, 1.37553242966532710000e-002) (84, -4.68151532113552090000e-002) (85, -3.70306856930255890000e-002) (86, -1.20098561048507690000e-001) (87, -8.57515111565589900000e-002) (88, 3.25739085674285890000e-002) (89, -7.72389993071556090000e-002) (90, 7.43028223514556880000e-002) (91, -1.13276086747646330000e-001) (92, 5.91984130442142490000e-002) (93, 7.08166956901550290000e-002) (94, 7.09098950028419490000e-002) (95, 9.28140245378017430000e-003) (96, 3.23327630758285520000e-002) (97, -3.00474148243665700000e-002) (98, 2.65039838850498200000e-002) (99, -6.22063018381595610000e-002) (100, -3.55133302509784700000e-002) (101, -1.67204901576042180000e-001) (102, -2.58963331580162050000e-002) (103, 7.98119697719812390000e-003) (104, -3.51705476641654970000e-002) (105, 2.92897187173366550000e-002) (106, -1.40045117586851120000e-002) (107, -7.87384435534477230000e-002) (108, 7.52387642860412600000e-002) (109, -5.78297749161720280000e-002) (110, -8.54496881365776060000e-002) (111, -3.67434881627559660000e-002) (112, -1.13242588937282560000e-001) (113, -1.14503316581249240000e-001) (114, 3.33696231245994570000e-002) (115, 1.40164764598011970000e-002) (116, 1.61430463194847110000e-002) (117, -9.58911031484603880000e-002) (118, 1.60401575267314910000e-002) (119, 8.19116830825805660000e-002) (120, -4.79617575183510780000e-003) (121, -8.89897570013999940000e-002) (122, 7.50889955088496210000e-003) (123, 1.60883385688066480000e-002) (124, 1.05035491287708280000e-002) (125, -8.30062031745910640000e-002) (126, -8.72504618018865590000e-003) (127, -3.19627262651920320000e-002) (128, -1.18810206651687620000e-001) (0, -6.85096755623817440000e-002) (1, 2.15515289455652240000e-002) (2, 5.15431351959705350000e-002) (3, -8.00921395421028140000e-002) (4, 8.02689343690872190000e-002) (5, 2.47537065297365190000e-002) (6, -3.89334224164485930000e-002) (7, 4.26101274788379670000e-002) (8, 3.67205031216144560000e-002) (9, -5.04677928984165190000e-002) (10, -4.62058298289775850000e-002) (11, -3.74024584889411930000e-002) (12, 1.05970818549394610000e-003) (13, 1.12619278952479360000e-002) (14, 6.24328628182411190000e-002) (15, 2.28448696434497830000e-002) (16, 2.32245884835720060000e-002) (17, -9.04447361826896670000e-002) (18, -3.88185307383537290000e-002) (19, 9.11263227462768550000e-002) (20, -3.94673645496368410000e-002) (21, 6.25450313091278080000e-002) (22, -7.38045712932944300000e-003) (23, 2.29751709848642350000e-002) (24, -1.88839510083198550000e-002) (25, -3.29084210097789760000e-002) (26, -2.44950875639915470000e-002) (27, 9.16938930749893190000e-002) (28, 1.11342100426554680000e-002) (29, 4.33739461004734040000e-003) (30, 5.06179183721542360000e-002) (31, 7.77718052268028260000e-002) (32, -2.08315271884202960000e-002) (33, 7.30511359870433810000e-003) (34, -2.09830813109874730000e-002) (35, -1.11944284290075300000e-002) (36, -7.76895806193351750000e-002) (37, 8.60720649361610410000e-002) (38, -9.90010648965835570000e-002) (39, -6.86055645346641540000e-002) (40, -6.01685568690299990000e-002) (41, 9.65051576495170590000e-002) (42, -3.24825309216976170000e-002) (43, -4.73551936447620390000e-002) (44, 1.55545221641659740000e-002) (45, 7.55613250657916070000e-003) (46, 9.97782424092292790000e-002) (47, 1.85550544410943980000e-002) (48, 7.90463760495185850000e-002) (49, 4.34306673705577850000e-002) (50, -3.98809555917978290000e-003) (51, -1.09677650034427640000e-002) (52, -5.48755228519439700000e-002) (53, -9.72526893019676210000e-002) (54, 4.94298934936523440000e-002) (55, 1.05140032246708870000e-002) (56, 4.33824025094509120000e-002) (57, -6.91676959395408630000e-002) (58, 4.98680621385574340000e-002) (59, 1.02345347404479980000e-002) (60, 3.72681058943271640000e-002) (61, -1.17678409442305560000e-002) (62, -8.03975462913513180000e-002) (63, 4.16244342923164370000e-002) (64, 3.46711054444313050000e-002) (65, -3.38858412578701970000e-003) (66, -1.17511360440403220000e-003) (67, -3.54093275964260100000e-002) (68, -6.01275227963924410000e-002) (69, -2.53890156745910640000e-002) (70, -7.63949826359748840000e-002) (71, -6.94777518510818480000e-002) (72, 6.88380748033523560000e-002) (73, 4.81313839554786680000e-002) (74, -5.94809949398040770000e-002) (75, -2.95184478163719180000e-002) (76, -7.32629150152206420000e-002) (77, 1.98907610028982160000e-002) (78, 3.16975861787796020000e-002) (79, -8.37047398090362550000e-002) (80, 7.37969875335693360000e-002) (81, 8.38698297739028930000e-002) (82, 9.16543044149875640000e-003) (83, -7.86236673593521120000e-002) (84, 2.28020437061786650000e-002) (85, -8.85921493172645570000e-002) (86, -6.17276467382907870000e-002) (87, -1.95148400962352750000e-002) (88, 8.40608701109886170000e-002) (89, 3.08206211775541310000e-002) (90, 1.13560296595096590000e-002) (91, -4.85632149502635000000e-003) (92, 3.21548953652381900000e-002) (93, -1.25649943947792050000e-002) (94, -9.82120037078857420000e-002) (95, -5.65006956458091740000e-002) (96, 5.26327081024646760000e-002) (97, -2.93523631989955900000e-002) (98, 3.76644395291805270000e-002) (99, -7.95180201530456540000e-002) (100, -8.12093392014503480000e-002) (101, -4.22423332929611210000e-003) (102, 1.38095999136567120000e-002) (103, -7.99966678023338320000e-002) (104, -6.31058514118194580000e-002) (105, -3.73979061841964720000e-002) (106, 9.30640660226345060000e-003) (107, -4.57102432847023010000e-002) (108, -2.48701013624668120000e-002) (109, -3.40185314416885380000e-002) (110, -1.56955868005752560000e-002) (111, -5.01806586980819700000e-002) (112, -6.71397224068641660000e-002) (113, -3.91191244125366210000e-003) (114, -5.98171427845954900000e-002) (115, -8.15878361463546750000e-002) (116, -9.94550585746765140000e-002) (117, -1.03082023561000820000e-001) (118, 7.17244744300842290000e-002) (119, -7.43534490466117860000e-002) (120, 2.18831375241279600000e-002) (121, 6.15659318864345550000e-002) (122, 7.12174624204635620000e-002) (123, 4.32550460100173950000e-002) (124, -6.80238232016563420000e-002) (125, 1.61595512181520460000e-002) (126, 7.98944756388664250000e-002) (127, 8.87963846325874330000e-002) (128, 5.13317957520484920000e-002) (0, 8.37902873754501340000e-002) (1, 1.06033235788345340000e-002) (2, -5.70724494755268100000e-002) (3, -1.36871160939335820000e-002) (4, 8.65510329604148860000e-002) (5, -5.05825318396091460000e-002) (6, -2.49081216752529140000e-002) (7, 4.96972501277923580000e-002) (8, 1.14080021157860760000e-002) (9, -7.28944614529609680000e-002) (10, -3.95535528659820560000e-002) (11, -8.44474136829376220000e-002) (12, -1.02812282741069790000e-001) (13, 4.85356226563453670000e-002) (14, 7.50396493822336200000e-003) (15, 2.92040482163429260000e-002) (16, -2.74267699569463730000e-002) (17, 4.09580320119857790000e-002) (18, 4.78595010936260220000e-002) (19, 2.34736576676368710000e-002) (20, 2.57638953626155850000e-002) (21, -9.53200310468673710000e-002) (22, 7.54654556512832640000e-002) (23, -3.44269163906574250000e-002) (24, 5.83119913935661320000e-002) (25, 4.99005056917667390000e-002) (26, -3.79530489444732670000e-002) (27, -4.12723943591117860000e-002) (28, 2.12051719427108760000e-002) (29, 5.76617978513240810000e-002) (30, 3.74207682907581330000e-002) (31, 5.17289526760578160000e-002) (32, -2.79544871300458910000e-002) (33, 6.33183047175407410000e-002) (34, -1.03134006261825560000e-001) (35, 8.18555534351617100000e-004) (36, -1.03779271245002750000e-001) (37, 2.07792036235332490000e-002) (38, -3.18219959735870360000e-002) (39, 8.87598320841789250000e-002) (40, 7.55586847662925720000e-002) (41, -1.63872931152582170000e-002) (42, -5.61255328357219700000e-002) (43, -8.83705988526344300000e-002) (44, 5.73775079101324080000e-003) (45, 5.82563020288944240000e-002) (46, 8.79646018147468570000e-002) (47, 3.00318542867898940000e-002) (48, 5.56098669767379760000e-002) (49, -3.84548604488372800000e-002) (50, 7.25080221891403200000e-002) (51, 1.07917584478855130000e-001) (52, 7.86467492580413820000e-002) (53, -6.82888850569725040000e-002) (54, -5.15074096620082860000e-002) (55, 3.93516123294830320000e-002) (56, 2.08193864673376080000e-002) (57, 1.82137768715620040000e-002) (58, -1.81607902050018310000e-002) (59, -1.91467981785535810000e-002) (60, 8.34728702902793880000e-002) (61, -8.81934911012649540000e-002) (62, -1.03457132354378700000e-002) (63, -9.00952070951461790000e-002) (64, 2.65622641891241070000e-002) (65, -1.52694489806890490000e-002) (66, 9.38168242573738100000e-002) (67, -6.72698095440864560000e-002) (68, 5.24689769372344020000e-003) (69, 3.64723987877368930000e-002) (70, -1.34449927136301990000e-002) (71, -2.34983563423156740000e-002) (72, -1.06639839708805080000e-001) (73, 7.10881948471069340000e-002) (74, 8.40148776769638060000e-002) (75, 4.32742089033126830000e-002) (76, 8.92256945371627810000e-002) (77, 1.21519749518483880000e-003) (78, -5.00235818326473240000e-002) (79, -6.66193142533302310000e-002) (80, -1.06489434838294980000e-001) (81, 8.75789448618888850000e-002) (82, -2.72118989378213880000e-002) (83, -4.94089089334011080000e-002) (84, 5.38421012461185460000e-002) (85, 7.11587294936180110000e-002) (86, -7.10306465625762940000e-002) (87, -5.58396279811859130000e-002) (88, -4.86976802349090580000e-002) (89, -3.40613052248954770000e-002) (90, 2.27857660502195360000e-003) (91, -8.74606370925903320000e-002) (92, -8.09320509433746340000e-002) (93, 2.22331043332815170000e-002) (94, 4.56847473978996280000e-002) (95, -6.45014420151710510000e-002) (96, -4.86025363206863400000e-002) (97, -1.03823639452457430000e-001) (98, -5.75280673801898960000e-002) (99, 3.11052985489368440000e-002) (100, -5.08928038179874420000e-002) (101, -4.10258062183856960000e-002) (102, -1.05128781870007510000e-002) (103, 2.49678958207368850000e-002) (104, -8.35747122764587400000e-002) (105, -3.61788757145404820000e-002) (106, -8.73159093316644430000e-004) (107, 2.25683394819498060000e-002) (108, -5.91926090419292450000e-002) (109, -9.49099957942962650000e-002) (110, 8.72166901826858520000e-002) (111, 7.68898203969001770000e-002) (112, -9.03699621558189390000e-002) (113, 4.64808270335197450000e-002) (114, 8.07756260037422180000e-002) (115, 5.26872240006923680000e-002) (116, 5.17048761248588560000e-002) (117, 5.38595356047153470000e-002) (118, -2.24131923168897630000e-002) (119, -2.34058760106563570000e-002) (120, -6.82370588183403020000e-002) (121, 3.77251952886581420000e-003) (122, -9.15945395827293400000e-002) (123, 1.22627811506390570000e-002) (124, 8.50336067378520970000e-003) (125, 1.15887285210192200000e-003) (126, 4.46193711832165720000e-003) (127, -4.51174229383468630000e-002) (128, 9.95308160781860350000e-003) (129, -8.11305642127990720000e-001) (130, 3.11552703380584720000e-001) (131, 1.04271575808525090000e-001) (132, 2.01975449919700620000e-001) (133, 4.48583774268627170000e-002) (134, 9.46104899048805240000e-002) (135, 1.85070425271987920000e-001) (136, 2.05444499850273130000e-001) (137, 5.38013339042663570000e-001) (129, 9.89808976650238040000e-001) (130, -2.93308258056640630000e-001) (131, 3.95957678556442260000e-002) (132, 4.33432608842849730000e-002) (133, 8.31900686025619510000e-002) (134, 3.81180830299854280000e-002) (135, 5.24451397359371190000e-002) (136, 4.87593039870262150000e-002) (137, 1.05424538254737850000e-001) 
