FANN_FLO_2.1
num_layers=3
learning_rate=0.700000
connection_rate=1.000000
network_type=0
learning_momentum=0.000000
training_algorithm=3
train_error_function=1
train_stop_function=0
cascade_output_change_fraction=0.010000
quickprop_decay=-0.000100
quickprop_mu=1.750000
rprop_increase_factor=1.200000
rprop_decrease_factor=0.500000
rprop_delta_min=0.000000
rprop_delta_max=50.000000
rprop_delta_zero=0.100000
cascade_output_stagnation_epochs=12
cascade_candidate_change_fraction=0.010000
cascade_candidate_stagnation_epochs=12
cascade_max_out_epochs=150
cascade_max_cand_epochs=150
cascade_num_candidate_groups=2
bit_fail_limit=3.49999994039535520000e-001
cascade_candidate_limit=1.00000000000000000000e+003
cascade_weight_multiplier=4.00000005960464480000e-001
cascade_activation_functions_count=10
cascade_activation_functions=3 5 7 8 10 11 14 15 16 17 
cascade_activation_steepnesses_count=4
cascade_activation_steepnesses=2.50000000000000000000e-001 5.00000000000000000000e-001 7.50000000000000000000e-001 1.00000000000000000000e+000 
layer_sizes=129 9 3 
scale_included=0
neurons (num_inputs, activation_function, activation_steepness)=(0, 0, 0.00000000000000000000e+000) (0, 0, 0.00000000000000000000e+000) (0, 0, 0.00000000000000000000e+000) (0, 0, 0.00000000000000000000e+000) (0, 0, 0.00000000000000000000e+000) (0, 0, 0.00000000000000000000e+000) (0, 0, 0.00000000000000000000e+000) (0, 0, 0.00000000000000000000e+000) (0, 0, 0.00000000000000000000e+000) (0, 0, 0.00000000000000000000e+000) (0, 0, 0.00000000000000000000e+000) (0, 0, 0.00000000000000000000e+000) (0, 0, 0.00000000000000000000e+000) (0, 0, 0.00000000000000000000e+000) (0, 0, 0.00000000000000000000e+000) (0, 0, 0.00000000000000000000e+000) (0, 0, 0.00000000000000000000e+000) (0, 0, 0.00000000000000000000e+000) (0, 0, 0.00000000000000000000e+000) (0, 0, 0.00000000000000000000e+000) (0, 0, 0.00000000000000000000e+000) (0, 0, 0.00000000000000000000e+000) (0, 0, 0.00000000000000000000e+000) (0, 0, 0.00000000000000000000e+000) (0, 0, 0.00000000000000000000e+000) (0, 0, 0.00000000000000000000e+000) (0, 0, 0.00000000000000000000e+000) (0, 0, 0.00000000000000000000e+000) (0, 0, 0.00000000000000000000e+000) (0, 0, 0.00000000000000000000e+000) (0, 0, 0.00000000000000000000e+000) (0, 0, 0.00000000000000000000e+000) (0, 0, 0.00000000000000000000e+000) (0, 0, 0.00000000000000000000e+000) (0, 0, 0.00000000000000000000e+000) (0, 0, 0.00000000000000000000e+000) (0, 0, 0.00000000000000000000e+000) (0, 0, 0.00000000000000000000e+000) (0, 0, 0.00000000000000000000e+000) (0, 0, 0.00000000000000000000e+000) (0, 0, 0.00000000000000000000e+000) (0, 0, 0.00000000000000000000e+000) (0, 0, 0.00000000000000000000e+000) (0, 0, 0.00000000000000000000e+000) (0, 0, 0.00000000000000000000e+000) (0, 0, 0.00000000000000000000e+000) (0, 0, 0.00000000000000000000e+000) (0, 0, 0.00000000000000000000e+000) (0, 0, 0.00000000000000000000e+000) (0, 0, 0.00000000000000000000e+000) (0, 0, 0.00000000000000000000e+000) (0, 0, 0.00000000000000000000e+000) (0, 0, 0.00000000000000000000e+000) (0, 0, 0.00000000000000000000e+000) (0, 0, 0.00000000000000000000e+000) (0, 0, 0.00000000000000000000e+000) (0, 0, 0.00000000000000000000e+000) (0, 0, 0.00000000000000000000e+000) (0, 0, 0.00000000000000000000e+000) (0, 0, 0.00000000000000000000e+000) (0, 0, 0.00000000000000000000e+000) (0, 0, 0.00000000000000000000e+000) (0, 0, 0.00000000000000000000e+000) (0, 0, 0.00000000000000000000e+000) (0, 0, 0.00000000000000000000e+000) (0, 0, 0.00000000000000000000e+000) (0, 0, 0.00000000000000000000e+000) (0, 0, 0.00000000000000000000e+000) (0, 0, 0.00000000000000000000e+000) (0, 0, 0.00000000000000000000e+000) (0, 0, 0.00000000000000000000e+000) (0, 0, 0.00000000000000000000e+000) (0, 0, 0.00000000000000000000e+000) (0, 0, 0.00000000000000000000e+000) (0, 0, 0.00000000000000000000e+000) (0, 0, 0.00000000000000000000e+000) (0, 0, 0.00000000000000000000e+000) (0, 0, 0.00000000000000000000e+000) (0, 0, 0.00000000000000000000e+000) (0, 0, 0.00000000000000000000e+000) (0, 0, 0.00000000000000000000e+000) (0, 0, 0.00000000000000000000e+000) (0, 0, 0.00000000000000000000e+000) (0, 0, 0.00000000000000000000e+000) (0, 0, 0.00000000000000000000e+000) (0, 0, 0.00000000000000000000e+000) (0, 0, 0.00000000000000000000e+000) (0, 0, 0.00000000000000000000e+000) (0, 0, 0.00000000000000000000e+000) (0, 0, 0.00000000000000000000e+000) (0, 0, 0.00000000000000000000e+000) (0, 0, 0.00000000000000000000e+000) (0, 0, 0.00000000000000000000e+000) (0, 0, 0.00000000000000000000e+000) (0, 0, 0.00000000000000000000e+000) (0, 0, 0.00000000000000000000e+000) (0, 0, 0.00000000000000000000e+000) (0, 0, 0.00000000000000000000e+000) (0, 0, 0.00000000000000000000e+000) (0, 0, 0.00000000000000000000e+000) (0, 0, 0.00000000000000000000e+000) (0, 0, 0.00000000000000000000e+000) (0, 0, 0.00000000000000000000e+000) (0, 0, 0.00000000000000000000e+000) (0, 0, 0.00000000000000000000e+000) (0, 0, 0.00000000000000000000e+000) (0, 0, 0.00000000000000000000e+000) (0, 0, 0.00000000000000000000e+000) (0, 0, 0.00000000000000000000e+000) (0, 0, 0.00000000000000000000e+000) (0, 0, 0.00000000000000000000e+000) (0, 0, 0.00000000000000000000e+000) (0, 0, 0.00000000000000000000e+000) (0, 0, 0.00000000000000000000e+000) (0, 0, 0.00000000000000000000e+000) (0, 0, 0.00000000000000000000e+000) (0, 0, 0.00000000000000000000e+000) (0, 0, 0.00000000000000000000e+000) (0, 0, 0.00000000000000000000e+000) (0, 0, 0.00000000000000000000e+000) (0, 0, 0.00000000000000000000e+000) (0, 0, 0.00000000000000000000e+000) (0, 0, 0.00000000000000000000e+000) (0, 0, 0.00000000000000000000e+000) (0, 0, 0.00000000000000000000e+000) (0, 0, 0.00000000000000000000e+000) (0, 0, 0.00000000000000000000e+000) (0, 0, 0.00000000000000000000e+000) (0, 0, 0.00000000000000000000e+000) (129, 4, 1.10000002384185790000e+000) (129, 4, 1.10000002384185790000e+000) (129, 4, 1.10000002384185790000e+000) (129, 4, 1.10000002384185790000e+000) (129, 4, 1.10000002384185790000e+000) (129, 4, 1.10000002384185790000e+000) (129, 4, 1.10000002384185790000e+000) (129, 4, 1.10000002384185790000e+000) (0, 4, 1.10000002384185790000e+000) (9, 5, 1.00000000000000000000e+000) (9, 5, 1.00000000000000000000e+000) (0, 5, 1.00000000000000000000e+000) 
connections (connected_to_neuron, weight)=(0, 1.38570740818977360000e-002) (1, -5.86633801460266110000e-001) (2, 1.02107733488082890000e-001) (3, 5.33488877117633820000e-002) (4, 6.56031370162963870000e-002) (5, -3.69467884302139280000e-002) (6, -9.87489223480224610000e-002) (7, -2.75683309882879260000e-002) (8, -1.27856642007827760000e-001) (9, 9.91362631320953370000e-002) (10, 6.26776739954948430000e-002) (11, 7.01145604252815250000e-002) (12, -1.04312129318714140000e-001) (13, 4.90678884088993070000e-002) (14, 2.41641774773597720000e-002) (15, -1.27168465405702590000e-002) (16, 2.44419323280453680000e-003) (17, -2.96430438756942750000e-001) (18, -4.35999594628810880000e-002) (19, 9.11450237035751340000e-002) (20, -2.70681381225585940000e-002) (21, 3.27216774225234990000e-001) (22, 2.78793811798095700000e-001) (23, 3.18313866853713990000e-001) (24, -6.70126795768737790000e-001) (25, -9.86759066581726070000e-002) (26, -3.89707018621265890000e-003) (27, 6.53482377529144290000e-001) (28, -4.68149920925498010000e-003) (29, 6.89836218953132630000e-002) (30, 1.30945891141891480000e-002) (31, 8.39911922812461850000e-002) (32, 2.51675695180892940000e-001) (33, 2.45459675788879390000e-002) (34, -2.07569636404514310000e-002) (35, 3.35361152887344360000e-001) (36, 1.95591613650321960000e-001) (37, 2.33983937650918960000e-002) (38, -1.60009011626243590000e-001) (39, -3.57159115374088290000e-002) (40, 2.34385859221220020000e-002) (41, -6.50099366903305050000e-002) (42, -3.76797795295715330000e-001) (43, -1.82535678148269650000e-001) (44, 1.17250308394432070000e-002) (45, -8.68002325296401980000e-002) (46, -2.05623637884855270000e-002) (47, -1.23183997347950940000e-002) (48, -7.61717110872268680000e-002) (49, -1.44684836268424990000e-001) (50, -2.57298108190298080000e-002) (51, 6.84193551540374760000e-001) (52, -4.27996933460235600000e-001) (53, -3.13496738672256470000e-002) (54, -2.27294545620679860000e-002) (55, 7.30360746383666990000e-002) (56, 1.81969311088323590000e-002) (57, 7.96785205602645870000e-002) (58, 4.57609593868255620000e-001) (59, -3.42709980905056000000e-002) (60, 5.00134527683258060000e-001) (61, -1.13800249993801120000e-001) (62, -9.94416251778602600000e-002) (63, 5.95872215926647190000e-002) (64, 2.83275847323238850000e-003) (65, 5.76843976974487300000e-001) (66, 2.01795389875769620000e-003) (67, -3.36260087788105010000e-002) (68, 4.53601509332656860000e-001) (69, -5.27192838490009310000e-002) (70, 9.75988581776618960000e-002) (71, 2.47161649167537690000e-003) (72, -5.12616662308573720000e-003) (73, 3.62134650349617000000e-002) (74, 9.51408147811889650000e-002) (75, 6.18336431216448550000e-004) (76, 8.37606098502874370000e-003) (77, 7.52856880426406860000e-002) (78, 7.87417590618133540000e-002) (79, 4.74541746079921720000e-002) (80, -5.86534217000007630000e-002) (81, -4.27293717861175540000e-001) (82, 2.44453892111778260000e-001) (83, 1.44316971302032470000e+000) (84, 2.46581528335809710000e-002) (85, -1.71784814447164540000e-002) (86, -6.32405499345622960000e-005) (87, 5.06493113934993740000e-002) (88, -5.04427738487720490000e-002) (89, -1.02794647216796870000e-001) (90, 5.64422793686389920000e-002) (91, 1.02936238050460820000e-001) (92, 1.08228564262390140000e-001) (93, -1.07397111132740970000e-002) (94, 1.42499376088380810000e-002) (95, -2.53902263939380650000e-002) (96, 1.46773876622319220000e-002) (97, 1.03259548544883730000e-001) (98, 2.44151785969734190000e-001) (99, 6.57371461391448970000e-001) (100, 5.50453849136829380000e-002) (101, -4.50305268168449400000e-002) (102, 8.08535888791084290000e-002) (103, 1.54999315738677980000e-001) (104, -4.72055524587631230000e-002) (105, 1.01354070007801060000e-001) (106, 8.89099538326263430000e-002) (107, -3.46492864191532140000e-002) (108, 1.29056096076965330000e-001) (109, 6.41162097454071040000e-002) (110, 7.02280178666114810000e-002) (111, 4.85961362719535830000e-002) (112, 6.10351078212261200000e-002) (113, 7.87339136004447940000e-002) (114, 4.18051294982433320000e-002) (115, -9.11969542503356930000e-002) (116, -7.37191140651702880000e-002) (117, 6.35260567069053650000e-002) (118, -6.77478790748864410000e-004) (119, 1.01822577416896820000e-001) (120, -1.00459279492497440000e-002) (121, 5.66127970814704900000e-002) (122, 1.08512274920940400000e-001) (123, -3.37155791930854320000e-003) (124, 1.00271984934806820000e-001) (125, -8.81270766258239750000e-002) (126, 6.81055560708045960000e-002) (127, -6.81018158793449400000e-002) (128, -1.27234265208244320000e-001) (0, 4.62586618959903720000e-003) (1, 1.69965601526200770000e-003) (2, 4.99075353145599370000e-002) (3, -9.28464606404304500000e-002) (4, 4.54717464745044710000e-002) (5, -8.27569589018821720000e-002) (6, -6.66116699576377870000e-002) (7, -7.57591500878334050000e-002) (8, -4.93258610367774960000e-002) (9, 3.37063148617744450000e-002) (10, -1.18953064084053040000e-002) (11, -2.17073434032499790000e-003) (12, -1.08123803511261940000e-002) (13, -6.31157681345939640000e-002) (14, 3.35595011711120610000e-002) (15, -1.83159450534731150000e-003) (16, -6.88174888491630550000e-002) (17, -8.82961750030517580000e-002) (18, -7.99401327967643740000e-002) (19, -1.02804988622665410000e-001) (20, -9.01011750102043150000e-002) (21, 4.45837005972862240000e-002) (22, -5.73004521429538730000e-002) (23, -1.32771609351038930000e-002) (24, -7.76906907558441160000e-002) (25, 7.12727531790733340000e-002) (26, -1.07343181967735290000e-001) (27, 2.67924685031175610000e-002) (28, 5.68604469299316410000e-002) (29, 9.88954491913318630000e-003) (30, -5.60312420129776000000e-002) (31, 5.81734962761402130000e-002) (32, -8.07668715715408330000e-002) (33, 5.71541078388690950000e-002) (34, -8.56782048940658570000e-002) (35, 8.46943035721778870000e-002) (36, -7.42774084210395810000e-002) (37, -1.50762975215911870000e-001) (38, -1.41425982117652890000e-001) (39, 1.96578036993741990000e-002) (40, -5.15255220234394070000e-002) (41, -2.42860261350870130000e-002) (42, 1.16688236594200130000e-002) (43, 5.84058798849582670000e-002) (44, -2.29343529790639880000e-002) (45, -1.25480070710182190000e-002) (46, -1.16917490959167480000e-001) (47, -2.08569001406431200000e-002) (48, -5.50266765058040620000e-002) (49, 4.91185300052165990000e-002) (50, 6.29799664020538330000e-002) (51, -7.14348182082176210000e-002) (52, -9.58243012428283690000e-002) (53, -3.03301662206649780000e-002) (54, -1.21542342007160190000e-001) (55, 5.44588267803192140000e-002) (56, -6.41690045595169070000e-002) (57, -1.10069513320922850000e-002) (58, -8.22110250592231750000e-002) (59, 5.72394877672195430000e-002) (60, 4.43233512341976170000e-002) (61, 3.45351770520210270000e-002) (62, 4.88753914833068850000e-002) (63, 1.46487988531589510000e-002) (64, 4.16739843785762790000e-003) (65, -6.27861842513084410000e-002) (66, -1.77266616374254230000e-002) (67, 2.24417466670274730000e-002) (68, 6.44483184441924100000e-003) (69, -9.17227789759635930000e-002) (70, 1.80102267768234010000e-003) (71, 2.27570887655019760000e-002) (72, -6.52781352400779720000e-002) (73, 3.06416116654872890000e-002) (74, 7.83881694078445430000e-002) (75, 4.51382696628570560000e-002) (76, -9.67540144920349120000e-002) (77, 7.63757526874542240000e-002) (78, -4.88681830465793610000e-002) (79, 9.57267135381698610000e-002) (80, 3.31612266600131990000e-002) (81, 2.17415839433670040000e-002) (82, 8.18515382707118990000e-003) (83, 8.73148441314697270000e-003) (84, 7.45494244620203970000e-003) (85, 8.41607674956321720000e-002) (86, -8.25767964124679570000e-002) (87, 1.46368369460105900000e-002) (88, 8.48472267389297490000e-002) (89, -9.71253663301467900000e-002) (90, -2.20822915434837340000e-002) (91, -7.73945003747940060000e-002) (92, -9.29117351770401000000e-002) (93, 7.02241063117980960000e-002) (94, 1.45626831799745560000e-002) (95, -4.48503065854310990000e-003) (96, -2.51568574458360670000e-002) (97, 4.79594208300113680000e-002) (98, -9.46931019425392150000e-002) (99, -7.95286446809768680000e-002) (100, 2.17927955090999600000e-002) (101, 8.63188970834016800000e-003) (102, -9.21578779816627500000e-002) (103, 2.25122421979904170000e-002) (104, 6.91156536340713500000e-002) (105, -9.55410003662109380000e-002) (106, -1.27115994691848750000e-002) (107, 2.12040767073631290000e-002) (108, -4.45525348186492920000e-003) (109, -3.02669685333967210000e-002) (110, -9.00226235389709470000e-002) (111, -9.28257852792739870000e-002) (112, -5.61967678368091580000e-002) (113, -4.71789436414837840000e-003) (114, 2.48496104031801220000e-002) (115, -7.13200271129608150000e-002) (116, 9.48281362652778630000e-002) (117, -7.87523761391639710000e-002) (118, 8.42844173312187190000e-002) (119, -6.06185458600521090000e-002) (120, 4.61705587804317470000e-002) (121, -7.25723877549171450000e-002) (122, -1.94690711796283720000e-002) (123, -6.33678138256073000000e-002) (124, 3.49641367793083190000e-002) (125, -9.26382988691329960000e-002) (126, 3.64948846399784090000e-002) (127, 2.62303762137889860000e-002) (128, -1.39195129275321960000e-001) (0, -2.13993042707443240000e-002) (1, 9.16036516427993770000e-002) (2, -1.66677422821521760000e-002) (3, -2.63138636946678160000e-002) (4, 5.34749403595924380000e-002) (5, 4.32067103683948520000e-002) (6, 5.17452973872423170000e-003) (7, 1.85236129909753800000e-002) (8, 3.43002229928970340000e-002) (9, -3.51594686508178710000e-002) (10, -3.54117490351200100000e-002) (11, 9.45597961544990540000e-002) (12, -6.67988136410713200000e-002) (13, 5.82428313791751860000e-002) (14, -1.58271193504333500000e-002) (15, 5.69143183529376980000e-002) (16, 5.94169646501541140000e-002) (17, 2.59429931640625000000e-001) (18, 1.23589411377906800000e-001) (19, 7.06512108445167540000e-002) (20, -4.03675846755504610000e-002) (21, -1.07328765094280240000e-001) (22, -2.96487897634506230000e-001) (23, 6.58742189407348630000e-002) (24, 3.53919970802962780000e-003) (25, -4.12453263998031620000e-002) (26, 4.07444983720779420000e-002) (27, -5.37122339010238650000e-002) (28, -2.48148441314697270000e-002) (29, -6.96273520588874820000e-002) (30, -9.84811410307884220000e-002) (31, 1.29008330404758450000e-002) (32, 5.98373524844646450000e-002) (33, 4.84998002648353580000e-002) (34, -8.43379124999046330000e-002) (35, 6.13039359450340270000e-002) (36, -9.99480858445167540000e-002) (37, -8.42573344707489010000e-002) (38, -8.05067270994186400000e-002) (39, -3.50374430418014530000e-002) (40, -1.01146198809146880000e-001) (41, 1.04923900216817860000e-002) (42, 1.58083662390708920000e-001) (43, -2.91821975260972980000e-002) (44, -2.00224760919809340000e-002) (45, -5.58181069791316990000e-002) (46, -8.01360756158828740000e-002) (47, -4.08252254128456120000e-002) (48, 1.22694320976734160000e-001) (49, 9.86928469501435760000e-004) (50, 7.45750591158866880000e-002) (51, -7.91857913136482240000e-002) (52, 7.47232884168624880000e-002) (53, -1.94792952388525010000e-002) (54, -8.10258612036705020000e-002) (55, -9.35691893100738530000e-002) (56, 6.37539103627204900000e-002) (57, -6.85564652085304260000e-002) (58, -7.14834034442901610000e-002) (59, -3.83434891700744630000e-002) (60, 6.75619393587112430000e-002) (61, 9.82704758644104000000e-002) (62, 1.04711920022964480000e-001) (63, 1.63152925670146940000e-002) (64, 3.89787182211875920000e-002) (65, -1.65658459067344670000e-001) (66, -3.09233348816633220000e-002) (67, 2.34895218163728710000e-002) (68, -1.05648271739482880000e-001) (69, 2.36185919493436810000e-002) (70, -3.62530797719955440000e-002) (71, 3.40793989598751070000e-002) (72, -8.27727913856506350000e-002) (73, -4.46198880672454830000e-002) (74, -1.01749427616596220000e-001) (75, -9.21282917261123660000e-002) (76, 6.91874548792839050000e-002) (77, -8.92084538936614990000e-002) (78, -4.88411821424961090000e-002) (79, -2.33852192759513850000e-002) (80, -5.61366640031337740000e-002) (81, 6.40758275985717770000e-002) (82, -2.48722717165946960000e-001) (83, -3.92838977277278900000e-002) (84, 3.45976627431809900000e-003) (85, 1.09350308775901790000e-001) (86, 1.70040410012006760000e-002) (87, -3.47190275788307190000e-002) (88, -9.59259569644927980000e-002) (89, -4.30116206407547000000e-002) (90, 6.70229718089103700000e-002) (91, -9.58343073725700380000e-002) (92, 6.03745051193982360000e-004) (93, -1.16039082407951350000e-001) (94, 4.19219583272933960000e-002) (95, 3.18201482295989990000e-002) (96, -1.43420044332742690000e-002) (97, -1.46326005458831790000e-001) (98, -6.58565536141395570000e-002) (99, -1.47940367460250850000e-001) (100, -7.43601471185684200000e-002) (101, -2.93939728289842610000e-002) (102, -8.07440578937530520000e-002) (103, 9.60040651261806490000e-003) (104, 2.18413993716239930000e-002) (105, -8.08098688721656800000e-002) (106, -4.98253554105758670000e-002) (107, -6.69944211840629580000e-002) (108, 5.70487752556800840000e-002) (109, -1.34619474411010740000e-001) (110, -1.21266424655914310000e-001) (111, -6.68861716985702510000e-002) (112, 1.08916170895099640000e-001) (113, 3.45896258950233460000e-002) (114, -9.73709113895893100000e-003) (115, 1.83269521221518520000e-003) (116, 4.70258034765720370000e-002) (117, 6.28519207239151000000e-002) (118, 5.66824674606323240000e-002) (119, -2.26280186325311660000e-002) (120, -5.41923940181732180000e-002) (121, -1.06166005134582520000e-001) (122, -6.12314492464065550000e-002) (123, -2.83512677997350690000e-002) (124, -3.54530215263366700000e-002) (125, 6.32199943065643310000e-002) (126, 4.75079119205474850000e-002) (127, -3.62483225762844090000e-002) (128, 3.16187292337417600000e-002) (0, -6.97278156876564030000e-002) (1, -8.37045311927795410000e-002) (2, -2.52208914607763290000e-002) (3, -7.36155509948730470000e-002) (4, 7.39949643611907960000e-002) (5, -3.57309691607952120000e-002) (6, 9.14409756660461430000e-002) (7, -9.02986973524093630000e-002) (8, 9.03889629989862440000e-003) (9, 2.95576150529086590000e-003) (10, -2.52694003283977510000e-002) (11, -3.52854281663894650000e-002) (12, -3.38840000331401820000e-002) (13, -6.21259771287441250000e-002) (14, -9.34363603591918950000e-002) (15, -6.03356100618839260000e-002) (16, 6.80261924862861630000e-002) (17, 7.75174573063850400000e-002) (18, -7.17170163989067080000e-002) (19, 2.16277632862329480000e-002) (20, -3.55545021593570710000e-002) (21, -2.80463118106126790000e-002) (22, -3.04185301065444950000e-002) (23, 6.41635507345199580000e-002) (24, -3.97530607879161830000e-002) (25, -8.67523550987243650000e-002) (26, -6.14211931824684140000e-002) (27, 3.52345518767833710000e-002) (28, -7.91658908128738400000e-002) (29, 3.60904075205326080000e-002) (30, -9.35772508382797240000e-002) (31, 1.95369077846407890000e-003) (32, 8.62511917948722840000e-002) (33, -6.59261867403984070000e-002) (34, -4.73241917788982390000e-002) (35, 1.00140795111656190000e-002) (36, 1.90533902496099470000e-002) (37, -5.00755161046981810000e-002) (38, -2.89089530706405640000e-002) (39, -8.33201110363006590000e-002) (40, -4.87685687839984890000e-002) (41, -6.76952973008155820000e-002) (42, 6.06636479496955870000e-002) (43, 8.41344147920608520000e-002) (44, -4.05534654855728150000e-002) (45, -9.59773510694503780000e-002) (46, -6.70524984598159790000e-002) (47, -4.72437627613544460000e-002) (48, -1.00500427186489110000e-001) (49, -7.63545110821723940000e-002) (50, -3.01302932202816010000e-002) (51, -2.74592693895101550000e-002) (52, 7.23216906189918520000e-002) (53, -9.21882539987564090000e-002) (54, 9.71329137682914730000e-002) (55, 7.30261057615280150000e-002) (56, 2.71653551608324050000e-002) (57, -6.94231018424034120000e-002) (58, 3.20490486919879910000e-002) (59, -6.77574500441551210000e-002) (60, 9.87981539219617840000e-003) (61, -4.80010434985160830000e-002) (62, 8.55509117245674130000e-002) (63, -4.60425019264221190000e-003) (64, 6.29386603832244870000e-002) (65, -8.31379666924476620000e-002) (66, -9.40238088369369510000e-002) (67, 9.13896113634109500000e-002) (68, 2.75509823113679890000e-002) (69, -3.48874330520629880000e-002) (70, 1.76957771182060240000e-002) (71, -4.02880832552909850000e-002) (72, -9.14149731397628780000e-002) (73, -8.53595286607742310000e-002) (74, 2.80104763805866240000e-002) (75, -3.77254672348499300000e-002) (76, -4.29491586983203890000e-002) (77, -9.05710682272911070000e-002) (78, -6.78312033414840700000e-003) (79, 2.46490677818655970000e-003) (80, 8.31032693386077880000e-002) (81, 3.82894165813922880000e-002) (82, 1.57988108694553380000e-002) (83, 3.04362513124942780000e-002) (84, -2.82409903593361380000e-003) (85, -7.78984576463699340000e-002) (86, -7.00046271085739140000e-002) (87, -8.24877694249153140000e-002) (88, 4.45371083915233610000e-002) (89, 5.88946789503097530000e-002) (90, 8.54601413011550900000e-002) (91, 8.21124240756034850000e-002) (92, 8.08917507529258730000e-002) (93, 3.89023288153111930000e-003) (94, 2.42765862494707110000e-002) (95, -7.74898305535316470000e-002) (96, -3.00134290009737010000e-002) (97, 5.59600293636322020000e-002) (98, 3.35521474480628970000e-002) (99, -3.09893675148487090000e-002) (100, 3.58186066150665280000e-002) (101, -4.01449762284755710000e-002) (102, -4.74713854491710660000e-002) (103, 4.53658401966094970000e-002) (104, 2.89992168545722960000e-002) (105, -9.91826802492141720000e-002) (106, -1.72437690198421480000e-002) (107, -8.81856754422187810000e-002) (108, 5.74617870151996610000e-002) (109, 2.72230654954910280000e-002) (110, -3.99570241570472720000e-002) (111, 1.59423854202032090000e-002) (112, 4.44233752787113190000e-002) (113, 3.91582259908318520000e-003) (114, 2.53488384187221530000e-002) (115, 4.20737341046333310000e-002) (116, -5.04397526383399960000e-002) (117, 3.84826287627220150000e-002) (118, 7.45974779129028320000e-002) (119, 5.45389726758003230000e-002) (120, 1.89419426023960110000e-002) (121, -4.63066771626472470000e-002) (122, -3.21739241480827330000e-002) (123, 3.65598164498806000000e-002) (124, 5.17939031124114990000e-002) (125, 1.01880161091685300000e-002) (126, -1.22691865544766190000e-003) (127, -2.19632741063833240000e-002) (128, 6.75043612718582150000e-002) (0, -9.58075001835823060000e-002) (1, -1.38351703062653540000e-002) (2, 5.99790774285793300000e-002) (3, -5.29776178300380710000e-002) (4, -3.91445085406303410000e-002) (5, -5.82933798432350160000e-002) (6, 1.01477662101387980000e-002) (7, -1.14820234477519990000e-001) (8, 3.74564640223979950000e-002) (9, -2.07235701382160190000e-002) (10, -7.23458006978034970000e-002) (11, -5.73517382144927980000e-002) (12, -7.87379518151283260000e-002) (13, 4.58010435104370120000e-002) (14, 1.33974030613899230000e-002) (15, 2.60020848363637920000e-002) (16, -1.10788717865943910000e-002) (17, -1.12768280506134030000e+000) (18, 4.95077036321163180000e-002) (19, -1.32949464023113250000e-002) (20, 4.52915951609611510000e-002) (21, -3.90501581132411960000e-002) (22, 4.04763370752334590000e-002) (23, 6.01937919855117800000e-002) (24, -1.02703303098678590000e-001) (25, -8.48847553133964540000e-002) (26, -9.84177067875862120000e-002) (27, -5.04011809825897220000e-002) (28, -9.32691097259521480000e-002) (29, 2.52194073982536790000e-003) (30, 7.18792825937271120000e-002) (31, -6.55379518866539000000e-002) (32, 8.81959199905395510000e-002) (33, 8.57823342084884640000e-002) (34, 1.90609544515609740000e-002) (35, 3.94215472042560580000e-002) (36, -1.22046023607254030000e-001) (37, -1.09250292181968690000e-001) (38, -2.78159808367490770000e-002) (39, -2.46448274701833720000e-002) (40, -1.03834666311740880000e-001) (41, -6.63347691297531130000e-002) (42, -1.58029764890670780000e-001) (43, -3.66962440311908720000e-002) (44, 3.91001515090465550000e-002) (45, 7.06135928630828860000e-002) (46, -6.42163529992103580000e-002) (47, 2.29400787502527240000e-002) (48, 9.78899188339710240000e-003) (49, -1.05759233236312870000e-001) (50, -8.50999448448419570000e-003) (51, 1.02319739758968350000e-001) (52, -1.66077688336372380000e-002) (53, 3.08803990483284000000e-002) (54, -3.67108881473541260000e-002) (55, 7.26009998470544820000e-003) (56, -4.94969822466373440000e-002) (57, 9.59135740995407100000e-002) (58, 3.16664651036262510000e-002) (59, -5.38777746260166170000e-002) (60, 1.07270501554012300000e-001) (61, 5.35558201372623440000e-002) (62, 4.27203550934791560000e-002) (63, -9.95603203773498540000e-002) (64, -7.92615488171577450000e-002) (65, 3.08971069753170010000e-002) (66, -4.72063459455966950000e-002) (67, -8.45346301794052120000e-002) (68, -2.18837503343820570000e-002) (69, 2.81990841031074520000e-002) (70, 1.46593861281871800000e-002) (71, -6.57205283641815190000e-002) (72, 1.91130191087722780000e-002) (73, 4.43739183247089390000e-002) (74, 5.80425113439559940000e-002) (75, -8.58847126364707950000e-002) (76, -2.18704286962747570000e-002) (77, -1.88427530229091640000e-002) (78, -5.36989569664001460000e-002) (79, -5.58850765228271480000e-002) (80, -1.13603875041008000000e-001) (81, -1.27308532595634460000e-001) (82, 3.65286804735660550000e-002) (83, -7.05918995663523670000e-003) (84, -7.97151327133178710000e-002) (85, 6.89432173967361450000e-002) (86, -2.24677622318267820000e-002) (87, -6.54076486825942990000e-002) (88, 4.96488716453313830000e-003) (89, 7.14991092681884770000e-002) (90, -5.74088357388973240000e-002) (91, -4.48481328785419460000e-002) (92, 2.97348182648420330000e-002) (93, 2.79721412807703020000e-002) (94, 1.10369948670268060000e-002) (95, 7.08580091595649720000e-002) (96, -9.39137041568756100000e-002) (97, -3.43901477754116060000e-002) (98, 2.96876262873411180000e-002) (99, -1.20269007980823520000e-001) (100, -8.95539447665214540000e-002) (101, -9.91732105612754820000e-002) (102, -3.82260605692863460000e-002) (103, -5.05394376814365390000e-002) (104, -5.09147904813289640000e-002) (105, -1.97607334703207020000e-002) (106, -1.69807893689721820000e-003) (107, -7.61929377913475040000e-002) (108, -7.21748620271682740000e-002) (109, 8.65076333284378050000e-002) (110, 6.02433749008923770000e-004) (111, 6.86796233057975770000e-002) (112, -8.38514342904090880000e-002) (113, -8.21693092584609990000e-002) (114, -7.07478374242782590000e-002) (115, -5.59189356863498690000e-002) (116, 5.25333136320114140000e-002) (117, -4.25326712429523470000e-002) (118, -3.28096225857734680000e-002) (119, 2.33324319124221800000e-002) (120, 2.27596610784530640000e-002) (121, 9.02764573693275450000e-002) (122, 1.06820538640022280000e-001) (123, -5.39885461330413820000e-002) (124, -4.28482471033930780000e-003) (125, -4.21628318727016450000e-002) (126, 4.04374785721302030000e-002) (127, -7.95062407851219180000e-002) (128, -8.40914919972419740000e-002) (0, -3.75524163246154790000e-002) (1, -2.33263410627841950000e-002) (2, -1.01091563701629640000e-001) (3, 1.58959720283746720000e-002) (4, 1.89782846719026570000e-002) (5, -8.85148718953132630000e-002) (6, -2.20901030115783210000e-003) (7, 7.48535841703414920000e-002) (8, -3.93691025674343110000e-002) (9, -6.43123835325241090000e-002) (10, 4.45928238332271580000e-003) (11, -4.74504008889198300000e-002) (12, 9.09246206283569340000e-002) (13, 5.72218932211399080000e-002) (14, 7.09351152181625370000e-002) (15, -2.47875391505658630000e-003) (16, 7.00081586837768550000e-002) (17, 2.54297088831663130000e-002) (18, -1.04950964450836180000e-001) (19, -4.20661568641662600000e-002) (20, 6.34567067027091980000e-003) (21, -8.33523496985435490000e-002) (22, 3.16304229199886320000e-002) (23, -1.29596650600433350000e-001) (24, 7.86805450916290280000e-002) (25, 1.17633407935500140000e-002) (26, 8.50476976484060290000e-003) (27, -3.09186615049839020000e-002) (28, 3.53931374847888950000e-002) (29, -2.07192488014698030000e-002) (30, 4.47047501802444460000e-002) (31, 1.38873336836695670000e-002) (32, 2.07244493067264560000e-002) (33, -1.15779846906661990000e-001) (34, -1.96755044162273410000e-002) (35, -5.69823533296585080000e-002) (36, -8.88689793646335600000e-003) (37, -2.59837545454502110000e-002) (38, -2.43432186543941500000e-002) (39, -4.32832688093185420000e-002) (40, -5.28481900691986080000e-002) (41, -1.47258847951889040000e-001) (42, -5.46389259397983550000e-002) (43, -1.38147339224815370000e-001) (44, 7.85407871007919310000e-002) (45, -1.10577836632728580000e-001) (46, -1.18856579065322880000e-001) (47, -1.30692362785339360000e-001) (48, -1.13730691373348240000e-001) (49, -3.94302047789096830000e-002) (50, -7.00907036662101750000e-002) (51, 9.17924195528030400000e-003) (52, -1.31738141179084780000e-001) (53, -3.74846183694899080000e-003) (54, -1.01255252957344060000e-002) (55, -3.68909426033496860000e-002) (56, -3.23712900280952450000e-002) (57, -1.14263527095317840000e-001) (58, -4.57774884998798370000e-002) (59, 1.45046599209308620000e-003) (60, -5.46948276460170750000e-002) (61, -9.65209752321243290000e-002) (62, -1.84615962207317350000e-002) (63, -8.45215171575546260000e-002) (64, -4.43838089704513550000e-002) (65, -9.80812013149261470000e-002) (66, -1.00168548524379730000e-001) (67, -8.62544924020767210000e-002) (68, 4.20509791001677510000e-003) (69, -8.03029090166091920000e-002) (70, -1.14240318536758420000e-001) (71, -6.83492720127105710000e-002) (72, -8.68011731654405590000e-003) (73, -4.36417385935783390000e-002) (74, -8.45661908388137820000e-002) (75, -3.75083461403846740000e-002) (76, -3.28491404652595520000e-002) (77, -5.88246844708919530000e-002) (78, -8.39565172791481020000e-002) (79, -4.99848164618015290000e-002) (80, -9.55919995903968810000e-002) (81, 2.40208618342876430000e-002) (82, -1.85694396495819090000e-002) (83, 2.63862777501344680000e-002) (84, -1.82450171560049060000e-002) (85, -3.92395420931279660000e-004) (86, -9.44937616586685180000e-002) (87, -6.34035542607307430000e-002) (88, 6.97161480784416200000e-002) (89, -6.01603351533412930000e-002) (90, 8.75469818711280820000e-002) (91, -8.65221843123435970000e-002) (92, 7.01303109526634220000e-002) (93, 8.26227590441703800000e-002) (94, 9.57608222961425780000e-002) (95, 4.07232642173767090000e-002) (96, 5.68829029798507690000e-002) (97, -2.20376942306756970000e-002) (98, 2.63519883155822750000e-002) (99, -7.41468667984008790000e-002) (100, 8.22057276964187620000e-002) (101, -6.82912841439247130000e-002) (102, 1.74888614565134050000e-002) (103, 2.40673683583736420000e-002) (104, 6.52909427881240840000e-002) (105, 9.65814441442489620000e-002) (106, 7.06469872966408730000e-005) (107, -7.31756761670112610000e-002) (108, 8.29415470361709590000e-002) (109, -4.74325269460678100000e-002) (110, -6.64354786276817320000e-002) (111, -2.13390737771987920000e-002) (112, -9.76653546094894410000e-002) (113, -8.69245752692222600000e-002) (114, 6.43066465854644780000e-002) (115, 2.03129779547452930000e-002) (116, 6.76496252417564390000e-002) (117, -2.11849436163902280000e-002) (118, 5.07199838757514950000e-002) (119, 9.53576788306236270000e-002) (120, 4.55470420420169830000e-002) (121, -1.98476854711771010000e-002) (122, 4.63373698294162750000e-002) (123, 2.34739650040864940000e-002) (124, 1.71253141015768050000e-002) (125, -6.97683542966842650000e-002) (126, 1.22474515810608860000e-002) (127, -2.38171592354774480000e-002) (128, -5.43673038482666020000e-002) (0, -6.20183162391185760000e-002) (1, 1.87652949243783950000e-002) (2, 4.10694256424903870000e-002) (3, -8.74181687831878660000e-002) (4, 7.73130655288696290000e-002) (5, 1.82816088199615480000e-002) (6, -3.45166102051734920000e-002) (7, 5.51105029881000520000e-002) (8, 4.46919389069080350000e-002) (9, -4.38769608736038210000e-002) (10, -4.88210953772068020000e-002) (11, -3.94386425614356990000e-002) (12, 7.88762513548135760000e-003) (13, 2.01188214123249050000e-002) (14, 6.23302236199378970000e-002) (15, 2.43236962705850600000e-002) (16, 1.82736031711101530000e-002) (17, -8.67432728409767150000e-002) (18, -3.37514691054821010000e-002) (19, 8.64010453224182130000e-002) (20, -3.55977080762386320000e-002) (21, 3.13285589218139650000e-002) (22, -3.10820620507001880000e-002) (23, 5.03554521128535270000e-003) (24, -1.73921938985586170000e-002) (25, -4.59746271371841430000e-002) (26, -3.46585176885128020000e-002) (27, 7.99221619963645940000e-002) (28, 9.98605228960514070000e-003) (29, -1.43434843048453330000e-002) (30, 2.98629365861415860000e-002) (31, 6.89755380153656010000e-002) (32, -1.87364239245653150000e-002) (33, 9.13994107395410540000e-003) (34, -1.65637601166963580000e-002) (35, -1.84087790548801420000e-002) (36, -6.80967345833778380000e-002) (37, 8.34147334098815920000e-002) (38, -9.11082476377487180000e-002) (39, -9.14683416485786440000e-002) (40, -5.55780902504920960000e-002) (41, 8.71442258358001710000e-002) (42, -2.23326273262500760000e-002) (43, -4.22518178820610050000e-002) (44, 1.45069025456905360000e-002) (45, 1.00986044853925700000e-002) (46, 9.17469114065170290000e-002) (47, 2.94220726937055590000e-002) (48, 9.43557471036911010000e-002) (49, 7.72529318928718570000e-002) (50, -1.02938218042254450000e-002) (51, -4.45543564856052400000e-002) (52, -5.45074380934238430000e-002) (53, -7.96860307455062870000e-002) (54, 5.85910715162754060000e-002) (55, -2.56094336509704590000e-003) (56, 3.46042662858963010000e-002) (57, -7.98159390687942500000e-002) (58, 5.10486438870429990000e-002) (59, 2.84577924758195880000e-002) (60, 3.20992097258567810000e-002) (61, 5.71794435381889340000e-003) (62, -6.57845661044120790000e-002) (63, 4.87918145954608920000e-002) (64, 2.34578214585781100000e-002) (65, -8.90698283910751340000e-003) (66, -9.48087219148874280000e-003) (67, -4.03895862400531770000e-002) (68, -7.66406506299972530000e-002) (69, -2.52980608493089680000e-002) (70, -7.68166333436965940000e-002) (71, -7.06500858068466190000e-002) (72, 6.06143139302730560000e-002) (73, 4.98193092644214630000e-002) (74, -6.70078769326210020000e-002) (75, -3.09781190007925030000e-002) (76, -7.23164305090904240000e-002) (77, 3.27141843736171720000e-002) (78, 3.16582582890987400000e-002) (79, -8.69560390710830690000e-002) (80, 7.40663632750511170000e-002) (81, 7.12152123451232910000e-002) (82, 8.80809035152196880000e-003) (83, -7.07140713930130000000e-002) (84, 4.38276641070842740000e-002) (85, -6.65593519806861880000e-002) (86, -6.65984749794006350000e-002) (87, -2.14749425649642940000e-002) (88, 9.32359769940376280000e-002) (89, 4.04443852603435520000e-002) (90, 9.62417200207710270000e-003) (91, 9.37076343689113860000e-004) (92, 3.51561084389686580000e-002) (93, -1.46072944626212120000e-002) (94, -1.00347936153411870000e-001) (95, -5.75418137013912200000e-002) (96, 7.22879394888877870000e-002) (97, -3.01813911646604540000e-002) (98, 5.33612482249736790000e-002) (99, -7.84513056278228760000e-002) (100, -6.85410723090171810000e-002) (101, -6.18309364654123780000e-004) (102, 2.16436828486621380000e-003) (103, -8.79879370331764220000e-002) (104, -3.53459157049655910000e-002) (105, -3.15530821681022640000e-002) (106, 5.09864510968327520000e-003) (107, -3.81228215992450710000e-002) (108, -2.67001036554574970000e-002) (109, -4.84068691730499270000e-002) (110, -3.06717287749052050000e-002) (111, -5.72389923036098480000e-002) (112, -5.89675679802894590000e-002) (113, 6.62393309175968170000e-003) (114, -5.75819127261638640000e-002) (115, -8.50270763039588930000e-002) (116, -9.33106318116188050000e-002) (117, -1.01328887045383450000e-001) (118, 6.83673694729804990000e-002) (119, -7.51213356852531430000e-002) (120, 2.71355453878641130000e-002) (121, 7.21099674701690670000e-002) (122, 7.03091323375701900000e-002) (123, 4.55487594008445740000e-002) (124, -7.60995671153068540000e-002) (125, 1.85304395854473110000e-002) (126, 8.32769572734832760000e-002) (127, 8.78420844674110410000e-002) (128, 5.64031973481178280000e-002) (0, 7.89901539683341980000e-002) (1, -5.08992731571197510000e-001) (2, -5.72694316506385800000e-002) (3, -2.12558638304471970000e-002) (4, 7.69681409001350400000e-002) (5, -5.89941293001174930000e-002) (6, -2.20107063651084900000e-002) (7, 3.52425538003444670000e-002) (8, 6.97880191728472710000e-003) (9, -5.36716617643833160000e-002) (10, -2.72537879645824430000e-002) (11, -8.79438668489456180000e-002) (12, -9.53255817294120790000e-002) (13, 5.23895695805549620000e-002) (14, 1.47597780451178550000e-002) (15, 3.52535732090473180000e-002) (16, -3.33976782858371730000e-002) (17, 2.24851034581661220000e-002) (18, 2.89160013198852540000e-002) (19, 1.97172891348600390000e-002) (20, 2.35415548086166380000e-002) (21, -3.14947403967380520000e-002) (22, 7.03854337334632870000e-002) (23, -3.60297933220863340000e-002) (24, 6.97731524705886840000e-002) (25, 5.80914206802845000000e-002) (26, -4.08646576106548310000e-002) (27, -3.84850949048995970000e-002) (28, 2.32553388923406600000e-002) (29, 6.17782659828662870000e-002) (30, 3.83664742112159730000e-002) (31, 5.48735298216342930000e-002) (32, -2.12946254760026930000e-002) (33, 6.32481053471565250000e-002) (34, -1.06523148715496060000e-001) (35, 1.19697360787540670000e-003) (36, -1.10103115439414980000e-001) (37, 5.92381367459893230000e-003) (38, -3.65642011165618900000e-002) (39, 7.77615085244178770000e-002) (40, 8.24738442897796630000e-002) (41, -3.59948724508285520000e-002) (42, -8.25477764010429380000e-002) (43, -1.04724921286106110000e-001) (44, 1.73692796379327770000e-002) (45, 5.44523708522319790000e-002) (46, 6.46444037556648250000e-002) (47, 8.51400662213563920000e-003) (48, 6.11222125589847560000e-002) (49, -3.72927151620388030000e-002) (50, 3.75670865178108220000e-002) (51, 9.62070673704147340000e-002) (52, 5.68605475127696990000e-002) (53, -6.27210438251495360000e-002) (54, -6.33852109313011170000e-002) (55, 1.64493285119533540000e-002) (56, 1.23036792501807210000e-002) (57, 1.62501893937587740000e-002) (58, -1.26785086467862130000e-002) (59, -2.84888520836830140000e-002) (60, 9.30248573422431950000e-002) (61, -8.16132947802543640000e-002) (62, -1.38036943972110750000e-002) (63, -1.00923322141170500000e-001) (64, 3.02756037563085560000e-002) (65, -6.22047157958149910000e-003) (66, 8.65915864706039430000e-002) (67, -6.27029016613960270000e-002) (68, 1.32604464888572690000e-002) (69, 5.33433780074119570000e-002) (70, -9.02506150305271150000e-003) (71, -2.84997131675481800000e-002) (72, -3.55922952294349670000e-002) (73, 6.76455423235893250000e-002) (74, 8.58742967247962950000e-002) (75, 4.88088950514793400000e-002) (76, 9.91743132472038270000e-002) (77, 1.49033730849623680000e-002) (78, -4.08281348645687100000e-002) (79, -6.19058683514595030000e-002) (80, -1.11321263015270230000e-001) (81, 6.69993236660957340000e-002) (82, -3.08393370360136030000e-002) (83, -3.71561571955680850000e-002) (84, 6.80055618286132810000e-002) (85, 7.84435346722602840000e-002) (86, -7.34982937574386600000e-002) (87, -5.15359081327915190000e-002) (88, -3.64008024334907530000e-002) (89, -2.70254742354154590000e-002) (90, 4.67298086732625960000e-003) (91, -8.18329676985740660000e-002) (92, -7.41004645824432370000e-002) (93, 3.25967893004417420000e-002) (94, 5.72699718177318570000e-002) (95, -6.17480315268039700000e-002) (96, -4.02682758867740630000e-002) (97, -9.63976606726646420000e-002) (98, -4.58192266523838040000e-002) (99, 4.73763830959796910000e-002) (100, -3.59629727900028230000e-002) (101, -2.94625777751207350000e-002) (102, -1.66177973151206970000e-002) (103, 3.88082712888717650000e-002) (104, -4.50367219746112820000e-002) (105, -2.06491928547620770000e-002) (106, -3.58241098001599310000e-003) (107, 2.42273472249507900000e-002) (108, -5.16438968479633330000e-002) (109, -8.91801118850708010000e-002) (110, 9.29008498787879940000e-002) (111, 8.56637805700302120000e-002) (112, -9.24244523048400880000e-002) (113, 6.11574351787567140000e-002) (114, 9.67803522944450380000e-002) (115, 4.61499989032745360000e-002) (116, 5.66628575325012210000e-002) (117, 6.23206496238708500000e-002) (118, -1.04872481897473340000e-002) (119, -2.41510663181543350000e-002) (120, -5.57949170470237730000e-002) (121, 2.54385359585285190000e-002) (122, -7.59314000606536870000e-002) (123, 1.50378011167049410000e-002) (124, 1.21784824877977370000e-002) (125, 7.00900191441178320000e-003) (126, 8.55840090662240980000e-003) (127, -4.36384342610836030000e-002) (128, 2.57656793110072610000e-004) (129, -5.76295316219329830000e-001) (130, 6.34699016809463500000e-002) (131, 4.39612299203872680000e-001) (132, 1.70208200812339780000e-001) (133, -2.14578896760940550000e-001) (134, 3.56786623597145080000e-002) (135, 2.32009440660476680000e-001) (136, 5.95203936100006100000e-002) (137, 4.78162825107574460000e-001) (129, 7.41475224494934080000e-001) (130, -4.13710222346708180000e-005) (131, -4.39956456422805790000e-001) (132, 9.55533161759376530000e-002) (133, 2.12902411818504330000e-001) (134, 6.67057484388351440000e-002) (135, 1.94051545113325120000e-002) (136, 1.56216934323310850000e-001) (137, 1.76760151982307430000e-001) 
