FANN_FLO_2.1
num_layers=3
learning_rate=0.700000
connection_rate=1.000000
network_type=0
learning_momentum=0.000000
training_algorithm=3
train_error_function=1
train_stop_function=0
cascade_output_change_fraction=0.010000
quickprop_decay=-0.000100
quickprop_mu=1.750000
rprop_increase_factor=1.200000
rprop_decrease_factor=0.500000
rprop_delta_min=0.000000
rprop_delta_max=50.000000
rprop_delta_zero=0.100000
cascade_output_stagnation_epochs=12
cascade_candidate_change_fraction=0.010000
cascade_candidate_stagnation_epochs=12
cascade_max_out_epochs=150
cascade_max_cand_epochs=150
cascade_num_candidate_groups=2
bit_fail_limit=3.49999994039535520000e-001
cascade_candidate_limit=1.00000000000000000000e+003
cascade_weight_multiplier=4.00000005960464480000e-001
cascade_activation_functions_count=10
cascade_activation_functions=3 5 7 8 10 11 14 15 16 17 
cascade_activation_steepnesses_count=4
cascade_activation_steepnesses=2.50000000000000000000e-001 5.00000000000000000000e-001 7.50000000000000000000e-001 1.00000000000000000000e+000 
layer_sizes=129 9 3 
scale_included=0
neurons (num_inputs, activation_function, activation_steepness)=(0, 0, 0.00000000000000000000e+000) (0, 0, 0.00000000000000000000e+000) (0, 0, 0.00000000000000000000e+000) (0, 0, 0.00000000000000000000e+000) (0, 0, 0.00000000000000000000e+000) (0, 0, 0.00000000000000000000e+000) (0, 0, 0.00000000000000000000e+000) (0, 0, 0.00000000000000000000e+000) (0, 0, 0.00000000000000000000e+000) (0, 0, 0.00000000000000000000e+000) (0, 0, 0.00000000000000000000e+000) (0, 0, 0.00000000000000000000e+000) (0, 0, 0.00000000000000000000e+000) (0, 0, 0.00000000000000000000e+000) (0, 0, 0.00000000000000000000e+000) (0, 0, 0.00000000000000000000e+000) (0, 0, 0.00000000000000000000e+000) (0, 0, 0.00000000000000000000e+000) (0, 0, 0.00000000000000000000e+000) (0, 0, 0.00000000000000000000e+000) (0, 0, 0.00000000000000000000e+000) (0, 0, 0.00000000000000000000e+000) (0, 0, 0.00000000000000000000e+000) (0, 0, 0.00000000000000000000e+000) (0, 0, 0.00000000000000000000e+000) (0, 0, 0.00000000000000000000e+000) (0, 0, 0.00000000000000000000e+000) (0, 0, 0.00000000000000000000e+000) (0, 0, 0.00000000000000000000e+000) (0, 0, 0.00000000000000000000e+000) (0, 0, 0.00000000000000000000e+000) (0, 0, 0.00000000000000000000e+000) (0, 0, 0.00000000000000000000e+000) (0, 0, 0.00000000000000000000e+000) (0, 0, 0.00000000000000000000e+000) (0, 0, 0.00000000000000000000e+000) (0, 0, 0.00000000000000000000e+000) (0, 0, 0.00000000000000000000e+000) (0, 0, 0.00000000000000000000e+000) (0, 0, 0.00000000000000000000e+000) (0, 0, 0.00000000000000000000e+000) (0, 0, 0.00000000000000000000e+000) (0, 0, 0.00000000000000000000e+000) (0, 0, 0.00000000000000000000e+000) (0, 0, 0.00000000000000000000e+000) (0, 0, 0.00000000000000000000e+000) (0, 0, 0.00000000000000000000e+000) (0, 0, 0.00000000000000000000e+000) (0, 0, 0.00000000000000000000e+000) (0, 0, 0.00000000000000000000e+000) (0, 0, 0.00000000000000000000e+000) (0, 0, 0.00000000000000000000e+000) (0, 0, 0.00000000000000000000e+000) (0, 0, 0.00000000000000000000e+000) (0, 0, 0.00000000000000000000e+000) (0, 0, 0.00000000000000000000e+000) (0, 0, 0.00000000000000000000e+000) (0, 0, 0.00000000000000000000e+000) (0, 0, 0.00000000000000000000e+000) (0, 0, 0.00000000000000000000e+000) (0, 0, 0.00000000000000000000e+000) (0, 0, 0.00000000000000000000e+000) (0, 0, 0.00000000000000000000e+000) (0, 0, 0.00000000000000000000e+000) (0, 0, 0.00000000000000000000e+000) (0, 0, 0.00000000000000000000e+000) (0, 0, 0.00000000000000000000e+000) (0, 0, 0.00000000000000000000e+000) (0, 0, 0.00000000000000000000e+000) (0, 0, 0.00000000000000000000e+000) (0, 0, 0.00000000000000000000e+000) (0, 0, 0.00000000000000000000e+000) (0, 0, 0.00000000000000000000e+000) (0, 0, 0.00000000000000000000e+000) (0, 0, 0.00000000000000000000e+000) (0, 0, 0.00000000000000000000e+000) (0, 0, 0.00000000000000000000e+000) (0, 0, 0.00000000000000000000e+000) (0, 0, 0.00000000000000000000e+000) (0, 0, 0.00000000000000000000e+000) (0, 0, 0.00000000000000000000e+000) (0, 0, 0.00000000000000000000e+000) (0, 0, 0.00000000000000000000e+000) (0, 0, 0.00000000000000000000e+000) (0, 0, 0.00000000000000000000e+000) (0, 0, 0.00000000000000000000e+000) (0, 0, 0.00000000000000000000e+000) (0, 0, 0.00000000000000000000e+000) (0, 0, 0.00000000000000000000e+000) (0, 0, 0.00000000000000000000e+000) (0, 0, 0.00000000000000000000e+000) (0, 0, 0.00000000000000000000e+000) (0, 0, 0.00000000000000000000e+000) (0, 0, 0.00000000000000000000e+000) (0, 0, 0.00000000000000000000e+000) (0, 0, 0.00000000000000000000e+000) (0, 0, 0.00000000000000000000e+000) (0, 0, 0.00000000000000000000e+000) (0, 0, 0.00000000000000000000e+000) (0, 0, 0.00000000000000000000e+000) (0, 0, 0.00000000000000000000e+000) (0, 0, 0.00000000000000000000e+000) (0, 0, 0.00000000000000000000e+000) (0, 0, 0.00000000000000000000e+000) (0, 0, 0.00000000000000000000e+000) (0, 0, 0.00000000000000000000e+000) (0, 0, 0.00000000000000000000e+000) (0, 0, 0.00000000000000000000e+000) (0, 0, 0.00000000000000000000e+000) (0, 0, 0.00000000000000000000e+000) (0, 0, 0.00000000000000000000e+000) (0, 0, 0.00000000000000000000e+000) (0, 0, 0.00000000000000000000e+000) (0, 0, 0.00000000000000000000e+000) (0, 0, 0.00000000000000000000e+000) (0, 0, 0.00000000000000000000e+000) (0, 0, 0.00000000000000000000e+000) (0, 0, 0.00000000000000000000e+000) (0, 0, 0.00000000000000000000e+000) (0, 0, 0.00000000000000000000e+000) (0, 0, 0.00000000000000000000e+000) (0, 0, 0.00000000000000000000e+000) (0, 0, 0.00000000000000000000e+000) (0, 0, 0.00000000000000000000e+000) (0, 0, 0.00000000000000000000e+000) (0, 0, 0.00000000000000000000e+000) (0, 0, 0.00000000000000000000e+000) (0, 0, 0.00000000000000000000e+000) (0, 0, 0.00000000000000000000e+000) (129, 4, 1.10000002384185790000e+000) (129, 4, 1.10000002384185790000e+000) (129, 4, 1.10000002384185790000e+000) (129, 4, 1.10000002384185790000e+000) (129, 4, 1.10000002384185790000e+000) (129, 4, 1.10000002384185790000e+000) (129, 4, 1.10000002384185790000e+000) (129, 4, 1.10000002384185790000e+000) (0, 4, 1.10000002384185790000e+000) (9, 5, 1.00000000000000000000e+000) (9, 5, 1.00000000000000000000e+000) (0, 5, 1.00000000000000000000e+000) 
connections (connected_to_neuron, weight)=(0, 6.21378757059574130000e-002) (1, -1.16986045613884930000e-002) (2, 9.30331200361251830000e-002) (3, 7.33741447329521180000e-002) (4, 1.25487819314002990000e-001) (5, -6.17001811042428020000e-003) (6, -8.44853222370147710000e-002) (7, 4.66413721442222600000e-002) (8, -3.42044346034526820000e-002) (9, 1.33332908153533940000e-001) (10, 4.95285317301750180000e-002) (11, 7.84157440066337590000e-002) (12, -9.08292829990386960000e-002) (13, 7.28174746036529540000e-002) (14, -1.64040329400449990000e-003) (15, -2.08131875842809680000e-002) (16, 5.29908202588558200000e-003) (17, -7.71953985095024110000e-002) (18, 7.76685178279876710000e-002) (19, 1.09028488397598270000e-001) (20, 7.14440480805933480000e-004) (21, 8.38758125901222230000e-002) (22, -1.41168925911188130000e-002) (23, 7.40161091089248660000e-002) (24, 2.39868760108947750000e-002) (25, -9.81938391923904420000e-002) (26, 4.29033301770687100000e-002) (27, -1.01263046264648440000e-001) (28, 1.65254566818475720000e-002) (29, 3.44325155019760130000e-002) (30, -3.04401256144046780000e-002) (31, 4.47594039142131810000e-002) (32, -7.97970071434974670000e-002) (33, 1.17880245670676230000e-002) (34, 4.13711601868271830000e-003) (35, -1.63298845291137700000e-003) (36, -4.94276918470859530000e-002) (37, 9.87963303923606870000e-002) (38, -8.37360844016075130000e-002) (39, -4.75487448275089260000e-002) (40, 2.20721121877431870000e-002) (41, 7.31727182865142820000e-002) (42, -3.86768691241741180000e-002) (43, -6.84695765376091000000e-002) (44, -1.63530316203832630000e-002) (45, -4.51206266880035400000e-002) (46, 3.57055068016052250000e-002) (47, 7.20149725675582890000e-002) (48, -3.37984785437583920000e-002) (49, -8.93539488315582280000e-002) (50, 2.92211789637804030000e-002) (51, 5.16849532723426820000e-002) (52, 9.80020500719547270000e-004) (53, 1.27718923613429070000e-002) (54, 1.16509748622775080000e-002) (55, 7.04954490065574650000e-002) (56, 5.47663681209087370000e-002) (57, 3.68920534849166870000e-001) (58, -1.59030910581350330000e-002) (59, 3.74373644590377810000e-002) (60, -7.06628710031509400000e-002) (61, -5.18754459917545320000e-002) (62, -2.28175912052392960000e-002) (63, 1.09723627567291260000e-001) (64, -2.35791737213730810000e-003) (65, 1.12874126061797140000e-002) (66, -4.44343745708465580000e-001) (67, -5.73411509394645690000e-002) (68, -4.75307293236255650000e-002) (69, 3.76695573329925540000e-001) (70, 5.06644845008850100000e-002) (71, 4.10086102783679960000e-003) (72, 3.18302121013402940000e-003) (73, 5.42916767299175260000e-002) (74, 7.25998356938362120000e-002) (75, 3.69066628627479080000e-003) (76, -1.39557034708559510000e-003) (77, 7.91907608509063720000e-002) (78, 5.85823990404605870000e-002) (79, 4.66512143611907960000e-002) (80, -4.20182682573795320000e-002) (81, 6.48842826485633850000e-002) (82, 4.27977629005908970000e-002) (83, -1.10924288630485530000e-001) (84, 3.58833558857440950000e-002) (85, 3.00750285387039180000e-002) (86, -8.85724462568759920000e-003) (87, 3.66152115166187290000e-002) (88, -6.56612291932106020000e-002) (89, -8.13872143626213070000e-002) (90, 7.22183883190155030000e-002) (91, 1.19200669229030610000e-001) (92, 9.85154509544372560000e-002) (93, 4.89446043968200680000e-001) (94, -2.62220725417137150000e-002) (95, -1.12040713429450990000e-002) (96, 3.78249548375606540000e-002) (97, 3.87400798499584200000e-002) (98, -1.35786551982164380000e-002) (99, 8.43245014548301700000e-002) (100, 3.11647772789001460000e+000) (101, -5.39500787854194640000e-002) (102, 7.62467980384826660000e-002) (103, 1.03492930531501770000e-001) (104, 5.45565307140350340000e-001) (105, 3.94999020500108600000e-004) (106, -4.59807097911834720000e-001) (107, 9.97914850711822510000e-001) (108, 1.01973198354244230000e-001) (109, 6.35570883750915530000e-001) (110, -4.73267912864685060000e-001) (111, 1.07218772172927860000e-002) (112, 5.31270876526832580000e-002) (113, 6.18918016552925110000e-002) (114, 1.75287555903196330000e-002) (115, -4.37456667423248290000e-002) (116, -1.11395485699176790000e-001) (117, 2.29834225028753280000e-002) (118, -8.18342342972755430000e-002) (119, 9.03635770082473750000e-002) (120, -6.16354346275329590000e-002) (121, -1.66458711028099060000e-002) (122, -8.76404438167810440000e-003) (123, -8.46918076276779170000e-002) (124, 2.91654616594314580000e-002) (125, -1.18800386786460880000e-001) (126, 2.07798350602388380000e-002) (127, -1.40424475073814390000e-001) (128, -9.98282805085182190000e-002) (0, -7.90604017674922940000e-003) (1, -1.16744590923190120000e-002) (2, 4.49367761611938480000e-002) (3, -8.96869972348213200000e-002) (4, 2.79301255941390990000e-002) (5, -1.01622864603996280000e-001) (6, -7.86809548735618590000e-002) (7, -8.30190181732177730000e-002) (8, -6.66031241416931150000e-002) (9, 1.32509395480155940000e-002) (10, -2.85558179020881650000e-002) (11, -1.42148379236459730000e-002) (12, -1.64894629269838330000e-002) (13, -7.65349417924880980000e-002) (14, 1.91553346812725070000e-002) (15, -9.26988758146762850000e-003) (16, -6.58232793211936950000e-002) (17, -7.41875618696212770000e-002) (18, -6.63129836320877080000e-002) (19, -9.42128896713256840000e-002) (20, -8.35395157337188720000e-002) (21, 6.36142268776893620000e-002) (22, -4.25745733082294460000e-002) (23, 6.28042919561266900000e-003) (24, -6.63226023316383360000e-002) (25, 8.36959555745124820000e-002) (26, -9.89157781004905700000e-002) (27, 3.67540344595909120000e-002) (28, 6.18369728326797490000e-002) (29, 1.11130867153406140000e-002) (30, -5.31268417835235600000e-002) (31, 6.25129640102386470000e-002) (32, -7.29236975312232970000e-002) (33, 7.39812552928924560000e-002) (34, -7.06907808780670170000e-002) (35, 9.79309678077697750000e-002) (36, -4.23892885446548460000e-002) (37, -1.05756431818008420000e-001) (38, -9.99606028199195860000e-002) (39, 6.64815306663513180000e-002) (40, -1.76835786551237110000e-002) (41, 2.13262531906366350000e-002) (42, 5.09128421545028690000e-002) (43, 9.38174128532409670000e-002) (44, -1.44086452201008800000e-002) (45, 2.84210196696221830000e-003) (46, -9.97076779603958130000e-002) (47, -5.61609305441379550000e-003) (48, -5.05781583487987520000e-002) (49, 5.97916543483734130000e-002) (50, 8.90503749251365660000e-002) (51, -5.60095012187957760000e-002) (52, -7.85973146557807920000e-002) (53, -1.18814809247851370000e-002) (54, -8.79091918468475340000e-002) (55, 7.77956247329711910000e-002) (56, -5.31134270131587980000e-002) (57, 5.01038599759340290000e-003) (58, -6.82663097977638240000e-002) (59, 6.37966543436050420000e-002) (60, 4.42107580602169040000e-002) (61, 4.12730015814304350000e-002) (62, 5.30942827463150020000e-002) (63, 9.47778392583131790000e-003) (64, 6.85543660074472430000e-003) (65, -5.44939115643501280000e-002) (66, -5.29759190976619720000e-003) (67, 2.97110341489315030000e-002) (68, 9.98262967914342880000e-003) (69, -9.11142304539680480000e-002) (70, 8.95558483898639680000e-003) (71, 2.32615582644939420000e-002) (72, -6.95773512125015260000e-002) (73, 2.63717528432607650000e-002) (74, 7.80119523406028750000e-002) (75, 4.27148491144180300000e-002) (76, -9.98772382736206050000e-002) (77, 7.51606523990631100000e-002) (78, -4.96496707201004030000e-002) (79, 9.26403105258941650000e-002) (80, 5.72501681745052340000e-002) (81, 5.38031980395317080000e-002) (82, 2.14403420686721800000e-002) (83, 1.70790739357471470000e-002) (84, 9.67114884406328200000e-003) (85, 8.45221802592277530000e-002) (86, -8.37209373712539670000e-002) (87, 1.34831266477704050000e-002) (88, 8.36714580655097960000e-002) (89, -9.82420220971107480000e-002) (90, -2.42908503860235210000e-002) (91, -7.98158645629882810000e-002) (92, -9.67139229178428650000e-002) (93, 7.15975835919380190000e-002) (94, 1.41102503985166550000e-002) (95, -7.97747168689966200000e-003) (96, -1.84138379991054530000e-002) (97, 6.92109912633895870000e-002) (98, -7.35391080379486080000e-002) (99, -5.68439885973930360000e-002) (100, 1.72720663249492650000e-002) (101, 8.82782414555549620000e-003) (102, -9.27779749035835270000e-002) (103, 2.31705904006958010000e-002) (104, 6.40269741415977480000e-002) (105, -1.00231096148490910000e-001) (106, -1.44703304395079610000e-002) (107, 1.73226799815893170000e-002) (108, -8.69413092732429500000e-003) (109, -3.52321565151214600000e-002) (110, -9.42093357443809510000e-002) (111, -9.83099341392517090000e-002) (112, -6.78009390830993650000e-002) (113, -1.47124072536826130000e-002) (114, 1.90650839358568190000e-002) (115, -6.87116310000419620000e-002) (116, 7.35417082905769350000e-002) (117, -1.01579532027244570000e-001) (118, 7.07900896668434140000e-002) (119, -7.18842744827270510000e-002) (120, 2.95123811811208720000e-002) (121, -9.81731712818145750000e-002) (122, -4.26091402769088750000e-002) (123, -8.00694748759269710000e-002) (124, 2.77451556175947190000e-002) (125, -1.06414936482906340000e-001) (126, 1.42359072342514990000e-002) (127, 2.76354793459177020000e-003) (128, -1.34808167815208440000e-001) (0, -4.95768561959266660000e-002) (1, 9.00365486741065980000e-002) (2, 8.05942050646990540000e-004) (3, -1.55918635427951810000e-002) (4, 3.32083776593208310000e-002) (5, 3.28950770199298860000e-002) (6, -2.01897751539945600000e-002) (7, -4.12480905652046200000e-002) (8, 1.84295792132616040000e-003) (9, -3.43303419649600980000e-002) (10, -1.99215169996023180000e-002) (11, 9.07753780484199520000e-002) (12, -8.12487751245498660000e-002) (13, 3.85976992547512050000e-002) (14, -9.41706914454698560000e-003) (15, 6.31302893161773680000e-002) (16, 7.00779482722282410000e-002) (17, -2.06317622214555740000e-002) (18, 7.28627443313598630000e-002) (19, 6.90726935863494870000e-002) (20, -4.58891093730926510000e-002) (21, -6.60553500056266780000e-002) (22, -6.01825602352619170000e-002) (23, 8.61312225461006160000e-002) (24, 1.16934105753898620000e-002) (25, -3.26963327825069430000e-002) (26, 2.56411600857973100000e-002) (27, -2.55229175090789790000e-002) (28, -1.60754490643739700000e-002) (29, -2.07552518695592880000e-002) (30, -5.98849281668663020000e-002) (31, 4.28797751665115360000e-002) (32, 8.74974429607391360000e-002) (33, 6.47897496819496150000e-002) (34, -8.60258713364601140000e-002) (35, 8.50754380226135250000e-002) (36, -7.93880894780159000000e-002) (37, -8.78247618675231930000e-002) (38, -7.24007114768028260000e-002) (39, 3.08517497032880780000e-002) (40, -6.93636462092399600000e-002) (41, -6.62779062986373900000e-002) (42, 2.40990463644266130000e-002) (43, -2.58711911737918850000e-002) (44, 1.35837709531188010000e-002) (45, -6.79808557033538820000e-002) (46, -9.13496240973472600000e-002) (47, -7.87542313337326050000e-002) (48, 7.85674229264259340000e-002) (49, -7.51453191041946410000e-002) (50, 4.33777421712875370000e-002) (51, -2.27177999913692470000e-002) (52, 4.04203459620475770000e-002) (53, -2.76869740337133410000e-002) (54, -9.31194126605987550000e-002) (55, -9.78063791990280150000e-002) (56, 6.54198303818702700000e-002) (57, -1.82717610150575640000e-002) (58, 8.02990719676017760000e-002) (59, -8.23797732591629030000e-002) (60, 9.36361029744148250000e-002) (61, 7.90710449218750000000e-002) (62, 6.58888369798660280000e-002) (63, -1.10638113692402840000e-002) (64, 5.03596998751163480000e-002) (65, 4.47504371404647830000e-002) (66, 1.66488007380394270000e-005) (67, 4.65384870767593380000e-002) (68, -7.04688951373100280000e-002) (69, 4.13362681865692140000e-002) (70, -2.31008566915988920000e-002) (71, 3.30827273428440090000e-002) (72, -7.64183327555656430000e-002) (73, -6.08353130519390110000e-002) (74, -9.62739959359169010000e-002) (75, -8.78371372818946840000e-002) (76, 8.64456072449684140000e-002) (77, -9.02128368616104130000e-002) (78, -4.14867736399173740000e-002) (79, -1.54513176530599590000e-002) (80, -4.33817766606807710000e-002) (81, 5.96898645162582400000e-002) (82, -3.53347100317478180000e-002) (83, -3.72359119355678560000e-002) (84, -9.54329501837491990000e-003) (85, 7.49121904373168950000e-002) (86, 3.01785580813884740000e-002) (87, -1.69309042394161220000e-002) (88, -9.69308316707611080000e-002) (89, -6.27982690930366520000e-002) (90, 6.79377391934394840000e-002) (91, -9.44081842899322510000e-002) (92, 8.95962305366992950000e-003) (93, -9.04676541686058040000e-002) (94, 6.99720606207847600000e-002) (95, 3.56148891150951390000e-002) (96, -3.15506346523761750000e-002) (97, -8.51313993334770200000e-002) (98, -1.22844213619828220000e-002) (99, -3.54527346789836880000e-002) (100, -9.50789079070091250000e-002) (101, -3.07629164308309560000e-002) (102, -6.71131387352943420000e-002) (103, 5.87557069957256320000e-002) (104, 2.35375221818685530000e-002) (105, -7.29728564620018010000e-002) (106, -4.07158322632312770000e-002) (107, -8.84892717003822330000e-002) (108, 7.20585435628890990000e-002) (109, -9.68651250004768370000e-002) (110, -8.60790237784385680000e-002) (111, -5.11256195604801180000e-002) (112, 8.72522890567779540000e-002) (113, 3.30277718603610990000e-002) (114, -3.16214136546477680000e-004) (115, -4.85601508989930150000e-003) (116, 1.52784716337919240000e-002) (117, 5.71139939129352570000e-002) (118, 7.72174596786499020000e-002) (119, -3.14474292099475860000e-002) (120, -6.89513981342315670000e-002) (121, -1.18371471762657170000e-001) (122, -5.02896979451179500000e-002) (123, -5.52256219089031220000e-002) (124, -2.25451085716485980000e-002) (125, 5.32391816377639770000e-002) (126, 2.52675600349903110000e-002) (127, -5.81592842936515810000e-002) (128, -2.30029206722974780000e-002) (0, -6.59680962562561040000e-002) (1, -7.44724199175834660000e-002) (2, -1.80352814495563510000e-002) (3, -6.86728730797767640000e-002) (4, 7.68160969018936160000e-002) (5, -2.28157844394445420000e-002) (6, 1.02902948856353760000e-001) (7, -9.31591913104057310000e-002) (8, 6.95942761376500130000e-003) (9, 5.38054155185818670000e-003) (10, -1.99624076485633850000e-002) (11, -3.89532819390296940000e-002) (12, -3.47426421940326690000e-002) (13, -7.14561641216278080000e-002) (14, -9.77984443306922910000e-002) (15, -6.31384998559951780000e-002) (16, 7.18763321638107300000e-002) (17, 7.90997073054313660000e-002) (18, -6.63436502218246460000e-002) (19, 3.01880873739719390000e-002) (20, -3.24063897132873540000e-002) (21, -1.07839237898588180000e-002) (22, -2.08986699581146240000e-002) (23, 7.53536075353622440000e-002) (24, -3.05603183805942540000e-002) (25, -7.90834873914718630000e-002) (26, -5.21945096552371980000e-002) (27, 4.75169084966182710000e-002) (28, -7.43126645684242250000e-002) (29, 4.36591729521751400000e-002) (30, -8.35138633847236630000e-002) (31, 1.24298362061381340000e-002) (32, 8.98354873061180110000e-002) (33, -6.43525198101997380000e-002) (34, -4.49949055910110470000e-002) (35, 1.85591354966163640000e-002) (36, 1.64529588073492050000e-002) (37, -4.27597686648368840000e-002) (38, -3.27804721891880040000e-002) (39, -7.78309926390647890000e-002) (40, -3.30857448279857640000e-002) (41, -5.49237839877605440000e-002) (42, 5.33912070095539090000e-002) (43, 7.82340019941329960000e-002) (44, -2.70865131169557570000e-002) (45, -8.65950211882591250000e-002) (46, -6.39370381832122800000e-002) (47, -5.22070899605751040000e-002) (48, -1.07527837157249450000e-001) (49, -8.80119651556015010000e-002) (50, -2.06361487507820130000e-002) (51, -1.17967883124947550000e-002) (52, 6.72695487737655640000e-002) (53, -1.04488112032413480000e-001) (54, 9.66220945119857790000e-002) (55, 8.07269141077995300000e-002) (56, 3.44489142298698430000e-002) (57, -6.79533183574676510000e-002) (58, 2.46290676295757290000e-002) (59, -8.06331783533096310000e-002) (60, 1.85592230409383770000e-002) (61, -4.44231964647769930000e-002) (62, 7.93000608682632450000e-002) (63, -1.49565227329730990000e-002) (64, 6.39532878994941710000e-002) (65, -8.20295810699462890000e-002) (66, -9.77992564439773560000e-002) (67, 9.87541601061820980000e-002) (68, 3.56664471328258510000e-002) (69, -3.70590649545192720000e-002) (70, 2.16814130544662480000e-002) (71, -3.66782955825328830000e-002) (72, -9.16550531983375550000e-002) (73, -8.57274159789085390000e-002) (74, 3.20999473333358760000e-002) (75, -3.90490442514419560000e-002) (76, -4.19689416885375980000e-002) (77, -8.75590890645980830000e-002) (78, -4.90147527307271960000e-003) (79, 1.94715114776045080000e-003) (80, 9.06929820775985720000e-002) (81, 5.27003407478332520000e-002) (82, 1.42470281571149830000e-002) (83, 3.00997532904148100000e-002) (84, -5.88563270866870880000e-004) (85, -8.28061178326606750000e-002) (86, -7.42934867739677430000e-002) (87, -8.30554813146591190000e-002) (88, 4.10973988473415370000e-002) (89, 5.55109530687332150000e-002) (90, 8.15102159976959230000e-002) (91, 7.89181515574455260000e-002) (92, 7.59797468781471250000e-002) (93, 7.01924692839384080000e-003) (94, 2.56577488034963610000e-002) (95, -8.15145149827003480000e-002) (96, -3.06898504495620730000e-002) (97, 6.80357068777084350000e-002) (98, 3.59157547354698180000e-002) (99, -2.89263594895601270000e-002) (100, 2.49884761869907380000e-002) (101, -4.30974960327148440000e-002) (102, -4.91640605032444000000e-002) (103, 4.82500828802585600000e-002) (104, 1.84280667454004290000e-002) (105, -1.03123314678668980000e-001) (106, -1.58634800463914870000e-002) (107, -9.66936424374580380000e-002) (108, 5.18348962068557740000e-002) (109, 2.66026165336370470000e-002) (110, -3.92976664006710050000e-002) (111, 1.43698388710618020000e-002) (112, 4.76407445967197420000e-002) (113, 6.10507652163505550000e-003) (114, 2.56407111883163450000e-002) (115, 4.10917326807975770000e-002) (116, -5.21378889679908750000e-002) (117, 3.91183793544769290000e-002) (118, 8.04753899574279790000e-002) (119, 5.59041313827037810000e-002) (120, 1.83636806905269620000e-002) (121, -4.72649782896041870000e-002) (122, -2.22076289355754850000e-002) (123, 4.03518751263618470000e-002) (124, 5.77898845076560970000e-002) (125, 1.01173883303999900000e-002) (126, -3.00585315562784670000e-003) (127, -1.75910759717226030000e-002) (128, 7.59612023830413820000e-002) (0, -1.03288233280181880000e-001) (1, -5.30812591314315800000e-002) (2, 2.34189443290233610000e-002) (3, -5.80224543809890750000e-002) (4, -2.95702684670686720000e-002) (5, -6.92037567496299740000e-002) (6, -3.35590243339538570000e-002) (7, -1.40847116708755490000e-001) (8, 5.28002828359603880000e-002) (9, -2.05666497349739070000e-002) (10, -9.42871347069740300000e-002) (11, -7.70531445741653440000e-002) (12, -8.76065716147422790000e-002) (13, 5.55328577756881710000e-002) (14, 9.76603757590055470000e-003) (15, 2.28573326021432880000e-002) (16, -8.01612716168165210000e-003) (17, 5.68530969321727750000e-002) (18, 7.00812265276908870000e-002) (19, -6.95343129336833950000e-003) (20, 6.21996968984603880000e-002) (21, -1.44039988517761230000e-002) (22, 4.73091825842857360000e-002) (23, 5.26370853185653690000e-002) (24, -9.54814180731773380000e-002) (25, -8.59155058860778810000e-002) (26, -8.60182642936706540000e-002) (27, -5.46686463057994840000e-002) (28, -7.56917148828506470000e-002) (29, 5.59879885986447330000e-003) (30, 6.11790977418422700000e-002) (31, -7.54794701933860780000e-002) (32, 7.61828944087028500000e-002) (33, 8.46944302320480350000e-002) (34, 2.69592776894569400000e-002) (35, 2.51368451863527300000e-002) (36, -7.65584260225296020000e-002) (37, -5.82789480686187740000e-002) (38, 5.10304495692253110000e-002) (39, 4.48228232562541960000e-002) (40, -9.20316800475120540000e-002) (41, -1.95650737732648850000e-002) (42, -6.63390979170799260000e-002) (43, 4.39066700637340550000e-002) (44, 2.75862757116556170000e-002) (45, 7.81388878822326660000e-002) (46, -3.83806750178337100000e-002) (47, 6.18382804095745090000e-002) (48, 2.54395939409732820000e-002) (49, -5.86223378777503970000e-002) (50, 5.34231252968311310000e-002) (51, 9.67663452029228210000e-002) (52, -1.05806112289428710000e-001) (53, 1.11399471759796140000e-001) (54, 4.28763404488563540000e-002) (55, 5.74798099696636200000e-002) (56, 1.23110622167587280000e-001) (57, -4.35133337974548340000e-001) (58, 1.17393145337700840000e-002) (59, -1.18533158674836160000e-002) (60, 9.65450182557106020000e-002) (61, 6.70095905661582950000e-002) (62, -2.02130213379859920000e-001) (63, 6.96675628423690800000e-002) (64, 1.55765771865844730000e-001) (65, -5.21835461258888240000e-002) (66, -1.70924700796604160000e-002) (67, -6.47606179118156430000e-002) (68, -4.99556809663772580000e-001) (69, 1.64016872644424440000e-001) (70, 3.99965912103652950000e-001) (71, -4.34132330119609830000e-002) (72, 3.21984171867370610000e-001) (73, 3.29107731580734250000e-001) (74, 2.71190667152404790000e+000) (75, -7.51818865537643430000e-002) (76, -2.19650343060493470000e-002) (77, 4.02679830789566040000e-001) (78, 3.38741362094879150000e-001) (79, -4.33964207768440250000e-002) (80, -8.97229388356208800000e-002) (81, -8.62048193812370300000e-002) (82, 4.83419783413410190000e-002) (83, 7.24867405369877820000e-003) (84, -6.61629065871238710000e-002) (85, 9.16501805186271670000e-002) (86, -1.33075602352619170000e-002) (87, -6.04088120162487030000e-002) (88, -3.92077257856726650000e-004) (89, 8.05796906352043150000e-002) (90, -5.05215600132942200000e-002) (91, -2.94113922864198680000e-002) (92, 2.16491259634494780000e-002) (93, 2.79988558031618600000e-003) (94, -2.92460503987967970000e-003) (95, 8.00387188792228700000e-002) (96, -6.66152313351631160000e-002) (97, -2.03853622078895570000e-002) (98, 5.73409199714660640000e-002) (99, -1.03806182742118840000e-001) (100, -7.44320228695869450000e-002) (101, -9.74094644188880920000e-002) (102, -3.33102606236934660000e-002) (103, -5.58741129934787750000e-002) (104, 4.18623352050781250000e+000) (105, 2.07473874092102050000e+000) (106, 8.01358342170715330000e-001) (107, 6.71308517456054690000e+000) (108, 2.45004677772521970000e+000) (109, 3.75347352027893070000e+000) (110, 2.01087743043899540000e-001) (111, 3.38826358318328860000e-001) (112, -1.14070422947406770000e-001) (113, -1.14013701677322390000e-001) (114, -1.06671184301376340000e-001) (115, -4.76629137992858890000e-002) (116, -8.37486516684293750000e-003) (117, -8.30077752470970150000e-002) (118, -9.37370061874389650000e-002) (119, -1.97776015847921370000e-002) (120, -3.03237885236740110000e-002) (121, 1.61147490143775940000e-002) (122, 6.45602215081453320000e-003) (123, -1.53734207153320310000e-001) (124, -4.22681681811809540000e-002) (125, -7.11107328534126280000e-002) (126, -1.52915464714169500000e-002) (127, -1.69543102383613590000e-001) (128, -1.04537449777126310000e-001) (0, -6.01483210921287540000e-002) (1, -4.77862060070037840000e-002) (2, -1.12482987344264980000e-001) (3, 1.30007667466998100000e-002) (4, -9.83828399330377580000e-003) (5, -1.19706593453884120000e-001) (6, -2.59214751422405240000e-002) (7, 6.51099532842636110000e-002) (8, -6.00138232111930850000e-002) (9, -9.80532467365264890000e-002) (10, -2.70063187927007680000e-002) (11, -7.01373890042304990000e-002) (12, 8.33307132124900820000e-002) (13, 3.64535152912139890000e-002) (14, 4.53838333487510680000e-002) (15, -2.09840796887874600000e-002) (16, 7.93554037809371950000e-002) (17, 5.03683909773826600000e-002) (18, -8.34582522511482240000e-002) (19, -2.59571224451065060000e-002) (20, 2.01074667274951930000e-002) (21, -5.79366236925125120000e-002) (22, 5.22788725793361660000e-002) (23, -1.04728370904922490000e-001) (24, 9.08059701323509220000e-002) (25, 2.59270984679460530000e-002) (26, 2.01552808284759520000e-002) (27, -1.69961452484130860000e-002) (28, 4.61733303964138030000e-002) (29, -1.43238222226500510000e-002) (30, 4.96458224952220920000e-002) (31, 2.12017036974430080000e-002) (32, 3.20355147123336790000e-002) (33, -9.04482379555702210000e-002) (34, 5.62777975574135780000e-003) (35, -3.79716306924819950000e-002) (36, 3.77845354378223420000e-002) (37, 4.27602604031562810000e-002) (38, 4.38535772264003750000e-002) (39, 2.72153541445732120000e-002) (40, -8.13444145023822780000e-003) (41, -8.21621492505073550000e-002) (42, 9.19789727777242660000e-003) (43, -7.76088610291481020000e-002) (44, 9.02684181928634640000e-002) (45, -8.43045413494110110000e-002) (46, -8.73720347881317140000e-002) (47, -9.99434366822242740000e-002) (48, -1.08333595097064970000e-001) (49, -2.45557669550180440000e-002) (50, -3.32410074770450590000e-002) (51, 2.89120227098464970000e-002) (52, -1.03876717388629910000e-001) (53, 2.56551783531904220000e-002) (54, 4.31801080703735350000e-002) (55, -3.53124039247632030000e-003) (56, -2.05818079411983490000e-002) (57, -9.58351716399192810000e-002) (58, -2.78568752110004430000e-002) (59, 1.38193089514970780000e-002) (60, -5.71499131619930270000e-002) (61, -8.77299085259437560000e-002) (62, -1.12901637330651280000e-002) (63, -8.71522501111030580000e-002) (64, -4.36820313334465030000e-002) (65, -9.28409472107887270000e-002) (66, -8.77467542886734010000e-002) (67, -7.49063715338706970000e-002) (68, 3.88538511469960210000e-003) (69, -8.20395424962043760000e-002) (70, -1.09776012599468230000e-001) (71, -6.75563365221023560000e-002) (72, -2.11407449096441270000e-002) (73, -5.14258816838264470000e-002) (74, -9.16043892502784730000e-002) (75, -4.55109812319278720000e-002) (76, -4.44542542099952700000e-002) (77, -6.81334882974624630000e-002) (78, -9.38292890787124630000e-002) (79, -5.91219626367092130000e-002) (80, -6.00889585912227630000e-002) (81, 7.71038532257080080000e-002) (82, -1.03364908136427400000e-003) (83, 4.00819592177867890000e-002) (84, -1.21817197650671010000e-002) (85, 3.53057053871452810000e-003) (86, -1.01279936730861660000e-001) (87, -6.97606280446052550000e-002) (88, 6.19448572397232060000e-002) (89, -6.72324523329734800000e-002) (90, 8.08445215225219730000e-002) (91, -8.87290015816688540000e-002) (92, 5.89704141020774840000e-002) (93, 7.38949850201606750000e-002) (94, 8.86527821421623230000e-002) (95, 3.67415882647037510000e-002) (96, 6.60203397274017330000e-002) (97, 5.46736223623156550000e-003) (98, 5.82860596477985380000e-002) (99, -3.73604968190193180000e-002) (100, 7.19993487000465390000e-002) (101, -7.71599262952804570000e-002) (102, 8.30965396016836170000e-003) (103, 1.65534578263759610000e-002) (104, 4.80849631130695340000e-002) (105, 7.89246335625648500000e-002) (106, -8.44556000083684920000e-003) (107, -8.29104408621788020000e-002) (108, 6.57355859875679020000e-002) (109, -6.80224671959877010000e-002) (110, -8.67330282926559450000e-002) (111, -3.99801544845104220000e-002) (112, -1.23884513974189760000e-001) (113, -1.11986719071865080000e-001) (114, 5.02373985946178440000e-002) (115, 1.89303215593099590000e-002) (116, 2.32651755213737490000e-002) (117, -6.96497112512588500000e-002) (118, 1.76471192389726640000e-002) (119, 6.68332949280738830000e-002) (120, 7.30607612058520320000e-003) (121, -7.37561061978340150000e-002) (122, -1.00351674482226370000e-002) (123, -2.01874040067195890000e-002) (124, -8.22780001908540730000e-003) (125, -1.01815581321716310000e-001) (126, -3.36823798716068270000e-002) (127, -7.65281617641448970000e-002) (128, -7.45797231793403630000e-002) (0, -8.41232091188430790000e-002) (1, -1.38979302719235420000e-002) (2, 2.21080295741558070000e-002) (3, -1.44475370645523070000e-001) (4, 6.02749688550829890000e-003) (5, -3.37156355381011960000e-002) (6, -2.60729193687438960000e-002) (7, 2.86039747297763820000e-002) (8, -4.80278953909873960000e-002) (9, -1.30732238292694090000e-001) (10, -8.90990942716598510000e-002) (11, -8.36810544133186340000e-002) (12, -3.07491398416459560000e-003) (13, -4.87461425364017490000e-002) (14, 1.49689819663763050000e-002) (15, -1.50695145130157470000e-002) (16, 2.32637785375118260000e-002) (17, -1.11605554819107060000e-001) (18, -4.52812500298023220000e-002) (19, 6.29325807094573970000e-002) (20, -3.93881574273109440000e-002) (21, 2.21544764935970310000e-002) (22, -4.28063943982124330000e-002) (23, 1.44726699218153950000e-002) (24, 3.04656885564327240000e-002) (25, -1.48498928174376490000e-002) (26, -3.60639989376068120000e-002) (27, 9.70954298973083500000e-002) (28, -1.17087597027421000000e-003) (29, -2.92331501841545100000e-002) (30, 4.06943969428539280000e-002) (31, 8.93500596284866330000e-002) (32, -5.80893736332654950000e-003) (33, 1.92951727658510210000e-002) (34, 8.32707504741847520000e-004) (35, 3.30875851213932040000e-002) (36, -6.26092329621315000000e-002) (37, 7.37584307789802550000e-002) (38, -1.08397223055362700000e-001) (39, 1.62249279022216800000e+000) (40, 1.77857615053653720000e-002) (41, 1.34625390172004700000e-001) (42, -4.97947260737419130000e-002) (43, -5.43396547436714170000e-002) (44, 2.97043286263942720000e-002) (45, 2.51118876039981840000e-002) (46, 8.60523730516433720000e-002) (47, 1.63190364837646480000e-002) (48, 6.58322051167488100000e-002) (49, 9.31218862533569340000e-002) (50, 9.95095819234848020000e-003) (51, -5.17252879217267040000e-003) (52, -1.05773746967315670000e-001) (53, -1.06965497136116030000e-001) (54, 7.00480490922927860000e-002) (55, 2.34911609441041950000e-002) (56, 5.35271763801574710000e-002) (57, -5.51918447017669680000e-002) (58, 5.36045655608177190000e-002) (59, 3.13728349283337590000e-003) (60, -1.74388036131858830000e-001) (61, 1.98243348859250550000e-003) (62, -7.63583034276962280000e-002) (63, 1.03043846320360900000e-003) (64, -4.27436269819736480000e-003) (65, 5.63550228253006940000e-003) (66, -1.72882117331027980000e-002) (67, -5.45302070677280430000e-002) (68, -7.01171606779098510000e-002) (69, -1.70113760977983470000e-002) (70, -6.11294098198413850000e-002) (71, -7.74453282356262210000e-002) (72, -2.28320717811584470000e-001) (73, -3.66492457687854770000e-002) (74, -4.62893471121788020000e-002) (75, -5.79648986458778380000e-002) (76, -4.49293375015258790000e-001) (77, -6.88029527664184570000e-002) (78, -8.30514729022979740000e-002) (79, -1.16452284157276150000e-001) (80, 1.10769838094711300000e-001) (81, 1.08462050557136540000e-001) (82, 5.42580783367156980000e-002) (83, -4.53798100352287290000e-002) (84, 5.02988025546073910000e-002) (85, -6.94275498390197750000e-002) (86, -8.89140814542770390000e-002) (87, -4.65928390622138980000e-002) (88, 8.95177349448204040000e-002) (89, 3.59873361885547640000e-002) (90, -2.47840676456689830000e-002) (91, -4.02890145778656010000e-002) (92, 1.52542826253920790000e-003) (93, 1.22856777161359790000e-002) (94, -1.11685574054718020000e-001) (95, -1.03047646582126620000e-001) (96, 7.19901397824287410000e-002) (97, 1.13252168521285060000e-002) (98, 8.26572775840759280000e-002) (99, -4.22735176980495450000e-002) (100, -9.72529053688049320000e-002) (101, 2.17207777313888070000e-003) (102, -2.80862469226121900000e-002) (103, -9.91280451416969300000e-002) (104, -4.79786917567253110000e-002) (105, -1.17950644344091420000e-002) (106, 3.76232787966728210000e-002) (107, -5.82306422293186190000e-002) (108, -3.64729948341846470000e-002) (109, -3.46029140055179600000e-002) (110, -3.77882737666368480000e-003) (111, -5.29488064348697660000e-002) (112, -3.39849069714546200000e-002) (113, -6.27161329612135890000e-003) (114, -7.62175172567367550000e-002) (115, -1.43758714199066160000e-001) (116, -8.58240649104118350000e-002) (117, -1.46487116813659670000e-001) (118, -2.62075901031494140000e-001) (119, -9.89927351474761960000e-002) (120, 3.28352838754653930000e-001) (121, 6.70754238963127140000e-002) (122, 1.17711223661899570000e-001) (123, 1.12032569944858550000e-001) (124, -3.18032391369342800000e-002) (125, 2.39740777760744090000e-002) (126, 8.68823230266571040000e-002) (127, 1.38955250382423400000e-001) (128, 4.29594181478023530000e-002) (0, 8.58671963214874270000e-002) (1, 1.40651287510991100000e-002) (2, -4.95827980339527130000e-002) (3, -8.90688505023717880000e-003) (4, 8.80811661481857300000e-002) (5, -4.70891967415809630000e-002) (6, -2.44703479111194610000e-002) (7, 4.69637773931026460000e-002) (8, 2.05108895897865300000e-002) (9, -5.00359870493412020000e-002) (10, -3.24078239500522610000e-002) (11, -8.63707661628723140000e-002) (12, -1.05735331773757930000e-001) (13, 5.58964721858501430000e-002) (14, 1.45580777898430820000e-002) (15, 2.93282698839902880000e-002) (16, -3.09494733810424800000e-002) (17, 4.56795133650302890000e-002) (18, 5.36211915314197540000e-002) (19, 3.05844694375991820000e-002) (20, 2.75119841098785400000e-002) (21, -1.86652448028326030000e-002) (22, 7.26327672600746150000e-002) (23, -3.20194363594055180000e-002) (24, 6.87338858842849730000e-002) (25, 5.80432303249835970000e-002) (26, -3.51565927267074580000e-002) (27, -4.09769453108310700000e-002) (28, 3.71830314397811890000e-002) (29, 6.63052201271057130000e-002) (30, 3.66299524903297420000e-002) (31, 5.67350797355175020000e-002) (32, -2.43783611804246900000e-002) (33, 6.51957690715789790000e-002) (34, -1.02300509810447690000e-001) (35, -1.23648811131715770000e-002) (36, -9.92204323410987850000e-002) (37, 2.84472275525331500000e-002) (38, -2.23855488002300260000e-002) (39, 8.58655422925949100000e-002) (40, 9.24753546714782710000e-002) (41, -1.54263805598020550000e-002) (42, -5.72665147483348850000e-002) (43, -8.70718657970428470000e-002) (44, 2.53055244684219360000e-002) (45, 7.15390592813491820000e-002) (46, 8.27790722250938420000e-002) (47, 2.46393177658319470000e-002) (48, 6.29881694912910460000e-002) (49, -4.28438447415828700000e-002) (50, 5.89619688689708710000e-002) (51, 9.49935913085937500000e-002) (52, 8.93433243036270140000e-002) (53, -5.45093826949596410000e-002) (54, -5.59604093432426450000e-002) (55, 2.13155094534158710000e-002) (56, 3.05824279785156250000e-002) (57, 2.03014928847551350000e-002) (58, -1.69577449560165410000e-002) (59, -2.32625883072614670000e-002) (60, 1.01161815226078030000e-001) (61, -7.09322169423103330000e-002) (62, -4.20218566432595250000e-003) (63, -9.00273174047470090000e-002) (64, 3.82865592837333680000e-002) (65, -1.70047059655189510000e-002) (66, 8.56857746839523320000e-002) (67, -5.92659786343574520000e-002) (68, 1.77682247012853620000e-002) (69, 4.69287894666194920000e-002) (70, -8.92390776425600050000e-003) (71, -2.09789872169494630000e-002) (72, -2.75914072990417480000e-002) (73, 7.40429833531379700000e-002) (74, 8.94461050629615780000e-002) (75, 5.17823807895183560000e-002) (76, 1.06014654040336610000e-001) (77, 2.08115670830011370000e-002) (78, -3.70257943868637080000e-002) (79, -5.78079707920551300000e-002) (80, -1.01400539278984070000e-001) (81, 8.67764726281166080000e-002) (82, -3.87109853327274320000e-002) (83, -4.97220531105995180000e-002) (84, 7.40828514099121090000e-002) (85, 8.36433544754981990000e-002) (86, -7.17208087444305420000e-002) (87, -4.81398291885852810000e-002) (88, -3.81090492010116580000e-002) (89, -2.65373736619949340000e-002) (90, 1.01167000830173490000e-002) (91, -7.56075158715248110000e-002) (92, -7.32728689908981320000e-002) (93, 2.48448848724365230000e-002) (94, 5.50277978181838990000e-002) (95, -5.71725219488143920000e-002) (96, -3.76764945685863490000e-002) (97, -9.31872650980949400000e-002) (98, -4.53982688486576080000e-002) (99, 4.05659228563308720000e-002) (100, -3.75886633992195130000e-002) (101, -3.36471945047378540000e-002) (102, -1.42431082203984260000e-002) (103, 3.61422188580036160000e-002) (104, -5.06191626191139220000e-002) (105, -2.56542731076478960000e-002) (106, -4.95926104485988620000e-003) (107, 2.64897588640451430000e-002) (108, -5.62848150730133060000e-002) (109, -9.88486558198928830000e-002) (110, 8.06186571717262270000e-002) (111, 7.89006501436233520000e-002) (112, -1.00589066743850710000e-001) (113, 5.84780611097812650000e-002) (114, 9.46345850825309750000e-002) (115, 5.68583272397518160000e-002) (116, 3.65011617541313170000e-002) (117, 5.84872178733348850000e-002) (118, -1.85477156192064290000e-002) (119, -2.92056128382682800000e-002) (120, -8.50289911031723020000e-002) (121, -8.72677541337907310000e-004) (122, -1.04129351675510410000e-001) (123, -1.14569840952754020000e-002) (124, -1.20865646749734880000e-002) (125, -1.66246090084314350000e-002) (126, -1.59903559833765030000e-002) (127, -7.24704414606094360000e-002) (128, -8.29780590720474720000e-004) (129, -1.70949891209602360000e-001) (130, 9.00672152638435360000e-002) (131, 3.03642619401216510000e-002) (132, 1.46133273839950560000e-001) (133, -2.56375253200531010000e-001) (134, 6.63272216916084290000e-002) (135, 4.81537520885467530000e-001) (136, 5.66257424652576450000e-002) (137, 3.54387223720550540000e-001) (129, 3.55090588331222530000e-001) (130, -2.26170569658279420000e-002) (131, 1.21298350393772130000e-001) (132, 9.49133485555648800000e-002) (133, 2.75894612073898320000e-001) (134, -7.08322366699576380000e-003) (135, -4.38285917043685910000e-001) (136, 1.99400290846824650000e-001) (137, 2.83587962388992310000e-001) 
